4029 64
142327 -0.26728642 -0.16532494 0.5212887 -1.096445 0.0567534 0.28784478 0.16923825 0.5283791 0.09072194 -0.28211862 0.40128604 -0.37916046 0.3709952 0.047965143 0.39358512 0.41066977 0.6019442 -0.113013476 0.091986015 -0.30377227 0.24764062 0.15959813 -0.022262763 0.23008582 0.21136467 -0.5029073 -0.30988908 0.034475528 -0.14293529 0.16394377 0.020805912 -0.236546 -0.3171626 -0.3339701 -0.1282713 -0.335602 -0.081458196 0.23396213 -0.2413084 0.29922765 0.4663971 0.055308092 0.16324349 -0.29625806 -0.5285547 -0.27181906 -0.4800428 0.013788584 0.19233236 0.21991138 0.16194277 -0.56953657 -0.021279931 -0.122919865 -0.4880122 -0.25683007 0.06376985 -0.23492518 -0.45948362 0.056329254 0.41139922 0.52463955 0.14210035 0.34641886
144075 0.11742821 -0.085966915 0.30213737 -0.62895805 0.04299274 0.18120272 -0.22724529 0.21391071 0.35487396 -0.14587083 -0.23413791 -0.09490146 -0.022336593 0.2607553 -0.0071763345 0.48662364 -0.01628346 -0.10733193 0.06624116 -0.11684417 -0.40238446 -0.3031963 -0.3156364 0.3532445 0.035253398 -0.7157395 0.1894627 0.38110152 -0.19668162 -0.16249123 -0.20477143 -0.07171085 0.20879085 -0.32023883 -0.10136837 -0.37974897 -0.16328132 0.557954 -0.2251249 0.34970182 -0.24515902 0.15635559 -0.53816456 -0.15622473 -0.07036382 0.11922206 -0.25227356 -0.02650126 0.48978636 0.100850046 0.20928775 -0.08352026 -0.13266447 0.49436876 0.050445803 -0.0057632243 0.15454791 -0.2570747 -0.5641674 0.20804586 0.56199586 0.29504088 -0.1602433 -0.05005058
142682 -0.00048120617 0.32238638 0.36642912 -0.25513864 0.449622 0.17512752 -0.1600173 0.19471543 -0.6285293 0.0874766 0.1450785 -0.53536975 0.078747675 -0.18862858 -0.4027519 -0.014784666 0.19240488 -0.055918068 -0.2195083 -0.2891928 -0.09443646 0.40924695 -0.2572144 0.2760279 -0.23487985 0.39969826 -0.28411412 -0.062069036 -0.3287125 -0.34448114 -0.91528076 0.01743649 -0.08384067 0.58905274 0.62689227 -0.31526288 -0.07398061 -0.03122008 -0.39826283 -0.43525702 -0.37010422 0.6201748 -0.07774203 -0.3069178 -0.37028578 0.09068476 -0.70254916 0.37047458 -0.4054959 0.1065892 -0.10592654 0.14440706 -0.35305202 0.6714771 0.0050385217 -0.405113 -0.22091316 -0.23887 0.048538566 -0.6105904 -0.25806773 0.22262289 0.29010338 -0.09907078
148450 0.362778 -0.08427127 0.17296845 -0.8184655 0.40989 0.45619267 0.7825133 0.22704716 -0.019915951 0.38760585 -1.0272541 -0.4165075 -0.5595156 0.49985173 -0.7726147 0.2790792 0.70202166 -0.3295143 -0.3629944 -0.50719625 -0.121188186 0.65337867 0.80174726 -0.13200928 -0.20669602 -0.53182346 0.15017743 0.22996314 -0.6714533 -0.3711632 -1.1359493 -0.24729443 -0.3144254 0.41939214 -0.6725124 0.52822644 0.038796954 0.2775762 0.65601844 0.1792491 -0.32530144 0.40895188 0.41087085 0.20545965 -0.8785079 -0.88910466 0.3342588 -0.31790146 -0.36661252 0.05222839 -0.17778856 0.2560628 -0.16976413 -0.3288382 0.035908952 -0.45284685 0.22020867 0.47209293 0.5899408 -0.63788706 -0.30894917 0.91348964 0.012382224 -0.78256124
147570 0.7584078 0.43280196 0.59309536 -0.5545322 0.8828291 0.005191836 0.08620642 0.2740422 -0.31900984 0.6598775 0.26461828 -0.16233906 0.43603516 -0.097945906 -0.19673648 -0.019255925 0.62310445 -0.28288606 0.37494853 -0.42663357 -0.7215438 0.36807847 0.50917995 0.16652659 -0.28375572 -0.12681852 -0.21189329 -0.46679118 -0.100028425 0.09016366 -0.5874485 0.027843624 -0.3613993 0.73489743 0.07282624 -0.12799735 0.120246194 -0.0029368233 -0.06309558 0.2279695 -0.3574089 0.2655584 -0.52449197 -0.22802165 -0.41655576 0.005162464 -0.46398225 0.4018802 0.40993315 -0.14298974 -0.55398774 -0.33068427 -0.09632551 0.19604641 0.19118126 -0.7077207 -0.5694926 0.17634186 0.37025437 -0.6980283 0.020049613 0.29203776 -0.22435305 -0.7253266
146065 0.84892875 -0.008790757 0.89387536 -0.46417063 -0.105191514 0.6766448 0.25921232 0.49892476 -0.11070172 -0.51706976 -0.761057 -0.19107768 -0.28036374 0.035757385 -0.39103213 -0.81569296 0.46155548 0.16143933 0.7656948 -0.21017268 -0.44595292 0.03852462 0.18070108 0.4966342 0.1547772 -0.61777425 0.7821221 0.13903677 -0.048667647 -0.29667687 -0.38626182 -0.58674717 0.4368443 0.07325502 0.2480391 -0.2625124 0.4216244 0.17998646 -0.39993748 -0.39941764 -0.082838334 -0.06024025 -0.11760517 -0.28228974 0.22150514 -0.142117 -0.5067865 0.23645616 -0.19007282 0.6599523 0.089815095 0.07584031 -0.4742356 0.6225538 0.42443466 -0.66099066 0.1381916 0.47690082 0.107624486 -0.03370156 -0.101028286 0.5731432 0.08214891 -0.28250337
147931 0.54342043 0.45848268 -0.27695128 -0.43634346 0.14983892 0.26368123 0.06708523 0.0974676 -0.81093603 -0.11934363 -0.74082536 -0.7693989 -0.06651001 0.08353541 -0.30966997 -0.3687137 -0.10048177 -0.17787202 -0.32607237 -0.62721735 -0.3860016 0.36061507 -0.7352362 -0.094413176 -0.05495309 -0.3088215 0.17844099 -0.20326501 -0.4482007 -0.06870465 -0.63356245 0.5904795 -0.27682757 0.4934523 -0.32661706 0.020651316 -0.5362729 -0.13241707 0.028094979 0.02175453 0.5480615 -0.08824393 -0.34604523 -0.35327938 -0.41517165 0.1877299 0.25687757 0.35486534 -0.015937831 -0.058391187 -0.27121332 -0.23163128 0.030418718 0.1547757 0.15402414 -0.67129517 -0.3495677 0.6442639 0.12372291 -0.52468807 -0.08062446 0.085294984 -0.2576716 -0.35809082
147834 0.27822602 -0.060100816 0.11986635 -1.1517483 0.59691244 0.14155862 0.027932623 -0.010033668 -0.6632506 -0.8439556 -0.83562833 -0.07823779 0.08475895 0.19164601 0.0013810075 0.6580339 0.29432872 0.120249055 -0.42848983 0.11774333 -0.72693515 0.09474584 -0.39491698 0.13245808 0.6189437 0.2538111 -0.43341914 -0.16525054 -0.57535636 0.07033688 -0.5847566 -0.17022213 -0.11949745 0.84614146 0.97496074 -0.4198751 0.11949902 -0.039704103 -0.4364442 0.29212844 -0.2926862 -0.2897949 -0.3545482 -0.5512202 -0.017932415 -0.3448661 0.45669627 -0.05553824 0.157982 -0.25247318 -0.037798103 -0.0036465526 -0.3665946 0.2789032 -0.19397219 -0.75187135 0.9662656 0.051768925 0.28517225 -0.6792402 -0.35901645 -0.44032398 0.15087657 0.25610864
146784 0.288897 0.18866545 0.26218554 -0.46487418 0.5136956 -0.112660155 0.16395824 -0.069459654 -0.050224394 -0.6251975 -0.07756106 -0.41105616 0.0890149 -0.072195105 0.04793183 -0.03445679 0.650713 0.20212395 -0.54728514 -0.6246073 -0.8021067 0.60008496 0.65532386 0.31665224 0.6021287 -0.25013292 -0.014372346 -0.00054373813 0.42622477 0.1838583 -0.92429596 0.23070501 -0.13429706 0.90992737 0.33660525 0.3216116 -0.0008068162 -0.4400746 0.124020115 -0.18545207 -0.17176816 -0.08256791 -0.37773946 -0.42707634 0.09182519 -0.15384097 0.846452 0.0844544 -0.18506515 0.5958366 -0.08745236 -0.12534286 -0.530873 0.2936769 -0.1859951 -0.1473313 0.2143035 0.6516123 0.25485614 0.2606133 0.26102984 -0.34367275 0.0917886 -0.4899323
148154 -0.35370666 -0.32224157 0.64164513 -0.4818151 -0.4457152 0.7856014 0.23002593 0.2920056 0.30794078 -0.11638084 -0.20652233 -0.35568044 -0.07472883 0.47689936 -0.3477752 -0.21243793 -0.73173434 -0.02792382 -0.60136217 -0.43345198 -0.22610438 0.29883954 0.7167612 1.1265042 -0.16083325 0.10599521 0.36525545 0.35776776 -0.14160915 0.10316273 -1.002505 -0.04313759 -0.7132821 -0.06874935 -0.25389627 -0.024042405 0.11334569 -0.28918907 -0.49551222 0.004266526 -0.14583485 -1.0397066 0.0040575163 -0.71199214 -0.061506823 -0.4567845 -0.18328708 -0.12452771 -0.38545486 0.699948 0.6528151 -0.30254263 0.26899505 0.14975114 0.18728602 0.134299 0.14365637 -0.3935017 -0.12908232 -0.17554657 -0.0034622229 -0.2656076 0.38964754 -0.37931582
146005 0.13974679 0.14585416 -0.13160788 -0.16748828 0.048455626 0.5261587 -0.34832564 -0.28535828 0.27911493 -0.67247635 -0.60385054 -0.33011055 -0.037601423 0.66559595 -0.38844508 0.20238881 0.24231887 0.09057416 0.11521724 -0.63105714 -0.38487086 -0.13778965 -0.08693653 0.8912564 -0.108743005 -0.048933625 0.72358465 -0.11089971 0.480146 0.011713507 -0.4725197 0.1790075 -0.9625294 0.46968248 -0.8173162 -0.28930762 -0.16095386 0.4689264 -0.5934742 0.0278194 -0.20796897 0.5845112 -0.99929816 -0.561077 0.37700164 -0.33402058 -0.7458197 -0.014205451 0.17797184 0.06900097 -0.30007434 -0.048878703 -0.27216068 0.6149821 -0.0010893682 0.28298056 -0.3098038 -0.255651 0.41988984 -0.53396255 -0.015396951 -0.119803235 -0.7781702 0.58440214
147929 0.43760058 0.48374438 0.13921411 -0.37429574 0.05923896 0.83765864 0.014229228 0.30416098 -0.06576091 -0.47303063 -0.38814917 -0.6919098 0.1869664 0.056270745 -0.52984 0.33062962 0.0697602 -0.013624909 -0.09997622 -0.48554888 -0.4142024 0.22673741 0.21255286 -0.049369756 -0.17755112 -0.27318394 0.54834634 0.29481947 -0.7984424 -0.15612921 -0.9930166 -0.033352166 -0.30988124 0.68155205 0.16213232 -0.10834769 -0.49300438 0.027754895 -0.26342994 0.56643194 -0.4077209 -0.22390373 -0.23190853 -0.19497825 0.013230144 -0.37762383 0.091982104 -0.2539402 -0.41529238 0.2031692 -0.2517862 -0.03896974 -0.0019486088 0.36686656 -0.4701917 -0.021948827 0.636566 -0.24586973 -0.1806751 -0.96344495 0.12640774 -0.19227427 -0.74649835 0.25656375
146909 -0.44210723 0.17892364 0.15550123 -0.44310695 -0.4753239 0.052513752 -0.1382171 0.52692306 -0.503807 0.0029520788 0.15986408 0.21718323 0.21028593 0.2959698 0.6216305 -0.14250395 0.3778765 -0.003937972 0.5691098 -0.3290595 -0.2229654 0.44903535 0.414617 -0.48934475 -0.16466981 -0.031503238 -0.25763142 0.34585217 -0.20783989 -0.035792343 -0.4268003 -0.25147167 0.5026648 0.80240154 -0.056394964 -0.3610248 0.02616365 -0.58882207 -0.16918424 0.3633868 -0.6660904 1.1070874 -0.21866398 -0.02854395 -0.41535842 0.7806008 0.17304575 -0.9387811 0.0896483 0.2814485 0.20409425 -0.35968775 -0.5708699 0.04984498 -0.014605992 0.46414378 0.29060528 0.21589755 0.018255021 -0.23478198 -0.3300125 0.28775954 -0.0013442204 -0.11225609
148396 -0.23330028 0.045924492 0.57268435 -0.78292406 -0.932847 -0.063725255 0.18944868 -0.36072266 0.39042884 0.23123261 -0.58442116 -0.37873128 -0.3010886 0.5640166 -0.13815588 0.50111026 0.34463704 -0.46353722 -0.7858104 -0.4566087 0.5577052 -0.56334674 0.48431945 -0.0016571281 -0.17962956 0.32850254 -0.12001803 -0.0623054 -0.49528825 0.76079565 -0.585745 -0.7815721 -0.20905189 -0.25494412 0.26169193 -0.3986167 -0.36314037 0.12784925 0.067381315 -0.40033102 -0.31717417 -0.12760295 -0.18107706 0.22748324 -0.603463 0.21512726 -0.10729017 -0.11686678 -0.055970088 -0.0013967555 -1.0543089 -0.20338605 0.1428403 0.44951528 -0.22462131 -0.17456235 0.04345361 0.96867687 0.69377744 -0.4761221 -0.5000054 0.54944736 -0.4232129 -0.37877408
146504 -0.070483886 1.0839896 -0.12676816 -0.13420692 -0.80641085 0.2511143 0.32623473 -0.39807263 -0.080927186 0.6403744 -0.22074084 0.025032595 0.067783006 -0.019957792 0.7718162 0.08799524 0.15940283 0.35125202 0.15505855 0.25853312 0.4701798 0.30296543 -0.3108371 0.7076722 0.037683032 -0.5654298 -0.08371118 -0.23422761 0.17567891 0.48735774 -0.30777642 -0.5481019 -0.046143718 0.4938647 -0.029286318 0.75285214 -0.26933706 -0.4438458 0.1639795 0.4224642 -0.7751013 0.22088616 -0.5423102 -0.53338295 -0.63737327 0.550418 0.03185819 -0.16395809 0.42400625 0.4772479 -0.059135042 -0.30754283 -0.3249481 0.39173117 0.8230189 -0.20494209 0.33024856 -0.35928684 -0.30448505 -0.3216232 -0.3044192 -0.102108926 -0.107703805 -0.18953618
147340 -0.10424909 -0.25319633 -0.15698548 -0.035271656 -0.53078985 -0.24682374 -0.2891616 0.22421743 -0.05560397 0.15491903 -0.023582341 -0.6088949 0.47005206 0.70778936 0.4131476 -0.27494714 0.4287488 0.21754955 -0.0020386556 0.2263884 0.107169084 1.0740857 0.016668938 0.7309237 0.66938096 -0.1666958 0.06317486 -0.06647815 0.07152079 -0.7425427 -0.15714 -0.2931469 -0.5274765 -0.2973035 -0.16301729 -0.3561102 0.31609803 -0.5732233 -0.3283048 -0.14529826 -0.89342797 0.16248846 0.28714174 0.2860339 -0.5819897 0.08007029 -0.036479134 0.0843708 -0.020209294 0.2764283 0.31610343 -0.27466688 0.2835023 -0.18627673 -0.5412405 0.033716466 0.1450657 0.28879935 0.011083721 0.25907263 -0.37752116 0.7627268 -0.32355124 0.14798208
146767 0.27889442 0.36597416 0.1939044 -0.73863584 -0.057001 -0.14372934 -0.44511935 0.039742626 -0.18474613 -0.059112303 -0.023006108 -0.20497076 0.5174304 0.09530564 -0.2902591 -0.75389653 0.5296074 -0.4158273 0.5040347 -0.38647857 -0.45272717 -0.22929068 -0.34640196 0.39665738 -0.09269426 -0.10023266 -0.18768115 0.20289269 -0.1619303 0.3290331 -0.654665 0.5846638 -0.082530275 0.8377399 0.35909274 0.06097387 -0.09289146 0.048006974 0.6819309 0.094126225 0.16696241 0.14545707 -0.73980254 -0.4207096 -0.06725705 -0.40918717 0.3330006 0.17220159 -0.03197729 0.13230701 -0.009518886 -0.3670348 -0.23511815 0.010941446 -0.5680579 -0.6447449 -0.1879616 0.32144448 0.06390097 -0.50149405 0.059490234 0.07763499 -0.43846393 -0.14465472
147343 -0.44854417 -0.03651729 -0.031812806 -0.27138957 -0.30318165 -0.030212037 -0.1169209 0.004016604 -0.4773201 0.3261019 -0.089390896 -0.30934283 0.2453914 0.3982993 0.43177688 -0.34721392 0.004256387 0.29813045 0.22359787 -0.0153340995 -0.28302938 0.69002163 0.20257851 -0.026469007 0.26228672 -0.28489807 0.022033092 0.6925694 0.12541309 -0.2847855 -0.22020297 -0.22086589 0.41483507 -0.15786888 -0.37640402 0.015016704 0.008973859 -0.30461204 -0.38406456 -0.5648678 -0.671095 0.12957484 -0.36272216 0.22653724 -0.36403662 0.12268177 0.033170402 -0.5324244 0.09411671 0.77560353 0.040522 -0.38420075 0.7720572 -0.13879116 -0.724309 -0.2732738 -0.18423001 -0.06412994 0.065434836 -0.2887039 -0.45661414 -0.11794964 0.5258658 0.15229774
146445 -0.080843866 0.12838677 -0.06952977 -0.71273553 0.2881239 -0.6288679 -0.28857437 -0.9051498 -0.07730723 0.23878402 -0.15867722 -0.061918836 -0.12073619 0.53764284 0.15782452 -0.07161798 0.8381894 0.3070529 -0.43474913 -0.33039853 0.3853642 0.5347967 -0.088298455 0.2930175 -0.057721578 -0.19913353 -0.23200281 0.072861776 -0.6569794 0.4314471 -0.60103005 -0.47753084 -0.13176231 -0.04237143 -0.8637058 -0.0604142 0.13687335 -0.66584164 0.07438696 -0.10876267 -0.13351448 0.31433845 -0.39130133 -0.110487156 -0.4801358 0.26006067 -0.17512059 -0.7895303 -0.13582334 0.750458 -0.33972216 -0.98494375 0.14518762 -0.20487066 -0.08274561 0.9806681 -0.06411157 -0.26806307 0.6481591 -0.25633806 -0.02263058 0.41764498 0.7014596 -0.077601925
148715 -0.38693434 -0.21227899 -0.7847073 -0.61860377 0.1390426 0.8507871 -0.26514825 0.049075045 0.46636087 0.23697866 0.120041296 -0.5292171 0.9496437 -0.11181685 -0.6373797 -0.28194982 0.55515134 -0.040391814 0.18228793 -0.11409386 0.090364136 0.59603554 -0.5079736 -0.04245165 -0.6445525 -0.035043333 -0.5280662 -0.13618948 -0.28101206 -0.019748421 -0.88121474 -0.2774137 -0.8414256 0.4780136 0.5446078 -0.19347028 0.3641818 -0.08780815 -0.16651914 -0.4426088 -0.41169295 -0.54260945 -0.25134036 -0.5954033 0.008754551 0.37794492 -0.22946522 0.2298232 -0.6799107 1.0321097 -0.1199096 0.57259697 -0.34431285 -0.035878535 0.41841945 -0.63157266 -0.57826024 0.06436684 0.5978226 0.30980524 0.07940246 0.12961848 -0.04399635 0.055863243
146734 0.25523505 0.27108228 0.45082036 -0.6497217 -0.17497343 -0.23185506 -0.15316978 -0.532617 -0.044962723 0.38192254 0.21478896 -0.97694606 -0.07267534 0.672649 -0.08766885 -0.11185493 -0.36755225 -0.8705424 0.113053165 -0.6494383 -0.42752215 0.36282575 0.79201514 1.1286211 -0.48041677 0.40170056 -0.40647736 -0.003396517 0.06379876 0.3125463 -0.46706703 0.3657193 -0.50353754 0.27954313 0.1404357 0.39846098 -0.062278934 -0.17841174 -0.66764224 -0.13745575 -0.42154196 -0.52424425 -0.30552924 -0.07174976 0.2015878 -0.24480006 0.015303922 0.328706 0.39371243 -0.10099259 0.47590768 -0.19602557 -0.41984755 0.2434488 -0.28098652 -0.4700717 0.08956316 0.12315962 0.24695863 0.004626535 0.09427957 0.22536293 0.79458517 -0.3086795
148502 -0.10757013 0.49743763 0.95994437 -0.61315554 -0.0366476 0.26501358 -0.1081457 -0.05945878 -0.19101042 0.09267633 -0.56139416 -0.4444185 0.30204216 0.4005783 -0.5550874 -0.59501606 0.10556462 0.36825824 0.16119103 -0.53625524 -0.8717593 0.43422085 -0.26070634 -0.08543144 -0.015630009 -0.28212273 0.011715433 -0.014096823 -0.14029211 0.08133115 -0.49036008 -0.5665746 0.28652525 0.8270402 0.15147476 0.50826246 -0.48827755 0.38512105 -0.30380374 -0.31215522 -0.17930917 0.2676556 -0.5534592 -0.6130147 0.305475 -0.5716761 0.12739903 0.6077263 -0.6737903 0.18780111 0.46917504 0.35485446 0.14585084 0.1691784 -0.42797002 -0.919023 0.0756109 0.42367968 0.51762503 -0.16942792 -0.022694422 0.7792179 0.10414631 -0.25872988
147489 0.43775746 -0.32637 -0.6737995 -0.81582236 -0.04440432 0.6154871 0.039188847 0.4465386 0.91008294 0.27545223 -0.45419198 -0.59838974 0.20218171 -0.033523798 -0.9396672 -0.65471154 0.736275 -0.00432314 -0.11950434 0.15633664 0.3969187 0.19391869 0.495289 0.32223836 0.20826639 -0.47636983 -0.33503452 -0.2445905 0.44696853 0.9506551 -0.29793778 -0.14436029 -0.60942286 -0.04113417 0.30128494 -0.5524993 0.009673262 -0.37835854 -0.5099233 -0.0022412243 -0.4331125 0.090227135 -0.17833042 -0.35015625 -0.1697179 0.5745022 0.03163038 0.025147788 0.07383691 0.79122835 -0.6950114 0.5236501 -0.42842162 0.11943977 0.03073488 -0.520933 -0.9306467 0.69081295 0.23273236 -0.602018 -0.17341141 -0.2588543 0.5702966 0.448679
147768 -0.22117786 0.07633036 0.32344377 -0.07731871 -0.38359946 0.6733553 -0.023460386 0.00822763 0.017436642 0.5231948 -0.3876521 0.27769566 0.34883213 0.63020957 0.54753965 -0.16337644 -0.34712788 0.30624932 -0.021094086 -0.5136617 -0.07016693 0.08000134 -0.21090208 0.14500724 -0.6921239 -0.9851351 -0.21295062 -0.8891988 0.24243854 -0.26277328 -0.12254785 -0.49012324 0.13059144 0.7552405 -0.32953364 0.09745354 -0.15747479 0.12970266 0.47426707 -0.30507714 -0.94870764 0.22449243 -0.09172679 -0.54115707 -0.5203775 0.8809501 0.5474194 -0.6371014 0.5046862 0.52836055 0.016951796 -0.16354887 0.11960547 0.09787618 -0.73130924 0.23513053 0.13972947 -0.22558123 0.47756273 -0.060415912 -0.0038830882 -0.13885994 0.59862465 -0.3669393
147535 -0.59840447 0.031342532 -0.12700267 -0.060474377 -0.2966615 -0.31684998 0.37537736 -0.31976938 0.007191135 0.18940169 -0.59424084 0.18641116 0.23096508 0.46675974 0.7093786 -0.1216382 0.4009997 -0.46189696 0.079336375 0.03375411 -0.3510058 0.20945422 -0.4728964 -0.24987692 -0.06751332 -0.4740936 -0.12792663 0.48309457 -0.58582306 0.112062566 -0.44583377 0.11405508 0.39394507 -0.045700543 -0.6492721 0.19876873 0.04081726 -0.02971782 -0.5058245 0.571228 -0.5276448 -0.056761835 -0.30362585 -0.39579293 -0.19899927 0.84931415 -0.15440735 -0.13056126 0.33661312 1.028696 0.024563445 0.049139958 -0.6982883 0.37597156 -0.0013019607 -0.22811775 -0.11111143 0.06122854 0.018483868 -0.42464474 -0.8142566 0.020265292 0.6786385 -0.8138986
148753 0.2225426 0.6980764 0.68086004 -0.2169471 0.18907791 0.7038508 0.1707587 0.3109703 -0.4625075 0.5159803 0.30205682 -0.7774599 -0.36001062 -0.044023708 -0.040134557 -0.3987967 0.34404105 -0.43479872 -0.2690776 -0.77920765 -0.5791222 0.08964971 -0.08093749 0.32881284 -0.32892042 0.15331608 -0.34356356 0.46540442 0.13949955 -0.12473381 -1.4609885 -0.044620607 -0.172334 0.23377408 0.18885513 -0.4542408 -0.2901964 -0.63265437 0.12351812 0.7755383 -0.36535844 -1.069431 -0.47826287 -0.6146017 -0.07994661 -0.980439 0.023036975 0.34394926 0.0076898336 0.41374502 0.28459305 0.10513003 -0.5069452 0.6285192 -0.11522251 -0.19029939 -0.48969162 0.18728837 0.5394703 -0.06281245 -0.02787831 -0.28396085 0.25458056 -0.35833168
144273 -0.49281293 0.38741603 -0.2860869 -0.62537706 -0.28932345 -0.13277395 0.06267696 0.15976687 -0.42254263 -0.01696838 -0.89304525 0.33012375 0.17627561 0.07550264 0.9663882 -0.19234374 0.33711803 -0.24643227 0.21924049 -0.2292138 -0.13458218 0.09701995 -0.061940454 -0.49868974 -0.14555551 -0.24562846 0.3118446 0.33107626 -0.5259721 0.27974087 -0.5118783 -0.08883254 0.43380016 0.114804424 -0.2497388 -0.23095022 -0.19861884 -0.34048408 -0.6114477 0.34457314 -0.26734754 -0.09837301 -0.22256933 -0.0046161627 -0.20041485 0.6405298 -0.18413976 -0.024399975 0.25268927 0.11043652 -0.070450164 -0.37433365 0.02264373 -0.22423293 -0.46845183 -0.3202446 -0.4911034 0.09171469 -0.043548446 -0.22667992 -0.8296628 -0.056777302 0.89779854 -0.3311622
146043 -0.3387962 -0.0776146 -0.5519971 -0.44801584 -0.13762607 -0.6754561 0.43155086 0.2952376 -0.24873506 -0.3226863 -0.39252332 -0.29151303 0.4916905 -0.03526997 0.121833675 0.25554672 0.5323604 -0.038468428 0.34121376 0.06033566 0.5229232 0.14162284 0.16252503 0.59308183 0.31075105 -0.3442207 -0.053338364 -0.5681625 0.36393613 -0.08986815 -0.5972438 0.5568308 0.4208836 0.5064488 -0.62420243 -0.93054444 -0.567504 -0.78180903 -0.45742953 0.42711043 -0.19102716 -0.19496773 -0.31079796 -0.36924952 -0.5237927 -0.28120607 0.121158436 0.6840703 -0.20332831 0.5891616 0.22217582 0.29370528 -0.31399748 -0.044726018 -0.34650975 0.642826 -0.37415972 0.30450934 0.1743216 0.6284764 0.33014038 -0.07780379 -0.2784644 0.1540756
148749 0.37881398 0.58081895 -0.1392959 -0.49487764 0.040142458 0.3436132 -0.012194301 -0.8342883 -0.39486042 0.10053523 0.1815533 -0.479031 0.21686372 -0.27987677 -0.33143067 -0.17795701 0.14028633 -0.35470244 -0.41029432 -1.0330062 -0.36119604 0.29399332 0.47514606 0.6387872 -0.12630317 -0.43838948 0.3959036 -0.10055841 -0.19524321 0.50316006 -0.7546525 0.3665658 0.23525403 0.08048052 0.040855706 -0.3816979 -0.27892238 0.27732834 0.024739647 -0.043625556 -0.20461576 0.6800976 -0.3620203 -0.28974545 -0.2273017 -0.008694447 0.16428488 0.60312 -0.5257891 -0.38995507 0.03460319 -0.11631943 0.1262704 0.83267456 0.006357398 3.2600758e-05 0.094741546 -0.15959409 -0.68244636 -0.3069758 0.13162383 0.18785003 0.26916814 -0.091016576
147116 0.50368637 -0.0014817946 -0.20333752 -0.21394606 0.12935597 0.12482182 -0.48800227 -0.14750995 0.019862285 -1.0593147 -0.7580521 -0.4644541 0.1577904 0.14469555 -0.48882923 0.28631097 -0.33645704 -0.07034324 0.2477812 -0.64844984 -0.2973213 -0.07356155 0.028511975 0.06556286 0.49395776 -0.037923086 0.65236837 0.56049186 -0.31233746 0.289498 -0.3492203 -0.40819025 -0.1871611 0.106363855 -0.61065376 0.045580104 0.27177054 0.86346483 -0.63074607 -0.38518822 -0.772941 0.3030163 -0.49864116 -0.5961867 -0.6135476 0.05845424 -0.5879502 0.27207989 -0.09219625 0.88524544 -0.1655059 0.26606598 0.15127113 0.07004189 -0.4322391 -0.11926572 -0.23126823 -0.28407973 0.30667862 -1.1447126 0.10782582 -0.22244298 0.2758119 0.42940685
142497 -0.27663416 -0.19371645 0.24548481 -0.6713262 0.25232887 0.09628959 0.26825756 0.10349528 0.22946809 -0.47237733 -0.14699043 -0.2356472 0.48354802 -0.06623869 0.12988679 0.3417528 0.25430417 -0.4520178 0.24565905 -0.30828467 0.16408625 0.71443033 -0.19298473 0.037705682 0.48042887 -0.22438061 -0.5574917 -0.37961257 0.4597939 0.23117195 -0.24506533 0.00734043 -0.049468774 -0.24379207 -0.025110284 -0.41822407 0.11231468 -0.111159645 -0.12910093 0.54868346 0.62204677 0.059694245 -0.4620932 -0.6462933 -0.2360636 -0.5266633 -0.48213378 -0.4869637 0.45198599 0.51437265 -0.539817 -0.2824709 0.14688504 0.10439916 0.1212744 0.20099303 -0.2987944 -0.015597232 -0.6971822 0.14050554 -0.071155876 0.3085673 -0.3584076 0.29849502
146395 0.34446803 0.04375405 -0.119916216 -0.4252857 -0.24613445 0.03247079 -0.011966877 -0.08884646 -0.09631642 -0.06997025 -1.0547075 0.14190163 0.4577578 0.16336396 0.27549738 0.31793436 -0.39708692 0.1429673 -0.3615383 -0.5335844 -0.4793251 0.1686286 0.19962695 0.16170618 0.054760367 -0.15907384 -0.35760343 -0.30253386 -0.2262032 0.30902022 0.10562304 0.18871662 0.5851049 -0.27101654 0.31523973 0.18181728 0.079045795 -1.053529 -0.06946608 -0.28420377 -1.2709606 0.28275806 -0.33416086 -0.26887658 -0.47740674 -0.12477057 0.29632792 -0.6381378 0.67916715 0.49493423 -0.44587088 -0.16459844 0.05038764 0.09370755 -0.37717405 0.3228488 0.24644881 -0.77446103 -0.36800116 -0.2253469 -0.5298035 0.18334635 0.6891224 -0.48190767
147104 0.07973534 -0.049940642 0.20443788 0.032065675 -0.10222937 1.0722983 -0.58733356 0.07693429 -0.60720766 0.520263 -0.7697406 -0.82473856 0.24857712 0.07485729 -0.4765838 -0.28782693 0.6880403 0.28875518 -0.1492725 -0.86292297 0.24284633 0.016957844 -0.478566 0.5852547 0.17599364 0.3892309 -0.61447895 -0.022361033 -0.4091565 0.14329001 -0.78129566 0.098669276 0.06955581 0.9902384 -0.10543514 -0.97051615 0.33412564 0.06303801 -0.2846136 0.14238963 -0.737493 0.79060733 0.6209108 -0.20923956 -0.10198706 -0.689207 0.49071193 0.65046287 -0.1751267 0.13940237 -0.4984703 -0.088533506 0.24482411 0.19901939 0.4512595 -0.771934 -0.21600656 -0.35775062 -0.6906306 -0.17749771 -0.7556255 0.105226666 0.652871 -0.48445958
147005 -0.1410818 0.15018013 0.42515466 -0.52750754 0.10419935 0.17432372 0.08051334 0.6244547 -0.20174208 -0.18093659 -0.08691873 -0.0716023 0.59586567 0.064719655 0.66885996 0.67411435 -0.23676841 -0.0770425 -0.2097562 -0.2939127 0.23995493 -0.17182527 -0.504351 0.33130968 0.4720317 -0.58810055 -0.7668898 0.60030437 0.3226902 0.135149 -0.22476958 -0.1810598 -0.24930592 0.095828116 -0.38080177 -0.7008883 0.17115037 -0.005262961 -0.18351464 0.37778193 0.06507647 0.22104329 -0.3765946 -0.18777128 -1.0182385 -0.2366048 -0.4291915 -0.13951 0.1902426 0.086317606 -0.16448914 0.15537274 -0.23411742 -0.32541335 0.15490666 -0.07004779 0.09482625 0.24693765 -0.3177222 0.6062126 0.27758586 0.75752634 0.3141551 0.3169731
146877 0.48568046 -0.2668822 -0.16767639 0.24451686 -0.10012957 0.58351505 0.4776108 0.30447417 -0.001051144 -0.2866996 -0.53274703 -0.45361975 0.48447782 0.578535 -0.2964378 0.51818424 -0.4708335 0.050212014 -0.38960382 -0.48051578 -0.32571867 0.78442115 -0.06934498 0.46424416 0.28501573 -0.107580885 0.41852304 0.62622154 -0.47324887 -0.20489755 -0.25780573 -0.12770641 0.46595573 0.34808907 -0.27685547 0.12210316 -0.15859558 -0.09035181 0.19964671 0.17049381 -0.1722344 -0.3063446 -0.37679455 -0.30176926 -0.20327349 0.04386272 -0.12406712 -0.88746715 0.37918842 -0.104954496 0.87012595 -0.40205893 0.15557727 0.3171951 -0.41201958 -0.14026135 0.38424763 0.29079044 -0.06896414 -0.540602 0.45315358 0.46364525 -0.37664095 -0.20872237
145557 -0.26411864 -0.27560583 -0.34272954 0.21001333 0.64358664 1.0516782 -0.4879904 -0.6888684 0.3994209 -0.2815396 -0.08883574 -0.5534921 0.6167413 0.15977275 -0.7480189 -0.059054866 0.3568691 0.22427036 -0.10231757 -0.19256507 -0.027965967 0.11464745 -0.21054107 0.3887726 -0.47243685 0.08645858 -0.53565407 -0.08246245 -0.34569734 0.37362012 -0.86176497 -0.44542873 0.15640754 0.21872784 0.29350987 -0.6218633 0.3498363 -0.5586021 -0.11135097 -0.5642202 -0.4805108 0.1729564 0.20379193 0.15114766 -0.55579734 0.19425398 -0.40844372 -0.100974955 -0.13574174 0.60413367 -0.09035452 -0.14253023 -0.411552 0.5201115 0.43952915 -0.6126545 0.06512115 0.4140715 0.005987945 0.16156103 -0.15147556 0.21565434 0.44954515 0.13088399
146313 0.24923751 -0.1163306 0.22289397 -0.8099727 0.006787073 0.019166099 0.99431515 0.6663373 -0.3583726 -0.13599765 0.4180287 0.040305667 0.62900084 0.56850386 0.35003915 0.46269915 -0.13531443 0.1499758 -0.3849937 -0.79647094 -0.11080759 -0.06409919 -0.32657063 -0.2912165 0.2579649 -0.69630635 -0.1531282 0.3481747 0.17577107 0.09204061 -0.21345556 0.24149936 -0.325949 0.044707984 0.11719645 -0.36115816 0.36052716 0.14436916 -0.09746912 0.40103388 0.31550014 0.45303342 -0.022202281 -0.4305474 -0.59443706 -0.1307896 -0.07038767 -0.060712606 -0.046739783 0.30441147 -0.34086868 0.23029415 -0.11894842 0.43841586 -0.4826498 0.019793112 0.2810341 0.09295877 0.15433903 0.7103436 0.100512095 0.09667561 0.00909395 0.48260462
146415 0.2176447 -0.53091645 0.16466928 -1.0372908 -0.38267294 0.24225473 -0.0654787 -0.19128889 -0.31265247 0.44067183 -0.47104508 0.85544443 0.3618103 0.3233503 0.5984566 -0.32884654 -0.3743066 -0.23431022 -0.5614186 -0.72699296 -0.065067686 0.12784147 0.036287587 -0.11625445 -0.31305295 0.21159633 -0.06009311 -0.18271588 0.15869066 0.079348944 -0.37574244 0.038943905 0.5934747 -0.04430983 -0.40443918 0.16415524 0.12685044 -0.4374173 0.3282675 -0.4157624 -0.51009846 -0.1216226 -0.5453317 0.03176332 -0.35061783 0.13520184 -0.5774649 -0.44814223 -0.056932054 0.26042402 -0.5878148 -0.18418835 0.3348317 0.7474878 -0.59733295 0.2535731 0.5376927 -0.1556484 -0.50248456 -0.15255508 -0.558589 0.06443387 0.07991432 -0.13514866
147493 -0.035675306 -0.005347316 -0.5383613 -0.508841 0.060771223 -0.12364016 -0.14791554 0.12219105 -0.074941024 0.37382084 -0.24561194 0.14497079 0.102357164 0.24423788 -0.058786232 -0.1299694 0.22771868 0.37464303 0.34259737 -0.3348511 -0.086386904 1.1784269 0.30603215 -0.007421288 -0.3945238 -0.50974023 0.13304116 0.22842628 -0.13385832 0.3163771 0.23902617 -0.33557042 0.10910534 0.5131934 0.21784396 -0.41787717 0.21765459 -0.37316063 -0.09305329 0.32789096 -0.015786046 0.38051474 -0.8843874 -0.09254584 -0.13753054 0.42382744 0.17492737 0.19361064 0.29386654 -0.41301018 0.21131706 -0.28903234 -0.38603383 0.4428505 -0.012883537 -0.40271518 0.4360438 0.07075345 0.6096573 0.35098436 0.21266235 0.35421923 0.9658035 0.12681314
148527 0.19272707 0.18544255 0.49681136 -0.71466035 0.7255566 0.34675595 0.228883 0.009026355 -0.283708 0.38862976 -0.028845679 0.14532764 0.40930495 -0.50049216 -0.5389544 0.10609186 0.82719946 0.23562329 -0.17818063 -0.18919031 -0.7397231 0.18156464 -0.09802223 0.7248492 -0.19657883 -0.044266053 0.16910125 0.13076931 -0.18175599 -0.13755322 -0.95165247 -0.22359097 0.0523669 0.3198677 0.37434664 -0.0115589965 0.17381117 -0.11321114 -0.17708476 -0.08849114 -0.53662294 0.14322595 -0.70332247 -0.7016012 -0.4797921 0.30772552 0.29853657 0.6104503 0.006164399 -0.47429505 -0.65301955 -0.057913378 -0.21719375 0.45311335 0.01558637 -0.16831942 -0.48804903 0.34781379 0.8558416 -0.25137535 0.22161251 -0.14121933 -0.16535522 -0.27765322
147866 0.18409258 -0.57575846 0.12278537 -0.14358558 -0.2354175 -0.18421136 0.47565928 0.29741842 -0.8698826 0.27869093 -0.38969395 -0.43327528 -0.25446272 -0.11808095 -0.004162047 -0.415093 -0.38809913 0.2544549 0.7998039 -0.21641219 -0.3241972 0.6190176 -0.65790606 0.11053526 0.37015665 -0.029415967 0.3939258 -0.6260511 0.16005728 0.79700214 -0.5446689 -0.26508602 0.3858727 -0.3435389 -0.23385699 -0.8913695 -0.9687079 -0.6547341 -0.5968759 -0.2521747 -0.35799423 -0.25935742 -0.28765595 -0.030509757 -1.0854384 0.41927943 -0.13140866 0.07498608 -0.3654599 0.5983441 0.05201385 -0.10638954 0.08789633 0.0540621 0.15982349 0.22150525 0.23809363 0.111185044 0.10932967 0.37628156 0.050457615 -0.10092725 -0.71142995 -0.56209916
147657 -0.67376447 0.3440508 -0.037614178 -0.60314703 -0.07802329 0.029345255 -0.30723733 -0.37221596 -0.18276654 -0.38465807 -0.246371 -0.10166048 0.043144137 0.47383916 0.44309005 -0.6534292 0.53411144 0.24833941 -0.7549613 -0.31448618 0.31481853 -0.053170815 -0.2515866 -0.07226906 -0.4343657 0.1141556 -0.04965002 0.0792871 -0.14891097 0.43033597 -0.56589764 -0.027929598 0.4340852 0.052767295 -0.6346603 0.2829199 0.5533996 -0.47136325 -0.5495933 0.5809746 -0.68443054 -0.052758723 0.12111507 -0.022522857 -0.28044754 0.77503914 -0.0316179 -0.016216842 0.41466898 0.25343677 0.13447878 -0.2693262 -0.34540525 0.35435748 -0.22388045 0.25543782 -0.15790679 0.72655356 -0.3647031 0.2584916 -0.38992983 -0.31004778 -0.28828776 -0.24675661
147675 -0.4688044 0.07073138 0.36274227 -0.85843605 0.65499866 1.194804 -1.0070004 -0.04243937 -0.2895831 -0.31573522 -0.3076958 -0.061459005 0.21730958 0.7570089 -0.27382728 -0.2489827 -0.24935141 -0.96638995 0.049657304 -0.0822775 0.20614408 0.9082753 0.59874576 0.37888765 -0.1991632 -0.61703974 0.33732417 -0.13751128 -0.76160246 0.5399569 -0.911934 -0.12817787 -1.0476842 0.14450014 0.27542615 -0.06695693 -0.6687153 -0.6905585 0.38370138 0.9197257 -0.43340558 -0.70100754 -0.44544297 -0.06275097 0.5811938 -0.14159253 -0.47109786 -0.46199468 -0.38455024 0.6566581 0.29857433 0.7738389 0.2730777 0.050059926 -0.3560284 -0.7938944 -0.14226955 -0.675103 0.45490274 0.21087627 -0.31872848 -0.11541115 0.15792945 0.0019514153
147338 -0.00885098 -0.14272802 -0.31794018 -0.42735913 -0.7741828 0.25441483 -0.30805337 0.13673003 -0.6996684 0.41236758 0.026546031 -0.1522907 0.19750172 0.8222089 0.15168759 -0.36718082 0.16862193 -0.30308282 0.147851 -0.13632801 0.06715135 0.42877752 0.42143044 -0.3109494 -0.069252886 -0.027951963 0.17691928 0.039721973 0.38456142 -0.5681789 -0.30132037 0.09243385 0.06342503 -0.020892447 -0.5029901 -0.041766163 0.47643176 -0.5798756 0.07018404 -0.608421 -0.36158538 0.047328457 -0.574661 -0.16967358 -0.29110396 0.30861947 -0.18296142 -0.50002885 0.25470668 0.60472804 -0.22786032 -0.41928276 0.6321184 0.0015501336 -0.6630395 0.004859078 0.4487992 -0.1490059 -0.30170423 0.28225684 -0.054084767 0.4163903 0.17162699 0.06957694
147824 -0.60285944 0.3403206 -0.004799289 -0.9126628 -1.0681235 0.31043345 0.0048489487 -0.07960373 -0.43158063 -0.015725093 0.17277046 0.036012337 -0.55227524 0.77571714 0.17391023 -0.24524713 0.15361705 -0.18937561 -0.17279531 -0.3783399 0.099102475 -0.4563715 -0.21710587 0.05758682 -0.6015357 -1.094829 0.0776416 -0.30646682 0.4193981 0.24739397 -0.5255816 -0.41113612 0.16636203 0.36782727 -0.35626054 0.4104163 0.053097777 -0.37474447 -0.11459905 -0.2798743 -0.63421226 1.0282184 -1.0024769 -0.0382371 0.04366216 0.3659065 -0.035573345 -0.62068 -0.23467177 0.13054171 -0.085311584 -0.069462806 0.018742628 -0.023095792 -1.1477917 -0.21622446 0.18320164 0.022984855 0.23007654 0.89503247 -0.13290767 -0.37130567 0.43301183 -0.35826656
148596 -1.0748099 0.12826785 0.13447413 -0.5260826 0.04770901 0.50760025 0.18685783 0.634505 -0.29834843 0.20693657 -0.22177348 0.00046019335 -0.09282158 0.08303892 -0.98337865 0.024224745 0.27448648 -0.33955166 -0.47795448 -0.00828617 0.5577115 0.6175717 0.68549305 0.8543198 0.16470057 -0.72029996 0.129874 -0.2718672 0.04960486 -0.31394613 -0.1750486 0.43213657 0.13369647 0.6761441 0.71306956 0.6821383 0.3263525 0.1637114 -0.15005048 0.1274517 -1.0945792 0.3202627 -0.5007296 -0.2855464 -0.767927 0.6777034 -0.5618826 0.49786997 -0.037187632 0.5520414 -0.50099725 -0.40985024 -0.47267815 0.25856882 0.62152076 0.074833214 -0.49906993 0.70924485 0.014714127 -0.48251483 0.18198036 -0.49616712 -0.54780924 0.18446486
146511 -0.48847163 -0.948844 0.43357658 -0.57373893 0.04673492 1.2590524 0.7171699 0.27634224 0.010745141 0.76252735 -0.8397262 -1.3377067 0.83671886 1.1489277 0.02987865 0.45446497 -0.7018045 0.47256404 -0.51491505 0.063798465 0.4647831 0.08962817 1.1046872 1.4513787 0.67181355 -0.20327327 -0.83385324 0.41086137 -0.94637537 -0.24419987 0.05679445 0.4803995 0.3293854 1.1706303 -0.4349727 -0.2639539 -0.12659301 0.19143052 -0.5699921 0.27006188 0.15999384 0.06395268 0.10128987 -0.095153935 -0.7866422 0.089879386 -1.4264083 -1.1055789 0.007496987 -0.55460685 -0.13191992 -0.29320237 0.039366763 -0.6649184 -0.18294768 -1.3294965 0.78616464 -0.9317132 0.52098167 0.49775437 0.1576228 -0.35882768 -0.08248582 -1.3396747
148100 0.6428691 -0.2371868 -0.48865965 -0.61384076 -0.5673512 0.7797818 0.21442519 0.28227898 0.7376456 -0.20812723 -0.49953008 -0.68322784 -0.25366384 -0.014764208 -0.22997786 -0.16494757 0.6092072 -0.30674058 0.60441846 -0.8500657 -0.7613378 -0.009798581 -0.65148413 -0.07421605 -0.09863845 0.23406082 -0.102655254 0.18961743 -0.52544713 -0.41911557 -0.28624168 -0.19656321 -0.4475534 0.4807832 -0.07564454 0.73857063 -0.485616 0.09141549 -0.29677606 0.02834999 -0.54252386 -0.7720163 -0.6412277 -0.5517796 -0.25423375 -0.21759906 -0.2565663 0.41726857 0.39542586 -0.25135663 -0.0023047053 -0.31026596 0.12565388 1.0122759 -0.44471678 -0.068102516 -0.327784 0.11486095 -0.13654526 -0.40506586 0.2291058 0.8064382 -0.29841477 -0.19345915
148094 -0.5314816 0.19829307 -0.09450994 -0.69990563 0.07568503 0.17437378 -0.20831645 -0.44381693 -0.51274514 -0.4109815 -0.334874 -0.11993576 -0.071248025 -0.42864138 0.24757494 -0.65820056 0.27636477 0.53741634 -0.028048465 -0.10706798 0.17405416 -0.14817159 -0.1681048 0.12725314 0.23284677 0.31957173 -0.4623921 -0.13989013 -0.47450155 -0.10226536 -0.19904178 0.08464768 -0.061382495 0.45094043 -0.37853858 -0.5954085 -0.39409703 -0.5162689 -0.0878826 0.27185276 -0.7836377 0.030016355 -0.32223308 0.22702429 0.36286387 0.2208244 0.44465163 -0.3985727 0.8846389 0.68039215 0.21780112 -0.37429535 -0.5177036 0.53576064 -0.48249778 -0.28651178 0.5648527 0.19460681 0.09467269 0.047678553 0.09374485 0.21644802 0.12807103 -0.51315963
146210 -0.42170012 0.03559154 -0.9163785 -0.5009274 -0.62975866 -0.082139544 0.19014317 -0.10897998 -0.26837727 0.65713316 -0.4354688 -0.012648649 0.042960577 0.3958226 0.14987169 0.10257546 0.22869003 -0.4590024 -0.1566518 -0.30283672 0.25670022 0.74382883 -0.33284545 -0.49784532 -0.0771891 -0.8247947 0.36290133 0.19905676 0.3804396 0.49943942 -0.7997449 -0.5275982 0.30746663 0.15420546 -0.5507841 0.4641514 0.38778266 -0.24804062 -0.6652238 -0.2346304 0.013173497 -0.22825125 -0.5708003 -0.19508928 -0.008890024 -0.33812842 -0.29805234 -0.10617595 -0.097433954 0.1944524 -0.33223286 -1.2313104 -0.008305084 0.11104364 -0.2822567 0.18269983 0.2686115 -0.088909216 -0.24245372 -0.16476563 -0.31478298 -0.14831176 0.68945515 0.0076664193
147386 -0.172491 0.06926473 0.010497989 -0.7328891 0.30806774 0.48394936 -0.064854875 0.5271507 -0.11289988 -0.4016308 -0.14533454 -1.0485401 0.4564058 -0.021144914 0.47968113 0.47192177 -0.028558815 -0.2960181 0.1063193 -0.10795235 -0.10581114 0.52189255 -0.631068 0.2420044 0.5568175 -0.39258236 -0.5257113 -0.34834328 0.2761126 0.51627827 -0.51680976 0.086186506 0.023716053 -0.49830434 0.068819 -0.14903288 0.0023378604 0.5527913 -0.38747776 0.8221402 0.22397208 0.31489718 -0.12388438 -0.22452639 -0.66136074 0.102714285 -0.67827433 -0.5381468 0.38449255 -0.02237798 0.06996601 -0.34362435 0.08745706 0.16637914 -0.110104635 0.09916926 0.019706454 -0.20701024 -0.672716 0.31366628 0.993244 0.008365316 0.23693244 0.25228068
147623 -0.8175902 0.52185756 0.17188655 -0.3531029 -0.43438655 -0.120044224 -0.3159502 -0.102179125 -0.05263963 0.19641638 -0.6412156 -0.31408328 0.24265511 -0.018742517 0.5473425 -0.058215693 -0.45463014 -0.0644463 0.5359577 -0.9764813 0.49636388 0.65885735 0.1661343 0.6506633 1.1838051 -0.7330563 0.43306997 -0.05822696 -0.49489993 -0.8658498 -0.45076448 -1.4072162 0.2716127 0.27687624 -0.7682525 -0.36923802 1.0390903 -0.5126986 -0.5512208 0.28404665 -1.0517069 -0.7146034 0.61932313 0.5350051 -0.2036618 0.49028587 -0.050738446 0.6042651 -0.06986592 -0.046989303 -0.017074544 -0.29745054 0.17514107 0.22153142 -0.77010155 0.2077242 0.6557506 0.56316453 0.5687062 0.15593022 -0.6773729 0.86889327 -0.5794264 0.035912964
146563 0.27635026 0.6861329 0.17482108 -0.6207675 0.29920834 0.3042686 0.2587623 -0.11338574 -0.10446898 -0.1560968 -0.69594795 -0.9614196 0.03764879 0.5726383 -0.07782891 -0.636111 0.19128425 -0.2718441 0.19358335 -0.50806475 -0.8173839 0.3708649 -0.43867254 0.338634 0.74394065 0.6525067 0.10456522 0.15359412 -0.2716679 0.074342586 -0.3004707 -0.7261511 -0.35761288 -0.0688184 -0.091395296 -0.2157721 -0.25240144 -0.12770459 -0.45879987 -0.03827278 0.45074344 0.077043526 -0.25434417 -0.44119534 -0.350899 0.19888955 0.107837476 -0.5980645 -0.2736867 -0.32891896 0.20680442 0.30298522 0.030461205 1.0925875 0.016659778 -0.41029108 -0.83086663 0.18956356 0.38041306 -0.10602003 0.49984437 0.5417226 -0.9204225 -0.042572636
140872 -0.35433057 0.5266072 -0.310319 -1.2799867 -0.34338987 0.41995403 -0.045399528 -0.30175164 -0.58401847 0.07669933 -0.43906146 0.38033584 0.11082469 0.007252861 0.5059585 -0.30425993 -0.5049904 -0.035118625 -0.60385394 -0.7593539 -0.013361591 0.3008123 -0.5767731 0.21131235 -0.22678958 -0.51513726 0.30897072 -0.44283026 -0.3164583 0.029749239 -0.009667293 -0.251864 -0.216257 0.33290088 -1.0813128 -0.89223224 -0.19651446 -0.6439845 0.06790839 -0.39367148 -0.046768554 -0.02249475 -0.34682307 0.079199776 0.5768297 0.79583234 0.25502396 -0.68007886 0.44808775 0.285468 -0.32231343 -0.023961425 0.1004254 -0.15270273 -0.2026169 -0.32377094 0.55443275 -0.06372091 0.1463041 -0.45711747 0.13145508 0.46600387 0.29576358 -0.07938868
146758 -0.35850266 -0.20876397 -0.51941186 -1.2325302 -0.8179453 0.080881216 -0.12627117 0.1962658 -0.0168166 -0.7119743 0.12326237 -0.7911592 0.19123545 0.96137726 0.4456957 -0.0014800206 0.8509891 -0.08543978 -0.3137503 -0.4473952 0.41688 0.039797 -0.078723915 0.78233695 -0.24613321 0.772174 -0.1270131 -0.2395534 0.42703414 -0.26671872 -0.9679537 -0.3061238 0.73264545 0.08113099 0.120824754 -0.59993154 -0.7930482 0.04474736 -0.13872422 -0.4451081 -0.3847224 0.12482079 0.5731139 0.5483067 -0.48043877 -0.15416631 -0.18074156 0.15683655 0.07725389 -0.4788771 -0.7780109 0.20918527 -0.09068487 -0.09412092 0.28012124 0.21842983 0.50188774 0.23316874 0.9048959 -0.7767707 0.49862385 0.10866995 -0.97091556 -0.57009435
147911 -0.342816 -0.25822002 0.11896016 0.07287003 0.48644242 0.4721199 -0.4551834 -0.69908583 0.35019258 0.13546032 -0.15596844 -0.5441528 0.7191674 0.63082045 -1.2473935 0.30250493 -0.0070679816 0.012555697 -0.35050774 -0.5994083 -0.32719442 -0.699414 0.70413876 1.0773777 -0.22840355 -0.08808112 -0.4629709 -0.24972597 0.10066392 0.5224947 -0.58259517 -0.7045811 0.8414109 -0.20534392 -0.21560106 -0.74551505 0.077254236 -0.5335393 -0.38460886 0.06228734 -0.1825954 -0.6282817 0.03448172 -0.13451815 -0.59083885 0.2525269 -0.53620666 -0.44581303 0.12661391 1.0170001 -0.43243927 -0.22842136 -0.2781553 0.76851267 0.26030287 -0.6212737 0.11141101 1.5698112 0.030108707 -0.7138126 -0.45382354 -0.23396204 0.5875481 -0.38051996
147951 -0.19372024 0.3804146 -0.27207926 -0.84179837 -0.06343327 -0.19765511 -0.1937401 0.24919887 0.32411247 0.72764254 -0.5778309 0.3801705 0.34282523 -0.080040894 0.122570485 -0.22968203 0.15764113 0.08299569 0.486832 -0.9226031 0.6273308 0.124757536 -0.183586 0.69787073 0.24412207 0.4242715 0.39877236 -0.11773579 -0.33180448 0.68404806 -0.69369096 -0.1922 0.5072722 0.19973682 -0.5377811 0.250496 0.14312367 -0.15757298 -0.1862973 0.5221923 -0.71120924 0.5294051 -0.4039465 0.30026576 -0.0670777 0.0168597 0.097420156 -1.523782 -0.38412666 0.2096039 0.06694299 -0.067972176 -0.14608757 0.6019942 -0.4088468 0.5000617 0.1269051 -0.20700693 0.18817496 0.020782799 0.04243359 -0.010781863 0.8257591 0.17900614
147339 -0.18984053 -0.12212612 -0.37288642 -0.3277343 -0.20103759 -0.00151388 -0.5041914 -0.57969135 0.074228145 0.38021702 -0.14632525 -0.388025 0.45991614 0.70729834 0.10848144 -0.36825925 0.40066767 0.12023857 -0.24295251 0.0115752695 -0.0028518357 0.76317644 -0.25897866 -0.19649951 0.15080541 -0.21141449 -0.06298904 0.4342377 0.23068161 -0.07092219 0.074767455 -0.40345204 0.45000032 -0.03188484 -0.77911484 -0.05843872 -0.0019353814 -0.7627994 -0.39986938 0.06982233 -0.13942316 0.37987515 -0.7153657 -0.23203999 -0.3039946 0.3086143 0.2508812 -0.6132564 0.081480145 0.10375419 0.24763711 -0.38040826 0.27478835 -0.10603989 -0.40783992 0.089 0.105359845 -0.31266508 0.31861815 -0.18572439 -0.13787135 0.6347746 0.52143955 0.08277541
147714 -0.7442236 0.3400266 -0.281461 -0.87320375 -0.45054945 -0.31545767 -0.1783633 -0.02953911 -0.7110706 0.25691447 -1.0430478 0.2522862 0.37948298 0.3222459 0.33087304 -0.42904946 1.0042365 0.2802066 -0.28491238 -0.29061615 0.47647452 0.2685918 -0.09976124 0.051665895 -0.59219307 -0.22487365 0.10734993 0.37374413 0.39974356 0.45843163 0.2264686 -0.33766773 0.1962188 0.0255075 0.15400603 0.33881012 0.20124313 -0.24062422 -0.57680947 0.29729435 -0.3258936 0.6078628 -0.059995074 -0.42570868 -0.40096354 0.06601711 0.081955604 -0.7797692 -0.008768523 1.0293971 -0.11492596 -0.43024364 0.9483824 0.281092 -0.21746749 -0.276443 -0.25926223 -0.30371818 0.14521646 -0.22428544 -0.23807457 -0.13302127 0.045937695 -0.33888155
147324 0.09405745 0.63897914 -0.12363111 -1.0599427 0.12431784 0.16552962 0.22673261 -0.2351099 -0.85478723 -0.28082198 -0.13767752 -0.18934011 0.10156407 0.4287813 0.3589402 -0.72838336 -0.29603174 0.18200906 0.5417954 0.15266417 -0.09340659 0.24750812 -0.23634197 -0.5977078 -0.38477492 -0.7673954 0.053691514 -0.12861258 0.31760016 -0.11487142 -0.5942074 -0.2639598 0.020106213 0.055847127 -0.4636783 -0.2257727 0.8405093 -0.46010163 -0.34034482 0.14498845 -0.711333 -0.48040816 0.0055538453 -0.37789318 -0.15870504 0.40444008 -0.083715424 -0.9114906 0.47171614 0.17050801 -0.27021706 -0.6965872 -0.26560417 0.007621802 0.3498454 -0.10448606 0.42553642 0.11560883 0.21852718 0.38556248 0.35322192 -0.10747543 0.32361874 -0.20890762
147514 -0.06855259 0.8926898 -0.5372667 -0.3836887 -0.0010581873 -0.15465645 -0.15505043 -0.67873555 0.04363904 -0.040196646 -0.44898736 -0.664589 0.08191582 0.6532919 0.57243764 -0.5093555 0.1281862 -0.0809679 0.192726 -0.7897325 0.41522983 0.79050803 0.072720595 -0.39451328 -0.9587359 -0.3824595 -0.17123929 0.035399742 0.42012632 0.05701468 -0.442901 -0.15059198 0.28760433 -0.007911636 -0.07576108 -0.26394174 0.36198556 -0.025047047 -0.35478362 -0.012027975 -0.23788033 0.14919293 -0.0990246 -0.19341537 -0.69516003 0.42095426 -0.01590359 -0.48331884 0.68878067 -0.45784032 -0.15696515 -0.22009662 -0.1657296 0.005275299 -0.07279712 -0.3446928 0.29561126 -0.8484516 -0.26160577 -0.4321166 -0.5959188 0.14546977 0.4166483 0.061315317
148587 -0.38939574 0.1475508 0.11454033 -0.4972699 -0.19939427 0.61890376 -0.1255306 -0.006325204 -0.41957808 0.51400965 -0.6228698 0.19483782 -0.046333853 -0.12916248 0.4321959 -1.0498824 0.3087765 0.09869697 0.33064786 -0.1391356 0.19283564 0.48941693 -0.17672949 0.17236254 -0.086438835 -0.24624114 -0.16504812 -0.073607065 0.2718956 0.33007053 -0.16858527 0.114909664 0.25516266 0.13355261 -0.29969913 0.31241584 -0.35693437 -0.17059477 -0.17762774 -0.6213119 -0.78104436 0.14119928 -0.61382973 -0.07606881 -0.6675764 -0.053671695 -0.0466276 -1.171986 0.38687605 0.43367615 -0.11391482 0.14255282 -0.16606131 -0.15612423 -0.0194302 -0.16393355 0.20220453 -0.64792895 0.0881674 -0.19462678 0.13714743 0.16228819 0.3513584 0.1615272
147648 -0.21370126 0.15293947 0.26717296 -0.19069977 0.005132373 -0.29950967 -0.03854558 -0.6518878 0.30645496 0.15909693 -0.32478186 -0.34936818 -0.19531147 0.6802947 -0.07957131 -0.1665897 0.26593155 0.5397612 0.049216203 -0.080531314 -0.24997573 0.93097275 -0.48073888 0.26365966 -0.23016934 0.02452241 -0.15698874 0.31353232 -0.09656243 -0.029757388 -0.8116071 0.024850119 0.21307452 0.0087986905 -0.19491799 0.37783158 0.01381998 0.040840637 -0.18714057 -0.081284635 -0.3557958 0.42637742 -1.0593482 0.29919618 -0.51437986 0.41665614 0.49134743 -0.8653982 0.38680014 0.85738957 -0.47237042 -0.21677682 0.14528063 -0.22317675 -0.31730786 0.009820671 0.4469128 -0.18320417 0.13946097 0.35469157 -0.43778673 -0.5633036 0.69591296 0.019177299
146943 -0.25016642 0.08484596 0.35650346 -0.8671985 -0.3581268 -0.3173224 -0.33645958 0.13028516 -0.035771653 -0.06669075 -0.554381 -0.11616281 -0.41288984 0.17752148 0.65902203 -0.0143037625 0.33848366 -0.70637786 0.16169494 -0.2845258 -0.24328865 0.22088647 0.013316825 -0.4286685 -0.007343337 -0.3849163 -0.083186015 -0.29369077 -0.22974172 0.1265401 0.66954017 0.12715009 -0.15430996 0.24643527 0.62815785 -0.24801718 -0.08789024 -0.26002938 -0.52518934 0.048961483 -0.784168 0.09486664 -0.29680148 -0.14964621 -1.0590904 0.044843417 0.5357391 -1.3668243 0.4111374 0.6070777 -0.27691603 -0.17245758 -0.036468957 -0.1751361 -0.090701 0.051116154 0.059678655 -0.12575191 -0.33099148 -0.11691828 -0.40084994 -0.17766152 0.48923722 -0.015264179
146156 -0.23281378 -0.6239593 0.08823547 -1.0200748 -0.33369288 -0.20081344 0.58791834 0.23479673 -0.4732952 -0.3087343 0.1495748 -0.32579848 0.41842753 0.0370253 0.3275881 0.22569449 -0.061286956 0.08613229 0.45776263 -0.85802764 -0.1405243 0.16331755 0.03886893 0.36568704 0.08421069 -0.18043429 -1.0617187 0.2743951 0.23990427 0.4610476 -0.5968934 -0.22262697 -0.4255514 -0.2569706 -0.14370754 -0.21934554 -0.20120673 0.22812791 0.122091234 0.23947927 0.09476695 -0.016074914 0.07518806 -0.15497799 -0.170361 0.019295773 -0.7141494 0.16192144 0.51160383 0.028913211 0.17872427 0.12439351 0.25757065 0.18311681 -0.08812838 -0.1534042 0.035104774 0.26330486 -0.56036246 -0.041343246 -0.48931348 0.10574116 -0.20570363 0.54985976
146385 -0.429603 0.24286205 -0.55182415 -0.33551133 0.14329988 -0.3634311 0.36418793 -0.13702 -0.55509096 0.63784033 -0.4055393 -0.09663301 -0.5272905 0.36243612 1.2017622 -0.15142775 0.84916383 0.3030745 -0.47750437 -0.68522114 0.14569904 -0.0353062 0.08706712 0.32450312 0.40411553 -0.04969345 0.77888334 -0.29180416 -0.2242368 0.4700168 0.24929659 0.4042697 0.086362325 -0.13676845 -0.5629053 0.09920529 -0.08222248 -0.036905084 -0.3525015 0.23878378 -0.47679082 -0.18899819 -0.60854924 -0.84631985 -0.9350123 0.68527204 -0.8841202 -0.96000063 -0.23397866 0.49555334 0.37348196 0.12259369 -0.13598147 -0.31259033 0.14860402 -0.42111018 -0.20270213 -0.3571584 0.42665374 -0.062246487 -0.3757171 0.37551168 0.4410512 -0.18552427
148514 -0.26969388 0.011553447 -0.05359567 -0.53204167 0.16290234 -0.40299615 -0.55524606 -0.2337246 -0.76952034 -0.18556792 -0.28271696 0.09483457 1.1234668 0.14930683 0.32653937 -0.09588074 -0.06283715 0.20292714 -0.16227204 -0.6667981 -0.2516036 -0.37716225 -0.24231035 -0.09308074 0.37790528 0.07339097 0.09529354 -0.32873985 -0.36729297 -0.011069732 -0.20758697 -0.26532963 0.42487276 0.2934673 -0.7546345 0.4772625 0.1490206 -0.85305995 -0.38292646 0.23744959 -0.35023993 0.5472658 -0.6393426 -0.1330076 -0.4288752 -0.28270856 0.21875995 -0.1931581 0.6035478 0.7163429 0.30516857 -0.24686912 -0.08631212 0.33615384 0.27633792 0.27696973 0.3308621 -0.42292705 -0.2038702 -0.10190713 -0.80514085 -0.0121387625 0.045397636 0.082720526
146583 -0.53982306 -0.14111891 -0.19645695 -0.8186867 -0.14279641 -0.12485463 0.0894351 0.2196371 -0.031758025 -0.4037512 0.16105635 0.10335041 0.70402366 0.31283972 -0.28906715 0.48172745 0.17614667 0.16363353 0.5333741 -0.31529698 -0.6203005 1.0184008 -0.8171912 0.92171276 -0.97768354 0.42651677 0.96369636 -0.63930964 -0.23880678 -0.20989136 -0.042445064 -1.1126385 0.43187338 -0.018282803 0.25943455 -0.5568172 -0.20171633 -0.43078807 -0.14596832 0.20541266 -0.551886 -0.28300843 -0.23840462 -0.20159945 0.06537969 -0.12491993 -0.9069569 0.6637248 -0.106188685 0.42012674 -0.5290704 0.29736412 -0.14730637 -0.0572314 0.31246254 -0.41386485 0.04682859 -0.07155054 0.38941297 -0.14437565 0.27196094 0.021099959 -0.26628163 -0.08216736
146985 -0.19595659 -0.3768467 -0.15346779 -0.31401482 -0.2445669 -0.05653037 -0.1367806 0.43411997 -0.77237344 0.55435914 0.30207855 -0.6902158 0.04624787 0.28932548 0.8115953 -0.5854125 0.18579754 -0.24086937 -0.06620657 -0.60863256 0.232159 0.353745 -0.16733882 0.5638745 0.3811839 -0.38666835 0.4004424 0.17774907 0.09581319 0.22470804 -0.41037077 -0.34257543 0.033820987 0.049595017 -0.2763796 -0.08595336 0.2826874 -0.59958756 0.5965266 -0.15515779 -0.33376455 0.44571987 -0.50700337 0.030723443 0.24437274 0.54794085 -0.78084046 -0.33649325 0.17463148 0.3533069 0.045656737 -0.09120705 0.11342216 0.17421009 -0.53262335 0.6682968 0.20087965 0.15105256 0.19943398 -0.66609484 -0.9377043 -0.3240876 0.7970117 -0.46983245
146675 0.985263 0.7150927 0.3768994 -0.5909659 0.6798715 0.2735289 0.7562081 0.61637336 -0.7603653 -0.5934386 0.64557636 -0.8161451 -0.5403409 0.33121195 -0.06755779 -0.66771966 0.59063584 -0.75617063 0.39060572 -0.32348698 0.48295143 -0.3210383 -0.19360259 0.5511027 0.18631642 0.12035311 0.53840053 -0.42784634 0.0648984 -0.13054849 -1.3223771 -0.34226403 -0.08632218 0.20773219 1.7010723 -0.28601936 -0.165915 -0.3359153 -0.15134376 -0.73606056 -0.010557481 0.6023471 -0.8080548 0.030296415 -0.18351415 0.18677256 -0.8922998 0.31002015 -0.48976052 0.5678628 0.41589904 -0.17152691 -0.2685431 1.5253633 -0.09329454 -1.1667118 -0.7101922 -0.5558526 0.81209916 -0.31765616 -1.3929026 0.9705717 1.0337845 -0.88828325
146791 -1.0461638 0.24988973 -0.7281784 -0.35792583 -0.2986193 0.034876447 -0.56607234 -0.07464181 -0.2373302 0.15620506 -0.8990229 0.048541076 -0.016779855 0.008657604 0.30905414 0.289046 0.5643281 0.070424 0.39204767 -0.30399567 0.3770187 0.0034456435 -0.018975733 -0.09369038 -0.23447917 -0.28306276 0.035803933 -0.018905643 0.17177564 0.25768802 -0.3647156 0.27088666 0.29164374 0.22567585 -0.27312487 -0.07573608 -0.21947588 -0.77611995 -0.6515105 0.35979787 0.3483722 0.302659 -0.68797284 0.5631373 -0.17711255 0.31274715 -0.1760872 -0.19593248 0.15166569 0.3559167 0.072618835 -0.77306986 0.33048144 0.759926 -0.7228083 -0.4317517 -0.032107666 -0.12674464 0.2103257 -0.3744194 -0.57515436 0.42791447 0.6155137 -0.32527876
147253 -0.7475038 0.030020796 0.44969153 -0.2347718 0.53103304 0.94808596 0.32668987 -0.73534256 0.02395947 -0.70784837 -0.2575842 -0.24289228 0.122069545 0.021760771 -0.07574391 0.15669538 -0.5449028 -0.27747375 -0.21877982 -0.63043815 0.098954126 -0.30168954 -0.4212172 0.3496713 -0.2977068 -0.12553254 0.32502618 -0.5205568 -0.23669374 0.5232501 -0.14173459 -0.23499909 -0.21342993 0.8144223 0.34672335 -0.3653052 -0.11512 0.030933319 0.284959 -0.5360621 -0.9082667 0.1277488 -0.68014735 0.6238213 -1.249008 -0.26003754 0.1475165 0.52994865 -0.44281304 0.13514006 0.08629481 -0.14166395 -0.2253198 0.30311474 0.35924792 -0.6136521 0.18288665 -0.028716829 -0.07406739 0.41397625 -1.1008537 0.10448631 0.21926822 0.4127359
148506 -0.085098445 -0.43206283 0.07512662 -0.58772737 0.53384787 0.26274508 -0.16517377 -0.009939376 0.3798659 0.52358633 -0.14654385 -0.67121243 0.20295411 -0.5815056 0.18108132 -0.052772366 0.56854415 -0.086271316 0.10016143 -0.927177 -0.4910206 0.31067467 -0.37729204 -0.04777561 0.40498233 -0.2507098 0.6137048 0.508105 -0.09563005 -0.5604688 -0.49310064 0.6503744 0.00016958035 -0.117111206 0.3420697 0.11312934 -0.23030281 -0.18673514 0.1992852 0.208315 -0.5716604 -0.19508609 -0.7280186 -0.14800736 -0.7459504 -0.49995798 0.6180204 0.4872378 -0.07045842 -0.3587479 -0.2532626 0.04095205 0.07700643 0.9546166 0.24366173 -0.5095927 -0.51794624 0.3350439 0.64501685 -0.01590418 -0.3586218 -0.015157966 0.07306433 -0.3925966
146057 -0.23716757 -0.6347183 0.13251828 -0.44166696 0.8531002 0.91462225 -0.2696436 0.8779306 0.56793827 -0.51854527 -0.27127406 -0.23825148 -0.17701119 0.16926269 0.42242905 0.056239597 0.1422795 0.25034097 0.103856474 -0.61822 -0.13597293 0.23727842 -0.34573734 -0.13109551 0.42179605 -0.7988359 -0.6941398 -0.1679751 0.5648645 -0.06411408 -0.8621174 0.45059216 0.11533612 -0.24227469 -0.15444565 0.17394342 -0.2699961 0.2683052 -0.122094184 0.3277122 0.10234797 0.1268243 -0.26373324 -0.38580468 -0.54125166 0.16373593 -0.7088589 0.074853614 0.34617236 0.21156819 0.19913997 -0.21938628 0.1711518 -0.30745968 0.3469204 0.30755812 0.3084074 -0.27485165 -0.19115473 0.10389472 -0.1775059 0.40696004 -0.30888698 -0.03117592
146658 -0.06865504 -0.08466503 0.4018466 -0.9000156 0.19750483 -0.40896508 0.7680486 0.2719565 0.33435255 -0.18064053 0.23149252 0.48364818 0.2065695 0.56245065 0.2709472 1.0869762 0.39160618 -0.16091867 -0.20596679 -0.38343382 -0.057623778 0.6651786 -0.49876767 -0.2944449 0.37687236 0.17837085 -0.39167365 0.2688153 0.12540215 -0.056865398 -0.4527302 0.4307748 0.23517394 0.18582964 0.37172055 -0.19338992 -0.0423471 0.03419549 -0.14894782 0.43593004 0.028375877 0.08919415 0.113545835 -0.23488383 -0.79796773 -0.2282277 -0.44084635 -0.38228267 -0.053747497 0.9490971 0.21224456 -0.046755776 -0.029263433 -0.054036528 -0.1396172 -0.1491606 -0.40235314 -0.015062135 -0.12380024 0.124604754 -0.068753935 0.71381277 -0.31449282 -0.09029045
147477 -0.29672977 -0.17730916 -0.27851918 -0.43768126 0.2257844 0.1962935 -0.17142087 0.16148707 -0.68115675 -0.028757755 0.21864684 0.09531397 0.4483038 1.0818453 0.061970837 0.0023968974 0.2911878 -0.09895949 0.37447464 -0.08199047 0.17482077 0.94190264 -0.3370755 0.63081443 -0.81377226 0.4527482 -0.23472269 -0.30209118 0.32532382 -1.0064485 -0.20043753 -0.48687872 0.46242338 -0.23130517 0.40637898 -0.38742656 -0.2918503 -0.113488704 -0.7082614 0.20985398 -0.563444 0.11269168 -0.10584825 -0.37279674 -0.33422488 -0.24139242 -0.43056217 0.5068447 -0.34397277 0.23844239 -0.35350183 0.18483484 -0.06075954 0.11391489 -0.18127434 0.3972979 0.44128427 0.0027915726 0.25517872 -0.20613384 -0.57576406 -0.22852947 -0.64706534 -0.43200898
147080 -0.54773456 0.34726635 -0.16143243 -1.0086298 -0.16186853 0.75706506 -0.35197836 -0.1787197 -0.7589497 0.47064793 -0.099863306 -0.43573657 -0.21693031 0.58531845 0.8001537 -0.16109233 -0.3287309 0.3992637 -0.1476958 -0.39515638 -0.06741325 0.60284793 -0.12197178 -0.5725577 -0.34044072 -0.31475377 0.5447017 -0.2615773 0.00029649658 0.37689653 0.1413696 -0.18415968 0.59306973 -0.22806719 -0.13409536 -0.41165963 -0.31936762 0.4676363 -0.18049881 0.022654124 0.12507993 0.66894305 -0.04361277 -0.6097398 -0.3075779 0.4609502 -0.022508211 -0.6996303 0.021117996 -0.059770126 0.36773965 -0.60259295 -0.53590894 -0.17301553 0.34135425 -0.06941426 -0.10016102 -0.31351173 0.18714395 -0.04850044 -0.4671979 -0.09344319 0.27817342 -0.03424604
146746 0.24741073 -0.05068711 0.28395972 -1.1518131 0.28424382 0.5298629 0.41709924 0.53768706 0.014070598 -0.23343164 0.1597837 0.03007222 0.3952471 0.36696893 0.318626 0.49665225 0.1811398 0.61901045 -0.16802663 -0.37823334 0.21470432 -0.01926417 -0.18384188 -0.15742657 0.62028444 -0.4215929 -0.9625612 -0.11624384 0.28685516 0.4103395 -0.09354366 -0.047886424 -0.19868127 -0.6866411 -0.48712972 -0.9435968 0.014716913 -0.202914 -0.1871829 0.17801592 0.10430142 0.36816353 -0.17895474 -0.67199427 -0.553087 0.02991705 -0.60101295 -0.10853612 0.19319065 0.061763816 -0.25050595 0.3219371 0.2871091 0.31218845 -0.29936332 -0.058964 0.26482308 0.33358037 -0.38872427 0.25532332 0.06835868 0.23822743 0.040333923 0.23584667
147073 -0.11368336 0.39329386 -0.170719 -0.6270196 -0.7511172 0.2625656 -0.8839511 0.18355896 -0.0850166 -0.28190073 -0.122757226 -0.107634194 0.16974734 0.29428452 0.34459272 -0.61590165 0.5396333 -0.05877324 0.16066729 -0.33672142 0.52972037 0.046409033 -0.2461462 -0.24399818 -0.59033096 -0.14968148 0.056065705 0.06375582 0.23948243 -0.19820306 -0.4369255 0.18148549 0.63067794 0.064126015 -0.9458604 0.3840557 0.3294972 -0.33731025 0.1452788 0.54331625 -0.49995527 0.020849122 -1.1824346 -0.008641492 -0.20280872 0.3193082 -0.30271095 -0.48656532 0.14946218 -0.23885965 -0.80515766 -0.10971341 0.05651057 0.79135317 -0.53496194 -0.27202538 -0.008657512 0.060736768 -0.44210857 0.31220928 -0.72599465 -0.13134754 0.39500338 -0.31174272
147998 0.00922575 -0.29014426 0.13661397 -0.97168744 -0.10131976 0.14594774 0.2888818 0.21428084 0.2938857 -0.6303332 0.080645405 -0.517316 -0.022441672 -0.110551365 0.21263094 -0.08027091 0.06082654 -0.11628162 0.004316092 -0.97856563 -0.12332921 0.3886376 -0.5380898 0.7731695 0.39661235 -0.5864548 -0.49630427 -0.22552107 0.3185266 0.22824895 -0.017742844 0.257276 0.087102845 -0.2817312 0.023457464 0.0002668669 -0.4056085 0.1285524 0.32061675 0.9628559 -0.31956384 -0.010819291 -0.057898723 0.06980293 0.15991671 0.5341455 -0.63557357 0.24595952 0.16380699 0.39503533 -0.12297092 -0.20379661 -0.14245352 -0.28704232 0.21472469 -0.123908214 -0.17342371 -0.37467146 -0.5089786 0.36343738 -0.020150425 0.6129218 -0.40625918 0.32342112
146618 0.22317551 -0.14940044 0.50884396 -1.1605023 0.050440192 -0.58587563 -0.31833026 0.18150817 -0.3024225 0.8238853 -0.38675892 0.15178235 -0.19205667 -0.06961331 0.48760626 0.19559656 0.46621335 0.30988002 0.24021675 0.050572816 0.18732798 0.32430682 0.06307912 -0.034654 0.009626786 -0.51964843 0.25311095 0.35925204 0.06980448 -0.013834529 -0.5364372 -0.07624634 -0.12921204 0.4829213 -0.50507176 0.13019015 -0.15844537 -0.12514591 -0.29160774 -0.52225554 -0.42562783 0.060471926 -0.2748232 0.00950326 -0.9451919 0.13709146 -0.32281718 -1.0811187 -0.15439372 -0.12004071 -0.26255554 -0.7727299 0.48751897 0.19646512 0.44589004 0.7768592 0.33501342 0.13154739 0.64209634 0.13541721 -0.2150645 -0.14591105 0.13707851 -0.3021799
144502 0.3020063 0.6217694 -0.22917433 -0.91281766 -0.09314819 0.20784199 -0.19056307 -0.5132119 -0.20061421 -0.08273137 -0.006006595 -0.75452226 -0.23944631 0.071827576 -0.45441997 -0.4903784 0.4976656 0.03993961 -0.06570045 -0.60663 -0.6085405 0.22917446 0.46919686 0.37192526 0.44909522 0.323608 -0.23017381 0.20543227 -0.6169182 0.12353702 -0.1282603 0.460812 -0.34294435 0.14615425 0.02103597 0.083641924 -0.24040782 0.00093135785 0.020500906 -0.44467553 -0.6456005 0.20651552 -0.0841256 -0.42947528 -0.6168915 -0.22062233 0.5032111 0.43631348 -0.13408342 -0.24901594 0.056597635 -0.28391668 -0.39802313 1.0586758 -0.560987 -0.34178406 0.13825987 0.42396054 -0.3136436 -0.08475567 0.073838934 0.49486795 -0.77906543 -0.118898205
147524 0.45372036 0.20119324 -0.077802084 -0.63380647 -0.47911987 -0.38023388 -0.61362 0.13054658 0.49735832 -0.23563637 -0.5833969 -0.6058875 0.1391212 0.5175732 0.299677 0.3149861 0.37177664 -0.089721225 -0.3567836 0.08287684 0.42048818 0.8428334 -0.35177153 0.3408684 0.017546726 -0.5260908 0.76522577 -0.017988484 0.8893744 -0.32621402 -0.2697728 -0.33196068 0.0087373685 -0.120069854 -0.20590648 -0.19332553 -0.6115519 -0.10672776 -0.37223357 -0.66456383 -0.57763195 0.38315645 -0.036624186 0.23878108 -0.7850156 -0.7748806 -0.46640158 0.5142737 -0.35277754 0.40823343 0.123011105 -0.49336734 -0.03688624 -0.14817117 0.528607 -0.22413686 -0.15728916 0.26448014 -0.13274524 0.45495278 -0.5361641 -0.72216314 -0.2735872 0.32974923
147763 0.22445498 -0.006813119 -0.2907481 -0.473329 0.022168819 0.24222921 0.1287857 0.05516526 -0.347788 0.15309899 0.11875482 -0.41486648 0.36229375 0.7654649 -0.19158475 -0.12872398 0.26795566 0.45536643 -0.17757075 0.13612266 0.37340358 0.57299054 -0.48979956 0.7821494 0.2667816 0.29066142 0.9162808 -0.170289 0.695585 -0.8784734 0.15431486 0.16419382 -0.4997792 -0.3566965 0.058216646 -0.74376297 -0.72806185 0.040896922 -0.19932799 -0.2287959 -0.44007564 0.15031381 -0.32831877 -0.46838984 0.00086089736 -0.06935993 -0.10935837 0.13384528 0.026500903 0.49299315 -0.3238988 -0.28906468 -0.8422954 -0.0041911085 -0.3561655 0.36674082 0.45960987 0.70954454 -0.017898897 0.80053073 -0.6826886 0.1673633 0.17803073 -0.019226924
147997 -0.017472807 -0.6178936 0.07169063 -0.73376137 -0.8727154 -0.16817382 0.16110195 -0.67383254 0.009999565 -0.40126765 -0.12632129 -0.77818584 0.1920094 0.035900485 0.6741648 -0.7307753 -0.32231292 -0.0757726 -0.068336524 -0.79420537 -0.09063885 1.3756241 -0.73359126 0.8650914 0.3028045 -0.3756436 -0.19207463 0.11289681 0.47649854 -0.47189623 -0.2000728 -0.5564669 -0.12491909 -0.39064476 -0.31086707 -0.0038814542 -1.2523319 -0.41980174 0.10864569 0.6514449 -0.9040502 0.36702377 0.33711505 -0.34720278 0.44223818 0.15379651 -0.68443567 0.7583857 -0.0017179354 0.3285346 -0.15029466 -0.28705963 0.07545927 -0.5337576 -0.20844325 -0.147423 -0.6304165 -0.52959704 0.37024474 -0.063983895 -0.36515918 0.12536858 -0.32515123 0.07047697
148688 0.60265976 -0.5172341 0.6246706 -0.48973212 -0.3949727 0.69241214 -0.858187 -0.40459338 -0.15386723 0.30596757 0.77129143 -1.0802234 0.36772066 0.07818605 0.43142316 0.5031898 0.09816199 -0.2583643 -0.35779268 -1.1921899 -0.47913033 0.2744185 0.4178089 -0.3717254 0.54825646 -1.4022067 0.2641748 0.44781628 -0.2251879 0.5677727 0.17788862 0.31381375 -0.38924366 0.40732756 0.43515 0.15103444 -0.8143449 -0.8064283 -0.6030822 -0.03362428 -0.8184546 -0.0065551256 0.047880102 -0.438851 -0.3881948 -0.49360022 0.023812912 0.14171076 0.12617987 0.88054836 -0.65361345 0.45537007 -0.95460767 0.70081633 0.48065516 -0.52334845 -0.5430179 0.7275742 0.7250506 -0.88462937 0.08249623 0.33535412 -0.27220204 -0.3014665
146991 0.08137854 -0.28585356 -0.5834029 -0.56357175 0.041607264 -0.23408538 -0.0011141531 0.24664497 -0.04759805 -0.31973287 0.1454416 0.11528978 0.61276114 0.98444235 0.32574978 0.011382016 0.18471873 -0.014061016 0.37096792 -0.42183462 -0.3000387 0.73118615 -0.40159655 0.83319247 0.1618915 -0.7619568 0.09651581 -0.4212118 -0.28655025 -0.91393846 -0.6896502 -0.5346558 0.77184266 -0.3359028 0.50113857 -0.98298794 -0.42378062 0.1180683 -0.525049 0.064622425 -0.16769567 -0.68379205 0.3813987 0.3886332 -0.69238085 -0.74267757 0.14712667 0.18461163 -0.21576312 0.03730665 0.0076488564 0.013319924 -0.2262776 -0.09309967 -0.404992 -0.027953781 0.11674564 0.5306769 0.01573266 0.351931 -0.5274386 0.05941461 -0.032725886 -0.4156283
148595 0.22905238 0.065589145 -0.37846372 -1.0999211 -0.45054907 0.005473749 -0.49940044 0.06437993 0.08109705 -0.046909984 -0.04730114 0.8574887 -0.4524055 1.0228384 0.051749658 -0.66134274 0.1791689 -0.5175134 0.033991218 -0.4459871 0.10561551 0.5950197 0.16033806 -0.3430698 0.08773285 0.32340288 0.2747277 0.0016474404 0.17429116 0.7577834 0.08052627 -0.36605364 0.5286659 0.33994108 -0.42364153 -0.37032783 0.21404558 0.11168431 -0.10936086 0.076468416 -0.9321721 0.004060746 0.13546035 -0.60655904 -0.95821995 0.060704395 0.36865905 -0.74468017 0.5211406 0.8129557 0.63755894 -0.18897663 -0.698645 0.65044045 0.14376347 -0.29625934 0.88520634 -0.2920081 0.40228003 0.12286907 -0.42866305 -0.13405588 1.0746335 0.33032307
146879 -0.16679864 0.03515579 -0.15957323 0.01764587 -0.66038185 0.42426655 0.27296653 -0.02697943 -0.21548572 0.03615724 -0.22396679 0.18697046 0.47319221 0.484004 0.42446512 0.17794286 -0.117557734 -0.38196927 0.15743588 -0.5838764 -0.5808449 0.36873016 0.32538414 0.15544234 0.30053386 -0.42561054 -0.068538606 -0.42379743 -0.07975913 0.26793924 0.19665858 -0.35616332 0.7427402 0.46831015 -0.36840126 0.016528912 -0.048752796 -1.0855172 0.4083068 -0.25301477 0.24463306 0.072578624 -0.7243834 -0.48509037 -0.11453633 0.5884144 -0.17752147 -0.79224986 0.1105457 0.5176847 0.35674247 -0.7477515 -0.17600642 -0.2556849 -0.28767022 0.13731052 0.00954661 0.3202148 0.20703696 -0.62018454 -0.36562496 0.10318197 -0.13296661 0.14370264
142834 0.42588586 0.06210268 -0.2784745 -0.6409073 -0.03290734 0.70991826 -0.4487005 0.1356335 0.7911301 -0.26011586 -0.5321177 -1.051968 -0.0138073675 0.31346688 0.029895272 0.11837117 0.28371018 -0.34460816 0.3840191 -0.6248749 -0.8216198 -0.039672665 -0.5637831 0.14933266 -0.15538704 -0.32137936 0.5872745 0.3513638 -0.70104647 -0.2880744 -0.109245315 0.116635844 -0.4031771 0.2138157 -0.03075797 0.30843124 -0.009016452 0.34225672 -0.04798829 -0.3273192 -0.3323977 -0.17754047 -0.6298256 -0.4892742 -0.5159096 -0.118666284 0.34390244 0.13354835 0.05044653 -0.16890621 -0.08867277 0.14006737 -0.029605122 0.8747672 -0.0032414182 -0.102981605 -0.14343779 -0.0512556 -0.2113039 -0.43719158 0.416591 0.062466823 -0.2241043 0.24681273
147425 0.50753844 0.08643391 0.2920279 -0.5750454 0.2632668 0.26200572 0.02252139 0.068308994 -0.11672477 -0.069999054 -0.085618995 -0.0074699926 0.79601324 -0.103956744 0.21979634 -0.8127798 0.3817442 -0.370724 -0.23184185 -0.8690202 -0.40942457 0.29166025 0.16613573 0.21412368 0.09008227 -0.03438717 -0.06917795 0.24652338 0.40745872 0.44748643 -1.0302389 0.4339695 0.072093606 0.54051685 0.51018333 0.89927167 -0.22155564 0.39021397 0.52976215 0.13601139 -0.17603372 0.15220669 -0.5160782 -0.37286717 -0.54260486 -0.29816923 0.83666545 0.20081538 -0.32904312 0.28027445 0.16290425 -0.36644652 -0.5885576 0.6789761 0.16460958 0.08038057 -0.100786015 0.50039613 0.24132447 -0.2353626 -0.24865577 -0.30662018 -0.22659361 -0.21921068
147717 0.005413199 -0.8189019 0.058431044 -0.74002147 -0.69948566 1.0675731 0.4067308 0.34712222 0.12187596 -0.08166344 -0.84284705 -0.40102455 -0.005863591 0.06600183 -0.12209374 -0.31441656 0.20945032 0.35204247 0.065725245 -0.61699885 -0.4536606 -0.30150795 -0.010395946 0.48894477 0.5390042 -0.13571134 0.3166484 0.1868619 -0.12616853 -0.73182946 -0.36914468 -0.28143433 -0.7732327 0.13314897 -0.05308308 0.48374853 0.66159344 0.73422784 -0.90074843 -0.57346135 -0.39361748 -0.69839543 -0.14733964 -0.6165594 -0.5569938 -0.44157287 0.30935618 -0.11685933 0.6269542 -0.3709175 0.1078248 -0.11863225 -0.8484162 0.39489952 -0.3243131 0.08508709 -0.03313446 -0.17075127 0.8581124 -0.26658157 -0.66031456 0.32647365 -0.797042 -0.53408176
147816 0.025684854 0.2351938 0.029451845 -0.6307896 -0.00907535 0.26621976 -0.24130973 -0.24172014 -0.41880432 0.32253978 0.10239144 -0.8872346 0.31198484 -0.17995754 -0.2244083 -0.19195224 0.4947786 0.51429874 0.29707482 -1.5447245 -0.18661514 0.18604608 -0.42465377 0.3838524 0.38992915 0.03945558 0.34950617 -0.2848497 -0.5977392 0.6417885 -0.5998402 0.68040437 -0.49834505 0.61298364 0.2753344 -0.70067436 0.28754577 -0.20796892 -0.07677831 -0.49407673 0.16456795 0.19174689 0.34368044 -0.13649905 -0.6256361 -0.14058292 0.8474309 0.3304985 -0.12859893 0.16357054 0.19228582 -0.4766247 0.06399782 0.2404498 0.36737633 -0.6061626 0.15362988 0.5646303 -0.28388664 0.12569782 -0.10195856 -0.7578543 -0.30710146 -0.83424485
147404 -0.21841758 0.35159263 -0.34543628 -0.2980828 -0.040047754 0.032658443 0.084166996 -0.09825885 -0.29534402 -0.7338593 -0.38992178 -0.30749232 -0.4034292 0.37598625 0.24650587 -0.8595304 -0.06868166 0.4144258 -0.043810222 -0.40876666 -0.16113704 0.42988017 -0.080574416 -0.23433495 -0.30085447 -0.37684804 0.12694043 0.2493131 -0.23806275 0.4174128 -0.50356525 0.106943205 0.38926902 0.060205296 -0.95095235 0.37797394 0.29669845 -0.31092048 -0.4448399 0.2632696 -0.3362059 -0.10672179 -0.021484116 -0.24965912 -0.2115016 0.8735345 -0.16264357 0.043935888 0.44127604 0.31263164 -0.064465 -0.2518077 -0.5638497 0.17494914 -0.17100905 -0.37659365 0.09157342 0.25438213 0.26870084 0.31192878 -0.083127275 -0.09299985 0.47445124 -0.4631885
148522 0.29803255 0.08120621 0.16090304 -0.49041826 0.2905856 0.30167326 0.24918127 0.39876956 0.7492048 -0.5289618 0.35771668 -0.48839 0.52214485 -0.0067714355 0.33693323 0.2935156 0.26560107 0.26819202 0.29238668 -0.49655476 0.16998392 -0.08816059 -0.20451307 0.34648615 -0.26998118 -0.70163935 -0.42686713 0.57719994 0.35905993 0.49956298 -0.73895955 0.15147981 0.03136803 -0.32775673 -0.4738338 0.14078285 -0.42054397 0.051104274 -0.1684628 0.7051939 -0.054005284 0.17480823 0.061611865 -0.12460821 -0.36130798 -0.037972257 -0.66219205 -0.3241658 0.12382193 0.05591913 -0.25828218 -0.39388707 -0.18262199 -0.051991526 0.19933535 -0.5199409 0.2921346 0.49476638 -0.3592132 0.5228686 -0.17861609 0.24988493 0.38676924 0.34377176
146886 0.4202479 0.22875392 0.27528527 -0.16390854 0.4876588 0.17234233 0.08074545 0.5761282 0.43982065 -0.54042155 -0.17415632 -0.26462823 0.34670606 -0.17853577 0.38122827 0.65633446 -0.04201048 -0.094413154 -0.05776269 -0.3998805 -0.35986018 0.7668346 -0.23935306 0.43887478 0.13548702 -0.67385787 -0.4771029 0.33308357 0.14311168 0.6610313 0.16349703 -0.062540516 -0.18194537 -0.5954307 -0.15085272 0.22926271 -0.15170872 0.5433737 -0.1667751 0.46432996 -0.17553039 0.32510903 -0.5121178 -0.42232656 0.10299388 0.38794968 0.23669347 -0.2954147 -0.21613675 0.7088383 -0.27526352 -0.3023653 0.6393723 0.12204043 -0.4779755 -0.072954424 0.4990354 0.4724398 -0.17665523 0.3016276 -0.36742708 0.3175439 0.37050357 -0.25302696
147128 0.16039427 -1.0611842 0.13310379 -0.5163098 0.3218339 0.9206577 0.9161568 -0.07691085 -0.21388964 -0.19037949 -0.7651471 -0.25452566 0.4153715 0.13950762 -0.3724095 0.4067255 -0.5002677 0.010196346 -0.19332299 -0.4440957 0.15504001 -0.046504848 -0.19786026 0.8044524 0.1563431 -0.41667914 0.1785146 -0.17824437 -0.15430173 -0.5530579 -0.20818296 -0.55951375 -0.6385939 0.267724 -0.09706612 0.20466012 0.28200066 -0.10437841 -0.89234316 -0.47968116 0.036834396 -0.1952818 0.2515447 -0.052303027 -0.34601045 -0.2907518 1.0250968 0.25857314 0.6819325 0.43822855 0.118071616 -0.386259 -0.9454804 -0.13362923 -0.5746283 -0.19250096 -0.05901102 0.085912704 0.30067635 -0.34095168 0.13025881 -0.29377896 -0.043907367 -0.37662044
147356 -0.14001673 -0.4533869 -0.3206751 -0.28333172 -0.41777292 0.12837577 0.3160558 0.45383456 0.055053197 -0.34097373 0.16392529 -0.5869681 1.2193865 0.6456948 0.17673908 0.61079985 -0.032488268 -0.43947342 0.3803247 -0.48151407 0.12212346 0.5724252 -0.69127244 0.0318311 -0.43032253 0.46486977 -0.14350934 -0.18610631 0.38613713 -0.15224527 0.16939853 -0.21347304 0.0800747 -0.29347438 0.27423108 -0.43419892 -0.5832571 -0.1662256 -0.01987281 -0.10259716 -0.6084367 -0.17861867 -0.30732748 -0.16016807 -0.0921622 0.10941317 -0.249655 0.11650474 0.2057049 -0.17483178 -0.53231376 -0.66563165 -0.2080073 0.3374973 -0.14618523 0.0953538 0.6847001 -0.0103372475 1.033098 0.06684689 -0.9555696 -0.6931085 -0.73071945 -0.060028154
146714 -0.18104263 0.0384335 -0.10382405 -0.5883072 -0.17928517 0.18845777 -0.5930928 0.015982121 -0.5073522 -0.03927938 -0.47365624 -0.2840327 0.14668858 0.3135294 0.3623594 -0.28018826 0.53627235 0.9861449 -0.524335 -0.7884981 0.3920896 -0.029696103 -0.13279903 0.2824273 -0.0055270824 0.014426013 0.38990393 0.17859584 -0.001189953 -0.028053932 -0.16002272 -0.8730731 -0.0060224296 0.4645305 0.1994782 0.107340455 0.4332664 0.016647348 -0.98969346 -0.21617661 0.35775274 0.6911682 -0.37417808 -0.24022573 0.55170083 -0.028467136 0.038777843 -0.7349951 0.4120381 0.7715996 -0.19521548 -0.063442685 -0.17954035 -0.32079163 -0.23876676 0.287757 0.19332239 -0.1005546 0.16774274 0.028278641 -0.22186825 -0.027883826 0.21070102 -0.07460525
146687 -0.3712619 0.88490856 -0.1473011 -1.2139353 0.36332193 -0.019754976 0.53811926 -0.35964674 -0.024694748 0.83180404 0.060922742 -0.39319262 -0.0035968258 0.38662675 0.4844608 -0.3611923 -0.5453022 0.1265018 0.37551647 -0.36435235 0.60061574 0.83826476 -0.25118566 0.04626443 -0.2913208 -0.07099487 0.24959075 0.371172 -0.4214636 -0.4278234 -0.8327151 -0.44189513 0.34635103 -0.022540387 0.029054752 -0.14357546 0.5509023 -0.07870828 -0.735837 -0.54900354 -0.067916974 0.21177724 -0.92947507 0.24871972 -0.12248517 0.19575083 0.20049219 -0.83918005 0.66038 0.5047191 -0.50059885 0.063797906 0.44851923 -0.5948981 -0.32186446 0.04909163 0.37506223 0.15256138 -0.28177592 -0.08097062 -0.5797051 -0.34987652 0.26027972 0.21566878
147318 0.2845568 -0.025908297 0.2703165 -0.9993226 0.34482417 0.035825722 0.4397467 0.012689141 0.3430086 0.13477546 0.2911736 -0.49510166 0.46176425 0.5761053 -0.28527847 0.51573455 0.12100271 0.15150656 0.6735043 -0.5295641 0.19658272 -0.7377004 -0.42881435 0.5327354 0.23318371 -0.38820237 0.044622265 -0.0074165734 -0.12120895 0.09548587 0.07133714 0.33936676 0.4253089 -0.17263359 0.23537567 0.23826765 -1.0115467 -0.065775536 0.03871978 0.042875495 -0.2593191 -0.045839082 -0.55488497 -0.13818198 -0.36564407 0.15002266 -0.8063078 0.10254322 0.9860295 0.44182146 -0.055977914 -0.3842628 0.48538107 -0.050018564 0.069623746 -0.25279275 0.3186978 -0.19849741 -0.856328 0.36963317 0.1198131 0.72663856 0.16885987 0.14232032
147107 0.038811956 0.76170033 0.34723285 -1.1105888 0.053639416 0.8917853 0.30647042 0.20409063 -0.15964942 0.11822878 -1.0370748 -0.43848327 0.31820622 1.0792476 0.43838567 0.8129471 -0.31851545 0.18252747 0.9023843 -1.0348758 -0.17222968 0.40190446 0.60666573 0.06898484 0.4341456 0.89099455 -0.24134606 0.043614257 0.039912403 0.02042338 -0.55788153 0.34426895 0.51809186 0.6569235 -0.23646289 -0.111851886 0.5820241 -0.19996177 0.3155915 -0.9121439 8.913397e-05 0.93363273 -0.6246451 0.50336915 0.06002297 -0.2796073 0.6919913 0.92925346 0.32847518 0.4981427 0.0452773 0.21057524 -0.36150923 -0.38661504 0.42311403 -0.38310903 -1.1635193 0.32390472 0.5787746 0.013533449 0.104313806 -0.0497635 0.005795807 -0.5756696
147591 0.08709491 0.42798743 -0.42946038 -0.25554958 -0.34605065 0.0057584597 0.45248765 0.27795976 0.015797656 0.018893167 -0.5778195 -0.79712903 0.6273864 0.47876307 0.28908655 0.018839948 0.70200944 0.39801553 0.3152917 -0.9710681 0.2203729 0.47615308 -0.1979807 0.82172614 0.3719852 -0.21562257 0.31903276 -0.5297607 0.8827247 -0.12130555 0.07164903 -0.19855686 0.090597376 0.25341046 0.5486628 -0.94023746 -0.82657754 -0.22968483 -0.006269917 0.24152163 -0.2646871 0.15203704 -0.06276833 0.6372959 -0.65175664 -0.4525161 0.10889044 0.25632316 -0.26537582 0.38814044 0.18993956 -0.038890563 -0.15944101 -0.6478962 0.06982686 0.80797386 0.41420797 0.58836526 0.08209958 0.34736654 0.46416387 -0.19699031 -0.15291226 -0.45438725
143529 0.0080006495 0.4443145 -0.38397458 -0.45786452 -0.0319612 0.41510132 -0.2694163 -0.35128796 0.25081953 -0.15898901 -0.8210132 -0.18536682 0.42664206 0.9380177 0.02612188 0.23184402 -0.68402755 0.28252068 -0.22817688 -0.70197576 0.22692677 0.5647074 -0.14955445 0.09681349 -0.07110318 -0.55976146 -0.05733445 0.22460128 -0.4418378 0.11249468 0.44504085 -0.22523953 0.92228603 -0.104636334 -0.24717925 -0.19947736 0.25361934 -0.034249824 0.5357352 -0.12684831 -0.40541348 -0.14588542 -0.07481353 -0.558239 -0.01650544 0.26362187 0.6604768 -0.3133764 0.16161379 0.46466655 0.07355345 -0.15842552 0.3376301 -0.036187172 -0.553122 0.054855626 0.33190656 -0.2755609 0.22461003 -0.6902081 0.055119153 0.27476993 0.41854635 -0.43583804
146827 -0.2682744 0.45236585 0.16085067 -0.9670526 0.4169084 0.2733961 0.56758463 0.7533128 -0.04028849 -0.37230417 0.37301558 -0.3736734 0.38361067 0.44206026 0.078012675 0.7112923 0.46973595 0.04627938 0.4769963 -0.7409529 -0.038788807 0.4065562 -0.40787715 0.0015332958 0.5435993 0.13669874 -0.20997094 0.01590976 -0.04765074 0.39998418 0.013845321 0.16522738 0.08446132 -0.29224655 -0.35444367 0.2744495 0.0176798 0.51308936 -0.0032693814 0.026659632 0.105526514 0.48425 0.40191594 -0.52513576 -0.28985605 -0.37115732 -0.48001507 -0.16482528 0.086846985 0.9751949 0.24308187 0.04359059 0.53931856 0.121773385 -0.16729024 -0.27806613 -0.03495036 0.08805999 -0.22375387 0.63238555 -0.2593345 0.36631578 -0.2485112 0.5517168
146510 -0.4387677 -0.045144472 0.37034693 -0.6473078 0.014469086 0.26473254 0.6770519 0.5500256 0.04920674 0.009420787 -0.38596785 -0.23125347 0.28981638 0.31618655 0.19456011 0.39046657 -0.50113344 -0.07222103 -0.15821223 -0.47911218 0.2742139 0.2619333 0.15199134 0.36904958 0.90250224 -0.24485824 -0.97360235 0.00015037021 -0.19066417 0.101164155 -0.18370189 0.38721204 -0.08747144 0.057471976 -0.20850351 0.05102344 -0.47045943 0.42280874 0.15128657 0.19958986 0.35075715 -0.02176815 -0.17408463 0.115184814 -0.2594877 0.21285126 -0.59090096 -0.29217067 -0.050629735 0.35468102 -0.07651642 0.38571286 -0.40865707 -0.2722494 -0.2627654 -0.24878235 0.3318923 0.2513159 -0.11053181 0.58084774 -0.20106767 0.9942612 0.22199138 -0.4835939
147935 -0.097352654 0.71385247 -0.5374805 -1.2908262 -0.17519282 -0.09788271 -0.17525727 0.44379118 -0.6461482 -0.3792046 0.14956453 0.6228458 0.15439151 -0.056396782 0.10700867 0.018664602 0.3044207 -0.021504007 0.2536852 0.042080645 -0.13197725 -0.26357806 0.52182007 0.7694443 -0.18748395 -0.3190435 -0.115639225 0.44078922 -0.0034293486 0.7725144 0.32584274 0.084428005 0.2990684 -0.05969097 -0.1471784 -0.5878461 0.36635444 -1.1216577 -0.24497809 -0.4916654 -0.37492612 -0.1972473 -0.65020084 -0.46936795 -0.47994384 0.4156783 0.1503106 -0.61443794 0.09865983 -0.054680903 -0.06281906 -0.6369065 -0.24559294 -0.22623642 -0.35521665 0.24132547 -0.3893916 -0.58498746 0.031941496 -0.50729555 -0.24800727 0.27668133 0.029561948 -0.18928273
148613 -0.54197735 0.3562573 -0.4702111 -0.8574357 0.21007937 -0.25168252 0.6638908 0.10270209 0.17736566 0.40051588 -0.04840005 0.06806961 -0.49664676 0.1597107 0.026670318 -0.13476127 0.40839458 -0.39729157 0.03460039 -0.39379957 -0.3483254 0.31156307 -0.05429429 0.19893123 -0.4768774 -0.6781481 0.25041425 -0.25550616 0.04111235 -0.14262773 -0.2393549 0.04394707 0.44208843 0.41214457 0.02670595 -0.46279532 -0.0038466763 -0.58456105 -0.17144871 -0.28304377 -0.7012254 0.36973187 -0.34766406 0.2142831 0.33250907 0.7879439 0.29441258 -0.8839718 0.5253984 0.79010606 -0.31168163 -0.695344 0.34977043 0.14831851 -0.39973804 0.12958889 -0.10780691 -0.20162733 0.27039796 -0.21576917 0.07895413 0.14803179 0.33912995 -0.37191355
147042 -0.5023022 0.122604 -0.34349707 -0.54741156 -0.61687344 -0.11225823 -0.03845866 0.5830393 0.06219416 0.12665565 -0.3085911 0.5419579 0.6006764 0.27999893 0.6366089 -0.45352885 0.3778785 -0.7882047 -0.23805092 -0.827065 0.14876094 -0.00824311 -0.16780894 -0.12476191 0.262326 -0.779797 -0.7391316 -0.25345173 -0.68009603 0.12102825 -0.099681094 -0.3731836 0.8673885 0.40917453 -0.5935939 0.021967059 0.1399342 -0.24564071 -0.2770825 -0.20559432 -0.7822969 0.4921062 -0.19221272 -0.46401316 0.0063068997 0.1307241 0.24853858 -0.28931174 0.039889287 0.3133741 0.4732133 -0.9269598 -0.17494898 0.58241624 -0.49475998 -0.05655518 -0.8463024 -0.34493983 0.31946933 0.42283642 -0.26613086 -0.64592296 0.97225577 -0.044581495
147924 0.50788134 0.36702043 -0.7118416 -1.364867 -0.013893334 -0.59653705 0.050635204 0.44563115 -0.1120664 -0.33607253 0.37752885 0.012742661 0.6926261 0.45061186 0.23638065 0.3045621 -0.5501833 -0.4571413 -0.0674913 -0.381951 0.51317984 0.7817458 -0.46329942 1.0357143 0.3999041 -0.42790425 0.39410198 -0.18832088 0.07000565 -0.21807066 -0.19703613 0.56224275 0.4893964 -0.4026279 0.67029876 -0.10078652 -0.35577065 0.22229984 -0.093120314 0.15836665 -0.26801527 -0.5109654 -0.33808962 0.37243748 -0.6226859 0.040870436 -0.021759609 0.22310424 0.059200518 0.019100318 0.23805472 -0.42163047 -0.6049597 0.48289445 -0.12237877 0.70855737 -0.18613774 0.057826307 0.7851755 0.1739606 -0.13365543 -0.16716462 -0.81757516 -0.113070644
148718 0.43548813 -0.2303757 -0.016745003 -0.6117132 -0.2822427 -0.5358166 0.1835698 0.12274233 0.66355336 0.1489919 -0.18215649 -0.33207867 0.5524507 0.44764093 0.14400084 -0.44834659 0.55762506 0.18935524 -0.23974438 0.045187164 -0.3766213 0.9889218 -0.968801 0.48185652 0.17762448 -0.29389107 0.6290715 -0.4521887 0.49142227 -0.23878567 -0.07983742 -0.23785843 -0.298717 -0.39230368 -0.4608761 -0.67449933 -0.2522603 -0.36271378 0.077352844 -0.4075199 -1.1096346 0.30754432 0.21219504 -0.6772181 -0.30828696 0.009045536 -0.47783983 0.26410994 -0.23407835 -0.23752543 -0.19300033 -0.52061456 -0.34659436 -0.71623474 -0.8226096 0.45672092 -0.37258512 0.8414109 0.13352351 0.26551464 -0.92269963 0.12372217 0.11378276 -0.9443204
148475 -0.06530168 0.20447944 0.13148263 -0.7443342 0.09310748 0.113661245 -0.432689 0.8360858 -0.2442419 0.20849688 -1.1418203 -0.572097 -0.091563754 0.5984563 -0.68578136 -0.20745315 -0.36029205 0.07142171 -0.8180422 -0.42419487 -0.6129821 -0.14579831 -0.43859616 0.5810851 0.44029516 -0.4214993 0.6250412 -0.07429806 -0.19325557 -0.28078514 -0.93368083 -0.48270744 -0.6778562 0.06782997 -0.8300912 -0.5655768 -0.14531875 -0.11139885 0.22091542 -0.43266764 0.6836539 -0.2946914 0.04236932 -0.36459684 -0.060300745 0.45514396 -0.07712616 -0.41294342 0.3935018 0.402177 0.25745893 0.32606965 -0.5344398 0.6703672 -0.15899545 -0.027527044 -0.20051129 0.027174778 0.31327775 -0.6154407 0.064782456 -0.028398648 -0.7865103 0.2911199
147154 -0.11829289 0.33955324 0.274376 -1.056474 -0.18620764 -0.32599208 0.08786834 0.486124 -0.96065205 0.82214856 -0.20727523 -0.3977704 0.23665598 0.3032949 -0.103513 -0.13825312 0.39767113 -0.7228435 0.05456245 0.18099092 0.61590147 0.43206048 -0.15133461 -0.19188261 0.10410637 -0.40033668 0.38788745 0.669862 0.5846336 0.63085145 0.15964311 -0.8229435 0.38500878 0.8407822 -1.0691302 -0.33126557 -0.56144387 -0.13606252 0.014650713 -0.28610483 -0.3489532 0.4798129 -0.66519815 -0.35863486 0.41968757 -0.19277582 -0.016870739 -0.28135112 0.59704447 0.20527463 0.6496235 -0.108343825 -0.41511524 -0.13685738 0.03521051 0.39101446 0.40043578 -0.09449788 0.30440855 -0.19970417 -0.16033994 -0.20793693 0.38115057 -0.45011672
148771 0.44759703 -0.17880225 -0.13104935 -0.699772 -0.1578621 -0.15497606 0.1662826 -0.41637793 -0.16998708 -0.25880104 -0.5203154 -1.2290397 0.08307875 0.7622344 0.07841213 0.19102573 -0.29131564 0.13964893 -0.021617845 0.10757104 -0.4476225 0.10840807 -0.16803907 1.1482642 0.5159737 -0.415665 0.29630938 -0.56080276 1.0656562 -0.18554783 0.12792876 -0.48470512 -0.008029762 0.044352658 0.4564708 -0.7303338 -0.48185274 -0.094607905 -0.0876468 -0.101108484 -0.922954 0.31029874 0.025031704 0.021866934 -0.48429698 -0.2391877 0.024964778 0.23312202 -0.3109247 -0.23157711 0.4268646 0.008859471 -0.15246712 -0.16103442 0.05117147 0.32332125 0.36189014 0.5834328 0.36628348 0.707625 -0.70491374 -0.26732036 0.015904525 -0.010884997
142338 0.3050822 0.55760753 -0.32303172 -0.47076792 0.27311748 -0.18239537 -0.22376314 0.10907169 -0.066261426 -0.021989496 -0.5494497 -0.5809119 -0.39601782 0.5560689 0.23281436 -0.25923648 0.28423873 0.0020523218 -0.15121794 -0.59759694 -0.10532352 0.5364917 0.29219204 0.16503194 -0.30655035 -0.2972766 0.17144719 0.08958232 -0.27598038 0.24537857 -0.20840009 0.2902316 -0.14207307 0.49125487 0.44228038 -0.39178702 -0.06475121 -0.12665363 -0.021618953 0.043821085 -0.400655 0.19937938 -0.74641305 -0.5164624 -0.34476367 -0.39954764 0.6069628 1.1353483 -0.11913523 -0.62390333 0.26658863 -0.276667 -0.54139525 1.15984 -0.47195774 -0.46117517 0.41785944 0.49374658 -0.06361844 0.109387614 0.0703218 0.2789267 -0.12820932 0.636642
147155 -0.48933363 0.17909577 0.020143723 -0.6248352 -0.5640508 -0.42059448 0.45944354 0.7188611 -0.51132876 0.008023121 -0.098055676 -0.76771736 0.5973703 0.1774259 -0.4799608 0.09930003 0.29283482 -0.13369967 0.59095997 0.5903431 0.21557881 0.6933333 -0.18617925 -0.006755731 0.15522832 -0.2745877 0.680951 -0.17698301 0.7841632 -0.3333019 -0.013663786 -0.14266875 0.2755818 0.8779861 -0.44499296 -0.6083727 -0.8761995 -0.22904755 -0.4820243 -0.220635 -0.20321289 -0.21001439 0.07434207 -0.01928516 -0.69782084 -0.5501315 0.3061498 0.06492644 -0.34301496 -0.13439448 -0.16291593 -0.56540954 -0.38416976 0.53086364 0.030891385 0.4091238 0.053139508 0.15708637 0.12537833 0.6404077 -0.2740617 0.58085173 0.3026327 -0.37000576
147978 0.7711984 0.29144984 -0.20194465 -0.70198476 0.5049152 0.40850556 -0.43562436 0.4343965 0.28484878 0.13283159 -0.42705768 -0.768558 0.2897922 0.6671758 -0.38013062 0.2112442 0.35194567 0.2313287 0.12524985 -0.3764135 -0.6539982 -0.09961416 -0.26566175 0.28455114 -0.3800795 -0.5766235 0.1827023 0.50208384 0.12688653 -0.47985703 0.096816674 -0.41416153 -0.69918406 0.89378893 0.12613061 0.120625414 0.52975583 0.09466717 -0.121056795 0.039419416 -0.33649224 0.05117972 -0.89141756 -0.09431882 -0.20499624 0.21265857 -0.36498162 0.12543003 -0.00992284 -0.34397206 -0.24572265 -0.18352793 0.062342953 0.5652546 0.13554893 0.044143453 -0.39152563 0.16029598 -0.70752573 -0.29782677 0.05896794 -0.011841805 -0.5340128 -0.5147581
147784 -0.53619725 0.25167206 -0.3401815 -0.6782566 -0.4743116 0.26327565 -0.3291621 0.25496992 -0.99668396 0.16850768 -1.1340562 -0.08241921 0.18784314 -0.31424516 0.48905957 -0.5130547 -0.6029661 0.10038336 0.07283817 -0.5347699 -0.060134366 0.19790968 -0.2333247 -0.25120252 -0.5938816 -0.24207266 -0.35644323 0.17785096 -0.41925028 -0.6571087 -0.1604944 -0.30868167 0.27176863 -0.33173925 -0.08446278 -0.4778722 0.106969304 -0.5986127 0.29967508 -0.474087 -0.2851468 -0.042754456 -0.23453163 -1.1511652 -0.4545593 0.062223084 0.11475141 -0.5191153 0.6025358 0.65774035 -0.7787679 -0.0953983 0.16872604 0.5745682 0.039916296 0.07901589 0.09467369 0.123309344 -0.525387 0.14061715 -0.1719439 0.31463557 0.6664592 -0.22792329
142023 -0.0023180044 -0.20061927 0.49034026 -1.2178172 -0.07302478 0.105983175 0.65852576 0.34464523 0.22794035 -0.19767118 -0.14508165 0.014640063 0.5258401 0.0053747445 0.31520146 0.12068255 -0.20374228 -0.29180807 0.25739652 -0.030212097 0.22152069 -0.34274065 -0.35826924 0.58886284 0.11379161 -0.683335 -0.061994012 0.20591752 -0.0714734 0.08578053 0.16837071 -0.24844234 -0.23728323 -0.12495427 -0.49430573 -0.70088744 0.4586524 0.42825925 0.22238469 0.9358839 0.19486116 0.25919184 -0.37128744 -0.43086344 -0.9105817 -0.22835343 -0.19676869 0.16433904 0.10470133 0.36412227 0.08676143 -0.21417461 -0.24340878 -0.31180632 -0.1231945 -0.23350602 0.040484633 0.12698047 -0.6364426 0.4172894 0.10292622 0.40393102 -0.31578675 0.21533445
146808 0.42137608 -0.6847965 0.09317 -0.91228354 0.39380023 -0.027195258 0.14113237 0.14579417 -0.110656306 0.54089075 -0.5142868 -0.42372742 -0.10881904 -0.810813 0.3301859 -0.6720239 0.53692234 -0.5849539 0.010400949 -0.8344341 -0.31411046 -0.48078576 -0.17817345 0.3521676 0.10144218 0.3982897 -0.153553 -0.11031748 -0.20471948 -0.54461 -0.21144599 -0.20560975 -0.27221072 0.039772622 0.78999 -0.26389164 -0.3037074 0.1002965 -0.078026116 0.24819243 0.12932917 0.08135265 -1.0754719 -0.31134582 -0.7389058 -0.29816127 0.61920464 0.10111712 -0.36366537 0.3096542 0.14984255 -0.8954179 0.17513712 -0.018017402 -0.39254886 -0.24298845 0.3903217 0.3621338 0.20711629 0.30749828 0.14029081 -0.7461459 0.24561363 -0.5014283
140388 -0.03353325 -0.11380599 -0.67578584 0.18135469 0.28173876 0.65979505 -0.19955015 -1.1185538 0.36903054 0.20885967 -0.47081682 -1.1380695 1.0692159 0.013628114 -1.1018109 0.020476265 0.00022188014 -0.25802553 -0.67286295 -0.63513625 0.17842585 -1.1487131 0.13024096 1.0208298 -0.5516673 -0.4672552 -0.38485873 -0.71897066 0.17033687 0.92087805 -1.0151165 -0.45569164 0.48074886 -0.39175746 -0.16458905 -0.7468674 -0.25846347 -0.43734843 0.1288436 0.0061424323 -0.098797135 0.22800529 -0.31651247 -0.50893104 -0.6108302 -0.26558724 -0.30258486 0.19453527 -0.30570295 0.7180602 -0.22732225 -0.44610286 -0.41725057 0.023782838 0.11111844 -0.8268785 -0.023772253 0.79703534 -0.15551686 -0.9647172 -0.09820049 0.31847015 0.41389716 -0.1357324
146885 -0.081847236 -0.40007862 0.39398053 -0.24611351 0.96453357 0.27669182 -0.26632485 0.1600948 0.26334637 -0.32854944 -0.16261162 -0.42478094 0.26858014 0.102938905 0.49816555 1.0641944 0.11990009 -0.3279257 0.0035340232 -0.36777982 -0.7573792 0.27764702 -0.021826293 0.5596976 0.07903495 -0.35838237 -0.36127028 -0.054953553 -0.0066914717 0.08209124 -0.20974241 -0.08009191 0.28873372 -0.73438567 -0.09895095 -0.1483312 -0.03240602 0.6916839 0.056282487 0.55076724 -0.6561215 0.4335935 0.3408936 -0.21533005 -0.1676325 0.24964514 -0.07584263 -0.13935265 -0.12644315 0.7674704 -0.06080922 -0.68628675 0.35652778 0.48529077 0.1541072 -0.037502218 0.13594496 0.3866166 -0.22670208 0.14946525 -0.22446176 0.34492552 0.32777634 -0.31401742
146428 0.1366297 0.43281922 0.7670468 -1.000517 0.20949636 0.7698821 0.4892838 0.4055316 -0.23116663 -0.7710917 0.86387396 -0.31348673 1.2001866 -0.13748191 0.34238112 0.32178554 0.49903205 -0.03102137 0.38744354 0.21430242 0.33876657 -0.369545 -0.08262685 0.21985 0.66183794 -0.5257507 -0.34767133 0.025524227 0.42374182 -0.53882957 -0.5060396 -0.13002613 -0.38353005 -0.53030527 -0.39284685 -0.116030045 -0.117842786 0.18972108 0.103421725 0.7774069 -0.20558357 0.015404217 -0.060487587 -0.48157912 -0.16558972 -0.010806756 -0.47445 -0.11556725 0.05164837 0.7115691 -0.005856736 -0.9087797 0.059535477 -0.12794313 -0.59057117 -0.00056351203 -0.5028373 0.11833538 -0.21473311 -0.35028264 -0.052852895 0.58802557 0.2818091 -0.02886562
146194 -0.23658495 0.10303257 -0.10191175 -1.5050253 -0.9232721 1.0263956 0.21289293 -1.0317459 0.012155021 0.67827594 -1.253953 -0.9237506 0.73383313 -0.3226847 -0.34872472 0.7093494 0.44536334 -0.6694971 -0.0643312 0.13625368 -0.20894803 0.32015964 1.011532 0.9105982 0.38931918 -0.17760098 -0.14220959 0.31858256 -0.9763796 -0.24340162 -1.376442 -0.12841208 0.3876403 0.8835035 0.28090692 0.1543967 0.06839782 0.2908416 0.17344697 -0.06688963 0.43657508 -0.6523559 0.54048896 -0.6767904 -0.038170468 0.0091563435 -0.120558344 -0.68586123 -0.92043823 0.09162456 -0.21677397 0.33293322 -0.37278482 -0.4297683 -0.32050675 -0.34497696 -0.18724747 -1.096249 0.93453085 0.89209527 -0.65963477 0.5596701 -0.20496318 0.11544751
148441 -0.0132515915 0.62708014 -0.68919545 -0.6504988 -0.4898787 0.14825386 -0.21943684 -0.5913035 -1.0041535 0.1271673 -0.7840349 -0.8267723 0.25631434 0.41599533 0.37104598 -0.034308452 0.026358735 -0.11784946 0.27954274 -0.2549415 0.07014858 0.14037701 0.60731643 0.11945779 -0.549738 -0.6087392 0.0402094 0.7579389 -0.012818215 -0.31246582 0.34597665 -0.05450706 0.5001237 0.47199458 -0.040646173 -0.514152 0.5968999 0.49331325 0.7322402 -0.16313037 -0.28513044 -0.68513864 -0.17808448 -0.089130744 -0.5166351 0.3148328 0.11068032 -0.68206006 0.4043278 1.0219069 0.29130048 -0.23242079 0.15819435 0.2041439 -0.12741937 -0.15966529 0.06545161 -0.1070875 0.32651055 0.35285094 -0.22065355 0.22139215 0.5213959 0.18825027
146403 0.200642 -0.17347236 -0.12746628 -1.068269 0.31731707 -0.01885814 -0.14976108 0.113966696 -0.22175644 -0.29955655 0.0067765047 -0.44946468 0.3259947 0.107693225 0.106414415 0.13072674 -0.020342046 0.3237174 0.51214194 -0.16382986 -0.57584023 0.4771782 -0.3324196 0.46368635 0.23505847 -0.023524333 -0.17082621 0.6431983 0.20401454 0.5583292 -0.43627375 0.3833142 -0.24040024 -0.47903293 -0.43455103 -0.7216512 0.30558038 0.96009296 0.19214104 0.82051927 -0.12911847 0.004185066 -0.05190599 0.122723095 -0.5197639 -0.012133119 -0.57792574 -0.2900211 0.010793766 0.5037509 0.038871557 -0.11940547 0.06833999 0.20124732 -0.23912376 -0.0140693085 0.07032111 0.36228442 -0.538587 0.49977377 -0.19024403 1.0276287 0.23080538 0.37519932
146981 0.04116962 -0.24016689 0.61016184 -0.809219 -0.20497628 0.16107245 0.9481588 0.20953266 0.061108544 -0.18243621 0.34927154 -1.2010328 0.41502458 0.00611584 0.00092769193 0.48160294 0.33405223 0.2199908 0.16266216 -0.34988925 0.38562897 -0.16687405 -0.3188648 0.12412029 -0.40357572 -0.49748203 -0.30124018 0.12295266 -0.64303714 0.3867559 -0.39283994 -0.06816007 -0.5494228 -1.1059049 0.105086796 -0.13616009 -0.36936033 0.23558617 -0.5732162 0.19615826 -0.06717177 0.28263578 -0.2218576 -0.07126809 -0.6834918 -0.05847591 -0.17483464 -0.1778689 0.17532511 0.1868607 -0.097379655 -0.1284488 0.07278614 0.040424623 -0.07762961 0.30769297 0.24549432 -0.12576817 -0.3488138 0.45299906 0.18925144 0.44116494 0.14159931 -0.07781585
148139 0.27637514 0.61635524 0.1408624 -0.51516724 -0.29018286 0.12793107 -0.3460673 0.016088616 -0.10993371 -0.22588585 -0.049652718 -1.0623472 -0.25318798 0.19394787 -0.09327084 -0.15860175 0.8766679 0.27095857 -1.1440228 -1.0128937 -0.012839738 0.1981859 -0.29577112 -0.23983596 -0.21284536 0.100736886 -0.016645055 0.091715515 -0.50245345 0.7140091 -0.33163396 0.3718717 0.10470568 0.009626579 -0.10535542 -0.0538921 -0.028709173 -0.3378036 0.19877206 -0.0457657 -0.17304093 0.069933884 -0.69332856 -0.62553465 -0.62082213 -0.40393558 0.84301656 0.9931499 -0.30532598 0.11178347 0.1341934 0.028999321 -0.74492425 0.50511086 -0.52854127 -0.23902854 0.510274 0.2680601 -0.011215077 -0.26930982 -0.0996291 0.22244272 -0.88847715 0.25760922
147109 0.40531847 0.10365923 0.11550272 -0.8201484 -0.06640156 1.3337662 -0.27975324 -0.0020269067 0.6598596 -0.122572154 -0.4114175 -0.6774393 -0.16436005 -0.034283623 0.30800167 -0.0648831 0.01862799 0.90219045 -0.4053196 0.63738024 0.111987956 0.5723253 0.38050994 0.8141133 -0.89832604 0.40760177 -0.29100534 -0.59495085 -0.58744895 1.1172432 -0.8742687 -0.709002 0.5761667 0.6995093 -0.1518687 -0.57983917 0.13352747 0.053882115 -0.16760518 -0.26143286 0.19055337 0.24846263 -0.28568926 0.3105485 -0.66594034 0.5137699 -1.0642908 0.3568727 -0.88844115 0.50994205 -0.70233613 -0.4182452 -0.69124335 0.5821823 -0.3650351 -0.8341794 -0.46590048 0.87171125 1.3026457 -0.27319875 -0.25242424 0.2151425 0.4443066 0.74854153
144686 -0.5968934 0.59927636 -0.288684 -0.67472804 -0.38339695 -0.18191853 -0.07045772 0.060953215 -0.45036137 0.23693188 -0.01868649 0.049624477 -0.59575886 0.037052397 0.49279723 0.07425373 0.82679576 0.6992037 0.65658617 -0.15925206 0.33532843 0.4526366 -0.011503846 0.29050726 0.10818626 -0.20368367 -0.029465329 0.111074686 -0.3806729 0.31770217 -0.16185841 -0.25718874 0.117500715 0.13469347 -0.48284134 -0.2603371 0.5500762 -0.48664606 -0.45366132 -0.014793399 -0.3281001 -0.35211277 -0.47987258 -0.41429555 -0.17719468 -0.25529316 -0.2267599 -0.3602698 -0.30828446 0.1899449 -0.28929448 -1.0050583 -0.38646066 -0.5293066 -0.76637125 -0.17322613 -0.27575842 -0.010729372 0.5679757 -0.8481966 -0.42701212 0.2981374 1.0430005 0.29459798
146066 0.38177404 0.40874127 1.530656 -1.0904667 -0.41684243 0.3851263 -0.043261994 0.47568554 0.42346457 0.0585173 -0.9100594 -0.6848602 0.28163505 -0.28029993 0.46433234 -0.49080104 -0.004872071 -0.33397213 0.61753434 0.23311037 -1.2694306 0.5760007 0.55621094 0.88984174 -0.74403334 0.18678947 1.0212202 -0.7478925 -0.27279726 0.2667453 -0.09500274 -0.22077438 0.8781727 -0.08411293 0.061405268 -0.36534595 0.0563582 -0.52108747 -0.7261818 -0.38100526 -0.33140528 -0.70954573 0.23540036 0.091356196 0.018347101 0.04483173 -1.1596886 0.79414344 -0.76562274 0.9691111 0.13466904 0.18977492 -0.57140034 0.22383794 0.40237942 -0.44542095 0.07648786 -0.10736771 0.62263 -0.10791904 -0.21614245 0.33943442 0.4342133 -0.034014795
142676 -0.1316803 0.26997268 -0.3298542 -0.76130813 0.46514556 0.16750515 0.332912 -0.37926972 -0.011434666 0.5711897 -0.4093477 -0.514402 -0.03520757 0.029585825 0.1969325 -1.4304396 0.2277992 0.63322335 0.49160293 -0.74576044 0.59619075 0.11248945 0.19843704 0.16032416 -0.349073 0.15243459 0.46674427 -0.43546984 -0.26653728 0.31822857 -0.3422011 0.07950285 0.4491116 -0.115316026 -0.15858047 0.2924959 -0.06745168 0.24980645 -0.5050573 0.14274886 -0.29066253 0.2785218 -0.35134023 -0.091925 -0.5212705 0.18460387 0.07577171 -0.10630506 0.7334271 0.58031464 0.050474156 -0.49187967 0.1700157 0.17126364 -0.083726496 0.44108096 0.23964947 -0.66995525 0.19721119 -0.77567244 -0.24357502 -0.04033407 -0.0523915 0.16261105
142706 0.07615202 -0.057415053 0.25376457 -1.4319432 0.45126194 0.60356027 0.58647686 0.46592608 0.008236268 -0.0359104 0.89519906 0.37649298 0.5205583 0.074088454 0.28601342 -0.024628738 -0.15180288 0.13977765 -0.27791482 -0.5078747 0.10947975 -0.16035174 -0.07510336 0.32770976 0.682611 -0.43744165 -0.853095 -0.27539065 0.061625898 -0.087713026 -0.4360256 -0.38868198 0.04200589 -0.024243897 -0.58814806 -0.43483958 0.2767853 0.54522467 -0.0721589 0.51834583 0.082472704 0.55072165 0.21094364 -0.8861403 -0.54378736 0.13111925 -0.30236462 0.3342064 0.025459325 0.24103792 -0.14951277 -0.009403662 0.07207901 0.16812584 -0.63634926 0.25025317 0.23475774 -0.17194824 -0.32515407 0.36126652 -0.56001645 0.31467324 -0.29568374 0.32143176
144344 -0.16679527 0.0012383809 0.38476908 -0.98974884 0.22108485 -0.031192886 0.4382886 0.25525165 0.61313075 0.13842258 0.48381516 0.08613148 0.30691996 0.31536365 0.9825196 0.4815712 -0.22805537 -0.26157755 -0.5002925 -0.26145935 0.09059639 0.59394646 -0.49362493 0.27146983 0.0011830042 -0.02205212 0.2929684 0.025272327 0.31454423 0.11010579 -0.22214946 0.46185824 0.10775948 -0.07339837 -0.014890802 -0.36584005 0.051034883 0.63781357 0.07417831 0.24136607 -0.07160604 -0.36570105 -0.16410768 -0.44422632 -0.61331785 0.060601134 -0.5080665 -0.032134593 0.14236328 -0.10956801 -0.18829541 -0.3940944 -0.20208944 -0.24873294 -0.45493692 -0.4349508 0.024834448 0.5377303 -0.0440042 0.26812288 0.10971554 1.0967585 -0.067893505 0.15318398
146197 -0.097498186 -0.9872673 -0.21343265 -1.3948851 0.20578386 0.9871004 0.33341762 -0.24454553 -0.06530524 1.0467757 -1.0841196 -0.79189914 -0.14863825 0.24901037 0.6262284 0.77378654 0.6222093 -0.734362 -0.094241455 0.24465993 0.22066152 0.41698682 1.2812463 0.55014694 -0.097514436 -0.07784307 0.29676694 -0.069867715 -0.5684464 0.3438143 -1.9997777 -0.7879443 0.31911308 0.76067054 -0.38276663 0.5611811 0.2511125 -0.2697957 -0.05947452 0.51877457 0.3541205 0.09284862 0.7918402 -0.45973748 0.17722493 -0.65855485 0.8694869 -0.87378275 -0.6813797 -0.26539636 -0.42480388 0.47107738 -0.04318301 0.3636362 0.086297505 0.31736234 -0.26189047 -0.07985258 -0.09139223 0.13160895 -0.23462792 0.8358806 0.3787269 -0.7758911
147113 -0.38131836 -0.27550262 0.1370703 -0.59056294 0.4576289 -0.17504469 0.29210073 0.6273999 0.098037675 0.0051870006 0.47191945 -0.41128975 0.09919878 0.37303886 0.7908136 0.93283814 -0.14749269 -0.35916945 0.19781643 -0.08124534 -0.0027932194 0.062279996 -0.46177304 0.6444993 0.17962271 0.21619427 0.040011264 -0.18889047 0.39181042 0.15527984 -0.7576657 0.14345707 -0.08698855 -0.21759245 -0.3018667 0.1337511 0.077072255 0.6647306 -0.10394981 0.68390226 0.19155574 -0.14080371 -0.39854112 -0.37220243 -0.89944404 -0.13406588 0.19896492 -0.3542209 0.10116056 0.30178425 -0.84308934 -0.56870395 -0.56622183 0.28690213 -0.7319701 -0.7985535 -0.23688088 0.024214836 -0.47200823 0.47363564 -0.28891575 0.8481459 -0.19201708 0.2868621
