840 64
10134 0.2526675 -0.14164178 0.34815738 -0.08164476 0.7306818 0.31627822 0.2612668 0.48225704 0.7237945 -0.032686345 0.079655655 0.61530703 0.1427266 0.40264532 -0.59121335 0.6428226 -0.6694446 0.68421954 0.09878819 0.0024149537 0.48448926 0.19905788 0.20968197 -0.2647273 -0.27804467 0.13272928 0.050937425 0.7232689 -0.35809618 0.7084644 -0.30449224 0.41335833 0.09692966 -0.21107407 0.4908724 0.16274889 0.61933714 0.39783537 -0.0025265387 0.35556424 0.3945162 -0.115135305 -0.95156205 -0.111592375 0.29573554 -0.48460108 -0.8745294 -0.13261129 0.32315987 0.18186697 0.987328 -0.060059022 0.074088134 -0.119208984 0.3552514 -0.17098184 0.7024308 -0.41734973 0.32244942 0.21199787 -0.29118896 0.21244642 0.2535092 0.6005043
9242 0.31391448 -0.24902396 -0.6513947 0.1093105 -0.35005662 -0.30890977 0.36794823 0.23365796 -0.0074467286 0.26979414 -0.39161807 -0.3258733 0.37018642 -0.12235039 -0.49095505 0.24373819 -0.18165433 0.40598324 0.13537738 -0.10678432 0.9811212 0.28062934 0.13015763 0.77149314 0.4414165 -0.019762851 0.45368943 0.12860748 -0.5820083 -1.1820383 -0.24230492 -0.37929237 0.11303751 0.29227072 -0.030618595 0.38409102 0.73128974 0.22801699 -0.27144864 0.6239309 0.5552048 -0.07088249 -0.53620315 -0.00897828 0.15046364 0.8171213 -0.23363872 -0.24942814 -0.34788173 -0.7274298 0.7915347 0.09061194 0.6085278 0.1607379 -0.6039787 -0.62293744 -0.43497995 -0.339081 0.5201437 -0.4379421 0.23193973 -0.1318158 0.016467601 0.022420727
9044 0.62993085 -0.75009173 0.6381815 -0.01096933 0.6000958 -0.6250546 0.5241716 0.42002448 -0.08892749 0.20001267 -0.034088165 0.16670509 0.5163946 0.29803252 -0.43023443 -0.258741 -0.30922848 0.15721878 -0.36810714 -0.5351844 0.2953432 0.53587776 0.5804572 -0.5633464 -0.11869863 0.4877934 0.85474515 0.5349042 -0.38039067 0.22425525 -0.19602749 0.54219455 0.2514425 0.19210482 0.47814533 0.1718482 0.56866854 -0.43317968 0.15743195 0.1464821 0.6741932 0.10090913 -0.9601886 -0.108659886 0.2272346 0.5601359 -0.68911386 0.025394589 -0.050159384 0.17517096 0.5866947 -0.01841053 -0.41700584 -0.3883845 -0.02692175 -0.49641395 -0.1799589 -0.021830374 0.012463791 0.12332775 -0.28077525 -0.38026935 0.124215774 0.3667075
9802 -0.08532032 0.09163024 0.7201682 0.5073967 0.10290372 0.08565117 0.14927053 0.29659262 0.5627913 0.5583906 0.41896883 0.28233537 0.20732869 0.09232697 -0.45729515 -0.20596932 -0.09293472 0.7099238 -0.056649018 -0.36312616 0.3026269 0.24819402 0.31457755 0.68692154 -0.019597346 -0.6066403 -0.27399918 0.88514555 -0.21926223 0.9905107 -0.5150356 -0.5774788 -0.095681764 0.15487152 -0.009180686 0.16356874 0.3611956 0.05010856 -0.45377716 0.18194658 0.4311585 -0.13686058 -0.29882511 -0.36377272 0.8146181 -0.21136568 -0.25743294 -0.10246559 -0.106128804 -0.19890317 -0.07379131 -0.5520944 -0.1257132 -0.45749375 0.44915086 -0.14249265 -0.130087 -0.08657193 0.42178223 0.4559838 0.3667806 0.08209663 0.9227418 1.0405279
10114 0.44899383 0.22257026 -0.08771939 0.6210166 -0.13958731 0.6205098 0.4395624 -0.373102 -0.061185855 -0.017529292 0.23598051 -0.26777428 -0.21731554 0.18738852 -0.74316865 0.13623695 -0.30985567 -0.1790616 -0.2216444 -0.9501962 -0.13490166 0.60480726 0.87594134 0.4766034 0.29700598 -0.31484324 -0.15520541 0.060719207 -0.1734414 0.4907262 0.2873578 -0.24530081 0.008323699 -0.6025634 0.57863015 -0.55087274 0.69435215 -0.20210393 0.43263796 -0.68427414 0.762732 -0.4279986 -0.36507326 -0.10338057 0.8955679 -0.89945513 0.14439824 -0.17924584 -0.24277163 0.51451886 0.97811645 -0.47496888 -0.07459164 -0.10233589 -0.11105814 -0.026615666 -0.23350553 -0.5262435 0.2188444 -0.4732541 0.28414658 0.9417825 -0.28088784 0.19341011
9818 -0.17493786 0.68074477 -0.022845658 -0.7084049 -0.10153433 -0.4767492 0.07534259 -0.5325773 0.6534077 0.33728677 -0.5431672 -0.19991665 -0.4954388 -0.5664102 -0.11579463 0.3262628 -0.046518706 -0.05375896 -0.3229311 0.11281576 0.034228124 -0.096834816 -0.12477342 0.1813874 0.68841386 0.8215125 -0.055027463 0.7456067 0.8557922 0.63083965 -0.36586806 0.37598968 0.29371634 0.61984736 -0.11698453 -0.37874818 -0.0937444 0.20420925 -0.35587835 0.021433365 1.0299392 0.030796722 -0.37852043 0.70186204 0.1362932 0.038094945 0.11814153 0.4343253 -0.5408092 -0.676792 1.0367169 0.112834685 0.5541072 -0.31758723 -0.2807813 -0.21059878 -0.8547562 0.13147034 0.18080813 -0.3490399 0.10341 -0.49153098 0.52323717 0.15074271
8555 0.46102944 0.59248006 0.8594518 -0.18778192 0.056753956 -0.6323124 0.47423542 0.14705105 0.6109048 0.23859414 -0.75444937 -1.0156727 -0.36115894 -0.33575 0.61793655 0.86107576 0.24541183 0.3813798 0.05058857 -0.4106133 -0.5408708 0.31981695 0.73331326 -0.15178475 -0.47398135 0.89437205 -0.6838557 0.13605236 -0.21744223 0.7958505 0.5093051 -0.34356046 -0.5405824 0.18141194 -0.0897413 0.27946723 0.07795237 -0.24105759 -0.39047143 0.54616296 0.46040377 0.1853725 -0.3335468 0.982727 0.2238916 0.30765015 -0.2843672 -0.058080126 -0.9394276 -0.060750805 0.6269557 -0.42432484 0.9944405 -0.4804281 0.27962643 -0.26431414 -0.55394036 0.15090375 0.89812815 0.030990843 0.31924465 0.75318897 0.1953565 -0.15648702
10098 -0.08595059 0.24873284 -0.0021424186 -0.07555837 0.06368798 0.048044447 0.67196995 -0.17270494 -0.06600955 0.25734392 0.6376446 0.29221877 0.17113407 0.020002948 -0.2227194 -0.77738154 0.036592383 -0.6302842 0.3696416 0.04952391 0.26570496 -0.72162527 0.1531049 0.058241423 0.35537797 0.09637593 0.6251829 1.2000436 -0.37862077 1.0068488 -0.17517377 -0.45053077 -0.75345784 -0.007984637 -0.31337368 0.1900729 1.153368 0.88122827 0.31816795 -0.83070046 0.2625903 0.25309002 0.014710932 -0.13382155 0.19097176 0.2336289 -0.13728955 -0.737112 -0.09900183 -0.67205703 0.7568986 -0.60999763 0.70047444 -0.12596254 0.2834316 0.26038527 -0.3672064 0.0070755226 0.7366985 -1.0617692 -0.38175073 -0.037503086 -0.30305532 -0.31573993
9763 0.2770363 0.62985826 0.9772244 0.45281792 0.39696926 -1.0504161 0.5329595 0.7672911 -0.9886967 0.33393383 -0.26267892 0.16469935 0.4352432 -0.07231352 -0.4028337 0.8175483 -0.6276856 0.07535302 -0.3453607 -0.62870127 -0.15752132 0.50637954 -0.48133615 0.67093 0.3464848 -0.07580049 0.75315094 0.309271 0.5512236 0.32094502 -0.73817563 0.45051762 -0.30663085 0.3520808 -0.41705933 -0.12864323 -0.32887572 0.2705534 -0.02038589 0.20344436 0.77654177 0.20631224 0.34376806 0.115279496 0.25001663 -0.1642651 -0.25500944 -0.5064793 -0.4754353 -0.36300048 0.27803853 -0.3559003 -0.044322632 0.33475503 -0.121722125 0.012673616 -0.10809401 -0.18496326 0.23851594 -0.41120625 0.044676445 0.8997901 0.10483693 -0.43390548
9731 0.24158484 0.0027932464 0.3351467 -0.04919784 0.5619698 0.31159616 0.55504686 -0.36142138 0.16861512 0.014852317 0.4655345 0.09851058 -0.33613795 0.20601606 0.4128366 0.6095147 0.05172849 0.112401366 -0.7232195 -0.3421652 0.35818318 0.068437815 0.55437714 1.086122 -0.11070614 1.6433758 0.04746004 0.07344639 0.43841127 0.4136668 -0.2458535 -0.16663289 -0.5711502 0.5436064 0.52313125 0.24643385 0.42136326 0.3224309 0.18118939 0.21872458 0.93635815 0.48433354 -0.05628329 0.19014882 0.061256718 -0.13913718 0.2386206 -1.4482332 0.026288953 -0.07544206 0.18722162 0.097133726 0.2922521 0.031502075 -0.5903009 0.19465244 0.13100126 0.0034791962 -0.2554134 -0.5185254 -0.19831759 0.01227002 0.9827361 -0.54318863
10137 0.5285485 -0.018269546 -0.4626243 -0.92919743 -0.14171888 0.2249012 0.74757504 0.47074693 -0.03576254 0.8332355 0.14850274 0.36468172 -0.6010995 -0.4814592 -0.25887668 -0.2988242 0.29191232 0.42248353 0.054980937 -0.4221522 0.8601516 0.50066066 0.14642616 -0.20485316 0.2395031 0.52074605 0.23631084 -0.49619383 -0.32997122 -0.6206148 -0.22137642 -0.04312453 0.40556225 -0.24031048 -0.6803346 -0.4335394 0.14153725 0.1459196 -0.11996394 0.6166688 0.46395487 -0.05531739 -0.9643291 0.45877662 0.7247724 0.09492545 0.37611398 -0.65069574 -0.07877212 -0.06752562 0.6010406 -0.634265 -0.019518062 0.26386717 -0.744754 -0.7106296 0.20277716 0.035880353 0.8666317 -0.6963857 0.24908195 0.22196096 0.15230356 0.11023771
8511 -0.14590481 0.19340074 0.06374568 0.14430308 0.7306654 0.09467543 -0.1168184 -0.11215154 0.2526372 0.35488755 0.3796897 -0.059864506 -0.71463674 -0.72770554 -0.9920375 0.24691987 -0.24817824 0.3146845 -0.29584405 -0.23592436 -0.15818237 -0.010938539 0.619426 -0.15979528 0.51189244 1.0551324 0.3790091 0.70744044 0.07276334 0.40848818 0.3077829 -0.22008759 -0.75526106 -0.40122306 0.21976313 -0.35081878 0.003522596 0.56731194 -0.0718327 -0.26210144 -0.66407275 -0.26444113 -0.26841626 0.4089122 -0.42510635 -0.009606248 -0.274731 -0.72002804 -0.3256487 0.21479264 0.1447432 -0.19569707 0.1729536 -0.11627231 -0.3474702 -0.23991038 -0.12107443 -0.09631878 -0.06281638 -1.4134678 1.5470586 0.2364044 -0.572257 0.42451698
8988 0.14091368 0.114948824 -0.14183761 -0.6318982 -0.22734486 -0.7246188 -0.25747034 0.44071692 0.48163217 0.38379204 -0.5880211 -1.1241256 0.120837994 0.4422914 -0.34060732 -0.086170234 -0.182882 -0.07257971 -0.9333291 -0.114114486 0.3441834 -0.006651672 0.62102145 0.85320044 0.68948615 0.012623662 0.67923254 0.9879097 0.5781365 0.09154997 -0.40337944 -0.023668457 -0.14731243 -0.569595 -0.64341444 0.09481426 0.17622903 0.37745115 -0.12936617 0.58952117 -0.019215418 -0.045366064 0.1476726 1.1270641 0.11425593 -0.4748773 -0.5326177 -0.18150485 -0.50634336 0.2962068 0.8693526 -0.34587798 0.3087115 -0.088777125 -0.21465907 -0.1960198 0.32099435 0.11852779 -0.043416075 -0.18657346 -0.48080274 0.42658544 0.28092977 -0.50554764
3771 0.6432297 0.57413185 -0.44061047 0.020581447 0.8268828 0.03139177 0.6636723 -0.38006026 -0.26796985 0.966589 0.23308027 -0.13727866 -0.050993 0.4601179 0.036238093 -0.5682169 -0.9702814 -0.09154795 0.56478214 0.37277985 0.12022547 -0.2909203 0.40197116 -0.1927757 0.45878065 0.4086984 0.90255487 1.1964908 -0.77561146 0.215927 0.13061471 -0.32370967 -0.65382147 0.039596587 -0.8686893 -0.25759408 1.3458859 0.9148797 -0.22882344 -1.1087643 0.056853663 0.42745352 0.14507008 0.1227207 0.4517623 -0.6827678 0.040929332 -0.68763953 -0.14250249 -0.21278183 0.18299669 -0.36938685 0.6431042 -0.31979 0.10247522 -0.062177654 -0.4026712 -0.3388284 0.29639095 -0.76968634 0.21709798 -0.2466073 -0.1840018 0.25476512
9039 -0.17844716 0.5853786 -0.36919653 -0.7157832 -0.4060423 0.3821714 0.07247093 -0.042532664 0.18702517 0.11101323 0.36063614 0.0014686873 -0.5382298 -0.6276109 -0.3734476 -0.13729683 0.28202286 0.42806095 -1.0936689 -0.7171303 0.59523964 0.17182808 0.29097164 0.13590823 -0.3709843 -0.27792206 -0.31570908 0.07239403 -0.47281596 -0.07127887 -0.3077986 0.8016973 -0.044333924 -0.4779835 0.0048800656 -0.20797586 0.23469336 0.4514709 -0.284727 0.19153175 1.008809 0.0839795 -0.037839457 0.51511776 0.27623963 -0.36818704 -1.3590063 -1.0055897 -0.3910226 0.0809807 0.0053000487 -1.2061422 0.7129559 0.7886694 -0.34627414 -1.2116536 -0.62771654 -0.09015809 0.315752 0.072079755 -0.53779155 -0.392376 -0.42660785 0.3740947
8865 -0.045928 0.14667834 0.11760671 -0.23348689 0.12428571 -0.55065584 0.21072996 -0.15967451 0.0129536465 0.3465685 -0.30943686 -0.4819706 0.09181241 -0.5947889 -1.0503023 -0.024940608 -0.33944285 0.1989726 0.082236655 -0.24128298 0.9842164 0.6328286 0.7470123 -0.113875836 0.18628196 0.18031377 -0.33987364 1.2161252 0.6500018 1.1415223 0.21032321 -0.3304992 -0.20670119 -0.2121727 -0.8638533 -0.18247874 -0.25858676 -0.5634847 0.33956558 -0.55319077 -0.6824638 -0.6159542 0.33627042 0.63209397 -0.067538045 0.27505416 -0.017003251 -0.867164 0.864438 -0.3591048 0.40880004 -0.3099987 0.04227683 0.44976175 -0.232654 -0.5211218 0.04946862 -0.8422906 0.40574703 -0.6787332 -0.10334371 0.1085214 0.23915784 -0.057167135
5638 1.1105324 0.33561012 0.9180649 -0.40225062 1.5899222 -0.11170025 -0.015372798 -0.69337434 0.93039614 0.061979547 -0.33011156 -0.46158728 -0.51341736 0.007759028 -0.8234573 0.24935992 -0.25847784 -0.38806802 -0.217486 -0.70437086 0.7749171 0.99538696 -0.25776586 -0.020584015 0.24133222 -0.271894 0.44569296 0.011646135 0.18902071 0.3945796 -1.3984356 -0.6385746 0.51659864 -0.24511185 1.1963463 0.31660497 -0.08740124 0.13504416 -0.010546654 0.030675616 0.0069182315 0.9509295 0.7543424 0.84604204 0.4289001 0.039167464 -0.10916517 -0.020378163 -0.017778685 0.2600925 0.2358361 -0.45213947 1.0473468 -0.13653733 -0.62776077 -0.644553 0.5442306 -0.50706244 0.8381615 -1.6063249 0.2688446 -0.46261206 -0.33293644 0.79857844
8544 0.543952 0.22117215 0.78931844 -0.6378872 -0.22860439 -0.97183293 0.54255915 -0.04308364 -0.57069784 -0.7135478 0.7696811 -0.26523653 -0.6956213 -0.5272965 0.017822294 0.4147574 -0.7959442 0.14029905 -0.23640892 0.033421453 0.32114497 -0.6222617 0.9241455 0.17015572 -0.75299513 0.5627613 -0.65592 1.5452797 0.18949935 -0.13854173 0.32484782 -0.97684324 0.32968742 0.06663868 -0.24277656 -0.49225718 0.4262003 -0.0005170365 0.76559734 -0.29423824 0.7110227 0.037957013 -0.74567336 -0.1580053 0.06313377 -0.097236864 -0.56028366 -0.85693204 -0.045528196 0.020917801 -0.11354176 -0.32554197 0.34557703 -0.40610588 0.2062523 -1.0270206 0.047896247 -0.95002747 -0.3574624 -0.6750584 0.40630987 0.6401193 -0.35752773 0.09880579
1528 0.7920685 0.13467331 -0.059992008 0.19707154 1.0457329 0.02855982 0.121755295 -0.2676485 0.0018906444 0.37794605 0.1181844 0.0029783878 -0.3573556 -0.32928652 -0.7055247 -0.23517378 -0.7048148 0.108317465 0.10335295 0.16831198 -0.31746703 0.010376403 0.19428217 -0.32862467 0.49720103 0.98936296 0.89197135 1.4643905 -0.3582998 0.08867913 0.17668872 -0.34909055 -0.5068168 -0.048576035 0.10071418 -0.3092561 0.5436517 1.3431067 -0.026841003 -0.6386989 -0.20725161 -0.06752305 -0.115933836 0.52135134 -0.04109363 -0.47011444 0.1478166 -0.6183661 -0.2300442 0.33964044 -0.32673293 -0.5639278 0.480192 -0.16445006 0.09071278 -0.40993342 -0.717673 -0.43698028 -0.19045506 -0.75045747 1.0072016 -0.028859729 -0.5680769 0.12332969
1364 0.5422174 0.014081034 1.068181 -0.14462711 0.657389 0.42713228 0.47254547 -0.23242576 0.59888995 0.26524565 0.64208156 0.06101335 0.5781534 0.07286162 0.52998346 0.23799074 -0.42841944 0.15053223 -0.59864575 -0.7660226 0.42391798 0.34232596 0.020242492 0.0900526 0.598247 0.9383444 0.14519796 0.24225149 -0.22546834 -0.27261552 0.1744185 -0.3845398 -0.5264975 0.64345825 -0.075130306 -0.112468824 0.03236769 0.72742486 0.5438053 0.23238228 0.54820615 0.21486412 0.09421053 -0.13420492 0.44857004 0.38136488 0.096121974 -0.537507 -0.009772462 0.11282087 0.49566567 -0.35870326 -0.037091628 -0.20181902 0.25997126 0.05954824 0.288824 -0.2636027 -0.40532002 -0.29313514 -0.25273547 -0.4343824 1.135989 -0.41235173
6539 -0.3113201 0.665108 0.8962213 0.25635695 -0.07773351 0.49410585 0.45851722 0.22563596 0.23271045 -0.019053325 0.3644755 0.57044506 0.14134687 -0.19082248 0.46906653 -0.42636335 -0.5153617 -0.10423717 -0.17755687 -0.09717386 0.14619222 -0.12935413 -0.009381945 0.29756993 0.27137133 0.28702393 0.42541048 0.61157995 0.04250009 0.5475344 0.38602352 -0.5564021 -0.6073184 -0.14203934 0.2837057 -0.15998417 0.8050238 0.8285884 0.25105903 -0.49346125 -0.33479798 -0.15186293 -0.6516353 0.5482392 -0.44226933 -0.060579576 0.12426953 -0.724806 0.3729771 0.044599574 0.46129492 0.13835427 0.7381418 -0.21101353 -0.49874273 -0.62441593 -0.53742975 -0.22137731 -0.05298398 -1.0761787 0.34971586 0.081134364 -0.35972905 -0.62501556
9646 0.2607146 0.45047522 -0.4238343 0.5096796 0.61215216 -0.3917032 0.27351075 0.49807578 0.22974803 -0.86471224 -0.6676781 0.25769708 -0.32422552 -0.203737 -0.30414253 0.0035869693 -0.17586918 -0.60837334 0.19340515 -0.8614763 1.0754268 0.16232644 0.20581658 -0.11242559 -0.15419774 -0.6574113 0.41087073 0.25692442 0.09110238 -0.22234005 0.5227317 -0.6726121 -0.41493654 0.28921664 0.6053626 0.4142995 0.13866536 1.0015112 -0.29879957 -0.5652611 0.891041 0.44016474 -0.3721151 1.0743623 -0.09251423 0.04661567 -0.41743344 -0.054549698 -0.9082304 -0.6878156 0.2586577 -0.7859753 -0.22748315 0.25136513 -0.00038259526 -0.6585185 -0.05234765 0.3624109 -0.07985464 -0.3764169 0.5537225 -0.22912537 0.8416772 0.14123487
9999 0.677129 0.031307828 1.2145915 -1.0345714 0.6845543 -0.00046736433 -0.08647223 -1.0610225 0.9172576 -0.18408385 0.22324593 -0.5538183 -0.15869777 -0.26046607 -0.49235135 0.21440195 -0.41916388 -0.55254275 0.21189082 -0.5628516 -0.040596753 0.5040453 -0.07049032 -0.07461631 -0.40802953 -0.7774545 0.33900556 0.47575128 0.16674273 0.20494466 -0.69725776 -0.48340628 0.15090656 -0.32895938 0.66088295 0.047832232 0.30431896 0.23762468 0.023947043 -0.20404881 -0.06769517 0.7468247 0.37460923 0.9195006 0.55881304 -0.6393796 -0.0879972 -0.7726645 0.1410777 -0.32469714 0.346739 -0.12682341 1.0901608 -0.617708 -0.15903708 -0.60933346 0.7166343 -0.30699405 0.3811521 -1.0363632 0.01883029 -0.55879235 -0.1748333 0.54043067
8864 -0.81396383 0.0012564937 -0.0040202583 -0.27429426 0.38681108 -0.59873956 0.011626392 0.0013107073 0.48436925 0.23245752 -0.5712845 -0.4112746 -0.13850975 -0.31160384 -1.060946 0.24338862 -0.7112729 0.84962827 -0.054607254 -0.7695853 1.1231139 0.90799326 0.29308313 -0.14570059 -0.50734454 0.14405149 -0.07961052 1.2148378 0.21848755 1.2527566 0.42433175 -0.06335238 0.36938128 0.04284501 -0.8713426 -0.5595019 -0.38017267 -0.4532023 0.31144324 -0.603757 -0.057146613 -0.6014199 0.39547515 0.41425934 -0.281967 -0.20548704 0.22927463 -1.0506784 0.26704586 0.2768957 0.96289015 -0.07547025 -0.46547458 0.27613908 -0.97711694 -0.5619178 -0.18521513 -0.6257815 1.2321649 -1.0246259 -0.6521574 -0.37950128 0.0036568947 -0.45027804
7999 0.14940675 0.63208497 0.5721857 -0.31756184 0.09400278 0.60034263 0.02359287 0.4558535 0.6129353 -0.25222352 0.08130509 0.19162144 -0.5396508 -0.49756837 -0.022434983 -0.24413364 0.44784206 -0.22179917 -0.4158095 -0.38244122 0.14405413 0.45128664 0.28276488 0.6181228 -0.89524406 -0.113071315 -0.57995474 0.9810148 -0.58988595 0.014657084 -0.6610965 0.89344376 -0.23546915 -0.7222746 0.26477587 -0.5330989 -0.53624886 0.6231395 -0.11010872 0.21814337 0.83112466 0.028016888 -0.21592785 0.2469482 0.45080575 -0.11363079 -0.63339823 -0.9839098 -0.60912496 0.5449375 0.6642141 -1.0612515 0.8193718 0.99863887 -0.24782941 -2.1088283 -1.0444947 -0.30994186 0.39216107 -0.26047122 -0.065109335 -0.5762301 -0.2522983 0.4087936
5271 -0.42789868 0.27958238 0.09861799 -0.8146437 -0.14732188 0.26114675 0.46457767 -0.17106827 0.46173084 0.15125391 -0.6005398 -0.48122838 -0.48643586 -0.39902812 -0.7799391 -0.02031724 0.2450466 0.7950648 -1.4172258 -0.70779115 0.47614792 0.71940327 -0.3731178 -0.25847283 -0.4253859 0.24365383 -0.7179095 0.25137323 -1.0052333 0.49315315 -0.06689586 0.5626797 -0.60877144 0.07290669 0.0025365069 -0.1905088 0.6128064 0.2971909 -0.01593756 -0.009337435 1.1107823 0.1959348 0.2720359 0.5925072 -0.51264983 -0.36635295 -0.6586652 -1.394841 -0.21403986 -0.05326475 -0.09169301 -1.0245016 1.0309757 1.6065693 0.29948092 -1.5195978 -0.68888956 -0.16079631 0.52691907 0.06491679 -0.92700434 -0.4363915 -0.63493335 0.33751184
5709 0.28192905 1.2603114 0.74442315 0.42206597 0.31469834 -0.8850221 0.95241946 0.29167822 -0.5467816 -0.05502872 -0.24422401 0.57782197 0.50712204 -0.38544416 -0.43123975 0.47962055 -0.4405403 0.27557296 -0.7466008 -0.15265973 0.07226384 1.2486746 -1.0587465 0.43643826 -0.052174967 -0.11404235 0.50417024 0.31814376 0.18231569 0.40786168 -0.70374364 -0.53686035 -0.53121036 0.39180323 -0.39536077 0.07455937 0.019362152 -0.41068187 -0.3136319 0.430943 0.6454697 -0.011112057 -0.05306804 0.26672566 -0.48181117 -0.53600335 -0.4683656 -0.92210376 -0.33393997 -0.1531258 0.18250456 -0.05099336 -0.5498968 0.018957732 0.56426984 -0.10023591 -0.30336863 -0.070694104 0.2530545 -0.3167191 0.30064163 0.8784683 -0.12099814 0.62563056
9753 0.750716 0.9037981 0.80926895 -0.027398555 0.6941718 -0.050657853 0.38782835 0.4553135 0.276163 -0.36445543 -0.24815711 -0.6168269 -0.2609678 0.7495326 -0.53803927 -0.6913975 -0.42171142 1.1256477 0.16305576 0.11353981 0.28424454 0.58651567 0.6583946 -1.0756373 0.5799121 -0.7202871 0.4809142 0.59969217 0.5781235 -0.41008937 -0.5592272 -0.08563277 0.25552997 -0.4599596 -0.015833758 0.41966417 0.35408735 -0.71944374 1.0903457 -0.04544528 1.2366626 0.028952502 -0.67358893 -0.24966723 0.6184142 -0.072303586 -0.4290195 -0.8045731 0.02792357 -0.9909765 0.14910668 -0.61820596 -0.5350761 0.46611625 0.2979404 -0.059252102 -0.42281437 0.05458532 -0.7001485 -1.0864396 0.09833778 -0.09951018 0.73854667 -0.23522176
5599 0.23029624 1.1013858 0.46737406 0.10207966 -0.31630313 -0.71301085 0.48199135 -0.40617615 0.105994664 -0.2675827 1.1329641 -0.16026556 -0.15995996 -0.12896785 -0.35138622 0.6590453 -0.3393379 -0.1175083 0.08683629 0.3178251 0.3466011 -0.4389366 0.34829643 0.144215 -0.34090343 0.16524813 0.03630147 1.1408726 -0.003283601 0.22593684 0.18724217 -0.7711203 0.5727089 0.18250947 -0.5564518 -0.17069463 0.23119618 0.6699917 1.1232421 -0.12885447 0.35820538 -0.062796466 -0.8735804 0.513963 -0.11677603 0.031151226 -0.15235844 -0.9366239 -0.19907431 0.7515283 0.01265624 0.0023080718 0.2125037 -0.3578342 0.24600051 -0.6825424 0.39473426 -0.93404835 -0.041468035 -0.8391022 0.8140319 -0.30958393 -0.44772908 0.12956232
2646 0.48225933 0.36398137 0.85226136 -0.40108696 0.28226766 0.60991067 0.51710624 -0.34008667 0.51449424 0.91224617 0.6073359 -0.6145634 0.7311995 0.44555336 -0.05314721 0.28874734 -0.17200959 0.31073576 -0.7674848 -1.2375863 0.40990832 0.5253444 0.32170478 -0.07862912 0.6373385 0.30410084 -0.2960547 0.52361965 -0.5505906 0.02590387 -0.14093049 -0.84296423 -0.3138344 0.62618995 0.2672583 -0.13078982 -0.1549092 0.88267606 0.18926817 0.97029984 0.3001365 0.46049267 -0.0066760588 0.37395126 -0.007589545 0.59103227 -0.039140783 -0.99243414 -0.48214355 -0.14664261 0.41407436 -0.6966009 0.0681457 0.4236954 0.19825609 0.7860622 0.62412894 0.018304955 -0.54159796 -0.16539763 0.30210343 -0.7172039 0.23473807 -0.2856103
7452 -0.017818926 0.12989475 0.081738494 -0.38569957 -0.02641545 -0.3620219 -0.0065268464 0.12419978 0.056156702 0.73013353 -0.17760184 -0.9479322 -0.81941044 0.13833667 -0.79336023 -0.038839534 -0.18131918 -0.4037228 -0.6968325 0.16439909 0.0336242 -0.43491757 0.6418325 0.22334455 0.8341983 0.808541 0.3355943 0.83139 1.0613065 0.21838395 -0.31196398 -0.36611632 -0.045984622 -0.36729422 -0.41713384 0.2910954 -0.49801517 0.019542616 -0.6715393 0.44714534 0.7461721 0.011352505 0.091596454 1.0323377 -0.5857961 -0.2925394 -0.34120458 0.02641006 -0.57068795 0.36017212 1.4401914 -0.24818626 0.6684362 -0.57302964 -0.14052607 -0.34954935 -0.25258243 0.45803908 0.25915238 0.09667891 0.30178505 -0.38992164 -0.01740455 -0.074011825
2865 0.8712065 -0.48864612 1.1669091 -1.2037926 0.9891988 -0.67618364 0.21288078 -1.294188 -0.001954928 0.07192482 0.5851409 -0.09357202 -0.59788805 -0.0914507 -0.6454941 -0.10850639 -0.58750194 -0.53387576 -0.058185432 -0.91558886 0.16009477 1.2522058 -0.0954734 -0.4205815 -0.79620564 -0.6192898 0.19319999 0.023805577 0.7199924 0.7284471 -0.7171824 -0.8309015 0.29943335 -0.30146158 0.7552943 1.0428227 0.20185463 0.14139009 0.1935106 -0.6368702 0.1054225 0.4368832 0.59722656 0.68999803 0.5380315 -0.37485468 -0.1883152 -0.7273062 -0.16319735 -0.18571594 0.5120145 -0.8741006 1.0078533 -1.6640074 0.102503635 -0.30412528 0.046003137 -0.28370124 0.04684994 -1.0880806 0.46353117 -0.3497898 0.62914294 0.26626775
7821 -0.2125287 0.8665259 -0.30049965 0.85166085 -0.58412236 0.5434916 0.84340554 0.04359221 -0.016951147 -0.49169257 -0.20359887 0.11461099 0.17162691 -0.31995216 -1.1241611 0.7589642 -0.59100854 0.1857221 0.60139984 -1.2243556 -0.6418084 0.46565437 0.9862407 0.5405213 0.26048762 -0.012946601 0.35607874 -0.29303482 0.2737199 0.35780698 0.22514783 -0.68002325 -0.5322607 -0.6070827 0.3451634 -0.45597872 0.2053571 0.30247122 0.60904914 -0.4020058 0.90319216 0.11326747 -0.35936403 0.12558885 1.0505044 -0.45983303 -0.154171 -0.3038165 0.3535754 0.36168048 1.248491 -0.9695135 0.2638124 -0.72981083 0.2737304 0.09447247 -0.3566792 -0.61591303 -0.027822811 -0.18332036 0.025659326 0.2530272 0.03316088 0.4525006
9724 0.30031204 -0.34125304 0.14683084 0.32838628 -0.15331702 -0.5968949 0.2845115 0.7477285 -0.3114896 -0.4537876 -0.29785153 -1.0006813 0.6783067 0.05671872 -0.4417502 -0.169449 0.37685522 -0.2770165 0.16607402 -1.4290003 -0.75212234 0.09663216 1.0246353 -0.30909756 2.7105334 0.09349885 0.7396758 1.0329757 0.5930433 0.39959112 -0.5394551 -0.07093747 -0.41221505 1.3468931 -0.21059881 0.3071012 0.49918336 0.14698833 -0.47504544 0.1492293 0.6021639 -0.35918054 -1.2579434 -0.0039955834 1.0338664 -1.4383135 -0.22036129 -1.4418739 -0.60634285 -0.6311181 0.0029705267 -0.461943 -0.040053967 0.2182367 -0.3903366 -0.28474188 1.0094371 -0.5145283 0.08897177 0.21595687 -0.44443646 -0.6391915 0.63907176 0.186297
4479 -0.16487078 0.68637013 0.44072345 -0.45532963 -0.0392367 0.6065884 -0.5802166 0.24960664 0.87273836 0.713347 0.09848409 0.1554765 0.4886212 0.029194122 0.048050027 0.049812913 -0.6776606 0.6508427 -0.057672106 -0.88128173 0.22032748 0.34541556 0.19991419 0.31910264 0.39475587 0.559607 -0.40799966 0.97579235 -0.51808745 0.7198246 -0.5038955 -0.877352 -0.16668762 0.2570698 0.3184395 0.60723186 -0.0906955 -0.12808652 -0.5846178 -0.16067895 0.5318868 0.46068224 -0.80355555 0.06828055 0.8640276 0.46663332 -0.4173947 -0.4311397 -0.2829154 -0.094387226 0.0034593507 -0.031583503 0.3197288 0.4393457 0.70009923 0.6037772 -0.4409899 0.50434303 0.08969133 0.101016864 -0.010027725 -0.046594102 0.7405137 0.41855824
2317 -0.31661588 0.23170704 -0.10733364 -0.45279324 -0.26086542 -0.5712135 0.2716959 -0.08440937 0.2954522 -0.21024662 -0.37877953 -0.29083237 -0.2591541 -0.22678733 -0.102819726 -0.21180917 0.41143298 0.06694758 -0.08385577 -0.288765 0.20620109 0.070712544 -0.033720233 0.024500424 0.8860794 0.82379085 0.43848863 0.7627593 0.5102165 1.3551848 -0.9398575 0.30356306 0.069973566 0.7835545 -0.05008973 0.107944995 -0.09764897 0.16814288 0.012442268 -0.12652777 1.6099854 0.38455796 -0.3229747 0.53245836 -0.5393764 -0.46314126 0.2456056 0.8057043 -0.39296442 0.058628723 0.78602666 -0.4876492 1.1736289 -0.033604655 -0.78976727 -0.121063896 -1.0616255 -1.0122194 0.14907783 -0.58562493 0.21422535 -0.75562286 1.2757027 0.14612454
1466 -0.14756255 0.08612923 0.7376183 -0.18902105 -0.3032037 0.34942207 0.111694336 0.1545509 0.4066733 0.0027015875 0.29099882 0.07878505 -0.7828139 -0.53584766 -0.17259474 0.3728918 -0.46054912 0.0059452895 0.21152514 -0.030973349 0.5630006 -0.011276425 0.47371092 0.06524157 0.14222023 -0.23053579 0.381373 0.9728085 0.23159994 0.9205192 0.69366544 -0.45761663 -0.38497102 0.10519283 0.082362354 -0.22751668 0.52199006 0.19686107 0.18889947 -0.18024667 -0.49428853 0.18630585 -0.21286829 0.41855368 0.06770683 0.28922465 -0.21651511 -0.34177226 0.16068056 0.8775129 0.18224144 0.16314906 0.023497513 -0.030511133 0.20019718 -0.59041584 0.09912509 -0.67202586 -0.174756 -1.0193946 0.5480898 0.2630462 -0.46947676 -0.20112914
9907 0.40321228 0.84331316 0.4311989 0.25865114 0.9283373 -0.6079142 0.10396261 0.38692403 0.02891096 0.16575994 -0.29362077 -0.35655686 0.57953525 -0.2569831 0.07579536 0.7322718 -0.008181303 0.10961692 0.047424562 -0.13878901 -0.8011971 0.36299413 0.79812455 0.03107895 -0.19130117 -0.49115044 -0.0016565095 -0.18495448 -0.94633543 0.95980847 -0.01351078 -0.52973807 0.44673195 0.5879309 -0.7128087 0.26578566 -0.29441702 0.84965575 -1.0030524 -0.09197097 1.1391557 0.24328016 -0.20702036 0.5731784 -0.5757592 0.014318282 0.3132871 -0.6364424 0.028614933 0.015739925 0.8403727 0.3703959 0.794732 0.16008106 0.07920362 -0.6912029 -0.09156622 0.24778499 0.14603847 -0.7270672 -0.28898525 1.2819334 0.22223495 0.4779023
4115 0.036458697 -0.20544115 0.25152782 0.17199342 0.80948395 0.059626862 0.7951661 0.2760175 0.26894358 -0.12616552 0.50898284 0.017951574 0.048925072 -0.22697979 -0.68249464 -0.082487896 -0.1769145 0.65600336 -0.30422974 -0.26982784 0.37920475 0.39685854 0.027829189 0.40591186 0.22589256 -0.24788289 -0.39262536 0.5833445 -0.49952567 1.1567643 -0.47403243 0.0504309 -0.12776041 0.028500194 0.11736555 0.2599459 0.8303139 0.08206979 0.41288164 0.28666252 0.20846574 -0.16606745 -1.1332598 -0.08214262 0.39588797 -0.749168 -0.21221796 0.14633062 -0.10523037 -0.0097605325 0.49281496 0.3855346 -0.007837081 -0.17139348 0.77910745 -0.34903118 0.27740815 0.1284124 0.42320493 0.6467916 0.30583718 0.23597896 0.62418234 0.58379346
2835 0.5220457 -0.644912 0.8064464 0.030709086 0.76256585 -0.21018575 0.8434848 0.66252893 -0.14734352 0.83650863 0.13996656 -0.49486536 0.8233919 0.38663736 -0.37365222 0.074730046 -0.06701054 -0.044422545 -0.7161442 -0.8699219 0.1920372 -0.09595855 0.41890094 0.05292567 -0.03837327 0.8508833 0.58033967 0.26330653 -0.58579105 0.3290584 0.591401 0.031334158 -0.27574068 0.061980966 -0.19875517 0.11509496 0.8990931 -0.50388384 0.25311294 -0.24898139 1.2850999 -0.046851788 -0.32381952 0.52126616 0.319673 0.5760582 -0.27357835 -0.07884281 0.28052855 0.018605318 0.73332965 0.12116564 -0.49712792 -0.3655209 0.30753142 -0.6092242 0.25488016 0.38443807 -0.4810692 -0.09557573 -0.5797194 -0.6091197 0.53805256 0.7950787
2913 0.32687005 0.109664686 1.1889842 -0.37190285 0.24945681 0.045584787 0.45106763 -0.67717713 0.53528726 0.58735055 0.21734141 -0.70838505 0.6348297 -0.4075805 0.044175502 -0.070546485 -0.18940096 0.31796935 -1.2282503 -0.9216317 0.44342697 -0.1423391 0.31988776 -0.71257704 0.8073798 0.25010332 -0.63091743 0.10819841 -0.14449948 0.030634223 -0.23828448 -1.1993016 -0.24677984 0.335651 -0.047366615 -0.01210345 0.28020287 0.718491 -0.023094907 0.22519794 0.8741238 0.055515315 -0.12521802 -0.5620037 0.57820094 0.7990376 -0.21752234 -0.5339908 -0.90417916 -0.13859187 0.38975707 -0.22275823 0.23339917 -0.38846746 0.6818039 0.5525209 0.49800646 0.015955057 0.14798726 -0.83985937 0.42517647 -0.3083402 0.49236023 -0.665961
4138 0.44625315 0.3618694 -0.4299142 -0.8569466 -0.09327544 -0.86839974 0.8118512 0.41968167 0.50132066 1.0575386 0.31508335 0.36395782 -0.43746895 -0.34604388 -0.37986404 -0.28448945 0.6199461 0.34221685 0.68413204 -1.4428061 -0.0513918 0.6466482 -0.4117152 -0.351185 0.043325324 0.11434079 0.06866747 -0.30491325 -0.2127244 -0.8066885 0.20277986 -0.1791582 -0.15804169 -0.21212259 -0.73958313 -0.60768116 -0.04809251 0.25006226 -0.36497524 0.5941316 0.55350137 -0.5025982 -1.5748206 0.40429318 0.520504 -0.026508255 0.43192583 -1.0364931 0.039218266 -0.042438187 0.9270694 -0.431191 -0.18420656 0.3504243 -0.7656112 -0.590267 -0.121408485 -0.18190461 0.46287984 -0.5055333 -0.50389147 0.34934214 0.8348572 -0.010475007
6822 0.3081133 -0.2120616 -0.73696846 -0.030148245 0.7373511 -1.3799382 0.2587302 0.18982983 0.14969674 -0.50400287 -0.70164657 0.3650259 -0.5957285 -0.44987053 -0.2698631 -0.030008262 0.14017603 -0.5793841 0.21684536 -0.3413294 1.3086512 0.3860869 0.33806112 -0.42502165 0.025597813 -0.4488264 0.00885741 0.06435462 -0.30882034 -0.030557938 0.5308808 -0.74150336 -0.2682039 0.027649928 0.4044162 0.37902194 0.29343975 0.72786665 0.010442732 -0.051307343 1.1462743 0.22021815 -0.2840867 0.5198902 0.25825712 -0.18158436 -0.2449208 -0.2174286 -0.6086373 -0.6174183 0.31354836 -0.78599787 -0.06092247 -0.16083841 -0.7480589 -0.6131239 0.35827482 0.42678338 0.36348233 0.057306416 0.84321094 -0.06179065 0.18786839 -0.15284349
57 -0.34569332 0.9681025 0.3427392 -0.0072727925 0.16189529 -0.4287672 -0.10935948 -0.8665568 0.48572308 0.40662545 -0.67651576 -0.42539003 -0.027983624 -0.65772206 0.5634375 0.30547333 -0.26669458 0.4248187 0.13515212 -0.804633 -0.5301184 0.0340372 0.014863365 0.2234451 0.3553109 1.1638917 -0.43593127 0.8379031 0.109979294 0.56953865 0.3185099 0.00051174447 0.15104634 0.40815943 0.34738654 0.27464488 -0.37101215 -0.9160109 0.05311661 0.5145335 1.0260987 0.24003002 -0.34123117 0.8809311 0.41046816 0.12814315 0.057686295 -0.021934375 -0.67501605 -0.26686326 0.746098 -0.5477287 0.6589524 -0.13474995 0.30758893 -0.20206068 -0.6993302 0.62454605 0.978334 0.353194 0.46825767 0.26313356 0.22623065 -0.047790695
2347 1.012376 0.3953758 -0.23422734 -0.86009264 0.17484626 -0.007675326 0.39257628 0.020837475 0.07580085 0.9727147 0.00086948957 0.56087965 -0.9912113 -0.3264021 -0.041957133 0.38583574 0.82904166 0.4109135 0.32601863 -1.7254707 0.7214924 1.2073224 0.18177262 -0.042454205 -0.050715372 0.25235933 -0.54814535 0.0305007 -0.30990723 -0.47662196 0.013740279 0.066441074 0.098264724 -0.20390537 -0.9753289 0.06286921 -0.064266644 -0.34752846 -0.37031925 0.2804289 0.38017625 -0.522609 -1.6475806 0.08977024 0.6863019 -0.46439308 0.52489346 -0.72870064 -0.57459056 0.031222329 0.72172666 0.022719413 -0.2686969 0.1450801 -1.269066 -0.5584315 -0.14692904 0.120415024 0.15811917 -0.9349975 -0.34057865 -0.2206527 0.21020596 0.5146186
7806 0.20632914 0.3134478 -0.11242918 0.19885768 0.5571173 0.09946917 0.029929549 0.009899062 0.79440314 0.43792522 0.29669484 0.55737567 -0.51790476 -1.248557 -0.21128574 0.46282086 -0.32366905 0.1146416 -0.82915485 -0.14423801 -0.7917266 0.48464096 0.9350254 0.22758332 0.54488444 0.53160584 0.26754427 0.9097861 -0.43051258 0.13577758 -0.11381753 -0.25637782 -0.6546602 0.22397739 0.38964167 0.0064644497 -0.06434214 0.13056043 0.230282 -1.1092912 -0.44223294 -0.82621855 -0.5211338 -0.08504813 -0.120918624 0.036604617 0.3018715 -0.45581988 -0.17881505 -0.2866319 0.76047903 -0.45878997 0.40095133 -0.16680843 0.04865997 -0.5552892 0.13145733 0.5905179 -0.3395113 -1.8045038 0.8415441 0.71076536 -0.8539296 0.32568872
1746 0.084193885 0.5804853 -0.6548195 0.95910627 1.0463834 -0.41492346 0.31270304 0.35811415 0.20611489 -0.18957992 -0.6711535 0.2252728 -0.111134075 -0.16189219 -0.2979725 0.25925124 0.21575901 -0.86179644 0.5777007 -0.44805035 1.1772109 -0.019954104 0.6325745 0.75249875 -0.119163446 0.035373416 -0.009617508 0.50751835 0.24158396 -0.46420977 -0.0042938464 -0.5251902 -0.20069052 0.36875603 0.5992731 0.28106156 0.1020498 0.5515665 -0.36813113 0.06857708 0.8768424 0.14122258 -0.8639609 0.8618384 0.19357012 0.8438289 0.029112687 0.03178799 -0.4548792 -0.90772605 0.3202616 -0.73323995 0.31391144 0.6828238 -0.005096491 -0.6313304 0.7447377 0.15930855 -0.23814002 -0.9160647 0.4766636 -0.14713211 0.4577759 0.3209819
9908 -0.23449385 0.74207765 0.37665594 0.25598428 0.89113593 -0.45639792 0.22839814 0.843334 0.17724474 0.42865914 -0.11874587 0.12745418 -0.50947005 -0.55766493 0.20341624 0.45631298 -0.25265062 -0.17876187 0.019663844 -0.1498778 -0.5202122 0.13848434 1.0630615 0.1422847 0.25187394 -0.38144347 -0.036607027 0.213729 -1.0147495 0.95595646 -0.15870552 -0.7131175 -0.053064287 0.46985394 0.03737128 0.44420087 -0.35806283 0.8558797 -0.68127596 -0.40539923 0.47186005 -0.33832985 -0.904602 0.053156275 -0.12034476 0.17420428 0.536975 -0.7576639 0.328891 0.0047340463 1.1281168 0.51995516 0.6213837 -0.5750354 0.010627979 -0.61385775 0.39792427 0.45520616 -0.13266435 -1.395732 -0.66578716 1.1492637 -0.6651409 0.0065489667
3853 0.021080678 0.09307263 -0.7167687 0.5041856 0.26016897 -0.399534 0.71676236 0.053518835 0.03612808 -0.42943063 -0.9016752 -0.05068136 0.17735861 -0.44354743 -0.29039738 0.2681344 0.00027055547 -0.41146943 0.35854298 -0.3787599 1.2288115 0.45220038 0.38183275 -0.13844457 -0.021117983 0.08257636 -0.032106463 0.22931741 -0.2263086 -0.726468 -0.04489353 -0.56177026 0.053841997 -0.08506009 0.13075227 0.46384206 0.9647212 0.3859578 -0.33257306 0.44051412 0.8027059 -0.124314696 -0.2095168 0.64011025 -0.13231476 0.4988568 -0.04273819 -0.06633861 -0.82340384 -0.78099495 0.45981854 -0.29114872 0.09976723 0.51063913 -0.30292872 -0.6992438 0.07927999 0.29692128 0.21045029 -0.2637105 0.21428733 -0.30672458 0.4344209 0.19386952
395 -0.002016483 -0.20614451 0.1936572 0.05379739 0.28290027 -0.5974117 0.42793962 1.222724 0.0445116 0.43652427 -0.3523572 -0.5225362 0.09936487 0.5314954 -0.80372655 0.08322481 -0.34286568 -0.31450737 -0.40284973 -0.82331496 -0.014531381 0.033605777 0.026239885 0.4673384 0.66138047 0.3566758 0.392077 0.31403828 0.3922838 0.32931826 -0.28259405 0.28437236 0.29132837 0.5129191 -0.466932 -0.11999428 0.47605345 -0.027727464 0.23548022 0.5107468 -0.027888857 0.42233026 0.1705589 -0.20549573 0.22075072 -0.52157366 -0.83606017 -0.8524272 -0.69289964 -0.32896963 0.04272736 0.19758025 0.4101826 -0.47171345 -0.5752692 -0.0074794157 0.3696531 0.17483081 -0.2572066 0.3140391 -0.16573703 0.25192255 0.23400241 -0.37534758
7272 -0.072346486 0.6459213 0.47778434 -0.6202137 0.68088007 1.0673411 -0.72125316 -0.16673532 0.378538 0.42289495 -0.30021387 -0.21228567 0.61594033 -0.16169256 0.28901958 -0.2762517 -0.3864506 0.42504334 -0.63613343 -1.4136333 0.30997255 0.38308612 -0.40365344 0.17440641 0.9170907 0.55408484 -0.5012815 0.72981477 -0.09991671 0.3344012 -0.37816644 -0.93065435 0.3041527 0.54198754 0.40079567 0.5773767 -0.0702562 -0.16235133 -0.17621331 -0.07578975 0.6011834 0.37706807 -1.3679138 0.4917648 0.37813258 0.489941 -0.55548745 -0.8042744 -0.26907575 0.37871054 0.3420951 0.2090188 0.8207228 0.24535608 0.93154454 0.38348556 -0.3807627 0.40739584 0.6588194 -0.24642715 0.49599123 0.25708076 0.8682227 0.21158248
3652 0.6544213 0.1133009 0.8539159 0.33541963 0.80360305 0.047065634 0.27934983 -0.04003418 0.48687714 0.063088275 0.6888044 -0.3013017 -0.30972746 0.04642452 -0.3816357 -0.110738456 -0.6428532 0.88652766 0.10971355 -0.70834154 0.94648623 -0.13653676 0.66879475 0.7685499 -0.06047457 -0.7764294 -0.21162057 0.2564219 -0.27357736 1.0492536 -0.91687816 -0.44487685 -0.04160884 0.24478078 -0.030811923 0.31812015 0.3311421 0.066894725 -0.20582111 -0.3193318 0.036438975 -0.43590808 -1.0249171 -0.37743726 0.6352683 -0.6270996 -0.49100092 0.19019721 -0.21664642 -0.18935186 0.42108497 -0.6259265 -0.027154097 -0.45988715 0.043672252 -0.07951085 -0.5023789 0.40598962 0.30448237 0.6211437 0.2130633 0.14514267 0.76300746 0.51716274
8837 0.8628365 1.396392 0.83333796 0.070189245 0.39406547 -0.8270453 0.53525496 0.60132784 -0.9999356 0.013140055 0.003383632 0.46813533 0.47717637 0.05726788 -0.4594423 0.8105378 -0.8580863 0.03248873 -0.7900579 -0.5435279 -0.06480438 0.9205899 -0.34788463 0.5861527 -0.004406793 -0.010257206 0.68030053 -0.08899296 0.46347663 0.40610215 -0.9617181 0.5185133 -0.029973647 0.27157336 -0.34986117 0.49152657 0.04604597 0.06898992 -0.52611935 0.16794103 0.39247784 0.3516322 -0.5129442 0.22240293 -0.39671904 -0.6004015 -0.6340237 -0.4314155 -0.87883466 -0.036214884 0.28602067 -0.111514814 -0.2756035 -0.33265176 0.8859498 -0.3767896 -0.4882654 -0.057139784 0.78630775 -0.6059962 0.47188017 0.49134424 0.28972682 0.1253482
6387 0.14873484 -0.19412388 0.26405624 0.057442654 0.6042575 0.07691203 0.45603108 0.08211474 0.24766162 0.5654888 0.23127823 -0.20829742 -0.20473444 0.7117076 0.15049647 0.50387573 -0.16527702 -0.10752654 -0.95032626 -0.9282984 0.4911503 0.32249022 0.4557462 0.42502838 0.9199005 0.78886175 -0.31533715 0.43057907 0.48159766 0.28475 -0.45303237 -0.1450602 -0.2818756 0.21005145 -0.13528626 0.11329275 0.33481076 0.5801674 0.5044155 0.6878808 0.14284953 0.8291038 0.1748821 -0.16572773 0.06424078 0.12019812 0.09907177 -1.4873223 -0.9470517 -0.35168585 0.117452465 0.41879314 0.13095304 -0.8802432 -0.3607273 0.42638376 -0.25630486 -0.21053636 -0.54486585 0.28987676 -0.43982914 0.6080658 0.55771166 -0.42719945
9762 -0.05732367 1.2305019 1.0903834 0.15972857 -0.038980875 -0.9108709 0.30809942 1.1028452 -0.9562601 -0.38068196 -0.5460326 -0.33832923 0.35587856 -0.29557788 -0.3148861 0.79001415 -0.8488657 -0.013103896 -1.0855691 -0.4814467 -0.05469942 0.89892083 -0.490134 1.0105203 0.5471205 0.19433264 0.91991156 0.1420234 0.21662323 0.54229504 -1.007536 0.37261862 -0.037243325 0.19166252 0.064303786 0.17569263 -0.2355933 -0.11621337 0.3010801 0.02517851 0.78170943 0.018608859 -0.079946645 0.08518261 0.8752311 -0.055142086 0.079241455 -0.93322176 0.008455859 -0.29669973 0.026040033 -0.411522 -0.073703855 0.5680699 -0.3512817 0.112251155 0.20918816 0.087566055 0.92766887 -1.2214816 0.42869574 0.67632973 0.39142546 -0.80878246
4415 0.37964103 1.0368053 0.32444733 -0.4894197 0.25319427 -0.2890294 0.49902925 0.3948883 -0.42052317 -0.70706266 -0.21298636 -0.10216949 -0.2892388 0.52599216 -0.71895814 -0.09529951 0.2156234 0.62369055 0.32012403 0.3555727 0.5393826 0.3027491 1.006585 -0.8646548 1.0068741 -0.49325472 -0.36077315 0.4192451 0.17008193 -0.21754037 -0.5113789 -0.7009145 0.40007916 -0.5695966 -0.38237435 0.765822 0.10955273 -0.8180635 0.99279684 -0.02190104 1.1151997 0.33094975 -0.28483352 0.1648054 -0.0897728 -0.054351497 -0.6083215 -1.3693355 -0.24800321 -0.68157864 0.77099717 -1.1031449 -0.23613633 0.32049388 0.5255061 -0.30379847 -0.30344886 0.9582578 -0.8997806 -0.5669212 0.45804614 -0.11765457 0.5171068 -0.080303356
3038 0.22139841 0.05752722 -0.06334324 -0.33540446 -0.09840668 -0.38329503 0.55086976 -0.08408397 0.4338976 0.1717043 -0.41128176 -0.5294569 -0.38349503 -0.617158 -1.1198285 -0.22736844 -0.33487755 0.28958818 -0.5370559 0.16634586 1.0731758 1.0031759 0.4378172 -0.27538586 0.76092285 0.064549975 0.31301135 1.2548572 0.27264866 1.2444079 -0.4054355 -0.112414375 0.44457987 0.0033719495 -0.90925145 0.1273134 0.036868773 -0.7170775 0.17263049 -0.9945684 -0.7285544 -0.42826366 0.65521735 0.29784203 0.013496593 0.23377235 0.4310103 -0.9833131 0.9889454 -1.1424911 0.8450447 -0.55164015 0.071764305 0.46167517 0.0135085555 -0.6623187 0.14509942 -0.4621916 0.5154284 -0.9771466 0.07196286 0.04407375 0.16205853 -0.20927766
7713 1.0006994 1.1236436 0.6151526 0.088104635 0.6401334 -0.6665473 0.3003934 0.35624412 -0.46116367 -0.3218058 0.19483194 0.52852976 0.8250172 -0.6617203 -0.72786075 0.4511868 -0.27340868 0.37765422 -1.1760336 -0.691029 0.27119327 0.85568815 -0.1857099 0.5246591 0.13939852 0.11888284 0.99138707 -0.10741495 0.036128644 0.3960671 -0.870916 0.4633033 0.121963784 0.19588804 -0.57639855 0.1551064 0.04355652 -0.2999886 0.1689126 0.4369132 0.69560885 0.07323151 0.35741457 -0.1044635 -0.28158543 -0.09693806 -0.87761456 -0.50173604 -0.8333744 -0.31143153 0.15986373 -0.31909585 -0.6169182 -0.46328902 0.75779706 -0.26894465 -0.11230697 -0.16728243 0.23722084 -0.85918486 0.19457668 0.66816705 -0.22409596 0.9826309
4136 -0.07945141 -0.08195151 0.7967391 0.30928445 0.25357842 0.08603508 0.57800835 -0.16961734 0.051676944 0.21462944 0.4589719 -0.08989354 0.060316138 -0.35581696 -1.144115 0.03842038 -0.46613353 0.38061467 0.11562956 -0.16315359 0.5829969 0.06694909 0.35493797 0.5898534 0.5182293 -0.58092624 -0.3535228 0.110289186 -0.7894203 1.0444902 -0.70603645 0.3962654 0.3831993 -0.2907036 0.1354402 0.32877493 1.1402456 -0.27654445 -0.06579582 0.2031038 0.17222965 -0.7570111 -0.6056686 0.2607426 0.70171 -0.6863067 0.08478054 -0.20591602 -0.25613853 0.2771192 0.27070832 -0.506134 0.1020146 -0.185685 0.31973797 0.3425133 -0.6090458 -0.07244846 -0.2060491 0.05797402 0.2164662 0.75893646 1.2951678 0.73669136
2307 0.15190369 0.34405723 -0.094516605 -0.23554456 0.5055828 -0.59763974 0.34817755 0.22869113 0.21979588 0.1726857 -0.024960352 -0.63229567 -0.151719 -0.5424103 -0.95067936 0.025699332 -0.8488387 0.2964874 0.34282267 -0.45472658 0.5461312 1.3712308 1.327987 -0.07083 0.105689704 -0.09939006 -0.119180985 1.9288393 0.7923268 1.2508712 -0.46981406 0.15206124 0.33011797 -0.29180643 -1.0822272 0.045013595 -0.1260553 0.21496661 -0.34104407 -0.21100876 -0.91329426 -0.66689557 0.40804592 0.16662888 0.2953869 0.7690009 0.601105 -0.3362757 0.4479232 -1.1544216 0.32342312 -0.85103 0.10902796 0.3961404 0.01641868 -0.42929998 0.3267517 -0.40070271 0.50282365 -1.1019076 -0.270977 0.5536571 -0.017674202 -0.3585157
2711 0.5315379 -0.24605133 1.122229 -0.44581288 0.13396303 0.5308792 0.6865888 -0.60527664 0.46150696 0.755373 0.16970642 -0.37997296 0.43811253 0.2292029 -0.0071436116 0.26219568 -0.60295993 -0.28238735 -0.79755443 -0.93689823 0.20899813 0.13084862 0.31535095 -0.2633737 1.2113245 0.55359644 -0.71052814 0.4113916 -0.37871778 0.059800267 -0.18476726 -0.9714644 -0.7641016 0.49380177 0.018624946 -0.62485963 -0.36193404 0.7381642 0.012318607 0.42541584 0.6781928 0.30708417 -0.24089746 -0.71490186 0.6148131 0.18986306 -0.3085359 -0.95441186 -0.7751123 -0.16898604 0.5433574 -0.6076739 -0.26080263 0.061245315 0.4047493 0.24840769 0.67609656 -0.09691054 -0.30447885 -0.6747165 0.046610586 -0.699031 0.5829866 -0.6369665
7712 0.23318493 1.1490458 0.7403078 0.13985972 1.1152798 -0.71908426 0.96723765 0.56251466 -0.69052595 0.09502788 -0.5820466 -0.11153926 0.53237313 -0.68860644 -0.43275023 0.57363343 -0.33495545 0.0877265 -0.7767816 -0.57708555 0.29859114 0.7060188 0.41327184 0.83576643 0.3093563 0.08018219 0.99397683 -0.31156248 0.13276535 0.30962765 -1.4318678 0.57338226 -0.30735022 0.15291964 -0.55526805 -0.111633606 0.061409514 -0.33620414 0.03827083 0.2881475 0.58362925 -0.032080434 0.18064815 -0.022696728 -0.35180134 0.009556039 -0.22965154 -0.463956 -0.8160549 -0.48934412 -0.39637336 -0.29914188 -0.04870637 -0.25278255 0.11119976 -0.05993168 0.011052472 0.06342107 -0.14215682 -1.1030909 0.10221146 0.7546666 -0.04844165 0.76412106
398 -0.073097795 -0.14562653 -0.010941116 -0.14316225 0.3198776 -0.6001235 0.483298 -0.076603495 -0.26018733 0.29037845 -0.12666185 -0.5760385 -0.11361521 -1.0123345 -0.72574395 -0.14020309 -0.6669707 0.42346022 -0.033168394 -0.2823344 0.5057566 1.3049396 0.81486243 0.08726979 0.47966918 -0.10597907 -0.19689499 1.282052 0.1669167 1.3331177 -0.17503648 -0.1348115 0.33053935 0.009370994 -1.0797375 0.18710709 -0.1795027 -0.3880952 -0.031528458 -0.2964434 -0.994674 -0.2767171 0.49606514 0.7444347 0.17943843 0.30694717 0.09355726 -1.13613 0.80575174 -1.6366065 0.75584733 -0.76193005 -0.13270189 0.16682318 -0.23037481 -0.37319747 0.18536085 -0.6180889 0.20156325 -0.66515404 -0.14032848 -0.07031678 -0.15152311 -0.031661823
3079 0.19681393 0.8244089 0.44706577 0.1704379 0.35391283 -0.891096 0.4545476 0.49590647 -0.21522845 0.015416458 -0.32772893 0.31334415 1.2581868 -0.0036528902 -0.4605062 0.6863957 -0.3617895 -0.1680761 -0.57988304 -0.86602336 -0.4292671 0.9938652 -0.5284924 0.342017 -0.43128973 -0.5945836 0.7181532 0.6592889 0.048941102 0.4497494 -0.48436728 -0.41761935 -0.5393382 0.54800427 -0.8034941 0.024490774 -0.44429955 0.84397376 -0.52511144 0.037137516 1.1933645 -0.053852458 0.022352878 0.8627761 -0.011902807 -0.11422635 -0.46307442 -1.2556205 -0.059728164 -0.51386666 -0.1480885 0.4010849 0.06798889 0.16664663 0.09931938 -0.19519867 -0.08255199 -0.16262418 0.06552412 -0.4051807 0.32489824 0.9918003 -0.32531893 -0.72437704
7267 0.66972643 0.92377734 -0.14948706 -0.6129156 -0.06788292 0.5279955 0.82903844 -0.38250616 0.5626597 0.4334062 0.28328672 -0.36235374 -0.7775952 -0.43231332 -0.13428134 -0.23211712 0.020841172 0.07558025 -0.7264822 -0.9575302 0.6235683 -0.15335874 0.52457756 0.7160206 -0.35109037 -0.3495382 -0.5794502 0.120902084 -0.50379825 0.38566315 -0.57263744 1.1643257 0.28791234 -0.33878914 0.20079361 -0.24667834 -0.07950954 0.42117417 -0.66993403 0.16196759 1.0205948 -0.44490474 0.10688362 0.91319424 0.5878901 0.18542084 -1.5042496 -1.0671338 -0.55039966 -0.2818027 -0.34180465 -0.8453182 0.34405702 0.7753161 0.0263801 -1.3004805 -0.5678068 -0.07990323 0.4390679 0.016431998 -0.37691417 -0.8486713 -0.7158256 0.34099618
3009 -0.17943965 -0.8095897 -0.011286314 -0.024693154 1.05976 -0.087922886 1.0212274 0.7198469 0.6660023 0.20815946 -0.041976407 0.19235125 0.42934677 0.13070093 -1.1746523 0.6106397 -0.22548868 0.06716664 0.015608826 -0.17743412 0.798975 0.25839293 0.116511166 -0.57208544 0.22276352 0.10082791 0.20527524 0.4230869 0.12447626 1.3636191 -0.86463225 0.93989664 0.23514397 -0.21849036 0.38862616 0.394425 0.7841281 0.2237864 -0.016790535 0.7315407 0.120740555 -0.15414831 -0.6935862 0.59367025 0.2130605 -0.66136134 0.10056129 -0.72262055 0.13372752 0.07717784 0.59446853 -0.50694853 0.81417406 -0.31946117 0.6758946 0.5367121 -0.0037239501 0.3497991 -0.31275317 0.26401472 -0.105917156 0.9001992 0.27878428 0.36771134
3608 0.16172084 -0.28352445 -0.17240357 -0.4832602 0.06262512 -0.83579767 0.18438277 0.69875973 0.4341355 0.24952865 -1.0915868 -0.26392004 -0.08840874 0.68617374 -0.55697036 -0.22810271 0.380664 -0.058547758 -1.6926179 -0.109778665 0.15593418 0.08608327 0.3799731 0.6034553 0.724113 -0.4022906 0.93395054 1.5769728 0.21070002 0.0284405 -0.9800099 -1.0965111 -0.35300973 -0.98844093 -0.02614671 0.19267437 0.12130282 0.29554346 -0.26417652 0.3329104 0.67536193 -0.6325165 0.68568593 1.3490186 -0.0448225 -0.44735733 -0.719536 -0.7510833 -0.33939752 0.8176998 1.1146799 0.3133165 0.29823843 -0.18497838 0.12876897 -0.281591 0.17683434 0.31209072 0.24540891 -0.51177734 -0.838678 0.0026263802 -0.008074152 -0.46940088
1164 0.024131333 0.32141724 0.23033227 -0.8365811 -0.12240946 -0.76904917 0.11044042 -0.07964969 1.0005765 0.062861085 -0.49444023 0.2648001 -0.81571543 -0.20669702 -0.13783978 0.45711517 -0.30331114 -0.021272013 -0.58824605 -0.49292848 0.5328498 -0.118604675 -0.5646821 -0.12942074 1.1656674 1.0093652 -0.097189255 0.5834662 -0.18562317 0.9612895 -0.67593396 0.28542042 -0.370045 0.5718788 0.023093738 -0.53752106 -0.7497044 0.0029963562 -0.36821845 -0.4943792 1.0803108 -0.12815997 0.21137442 0.5226099 -0.4272209 -0.28475013 -0.09494909 0.3985359 -0.24448681 -0.6742722 1.1102673 -0.07072224 0.9513066 -0.6669033 -0.16407838 -0.3973751 -0.70680606 -0.4642903 0.14085226 -0.1379036 0.08090672 -0.392908 1.2494487 0.12515768
8670 1.0406017 -0.5300648 -0.98595464 -0.76748127 0.064562015 -0.5176115 0.8354313 -0.112625636 0.4572656 1.2669357 -0.11907936 0.5535805 -0.5068136 -0.359082 -0.6156867 0.0422944 0.3189094 1.2211446 -0.41021177 -0.8143469 0.57111746 -0.16050228 -0.22498621 -1.0512557 0.68260777 0.7614481 0.34655723 -0.48874104 -0.41455904 0.7665983 -0.35269886 -0.48897633 0.034197286 -0.54153496 -0.91735303 -0.5239121 0.268017 -0.115346305 -0.32132995 0.5114516 0.7713892 -0.09604345 -0.19543017 0.30608106 1.3262285 -0.34939113 0.23698737 -0.760854 0.055481423 0.53412616 0.11220804 -0.49371374 0.07561059 0.5864459 -0.9437784 -0.82970715 0.22040774 0.650902 0.51576895 -0.90270305 0.65940773 0.84793216 0.05395354 -0.31518093
1589 0.25109196 -0.4333522 0.5915358 -0.1268329 0.20363393 -0.3108678 0.7615592 -0.12532604 0.26750687 0.22609767 -0.028420616 -0.15691166 0.35479844 -1.0393621 -0.723823 0.31657454 0.3667196 0.4420457 -0.116828546 -0.47366 0.7790787 1.4979596 1.0941825 -0.108064935 0.52216744 0.2959032 -0.7248727 1.3678449 0.09776041 1.000515 -0.20882782 -0.1583675 -0.14935456 -0.15564416 -1.0545359 -0.30540624 0.0012083995 -0.871874 -0.5345808 -0.9496876 -0.76626277 -0.6573768 0.5303964 0.45697263 0.112826444 0.17239434 -0.0009937305 -0.88734525 0.17959401 -1.1595888 0.42650118 -0.34668213 0.13130896 0.58748835 -0.19401594 -0.49258015 0.2662997 -0.4448325 0.42120048 -0.4258193 0.04595318 -0.19266203 -0.064195335 -0.48310658
8510 0.1917234 0.43114865 -0.13065347 -0.2892143 0.98874354 -0.29411104 0.13738216 -0.72101426 0.52494866 0.25428 0.38135114 -0.04582928 -0.44140103 -0.8606964 -0.41843638 0.57413423 -0.65377873 0.5635603 -0.97144765 -0.7684695 -0.44451806 0.6663088 -0.0079056835 0.072450854 0.42050484 0.9148329 0.18097885 0.84039426 -0.34070674 0.41606504 0.61566067 -0.24654943 -0.3794153 0.3548589 0.8796139 -0.47667494 0.34702215 1.0171329 0.32750216 0.2125364 -1.0827745 -0.37754735 -0.1190476 0.32205987 -1.1459149 -0.059173185 0.24801725 -0.73019105 -0.75947094 -0.39815068 0.4124744 -0.83010083 -0.35094202 0.2891886 -0.59265333 -0.65755945 0.24291237 0.20704366 -0.09415544 -0.97283834 0.6856725 0.18518834 -0.5304653 0.17485619
2093 -0.018104881 -0.039170496 -0.36742815 -0.7192922 -0.060754698 -0.416905 0.56555235 0.33949772 0.09107461 1.2886078 0.055900045 -0.03705425 -0.487889 -0.7471826 -0.28424343 0.5602803 0.5045455 0.66862327 0.54680794 -0.313093 0.77186483 0.52429414 -0.06858183 -0.025738318 0.7786089 0.3404807 0.50925153 -0.54262656 -0.51726085 -0.61020577 -0.15324396 0.1579913 0.17447007 -0.7109099 0.33652598 -0.6392767 0.43142024 0.16160747 0.09227888 -0.21368328 0.7357706 0.49368376 -1.1042063 0.2036241 0.81046474 -0.23739722 0.41029915 -1.0921756 -0.35664523 0.016562307 0.27044165 -0.69115806 -0.09465159 0.21376339 -0.4279219 -1.0159997 -0.24421051 -0.21468343 1.1397488 -0.03627696 -0.4170263 -0.20085825 0.26193097 -0.029798998
1600 0.68315846 0.3692099 -0.39231542 -0.26747715 0.23101515 -0.19717242 0.6325481 0.6032831 0.61805063 -0.007661399 0.49987024 -0.33541358 -0.38302937 -0.41557682 0.29131737 0.060789414 0.64019173 0.060289398 -0.8986685 -0.24926898 0.6059901 0.92296314 0.6532688 -0.022048965 0.28562263 -0.76845765 -1.0530035 0.87149197 -0.09695363 -0.02834222 -0.53224874 0.5943706 -0.6921667 -0.66867596 -0.43176448 0.15723087 -0.45077795 0.39001372 -0.3518601 -0.0025420312 0.49838498 0.22893803 0.16845378 0.13028553 0.5011847 -0.12563926 -1.2209487 -1.2829652 -0.2649443 0.55683094 0.25933003 -0.8442861 1.2894287 0.78697664 -1.0810791 -1.4305491 -0.65376973 -0.042433638 0.20595554 0.38346836 0.07035568 -0.2548124 -0.42859837 -0.04973025
9241 0.20547318 -0.45860025 -0.60195214 0.36785474 0.26812226 -0.83261174 0.27777967 0.70850784 -0.19710357 0.7391095 -0.6543082 -0.2874838 0.2579827 0.28361714 -0.32051468 0.29146764 -0.60650784 0.21950503 -0.27224404 -0.9061655 0.60498124 0.40697613 0.1837228 0.7096332 0.53342074 0.16142282 0.20424202 0.34862256 0.05307776 -0.55084324 -0.47173017 0.22669217 0.21026383 0.4514875 -1.003148 -0.2666425 1.1588662 0.25583428 -0.11725013 0.7040587 0.1415119 0.72072273 -0.32192397 -0.4447487 0.41553226 0.115918495 -0.7013065 -0.23282744 -0.62136286 -0.35421145 0.38161668 0.27989122 0.9256709 -0.21455401 -0.638834 -0.4769347 0.25297943 -0.18393485 -0.1475269 0.13895582 0.91073513 0.13349207 -0.080519155 -0.68143004
4040 -0.4791316 1.1118721 0.22284237 -0.3037646 0.5490861 -0.11014441 -0.8924302 1.0798199 1.2725581 -0.39756224 -0.5409667 -1.8596917 -0.5980605 0.21522062 -0.2901751 -0.026308624 -0.27772498 0.11899777 -1.062467 -0.16943954 0.5997045 0.99775136 0.88211155 0.85729414 0.5836651 -0.026041457 1.5755348 0.1736285 0.35387093 0.23240055 -0.9362095 0.018225355 -1.2070122 -0.8015309 -0.5010692 -0.40003833 0.013676945 -0.22483633 0.6330541 -0.32740736 -0.32116553 -0.19605851 0.13997081 0.57652813 0.6558955 -0.3979143 -0.6907849 -0.6672318 -1.6473631 -0.6152735 0.8519338 -0.18782371 0.53307796 0.20672236 -0.85662246 0.42827624 0.11876277 -0.4409027 0.8416808 -0.1956858 0.16335635 0.32534257 0.9463098 -0.1081229
6165 -0.021496223 0.046619035 0.5551936 0.1758077 0.4301432 0.44624448 0.2139191 0.26068565 0.47084224 0.31734544 0.6308774 -0.23037899 -0.63520706 0.44310778 -0.20600674 -0.043408573 -0.6537528 0.6898193 0.076694205 0.031106591 0.5714694 0.38239577 0.7691134 0.7526515 -0.09272553 -0.6149314 -0.039697308 0.43679306 -0.53661036 0.7722626 -0.8845333 -0.6918634 0.43123543 0.31760648 0.04344355 -0.015647655 0.52065843 -0.46443495 -0.28927585 -0.31287464 0.45322776 -0.82589895 -0.45259085 0.20770006 0.87013006 -0.22649133 0.015011621 -0.22388941 -0.21478173 0.05777273 0.89457524 -0.29199332 -0.18822025 -0.4059771 0.14608048 0.15892717 0.067221165 -0.4058412 0.039298832 0.22738896 0.3663358 0.72198594 0.24307446 1.042823
26 -0.062295165 -0.31486142 0.30662653 0.3302503 -0.35031047 0.4203225 0.4112298 0.34744042 0.5527422 0.090642616 0.5741133 0.07347186 -0.38516998 -0.36330998 -0.3458759 0.16878136 -0.73259044 0.111360624 0.4386625 -0.04731124 0.3066345 0.6168479 0.19004364 0.96130884 0.24983162 -0.34623954 -0.15924904 0.22887164 -0.55229753 0.7136569 0.6195113 -0.60032576 -0.68213195 -0.38456523 0.19476186 -0.07934244 -0.038475428 -0.065167286 0.012674626 -1.047366 0.27869704 -0.12013364 -0.566014 0.2581183 0.23873343 -0.32784253 -0.1142724 -0.28243482 -0.0028660332 0.34097552 0.77665645 -0.23009564 -0.10376634 -0.2862793 -0.04665964 0.008077617 0.20027943 -0.09009311 -0.50393754 -0.8939157 -0.21196425 0.86643404 -0.6173188 -0.02040274
3174 0.47872344 -0.36697462 -0.90171236 0.49578446 -0.29549995 -0.25076526 0.8698913 0.2537215 0.1764746 -0.04233162 -0.7311771 -0.5051975 0.13683245 -0.23373787 -0.34046277 0.6500867 -0.32712945 0.51363105 0.5450065 -0.10633533 0.81558305 0.4957305 0.3788781 0.11953925 0.24275878 0.08290556 -0.012979829 0.43363038 -0.52138114 -1.1364675 -0.47245973 -0.64799416 0.011656967 0.22703457 -0.4021337 0.4281589 0.84742224 0.7163456 0.14256917 0.4659276 1.0163498 0.2725115 -0.020599373 0.32822204 0.15049154 1.1536722 -0.056893285 -0.21274142 -0.4433382 -0.74936557 0.42724803 -0.100169264 0.40679282 0.5089013 -0.69207793 -0.6206926 -0.4695417 0.11873123 0.10238754 -0.22171721 0.20000714 0.19421226 0.3189276 0.1935278
3901 0.68412685 -0.6193 -0.5420225 0.60320616 -0.4653187 -0.28400317 0.83379036 -0.013670103 -0.055009253 0.37330386 -0.883124 -0.3640593 0.4540626 -0.3318707 -0.39343992 0.7481841 -0.7562665 0.7608603 0.18864942 -0.22234656 0.61217546 0.004832969 0.29814932 0.25955462 0.7224994 0.18538325 0.09503368 0.1772924 -0.10401748 -1.3128852 -0.23614326 -0.19902408 -0.39753512 0.62381804 -0.4220497 0.3093197 1.2744815 0.3892215 -0.019529553 0.39842606 0.6020765 0.7814359 -0.107142486 0.26943845 0.33093062 0.71563846 -1.0163155 -0.544522 -0.63236564 -0.3005264 0.7424002 -0.0044770576 0.63286304 0.62896436 -0.48441136 -0.8724373 -0.57662106 -0.19095649 0.3241147 -0.33558804 0.27065405 0.43791354 -0.19108863 -0.23409276
8558 0.30778283 0.75928265 0.77116907 0.13685618 0.5657601 -0.8722515 0.03891433 0.4873907 0.30264738 0.20046033 -0.27831537 -0.49129453 0.005212475 -0.56324756 0.32926333 0.5596999 0.20667513 0.2144842 0.040232666 -0.54622775 -0.9920351 0.49372622 0.78600055 0.03986478 -0.56340003 0.29579416 -0.52878624 -0.5340658 -0.08300521 0.7945794 0.6674485 -0.3826683 -0.6724942 0.66724473 -0.41087243 0.36140263 0.2781174 0.46534947 -0.87818164 0.1037459 1.2093889 -0.1588588 -0.25072083 0.5702455 -0.124725215 0.64012736 -0.2318904 -0.4671517 -0.35105053 -0.2900316 0.5497758 0.1257623 1.0918932 0.19566911 0.5586267 -0.4191889 -0.41928923 -0.44372094 0.5182335 -0.3132855 -0.12792611 0.9605426 0.26393348 -0.2139889
9730 0.24581465 -0.08689398 0.39806628 0.047866732 0.23027852 0.10582912 0.12171954 0.042292193 -0.36790487 -0.18815462 0.54815704 0.31213474 -0.64719987 -0.40977192 0.049397413 0.69782346 0.5885747 0.2777196 -0.6088321 -0.089536436 0.42430276 -0.10609961 0.3272298 0.7313347 -0.11247922 2.009573 -0.27861166 0.8835422 0.03590523 0.35669464 -0.06699242 -0.11924774 -0.7462376 0.43740785 0.27909702 -0.3155884 0.7023962 0.0031417578 -0.25545764 0.6064608 1.7468827 0.78673404 0.052991703 0.14191456 -0.49841455 -0.4002235 -0.024873786 -1.4298408 0.384983 -0.4167309 0.24851474 0.1425686 0.6062128 -0.21019448 -0.8936357 0.49264932 -0.00082857197 -0.36733523 0.10906127 -0.56996 -0.027445499 0.13399635 1.3248677 -0.19483203
4984 0.5523696 -0.1116609 -0.7930042 0.26585758 0.5455553 -1.1629959 -0.12201278 0.022563586 0.46462542 -0.3505708 -0.602715 0.7286114 -0.46024796 -0.2310248 -0.52399087 0.18983652 -0.058114797 -0.44781867 0.15728974 -0.2781529 0.82696897 0.5080323 0.37906578 -0.37931785 0.3658089 -0.35470027 0.22387187 0.33931038 -0.18387464 -0.28847176 0.56795466 -0.8265682 -0.2576651 0.14135757 0.27062467 0.5855091 0.5011553 0.92482543 -0.1342188 -0.0953126 1.0591655 0.00035105835 -0.39037526 0.79445773 0.015536007 0.07277573 0.09933328 0.11914451 -0.94247586 -0.7926055 0.25902042 -0.90512943 -0.07120895 0.7190988 -0.28915888 -0.1950615 0.19315088 -0.023431953 0.6400518 -0.17773403 0.05419404 0.073130816 0.49915195 0.048235282
586 0.23855795 0.4244842 -0.3216491 -0.7980062 -0.07424029 0.042631153 0.37310886 0.20004565 0.34594813 0.22703634 0.7346022 0.34467903 -0.71691865 -1.1290834 -0.39130762 0.098310076 0.11908058 0.20501669 -1.853846 -1.2867019 0.6406942 -0.036504585 -0.3646455 0.21097654 0.08088084 -0.75010973 -0.6590001 0.4430849 -0.52538574 -0.3436125 -0.4060442 0.12583564 0.6601693 -0.016200583 0.019222042 0.22542675 0.40562338 -0.5261313 0.055016175 0.081158005 1.1739246 -0.27812815 0.2527888 -0.01937527 0.64568776 -0.5612497 -1.2270712 -0.7372916 -0.28717855 0.17252728 0.60072184 -0.90968543 1.1488553 1.0231308 -0.35249335 -1.5791422 -1.0766997 0.23524456 -0.5057129 -0.3690143 -0.7246166 -0.7042685 -0.25388363 1.0741343
5710 0.04663495 0.8304118 0.55217576 0.42851138 0.24415432 -0.31672063 0.79477 0.40386203 -0.033102285 0.09588202 0.326018 0.05824629 0.8937746 -0.5442027 -0.1359741 0.62696487 -0.26512548 -0.10009472 -0.6162598 -0.53986675 -0.16242701 0.7111188 -0.3159098 -0.28670144 -0.43448594 -0.45767656 0.58801645 0.2624695 0.027335268 0.6896967 -0.57457876 -0.46454307 -0.19389783 0.979042 -0.75284564 -0.23813829 0.002103916 0.27267027 -1.2436823 -0.22192714 1.1098748 -0.0036673066 -0.4141542 0.8407946 -1.0281341 -0.16269267 -0.29087877 -0.9256798 -0.15196803 0.0212605 0.26921088 0.25548488 -0.042111363 0.0873004 0.20634715 -0.30937886 0.14664432 0.41211596 0.4382275 -0.40931427 0.47850096 1.4851487 -0.13758609 0.037910093
4962 -0.46585774 0.4992015 -0.46994615 0.16365105 0.6482651 -0.7098057 0.41998437 0.014611241 0.08438011 -0.96267074 -0.5802717 0.8527624 0.14283913 -0.40513194 -0.30494967 0.27851257 0.08546742 -0.63807315 0.17635575 -0.7312194 0.9498039 0.16973469 0.73811036 -0.21174712 -0.16254956 -0.24217537 -0.22301303 0.5133826 0.34096867 -0.6762521 0.36511362 -0.6839701 0.078016914 0.13325727 -0.005681779 0.21931894 0.70989704 0.026911488 -0.016555728 -0.1031005 0.87206477 0.43208444 -0.25293583 0.69874287 0.084506944 -0.3726245 -0.3348543 -0.4639848 -1.3672922 -0.5278033 0.6128868 -0.969798 -0.30337846 0.16238678 0.005572772 -0.64172155 -0.0354593 0.8898645 -0.08906647 -0.34180176 0.36906296 -0.24460666 0.5163002 -0.1851207
2942 -0.19604257 0.53132224 0.22627471 1.3587074 -0.42771477 -0.0012068447 1.4380008 0.48997277 0.5935805 0.33064497 -0.14967355 -0.23535201 -0.5783373 -0.13797443 -0.871389 0.07621477 -0.9880557 0.45059094 0.840238 -1.8318673 -0.36343792 0.9067055 0.48259836 0.2471453 0.11413551 0.021771993 -0.21939565 0.5085284 0.15380274 -0.13039638 0.35061696 -0.7868678 -0.1154045 -0.7558135 0.70071703 -0.6347535 0.31430343 0.038980104 0.3846942 -0.80761826 0.6034234 -0.19959016 0.016051129 0.27596328 0.5472898 -0.8038681 -0.0066121784 -0.46672967 0.107032895 0.5741435 1.1689016 -0.09679185 -0.006216169 0.32754624 0.010943435 -0.049151335 -0.40809828 -0.8552599 -0.7080108 -0.30602175 -0.5439682 0.48692083 -0.6333293 0.43232867
8796 0.036510006 0.15628609 -0.24182539 0.34312823 0.31201896 -0.3874112 0.23826766 0.62890583 0.6722607 -0.14303297 -0.7152942 0.40929815 -0.71043956 -0.002848157 -0.18417278 -0.76454264 -0.43131337 -1.1025317 0.24679166 -0.86807317 0.8883127 -0.018095579 0.34264353 0.5247789 -0.36006173 -0.114217214 -0.29917672 0.5224658 -0.10821229 -0.30564144 0.48687565 -0.52438617 0.5984486 -0.08812459 0.25414035 0.6184387 0.13228604 0.72181356 0.15237485 -0.3712557 1.2065157 0.45375192 0.16838516 0.96857476 -0.08321212 -0.15448295 -0.47680515 -0.7055235 -0.81606716 -0.63985455 0.20097905 -0.29249826 -0.13559674 0.69800746 -0.40410885 -0.41843382 0.52442896 0.17456979 0.05624574 -0.6695842 0.43022785 -0.15167753 0.9481549 0.65925086
6733 0.6084702 0.3296926 0.72795546 0.9113274 0.5205874 0.0791011 0.30808657 -0.20251141 0.1887076 0.15049443 0.40766478 -0.041070126 -0.3352001 0.311129 0.055394333 -0.16188756 -0.3778853 1.305769 0.077015534 0.016789256 0.7679817 0.26223078 0.77774465 -0.010208751 0.17790751 -0.51936316 -0.17233798 0.5817251 0.14756925 0.5997297 -0.86589235 -0.52225554 0.39217943 -0.22789252 -0.20209171 -0.101994306 0.10313757 0.24957415 -0.29696393 0.048355572 0.42879242 -0.2909975 -0.7652822 -0.49229664 0.81820226 -0.16632305 -0.8698382 -0.09202122 0.49378774 -0.5902097 0.5762792 -0.44905666 0.06471094 -0.10887199 0.32836857 -0.37350455 -0.44104442 0.3641694 -0.48667604 0.42041275 0.71511114 0.076478764 0.71851987 0.43995342
9725 0.13403922 -0.102855 0.06879026 0.1805351 0.24293366 -0.6377829 0.46261716 1.3715658 -0.36274445 -0.0689468 -0.2550994 -0.9580648 0.061817862 0.30203137 -0.7503178 0.14375287 -0.20629704 -0.5042217 -0.51469433 -0.87635934 -0.6753682 0.28575298 0.27294466 0.02712405 1.7579408 0.1807383 0.27021307 0.8017442 0.43120003 0.12129099 -0.38017452 0.30540982 -0.009880979 0.8072439 -0.8887822 0.6957881 0.5823679 0.07944087 -0.23097688 0.45461604 0.2773739 0.1014758 -0.7161098 -0.18651369 0.7484969 -1.1539023 -0.39993936 -1.1156553 -0.9449241 -0.66695434 0.09931898 -0.28110713 0.43873397 -0.35477155 -0.6875971 0.106055014 0.7332924 -0.21299298 -0.088804096 0.46571326 -0.25255826 -0.31565607 0.55401397 -0.107772894
1467 0.023401057 0.5294693 1.2328807 -0.19248849 0.35531253 0.44189647 -0.41445747 -0.30468228 1.3474683 0.033795368 0.40805808 -0.4915943 -0.3833386 -0.45992884 -0.7441836 0.5833079 -0.059279338 -0.25922686 0.3817266 -0.15230764 0.8635148 -0.007227076 0.06389636 -0.18112381 -0.2510618 -0.028697496 0.44818655 0.8288843 -0.28726885 0.59486234 0.15817566 -0.33566302 0.4508969 -0.52684015 0.4839497 -0.05549454 0.5562375 -0.0068091415 -0.5329252 0.16960777 -0.4535791 0.8901614 -0.2898245 0.51000345 0.41492397 -0.30569348 -0.6836928 -0.17621455 0.3600646 0.06202998 0.59254485 0.188292 0.5496749 -0.22436735 0.26463422 -0.41710058 0.4812121 -0.38775387 -0.041770436 -0.8512521 0.12646662 -0.0026521815 -0.39283213 0.120600976
1096 0.79723215 0.5081498 0.3772646 0.49773377 1.1544249 0.3032136 0.3870818 -0.036894705 0.16026525 0.4278789 0.61688507 -0.14871508 -0.50833386 -0.4351101 -1.0194571 -0.06519311 -0.41488576 -0.26587793 -0.2085484 0.041344292 0.016274283 -0.2642269 0.35642594 0.2874846 0.1553515 1.0483453 0.41708478 1.0180473 0.071794495 0.0991102 -0.092623085 -0.164252 -0.21155764 -0.047008954 0.13178788 -0.63960046 0.24968475 1.012325 -0.038996145 -0.3809197 -0.38733867 0.0380789 -0.4949916 0.65537244 -0.6525777 -0.06256116 0.25003028 -0.6385882 -0.23988712 0.5938052 -0.28505132 -0.50829613 0.1812303 -0.37242845 -0.08382741 -0.5645165 -0.99817175 -0.09797195 -0.11712551 -1.2792071 1.1364684 -0.16012062 -0.62663484 0.24661487
5822 0.13907571 -0.676419 0.57710147 0.7257104 0.78704005 -0.07716653 0.2884328 0.8284644 0.71638215 -0.2423251 0.19599816 -0.1138851 0.46540648 0.34434736 -0.5551171 -0.0037011686 -0.44738746 0.89166373 -0.25433597 -0.26503247 0.2595968 0.45719123 0.009819318 0.11992673 -0.14867723 0.055377536 0.14025673 0.34107065 -0.20073083 0.94044656 -0.10774575 -0.16201557 0.19628969 -0.23906653 0.15838665 0.053368777 0.3973084 0.06187918 0.03080155 0.3343931 0.3116594 0.22997837 -0.8915318 -0.14185414 0.23143156 -0.117158554 -0.67805153 -0.47302014 -0.059395444 -0.5488587 0.7585743 -0.39098492 0.055235766 -0.38338694 0.45042366 0.12512225 0.46776924 -0.45163107 0.47715896 0.49993038 0.1987889 -0.043402404 0.4437399 1.1866595
9819 0.3140422 0.37685 0.2233114 -0.7048898 -0.06609121 -0.11559891 0.3121892 -0.38580045 1.1393162 0.7486162 -0.9431299 -0.26231074 -0.26162755 -0.534343 -0.28948134 0.7696342 0.3057722 0.1015797 -0.24429815 -0.06546086 0.24025737 0.13819656 -0.5971031 0.22762015 -0.03147616 0.8435817 0.3435799 1.142743 0.87337774 0.3170562 -0.5063893 0.5946522 -0.055886067 0.31594944 -1.1653906 -0.38622776 -0.015796741 0.32539907 -0.42361495 -0.27204064 1.2211722 -0.54047865 0.11125854 0.7608624 0.13871981 0.1951679 0.11112962 0.483568 -0.97783244 -0.16679065 0.7878224 -0.18798746 0.74127096 -0.21656373 -0.10811559 -0.23967586 -1.1047711 -0.40075845 -0.1336048 -0.71892065 0.38701612 -1.0117437 0.06862016 0.56403214
4178 0.6235851 0.16960521 0.6082531 0.4176814 0.8650627 0.43575686 0.38327718 0.34249774 0.361189 0.27116096 0.12615499 0.071907885 -0.57151115 0.5732848 -0.21895707 0.24645247 -1.0190909 0.817969 0.15198828 -0.31084114 0.8120078 0.11759461 0.8306123 0.12784836 -0.095403664 -0.5216435 -0.47231942 0.24981874 -0.018768927 0.71348846 -1.515855 -0.000409365 0.34515482 -0.013538168 0.24730785 -0.4110115 0.6304742 -0.26493433 0.20625862 -0.25479996 0.11434395 -0.79154205 -0.85467875 -0.084874794 0.16931446 -0.48488823 -0.79214156 -0.41012028 -0.10500305 -0.17593051 0.67242545 0.06494156 0.35637057 -0.46485034 0.30347386 0.048425023 0.11520853 -0.024596104 0.06845488 0.5291827 0.29749933 -0.13637264 0.5452572 0.8587419
839 0.9618465 0.110554986 0.6483967 0.33868024 0.4132786 0.13109027 0.456662 -0.459031 0.6698847 -0.9397618 0.1461412 -0.058947742 -0.96446 -0.3235776 0.80524737 0.39287707 -0.21273749 0.044490956 -0.16361004 -0.5460005 -0.116373755 -0.09451452 0.7354636 1.5576674 0.21627112 1.2634133 0.71891576 -0.035611596 -0.096326485 0.44480985 -0.82135457 0.040260747 -0.6503434 0.65324473 0.74092436 0.06121623 0.7053386 0.21236844 -0.16081145 0.5739887 1.5214719 -0.19439529 -0.1261707 0.5451161 0.7674957 -0.106218345 0.039941434 -1.8871722 -0.03735937 -0.053669102 -0.0116437785 0.5005744 0.22588164 0.027245114 -0.568297 -0.051808964 0.2700398 0.5417364 -0.32047907 -0.15442225 -0.27523467 -0.41835982 0.598574 -0.34376585
4291 0.39963567 -0.042551048 -0.36561495 -0.06176105 -0.15423417 -0.14220479 0.740921 0.67474306 0.13048899 0.7940779 -0.44173896 0.36118963 -0.573043 -0.5153421 -0.25545198 -0.3437209 0.3934086 0.43424478 -0.17997317 -0.16229188 1.3541629 0.14491658 0.13754258 0.0039861165 0.08590639 0.52642024 0.42554924 -0.16047107 -0.8008002 -1.0608841 -0.13045332 -0.22899203 0.95907414 0.10861462 -0.015502122 0.26328507 0.32229042 0.2547663 -0.30612224 0.4816894 0.2123505 -0.416883 -0.2593138 -0.28047863 0.9052107 0.011910465 0.1509766 -0.8364827 -0.2561652 -0.42074046 0.9174522 0.17326726 0.26223058 0.3005692 -0.42605674 -0.47554213 -0.9340048 -0.16131979 0.7728979 -1.1365889 0.06761295 -0.09048805 0.49226132 -0.28518152
8925 0.060308825 0.18866488 0.8700963 -0.25627697 0.258523 0.84686154 0.07640781 -0.22012985 0.345989 0.5048879 0.35013872 -0.032760415 0.84241855 0.1032113 0.30885014 0.029281443 -0.3373038 0.18079324 -0.7867445 -0.89587975 0.42007092 0.58109397 -0.03444183 -0.08302671 0.91366357 0.5948862 -0.52673244 0.43247893 0.015291981 0.37175748 -0.38486165 -1.1378286 -0.17338856 0.09887793 0.08196268 0.6870714 -0.19387653 0.39067963 0.15928563 0.5561032 0.56952405 0.4533227 -0.6676964 -0.03599908 0.16176799 0.65701807 -0.33491498 -0.6873737 -0.5932759 0.067954 0.3845543 -0.27832866 0.29218787 0.30394098 0.41489595 0.8268278 0.0070181717 0.020584174 0.27457935 -0.25141644 0.36563703 -0.23386726 0.5333281 0.08752651
7652 -0.018796 -0.38602883 1.021666 -0.558769 -0.2947888 0.35255384 0.21023712 -0.24810663 -0.14316729 -0.8500857 0.5628438 -0.16319117 -0.74058497 0.014418627 -0.54840183 0.63846666 -0.25421634 0.011091772 0.45732272 -0.048766717 0.57013464 -0.12036397 1.0828192 0.19489087 -0.13537526 0.27436742 -0.21003671 1.1918253 0.3284259 0.22402048 0.78214675 -1.1375169 -0.08673462 0.751505 -0.39342758 -0.7347956 0.8023489 0.08956945 0.26186025 -0.31735525 0.2492864 0.058812864 -0.571579 0.27629045 -0.15114889 0.102380425 -0.7349343 -0.6454791 -0.082641475 0.121506706 -0.18876313 -0.10713353 0.26803538 -0.10720638 0.11746506 -0.75083286 0.13389438 -1.0046715 0.49722585 -0.98720574 0.43167442 0.3147377 -0.83730274 0.3439273
8869 -1.064927 -0.7443617 -0.16659844 -0.8731044 0.15340394 -0.5345544 0.18432838 -0.008791476 0.06874995 -0.12388456 -0.37696892 0.17369828 0.16387424 -0.37509263 -0.88890857 -0.18864042 -0.95619893 0.844846 -0.013096845 -1.6184553 0.8828973 1.0612943 0.82415885 -0.12894882 -0.80826586 0.021255575 0.19911675 1.3240349 0.3271659 0.7636176 0.035755325 0.11604016 0.14260106 0.5973439 -0.61980635 -0.06939551 -0.6081131 -0.23884499 0.3291406 -0.76526016 -0.4318355 -0.5061682 0.31793934 0.49998537 -0.14514469 -0.28700033 0.0337599 -1.4273008 0.22187853 0.22593893 1.4081815 -0.25103617 -0.451858 -0.5483073 -0.92331076 -0.21392882 -0.9052401 -0.71237415 1.1723294 -1.0396731 -0.37176457 -0.4855281 0.19990747 -0.25662395
5081 0.37456846 1.1713065 0.25281155 -0.9116919 0.1846135 -0.46518773 1.1171126 -0.38079038 1.0615917 -0.69632477 1.0504267 -0.3922182 0.28555194 -0.539262 0.7214112 0.5175511 -0.43178484 0.0075966073 -0.7755593 -0.7622025 0.044561632 -0.6570149 0.26577038 -0.42435816 0.5063362 0.18993805 0.45284414 -0.056526 -0.02228242 0.2688917 -0.19153665 -1.348599 0.5342144 -0.23470615 -0.51201546 -0.27002862 0.5078965 0.8083752 0.5900787 -0.22619931 1.179065 -1.266935 0.18871395 -0.26340976 0.19473603 0.5012184 -0.67089796 -1.0112827 -0.42941794 0.18214513 0.2635299 0.181021 -0.30117932 -1.0515113 0.5069936 0.10353723 0.5906036 -0.48494697 0.49063206 -0.82455885 0.47437388 -0.9580882 0.39353988 -0.5345225
8101 -0.1659474 0.4932668 -0.2949502 -0.61083585 0.6938973 -0.7866298 0.43540785 0.4521657 0.0062717414 -0.93743384 -0.42647323 0.6919653 0.03016873 -0.03257599 -0.50267416 0.12178883 0.63508433 -0.36279005 0.36972255 -0.037209984 1.0496491 0.23494108 0.5854317 -0.4610995 0.50712734 -0.6285947 -0.48343435 0.13367677 0.3009799 -0.32868826 0.5475317 -0.8084919 -0.08799703 0.10775468 0.387688 0.26054683 0.45826587 0.02424765 0.037011217 -0.25917748 1.1511905 -0.14196594 -0.6305109 0.44574815 -0.22871514 -0.34412214 -0.23653457 -0.53948337 -0.8749053 -0.6225892 0.7091129 -0.9900179 0.0799205 0.22412035 -0.12381071 -0.5543813 0.10484782 0.91031575 -0.20372406 -0.47613633 0.8573838 -0.27981186 0.17736249 0.08082593
5547 0.36467707 -0.55173427 0.1861465 0.19036159 0.6899248 -0.9810112 0.56678945 0.97626287 -0.28600118 0.76295775 0.20879169 -0.3467552 0.4636093 0.7260949 -0.46718958 0.12312098 -0.29049253 -0.18567868 -0.4919207 -1.0063561 0.6527438 0.60602665 -0.034317866 -0.13119383 0.12177427 0.608846 0.5353654 0.46322778 0.3699257 0.4126135 0.09790778 0.34861732 -0.43489453 0.15547499 -0.19236784 -0.010835614 0.6750334 -0.037401296 0.12641434 0.3447523 0.29484797 0.057213116 -0.3320143 0.23839657 0.27762127 0.15315415 -0.5859281 -0.13666113 -0.14447467 -0.20968701 0.39958704 0.4518396 0.2432645 -0.5059592 -0.72510254 -0.27387014 0.3988854 0.45162496 -0.37315097 0.10339113 -0.5595889 -0.25060934 -0.042701308 0.43172413
246 0.67393327 -0.74980265 0.70180833 0.28097227 0.8682168 -0.6832135 0.31252632 0.5114052 0.21497144 0.19462128 -0.07068006 -0.3002796 0.603159 0.5027695 -0.11654917 0.13038798 0.088546276 0.7011258 0.018455293 -0.89275324 0.20798405 0.22650072 0.028785815 -0.25289896 0.010139302 0.7188942 0.6742708 0.22285149 -0.17678717 0.7732509 0.5449398 0.09721691 -0.2523449 -0.42764944 -0.01633622 0.242168 0.8680644 -0.41458264 -0.0043142727 -0.28065458 0.49416798 -0.22267768 -1.0106044 -0.31852272 0.266095 0.37624624 -0.49436837 -0.40400127 0.046099912 -0.20123857 0.8923934 -0.0026556603 -0.66726965 -0.9877001 -0.30818787 -0.79367095 -0.06089553 0.06095385 -0.33228675 -0.028083917 0.11081373 -0.72626466 0.47822207 1.2174422
2002 0.74267477 0.27752894 0.0485576 0.38328207 -0.15583447 0.7391722 0.5672955 -0.55211097 0.1482205 -0.68442553 -0.049411554 -0.41021633 -0.07965347 0.36558053 -1.0815048 0.9221216 -0.32574 -0.040828355 -0.19134031 -1.2316828 -0.5757784 0.22156239 1.0480138 0.42739114 0.120208465 -0.08042143 0.695739 -0.12473006 -0.059306726 0.46666297 0.13270018 -0.34602365 0.25531152 -0.6657215 0.32407534 -1.3148305 0.96203023 0.13775091 0.1050047 -0.45269936 1.2644143 -0.26691014 -0.45577905 0.051173083 1.226493 -1.0214717 0.15906599 -0.09588056 0.034286633 0.12195891 0.99450505 -0.48782882 -0.27077106 -0.36761642 0.046516087 0.16026446 0.034163848 -0.29701638 0.32119155 -0.38646093 0.96591556 0.6596401 -0.22399463 -0.25755462
7580 0.07497929 -0.8618783 0.6352438 0.043071773 0.5986068 -0.13653944 0.760339 0.9871932 0.5293626 -0.30940595 0.38105425 0.3214795 0.5029738 0.44200325 -1.0384407 0.2251708 -0.48177788 0.35727474 -0.058939096 -0.24315001 -0.14425303 0.5672269 0.17395891 -0.042114273 0.060471978 0.4148669 0.011300189 0.51742595 0.03499999 0.79107255 -0.24723458 0.40128228 0.18523993 -0.37509754 -0.031254012 0.26011774 0.7522167 0.26053658 0.16989428 0.33508322 0.402674 0.13884823 -0.91015476 -0.40072927 0.3879135 0.18993308 -0.33749276 0.11723214 -0.23266022 -0.5747395 0.61354846 0.11510668 0.13121103 0.0743721 0.267806 -0.22427057 0.10039452 0.11381891 0.22018027 0.381245 -0.21827127 0.40219006 0.2917194 0.6082322
1350 0.10714256 -0.31382027 0.4023186 -0.24561188 1.1563667 -0.7419172 0.63165444 0.2860707 0.38792327 -0.093772665 0.021077342 0.5748459 0.2040728 0.8508527 -0.4449956 -0.35017025 -0.71950674 0.47259277 -0.9862095 -0.101625115 0.8951204 1.2320294 0.7119879 -0.7261258 0.4153819 0.7227635 0.26659173 0.6767749 -0.926898 -0.23699565 0.3654727 0.59568214 -0.28017622 0.1987139 -0.053073935 0.7948752 0.7994512 -0.61871994 0.70926267 -0.49285224 1.1555991 0.0058976775 -0.34941992 -0.22919556 0.1382212 0.39301053 -1.1167715 0.4349815 0.46782613 0.018870337 0.26378745 -0.18792622 0.0017557151 -0.55730784 -0.11871686 -0.6012689 -0.6827584 -0.039910953 0.44659817 -0.65639323 -0.21817237 -0.35558727 -0.03823936 0.52907974
5239 1.109119 -0.84226763 -0.28429142 -0.74982196 -0.2513916 -0.1241363 0.4842361 0.64362913 -0.10743059 1.0810417 -0.16537037 0.45064318 -0.5313252 -0.63919044 0.03082603 -0.36527574 0.8312042 -0.16714287 0.1429762 -0.8880121 0.7462736 0.54812396 0.121816665 -0.08096333 0.110484526 -0.02025441 -0.77493787 0.13299298 -0.37865433 -0.52665746 -0.13136096 0.35072315 0.5377235 -0.42380142 -0.18878745 -0.26175967 0.5544032 0.90011984 0.30605477 0.32481086 0.77717024 1.1335654 -0.5134003 0.7664221 0.22347212 -0.796949 0.32039425 -0.73160774 0.3230935 -0.26894566 0.49480113 -0.7259166 0.041578617 -0.22797799 -0.34063083 -0.3988983 0.043087393 0.120603 1.1262245 -0.6851013 0.4919854 0.33563805 0.34191868 -0.052479032
3981 0.44985017 0.05716853 -1.0744041 -0.8662321 -0.5127341 0.22846727 -0.008572856 0.4980425 -0.13998055 -0.01673684 0.03477592 0.12693027 -1.2110194 -0.36205262 -0.71361256 -0.3325711 0.041242052 0.48919475 -0.789134 -1.0704048 0.8436625 -0.20760217 0.02095684 -0.21995701 0.33040625 0.021356953 -0.15325293 -0.44947007 -0.5435692 -0.013062792 -0.59893805 0.44220188 -0.35188156 -0.14783654 -0.6968396 -0.44072273 -0.19077031 -0.07632168 0.2561821 0.0012380484 0.32514822 0.16816692 -1.0186495 0.34278417 0.5981992 0.16911224 -0.42921016 -1.3574609 -0.05498136 0.1284843 -0.004518842 -0.77464914 0.33556458 0.14757052 -0.05698319 -0.9368907 -0.09159104 0.2822395 0.72510344 -0.40633756 -0.2880573 -0.19478247 0.16009071 0.8194653
1759 0.32136053 1.0536132 0.70137066 -0.04090609 0.19551264 0.5594439 0.411433 0.00048574703 0.419342 0.18951023 0.19869392 -0.37518823 -0.7370041 -0.47256702 0.59120905 0.14638922 0.74223435 -0.2322132 -0.30925074 -0.6069619 0.6323573 0.7340435 0.6292064 0.6968995 -0.4819277 -0.4142626 -0.5585982 1.1062115 0.085178584 0.35086748 -0.48446965 1.2801675 -0.123607755 -0.7518824 0.49147364 -0.36004344 -0.5112156 0.5050295 -0.28357992 0.18425156 0.4627535 -0.16164558 -0.10321962 0.43337908 0.25459293 0.17622581 -0.6942161 -0.84027046 -0.74350685 0.32398993 0.07963773 -0.7929841 0.5894891 0.6394652 -0.2618902 -2.1588972 -1.0175169 -0.18534294 0.60021913 -0.42010084 0.019877536 -0.78738517 -0.39199764 0.20263635
5562 0.008711573 -0.47916213 -0.39695928 -0.8075032 -0.06828497 -0.18278138 0.99430454 -0.09712391 -0.17288077 0.7843493 -0.6085676 -0.36787835 -0.22948432 -0.6255907 -0.57204795 0.3800025 0.2604884 0.90784913 0.19363028 -0.21904746 0.8131741 0.5874141 -0.31668925 1.1231192 0.3095085 -0.100085214 0.6626766 0.05996973 -0.573348 -0.8020078 -0.76331335 0.055363543 0.30372337 -0.27054352 0.6685479 0.13850236 0.7089379 0.2140086 -0.37958607 0.080058925 0.26503885 -0.341044 -0.7154629 0.34639046 0.5934331 1.271313 -0.40696242 -0.25728786 -0.520527 0.10756598 0.36427358 -0.6995048 0.25155813 -0.053648535 -0.7001141 -0.6892308 -0.17822596 -0.17892861 0.47676954 -0.147315 0.27811196 -0.11002831 0.028247898 -0.76952124
9817 0.22359706 0.5738201 -0.0033802441 -0.86031413 0.105630234 0.40004995 0.06343644 -0.060126167 1.2936236 0.5886985 -1.1086532 0.04544356 -0.017409261 -0.28671345 -0.1896693 0.5470982 -0.13130076 0.06445648 -0.15102714 -0.1373852 -0.07710874 0.10962673 -0.8591984 0.29149136 -0.21275884 0.6692898 -0.07686221 1.5729288 0.7650067 0.09634446 -0.66920066 0.4013911 0.062492415 0.6538018 -0.8178824 -0.3058935 0.0872066 -0.18184295 -0.5762468 -0.3601154 1.0643626 -0.471929 -0.112544134 0.66030383 0.16696525 0.017514898 -0.38091654 0.18167318 -0.77803886 -0.2773177 1.0959648 0.07062683 0.8208742 -0.43384933 -0.35937276 0.0081826225 -1.2530513 -0.14458099 -0.031658467 -1.1758454 0.105328225 -1.0051328 0.13865173 0.115271084
3312 -0.38979682 0.39134532 -0.5106144 -0.18394074 0.886748 -0.73923045 -0.18470015 0.4724916 0.5642585 -0.4703449 -0.38410708 0.033819 -0.11040376 -0.08213096 -0.49341968 0.04180761 0.044403248 -0.8576381 0.5216628 -0.026582723 1.3105273 0.20819443 0.6905741 -0.049099524 -0.12233629 -0.48364192 -0.29984888 -0.1017776 0.3642796 0.111416385 0.28859943 -1.1253768 -0.2541095 0.055755608 0.8030902 0.15754649 0.5131295 0.425117 -0.36897105 -0.43505207 1.325579 0.3777281 -0.6053938 0.45962444 -0.27109328 -0.0010110551 -0.4512426 -0.32000795 -1.0097666 -0.6501762 0.3917423 -1.0812279 -0.35097498 -0.2650834 -0.31013054 -1.0416788 -0.10363207 0.77971405 -0.0051938575 -0.06831434 0.85720277 0.002190698 0.012077898 0.17040467
6398 0.7295559 0.8939332 0.5385183 0.42382717 0.15230994 0.24266855 0.18422115 0.37030882 0.32717395 0.13549349 0.7901146 0.09230196 -0.053356647 -0.24096718 -0.089432634 0.13183936 -0.5218077 -0.14168371 -0.12951715 0.01268041 0.22348177 -0.63236547 0.3243373 0.10316818 -0.18167102 0.7997604 0.27642083 1.0775421 -0.0028976272 0.18896219 0.03388423 -0.3739998 0.017514482 -0.19286154 -0.274543 -0.08885218 0.7040991 1.3472645 0.37452865 -0.29178357 0.1310646 -0.030543162 -0.39975753 0.85723233 -0.08472914 -0.059772983 0.20234188 -0.45413727 0.16466308 0.62000114 -0.42208856 -0.7214827 0.4691597 -0.278846 0.006882204 -0.11930066 -0.71922404 -0.5745161 -0.26200563 -1.3324289 0.8824669 -0.10565314 -0.82848346 0.18968341
8424 0.7126235 0.39888886 1.4010923 -0.8371189 1.0738361 -0.2890898 -0.45030054 -1.4472495 0.7758973 -0.34065694 0.026435386 -0.21338528 -0.31985727 -0.17096011 -0.21665211 0.4389701 -0.508403 -1.210993 0.5364221 -0.7020326 -0.026173742 1.1112006 -0.12188072 0.27214417 0.059265625 -0.47020918 0.012906186 1.1607229 -0.019331831 0.10610261 -0.48317006 -0.6161287 0.4853517 -0.6063402 0.9618265 0.10802221 -0.2914852 0.23593399 0.45192802 0.17073612 0.12889981 0.94605815 0.0450045 0.44675368 0.37779793 -0.7861967 0.07379027 -0.6431117 -0.07416064 0.030860323 0.6630324 -1.0688632 1.397901 -0.48388267 -0.15805006 -1.1693588 0.76034504 -0.20849212 -0.020809067 -0.78128046 0.15227894 -0.8042276 0.23102929 -0.08788624
3764 -0.34963804 0.11043135 -0.4535548 0.309282 0.6107569 -0.97624195 0.26411945 0.26194346 0.8513713 -0.39938074 -0.32671428 0.4277166 -0.1586468 -0.13660148 -0.4144733 0.02859856 -0.78068185 -0.24760908 0.18025637 -0.49495053 0.94035923 0.57532847 0.43602693 -0.42993656 -0.3977834 -0.5940237 -0.13934226 0.003851388 0.13430125 -0.288975 0.37222207 -1.1228751 -0.21764351 -0.36691752 0.5595661 0.45162094 0.19099705 0.65883213 0.059179246 -0.7148486 1.1778693 0.7141327 -0.3010066 0.67635196 -0.07837656 0.5094617 -0.32696146 -0.15786593 -1.4543035 -0.7353801 0.37085038 -0.7808862 -0.10782739 0.15936998 -0.13480593 -1.1465874 -0.1327634 0.40771508 -0.06168267 0.107932776 0.7205195 -0.055300858 0.23855267 0.27805978
6294 -0.12103444 -0.021278474 -0.4973114 0.32855564 0.58091784 -0.5370048 0.61792266 0.31175038 0.30749992 -0.45088947 -0.74453497 0.84805536 -0.47115856 -0.24047855 -0.08485871 -0.102602616 -0.2558293 -0.7160501 -0.1256099 -1.0868043 0.74623036 0.09895417 0.55997205 -0.18925509 -0.13973005 -0.73093534 -0.20076574 0.5110972 0.105361186 -0.6475327 0.538531 -0.43001688 0.3602419 0.2532348 -0.17975672 0.07489201 0.3944097 0.1800307 0.1823025 -0.4585945 0.7591403 -0.23623261 -0.060942125 0.90837884 0.06081237 -0.08217434 -0.6275952 -0.75573844 -1.4756747 -0.86962944 0.2634838 -0.55667186 0.21189743 0.5550513 0.0929615 -0.05185039 0.2726794 0.46416396 0.25086787 -0.4138714 0.5012512 -0.21566336 0.8929455 0.5267149
9732 0.48587587 -0.25130227 0.1892166 -0.31340364 -0.29878104 -0.12898219 0.40570357 -0.21557076 -0.14589123 -0.10333551 0.68433845 0.30872512 -0.43508065 -0.46147484 0.2968347 0.77076364 0.4586481 0.07156601 -0.54440236 -0.050859336 0.08389767 -0.18221587 0.1853905 0.60658544 0.06675552 1.5122328 -0.09149742 0.905014 0.117073946 0.6496621 -0.16344061 -0.029673735 -0.88815016 0.63409436 0.4277971 -0.16493666 0.36937806 -0.15321824 -0.110780105 0.34914616 1.6169527 0.4883709 -0.06891808 0.5776167 -0.6196462 -0.15009454 0.10390762 -0.84982455 0.38983804 -0.33330238 0.6727907 0.052660815 0.6537155 -0.14995173 -1.0218946 0.69423217 -0.11921998 -0.13809298 -0.20352283 -0.5579396 0.14940058 -0.28153157 1.3243501 -0.11504203
7518 0.43447596 -0.05601348 -0.33082667 -0.62323886 -0.11368873 -0.24066436 1.1077815 0.80186707 0.41420838 1.1523441 -0.20337923 0.40905994 -0.5312151 -0.5597932 -0.09204821 0.13624012 0.73540324 0.73068947 0.13039418 -0.37275156 1.302437 0.38561642 0.1617202 0.13666011 0.6347732 0.39508834 0.24209225 -0.40213332 -0.7242499 -0.6286419 0.265314 0.10291693 0.78753513 -0.2870097 0.20561627 -0.14416651 0.35707507 -0.031956438 -0.13809252 0.13365002 0.6217569 0.34832513 -0.48983538 -0.0014524307 0.6726478 -0.20177664 0.48269013 -0.73876154 -0.15062384 -0.34786236 0.56970346 -0.34530264 0.17454627 0.3233073 -0.57630795 -0.54346126 -0.58238345 -0.15314436 1.2106185 -0.76141083 -0.059097253 -0.07067541 0.15173458 -0.14318544
8361 0.27694702 0.5615205 0.15956225 0.7095479 -0.37200457 0.60065293 -0.16864876 -0.1054368 -0.8275501 -0.14146447 0.46181336 -0.74871105 -0.5216053 0.09085713 -1.2207538 -0.15814082 0.012079684 -0.6116332 0.5602421 -1.0490236 0.041085973 1.4802402 0.43993792 0.395258 0.07039947 0.1397063 -0.1834015 0.38036212 -0.29731336 0.99464357 0.51081854 0.11335803 -0.4853663 -0.89843416 0.47243512 -1.0477616 0.7067255 0.38372788 1.0765392 -0.04517413 1.0332277 -0.7370568 -0.64737016 -0.5549061 0.747319 -0.44335917 -0.058212586 -0.18602255 -0.9667739 0.5823712 0.9923331 0.056076705 0.016844021 0.22527438 -0.54496783 -0.083562545 -0.2392754 -0.06597427 0.5023405 -0.76592183 0.42233473 0.75438356 0.30573374 0.1700475
1318 -0.37604782 0.4617326 -0.5633303 0.43123615 0.5340971 -0.6159868 0.3727255 0.16675277 0.14763701 -1.00333 -0.46665278 0.6200852 -0.032227542 -0.120016016 -0.4005292 0.52532756 -0.2437219 -0.6233093 0.22554255 -0.6669259 1.0013561 0.11337433 0.5173327 -0.0822019 -0.12098459 -0.3682252 -0.34575522 0.31611532 0.09277547 -0.9389995 0.2016629 -0.51109016 -0.17343229 0.069993295 -0.29141453 0.10369635 0.68549377 0.041001417 0.11979372 -0.15656196 0.94777864 0.18031862 -0.30240476 0.8721465 -0.17271917 -0.0997545 -0.21170378 -0.19213484 -0.89368606 -0.3104674 0.75655735 -0.97810066 0.22570857 0.06245413 -0.1682703 -0.44065624 0.072087064 1.1021346 0.424875 -0.64120734 0.17742302 -0.2623708 0.7290939 0.019240532
3193 0.13778833 -0.5554318 1.0102385 -0.9955127 -0.3199539 -0.24708088 0.913817 -0.16575655 -0.10023463 -1.2877066 0.28023 -0.39396262 -1.0535027 0.41010132 -0.16022556 0.6989873 -0.63150924 0.39038467 -0.19370045 -0.23266649 0.37783852 -0.27889332 1.016805 -0.46558738 -0.3321877 0.52137536 -0.3148176 1.4928684 -0.08983415 0.014662218 0.48661357 -0.87512624 0.021780757 0.5838213 -0.5337836 -0.9273199 0.8967898 0.053045806 0.47272906 -0.57345843 0.6975931 -0.07383985 -0.54007244 0.029868167 -0.03761581 0.062355973 -0.51141304 -1.1084316 -0.26177672 -0.14501101 -0.42290208 -0.13457324 1.0647641 0.1295128 0.2018127 -0.93601036 -0.03599965 -0.92780876 0.23390277 -0.508413 0.10328572 0.30505994 -1.1760113 0.5458912
2960 0.07921294 0.29826283 0.54698 -0.47538024 1.4198755 -0.9680591 0.5647284 0.25082222 0.5365778 0.32808885 0.03342711 0.43228474 0.17504396 0.44438428 -0.75653 -0.61707234 -0.59262156 0.66249156 -0.9047404 -0.3792567 0.91024584 0.91763854 0.92772824 -0.5956176 0.51510394 0.69640553 0.38564187 0.54643655 -1.3267639 -0.16105804 0.3621495 0.98865974 -0.141146 0.23770268 0.4457549 0.2688161 0.7143383 -0.6803687 0.49434805 -0.06498624 1.4352971 0.22880852 -0.59248084 0.47534004 0.28945237 0.4501967 -1.2165339 0.8364348 0.91519076 -0.15108518 0.17181358 -0.15229265 -0.4125747 -0.25857866 -0.47762924 -0.21979998 -0.47170502 0.13861154 0.28607425 -0.6856465 -0.2679107 -0.20206776 -0.34794524 0.45741835
5799 1.08673 -0.3415064 -1.0384626 -0.6453483 -0.41187108 -0.55543447 0.3533527 0.43809682 0.12925538 1.0428673 0.42221764 0.16084042 -0.14524934 -0.7607411 -0.38075352 -0.08392306 0.0801551 0.7590953 0.3199541 -0.76534027 0.8874862 -0.34111574 -0.103972584 -0.6146317 0.501295 0.3662138 0.31882322 -0.45170325 -0.27624395 0.23257513 -0.27210248 -0.63671243 -0.63242036 -0.36391714 -0.016499633 -0.42876908 -0.0087850215 0.0076480187 -0.19435884 1.114188 0.33447602 0.13205588 -1.1248815 0.7716671 0.855309 -0.15255709 -0.05394719 -0.25285167 -0.4537443 -0.5117293 0.66602844 0.056657862 0.00767133 0.6307624 -0.78158134 -0.82465345 -0.13090998 -0.2607159 0.7438407 -0.5718013 -0.21973658 0.5266747 -0.0745971 -0.45048693
3931 0.9271586 0.73631 0.3892416 -0.30301327 -0.5805178 -0.49566832 0.48561454 0.38978022 1.0445789 0.15430297 -0.7942906 -1.2078859 -1.0212961 0.2557836 0.17649043 0.598207 -0.5720909 0.21571793 0.080456264 -0.22580497 -0.45351276 0.7606938 0.4968852 -0.46996713 -0.23609152 0.6680632 -0.6260474 0.18192878 0.5220564 0.8527768 0.20594408 -0.04756444 -1.3354499 0.032291595 -0.2917271 -0.43669683 0.36611205 -0.36714375 -0.10877036 1.0726846 -0.03414372 0.15223198 -0.31448093 1.0709915 0.40610784 0.69720435 -0.27874318 -0.041532524 -0.6338944 0.18943493 0.96616894 -0.5881976 0.66209453 -0.43373954 0.6716292 -0.39161855 -0.40027547 0.060678363 0.7709009 -0.41348833 0.16550928 0.8985508 -0.3469831 -0.6403084
6518 0.7430433 0.55416405 1.1515995 0.30433494 -0.1419091 -1.5606579 0.701995 0.4743465 -0.6443541 0.045229703 -0.724537 0.017791314 0.60665256 -0.045573488 -0.6747957 0.3058721 -1.0832095 0.09265638 0.27878374 -0.37487346 -0.6620762 -0.011822066 0.24135585 1.078297 -0.079520956 0.16651532 0.13608418 0.24259305 -0.3536167 0.3440298 -1.184528 0.28808406 -0.54421765 0.9598437 -0.48752478 -0.15805404 -0.3238345 0.5490905 0.029702244 -0.09396224 1.311619 0.49111584 0.54888576 0.6125538 0.42570257 -0.54398364 -0.632504 -1.3187883 -0.5780407 -0.2501586 0.5080084 -0.2757147 -0.80618316 0.97938085 -0.13809855 0.46040884 -0.29921585 0.13096464 0.20697287 -0.34479395 -0.0066072443 0.4347992 0.17305465 -0.012684091
7657 0.61858386 -0.50910074 -0.5648736 0.40358073 -0.38496262 0.05364907 1.0877076 0.166597 0.08758324 -0.08194582 -0.8959698 -0.81560284 0.044438038 -0.31231958 -0.6533109 0.59175867 -0.23704118 0.5857858 0.31715673 -0.23679304 0.55984354 -0.078571334 0.16627656 0.24774164 0.31669012 0.03696419 -0.094182454 0.45181733 -0.70415324 -1.3388776 -0.5817844 -0.45029938 -0.018288096 0.741034 -0.4076797 0.5453937 0.8772132 0.5034426 -0.07828317 0.25853917 0.6767053 0.48826894 -0.19143069 0.2372369 0.18666892 1.0473453 -0.5713298 -0.5851695 -0.28287864 -0.32659915 0.8337072 -0.047427308 0.54314023 0.4502164 -0.6919711 -0.44596043 -0.52238476 0.1290909 0.45935768 -0.3313349 0.09831975 0.19835 0.1387219 0.15612213
1419 0.85685486 0.6543128 0.89696395 -0.6264379 0.500824 -0.9316018 0.60963887 -0.61978966 0.40370327 0.5406751 -0.54873836 -0.91526073 -0.1925254 -0.4161704 0.56044936 0.4353683 0.17296325 0.58258814 0.10869884 0.16573903 -0.5428009 0.62610596 1.072834 0.43941888 -0.87418944 0.46649542 -0.51890767 0.5626085 -0.7260281 0.4278222 0.8287243 -0.50966114 -0.90766287 0.2201011 0.1406984 0.30946937 0.33512944 0.22242664 0.0674061 1.10505 0.68600917 -0.08339905 -0.16068634 1.201931 -0.047193162 0.3238321 -0.1935993 -0.09099641 -0.6197569 -0.22263987 1.1303079 -0.6686695 0.7322806 -0.8885157 -0.171876 -0.036038224 -1.0917327 -0.5105162 0.77328855 0.65056753 0.53268546 1.0904886 0.55393416 -0.035926543
9734 0.2409207 -0.017696273 0.47848955 -0.20667343 0.036563795 0.15883951 0.27499416 -0.36860907 -0.45618764 -0.28220192 0.59795994 0.11808146 -0.25828347 -0.38068432 0.10642229 0.73897433 0.5641603 0.1775762 -0.54225856 -0.018647263 0.3543447 0.012695131 0.4674074 0.8339687 -0.015366364 1.7965626 -0.14734022 0.78673387 -0.22024043 0.56217873 0.073861234 -0.10438178 -0.8950499 0.37078038 0.28288928 0.031121396 0.4404156 -0.053199604 -0.19106476 0.35514298 1.7882687 0.42167878 0.029475411 0.27560636 -0.46820515 -0.23400785 0.21724707 -1.4363722 0.29499507 -0.3749852 0.38025412 0.1841655 0.71793425 -0.020240631 -1.2645181 0.44592577 0.014163042 -0.34035298 -0.3919812 -0.5657338 0.0977794 0.010295504 1.3783953 -0.19384499
2976 0.6263093 -0.15523931 0.6354994 -0.7505076 -0.07786176 -0.8510762 0.63731927 -1.4189489 1.1860685 0.53912574 -0.3431089 0.34870467 -0.05820496 -0.95560724 -0.35245797 1.0944244 -1.5331682 0.5190761 0.26157027 -0.67708015 0.3080763 1.2621646 -0.12677917 0.3410937 0.5470685 -0.9007346 0.9505831 0.031129776 0.45677337 0.5896491 -1.0532199 0.10510714 -0.74341494 -0.14784117 1.143774 0.033522967 0.25694516 0.089457236 0.96994174 0.7488917 -0.3751809 1.3042932 0.5015615 1.0997213 0.71898794 -0.9509836 0.36909005 -1.3734734 0.43941173 -0.19943275 0.39689353 -0.7938641 1.0262394 -0.50536805 0.46032506 0.07858948 0.53401065 -0.2590844 0.5006007 -0.71378124 -0.26549345 -0.7402479 0.11303982 0.42273328
2070 0.32924733 0.47784176 0.11799728 -0.07775697 0.09034901 -0.012695431 0.8440296 -0.30465567 -0.3508318 0.40608302 0.1602342 0.15941478 -0.0427662 0.061504334 0.14036015 -1.0333956 -0.4052979 0.0054128203 0.3664612 -0.026090385 -0.050972093 -0.9470082 0.08148499 -0.13717136 0.88440037 0.052885808 0.41780704 1.0583565 -0.3002824 0.56550443 -0.12063683 -0.23117548 -0.5137582 0.16992086 -0.17328824 0.03901932 1.6284775 0.637799 -0.17761046 -1.3685763 0.48894867 0.38504842 0.5451296 -0.0038068278 0.7535643 0.08436818 -0.19129668 -1.3334587 0.0053531043 -0.4176995 0.7284155 -0.33360237 0.24344558 -0.1353796 0.14881863 0.17244755 -0.39613518 0.107031696 1.3253947 -0.6863121 0.4851936 -0.1523734 -0.46558025 0.34472138
4901 0.2968043 0.37408373 -0.37286282 -0.6909642 -0.4301621 -0.7883402 0.31491983 -0.10052645 0.31807482 0.47848386 -0.6391033 -0.97253627 -0.026287954 0.21360502 -0.2715522 -0.3545664 -0.10844028 -0.6316098 -0.5771542 -0.09641867 0.4704131 -0.007238209 0.955563 1.2633393 0.74884516 -0.2786117 1.1483871 1.2461088 0.18255061 0.53109795 -0.68973505 0.19518231 -0.039449763 -0.91699845 -0.80757594 -0.19712418 0.27233478 -0.24690412 0.2135499 1.0053935 0.48255754 -0.4215303 0.44273576 1.1846689 -0.26870275 -0.43828848 -0.16895512 -0.33444655 -0.83260214 0.31672624 1.2095304 -0.28960767 0.21468982 0.0792602 0.12691371 -0.82367134 0.64598227 0.3045137 -0.29511783 -0.023704581 -0.03926282 0.43972507 0.20358023 -0.50863963
3474 -0.258204 0.49351287 0.64692867 -0.38106254 0.8924424 -0.7328643 0.26784462 0.11456553 -0.40097377 0.36345196 -0.5481193 -0.039506778 0.84204143 -0.65252936 0.030595787 1.2655138 -0.2622271 0.33164644 -0.38316205 -0.11997342 -0.10898225 0.5757473 1.7078072 0.5826627 -0.3954553 -0.38833192 0.6605171 -0.3511766 -0.2003727 0.6954938 -0.41458407 -0.32178923 -0.29341093 0.6885369 -0.59597737 -0.50927585 0.16489951 0.3588219 -0.7920806 0.1757092 1.3156034 0.1399367 0.27550972 0.25874922 -0.40408278 -0.18857735 0.29964623 -1.0959694 -0.67804796 0.18384415 0.4754734 0.15642464 0.17454098 0.45603657 0.5883572 -0.35608038 -0.12890802 0.75199735 -0.18615833 -0.60200864 0.08589558 1.0760045 -0.5290938 0.930254
25 0.15005548 -0.04427228 0.29004586 0.55138546 0.0056740222 0.008597163 0.41175714 0.46148413 0.9169984 0.29720032 0.5245057 0.14887631 -0.7763015 0.19459787 -0.20183635 -0.15204489 -0.78343445 0.5382597 0.41322446 -0.12980679 0.50143856 0.5565224 -0.12793873 0.76203805 0.01481418 -0.7484342 -0.0032733215 0.45728898 -0.9951619 1.2382518 0.010133327 -0.4165507 -0.01841711 -0.0043650377 0.058254275 0.002827425 0.22057505 -0.23525576 -0.21531466 -0.41407585 0.5104522 -0.5426205 -0.16551441 -0.09765392 0.017919205 -0.14990988 -0.25407404 -0.49489084 0.06384093 0.46403748 0.7351697 -0.09865405 0.045740686 -0.06484835 0.13607273 0.33407626 0.5723484 -0.21347189 0.055956155 0.06572678 0.07064154 0.44275534 0.024432521 0.5945006
7274 0.6798627 0.5731615 -0.1119461 -1.0337954 -0.2936031 0.39577907 0.8854357 -0.08250878 0.4294259 1.1644323 0.19925623 0.6797199 -0.7463243 -0.84772587 -0.3326381 -0.122354 0.27891007 0.76889116 0.8440518 -0.7643313 0.6911647 -0.06390901 0.40424827 0.34799993 0.45283082 0.31619126 0.20911582 -0.44941264 -0.42214268 -0.3340992 0.020395402 0.07899646 -0.012992713 -0.63978916 -0.94068223 -0.4448136 -0.03910239 0.15748255 0.4263086 1.2576774 1.2404939 0.5436865 -0.95336366 0.49904045 -0.068197295 0.23119909 0.31919524 -1.0233907 0.35592774 -0.37502992 0.8782179 -0.58122027 -0.8037403 0.19191493 -0.8552695 -0.99210185 0.24088927 -0.26316357 0.34228495 -0.22132121 0.65036356 0.29832512 0.32352963 -0.04647058
1223 0.36763993 0.75917065 -0.31837592 0.70337206 -0.30021554 0.36253563 0.89592874 -0.15409073 0.6036837 -0.16278657 0.1810437 -0.33797142 -0.11990922 0.0340725 -1.0717785 -0.31717592 -0.46465272 0.046887726 0.35911986 -1.4106141 -0.42878932 0.6426422 0.7167991 0.6112249 0.17189515 -0.35858312 -0.50707525 -0.006312486 -0.07693231 0.17772137 0.2922601 -0.5144321 -0.33708963 -0.80430716 0.06419105 -0.7553389 0.8091123 0.102102384 0.26153347 -0.37605605 1.239249 -0.48691726 -0.10810767 0.31292695 1.0267159 -0.50619954 -0.3655257 0.16283193 0.11679322 0.2238399 1.5691237 -0.118245386 0.113414735 -0.12733136 -0.418874 0.4987184 -0.6134917 -0.49512884 -0.6437043 -0.42824632 0.08537446 0.3341726 -0.69736576 0.29295117
674 0.27371064 1.2262181 0.19431606 0.10388817 -0.5534465 -1.2259363 0.89363694 -0.12290017 -0.1814461 -0.19180909 1.3222742 -0.6717923 -0.45849976 -0.40369958 -0.029600024 0.640631 -0.88566583 0.09908493 0.2759091 -0.033212155 0.19249119 -0.20456858 0.23541114 0.24918607 -0.24893305 -0.02540838 -0.07673469 1.6895274 0.76218534 0.050978884 0.23510988 -0.8986475 0.84167194 -0.07334233 -0.36404398 -0.1071857 -0.01420422 0.9246301 1.7047029 -0.42099065 0.62759215 0.18669337 -0.7746767 0.082446665 -0.38813633 0.26407647 -0.36453354 -1.0470386 -0.20822753 0.39754674 0.07003969 -0.2018017 0.55988824 0.14691137 0.13150205 -0.61449957 0.09083926 -0.37079778 -0.7437252 -0.640308 0.23178983 0.116612814 -0.26433185 0.72034436
7383 1.0590142 0.6266397 0.8524079 0.6568511 0.39097807 0.028702224 0.55554426 -0.15688252 0.08911485 -0.13282585 0.50136256 -0.11797076 -0.59258026 0.6671343 -0.57480305 -0.5375008 -0.34821993 1.418379 0.12804851 0.30318445 0.35346955 0.583467 0.7901675 -0.8725626 0.64814913 -0.71183664 0.25591934 0.67192066 0.48962176 0.24226612 -0.7599166 -0.31236997 0.54763806 -0.34917942 -0.08233753 0.39215526 0.11122489 -0.21074316 0.32917294 0.13800566 1.2517741 -0.39285702 -0.12758683 -0.42023236 0.12717792 -0.2313305 -0.7179517 -0.73469687 0.28346422 -0.3477489 0.37836337 -0.5720359 -0.37309104 0.68185955 0.42711252 -0.30305338 -0.23590875 0.4020162 -0.5137581 0.011828651 0.6421903 -0.120394684 0.7694135 -0.40439487
9924 0.05548827 0.64900595 -0.37843722 0.46162838 0.62671655 -0.5474364 1.0117693 -0.58583444 -0.6647792 0.23557515 0.6030268 -0.27802545 0.30944616 0.28523698 0.25450277 -0.97637284 -0.54891175 0.0699745 0.81920254 -0.052744325 0.24026348 -0.7935363 0.008914177 0.34008506 0.60675526 0.23885186 0.24869497 1.3730087 -0.98675555 1.3069873 -0.102739386 -0.2606021 -0.15518932 -0.012538113 -0.43896988 0.039120514 1.0509478 0.97357106 0.14257579 -0.31225184 0.018988175 0.5877021 0.16196118 -0.3041523 0.28725 0.13817693 -0.069443256 -1.1722045 -0.31471986 -0.2273254 1.4912568 -1.0718315 0.36505255 -0.026978496 -0.24297655 -0.15502015 0.24356776 0.64865 -0.0061455322 -0.8319227 -0.4540085 -0.54078376 -0.100972146 -0.26322988
