3598 64
6037 -0.33186737 0.3667341 -0.34093797 -0.054467227 0.100116186 0.69912267 -0.008971519 0.12467086 0.18627672 -0.54717857 0.32655242 -0.14784099 0.5162154 -0.4686574 -0.20234299 0.60494816 -0.6309728 0.01760893 -0.6698551 -0.07387665 0.2301744 -0.22043692 0.21243072 -0.25588652 -0.28460968 0.074013345 -0.2732321 -0.35987288 -0.37645167 -0.34775436 0.07105389 0.124665454 0.37172633 -0.36005986 -0.6810247 -0.2881169 -0.3745806 0.50791156 -0.18845482 -0.15510859 -0.281385 -0.6094214 0.42060658 -0.38202876 0.45915756 0.39503032 0.20161837 0.03381859 -0.23133779 0.10404004 0.6706759 0.17176929 -1.0876561 0.22188123 0.34972453 0.76321006 0.20463872 -0.40613094 0.067843534 -0.04223177 0.25048804 -0.17271103 0.024187405 0.35602897
6580 -1.0138719 -0.04905083 -1.1416292 0.352292 0.29270223 -0.9306443 0.053460542 0.18567486 -0.60461164 -0.74154115 0.5186417 0.41901842 0.28354308 -0.38099217 0.0073011005 0.5231377 -0.29984948 0.2277274 -0.49914694 -0.38705087 0.04275932 -0.3275296 -0.30494046 -0.1219178 -0.2846665 0.6029837 -0.58748794 0.40087128 -0.20565781 -0.43191862 -0.080466345 -0.7384006 -0.113270804 0.2148395 -0.38888288 0.26380625 -0.06908737 0.35924825 0.14836815 0.262679 0.27549613 -0.4648123 0.06300017 0.3687168 0.48347193 0.5206357 0.34251744 -0.07229509 0.6979731 0.7973064 0.03048627 -0.48362148 0.005293153 -0.30613875 0.88092977 0.2578374 -0.19102216 -0.49035734 0.35110572 -0.009633873 -0.12291388 0.06796825 0.40667123 -0.26387826
7652 -0.42316872 0.2542263 -0.48019725 0.4765667 -0.067093566 0.26508957 -0.27985355 0.13611603 0.1897175 -0.23926184 0.5799781 -0.12684248 -0.55980057 0.038505774 -0.27269343 0.15510379 -0.92350525 0.29034057 0.20339952 -0.45849422 -0.042707454 0.44385555 -0.3250241 -0.46265242 -0.16068283 0.18644592 0.022364905 0.573814 0.084377386 -0.119520746 -0.7864558 0.027607614 -0.49172527 0.26180178 -0.22087988 0.29693714 0.18987277 0.2961663 -0.014133707 0.440124 0.5909601 -0.7702512 -0.022518113 0.17222773 0.23597756 0.70382696 -0.5954196 1.2927006 0.20619643 0.5739761 0.31505248 -0.19070368 -0.11658817 0.29803666 -0.24061501 0.63884866 -0.07669588 0.07036486 0.07606084 0.42883557 0.22346781 -0.12041353 -0.30813235 0.13738687
6539 -0.5877311 0.43946317 -0.6397635 0.02767275 0.1016836 0.40312517 0.25002816 -0.00533768 0.08423321 -0.35269856 0.21706095 -0.018171437 0.11253677 -0.50654465 -0.5599966 1.1998942 -0.41159758 0.2724119 -0.23538981 -0.23608762 0.33154467 0.085556835 -0.25416446 -0.2159227 -0.372009 0.41628882 0.28283235 0.81467426 0.33143136 -0.1736522 -0.5742068 0.30029824 0.6662383 -0.6267664 -0.2349704 0.032688648 -0.17878379 0.8637119 -0.09418034 0.7342407 0.16793166 0.5574739 0.2776737 -0.37205625 0.5648422 -0.44064492 -0.35611436 0.09314975 0.0227396 0.36156586 0.24891317 0.18928865 0.94956934 -0.31939125 0.016153028 0.23256724 -0.29364717 -0.51675636 0.34183168 -0.08143979 0.2711289 0.0350983 0.22074634 0.45755637
6349 -0.2957972 0.8622567 -0.1126229 0.5111354 0.24455658 -0.4037926 0.024847995 -0.69214356 -0.46512893 -0.5333496 -0.03641413 0.39483744 -0.51128906 -1.1753154 -0.29207724 0.44732407 -0.20872633 0.032216992 -0.38241208 0.3152721 0.0951202 0.26602864 -0.20580575 -0.4154873 0.41867185 -0.3155728 0.036337923 -0.45638615 0.30521685 -0.7844324 0.17812519 -0.64870733 0.63546205 -0.42878893 -0.2737644 0.18553603 0.28274322 -0.110044815 -0.4847831 -0.13228595 0.57751834 -0.12843552 -0.21351306 0.02130384 -0.24881004 -0.05119702 0.11774362 0.0010290811 0.99649364 0.8616124 0.046779588 -0.82084394 -0.042989537 -0.24092703 0.24552023 -0.41287932 0.2092916 -0.11663872 -0.32820094 0.7800232 0.063244395 0.4269611 -0.2782523 0.19160542
6165 -0.05671603 -0.05566195 -0.5573238 -0.7322775 -0.19984844 0.1247388 -0.31913504 -0.5975056 -0.079123795 -0.38499328 0.077263385 0.51174474 0.14055462 -0.2314507 -0.7294606 0.22103654 0.44422475 0.5954571 -0.932294 -0.1441977 0.13583401 -0.44674036 0.120302014 -0.11294395 0.33634704 0.57776034 0.18124989 0.22298497 0.71743137 -0.30964792 -1.1398195 0.0698975 -0.74886143 -0.3006579 0.11406839 0.10765327 -0.4489719 0.43563932 -0.43260175 0.49296257 0.74699116 -0.5115398 0.013922333 -0.41879174 0.20416075 0.14166328 -0.9719807 0.35295397 -0.21018359 0.13938597 -0.52387613 -0.32949853 -0.23106338 0.41529062 0.16178873 -0.82350546 1.12411 0.40052506 0.22166748 0.7776106 0.4692352 -0.19049668 -0.26154724 -0.46008465
5702 0.053331826 0.05652036 -0.220543 0.2919276 -0.16306616 0.09682823 -0.23408312 -0.4009967 -0.15593 0.5480794 0.526265 0.36179304 1.1205724 -0.8861073 0.075406365 -0.0375571 -0.021006305 0.9400704 -0.36259586 -0.65431404 -0.50891876 0.25838664 -0.5807473 -0.14694491 0.63893276 0.9059269 -0.71270406 -0.5079715 -0.35387707 0.04036434 0.655522 -0.2573119 -0.17536932 -0.10569924 -0.29127467 -0.011933993 -0.09474141 -0.05277017 -0.72862476 -0.04726338 0.52555895 -0.22693303 0.4410806 0.7251018 -0.324826 -0.69844455 -0.22770429 -0.32771352 -0.09333677 0.20784338 0.26608315 0.5163129 -0.2700017 0.13478372 -0.19775312 -0.4569617 0.1531457 0.16231272 0.56430614 1.0518045 0.09644266 -0.61611307 -0.29606703 0.9931053
7533 -0.33246782 0.4801296 -0.8509289 0.093519635 0.020051496 0.44609383 -0.328036 -0.45788994 0.010411562 -0.22268312 -0.2027994 -0.14472732 -0.11371722 0.054147493 -1.4277594 -0.47804517 0.12089482 0.6741064 -0.051405724 0.13195102 0.52145386 0.5158344 0.08778357 -0.45755392 -0.018630553 0.80325115 0.65903175 -0.11817195 0.1317904 -0.4901849 0.20607172 0.32339054 -0.32140145 -0.38022205 -0.28393495 -0.20406827 0.24124116 0.16562106 -0.15711254 0.6814214 0.1780439 -0.39882404 -0.18277349 0.20721006 0.1791943 -0.64653957 0.3626729 0.07731338 0.109488636 0.35881355 -0.2196513 -0.84362495 -0.78924894 -0.11191017 0.29705584 -0.010347907 0.28006855 0.58794504 0.012331329 0.5973893 -0.47034243 0.25678584 -0.6595559 -0.029965173
7099 0.5295351 0.716161 -0.094627954 -0.22403678 0.1955936 -0.2800948 -0.20096728 -0.18039154 0.22883017 -0.23769629 0.5109436 -0.18121555 -0.0629073 -0.46463257 -0.36515686 -0.95688415 -0.30205548 0.55775094 -0.3342101 0.030989654 0.14741144 0.47907063 1.1252522 0.34854427 0.09898153 0.6853195 0.07566117 -0.039487075 -0.66183096 -0.47884002 -0.11307195 -0.12054542 -0.915421 -0.3724724 0.24938029 0.36612254 0.18537058 -0.27773154 0.06060986 -0.028998945 0.28579605 -0.031743344 0.5339552 -0.4831838 0.3027662 0.11310323 0.45455432 -0.2925993 -0.055532858 0.37540126 -0.23216696 -0.048384164 0.40561548 0.5180285 0.96338195 -0.14051284 -0.094303355 -0.21837215 0.18622202 0.33593723 -0.093771584 0.2005303 -1.170111 0.7660393
6358 -0.12561376 0.718931 -0.7451779 0.22674644 0.10611816 0.13497335 -0.17434429 -0.53393507 -0.4001917 0.09936018 0.19856235 0.014296342 0.7769973 0.11454911 -0.40952772 0.4984793 -0.083073735 0.39346635 0.4250877 -0.3921681 -0.3150306 -0.16896503 0.09986475 0.08973288 0.6722127 0.6580099 0.27986583 -0.47021455 -0.42390397 -0.22415455 -0.2594675 0.31025895 0.39581951 0.053392973 0.49436104 -0.71558005 0.2322563 -0.21724182 -0.6216945 -0.12131109 1.0468434 -0.35936898 -0.3390665 -0.312459 1.1667855 0.062005933 0.4349502 0.35074478 -0.03945241 0.7368198 0.09607863 -0.9007716 -0.092352524 0.96847254 -1.0628812 -1.1114784 -0.44763866 -0.23697473 0.5741769 0.54268485 0.598753 -0.43006322 -0.1618766 0.4543532
7976 -0.4121823 0.34620637 -0.66283774 -0.3924858 0.76290905 0.13762078 -0.43526638 -0.09534026 0.33135894 -0.13087279 0.5130562 -0.55687714 0.27189142 -0.79370636 -0.49082965 0.26061863 -0.62814206 0.15544271 -0.5976447 -0.46173593 0.2085753 -0.2785763 -0.0464915 -0.827085 0.17759834 0.14907305 -0.26956877 0.60013044 -0.06889315 0.32484415 0.029638872 -0.09676698 0.32223257 -0.06633824 -0.35506016 -0.40683922 -0.3385143 0.61081076 0.5099894 0.46817327 0.16920918 -0.25088656 -0.38223147 -0.670903 0.545838 -0.08655239 0.12559634 -0.2987556 -0.2879746 0.33274028 0.36878306 -0.20179509 0.058425643 -0.09655779 0.4691911 -0.25102228 -0.27143878 0.11803576 -0.07546798 -0.40361127 0.23206879 -0.82755023 0.44668236 0.38345975
5712 -0.26932216 -0.020852828 0.26726073 0.031908862 0.08376441 0.35873547 -0.57443595 -0.68553853 -0.3072995 -1.1084679 0.3972913 -0.10939744 -0.11954539 -0.40686357 -0.41304702 0.039446842 0.3528397 -0.051001124 0.10574765 -0.06079407 -0.28728116 -0.18565828 0.57345533 -0.2430715 -0.24106717 0.14051607 0.47202927 0.52024066 0.48696804 -0.7384233 -0.3111739 0.0077829603 -0.4718922 -0.62092483 -0.2433577 0.29562852 -0.09409723 0.5054653 -0.20335606 -0.30600592 0.10396597 -0.28762728 -0.3804408 -0.1803574 0.5611641 -0.29462373 -0.27335128 -0.1436843 -0.48789856 0.1297485 -0.78890955 -0.33816198 -0.2607009 -0.5745721 -0.2283067 -0.35612053 0.46901235 -0.01519223 0.7743716 0.9497485 0.11082743 -0.61832094 -0.67474455 0.26208934
8101 -0.033236843 0.17367421 -0.82416713 0.35755813 0.15303065 0.07533923 -0.19493844 -0.3005957 -0.35151902 0.07297217 1.0438294 0.49392384 0.15429358 -0.114054434 0.10889135 0.07648577 0.5034973 1.2215931 -0.58924973 -0.27989718 -0.49069035 0.40182608 -0.25403357 0.07757856 0.8219719 0.3237102 -0.53225565 0.055597275 -0.2628403 -0.52047527 0.7180194 0.41685805 0.6235331 -0.65924644 -0.55957854 0.18732694 -0.2775881 -0.3715696 -0.27773753 -0.66107196 -0.1964033 -0.17746113 -0.18770668 -0.46251133 0.4401576 -0.7163707 -0.81979156 -0.05105329 -0.18668595 0.5064154 0.3126862 -0.39652577 0.35604352 0.22889107 -0.14123161 -0.22686262 -0.9146034 0.118265584 -0.18055265 0.109701484 -0.42031267 -0.02731593 -0.13726656 0.05665059
6421 0.1397118 0.36969715 -0.52996 -0.2860459 -0.62686974 -0.031956527 -0.024147812 0.45958552 0.17295231 -0.8095153 0.8471224 0.20507878 -0.5203342 -0.38066632 -0.7017728 -0.4702067 0.5456526 -0.28449127 -0.3564891 0.15301794 -1.0063462 0.36336395 -0.20255964 0.14418152 -0.5859489 0.83157235 -0.0054597375 0.22536442 -0.16106756 -0.8221089 0.015345454 -0.20274067 0.2291857 0.15997365 -0.20873621 -0.5019915 -0.7018237 -0.048539225 0.19631198 -0.46025798 0.19210093 -0.6648737 0.6764931 -1.1791579 -0.51687884 -0.26427618 0.11382836 0.20580004 0.1171732 -0.14750688 0.4892953 -0.41296536 0.56561416 0.34040415 0.55997974 -0.07711941 0.5935432 0.09510188 0.2657298 0.30927992 -0.028870739 -0.68969715 -0.06658516 0.7063609
8098 0.15564767 -0.3885613 -0.7631631 0.61705565 -0.7662152 0.6525184 -0.6893247 -0.11532193 -0.010937259 -0.60276544 0.41835877 -0.025427127 0.615775 -0.21143831 -0.95746934 -0.8273083 -0.5348269 -0.029752648 -0.72853893 0.45852196 -0.8410153 -0.37930548 -0.09005197 0.22916445 0.37708804 0.6595343 -0.04570373 -0.28659272 -0.4086142 0.17111887 -0.78262 -0.2355747 0.36173034 -1.0645354 0.47275886 -0.15252934 0.13227497 0.58045316 0.45984057 -0.32949916 0.14686044 -0.4760752 0.2574952 -0.6636569 -0.7244874 -0.2214825 0.43049708 0.122817874 0.4337367 0.4189542 1.1374835 -0.35191473 0.77063805 -0.7182223 0.044660952 -0.18586843 -0.0989204 0.41095015 0.102771506 1.1935614 -0.22873165 -0.6895219 -0.48889136 -0.7239312
6464 -0.48565543 0.55772305 -0.94686836 0.251153 0.5039478 0.54892725 -0.36448184 -0.20416284 0.2819274 -0.21525791 -0.021650093 -0.232105 0.27926475 -0.4798016 -0.48934442 0.68249494 -0.3168512 0.3871242 -0.26678973 -0.07935985 -0.4751766 -1.3369242 0.13884959 -0.1587217 -0.8306545 0.43230596 -0.07526131 -0.077599086 -0.45021725 0.029091878 -0.35466072 0.19022271 0.29641768 0.077633 -0.87338674 -0.43522137 -0.09135397 -0.20743175 0.20051387 -0.19500482 -0.21350528 -0.4994465 -0.0926449 -0.113143094 -0.47665393 0.16729897 -0.1726503 -0.27018815 0.4818708 -0.12246507 0.20186877 -0.15834133 -0.06532286 0.008261663 0.89211863 0.5803867 0.08287896 0.0074192686 0.7312694 -0.002207295 0.07674129 0.1326943 -0.39734736 0.2768016
5697 -0.2291834 0.07802545 -0.3282024 1.1476128 -0.6918474 -0.7092157 0.09778212 -1.4525905 -0.39638525 -1.038049 0.68442017 0.0187073 0.6824247 -0.3734441 0.37268358 0.5486156 -0.39613655 -0.21808158 -0.6986917 -0.21042645 0.76205033 0.015964936 0.052901007 -0.31702065 0.06254564 0.82676697 -0.016976353 1.0813603 0.23215057 -0.41096294 -0.17803341 0.7171008 1.2336687 0.66074216 0.49850294 -0.09201749 0.34732777 -0.46731034 -0.28111476 0.41068682 0.07340613 -0.23608904 0.82402027 -0.23646846 0.16626588 -0.07864577 -0.36498493 0.47574374 -0.6483258 0.38987824 0.9308377 0.07823219 0.22717108 0.31328753 1.0662158 0.0949839 0.4795321 0.01052794 -0.5713997 1.0292199 -0.3830702 -0.33879796 -0.6565649 0.116202176
5727 0.41038084 -0.103578225 -0.107723005 0.069423124 -0.35349932 -0.765508 -0.43681407 0.25212854 0.28321466 0.069896504 0.8668957 -0.48042792 0.024344264 -0.8522867 -0.54101276 -0.28978443 -0.22148576 1.086499 0.005522384 -0.6165137 0.040555313 -0.452873 -1.1398579 0.78560764 -0.24591555 0.6427027 0.30835518 0.060969803 -1.0926967 0.0780289 -0.61353797 0.4198926 1.1577942 -0.09824369 -0.4773536 -0.2907091 -0.388778 0.25390238 -0.51258004 -0.36768955 -0.750224 -0.22331084 -0.43554643 0.2735396 -0.12985164 0.08591727 0.4143086 0.04320228 -0.19758356 0.6265167 0.0664535 -0.7865108 0.5747537 0.61691254 0.16237114 -0.3424101 0.1836614 -0.3764213 0.067612335 0.7016449 -0.0075992076 1.068691 -0.024144225 0.2160719
8334 -0.029652843 0.79675937 -0.39928392 -0.061404094 0.098404884 -0.45135915 0.08223444 0.11322647 0.06390217 0.28031698 1.263964 -0.18898939 -0.28435782 -0.5410978 -0.65300864 0.4058103 -0.6419755 -0.14543796 -0.3403473 0.20612454 0.11819678 -0.6900344 -0.27258226 -0.5291433 -0.14567262 0.15278319 -0.17418823 0.9075681 0.0407977 -0.008267678 -0.4339143 -0.20786434 -0.094580956 -0.49471763 -0.01014167 -0.51966435 0.07240957 -0.30414233 0.5270192 0.55076796 0.14185151 -0.35710958 -0.1896764 -0.33926803 0.26639572 -0.11824622 -0.29755053 0.62374055 0.16019644 0.78223604 0.6212638 0.37212557 0.2826135 0.2687978 -0.73149353 0.53233993 0.26713398 -0.3160406 1.2063195 -0.017144755 0.16256888 -0.4586668 -0.07547691 0.23310637
6588 -0.503561 0.9690446 -0.54653597 -0.80739295 -0.93594766 0.029382784 0.72044826 -0.2221387 -0.3730593 0.03137373 0.7970126 0.00058074755 0.1454671 -0.52894473 0.16123289 0.4545512 -1.0690627 0.4560257 -0.97756106 0.059582148 0.23161936 -0.47985607 -0.047768887 0.6318104 -0.49985257 0.45770174 0.47837824 0.5503042 -0.26532987 0.6549001 0.47803 -0.41637468 0.22002394 -0.21780388 -0.74606323 -0.43017524 0.650149 0.17456017 -1.0653431 -0.5402822 0.32845548 -0.27735662 -0.27340955 0.53367776 0.07036443 0.44104546 0.19770475 0.3394695 -0.8524221 0.09092527 0.356523 0.021856328 0.1893576 0.19663218 -0.1701559 0.14060454 0.19758146 0.45248863 0.45885146 0.205335 -0.65053743 -0.20155309 -0.79355526 0.79365844
8307 0.43436465 0.29704604 -0.2832203 -0.014375181 0.19564936 0.23106965 -0.06359825 -0.18658745 0.4588578 -0.47224003 0.7472657 0.3660661 -0.016005225 -0.059446447 0.018345997 0.11348892 -0.35116118 -0.059133932 -0.6328842 -0.34294236 0.09470927 -0.02981805 0.4449554 0.21200337 0.2956007 0.5431147 0.071527734 -0.11452029 0.7836888 0.44704345 -0.27640134 0.55217075 0.82506746 -0.6791679 -0.25378454 -0.6561363 0.05929161 1.4722456 0.7321979 0.16400428 -0.19480701 -0.60686654 0.1488884 0.7044375 -0.19712669 -0.33867428 -0.03676334 0.2832742 0.19827709 0.77395946 -0.08577652 0.28714934 -0.25331858 0.44982573 0.5998723 -0.5965428 0.1268348 -0.49766514 1.1035873 -0.19606014 0.36514595 0.2709574 -0.49119213 0.22911714
1701 -0.8923291 0.2335111 -0.40540454 0.25906923 -0.36371875 -0.4697067 0.43124276 0.074570514 0.366844 0.09189339 0.6876651 0.40417197 0.1496586 -0.6415804 0.3631481 -0.382698 -0.7388489 0.24051854 0.1364086 -0.2299721 -0.26827985 -0.16024435 0.21227103 -0.051967897 0.42605126 0.25300714 0.67416686 -0.36359623 -0.7799758 -0.534688 0.19141722 0.31636187 -0.924323 -0.76118815 0.52606606 -0.044190012 -0.76463085 0.013856169 -0.20428346 0.09156573 0.29703656 -0.07860597 0.1746357 -0.2614044 -0.33271682 -0.41553178 0.78211415 -0.26007545 -0.3718674 0.46339196 -0.38729858 0.23976085 0.09639985 0.04942648 0.46009088 0.3088538 0.35629433 -0.31956875 0.15327573 0.28935707 0.545229 -0.05421462 -0.9707385 0.11891443
6299 -0.8137227 0.96351844 -0.19583401 0.5525724 -0.18453678 0.5680501 0.16830876 -0.1832696 -0.15733156 -0.73076767 0.67496175 -0.45272207 0.04343754 -0.70506704 -0.27072757 0.09245573 -0.09846665 -0.2276508 -0.36637107 0.32669792 0.577904 0.16280766 -0.1525826 0.44754037 0.4360537 0.30440724 0.11314728 0.58267695 0.1284667 -0.24860182 -0.1603545 -0.030769078 0.34935117 0.63892645 -0.42909616 -0.6325675 -0.15543647 0.2095926 0.22713347 0.52197814 0.18027598 0.1609334 0.5693956 0.23875812 0.6944881 -0.3009359 -0.689999 0.087317996 -0.3027878 0.09551164 0.208997 -0.07794507 0.4485879 -0.5748238 -0.19579975 -0.3729885 -0.21416356 -0.290618 1.1836424 0.08120259 0.45747665 0.09074379 -0.5330424 -0.10181677
7035 0.4897828 -0.3736123 -0.48598495 0.18108243 -0.5701622 -0.35037202 -1.4527708 -0.124640904 -0.5422685 -1.5848793 0.11941434 0.8828853 1.1649711 -1.0996128 -0.86026007 -0.39417854 -0.15503396 0.06602 -0.30150786 -0.31107828 -0.20090117 -0.4699482 -0.32160583 -0.32680535 -0.24860676 -0.32343024 0.92244714 0.096550755 0.21270263 0.04390019 -0.30881372 -0.33526164 -0.044053886 -0.2365237 -0.9939438 -0.23285224 -0.42755386 0.053166296 -0.011190617 -0.2602465 1.1466818 0.14594051 0.36674365 -0.58832276 -0.13756503 -0.35996512 -0.03342872 0.26582712 -0.5248644 1.5042796 -0.26619273 0.113070175 0.624958 0.66108966 -0.011385958 0.49312457 -0.012082829 0.2249792 -0.5199663 -0.6126305 -0.16233625 0.90277624 -1.1622825 -0.08237439
6556 -0.056031395 0.4852228 -0.3808064 0.72028166 -0.026452094 0.3923817 -0.7196493 0.020120256 -0.9481323 -0.41386017 1.3453944 -1.0305254 -0.042033475 -0.6500663 -0.19479586 0.22509594 -0.22239447 -0.028508075 -0.6989702 0.1959789 0.059678514 -0.16836877 0.7150451 0.2289909 0.1557201 0.48267546 0.20221771 1.1204017 0.32206222 0.06175998 -0.22921209 -0.34490505 -0.12824772 -0.9240748 0.24341835 -1.2873839 -0.41244268 0.09083205 -0.57735133 0.47530162 -0.074152745 -0.26248005 0.5641388 0.5531203 -0.10056765 0.2936972 -0.27848825 0.038101103 0.48556003 0.27514198 -0.51349854 -0.4333774 -0.19861807 0.40583158 -0.6951432 0.30703914 -0.5847527 -0.07938361 0.8351184 0.07534538 0.009777647 -0.5084155 -0.09234372 0.15817748
8018 -0.09419934 0.9546427 -0.50575686 0.59571666 -0.46750578 0.40070835 -0.28402382 0.7089839 0.0029533643 -0.27729398 0.6814985 0.28257746 0.43096316 -0.43132046 -0.65552866 1.0429802 -0.2320878 -0.4354376 -0.50109714 -0.38839522 0.13287134 0.15946929 0.6219633 -0.2493755 -0.11369192 0.51647335 0.34382403 -0.26498088 0.35241574 0.0059830733 0.430197 -0.06754465 -0.32108694 -0.03576859 -1.0277879 -0.66670203 0.00918963 0.099296235 -0.15557243 0.8398425 -0.28351584 -0.04465687 -0.2693543 0.011818294 -0.13848945 -0.106961474 -0.44934636 0.11777301 -0.59616333 0.16135652 0.36213726 -0.5300902 0.1394074 0.06928696 0.43485895 0.99047226 -0.014767304 -0.5107628 0.45812842 0.042677727 0.18826348 0.1027521 -0.08689952 -0.108988225
7116 0.8266941 0.7581789 0.1111662 -0.35496312 -0.34688687 -0.15218838 0.01134029 0.048330348 -0.3995486 0.0057948823 0.44131073 0.5423442 0.32819077 -0.24964091 -0.6061665 -0.34145007 0.13655867 0.9227415 -0.37784302 -0.034811035 0.19042799 0.24883617 -0.17409329 -0.12449494 -0.48706332 -0.07355489 0.36549693 -0.46834895 -0.27853176 -0.3918061 0.23702632 0.034264617 0.45136228 -0.104805715 0.7172667 0.171613 -0.47498298 -0.25018176 0.000745068 0.32496336 -0.657663 -0.84253657 -0.35523775 0.12271367 0.46352622 0.9380975 -0.4752581 -0.00759061 0.49389327 0.69727516 -0.8503172 -0.06991184 0.65714985 -0.9652377 0.9557617 0.48690176 -0.34935176 -0.6275979 0.5607581 0.72360885 0.93924385 -0.45650774 -0.61273634 0.6919367
674 -0.7072845 0.66039395 -0.23422165 0.7108028 -0.26913303 0.14513007 0.13876484 0.39315164 -0.06995906 -0.31438875 0.5827575 0.05291497 -0.051818717 -0.31096283 -0.3532677 0.9643263 -0.6943779 0.63079625 -0.0931178 0.36929044 0.08275455 0.09892013 -0.2058164 -0.117066175 -0.42526454 0.28259766 0.36067584 0.53955215 -0.037568443 -0.6998582 -0.48360503 0.04988233 0.42124626 -0.18544213 -0.4065108 -1.1310278 -0.3370533 0.12603752 -0.24739422 0.5176836 -0.047237 0.11340411 0.22336224 0.13745558 0.05490349 -0.036336236 -0.19125368 0.19247155 0.23961507 0.06621038 -0.14555463 0.33732787 0.5945236 -0.10526033 0.23276095 0.17470178 0.13330297 0.26178834 0.67376554 -0.39902034 0.52637404 -0.009039116 -0.17500667 0.14317276
1466 0.2633003 0.6595356 -0.43962413 0.3960608 -0.36367178 0.66637933 -0.067819625 0.29308158 -0.18778199 -0.5298635 0.14111722 0.021138983 -0.15696485 0.104451224 0.05955965 0.703295 -0.7116631 0.08906961 -0.47722736 0.13866432 0.23867925 0.6380892 -0.3616525 -0.7368366 -0.1579657 0.34622034 0.028729502 0.5033032 0.3143547 -0.04436591 -0.020159304 0.04148312 -0.13861765 -0.45873275 -0.40202564 -0.5242799 0.11750025 -0.005299637 -0.15215373 -0.069561474 0.747107 0.09866923 -0.20063695 -0.51321065 0.50420105 0.3978415 -0.3413475 0.39069402 -0.36179048 0.6989047 0.3270652 -0.3964122 -0.23285972 -0.14431156 0.0488583 -0.0591271 -0.13273329 -0.5396871 0.034341127 0.11630705 0.25290737 0.36383003 -0.06546838 0.10970766
6133 -0.3839844 0.35776606 -0.49133113 0.78365046 -0.13399468 0.54675514 0.07741505 -0.014939943 -0.33441556 -0.025745083 0.3479894 0.15822692 -0.42225236 -0.65101284 -0.35682604 0.3235165 -1.2128562 0.3923933 0.03921862 0.38146508 0.057859786 0.501275 -0.09178288 -0.5803066 0.08374264 -0.16282427 -0.019782132 0.24986665 -0.060226608 -0.4130431 -0.958488 -0.15276703 0.350203 -0.38051096 -0.57683295 -0.9341022 -0.23378998 -0.24511412 -0.2532684 0.015061556 -0.066216156 -0.054706763 0.35874492 -0.048059385 0.048651647 0.11010035 -0.16026416 0.8647775 -0.19211641 -0.050691098 -0.6478631 -0.22284988 0.5364431 -0.43858057 0.15868047 -0.16634125 0.3089355 -0.106997676 0.26199463 0.1421687 -0.075164594 0.1485507 0.37796587 0.6050831
7003 -0.33260632 0.725895 -0.23407458 0.36993542 -0.5550878 -0.3522709 0.5798958 0.28010792 0.11749384 -0.81102383 0.78032583 -0.5986034 0.24242409 0.20708355 -0.48613045 0.65994287 -0.3138452 0.23795442 -0.4692677 -0.43406078 0.35210153 -0.10138895 -0.4706363 -0.007250536 0.09636349 0.3775658 -0.2075552 0.80973774 0.024346258 -0.22470307 -0.31495532 -0.46812594 -0.09184586 -0.24231093 -0.052444927 -1.0424259 0.058908004 -0.33987063 -0.28405562 0.3635609 -0.31406435 0.026230393 0.13002424 0.46829194 0.17234063 0.23885864 -0.7286621 0.42799795 -0.1289922 0.043150682 0.7404872 -0.39794505 0.47105223 -0.22046387 -0.038353384 0.21283048 0.055695698 0.43076047 1.0275667 0.30796403 0.4970394 0.43196625 -0.14088921 0.22175442
7314 -0.16959882 0.90154505 0.21436742 -0.27239037 -0.6236179 0.07500858 -0.45956677 -0.43277428 -0.045225907 -1.0293622 1.1380326 0.25792333 0.1364413 -1.0042368 -0.46473703 -0.38656524 -0.635448 0.042357758 0.0395586 -0.5432488 -0.07121836 0.08850611 -0.056447104 0.8978239 0.2936148 -0.3317839 0.763386 -0.41240665 -0.28556535 0.18513188 0.13062918 0.655981 0.63613325 -0.5267538 -0.4273835 0.52715814 -0.697076 -1.1297263 0.40889558 0.2348281 0.1386097 -0.6116276 -0.2960929 0.37496725 0.69816273 0.46526247 0.10576587 1.2248257 0.056149837 0.7503336 -0.19745126 0.3097073 0.38370678 -0.33755258 0.9410306 0.3625953 -0.5661159 0.7363922 0.7070014 0.48308656 0.5361995 -0.88521576 -0.027541451 -0.5534606
8379 0.097164586 0.2611158 -1.3989173 -0.11658585 0.88325906 -0.1209675 0.20785594 -0.25754708 0.35690194 -0.5306166 0.5253298 0.5396885 0.94568455 -0.46856573 -0.3703251 0.35348955 -0.21046543 0.18961006 -0.27167 -0.22396272 -0.18465915 0.77404094 -0.27529606 -0.20350498 -0.07163193 0.39469308 -1.0923413 0.05155695 -0.56559074 -0.023450667 0.7520797 0.4329665 0.48574442 -0.6959058 -0.5847506 0.099820495 -0.18582658 -0.37035722 -0.45521364 0.14005804 -0.64015156 -0.023637071 0.27558866 0.22441669 -0.41780052 -0.25646472 -0.5160494 0.1993922 -0.1913026 0.8542479 -0.46795422 -0.22511978 0.4698736 0.4309881 -1.1715646 -1.1831218 -0.5183173 0.2688605 0.116186 0.34132656 0.72643185 -0.26184952 -0.46389988 0.09087762
6134 0.09167087 -0.29073024 -0.14684099 -0.41622844 -0.47788143 0.60285836 0.14460343 0.2246937 -0.15270744 0.09704921 0.95201546 -0.09139137 -0.3276197 -0.9262204 -0.36668083 0.49081346 -0.6528766 -0.31868485 -0.32706982 -0.12573619 -0.73436266 0.43217674 -0.5066426 -0.42754638 0.37882894 0.5453455 -0.47528708 0.06848802 -0.6291881 0.5109377 -0.6386506 -0.5572917 0.6273033 -0.20671688 0.12755157 -0.42901388 0.20942621 -0.017450413 -0.060968727 -0.07571523 -0.28438818 -0.68363893 0.39415184 0.5831807 0.5669407 -0.17273358 -0.027237492 0.57534343 -0.21737808 0.15063767 -1.0901808 -0.4138099 0.85851353 -0.28765976 0.07638991 0.330483 0.7210076 -0.109397784 -0.11417102 1.2678852 -0.05460521 0.677391 -0.11659337 0.8492957
7267 -0.18304658 -0.21685787 -0.7500447 -0.5092958 -0.9931475 0.36385924 0.012056702 -0.5853155 0.030283958 -0.085766315 -0.18248801 0.13856226 -0.20652086 -0.060273103 -0.5116091 -0.4780622 -1.0241331 0.015415652 -0.44656307 0.15670443 0.13457485 -1.0612941 0.03771211 -0.09438211 -0.020791702 0.0043303273 -0.26679274 -0.21070024 -0.88903487 -0.54669666 0.4288729 0.21925692 0.2900262 0.4444868 -0.45211455 -0.2656006 -0.97122693 1.1891795 -1.0407807 0.52781725 -0.4475075 -0.6021003 0.6632631 -0.12153683 0.51272136 0.4569258 -0.22253042 0.045260802 -0.2515386 1.2182539 0.18743883 -0.29732618 -0.7086209 0.24934918 0.72801083 0.89053977 -0.054952465 -0.8692396 -0.04841172 0.3902894 0.74787956 -0.28661832 -0.28291258 0.54626304
6348 0.066438265 -0.2266289 -0.09292228 -0.12014928 0.4381978 -0.160072 -0.40663826 -0.7442375 0.42165875 -0.8439781 0.6203108 0.08621791 -0.9718694 -0.990438 0.25460526 0.14338757 -0.26723203 0.25904056 0.086473405 -0.7606374 -0.03416639 -0.29305303 0.37809646 -0.46528673 0.6645998 0.46472722 0.49086437 -0.35881218 -0.2375155 -0.88632095 0.33510873 -0.3581774 0.49120203 -0.66576385 -0.35555315 0.080982886 0.1882096 -0.008972482 -0.56376976 -0.0035277593 0.5033624 -0.40887347 -0.2977071 -0.016986808 -0.014355307 0.119066685 -0.047987368 -0.5696656 0.6730949 0.6648566 -0.23729207 -0.26004288 0.20145068 -0.8044602 -0.55524015 0.35275403 0.47658485 0.15482 -0.5164684 0.50430655 0.35564768 0.5157236 -1.1033117 -0.31096604
6661 -0.20989679 -0.38033643 0.4411332 0.19790919 0.18194354 -0.33744553 -0.87941426 0.44706312 0.11189791 -0.71615785 0.76964545 0.76402825 0.7845417 -0.406851 -0.78108656 -0.96674603 -0.0003895026 -0.02261175 -0.8180345 -0.7634456 0.708649 0.13580605 0.43351045 -0.1726546 -0.37907195 0.48536506 0.17381392 -0.35690448 -0.042143438 -0.86672205 0.03108365 -0.3578375 -0.19227718 -0.7636739 0.082709685 0.18186535 -0.19137111 0.22730157 0.40100864 -0.032073308 0.44372705 1.0495509 0.7899289 -0.5507899 0.56392545 0.520186 0.7595005 0.45887917 -0.69465667 0.446589 -0.356274 -0.3457008 0.046243895 0.34168985 0.09973605 0.16103482 -0.73622614 -0.1694459 0.46321484 0.49401635 -0.5912723 -0.010325612 -1.5076079 0.93882
6035 -0.68457484 0.3819053 -0.4786297 -0.101697676 0.4165366 0.8849508 0.20986345 -0.198675 -0.3324797 -0.27509022 0.9898278 0.08563959 0.07006247 -0.6720923 -0.11308945 0.31555596 -0.34966266 0.3126282 0.28599298 -0.25405076 0.2591183 -0.27203482 -0.1781704 0.07198914 0.54412925 -0.27664673 -0.26713657 -0.6172097 0.57383347 -0.3586279 -0.3322781 -0.4299232 0.18522096 -0.67185545 -0.3690865 -0.37261295 -0.9542114 0.8416888 0.41327426 -0.2648346 -0.3256835 -0.9370411 0.76043135 -0.43545693 0.13506489 0.5183346 0.7153303 -0.54469466 -0.5060832 -0.21402259 0.6967009 -0.0271084 -0.5498167 0.83803415 0.89352554 0.6786344 0.39980707 -0.5149365 -0.21939407 0.54340404 0.53920925 -0.28923246 -1.0555243 0.088414825
6398 0.15821576 0.8311774 -0.41119012 0.0461019 -0.18666077 0.08749302 -0.21917304 0.108492725 0.15083668 -0.23249365 0.47953352 -0.12485635 -0.3753219 -0.18266463 -0.6166943 0.6889946 -0.694881 0.36612147 -0.5544854 -0.108137675 0.13651289 0.31951526 -0.36727974 -0.034482148 -0.44307292 -0.28935716 0.20708328 0.75578177 -0.013918535 -0.12084286 -0.16733992 -0.38239285 -0.37225842 -0.27164793 -0.08877716 -0.87202096 0.056230266 0.56069434 -0.22203392 0.47619167 0.04361733 0.08458739 0.024625348 0.008643207 0.10420743 0.24972054 -0.85252 0.6544822 -0.2511609 0.21211222 0.61853856 0.27914405 0.4417808 0.55971825 0.012909744 0.48922783 -0.5704329 -0.13962182 0.6976248 0.36558262 0.3306849 0.06851704 -0.24097538 -0.122234985
1658 0.15674268 0.20928827 -0.537198 -0.1503802 -0.36957714 0.5565338 -0.32871494 1.1576152 -0.36423305 -0.93870413 0.4787093 0.28238916 0.5700074 -0.06691532 -0.08163365 1.1346016 -0.5928516 -0.45435253 0.03555815 -0.23645943 0.029795589 -0.35774732 -0.13418847 0.05331038 -0.21730426 0.95178366 0.41866052 -0.46218875 0.62327456 -0.41687068 0.18261418 -0.58444834 -0.47446132 -0.51783156 -1.0781794 -0.7897813 0.2546945 -0.422747 -0.4159172 0.30722868 0.24152933 -0.029502008 0.09592267 -0.2475906 0.29372305 -0.14486505 -0.58500314 0.41716567 -0.46716693 1.4864246 0.15438288 -0.25932786 0.20379505 0.011886508 0.6027511 -0.18077232 -0.49326548 -0.84898376 -0.6523742 -0.18576701 -0.50476164 -0.099104434 -0.653755 -0.12018909
6660 -0.7845726 -0.55253774 0.5900895 -0.17557321 -0.001255718 -1.103614 -0.8919058 0.08885528 0.25835696 -0.8886567 0.65530753 0.4774905 0.5671647 -0.70781344 -1.2367425 -0.85754865 0.16407026 -0.29419708 -1.0160457 -0.50521916 0.35948712 0.204269 -0.24794999 -0.43195367 -0.47874522 0.06462044 0.07898212 -0.9196511 -0.03699814 -0.5753833 -0.48416832 -0.03652457 -0.26533836 -0.8385464 0.06873843 -0.2677879 0.036198065 0.06913971 0.55449265 0.12363326 0.97007143 0.36453673 0.32281592 -0.4431413 -0.020020349 0.3571442 0.54165787 0.90408206 -1.27528 0.40166432 -0.37518388 -0.48177406 0.1605119 0.25419158 0.037264675 0.027910454 -0.6624355 -0.5719582 0.8846933 0.2846278 -0.7384349 0.1373738 -1.4163778 0.8458783
3799 -0.19070874 0.4912367 -0.4896678 -0.36724466 0.15735474 0.3597888 -0.65353394 0.7516802 0.4066287 -0.36256352 0.5211113 -0.39814037 0.3400225 -0.0024827837 -0.51769865 -0.21791297 -0.16298155 -0.5418564 -0.6419333 -0.78041667 -0.5875001 0.1647625 -0.062348656 -1.5039797 -0.03264352 0.89678717 0.19873902 0.6640683 -0.5142812 -0.33827978 0.29880717 -0.038776938 0.60483927 0.058911067 -0.42595872 -0.12574363 -0.81401104 0.3770169 -0.0863651 -0.39466664 0.080533504 -0.42352155 0.25982425 -1.0562035 0.24376032 0.3356355 -0.056331057 -0.43364146 0.40751237 0.35680187 0.34955978 -0.048165664 0.94667614 0.19864714 0.45640826 -0.62920344 -0.30105597 0.36417603 -0.05229721 0.35165918 -0.055226788 -0.9057941 0.24268107 0.84581506
4201 0.024728388 1.0036311 0.012587011 -0.4398914 -0.19606563 0.103359886 -0.14888588 0.33557642 0.44577822 -0.3686706 0.887184 -0.2078407 -0.035080757 -0.36341202 0.100298576 0.17701237 -0.47679988 0.31157318 -0.3120496 0.5807241 -0.20422709 -0.3834235 -0.23497604 0.035911407 -0.24339285 0.53887206 0.21718505 0.44234425 0.10959645 -0.4505488 -0.31119075 0.0065761385 0.28632417 -0.14155361 -0.30225796 -0.821245 0.17259024 0.5948814 0.094539545 -0.08330966 -0.50069517 0.021482516 0.039798275 0.32603106 0.12664613 -0.15512352 0.034509894 0.2434023 0.28726703 0.8329046 0.21434061 0.40977976 0.081053585 0.18597293 0.19305919 0.24495506 0.42617372 0.002344045 0.71140385 -0.12686594 -0.6145416 -0.3051475 -0.020782758 -0.50270015
4339 -0.7229316 1.0209218 -0.10989243 0.22144926 -0.2016672 0.29914147 -0.94933206 0.0035136498 1.0857565 -0.47726843 0.47285378 0.386264 0.7799395 -0.42818916 -0.19608653 -0.06189049 -0.7414448 -0.70258653 -1.009685 -0.51119316 0.06594205 -0.96135974 -0.06982048 -0.29378325 0.32239217 0.28343546 0.41366082 -0.7452939 -0.3796732 -0.10183674 0.6166312 0.3851568 0.514914 -0.3843641 0.6772119 0.32009736 -0.4784782 -0.06558031 -0.06944937 -0.012923584 -0.65996486 -0.5287038 0.8701431 -0.65206605 0.5573678 0.4873617 -0.72190756 0.36201295 0.6999267 0.41592723 0.053516068 -0.6685962 0.39426836 0.51166195 0.57706916 -0.52471524 1.1122361 0.14313681 0.18536896 -0.07617913 -0.64206505 0.012002622 0.21245174 0.8709105
1486 -0.042421635 0.18601458 0.22941208 0.11937357 0.23038138 0.21680798 -0.12628004 -0.21893452 -0.18443505 0.43737277 -0.08045176 0.9728764 0.94943947 -1.2717515 0.60323155 0.26402026 -0.6612249 0.795816 -0.7577536 0.2776879 -0.6585835 -0.36492306 -0.36332336 0.12257599 0.19265603 1.0695375 0.5227915 -0.49616158 -0.26649067 0.26198253 0.03964752 0.007866974 -0.2399664 0.27179754 0.2850363 -0.20928837 -0.32822233 -0.53464365 -0.61416745 -0.47960532 0.618893 -0.7821415 -0.2465349 0.46872798 0.47782227 -0.44613895 0.39710334 -0.024194952 -0.32447523 0.80878234 0.64544725 0.020824837 0.14148188 0.64112455 -0.39754558 -0.74983996 -0.37540033 0.35247144 0.26217857 0.3899158 0.48923698 -0.3173311 -0.6189917 0.80070156
5141 -0.38326925 0.63581336 -0.5589661 1.0081402 -0.23790939 0.16683686 0.6364388 -0.23200954 0.060820993 -0.6370428 0.35512418 0.37221277 -0.12254873 -0.7775289 -0.018348144 -0.029735629 0.21560736 -0.3487078 0.010608815 -0.511743 0.9519207 -0.039542567 -0.16881695 0.51576215 -0.12053607 0.78666234 -0.22877133 0.89925873 -0.16431427 -0.10527598 -0.019086843 -0.45755857 0.0368797 0.45501906 -0.20419995 -0.51738286 -0.13452545 0.3318502 -0.2759817 0.24244528 0.22794352 -0.29025102 0.436949 0.5588527 1.0077984 -0.02289922 -0.82348853 -0.03877605 -0.19421929 0.30062142 0.20416643 -0.6208447 -0.03853903 -0.42706218 -0.12644121 0.07080894 -0.020906143 -0.2708342 0.7731497 -0.26950073 -0.2659798 -0.2343109 -0.55048275 -0.23098277
5305 -0.4603184 0.09449661 -0.8505086 0.42162353 -0.25035283 0.095813096 -0.45912856 0.15294155 -0.6843665 -0.4398158 -0.50086284 -0.010233139 0.14334717 -0.44973502 -0.7940987 -0.5629772 0.30461589 -0.12720044 0.529169 -0.28101912 0.27530217 0.5932801 0.66808045 -0.09683926 0.20081261 0.9017685 0.52046263 0.10029451 -0.15588711 -0.1291881 0.4257237 -0.0074883634 0.15849537 -0.1862462 -0.06107121 -0.28672785 0.51804435 0.51618046 -0.4776121 0.1259828 -0.29156926 -0.35911408 -0.6002095 0.36708212 0.94588214 -0.1960271 -0.17427869 0.48532698 0.010481948 0.17807716 0.11422124 -0.50784814 -0.24679267 0.5813666 0.28123897 -0.37813875 0.77861536 0.23676227 0.5084359 0.4996892 0.11056866 -0.4693708 -1.0226386 0.114475615
7083 -0.16722491 -0.027331322 -1.0446731 0.13849922 -0.4007831 -0.2900411 -0.4582899 -0.051711526 -1.2190965 -0.88087136 -0.2659622 0.2596985 0.021819731 -0.35031876 -0.2307618 -1.2092348 0.14570385 -0.46581766 0.15805815 0.16138509 0.48433387 -0.18391415 0.5290003 -0.33951274 -0.18548676 0.65447915 0.24253553 -0.24152365 -0.3372039 -0.43148872 0.11681845 -0.04255222 0.31535703 -0.046408772 0.15646866 -0.28448156 0.22691506 0.7365866 -0.3432584 0.10624914 -0.48986796 -0.17404416 -0.2119049 0.12954462 0.8923051 -0.5863429 -1.0849296 0.37962216 -0.14021379 0.30241233 0.55096054 -0.42348212 -0.2575512 0.1793698 0.27969214 -0.021592444 0.54084754 0.13999462 0.023555567 0.4142418 0.2820851 -0.070102066 -0.9284227 0.7467782
7273 -0.025368825 -0.7345234 -0.44605902 -0.46116927 -0.5210562 -0.544144 -0.1564155 0.22820674 -0.4636116 -0.21461852 0.7526197 0.5792931 -0.18494925 -0.33122754 -0.20001242 0.27717137 -0.8289516 0.36779028 -0.43815807 -0.45977336 0.78238463 -0.14711678 0.19035439 0.9519538 -0.25402954 0.19252324 -0.17290509 -0.5931007 -0.4512563 -1.0165175 0.36862263 0.77249646 0.14281179 0.13493675 0.050018255 0.2229815 0.47057724 0.19244628 -0.08591853 0.36653155 -0.24405667 -0.9151893 -0.29814607 -0.78175324 -0.47959027 0.046200857 -0.06150297 -1.005731 0.5261598 0.6362291 -0.81994885 -0.69572073 0.38023677 -0.59432673 -0.26675957 0.34795842 0.23457214 0.0997594 0.33150694 0.19960716 1.1003281 -0.86998266 -1.0843686 0.7114779
2661 -0.08292161 0.3078115 -0.93846923 -0.017623616 0.52353746 -0.30446094 -0.20279638 -0.6860677 -0.08635077 -0.092252925 0.3899687 0.42873305 0.5925195 -0.52508515 0.23820822 0.18838562 -0.023309618 0.6500437 -0.29233885 0.10426749 -1.0755293 0.62871414 -0.24571468 -0.04652444 0.56514704 1.4090297 -0.600432 -0.34283918 -0.37602603 -0.31109035 0.20730309 0.3948143 0.62536335 -0.5382414 -0.8322585 0.332337 -0.21466124 -0.32356492 -0.86511296 0.1775998 -0.1709976 -0.2853528 -0.10655696 -0.3321735 -0.3888188 -0.3074405 -0.79065144 0.1723012 -0.49894786 0.26469022 -0.021356866 -0.06535427 0.34623206 0.6764267 -0.4518604 -0.34501842 -0.8860938 0.4397448 0.24452949 -0.33247876 0.44112277 -0.12267523 -0.31050277 0.4745737
6736 0.3683019 -0.21986276 -0.14010504 0.6041879 -0.052933577 0.6544299 1.3377177 -0.12823403 0.27102762 -1.622849 0.3345834 -0.43986115 0.17211518 -0.85846686 -0.7709713 -0.17093343 -0.44038588 2.3890202 -0.82757086 -0.5833991 0.23981725 -0.6075452 -0.053078365 -0.84473383 -0.01821174 0.7491939 -1.3876512 -0.5850067 0.8292689 -0.068991974 -0.25894165 -1.3906659 0.58611107 -0.5215052 0.6114553 -0.5965084 -0.82758725 0.37879395 1.14334 -0.10238637 0.28734738 0.0577691 -0.07732887 -0.23540702 -0.77365357 0.09821098 -0.100352116 -0.97097313 0.034641184 1.2879161 -1.1294432 -0.09128718 0.7917618 1.4195455 -0.6758592 0.4900313 -0.57163316 -0.068268925 -0.27846923 0.5726763 -0.46833193 -1.4459342 -1.086523 0.3749648
906 -0.5939571 0.13309664 0.26739737 0.09022537 -0.14671728 -0.07606342 -0.23144798 -0.7010548 0.4175017 -1.253602 1.8890786 -0.36759454 0.5376359 -0.11218946 0.2946842 0.2050995 -0.47429362 0.590294 -0.78435236 0.60891724 0.21918711 0.4189494 -0.02566846 0.4426373 0.77628326 0.2488505 0.08051307 -0.8861824 -0.27894858 -0.046165556 -0.36333156 -0.626254 0.29838285 0.458309 -0.733104 1.3126763 -0.58943856 -0.7875322 0.34250447 -0.24631956 0.088505894 -0.00822573 0.042076364 0.24565098 0.9907257 -1.1307353 -0.12516558 0.59816325 0.24917716 0.76788515 0.4925872 -0.7572252 0.63827044 -0.19842374 0.72558373 0.58342385 -0.36938953 -0.06548345 1.2801934 0.40717357 1.4254676 -0.21023774 -0.26630256 -0.40961048
4443 -0.5401404 0.2786824 -0.7738576 -0.17035016 0.18056099 0.12787172 0.0770827 -0.06313089 0.16256791 -0.22891007 0.3904096 -0.07296428 0.68980825 -0.419346 -0.34800684 0.9725565 -0.3363794 0.040092647 -0.238161 -0.22320184 -0.24576862 -0.38310668 -0.01751417 -0.103921354 -0.49868545 -0.002703651 -0.21238947 0.31780452 -0.23340473 -0.6487837 -0.35970414 -0.26397124 0.11670635 0.055684675 -0.5871437 -0.7242733 -0.29804775 0.83885646 0.30757025 0.2060696 0.04620888 -0.3452311 -0.11233204 0.18810819 0.26555535 0.19490965 0.29540557 -0.037371915 0.42213336 0.68051386 0.43684474 0.18989728 0.024269873 -0.416307 0.14969587 0.5677548 0.3078567 -0.6050121 0.4698532 -0.44878873 -0.43773082 -0.2185797 0.022291444 0.08726816
6587 -0.08097122 0.5918087 -0.25507444 -0.30927178 0.17931859 -0.0160432 0.22722441 -0.040026553 -0.57887477 -0.2534282 0.24515943 0.13492563 0.39515072 -0.941816 0.6445612 0.20264572 -0.39375365 0.27408573 -0.45645958 -0.22439884 -0.52721244 -0.532253 -0.5380455 1.1702858 0.120624125 0.57166094 -0.045722064 0.2184944 0.0145615805 0.76320475 -0.22744344 0.4519613 -0.2041996 0.017186731 -0.810949 -0.3205225 0.078459285 -0.5786971 -0.8899013 -0.44847894 0.13260666 0.078832366 -0.017441424 -0.027511254 0.7342359 -0.07162555 0.24391788 -0.1544349 -0.7577666 1.0242366 0.6545056 0.06099854 0.051714286 0.14598528 -0.41935608 -0.18636383 -0.027247302 0.26457328 -0.24447627 0.80392736 -0.45933983 -0.17241825 -0.51797384 1.0781953
5451 -0.4180876 0.5624521 -0.42134625 0.5684927 -0.242123 -0.41941875 0.78186166 0.3903064 -0.9377305 -0.53110915 0.47649807 0.47923484 0.3110068 -0.07356805 -0.8032468 0.42777124 -0.14150964 0.4839757 -0.056669153 -0.6802759 0.47868904 -0.2440506 -0.34481508 -0.68113697 -0.16126277 0.3931894 -0.66613066 0.3523719 -0.33135194 0.21059465 -0.43193802 0.14353998 -0.2652794 -0.61669874 -0.70646346 0.028570706 -0.064903215 0.2702511 0.09561778 0.59093165 0.14268093 -0.7026097 -0.0063948072 0.32528386 0.56179166 0.5782469 0.12576596 0.37986064 0.5625024 0.2438184 0.9918643 0.05169669 0.6478706 -0.38154334 0.053986244 0.47473693 0.42792064 -0.121447824 0.6586967 -0.64325356 0.089876644 0.20295437 0.022413231 0.43209946
5612 -1.1777654 0.38250706 -0.3255706 0.24926111 0.4832196 0.48507136 0.18619424 0.20952368 -0.25228834 0.16843444 -0.097789764 0.28049278 0.08127933 -0.21472932 -0.8636221 0.48358512 -0.65292084 0.6588389 -0.18096687 -0.16231114 -0.49503446 -0.18206075 0.34775722 -0.45613757 -0.285569 0.047673475 -0.10590803 0.31758824 0.15368503 -0.24411908 -0.5918639 -0.17379966 0.6353526 -0.096367635 -1.0697135 -0.5145495 -0.4531533 0.23630038 0.079906486 0.58436435 0.19691813 -0.15863393 0.2185129 0.2702805 -0.07869162 0.31148756 -0.36406085 -0.04619547 -0.07051386 0.5772654 0.62475085 0.017126448 0.95763016 -0.30689847 0.35875633 0.41896394 0.6245659 0.018956937 0.6061481 -0.22036806 -0.2096159 0.10767845 -0.1685229 0.46905294
3193 -0.8998543 0.6964881 -0.35644144 0.7495381 -0.052631125 0.287066 0.3139096 -0.4237068 -0.33928406 -0.115077935 0.043432765 -0.030545114 -0.22259378 -0.86768556 0.036099523 0.20376176 -0.7142339 0.4824025 -0.28887063 -0.11955008 0.3803009 0.11084525 0.06552117 -0.27475685 -0.5276581 0.400998 -0.05707545 0.011581312 -0.5391121 -0.45631957 -1.2641414 -0.1094349 0.14234804 0.41740415 -0.51373726 -0.683612 -0.363186 0.110792436 -0.045165442 0.22451141 -0.29600322 -0.49424854 0.14933352 0.2308071 0.2526815 0.42619416 -0.38620377 1.0047821 -0.46430922 0.0983159 -0.46989214 -0.049594197 -0.021935763 -0.064105414 -0.14114708 0.1901036 0.14682649 0.5281031 0.2920484 -0.37191638 0.1052915 -0.33059523 -0.08916356 0.21018246
5776 -1.3653331 0.90409225 0.0478519 -0.121077254 0.33664235 0.08546527 -0.9430356 -0.08073018 0.89858264 -0.3010015 0.33631524 1.110608 0.6360321 -0.6082217 -0.64612 -0.31716877 -0.76537997 -0.53428566 -0.80195457 0.034377236 0.20102167 -0.3893749 -0.30426732 0.46395218 0.5669029 0.7813574 0.15520307 -0.55902535 0.15462452 -0.39822415 0.43076533 0.5302536 0.40745965 -0.95089626 0.42846805 0.2952943 0.14067087 -0.4720271 0.3932959 -0.29738483 -0.18085153 -0.7328441 0.5397212 -0.24354634 0.38201395 0.9853331 -1.2659186 -0.15914445 1.1138638 0.6058108 0.013481912 -0.86078316 0.6898441 -0.22747132 0.31658292 0.22359185 0.74390274 -0.014140414 0.38279012 0.106449045 -0.909014 -0.07156162 0.08270407 0.14191058
4931 -1.2627485 0.72913224 -0.010001788 -0.29773712 0.18391706 -0.51290137 -1.0551169 -0.60962087 0.1997133 0.14627342 -0.17391095 0.87203205 0.019901982 -0.95793957 -0.6179097 -0.079496466 -0.61793053 0.06302277 -0.56300634 0.09140382 0.66001207 0.043802574 -0.104023345 0.5472754 0.6410316 0.31890333 0.3953589 -0.1387863 0.4688396 -0.47782543 0.6523576 -0.4607509 0.48614255 -0.72808814 -0.13756536 -0.17781885 0.37795356 -0.4105658 0.15690883 -0.9206042 0.031786848 -0.452577 0.09409582 -0.1385727 -0.04313251 0.87376267 -0.7498945 -0.06674252 1.3113989 1.259628 0.27851444 -0.6742512 0.30803677 -0.82239234 0.6570142 -0.2827642 0.14961618 -0.5238946 0.4780114 0.43691692 -0.5612834 0.11723433 0.14467473 0.3956254
555 -0.9714937 0.86715597 0.062670246 1.1990052 -0.27231935 -0.89368755 0.6739589 0.41820747 0.37016046 -0.39541262 -0.5333842 -0.29907775 0.14554478 -0.48544413 -0.46000817 -0.48631227 -0.25546157 0.58322424 -1.4397486 -0.37534314 -0.9656995 0.05040581 -0.7140132 0.65134305 0.16162446 -0.6573445 -0.47418275 -0.36564022 0.086556375 -0.24290963 -0.20799124 1.0666424 -0.28885546 -0.9233115 0.10869456 -0.97829163 1.3044392 -0.0033617713 -0.8560551 -0.2962896 0.3690943 -2.0228596 0.6076104 -0.004389555 1.1867971 -0.41427693 0.011034275 0.23006107 -0.08218088 0.9633586 -0.6183101 -1.3381909 0.25151926 0.46408057 1.1721696 0.7124526 0.32643983 -0.015479082 -0.21839526 0.50446975 0.8446229 -0.734588 -0.8167619 -0.6182101
2070 -0.21767554 0.7135781 0.12566726 0.9717445 -0.1703168 0.23340924 0.6058869 0.37655377 0.07674111 -0.27416974 0.8468829 0.058491312 0.4084335 -0.76757824 -0.5839412 0.79825276 0.078686245 -0.45905453 -0.56302893 -1.1721679 0.6814784 -0.23743227 0.329164 -0.020543199 0.03623745 0.5358903 -0.036496054 0.7485721 -0.15167813 -0.20559983 -0.6542667 -0.27360895 -0.47961792 -0.33602473 -0.13913783 -0.61021656 0.11363577 0.057143707 -0.78292376 0.25257993 -0.27363923 -0.3351175 0.3465802 0.37343526 0.25006896 0.22859095 -1.1386117 0.45379835 -0.37031534 -0.17475012 0.5687038 -1.0410168 0.1625474 -0.46811613 0.075398155 0.47645274 -0.44381496 0.047149338 0.5673932 -0.10691765 -0.15871109 0.049239635 -0.45915347 0.056394484
501 -0.22996752 -0.5142311 -0.67437285 0.036744274 -0.47918713 0.075251415 -0.9771614 -0.40479976 -1.0082422 -0.6691309 -0.15355131 -0.2846876 -0.23103996 -0.086774416 -0.02857583 -0.96826506 -0.6225592 -0.105663426 -0.2267976 -0.115540504 1.0026507 -0.95290804 0.33947706 -0.049951643 -0.115394264 0.653052 0.58957005 -0.91550124 -1.1074083 -1.2984165 0.69044626 0.2662775 0.19799705 0.5702581 -0.040055353 -0.4265057 -0.092312954 0.8143757 -0.62095916 0.30561355 -0.058481723 -0.30674464 -0.2833859 -0.4761945 0.8852778 -1.1131182 -1.0358208 0.897383 -0.086500034 0.32987747 0.23169637 -0.31849307 0.28219694 0.023946363 0.64756805 -0.028532134 0.4147077 -0.41777435 0.42722946 0.6793594 -0.13630772 0.2820495 -0.8879265 0.8084522
6583 -0.71525395 0.55455285 -1.1616616 -0.023566667 0.3380121 -0.7796071 0.42550895 -0.15720874 -1.4691844 -0.48029196 1.0323124 0.7563722 1.0079964 -1.2120175 0.3462217 -0.22843222 0.30049226 0.67552245 -0.29160202 -0.48989317 -0.4584013 0.47048604 -0.061118674 0.37804556 -0.42637548 0.5770725 -0.12544572 0.35928378 0.060335323 -0.51707715 -0.10092892 -1.0980885 0.31978878 0.653101 -0.48138037 -0.02941395 -0.24490622 1.0074018 0.18735191 0.09659881 -0.114219464 -0.86249197 -0.33048686 -0.19396432 0.90818214 1.206465 0.54443496 -0.025720308 0.8304272 0.21379888 -0.27559784 -0.8273963 0.32180497 -0.2671084 1.3390877 0.22218092 -0.8477418 0.39358294 0.03481773 -0.2711915 -0.29910558 0.64802843 -0.11702067 -0.41495577
6034 -0.078947194 0.35814935 -0.46591187 0.119037256 0.28658372 0.66569805 -0.2732429 -0.020004068 0.22079891 -0.18762055 0.69237006 0.19928177 0.3617072 -0.5634791 0.5520322 0.4423285 -0.2511128 0.024213156 -0.019347288 0.07903754 0.3951985 -0.18575825 0.35221025 -0.07814913 0.23167898 0.015397755 -0.6220919 -0.7233161 0.69666415 -0.5559195 -0.50803244 0.06886303 0.973894 -0.40394792 -0.6946939 -0.45983016 -0.71950084 0.9853956 0.76817685 0.06273881 -0.09772404 -1.244714 0.46819478 -0.05072736 0.17995821 0.29407588 0.27170148 -0.3674388 -0.22305878 0.26997387 0.582003 -0.08930505 -0.78877497 1.2393234 0.89393115 0.80463094 0.36852416 -0.11837492 0.5423454 0.20806539 0.5730583 -0.14181691 -0.6806163 -0.08331435
304 0.43075827 0.1571676 -0.8207433 -0.17828637 -0.15584508 -0.20669065 -0.39179245 -0.5057287 -0.16832376 -0.6778888 0.07480542 0.17792627 -0.0724482 -0.35353658 -0.59628075 0.2489697 0.469881 0.2849892 -0.45525613 -0.38579562 -0.43470976 -0.39185897 -0.04439174 0.44656715 0.54923815 0.2695736 0.007907381 0.82328236 0.64849234 -1.1134175 -0.6693294 -0.028537313 -0.75603604 -0.43773744 -0.22419891 -0.12223942 -0.50327784 0.41753927 -0.58560514 0.066580206 0.16375475 -0.17623381 -0.48938826 -0.33644986 0.4358614 0.30554134 -0.8555965 0.2815718 -0.6286313 0.0028924153 -0.83426577 -0.56911474 -1.0882946 -0.10637387 0.08163143 -0.6813642 1.2520647 -0.31102723 0.65381074 0.83720607 0.054971386 -0.13067979 -0.63182837 0.3130764
7498 -0.4306001 0.05652678 0.30384615 -0.09116795 -0.34748474 -0.11839491 0.328936 -0.9566254 0.9013569 -0.2933049 1.1174423 0.3314772 0.46394855 0.08292034 0.55304575 0.018916832 -0.21721402 0.90873164 -1.3502762 0.16453554 -0.13402604 0.100142635 0.3861874 -0.052414402 0.36458004 0.83498317 -0.32211074 -1.5519502 -0.063154705 -0.089589655 -0.27855715 -0.17040673 0.016736448 0.06698347 -0.54609627 0.43421963 -0.7650331 -0.47179553 -0.24696612 -0.15742375 -0.013340381 -0.32252905 -0.6984829 0.09709931 0.9676419 -0.7746912 0.08876252 0.13485506 0.79235727 0.5442883 1.06807 -0.66701704 0.84896994 -0.09072078 -0.07189951 0.30637756 -0.5106215 -0.027778635 0.2172157 0.11309958 0.87563014 -0.068986885 -0.9740941 0.08023838
4199 -0.0046298383 0.35027713 -0.41127917 -0.43061495 0.041021086 -0.14819962 -0.026570888 0.2554036 0.61058646 -0.51390755 0.32372034 0.18442768 -0.033647913 -0.68615013 -0.52231646 0.1377612 0.3884175 0.056582972 -0.22566515 0.6635831 -0.54312205 -0.74624 -0.025990516 -0.06843266 -0.7874627 0.45213985 0.19302136 0.19454233 -0.31478348 -0.16392627 -0.06863755 0.5229894 0.12650976 0.36376292 -0.24377741 -0.9334332 -0.41715866 0.29575756 0.1976806 -0.49299273 -0.5686315 -0.649327 0.37829137 -0.5881895 -0.44300193 -0.29740024 0.11416666 0.3549326 0.28160375 0.40803644 0.34489608 -0.3598781 0.6173997 0.37688017 0.46962997 0.2144905 0.49482754 0.20181324 0.7736095 0.28418556 -0.63783145 -0.48490334 -0.13644405 0.026894832
1862 0.37952158 0.11003828 -1.0799198 0.4195052 0.3435922 -0.3881166 0.45599106 0.12481869 0.36771724 0.13935654 1.0789548 0.68918025 1.3052807 -0.14176951 -0.32881293 -0.32873836 -0.49810746 1.0309583 0.092201225 -0.6737862 -0.5747692 0.2861138 -0.43737012 -0.79342234 0.21788292 0.12610638 -0.42255038 0.07743275 -0.19308229 -0.08427893 1.091995 -0.121010534 0.32045048 -0.2189514 -0.4874088 0.17057997 -0.11570291 -0.098969854 -0.78591883 0.08111711 -0.43024635 -0.08806339 0.37310818 0.3729858 -0.27245766 -0.71727043 -0.3994237 -0.000592866 -0.056143824 0.1998186 -0.4586005 -0.08603998 0.48502803 0.7593038 -0.6820926 -0.9847295 0.033285584 0.6010407 0.5206724 0.8556275 -0.055134296 -0.40115872 -0.75654817 0.24589895
5347 -0.60186523 0.5327225 -1.1017827 -0.25407016 0.6177615 -0.38707972 -0.80884993 0.11657923 -0.02836505 -0.266352 0.18763779 -0.047900043 0.16359335 -1.0909889 0.38141325 0.41023633 -0.10069578 0.27477264 -0.54658955 -0.99828523 -0.08495407 -0.20747912 -0.6918696 0.043325502 -0.76146346 0.15437596 -0.73769045 1.2220911 0.09127752 0.0462783 0.60918516 -1.1110688 -0.0054785595 -0.1279052 -0.38072437 0.11709082 -1.0138031 0.8899162 0.21129212 0.3537799 -0.037929285 -0.1790832 -0.12953518 0.23447794 0.871455 0.5742232 0.7565452 -0.09876235 0.22527465 1.0277678 0.24009436 -0.64591026 0.3019683 0.020262646 0.822683 -0.24307421 0.04555547 0.51931095 -0.2635026 0.546857 0.30425143 -0.38908073 0.34037963 0.010298707
7984 -0.14820407 -0.27011955 -0.36589196 0.002099023 -0.4795518 -0.09699356 -0.2140376 0.93665916 0.09317198 -0.429603 0.29867432 0.5575953 -1.0825789 -0.9823888 -0.5928605 0.3988549 -1.0183524 0.79062444 -0.6460876 -0.8281606 0.36631233 -0.5261575 0.032715645 0.6428979 0.29090706 -0.059124682 -0.9089959 -0.8783247 -0.77830595 -0.7703309 -0.5465379 0.60938567 0.5192909 0.2903885 -0.54960203 0.1985513 0.37135553 -0.031498566 -0.4287559 0.35024032 0.36576238 -0.1766984 0.0740158 -0.5063946 0.20530623 -0.50727916 -0.37096015 -1.3103122 0.89236903 0.2866664 -0.5253733 0.15927209 -0.21508223 -0.5286399 0.31138808 0.4619691 -0.15192787 0.20219256 0.11456454 0.6007951 0.68652135 -0.7640833 -1.1360172 0.1660716
7648 -0.23530813 0.34937423 -0.77029526 -0.60997504 -1.128913 -0.078599334 0.038106374 0.3582582 -0.27075487 -0.6109039 0.44673115 0.12168904 0.73182744 -0.34215656 -0.23110361 -0.9765928 0.6607956 -0.09766364 -0.60945547 -0.28252953 -0.7032646 -0.30857503 0.36312765 -0.3083294 -0.362914 -0.1891423 0.11533255 0.20640256 0.13620386 -0.21078975 -0.7362623 -0.38539058 0.26217762 -0.117461756 -0.9270814 -0.3542808 0.5202904 -0.3527657 -0.41268227 -0.30040744 0.49511015 0.716841 0.14124896 0.28269726 0.13110682 -0.3144565 -0.7236817 -0.10110843 0.57416147 1.5706452 0.40395942 -0.81758976 -0.522555 0.25043163 0.18000844 -0.31837207 -0.42066792 -0.17710482 -1.2421694 0.18771972 -0.14298691 -0.55345595 -0.48809144 1.2774476
7923 -0.9851408 0.2072042 -0.6003515 0.0010828414 0.43447378 -0.19580144 0.445421 -0.28772753 0.24715053 0.65120804 1.1321424 0.21103092 0.24023315 -0.16330203 -0.29311693 0.09155857 -0.8227752 0.2072868 0.20656309 -1.5094551 0.45051447 0.7847791 -0.21352667 -0.22783406 -0.8065877 0.42174736 0.51398313 -0.833928 -0.49805698 -0.27035072 -1.0489011 -0.029475868 -0.3611775 -0.5497829 0.8138614 0.12038728 -0.47329783 0.07036498 -0.26107615 -0.48332512 0.92185646 -0.04498112 -0.24804382 -0.2212454 -0.5008188 -0.40382916 0.14638779 0.08026056 -0.7048276 1.438001 0.31514567 0.6152264 -0.23632523 0.3363071 0.55437297 0.43491566 0.45121947 0.1300465 -0.019199815 0.73221475 0.63980883 0.10389607 -0.9701933 -0.026881652
3240 -0.2253248 0.17800277 0.0693124 0.2351205 0.118986346 -0.49677184 -1.0576621 0.5102356 0.56548434 -0.5565017 0.60043013 0.43981677 0.11979131 -0.62075907 -0.097121306 -0.9092072 -0.36910394 0.042016793 -0.2426547 0.2246196 0.3433835 0.44387183 -0.0025317736 0.04715193 -0.0671434 0.8882674 0.0024870194 -0.68915516 0.15352003 -0.8978268 -0.20511907 0.6023028 -0.9820433 -0.83726555 0.045072306 -0.026837597 -0.20222285 0.16605361 0.06566775 0.19471703 0.30307433 0.47122297 0.19327477 -0.5136109 0.28251004 -0.5487159 0.8977009 0.6079672 -0.3908383 0.2570108 -0.5200146 -0.6103456 -0.5912793 -0.15522198 0.4738353 0.162293 -0.17310077 -0.78679234 0.57238126 0.065510765 -0.4988218 -0.304704 -1.3834025 0.6105362
5342 0.1920399 -0.59743404 -0.22208317 -0.49057332 -0.52366114 -0.80022717 0.0031140505 -0.07516384 0.6136757 -0.15121937 0.53593147 -0.066814974 -0.78654075 -0.24346037 -0.30324218 -0.8489157 -0.40401638 1.1136159 -1.4718509 -1.0862985 0.93998957 -0.2702151 -0.7951373 -0.1508887 0.105978124 0.79552627 0.15752475 -0.4152407 -0.5618035 -0.55016613 -0.024182111 -0.21704215 0.723649 -0.2725007 -0.12749885 -0.7424991 1.1021847 0.21967052 -0.086161934 0.30427048 -1.092643 -0.4616349 -0.06165463 -0.85730857 -0.25573212 0.5371549 0.3635986 -0.5870593 -0.5066266 0.9096405 -0.09370829 -0.4594234 0.046124674 -0.043401007 -0.68403333 -0.27644992 -0.13831829 0.11187326 0.27040443 0.3906943 0.7958782 -0.06064015 -0.67275923 -0.0006008328
3973 0.8397815 1.3377409 -0.34099063 -0.77714115 0.32547563 -0.32108986 -0.33772847 0.21357647 -0.077327356 0.3095564 0.61507905 -0.03976669 0.08732195 -0.44511634 -0.44950697 -0.75903153 0.092392884 1.4674226 0.17048194 -0.28991073 -0.099337265 0.25030565 0.91536546 -0.12521441 0.04241605 0.31662288 -0.15407577 0.3140447 -0.60523874 -0.87857455 -0.05512447 -0.21989329 0.30581236 -0.03760061 0.69404227 0.60432184 -0.6090957 -0.7772126 0.04944992 0.82114863 0.2342101 -0.5080244 0.3680257 -0.2117463 0.5112591 0.21261095 -0.32077637 -0.4713915 -0.110729605 0.37684634 -0.42513993 -0.20642608 0.44251275 -0.63713515 0.79658973 0.61185527 -0.44335154 -0.58069277 0.26560774 0.7923406 0.25853032 -0.14343604 -1.3234215 0.80108917
57 -0.45613417 -0.71762764 -0.3642033 -0.19356936 -0.407853 -0.41451207 -0.009280149 -0.18068855 0.6153845 -0.24729487 0.8995598 0.2809083 -0.45217064 -0.6194434 0.136276 -0.2008781 -0.82019866 0.059548873 -0.2722595 -0.41597474 0.22696601 0.07716615 0.15908512 0.091487445 0.2792333 0.0052534943 0.45760936 -0.600009 -0.4398001 -0.68523777 0.04985476 0.61652106 -0.22910976 -0.010349448 -0.026924716 0.033922523 0.04091057 0.23063555 -0.20997146 0.074634574 0.03653146 -0.2845085 -0.41253957 -0.17350946 0.005067103 -0.0446984 0.14572813 -0.88487625 0.85622597 0.5528906 -0.6943675 -0.16674699 0.3133676 -0.47629738 -0.3563828 0.5999867 0.16709845 -0.15917563 -0.14613812 0.25994468 0.7694216 -0.36229563 -1.2552645 0.42928952
5140 -0.08384492 0.0014944685 -0.3314372 0.5797546 -0.05387791 -0.008760233 0.021842666 0.053028587 -0.88036144 -0.6105799 0.1783909 0.10624651 0.02160223 -1.0696363 -0.38277936 -0.5759519 0.35811964 -0.17663233 0.4785797 -0.017882897 0.25523746 0.08827116 0.111582614 -0.16292052 0.030599143 0.24594317 0.27126572 0.54269207 0.2901646 -0.69797355 -0.2029708 -0.3632052 -0.013591038 -0.14380799 -0.20065612 0.33472443 0.33183268 0.43611374 -0.41022125 0.015996315 -0.12033609 -0.3060073 -0.15773028 0.35095617 1.2193557 -0.199336 -0.93692136 -0.07286921 -0.3321699 0.053105272 0.10264858 -0.51192415 -0.6349178 0.19728577 0.15034498 -0.39167884 0.46272302 0.030554565 0.9456424 0.06510009 0.025063058 -0.4254164 -0.9334772 0.014971307
3421 -0.2280754 0.44785485 0.079154514 0.8817245 -0.53025675 -0.25205603 0.045350872 -0.25594684 -0.09338746 -1.0433955 0.09500557 0.13577121 0.004959063 -0.47783473 -0.23506767 0.8802862 -0.25367284 -0.3896002 -0.45073256 -0.08630112 0.46296424 0.5258236 -0.14632441 0.42572474 0.23894757 0.700974 -0.2763597 0.97775567 0.26027378 -0.09678222 -0.25864047 0.38089943 0.32406253 0.18635973 -0.25401157 -0.71072644 0.012058126 -0.5516096 -0.4921603 0.14286534 0.16451265 -0.1718154 0.41089702 0.20042486 0.6476352 -0.009105978 -0.41652307 -0.16243681 -0.79159373 0.22373295 0.53124547 -0.17663266 -0.10744541 -0.04474318 -0.13037819 -0.039404493 -0.35047156 -0.019247495 0.02702054 0.28029835 0.13437855 -0.30455366 -0.35711646 0.30149236
6861 0.11175075 1.0758601 -1.1559907 0.5165176 -0.7336492 0.6926306 -0.08016629 0.8245321 -0.60991883 -1.1584936 -0.20467253 0.12234204 -0.1463917 0.16024883 -0.27718642 0.80258477 -0.887434 0.7233248 -0.8360309 0.5166146 0.014406398 1.0486135 -0.22086522 -1.133602 -0.35140395 0.77666324 0.07407939 -0.112562016 0.5247786 0.61286 -0.25686416 0.14097628 0.2085054 0.16445258 0.26385918 -0.08936804 -0.38502574 0.17976303 0.33561626 -0.5043822 0.6663937 -0.1631493 0.18615521 -0.9773512 0.7232649 0.66419816 -0.78396577 -0.24866183 -0.53410745 1.0958966 0.17933396 -0.4714356 -0.5226244 -0.3833144 -0.5145899 0.16560647 -0.13956875 0.021289524 0.49445245 0.18008232 -0.5265527 0.78068197 -1.0079194 0.034958307
3039 -0.18774125 0.23546991 -0.74992377 -0.66014516 -0.1692985 -0.58503294 -0.12314976 0.46670166 0.047893252 -1.3953632 0.3369435 -0.3328838 -0.44507495 -0.013654692 -0.8086758 0.0022276733 0.6737475 -0.122957 -0.15434512 0.80408746 -0.30327174 -0.512223 0.6060463 0.022104513 -0.6271601 0.8382319 0.16147572 -0.50256824 -0.4937695 -0.2934552 -0.1696957 0.29698968 -0.07632221 0.55031973 0.24547023 -0.5390054 -0.43779936 0.09577186 0.033632793 -0.50907725 -0.21492562 -0.69226754 0.7803825 -0.18994729 -0.19941768 -0.53490776 -0.39856502 0.08189162 -0.29742482 0.7766711 0.81857747 -0.39835835 0.385611 -0.16822036 0.57325894 -0.123125724 0.4152293 0.15334228 -0.014383771 0.230921 -0.07124869 -0.71418726 -0.24251486 1.2364372
7114 -0.21088392 0.026408281 0.2200445 -0.39991996 -0.67319894 0.11417768 -0.08649119 0.05718929 -0.21189147 -0.36173457 0.49280313 -0.08182198 -0.067479156 -0.3060061 -0.36275324 -0.07628449 -0.74683905 0.80549496 -0.48611632 -0.66430193 0.33428803 0.2583417 0.3225155 0.29093674 -0.23456633 0.040913396 -0.35071003 -0.5243346 -0.43309063 -0.5136034 0.41611603 0.619228 0.03800643 0.23451553 0.31366536 0.39407977 -0.069491126 0.087226994 -0.40357107 0.40913624 -0.33394003 -0.44896755 -0.5222195 -0.18723553 -0.17121352 0.7947557 0.12986526 -0.28425157 0.8327895 0.58312947 -0.8470971 0.22260305 0.11143089 -0.5492236 0.5130494 -0.013372874 0.20394681 -0.45657784 0.1774192 -0.009446887 0.9377975 -0.66071266 -1.6608608 1.0439528
5012 -0.46054903 0.17146471 -0.9643216 0.059336368 -0.15061168 0.08458547 0.17090225 -1.4680959 -0.33033466 0.19832979 0.13874425 -0.09833571 0.20534591 -0.25117525 -1.9562287 -0.3477912 -0.08637895 0.6695801 0.267711 0.04583952 0.11164299 0.575134 -0.5156268 -0.28575453 -0.27303132 0.9762369 0.74951094 0.25793675 0.32415074 -0.5937694 0.18793358 0.7125505 -0.50609785 -0.83940667 -0.44639194 0.28168052 0.78856236 0.4578778 0.36262646 0.3302981 0.012192271 -0.73148495 -0.090150625 0.07998368 0.14786555 -0.45767847 -0.2585343 0.31783986 0.4227412 0.24478227 -0.26562086 -1.346991 -0.7876992 -0.11015525 0.20221661 0.0027604236 0.0146363275 0.34946388 -0.07784163 0.59478074 -0.10800569 -0.18282807 -0.5503281 -0.1913703
2894 0.05006359 -0.017295301 -0.2622706 0.07165524 -0.12387495 -0.55958 -0.7436745 -0.51925373 -0.44860056 0.3680804 1.6457657 0.06637497 0.45944083 0.03645772 0.7864123 -0.032925043 0.44518667 0.8738693 -0.72354114 -0.14178436 0.3717278 0.52920073 -0.8342633 -0.90889007 0.9427183 0.3367317 -0.5485305 -0.5793882 0.24420793 -0.68586385 0.6706669 0.38486063 0.10623125 -0.91205496 -0.40536138 -0.48995548 -0.29127145 0.191458 -0.37220442 -0.067704886 0.00789116 -0.05038513 -0.0677653 0.45632133 -0.109049805 -0.5338926 -0.40883476 -0.27698058 -0.22369722 0.28773734 0.30575436 -0.34514168 0.08508175 0.19373666 0.112708636 0.16536158 -0.7296572 0.94771606 0.13542552 0.8598445 -0.13165942 -0.30098757 -0.41515774 0.5590377
5661 -0.23599157 -0.28535423 -1.0341036 0.3403956 -0.6122867 -0.16538982 -0.45090404 0.60374933 -0.8677098 -0.17546389 0.06274791 0.16329779 -0.007457773 -0.8815128 -0.5559431 -0.7495478 0.30830222 -0.16015892 0.5577341 -0.21876705 0.27819228 0.3040393 0.39445528 -0.20756117 0.17228167 0.5380449 0.3507 0.22152966 0.44598535 -0.68285626 -0.37111738 -0.6776588 0.09709513 -0.4096074 0.010028702 0.27212295 0.26597986 0.5970723 -0.53157884 0.23075773 -0.35734788 -0.41524225 -0.6169518 0.17498326 1.0175452 -0.00998687 -1.0493661 0.1465438 -0.21440291 0.14080021 0.28272226 -0.24270262 -0.5038281 1.0808004 0.24040926 -0.11959477 0.92658836 0.2959419 0.64990115 0.57056487 0.23626344 -0.18038875 -0.8949639 0.107943304
1836 0.18204206 0.13105159 -0.5883859 -0.36499274 0.359176 -0.03484836 0.0022770874 0.014968051 0.2858734 0.02220361 0.78340095 0.22588618 1.0890723 -0.8301937 -0.026574558 0.014586335 -0.17453144 1.3738377 0.13884956 -0.19708267 -0.3239249 0.349917 -0.66411316 0.017425815 -0.47529614 0.43031055 -1.2892109 -0.25408277 -0.26515692 0.05210947 0.8253129 0.42305338 0.6000098 0.0058436324 -0.41175842 -0.27175787 -0.15162107 0.049414944 -0.073144026 -0.10341766 0.044631418 -0.02510867 0.07853055 0.41578037 -0.43848726 -0.9282212 -1.075507 0.0847931 -0.016910698 0.59059095 0.4730506 -0.45811114 -0.33714235 0.19614379 -1.0388824 -1.0931252 0.13176438 -0.16283911 0.101955235 0.9603043 0.37684962 -0.51862955 -0.68959236 0.48207557
2598 -0.42460603 0.28031805 -0.35875076 0.83597815 0.058685526 0.13341492 0.047962543 -0.17269965 -0.42634237 -0.6356029 0.8800141 -0.8180794 -0.051635057 0.20986825 -0.67988807 0.09278586 -0.7199082 0.41072822 -0.35821304 0.62923867 0.49612245 -0.028829211 -0.029815776 -0.23400915 0.5459033 0.21293658 0.08187294 0.504258 0.28633195 -0.54674816 -0.6362426 -0.54645675 0.24402156 -0.80427504 -0.31659406 -1.8098799 -0.6252008 -0.4824025 -0.37788588 -0.059401464 -0.19908315 -0.41771728 0.7117775 1.0138133 0.21060687 0.36534983 -0.96045184 0.5960768 0.12680334 0.19298132 0.037219927 -0.49543405 0.6662301 -0.31056765 -0.3087645 0.18417758 -0.059907366 0.16472994 0.24978107 0.3182057 0.14860012 0.2515438 0.1607475 0.3261251
2340 0.3562922 1.3018397 -1.3413218 -0.42219105 -0.23931825 -0.4971856 0.11168054 0.05064237 -0.8960641 0.03781841 1.3103125 -0.40671197 0.20212334 -0.87186146 -0.64661926 -0.01461345 -1.1788398 0.7719627 -1.4004292 -0.035049886 0.64134043 -0.14209753 0.14093319 0.89455813 -0.20319793 0.03298287 0.7597553 0.120319374 -0.077629104 0.4740094 0.11069201 -0.41963574 0.46135965 0.33926886 -0.62042296 0.5224344 0.5956231 0.13986678 -1.2325882 -0.67310023 0.7862145 0.77363014 0.14391898 0.59557897 -0.28985548 0.3499503 0.3473067 0.023920165 -0.9053482 -0.1719996 -0.18603033 -0.20477512 0.0055744117 0.3490301 -0.17716156 0.326314 0.71834385 0.09444816 0.36623675 0.4411113 -0.72181076 -1.4041437 -0.69487166 0.5021167
1128 0.1608881 -0.42424303 -0.9266634 1.2026309 -0.69184566 0.54298013 -0.707877 -0.09275907 -0.3972057 -0.59861386 0.865124 -0.27497882 1.043612 -0.03574567 -0.6603621 -0.9344791 -0.77861506 0.30720165 -1.0437558 0.4236711 -0.7547148 0.036602117 0.08702976 0.282275 0.418205 -0.05760591 -0.22082902 -0.46955726 -0.56387985 0.411956 -1.2413927 -0.29438972 0.8563753 -0.8884072 0.56524664 0.08095916 0.25315297 0.15157665 0.5365097 -0.028426567 0.8565242 -0.026935466 -0.284344 0.1375281 -0.66403717 0.05202791 0.38586774 0.059629656 0.22587998 0.43584242 1.3426299 -0.9127157 0.991258 -0.43977445 0.39177215 -0.6582629 0.3610444 0.8770181 0.72499853 0.79042166 0.16984648 -1.4444621 -1.0716119 -0.65493375
6194 0.17631254 -0.88624555 -0.2108656 -0.5841303 -0.36252666 -0.4230336 -0.36201063 0.21031599 0.58630043 0.13987513 1.5125027 0.43426713 -0.42020988 -0.73382896 0.21445705 -0.940631 -0.16284548 0.98686284 -1.454933 -0.65777194 0.4991099 0.11528472 -0.25820783 -0.9546804 0.3385677 0.06533521 0.23453139 -0.31624013 0.13818975 -0.053965118 0.46463892 -0.025404394 0.31023413 -0.34646887 -0.6850799 -0.75926775 0.64783406 0.15737264 -0.1788978 0.41929525 -0.7836182 0.32325065 -0.027807822 -0.5131826 -0.3685679 0.023288148 0.2350038 -0.05353234 -0.18167166 0.9607422 0.0858538 -0.53724796 -0.2168818 -0.72647053 -0.55197275 0.21310233 0.16310757 0.998765 -0.26702592 0.62335616 1.1753588 -0.07757176 -1.1937732 0.024050651
4259 -0.38498548 0.4917736 -0.48481253 -0.24741456 0.66269004 0.29365173 -0.3994434 0.33043122 0.12319006 0.17080526 1.1183224 0.198948 -0.6189472 -0.746319 -0.5009002 -0.30517206 -0.76243114 -0.20630957 -0.35847798 -0.5407049 0.2999575 -0.30825013 -0.34968573 -0.4920224 0.09257125 0.691845 -0.38075706 1.2257102 0.057120997 0.31900814 -0.23075071 -0.15700586 -0.043642357 -0.34528962 0.052439 -0.09964955 -0.07947524 0.16563989 0.47571546 0.8314438 0.73877496 -1.3077738 -0.602099 -0.2574651 -0.020039769 -0.0015208311 0.016284479 0.9759455 -0.056715246 -0.007448366 0.635128 -0.123815745 -0.23739617 0.053107068 -0.057138715 0.22584304 -0.67855024 0.11723415 0.5060942 -0.10824167 0.509272 -0.34040427 0.10721111 0.7184372
6822 -0.21524939 0.20884566 -0.91821855 0.67883754 0.47761142 0.16043757 -0.61936617 -0.7727067 0.056494024 -0.018581264 1.2444428 1.0934366 0.10809591 0.27704507 0.34479028 0.47203022 0.71948606 1.0327244 -0.73982346 -0.026018547 -0.8585317 0.40635145 -0.25998077 0.12727897 -0.15687798 0.5088248 -0.2100257 -0.26591742 -0.44267058 -0.49315467 0.29089242 0.9398024 0.5590052 -0.34824812 -0.43432847 0.3462504 -0.13968757 0.09225679 -0.08421253 -0.0417671 -0.06997357 -0.46478873 -0.10463508 0.3382026 0.19461185 -0.44922832 -0.4185514 -0.611102 -0.050806962 0.65346384 0.4299647 -0.9036807 0.7459448 0.46738794 -0.72265995 -0.2945964 -1.0777924 0.35021004 -0.24755906 0.2667249 0.4265015 -0.06734963 -0.46372923 0.19584182
5790 0.032219104 0.9058929 -0.6043315 0.037040863 -0.09958108 -0.05091012 -0.6883065 -0.22593485 -0.56544334 -0.129034 1.0771025 0.5613475 0.12776613 -0.32983774 0.45308554 -0.26382554 1.1160389 0.48332876 -0.46027884 -0.08824588 -0.26772222 0.5124128 -0.2539784 -0.3074193 0.794756 0.063799895 -0.37848717 -0.6659744 -0.47090098 -0.8164609 -0.05722267 0.25230128 0.2514293 -0.6203768 -0.35812706 -0.280545 0.32499585 -0.06244707 -0.09155118 -0.6528193 -0.05531531 -0.24856444 -0.42098764 -0.21737361 -0.15524203 -0.8148258 -0.75544703 0.069246866 0.29782534 0.7992662 0.0029989318 0.0579531 0.08687032 0.46995857 -0.014316239 0.12736472 -0.6561842 1.1114509 -0.3602568 0.43332717 -0.41461608 -0.21151341 0.2204153 0.78450674
26 -0.36724168 0.46061727 0.052809477 -0.1348755 0.14315604 0.4840444 -0.2340131 0.07211321 0.0650909 -0.5865246 0.5294803 -1.0124547 0.45263618 -0.22367309 -0.2586646 0.6499998 -0.5925355 -0.16953045 -0.92891407 0.9185634 0.16783735 -0.19637138 -0.41593906 -0.11227874 -0.27177796 0.59611 0.10311268 0.48624143 0.11489967 -0.07968479 0.29162663 -0.14893666 0.49774218 -0.48960236 0.07347263 -0.19273725 -0.43413338 0.7272492 -0.33467045 0.30954638 0.47972468 -0.2953227 -0.64994097 -0.2087398 0.5075764 -0.16269471 0.1081211 0.5721558 -0.061865315 0.5250975 -0.19565973 0.1327521 -0.8484516 0.28647795 0.14576732 0.1333122 -0.0031576692 0.1639674 -0.19218898 -0.31142354 0.07856862 -0.23053174 -0.17569879 0.19556081
5696 -0.061022192 0.17864172 -1.011303 0.98480225 -1.1270975 0.056360953 0.15574543 -0.89518523 -0.50814915 -0.7751893 0.5515929 0.055055007 1.0111297 -0.99566156 0.065384634 0.31304228 -0.4358415 0.28595513 -1.0518534 0.019087682 0.87076336 -0.023094472 -0.43899193 -0.39210302 -0.5838296 1.4397005 -0.9722541 0.78789985 0.22617114 -0.15096317 -0.4635569 0.47064546 1.379441 0.14433818 1.2129033 -0.08781718 0.68063354 -0.3584583 0.38788423 0.29931182 0.4343427 -0.46970832 0.57624257 0.2712485 -0.25683546 0.2791138 -1.0267715 -0.20167175 -0.90139955 -0.3545476 0.8206591 -0.4758902 0.64769566 0.34644407 0.9627687 0.5184247 0.60844153 -0.037603196 -0.9191824 0.9861075 -0.8539345 -0.39516082 -0.7804175 -0.22428685
5330 -1.0168717 0.3507759 -0.644344 -0.8217146 -0.95211387 0.7760302 0.8799778 -0.5451459 -0.7124387 0.3104053 0.62173605 -0.54516226 0.36216938 -0.79692686 0.41028965 0.13669033 -0.77246356 0.31228152 -0.8641871 -0.31591284 0.65895164 -0.45913255 -0.4383679 0.2907023 -0.5953235 0.54014236 0.46843466 0.118528865 -0.025644207 0.8293612 -0.088939086 -0.48198894 0.08365558 -0.5268803 -0.56590533 -1.0920419 0.08265732 0.5292826 -0.6049037 -0.5299155 -0.21192643 -1.0166047 0.13660996 0.22277635 0.7189386 0.37605214 0.3341149 1.0577997 -0.672637 -0.19364795 -0.10936958 0.12456291 0.2510766 0.35512128 -0.17059208 0.5648793 0.36266112 0.24430458 -0.16484778 -0.13747759 -0.11271063 -0.37839437 -1.6294603 0.6142328
5497 -0.49953106 0.490592 -0.42995873 0.8227528 -0.275506 1.081297 -0.22460556 0.67672426 -0.4984649 -0.087390795 1.01457 0.28167725 -0.37018958 -0.037904628 -0.46642444 -0.3326808 -0.7027402 0.30986875 -0.36920294 0.12700121 -0.08822876 -0.043544967 0.22964178 -0.36792293 -0.17278543 0.1438937 0.2786802 0.5922252 -0.11431495 -0.14477769 -0.24397238 -0.263273 0.33165908 -0.44421083 -0.42311817 -1.2313455 -0.8161173 -0.38382697 -0.47631404 0.4294318 -0.124553114 0.37527213 0.41942766 -0.5402194 0.052908525 -0.06581807 -0.67244613 -0.17426552 0.35218862 0.08968685 -0.32049432 -0.14607216 0.4645806 -0.21031016 0.14879656 0.28030428 0.43810833 -0.38368624 0.5399094 0.108713396 0.9339042 0.0025494155 0.51798695 0.59090036
7135 -0.18868524 0.5789883 -0.6216288 0.8327648 0.10124142 0.39648366 -0.65824616 -0.2474789 0.10124452 -0.16929276 0.10440773 0.30867285 0.51208603 -0.49068806 -0.40509498 0.8136016 0.31299284 0.13763486 -0.6078675 -0.35703447 -0.38127178 -0.0112749245 0.762007 -0.33025113 -0.524489 0.6491069 0.93924373 0.020833064 -0.33390665 1.0132407 0.09657905 -0.3160925 0.15924928 0.11030802 -1.4286503 -0.716461 0.09043437 0.094665274 -0.34179425 0.664652 -0.63411695 -0.10362047 -0.51992667 -0.437264 -0.52707964 0.07389842 -0.5241247 0.47583482 -0.26646876 -0.18441503 0.12322671 -0.44444314 -0.5167494 -0.3920343 0.9040676 0.65607935 -0.1307356 0.2563044 0.36702245 0.27813482 0.059691414 0.21704175 -1.3503001 -0.18757315
4200 0.21371876 0.044208657 0.37722528 -0.08489859 -0.21998516 -0.454116 -0.23723304 0.5446684 0.8154631 -0.34773037 0.9861472 0.34195617 -0.21203493 -0.7608058 -0.334786 0.068832636 -0.29306513 1.0345889 0.31588244 0.26266935 -0.43511048 -0.33243886 -0.7853486 0.36847708 -0.052651007 0.5939684 0.56058156 0.8538086 -0.38094062 0.29355893 -0.44875595 0.51689404 0.83943415 0.2648027 -0.3334792 -0.9302665 -0.3315453 0.59411687 -0.29840437 -0.033244472 -0.62664104 0.0849158 0.27075154 -0.08878046 -0.19676466 -0.3314473 0.14031081 0.22759871 0.24100803 0.7918025 -0.11556683 -0.5472612 0.11708974 0.7607027 0.71427625 0.33320585 0.59212804 -0.33556527 0.49649164 0.36789107 -0.984601 -0.16734412 -0.0009916922 -0.28774202
5709 -0.09965415 -0.0934604 0.48807967 -0.17033888 0.39027682 0.2936651 -0.23544393 -0.5853836 0.030647306 -1.937176 0.19768153 -0.21011996 0.1984993 -0.8332855 -0.3740423 0.33096015 0.055501163 0.47905394 -0.00048704582 -0.6354099 -0.3240812 -0.5842912 0.5580118 -0.6159355 0.07304417 0.038423106 0.5974596 0.14065465 1.0943322 -1.4363623 0.22287062 -0.363864 -0.68026507 -1.0069785 -0.33487412 0.470824 -0.33717304 0.29576385 -0.35280964 -0.32497063 -0.9139387 -0.83209413 -0.76889807 -0.052145287 0.65614665 -0.51462644 -0.29932508 -0.2063829 0.031624313 0.47515216 -0.7391556 -0.75264555 0.4030619 -0.78788483 -0.21381254 -0.41747513 0.808905 -0.19423202 0.68964905 0.69184405 0.1888868 -0.09999362 -0.72968024 0.72730565
3998 -0.38895714 0.09295626 -1.6187028 0.19005096 0.40487868 -0.19815038 0.060961142 -0.2641121 0.47831324 -0.68232846 1.1743125 0.96834576 0.4383911 -0.109137446 -0.60098094 0.55284256 -0.005226179 0.79725933 0.11859782 0.17620338 -0.93556595 0.87682134 -0.35211942 -0.26032045 -0.4368276 0.45664313 -0.9525583 -0.76816696 0.048713617 0.2799691 0.9570614 0.5185305 0.34353822 -0.1966679 0.021801217 -0.28356892 0.018199414 -0.16938266 -0.67977816 0.46116358 -0.33463752 -0.29369456 0.57165873 -0.06716663 -0.5341313 -0.009565638 -0.36427462 0.070919536 -0.19239973 0.93905973 -0.048883513 -0.61395276 0.6004847 0.8391509 -1.365112 -0.9106466 -0.11419014 0.19412853 -0.116311416 -0.3619228 0.04016196 -0.968214 -0.9669701 0.22202559
1419 0.5762751 0.6251867 -0.21787278 -0.68926984 0.12954381 -0.44091955 -0.3600284 -0.07309824 -0.07194015 -0.51144534 0.20917709 -0.42207187 -0.18087374 -0.42073977 -0.517131 -0.5849959 -0.8243303 0.9824351 -0.23983385 -0.094304204 0.33982036 0.14340733 0.6075384 0.2910562 0.008764231 0.8303343 -0.6838895 0.12441562 -0.54301643 -0.6657986 -0.07603652 0.95852923 -0.5060454 -0.40204966 0.17256413 0.4582209 -0.43454906 -0.32898185 -0.42369914 0.85348403 0.25412765 -0.19648518 -0.43542266 -0.29285726 0.1583428 0.67686665 0.45127526 -0.40014246 0.53638107 -0.0051673683 -0.46515027 0.44304398 0.40286535 -0.15625641 0.7996069 -0.030151263 -0.0590377 0.17717521 0.12880574 0.046199307 0.26326555 0.19226274 -2.0561426 1.1153228
7100 0.15996762 0.3988484 -0.65802634 -0.6510475 -0.14045244 -0.09885128 -0.14933063 0.44441056 0.35602528 -0.67587787 0.93161935 -0.12597303 -0.39781356 -0.22907129 0.03165016 -0.55273235 0.327814 0.0015891232 -0.29946142 0.46765634 -0.60129046 -0.023974366 0.46381864 0.3040592 -1.0194392 0.6006584 0.6484899 -0.17224999 -0.27696708 -0.49342203 -0.2419646 -0.11736298 -0.4311366 0.18968579 0.6776572 -0.11240615 -0.10963594 0.21883045 -0.097816385 0.019021863 0.5831214 -0.24023749 1.0994236 -0.7713971 0.17864445 -0.14148326 -0.18774453 -0.14786725 0.40466207 0.29931504 0.39297786 -0.5447978 0.86519 0.5808667 1.0009801 -0.3427636 -0.007660599 0.52948713 -0.08996435 0.38283822 -0.088097446 -0.22562177 -0.64585805 1.4563348
6287 0.7533258 0.19500081 0.021833692 -0.5950774 0.44330025 0.06639018 0.14029168 0.31107008 0.33101434 -0.68045783 0.65446067 1.1684394 0.14765404 -0.8896168 -0.81977594 0.04810201 0.2664633 -0.13586196 -0.6727511 0.3192771 -0.7137099 0.22918826 0.020473957 0.02967071 -0.9833244 0.76068354 0.2784475 0.18367676 -0.737226 -1.1051618 -0.45705062 0.21666901 0.36252478 0.25174347 -0.55603987 -0.8335706 -1.0984589 0.010615893 -0.14192526 -0.69635636 0.29576495 -0.9505515 0.6099791 -0.28667682 -0.4255169 -0.039574176 0.14422831 0.4949259 0.07531815 -0.09488047 0.7987082 -0.7201686 0.51231545 0.24658535 0.7949688 0.07849433 0.63570625 0.32900262 0.30261222 0.39567795 -0.36973804 -1.4578499 0.22692376 0.318701
1485 -0.33109766 -0.2660438 0.43359637 0.022679916 -0.112293705 0.13683161 0.38042775 -0.5217937 0.35248888 -0.010672248 0.6724213 1.0415252 0.4922403 -0.86992586 0.5493008 -0.102877386 -0.98312235 0.9949907 -1.6073391 0.27547428 -0.81664634 -0.19127351 0.01675534 -0.6024095 0.13819487 0.66614586 0.55865484 -0.7458297 -0.27834168 0.27343628 0.2140566 0.68518925 -0.3866354 0.5047934 0.26763624 -0.05278795 -0.73991346 -0.7012292 -0.5990468 -0.5946207 0.7670805 -0.50886726 -0.59389997 0.28921154 1.0670071 -0.55675375 0.7916873 -0.00049297296 0.3720966 0.4245379 0.8035899 -0.43849614 0.34027764 0.12628481 -0.29280126 -0.41247392 -0.21099946 -0.25108618 0.72350025 0.54550946 0.7510074 -0.014086681 -0.78075844 0.13649215
554 -1.3928663 0.9966124 -0.3675383 0.28598392 -0.60550094 -0.8610464 0.1659233 0.27973068 0.6429908 -0.48078415 -0.45326936 0.20965639 0.32293564 -0.11086713 -0.4233447 -0.6190016 -0.13809836 0.55126464 -0.67517745 -0.6074597 -1.1055337 -0.040097713 -0.47697508 0.62111336 0.030908642 -0.62448996 -0.31245798 0.069000095 -0.2881768 -0.265755 0.27712744 0.7861791 -0.44276822 -1.1329887 0.21795085 -1.3272974 0.7303126 0.11837395 -0.6604901 -0.30179456 0.9232627 -1.695676 0.5733777 -0.028357847 0.68071824 -0.7347321 0.49685225 -0.35843515 -0.19515367 0.98723114 -0.9707972 -1.084361 0.33041778 0.3745742 0.65131944 1.1872313 0.38490912 -0.59608316 -0.079528905 0.27454203 1.191986 -0.5142336 -0.9379676 -0.35793197
25 -0.016043449 0.30379754 -0.785911 -0.3141774 -0.19695091 0.8174493 -0.15188348 -0.34554777 0.01838065 -0.39071345 0.20295851 -0.33031982 0.3589777 0.27327695 -1.2298318 0.41085136 0.17715052 0.16072407 -0.40436563 0.081018604 0.47719976 0.0011548346 -0.3087654 0.17827553 0.041401763 0.76395404 0.3232665 0.12062476 0.043065853 -0.1900166 -0.1439727 -0.27296346 -0.3286641 -0.50597715 0.098835714 -0.2545959 -0.5453249 0.24839266 -0.43808544 0.3141138 1.1403387 -0.08584452 -0.81139696 -0.28991762 0.28859565 -0.28830707 -0.2752025 0.20660111 -0.014233891 0.42502803 -0.49091825 -0.424065 -1.1604861 0.1951189 0.24309292 -0.4997458 0.39706734 0.48502973 -0.21508223 0.29204473 0.21086682 0.1690927 -0.24153778 -0.20530613
5708 -0.31464937 -0.09590757 0.29369172 -0.082240656 0.11131275 0.4575621 -0.5010395 -0.68781924 0.0900578 -1.8926955 0.2176818 0.00040038137 0.13132915 -0.603884 -0.34234518 0.26166004 0.20058051 0.76054263 -0.15097836 -0.8582017 -0.55110514 -0.7352568 0.7259798 -0.82531 0.46280205 -0.222843 0.9786368 0.29720622 1.0540332 -1.279589 -0.10486486 -0.4052327 -0.5448933 -0.82312393 -0.11799874 0.7177897 -0.1331603 0.013899231 -0.057657257 -0.36053836 -0.7726589 -0.85670245 -0.42985186 0.11658619 0.89264077 -0.40533304 -0.37506258 -0.40555254 -0.36220995 0.37326857 -0.57634336 -0.6683885 0.3219181 -0.33939826 -0.32632786 0.03649948 0.7572932 -0.24073859 0.5537251 0.86503315 -0.110428005 0.03284985 -0.85186166 0.5896642
2485 -0.0032591466 -0.10763798 0.34308746 0.25694102 -0.1228856 -0.44791925 -1.1634573 -0.22519514 -0.81776315 -1.0599899 0.4882145 0.410039 0.70729876 -0.60676944 -1.3988212 -0.84598917 -0.29113433 -0.10153812 -0.64304113 -1.0097725 -0.23682626 -0.7707784 -0.29829258 -0.38405144 -0.2656608 -0.007297408 0.28038207 -0.43715107 0.47468388 -0.61989826 -0.04627469 -0.31519565 -0.08726091 -0.47786254 -0.040954337 0.03834201 -0.052917182 0.045412134 0.30640504 0.076396056 0.81863046 0.64750296 1.1033949 -0.70464456 -0.16249469 -0.2127629 0.48593548 0.75751126 -1.0219042 0.9726573 -0.4016125 -0.16430555 0.22256905 0.38664013 0.061734747 0.5220666 -0.32879302 0.003442149 0.13105404 -0.53277683 -0.273024 0.62006307 -1.1941545 0.30436307
7115 0.59676874 0.16382588 0.2849691 -0.2914843 -1.1645998 0.35805923 -0.3833819 0.45529974 -0.41247362 -0.45678908 0.29858047 0.33122277 0.13745917 -0.59532726 -0.52361315 -0.2893186 0.0547045 1.3896445 -0.5309894 -0.58887714 0.32920972 0.17576748 -0.087321796 -0.31082553 -0.7821707 -0.2610397 0.08313502 -0.69862914 -0.11851263 0.16180232 0.11270586 0.1264636 0.11563435 0.0052893367 0.98068637 0.24348311 0.31204966 -0.04889016 -0.31216192 0.14107238 -0.56955945 -0.7377973 -0.16561805 0.06970975 0.3038492 1.039526 -0.48449448 0.32098287 0.6539167 0.982062 -0.6919106 -0.07827498 0.15245894 -0.9500001 1.0141947 -0.5549221 -0.065181375 -0.48742342 0.50620365 -0.12840536 1.6141766 -0.39982158 -1.7635516 1.0331327
1853 0.08083392 -0.39690974 -0.007942832 -0.3006833 -0.32951245 -0.37133604 -0.08015664 -0.8024214 0.8347637 -0.22310816 0.4222496 0.0072234794 -0.8777541 -0.28688848 -0.28388375 -0.39952177 -0.21430118 0.011186216 -1.8191762 -1.0904292 1.0001113 0.0611404 -0.52527326 0.28945422 -0.07751189 0.575043 0.28959846 -0.6171153 -0.8090634 -0.91534156 -0.12318722 -0.16652252 0.42978022 0.19767839 -0.31154692 -0.64579225 0.68658537 0.19820088 -0.38954052 0.38350648 -0.118680045 -0.7109656 -0.25666344 -0.7219272 0.07504636 0.42495602 0.48081362 -0.99597424 0.20467904 0.6112415 -0.39703265 0.1743313 0.5345922 -0.26615626 -0.3741988 0.058323205 -0.32440498 0.36808312 0.15315667 0.23021491 0.494052 -0.11008885 -1.249487 0.15330984
3410 -0.06690776 0.51208144 0.0034837523 0.70667523 -0.62145287 0.085018516 -0.34614232 -0.13662624 -0.15968357 -0.4010312 0.13823776 -0.4515176 0.07102711 -0.40295497 -0.2673655 1.107544 -0.11192529 0.2757313 -0.71700335 -0.49684125 0.110066704 0.1376942 0.25675932 0.7364032 -0.051669084 0.44982105 0.4447277 1.3040111 0.061011974 0.05641714 -0.28293732 -0.43646193 -0.085923634 -0.41843364 -0.07485021 -0.87130225 0.17863438 -0.33432826 -0.23768108 0.45181495 -0.5447501 -0.3642952 0.45370382 0.2314736 -0.27487898 0.18321063 -1.0291365 0.29157192 -0.21264061 0.25929618 0.23598194 -0.110901296 -0.39694747 0.024936188 -0.1772071 0.35833365 -0.5298988 0.0692035 0.6440012 0.04715433 0.42106494 0.15228578 -0.9543201 0.19223906
6106 0.06409209 -0.17449555 -0.4030319 0.046100527 0.25734398 -0.10736511 -0.525976 -0.5166822 -0.23434076 1.076241 0.8393607 -0.009463122 0.6515067 -0.7102917 -0.45497486 0.2306714 0.25761282 0.5550838 -0.23634708 -0.15767723 -0.56813306 0.31095976 0.2552968 0.53541917 0.34322783 0.65909934 -1.3988053 -0.5854419 -0.53899866 0.12622395 0.48705548 -0.16380666 0.10694005 0.05554955 -0.09330728 -0.40812427 -0.27227506 -0.30287057 -0.9738456 -0.04901 0.40833673 -0.556639 0.1302716 0.19053036 0.6620006 -0.5881372 -0.34495392 0.264762 -0.23380542 0.31021225 -0.5439199 1.0553921 0.6045188 0.062930666 0.34306684 -0.054460812 0.20623846 0.41207755 0.52918726 1.3422703 -0.4162635 -0.123555675 -0.4069115 0.7863753
4407 0.56184644 -0.57550305 0.085352086 0.08091998 0.037913855 0.7454479 -0.12402921 -0.064462185 0.011563543 -0.031025715 1.5216209 0.36428484 -0.48724458 -0.6235797 -0.59591573 0.7182706 0.34469494 -0.43188184 0.19570613 0.3537883 -0.6582647 -0.19931534 -1.3135427 -0.3552924 1.1304556 0.7658516 0.12336517 0.0822391 -1.1852518 0.6698153 -0.57589966 -0.060318835 0.5997654 0.026617385 -0.23514943 -0.66856825 0.014245917 0.6112655 -0.3731924 -0.034183435 -0.363803 -0.09781095 0.839769 0.5046094 0.47103557 -0.15203868 -0.11025895 0.012624128 -0.319929 0.9475716 -0.9785216 -0.04177066 0.41348863 -0.49048573 1.3561044 0.20374352 0.7230914 -0.4156085 0.51611793 0.85499173 -0.3396121 0.7169917 -0.9069721 0.6127895
3035 0.52981675 -0.21036635 0.42874756 0.8334617 -0.70389014 -0.5879938 -0.9518306 0.1016347 0.13927434 0.34938845 0.8566698 -0.5484684 -0.3127 -0.84774697 -0.9261582 -0.1889033 -0.39012235 0.4805775 -0.25309202 -0.48906216 -0.15905717 -0.2140541 -1.3294516 0.52200717 -0.9513998 0.78142005 -0.5451447 0.29267174 -1.1693448 0.7838095 -0.39466733 0.101777576 0.9657689 -0.8494297 -0.596167 -0.08185679 -0.42570516 0.8023762 -0.16910404 -0.8015274 -0.40805265 -0.5884764 -0.1971734 0.98770547 0.6266914 0.29882497 0.031031443 0.16869304 -0.28136614 0.96616673 -0.6565513 -0.43491933 0.51164603 0.2227226 0.14910762 -0.48813042 0.5313974 -0.22241186 -0.1955052 0.9278522 0.055171672 0.638675 -0.49851328 0.41751105
1863 -0.26181385 -0.40300074 -0.6211302 -0.22854605 -0.17547521 0.19694854 -0.14713243 -0.2828323 -0.20069678 -0.14697956 0.25366437 -0.20494351 0.0025612293 -0.2688622 -1.7105668 0.24434829 -0.31391725 0.09354822 -0.263433 0.2708776 -0.25950864 0.56577975 -0.3327509 -0.41702348 0.20971756 0.15090202 0.9024965 0.50222886 0.23227857 -1.1835741 -0.20283246 0.24846494 -0.4482962 -0.5715064 -0.21094328 0.3198899 0.20418112 0.65834033 -0.43505365 0.38422066 0.501213 -0.4550102 -0.8441054 0.60168284 -0.19229965 -0.5471127 -0.11918836 -0.28569937 -0.09209792 0.41074267 -0.50635874 -0.9459763 -0.7568546 0.36254594 0.1507231 -0.16292593 0.048847884 0.3305026 0.06683389 0.8315997 -0.036615312 -0.051286783 -0.28675455 -0.1485247
276 -0.23944934 0.33735865 -0.13667904 0.09305808 0.034685135 0.2567717 0.54867 0.16377243 0.029191712 -0.6455736 0.78790784 -0.041107435 0.49591404 -0.22563437 -0.47031537 1.0757172 -0.530389 0.6168508 -0.17696834 -0.32736677 0.22061825 0.4170871 -0.5610935 0.29763064 -0.3534333 0.044733874 0.31633654 1.2367746 -0.09326879 -0.7144213 -0.36973992 -0.11993284 -0.30130297 -0.3574289 -0.047364514 -1.0456054 -0.120516725 -0.078874014 -0.12761678 0.55294794 -0.20242672 0.072537 0.08946358 0.41291615 0.035761792 0.41332632 -1.0455464 0.2500687 0.32723677 0.50922984 0.64615405 0.49537483 0.31228855 0.125776 0.22546142 0.21951646 -0.09799608 0.10036118 0.3932382 -0.06994898 0.33084252 0.18123317 -0.23733053 0.48997918
3302 0.8645052 0.8672257 -0.015118078 -0.021174274 0.37140885 -0.58708286 -0.1276141 0.4098351 -0.8818711 -0.25873992 0.7491687 0.6034993 -0.00016030583 0.0447182 -0.34211677 0.042175747 -0.13040945 1.0548948 -0.113992766 -0.5758465 0.44283843 0.1268803 0.6538204 0.5254306 -0.4838605 0.07881685 0.13721825 -0.42671967 0.20901059 -0.27919382 0.09581222 0.3995466 0.7092082 -0.14646079 1.0187532 0.215188 -0.7140066 -0.32777372 -0.7675095 0.39687195 -0.5951055 -1.4453657 -0.98237497 -0.35853073 -0.41003338 0.6752262 -0.46206316 -0.7083038 -0.14171028 1.292973 -0.6634459 -0.7378721 0.6742235 -0.65740275 1.0634695 0.8863976 -0.043789703 -0.04000188 1.0757544 0.805119 0.5914023 0.012383972 -0.13457294 1.1241773
5599 -0.40180394 0.36467528 -0.13482085 0.65220255 -0.46826676 0.3605782 -0.46844134 0.30270743 -0.4131734 -0.5311983 0.6628823 -0.1071968 0.19520411 -0.16369791 -0.31831005 0.8547765 -0.65273196 0.1932795 -0.74062586 0.1306767 0.084106885 0.22315246 0.07578975 -0.14141423 -0.2727713 0.16283098 0.43555343 0.28525236 0.3092247 -0.01544429 0.18416151 -0.04005442 -0.20581841 -0.6072388 -0.44473192 -1.1049688 -0.42886186 0.34284258 -0.0926229 0.24853854 0.061480615 0.16836806 0.041718066 -0.13151611 0.08224712 0.26637694 -0.3075988 0.016311122 0.47110423 -0.32966667 0.08628587 -0.054512482 -0.20651376 0.15550143 -0.06632563 0.6986216 -0.07383701 -0.5861008 0.08584877 0.14287433 0.49891233 0.13445252 0.14152107 0.55044043
4404 -0.16963588 0.3309758 -0.9415267 -0.9234927 -0.32778978 -0.14927197 -0.28057307 0.5929708 -0.1702109 -1.2596996 0.9305565 -0.0937078 -0.84417236 -0.016112508 -0.8267827 -0.081257 0.24906829 -0.46360263 -0.08196386 -0.06829727 -0.748935 0.004919805 -0.042646945 0.01779477 -0.8001877 0.6048587 0.20165591 -0.28775856 -0.33713332 -0.44900116 -0.07825563 0.118631124 0.16231745 0.124905474 -0.107194655 -0.1403094 -1.2018936 -0.19110626 0.31532973 -0.4025595 0.4527096 -0.8459857 0.9064622 -0.3693563 -0.0658941 -0.82692 -0.61157084 -0.22952773 0.31350148 0.28750846 0.72145206 -0.8812742 0.5471861 0.36647978 0.9755064 -0.14745376 0.1646845 0.13148691 -0.32547507 0.37220663 0.14438535 -0.8353304 -0.027042205 1.081446
4486 -0.42954206 0.5165538 -0.31290668 0.23822291 -0.2422059 0.36731622 -0.21810846 -0.47620404 -0.39335462 -0.36322823 0.7150842 0.8428064 -0.42336747 -0.7765564 0.61306334 0.51387066 0.88877696 0.40066087 -0.47841698 0.3173805 -0.1519734 0.042425375 -0.62600726 -0.59994334 0.7226382 -0.10417899 -0.14942041 -0.6672438 -0.075955965 -1.1022165 0.41062853 0.094704874 0.7212851 -0.79649514 -0.26864973 0.4096692 0.57629687 -0.17807306 -0.40313557 -0.17501047 0.33092868 -0.26631263 -0.5426494 -0.12026456 0.006844892 -0.25463453 0.17636083 0.261184 0.61911225 0.54995203 0.58106434 -0.90199524 0.7770511 0.54976237 -0.05464125 -0.19936772 -0.5659344 0.39317507 -0.18845665 0.32694468 0.14837372 0.3100805 -0.22364138 0.3955948
4556 -0.54651904 0.40211993 0.36212817 -0.16859384 -0.026257297 1.5096422 -0.19798775 -1.0335379 -0.13896093 -1.3315294 1.3067185 -0.83683497 -0.24248934 -0.37951374 -0.66137576 -0.016545936 1.4051551 -0.077751555 0.8597339 -0.47024342 0.32268304 -0.75828433 -0.0697228 -1.2116191 -0.112165675 -0.28393498 0.3168929 -0.131789 0.317781 -0.4632761 -0.05003938 0.4953902 -0.30345985 -0.9140269 -0.24600066 -0.08929984 -0.643145 0.9049187 -0.23723313 -0.10371133 0.10270872 -0.5533644 -0.07001075 -0.29157618 0.4978811 0.28863576 0.1474383 -0.2219934 -0.85965663 -0.054198187 -0.14019969 -0.65597695 0.14837609 0.08848321 0.10560107 0.2771798 0.28944388 -0.57082415 0.40237436 1.3374753 0.47445208 -0.7619309 -1.1233156 -0.03708271
4094 -0.18886298 0.47519898 -0.32056418 -0.7971457 0.09710533 -0.40341693 0.28572845 -1.3317707 -0.8654793 -0.36370954 0.4218676 0.510605 0.18508919 -0.6374076 -0.57040894 0.1300502 0.52774626 0.28219476 -0.8872022 -0.26233757 -0.25390357 -0.49860126 -0.13275857 0.022647161 0.48886436 0.7755868 0.28699034 0.34000492 0.9572115 0.0069493563 -1.1540824 0.4304862 -1.0197767 -0.027157102 0.016520519 0.387421 -0.33246058 0.78110045 -0.005729967 0.17775947 0.25811866 -0.2834218 0.27151805 -0.865454 -0.33504373 0.22503094 -0.9943911 0.36493778 0.30079305 0.5225292 -0.44497615 -0.44824064 -0.666816 0.049358204 0.004025646 -0.61657774 1.3520637 -0.0026654322 0.1908782 1.0937726 0.5869433 -0.23942548 -0.78219604 -0.4362027
682 -0.09223467 0.45766652 -0.34556282 0.83394736 0.097020514 -0.0056211594 -0.42449516 -0.93807197 -0.40750167 0.12516503 0.93567777 0.7253737 0.11097543 0.16184391 0.6175604 0.036576223 0.6530921 0.97798604 -0.6998847 0.35576698 -0.12373078 0.4010079 -0.54141873 -0.110103376 0.60818183 0.35769078 -0.3586312 -0.59781784 -0.16837548 -0.3838456 0.3403388 0.35298377 0.45131126 -0.7183426 -0.40119523 -0.2931991 -0.14961715 0.063894294 -0.20282798 -0.19692712 -0.06656167 -0.50809985 -0.69482386 -0.20203379 0.54564047 -0.48302093 -0.23812366 -0.49374393 -0.39748028 0.2837801 0.38534385 -0.7775397 0.663095 0.42440766 -0.1877436 -0.13878088 -1.0429344 0.65834177 0.24841255 0.38207445 0.14117202 -0.35540214 -0.23364566 0.5618101
1487 -0.21255012 -0.20119062 -0.08839072 0.2890984 0.026669065 -0.19036616 0.55277383 -0.6385684 0.1794455 0.063379325 0.72878116 1.0646061 0.59412414 -1.0329887 0.28839296 -0.44760114 -1.00888 0.49074355 -0.6684571 -0.10353266 -1.0778512 -0.5692769 -0.27259773 -0.4193188 0.39314738 0.33418244 0.7961935 -0.47088498 -0.3654849 -0.4178372 0.11052645 0.37195498 -0.71590036 -0.033895213 0.7058348 -0.22186655 -0.5731816 -0.42240873 -0.6793576 -0.45039243 0.78274524 -0.78056395 -0.36890563 0.3922796 0.6409754 -0.40957507 1.1130493 -0.13163339 -0.2678323 0.4834856 0.51164705 0.3562179 0.099318996 -0.13221692 -0.0074172765 -0.32793245 -0.029330395 -0.14044653 0.4921847 0.15281716 0.67176145 0.10394088 -0.81195205 0.49771848
1408 -0.04596345 0.34823555 -0.62802994 -0.14895688 -0.36690268 0.09640227 -0.23721209 0.6000809 1.2784314 -0.585261 0.75141746 -0.12087742 0.109275386 -0.4529527 -0.41798985 -0.28716558 0.30460846 -0.55700445 -0.327136 -0.01707925 -0.66283405 0.07818177 0.25676 -0.22187188 -0.69183403 0.7105728 0.2948612 0.068796754 -0.44278976 -0.8106491 0.10347231 0.13666072 0.34958786 -0.06491946 0.64477146 -0.24021994 -0.89180017 0.58563054 -0.14822192 -0.4017475 0.4102097 -0.63519675 0.5038172 -1.1311734 -0.21478629 0.2736649 -0.06847758 -0.00045283863 0.22615553 -0.11613744 0.54595464 -0.49788636 0.91085374 0.25090402 0.5753756 -0.46231055 -0.09689091 0.3603565 0.27444255 0.32334852 -0.27521813 -0.23837996 -0.14246845 0.995042
9470 -0.22609198 0.5181148 -0.57741773 0.065505385 0.4255263 0.39662215 -0.61580557 -0.46704304 -0.5471009 -0.029097851 0.5543607 0.5431969 1.1060871 -0.1757476 -0.73511636 0.32602236 0.13825211 0.14837229 0.86808056 -0.17998041 -0.73978835 -0.26962477 0.19745776 0.08721002 0.53147775 0.86196995 0.59275854 -0.25755438 -0.38180938 -1.0476459 0.1576236 0.33691987 0.7687376 -0.38219294 0.8029914 -1.0205408 0.8517598 0.35747534 -0.6123354 0.0030909907 0.8164249 -0.7439139 -0.43039855 -0.38667 1.8357215 -0.036870427 0.87876666 0.6305323 0.475259 0.04177283 0.33065647 -0.91365594 0.04462968 0.95639974 -0.95613736 -1.0402303 -0.2778082 -0.8244327 0.33923328 0.8625585 0.3973178 -1.060917 -0.59225446 0.28274417
2561 -0.30462456 0.6907544 -0.59556764 0.7530075 -0.2557791 -1.203153 0.006113096 -0.058295187 0.010019114 -1.1333954 0.26767755 -0.3301721 -0.020794854 -1.5605465 -0.09067223 0.16056378 -0.08977363 0.37172925 -0.36304826 0.34680074 -0.110136315 0.5939302 -0.24532285 -0.7608321 0.858143 -0.50078017 -0.1399193 -1.3417512 0.1538264 -0.22866453 -0.22641337 -0.44469705 1.0434471 -0.20411907 0.066691816 -0.35342756 0.54793096 0.6908471 -0.6119953 -0.3534133 1.3872291 -0.2907233 -0.37582815 0.390087 -0.27783433 0.5385877 -0.46044585 -0.45402882 1.0606582 0.4796099 0.33706018 -1.3991067 0.14365305 -0.444924 0.21976164 -0.2688694 -0.20964125 0.19251136 0.12986912 1.1719636 0.124803625 0.5213065 -0.3480042 0.1038017
4416 -0.19999886 0.46260026 -0.13066325 0.17773753 0.21887045 -0.26881674 0.052058835 -0.2439115 -0.3683218 -0.83495516 0.43594995 0.5269642 -0.36970192 -1.4281763 0.20569688 0.046722632 0.66829175 0.22329798 -0.5524546 0.88491243 -0.36220178 -0.2983778 -0.5157193 -0.9256607 0.6518055 -0.5067441 0.022695301 -0.31879592 -0.2560766 -0.7232698 0.067515746 -0.16560687 0.80151474 -0.5804446 0.115073554 0.19307777 0.5864049 -0.1645335 -0.63123006 0.35902444 0.8852601 -0.15187748 -0.30269745 0.19061045 -0.27709278 0.29012603 -0.08307174 0.29326335 1.1411812 1.113827 0.5652631 -1.4350492 0.3373082 0.12116395 0.15656705 -0.18069315 -0.5253239 -0.005159475 -0.5657363 0.9383106 0.7258832 0.39599004 -0.49458188 0.42502907
7060 0.23746184 -0.5125471 -1.0411354 0.49609533 -0.80785996 0.3128963 -0.7864369 -0.6600621 0.075848095 -0.10877829 0.3565059 -0.001727418 0.88822514 0.32255107 -1.8982404 -0.40803984 -0.8125935 0.18538888 -0.68514127 0.5853485 -0.39993086 -0.43816814 0.14402807 0.19825879 0.7284531 0.4190929 0.44164622 0.30823842 -0.08440891 -0.32553965 -0.2966524 0.07590752 -0.21962142 -0.80200267 -0.05323542 -0.2426251 0.046871394 0.9459883 0.1880396 -0.22974508 0.25649253 -0.21704486 0.27388355 -0.27064568 -0.2757254 -0.58031464 0.7371162 0.48213062 0.63692373 0.1600372 0.81864005 -0.9758578 0.23228529 -1.0035359 0.020466845 -0.30786315 -0.20383176 0.67668253 -0.2597348 1.5191774 0.047427 -0.39402202 -0.5618907 -0.84897727
5543 0.43687922 -0.07872198 -0.34131396 -0.20753066 0.11992799 -0.40056747 -0.8670416 0.40070894 -0.059208203 0.0020746358 1.2281805 -0.6464764 -0.112653896 -1.492435 -0.43161172 -0.7363728 0.06261051 0.5571258 -0.37448707 -1.0832419 -0.103293076 -0.016202558 -0.86776483 0.64079237 -0.05619434 0.83720976 0.56830394 -0.42959642 -1.224587 -0.4283735 -0.39902186 0.77579665 1.7576153 0.09126439 -0.72974163 -0.48109168 -0.46124202 -0.15048924 -0.37064075 -0.31914902 -0.031481333 0.032268014 0.08430263 0.41412187 0.124618545 0.58488435 0.20843156 -0.17618059 0.024881324 0.6317037 -0.43908578 -0.01979875 0.5231387 -0.044646375 -0.28329343 -0.6684633 0.7678029 -0.7607122 0.00015077271 0.87618375 0.14120927 1.3163031 -0.3709848 -0.30172166
4797 -0.41962445 0.47064114 -0.73678195 0.7164957 0.17204815 -0.2087306 0.0021699062 0.17369613 -0.25847217 -0.5254322 0.72601587 0.06673406 0.13536344 -0.2725667 -0.4840136 1.1352779 -0.9427589 0.5217111 -0.3221392 -0.043301925 -0.30976185 0.22579816 -0.16156387 -0.19220488 -0.31001726 0.0853971 0.5492282 0.1580053 0.10053503 -0.3775915 -0.13180149 -0.18345104 -0.00825753 -0.21709827 -0.86232793 -1.202521 -0.3518648 0.3135036 0.15826096 -0.23643108 -0.1834523 0.0558304 0.972521 0.1186772 0.51624906 0.7041444 0.14760517 0.1890557 0.76470125 -0.04202584 0.2535017 0.3788348 0.043801803 -0.45152125 0.05919375 0.6368104 0.42905495 -0.32400137 0.15248875 -0.30634463 0.46289775 -0.3668373 -0.22416005 0.43540835
8228 0.7437678 -1.0217147 -0.00017103272 -0.11903385 -0.25862557 -0.72505414 0.18812373 -0.30874148 0.55330145 -0.24628833 0.60827726 -0.14680788 -0.32488108 0.03858803 -0.59388316 -0.083905354 0.037034538 0.49516797 -1.8432864 -0.9096317 0.64974904 -0.452797 -0.35308853 0.75183105 -0.17681402 1.0266776 0.18164748 -0.42237276 -0.33350572 -1.072745 -0.1490488 0.21909647 0.6536964 0.18811272 -0.7276561 -0.33844745 1.0332423 -0.13179852 -0.31507725 0.4422293 -0.29311186 -1.0411978 -0.5873846 -1.0602014 -0.11697197 0.4499831 0.062431213 -1.0679363 0.2264706 1.0135883 -0.70808274 -0.31065 0.4816516 -0.4802732 -0.341052 0.16301934 0.2848671 0.47351354 -0.01922444 0.21886322 0.6272632 -0.42822567 -0.77819395 0.57061434
4905 -0.92267084 -0.41972873 0.021251796 -0.6333915 0.09022027 0.4639425 -0.9047729 -0.573668 -0.72794753 -0.63429236 0.47475538 -0.018416213 0.24339437 -0.27067646 -1.184784 0.15081155 0.30856445 0.68414825 -0.35424718 -0.057372138 -0.48104727 0.2207589 0.27573368 -0.432505 0.31850764 0.0731475 0.29622734 0.25768948 0.07159551 -0.88643086 -0.6158202 0.43939066 -0.8587399 -0.18794264 -0.17316836 0.41555974 0.11276545 0.84031224 -0.30908152 0.36593017 0.26810646 -0.62701404 -0.4769194 0.12978923 0.026696643 -0.51605684 -0.5954457 -0.54791915 -0.79418147 0.42262033 -0.5502313 -0.2979742 -0.41037482 -0.27933577 0.00669268 -0.77097625 0.9971977 0.15166028 0.42301893 0.9210939 0.3056937 -0.2603509 -0.30727726 -0.26967266
3018 0.018497165 -0.35669035 -0.44416064 0.31798682 -0.92692864 -0.50829434 -0.3056155 0.03206642 -0.29751655 -0.21490903 0.080282144 0.4852938 -0.25489387 -0.25676775 -0.48844925 -0.18567865 -0.43688905 0.38415256 0.42315346 -0.20886616 0.42965975 -0.15814468 0.31920227 -0.7951033 0.38944185 0.35442233 0.12960766 0.65587366 0.58290946 -0.4039902 -0.9979633 -0.52083683 -0.2080613 -0.40920365 -0.20979911 0.643439 -0.094155416 0.47592002 0.07122829 0.21027441 0.45284304 -0.96958894 0.15659337 0.2351379 0.74589264 0.26422796 -1.373408 0.3169637 -0.53323835 0.20375217 0.173218 -0.34073377 -0.7410834 0.8246053 0.023580302 -0.19710678 0.68520075 0.27020848 0.49891925 0.24036646 0.28041723 -0.25855482 -0.48874512 0.098498695
3616 -0.11745333 0.18501404 -0.15664351 -0.1661013 0.023413995 0.7300731 0.25656062 0.15822236 0.6108717 -0.21220721 0.90016645 1.2109071 0.12009675 0.1215745 -0.40283763 0.13577583 -0.36792654 0.32784733 0.037266716 0.30354837 0.07250455 -0.6658225 0.33787745 0.3558681 0.5967174 0.3793846 0.09965387 0.3546063 0.94074166 0.53404653 -0.07836207 0.42728892 1.291865 -1.2920486 -0.37845594 -0.1485729 0.5618807 2.1067028 0.4681324 -0.1692975 -0.39925417 -1.1808022 0.6984673 0.37647814 -0.05102176 -0.3694368 -0.15003212 0.36528435 -0.12118589 0.986042 -0.5027117 0.1119358 0.30783004 0.4195229 0.6062564 -0.50231135 -0.00073013065 0.08537752 1.4588108 -0.2512942 0.45665637 0.4828944 -1.2548406 1.151858
2226 0.2529526 -0.34817493 0.45762467 -0.25756904 -0.57687026 -0.2630817 -0.6784976 0.28680056 -0.33896914 0.4198276 1.0256909 -0.59308124 0.074246205 -1.4208473 -0.66974187 0.2540754 -0.53521466 -0.41762218 -0.22807644 -0.48890603 -0.77114564 -0.15816768 -0.9210995 -0.1675206 -0.077251025 1.1796497 -0.32026574 0.07250282 -1.0414476 0.10779583 0.006814228 0.31984374 1.0523844 -0.43728107 -0.08160399 -0.17751163 -0.3926272 0.44265452 0.15287238 -0.23031832 -0.45312798 -0.3552507 0.517107 1.1023737 0.4317898 0.39827856 0.06612883 -0.16454047 -0.21864167 0.480331 -0.63837594 -0.34210443 0.6406988 -0.3286137 -0.01664768 -0.3832877 0.51823753 -0.15414076 -0.31810877 1.0848519 0.54620266 1.2495872 -0.3893273 0.7599167
2045 -0.15198098 0.73518586 -0.5745718 -0.5350582 -0.5020171 -0.0898098 -0.101054445 -0.02138611 0.63787174 -0.5772002 0.6849592 -0.25502962 0.32210562 -0.8662088 -0.03654943 -0.16409384 -0.90680796 -0.29375967 0.24008319 -0.14785239 -0.26139873 0.23766726 0.028074017 0.41847965 0.43611643 0.146723 1.0509722 -0.54889214 -0.028593285 0.117223 0.086969055 0.26303023 -0.21552543 -0.6644646 -0.008840215 -0.26770484 0.10825419 0.15896527 0.12970175 -0.88773745 -0.61787724 -0.51657075 0.07733323 0.37755227 0.22530527 0.30107993 -0.083589636 0.03928996 0.227991 1.3749775 0.16066073 0.5303985 0.7017747 -0.3657981 0.7547845 0.38192627 0.06370245 0.55037725 0.7028541 0.49185327 -0.55409753 -0.66244036 0.23960836 -0.9817261
3314 -0.24030577 -0.0568677 -0.86648685 -0.011014088 -0.007285559 0.013361571 -1.0511147 -0.08118981 -0.6756004 -0.71012837 -0.18727875 -0.34186414 -0.078552164 -0.4413326 -0.6019637 -0.837072 0.08061296 0.31299528 0.037700485 0.12723212 0.7530602 -0.11692094 0.81242317 -0.11340591 -0.011452156 0.94278 0.4232033 -0.38724318 -0.31490374 -0.6720912 0.25513265 0.32135525 -0.5204043 0.33920828 0.2768632 -0.27528083 0.1526811 0.32009858 -0.1532193 -0.096264966 -0.31912783 0.032252662 -0.5781427 -0.24274123 0.6463633 -0.9209655 -0.23860872 0.38284177 -0.17425022 0.2803262 0.3125681 -0.22859584 -0.04019477 -0.103420824 0.5765759 -0.11986483 0.7844714 0.37649864 0.22911754 0.36734742 -0.20244415 0.06083837 -0.62930113 0.97384596
