3598 64
6037 -0.10422426 0.49626914 0.21011424 -0.61416256 -0.15758124 -0.31116122 -0.09812783 -0.27154285 0.19562458 -0.0628557 -0.023034502 0.2349069 0.007803463 0.24632607 0.5918191 0.28097978 0.2987473 0.32215974 -0.023707092 0.24290283 -0.16642155 -0.7652171 -0.32933557 -0.14814304 1.1673061 0.48582992 0.10688625 0.22606818 0.22160661 -0.14386398 -0.45700517 0.33348888 -0.28148118 -0.14854033 0.5450925 -0.19600977 0.17961347 0.8152465 0.18464197 -0.0961753 0.12056381 0.7220856 0.9272231 0.27830714 -0.50809234 0.024449361 -0.84294426 0.5156816 -0.07929784 -0.0052687945 -0.4607019 0.39546916 0.2789542 0.43999422 0.30759597 0.012590262 -0.04989102 0.27236402 -0.5687647 -0.07213399 0.09685271 0.29437536 -0.04199765 -0.78327566
7652 -0.3359794 0.17510691 0.014791197 -0.35511968 0.017541716 0.07970492 -0.1588408 0.1614251 0.28129315 -0.08094039 0.38778356 -0.043246616 0.17946479 -0.1531663 0.16885372 -0.11299449 -0.5905578 0.4604711 0.9912178 -0.43564436 0.12239297 0.0821357 0.37458658 -0.12492672 0.5432591 0.19950339 -0.6582226 0.6913876 0.8602084 0.8185506 -0.2893337 0.24739024 0.9151822 -0.07364641 0.6549134 -0.23990776 -0.5477956 0.48644367 0.16556256 -0.20153227 0.54004925 0.068064034 0.5737253 0.26883256 0.018472733 -0.18867348 0.48369625 0.029836709 0.067960285 -0.115451925 -0.33878416 0.34747937 0.11014013 -0.48038772 -0.071464084 -0.014417817 -0.3354436 0.06502146 -0.10082897 -0.6748508 0.24550387 0.40731263 0.32321098 -0.26094627
6539 0.21089752 -0.22112493 -0.20758955 0.18869534 0.098270185 -0.41418782 -0.21010657 0.20557547 -0.14443491 -0.98823607 0.15857114 -0.4244648 -0.81648636 -0.0052856547 0.0086930515 0.26261467 -0.36474273 0.3280003 0.87036264 -0.34697247 0.26519206 -1.1169928 -0.2526665 0.3294843 0.1361276 0.20795147 -0.39177915 0.6844817 0.3470331 -0.106505334 0.039672676 -0.3707584 -0.30358213 0.3712512 0.46017525 0.5409248 0.020660212 0.74607974 0.55454683 0.16857493 0.08799002 -0.22494909 0.54121155 -0.1430396 -0.40260553 0.5649127 0.074513055 0.03922902 -0.5755845 0.47835487 -0.33787426 0.58267945 0.009027103 0.25849596 0.22229382 0.11891265 -0.2823491 0.45871538 -0.1568632 -0.9049842 -0.31821123 -0.17865911 0.1038484 -0.27158138
6580 -0.866614 0.12269525 0.055840038 0.10657566 0.3482273 0.09734083 -0.44649878 0.3573152 0.58224314 0.051582552 0.38445345 -0.14989938 0.30586958 0.18220063 0.10482404 -0.12622494 0.037328534 -0.45368555 0.1982929 -0.176751 -0.46083838 -0.8381785 -0.06648531 -0.17638344 -0.019216813 -0.5618021 0.30489832 0.36189386 1.0206411 1.075783 0.32480094 0.31100127 0.28078577 -0.24199688 0.076286845 0.4801006 0.5787166 -0.052351017 0.601564 -0.43059462 0.7302182 0.3412499 0.6231938 0.055795208 -0.27469012 0.5354396 -0.6611799 0.26675928 -0.9029221 -0.25532648 -0.62712383 0.5555761 -0.36593044 0.3046982 -0.32586566 -0.5556784 -0.04950219 0.62950414 0.114059195 -0.4033066 0.45481232 -0.33596855 -0.015350228 -0.6410609
6349 -0.10132168 0.9205819 0.0044028494 -0.34530732 -0.4354868 0.11458503 0.1616361 0.07159136 -0.10315512 0.051213834 -0.043017674 -0.08173699 0.045230154 -0.4393422 0.55046403 0.14749873 -0.35046056 -0.70983434 0.39361018 0.647587 0.19499779 -0.39950052 0.43555743 0.54348344 0.10337452 -0.30500993 0.35774496 0.8678976 -0.2943817 0.66603607 -0.44640955 0.072209135 0.6315602 0.4167425 0.21177919 -0.31034583 0.09721026 0.49802548 0.043803085 -0.005020259 0.56263125 -0.2700361 -0.1536255 0.4521611 -0.27371913 0.8683241 0.060207043 -0.6850553 -0.7720311 -0.20792389 -0.0012618862 0.4144134 -0.049778838 0.32455266 0.52252984 -0.66798186 0.26669765 0.3434199 0.10077391 -0.055492602 0.45659196 -0.71342397 -1.1120125 0.17788006
5702 0.6777941 -0.9852551 -0.03394739 -0.9305629 0.12704359 -0.113071345 -0.70043856 -0.028734483 -0.1178152 -0.4867623 0.5665855 -0.044576045 0.3664446 -0.8377839 -0.35834283 0.18054149 -0.33895332 -0.1180194 0.20168431 0.009706812 0.30639464 -0.39248753 0.44281262 -0.6912845 0.69066733 0.26674828 0.11358649 0.60004467 0.07334862 0.15855426 0.17644529 0.2373231 -0.12224066 -0.3854555 0.50003284 -0.4519449 0.6800557 -0.5373915 1.0689995 -0.3356716 -0.04652551 0.06384327 -0.70967174 0.78150046 -0.4094151 -0.09158993 -0.2691944 0.04201724 0.3608812 0.07968571 0.009991801 -0.6153389 -0.7397153 0.2299026 0.3394992 -0.95508 -0.769831 -0.17938529 -0.22095044 -0.12410641 0.3078834 -0.76368576 0.12176113 -0.20572892
6165 -0.28703308 0.01238559 0.7381666 -1.2852416 -0.6457699 0.3448499 -0.5361608 -0.6677923 -0.049849197 -0.15384412 0.0053882706 -0.3212522 0.7721379 0.46668124 0.24118544 -0.15925166 0.06982632 0.4308281 0.99619937 0.16893804 0.39664692 -0.2934048 0.6789467 0.26889154 -0.7452679 0.34711272 -0.050497454 0.17533891 0.5862787 -0.33428386 -0.8390552 0.03207962 0.12250658 0.026782399 0.24015477 -0.06643232 0.55984867 -0.2554673 0.83750665 0.19297846 0.45978886 0.6087186 0.10319167 -0.31648976 -0.5552668 0.5318503 0.18683286 -1.0415483 -0.28525278 0.15677175 0.2736951 -0.17159498 0.4086031 0.06205561 0.19870064 0.19466355 -0.23864225 -0.5607546 -0.3074664 -0.7791078 0.3180603 -0.3967118 -0.15768202 -0.80680555
7099 -0.34602034 -0.1422035 0.93925387 -0.40188727 -0.8641832 -0.079762466 -0.71409464 0.10294617 -0.09704987 0.059297834 0.088663034 -0.06355065 0.019942323 0.1967567 0.027551271 0.08368933 0.29690555 0.17494391 -0.11641715 0.2078297 -0.15609594 -0.7510338 0.12509067 0.139123 0.8766691 0.4519594 -0.37801334 0.24443677 -0.20499654 0.119919926 0.5542762 0.49908072 -0.37459895 -0.42991415 0.37942407 -0.5458056 -0.10205754 -0.5773124 0.93466103 0.62930197 0.42740622 0.3291539 0.3955318 0.57936645 0.031027632 0.24104555 0.7428773 0.07785034 0.043904867 -0.5049699 -0.18854943 0.6184426 0.031095663 -1.1858995 0.10320453 -0.27639925 -0.3994208 0.023871215 0.7123372 0.024825295 -0.4478417 -0.32709488 -0.6644407 0.16446641
7533 -0.83759636 0.42464805 -0.46093324 -0.3493648 -0.20019774 -0.5033887 -0.38174865 -0.2618118 -0.06157873 -0.3100974 0.21135378 0.11557044 0.5225524 -0.2512142 -0.87064964 0.18357198 -0.12284914 -0.016556978 0.33516917 0.36730748 -0.27863362 -0.57113516 0.53369355 -0.12076615 -0.21602689 0.6325722 -0.19428633 0.18602611 0.1853623 0.27891928 -0.31659034 0.7142393 -0.0979055 -0.031623997 0.11344452 -0.31863666 0.022858318 0.14539854 0.19942856 0.37997475 0.039817307 0.36827877 0.654136 -0.037729796 -0.27063483 0.37272742 0.64340013 -0.83071584 0.46842307 -1.0072836 1.2162597 -0.045434274 0.33123535 0.4770255 -0.025423842 -0.42781308 -0.04461204 -0.014109253 0.66218764 -0.6879876 0.051376574 -0.11810072 -0.3518738 -0.03272208
6358 0.14988232 0.17530772 -0.15785694 -0.45418578 0.17969921 0.049580384 -0.8657949 0.38180596 -0.415593 -1.0956637 0.3671014 -0.52988434 -0.4273931 -0.51593375 -0.99525493 -0.016263267 1.0524049 0.23055606 0.89463264 0.87923604 0.04022179 0.04786638 -0.72745675 -0.72919387 0.46584123 0.29855525 -0.06988774 0.85598904 -0.2866695 0.22537218 -0.5104181 0.26374742 0.9870581 -0.25115097 -0.26241046 -0.02190553 0.32605338 0.1618118 0.5232565 -0.25176075 -0.012709598 -0.21051423 0.5105465 0.9236939 -0.6536046 0.04677277 0.35737368 -0.65282536 0.1604711 0.11972523 0.44056574 -0.082359485 1.2163321 0.16285071 0.11238474 -0.22694115 0.028269563 0.018826276 -0.3576254 0.51278365 0.5856303 -0.7663506 -0.044845954 -0.16727611
7976 -0.13269575 -0.15757306 0.08705311 0.041940037 0.38637912 0.003666776 -0.052159127 -0.15881348 -0.38200235 -0.19480251 0.6662206 -0.40617034 0.25695273 0.6212412 -0.21536322 -0.0955546 0.023524428 -0.45581558 0.6430553 -0.12246969 -0.17454049 -1.0216582 -0.18387762 0.5680735 0.43410915 0.28353393 0.13726231 0.5529153 0.6342075 0.33126938 0.3869157 0.6368094 -0.601827 0.36253437 0.7199192 -0.1197213 -0.28860196 0.48820984 -0.03735648 0.2871566 0.3917812 0.43173853 1.003739 0.5989091 0.062444888 0.5989915 -0.5459232 0.04014914 0.16783684 0.3001081 0.2581885 0.3772435 -0.34475473 0.44599605 0.2919337 0.5319225 -0.03244347 0.05400168 -0.69882053 0.25386277 0.26120698 0.08406998 0.3592036 -0.49548033
8101 0.13163343 -0.15701278 -0.17498277 0.30872825 0.021431532 0.27020252 -0.62684476 0.30882815 0.008286829 -0.45709676 -0.054928556 0.17396674 0.38371342 -0.11799427 -0.96176195 0.08384991 -0.8115083 -0.754286 0.6010808 0.49353257 -0.31485868 0.21392043 0.1421291 0.24263145 0.7344007 0.1875588 0.62886405 0.5423266 -0.36792588 0.19833554 -0.13176717 0.06815488 0.28381217 -0.25285128 0.5952542 -0.3974422 -0.44654822 -0.68394166 0.16026157 -0.34095117 0.13207519 0.37620738 0.14992782 0.48736486 -0.9354139 0.1139223 -0.14122109 -0.26789382 -0.20410874 0.09532702 -0.09980269 -0.18815337 -0.216395 0.029162072 0.54733175 -0.56791 -0.7474724 -0.020612618 -0.14996685 0.45379785 -0.47475007 -1.4847498 0.23409691 -0.90007704
5712 -0.53825253 0.022513593 0.34920442 -0.26434666 -0.10179512 -0.32944408 -0.6988221 0.09399146 0.575405 0.07623658 0.3645148 -0.4538934 0.36793175 0.4964785 0.030722357 0.19513564 0.19580822 0.18623216 0.891931 0.28088537 -0.032288384 -0.8376142 0.8386698 0.2804964 -0.6755585 -0.1559031 -0.49686417 0.6779513 -0.8335343 0.011431607 -0.27597353 -0.16126159 -0.46784893 -0.6014123 0.4136684 -0.23175305 -0.2179437 0.3953124 -0.022487387 0.26593903 0.07008175 0.6658176 -0.02208431 0.043387305 -0.5888896 -0.14238013 0.116931535 -1.1152898 -0.22658238 -0.67224705 0.6364415 -0.20400368 -0.024622567 -0.6116356 0.1575652 -0.2631432 -0.11798315 -0.17811182 -0.045631442 -0.20548974 0.4356785 -0.45863456 0.70434856 -0.1826953
6421 0.09881284 0.060516424 0.3989205 0.3831413 -0.6145399 -0.028779488 -0.11786754 0.9289372 0.12352009 0.77103835 0.7667384 -0.027343974 -0.39165843 0.7975273 -1.0225502 -0.08613062 0.35779974 -0.192823 -0.06413208 0.5357125 0.46206492 -0.04747563 0.3523348 0.001897397 1.2769918 0.41129825 -0.44417766 -0.3163771 0.17734545 0.47690076 0.07401923 -0.25912106 -0.29142186 -0.57130075 0.49372455 -0.70800817 -0.028792588 -0.07834682 0.6320732 -0.033228237 0.09405575 0.015104441 0.24596377 -0.14997716 0.024534777 0.5514775 0.01071132 -0.33527705 0.22546911 -0.37678713 0.35381114 0.30386034 -0.111624934 -0.14150834 0.95517725 0.811969 0.041807264 0.27762416 -0.2816879 -1.0283655 0.6930919 -0.17188421 -0.58760935 -0.5802326
8098 0.10046523 1.323237 0.4792469 0.36431372 -0.58474284 -0.15642425 0.006646465 0.26514193 0.12563221 -0.56365174 -0.34540904 -1.2043891 -0.17947553 0.83883816 -0.30474445 0.48797578 0.39912108 -0.41942084 -0.016624505 0.0161282 -0.7515106 -0.34590995 0.37061813 -0.4486814 1.349005 -0.47213176 -0.72647613 0.17452544 1.1906873 0.68584853 0.19295403 0.40252206 -0.9718432 -0.19017246 0.29534248 -0.7253289 0.047429603 -0.004051597 0.56444234 -0.04642212 0.017743822 -0.22369377 -0.32608938 -0.32436553 -0.36507592 0.23692486 -0.28709665 -0.70503956 0.234843 0.09189973 1.0863748 -0.088630386 0.33635533 -0.28095064 0.079305984 -0.34541103 -0.07601069 -0.68521786 -0.059169017 -0.713543 0.73580325 -0.5764938 -0.4663087 -0.5072905
5697 0.48411056 -0.6438085 -0.9175378 -0.41896552 -0.075363144 0.37123978 -0.059338205 -0.6086039 1.6255187 -0.5697556 0.121810846 -0.80437577 -0.10375273 -0.28260532 -0.3012899 0.16221257 0.015475462 -0.20888917 0.093395144 1.2057077 1.0795239 -0.34151304 -0.24862497 -0.38686246 0.7849411 0.11849077 0.6789798 0.69368 -0.3250286 0.68558717 0.04550585 0.4505613 -0.408944 -0.4813585 0.5723334 0.011386936 -0.62531537 0.14245024 0.13565344 -0.5294172 0.048909787 -0.30756944 -0.1719338 0.19764128 -0.24660707 0.068234086 -0.28831854 -1.0225044 -0.35778418 -0.56885105 -0.02261821 1.5781604 0.49935097 0.3775912 -0.44314408 -0.42841312 -0.27409065 -0.0637022 -0.5958707 -1.0603087 0.63783395 0.040431615 -0.8793764 -0.25348362
6464 -0.82664776 0.35656133 0.21128447 -0.5309511 0.079230376 0.26170993 0.22265527 0.44897678 0.5716332 -0.24973865 -0.08601726 0.07596005 -0.10384988 0.22279741 -0.1379362 0.19893956 0.047611326 -0.47192934 0.22462404 0.38031104 0.025460266 -0.5932001 0.13880098 0.42941123 0.92194307 0.57712877 -0.07068141 -0.05893744 0.20901206 -0.30128053 0.5689844 0.40232795 0.066167355 -0.20439146 0.6443651 0.39312848 0.05590368 0.103161514 0.40800902 0.69686675 -0.08431797 -0.29207358 0.6696036 -0.010749964 -0.8751738 0.18210493 -0.40564084 0.24131025 0.049766198 0.14360844 -0.14504103 -0.28034198 -0.3916019 0.3316698 -0.08504742 -0.26044804 -0.30974746 1.1079895 -0.39849868 -0.8342011 0.45884505 0.40334943 -0.11194054 -0.97605884
5727 0.58759296 -0.20349398 -0.01396758 0.35396603 0.30271602 -0.13929889 0.5348072 0.78868455 0.43606222 0.36448812 -0.6468182 -0.70437354 -0.08241982 -0.13419823 -0.4722054 -0.38528883 0.34946433 0.6274123 0.2776168 0.97111833 -0.23065288 -0.33417457 -0.44751093 0.018891182 0.28078288 -0.53651726 -0.06791231 0.3745423 0.508609 0.6041137 -0.4955802 0.7252684 0.010361175 -0.39137694 1.1506469 -0.32912856 0.92350096 0.4307299 -0.013519709 1.0848883 0.47003743 0.5113701 -0.05329111 0.8404997 -0.09027617 0.1481349 0.031647593 0.2620357 0.06401607 -0.10331146 -0.080804296 -0.72995913 -0.59155107 0.5727182 0.0974082 0.4987819 -1.2701603 -0.15455666 0.3487695 -0.36654755 0.48894256 -0.7646351 -0.6055177 -0.31298777
8334 0.30877116 -0.08543112 -0.3182693 -0.26162964 -0.45806855 0.33067176 -0.52423954 0.32356796 0.6558026 -0.34584382 0.34189805 -0.6115736 -0.29293507 -0.04562765 0.2060638 -0.5976389 -0.6281135 0.20036715 0.36419564 0.022258425 -0.28975356 -0.35076758 0.16989522 -0.14445311 -0.22257563 0.32918662 -0.55418336 1.0106825 0.9247598 0.5369863 -0.07436843 -0.18288991 -0.5358227 -0.21359074 0.24549848 -0.20686135 -0.5427786 0.5080379 -0.13792104 -0.18280782 -0.13285062 -0.023542555 0.17038895 0.5862803 0.0096279625 -0.04785447 -0.16213855 0.89175475 0.19536082 -0.35172194 0.36866853 0.20306227 -0.2718851 0.16128074 0.37130398 -0.060874593 0.30565688 0.7370811 -0.91873145 -1.0048741 -0.10099517 -0.15075329 -0.01010241 -0.6598074
6588 -0.161436 -0.065642 -0.24749403 -0.12690005 -0.22954871 -0.29964608 -0.7175398 0.28774282 0.25311747 0.22324881 0.2893374 -0.29154724 0.5763778 0.37582773 0.45801458 -0.09310315 -0.34432235 0.83211035 0.29852417 0.3755599 -0.48709235 0.41053164 -0.593778 0.002642332 0.86325926 1.3672901 -0.047085088 1.0009599 0.53414696 0.06300009 -0.24152058 -0.44188252 -0.31643158 -0.7264368 1.1302997 -0.032118402 1.0934874 0.027236803 -0.09404349 -0.77359635 -0.1851712 -0.71785325 0.58097607 0.9115671 -0.8853506 0.44522592 -0.8229241 -0.55534786 -0.010286403 0.4714615 0.021170825 -0.40019014 -0.079027414 0.20838918 -0.31743506 0.01763858 -0.09881745 -0.1158562 0.3131098 -0.55074555 -0.08706921 -0.32835984 -0.20203653 0.34155855
1701 -0.35113382 0.5520082 0.03553099 -0.8843658 -0.11534714 0.27733284 -0.31402418 0.0023688627 -0.19862702 0.07964254 -0.01232351 -0.6656002 -0.44000843 0.2573071 0.18823116 -0.6427826 0.513869 0.28817576 -0.24617249 -0.50183886 0.145306 -0.7084631 -0.24335784 0.23276843 0.35043478 0.17590398 0.44167387 0.40389752 -0.35522732 -0.24398883 0.35089108 0.09755274 -0.2138561 -0.6071365 -0.08585779 -0.7293936 -0.13923344 0.18659618 0.76661515 -0.55428827 0.57826006 0.6616246 0.5815022 0.48740876 -0.5777003 -0.097342506 0.17134725 0.056635782 1.2309245 -0.1550263 -0.26242223 0.046789482 -0.35335106 -0.5700185 0.15681241 0.13035357 -0.3760687 0.0024451122 0.8308803 -0.3661403 -0.11571557 -0.84207004 -0.4477457 -0.05165898
7035 0.33670363 -0.11914447 0.097154215 -0.8654914 -0.056886 -0.9000539 -1.0085549 -0.07636858 -0.12388465 -0.23914713 -0.9560298 0.50008476 1.2221402 0.3830072 -0.3983186 -0.6260259 -0.15662444 -0.29470357 -0.22995181 -0.96176547 0.11705392 -1.0912102 -0.29709157 0.17324127 0.06736938 -0.04943048 -1.0234889 -0.34937733 0.011664347 1.6470555 0.4033059 -0.34590214 0.80528784 0.17822665 0.17204532 -0.01854964 0.6587773 0.7410559 0.15809394 0.09673749 0.87000567 -0.28687778 -0.8105596 1.2375383 -0.44051364 0.048532166 -0.30869237 -1.2141024 0.4993596 -0.56831384 0.3004563 0.36840424 -0.32395315 -0.16198169 -0.08025532 0.05122558 -0.42870218 -0.0034424975 -0.06894262 -1.0611074 -0.37660187 -0.44552392 0.022562612 -0.6723672
8307 0.50936204 0.57767934 0.048606038 -0.587169 0.68770504 0.32404312 -0.05232615 -0.051818036 -0.29892915 -0.09684592 0.06820642 0.21522756 0.19897473 0.38978308 -0.21018144 -0.9936355 0.09393727 0.257305 0.39970624 0.77328974 -1.0788213 -0.08696536 0.19027705 -0.045945134 0.14172402 0.35043788 -0.9885707 0.7087804 0.021766996 -0.23918457 -0.10485126 -0.41766965 -0.4469654 -0.53430015 0.399978 0.41066855 -0.52159965 0.66615194 1.3649188 -0.06464784 -0.29475152 0.035235174 -0.09889669 0.49384215 0.36894557 -0.043691516 -0.74316883 -0.20653385 -0.45833597 -0.11285263 -0.044695687 0.55845034 -0.62947315 0.6388137 0.35218906 -0.09966331 -0.23487048 -0.1567215 0.6272052 -0.5410564 -0.03796615 -0.058864124 -0.19217807 -0.8444565
6556 0.16217223 -0.44100127 -1.3351133 -0.5939253 0.33061868 -0.40341148 -0.61529344 0.15074717 -0.33619773 0.26629743 0.03213202 -0.63290554 -0.23102938 0.7782509 0.17738159 -0.27056566 -0.79824054 0.19666253 0.3850851 0.44861153 -0.22244954 -1.0623425 0.669004 -0.08435694 0.7679312 0.08574625 -0.7529056 0.5467758 0.019229311 0.7690486 -0.21216258 0.24329439 -0.08463689 -0.76539695 -0.30448678 0.4266204 -0.82268137 0.11703102 0.020234115 0.08777578 -0.1538751 0.5720358 0.42585164 0.25294495 -0.3987294 0.3293568 -0.4473172 0.23649386 -0.3188661 -0.86962205 -0.092238866 -0.57978314 0.62612975 -0.2322782 -0.33947018 -0.097675934 0.19777386 0.25007135 -0.56550986 -0.5478155 0.004203359 -0.45390826 0.114030644 -0.09638263
674 -0.5611844 0.2744698 -0.089044355 -0.33347127 0.46003503 -0.0019057558 0.20015272 0.41044712 -0.011408773 -0.23601669 0.22721528 -0.4827635 -0.59986025 0.31622744 -0.07936567 -0.106690556 -0.77461934 0.3242779 0.62330353 0.29304573 0.06386434 -0.52391446 -0.46839842 -0.015813094 0.6016711 0.44614676 -0.5639372 0.006309124 0.58540434 -0.016406592 -0.26403874 -0.28458053 -0.11515768 -0.10135006 -0.25556642 -0.096470125 0.17507291 0.25205335 0.070736624 0.43135038 -0.20615134 -0.15306412 0.2981088 0.47756088 -0.9737059 0.12754385 -0.3991407 -0.093329236 -0.18749177 -0.27801746 -0.4316792 0.68980783 -0.30721918 -0.08087509 -0.19384114 -0.055944506 -0.09553369 0.31394517 -0.374398 -1.0331868 -0.34090248 -0.26255825 0.06638124 0.06162906
1466 0.031734455 0.34310174 -0.38281932 -0.021456435 0.49708053 -0.34638402 -0.32044894 0.07354974 0.110201545 -0.34728307 0.2042481 0.32396656 -0.14149746 0.13360253 -0.010905401 -0.22612207 -0.32826835 0.3657499 0.83472294 0.3341215 0.48107004 -0.67423403 0.31083173 -0.008504875 0.26510742 0.20267166 -0.14781865 0.58417404 0.4061439 0.28866372 0.24436127 -0.09183883 0.9153646 0.5351048 0.50226265 -0.17669226 0.04159354 0.4614967 0.20765932 -0.031341717 0.111696206 0.1495385 0.44754553 0.1595578 -0.50659317 0.34216848 -0.0014945698 0.40705702 0.15609404 0.29433087 0.36313686 0.35353637 0.27062792 0.050883226 0.023056965 -0.15869819 0.8439694 -0.5551082 -0.3767618 -0.84819967 -0.20232254 0.049082965 -0.27050632 0.0042840927
6299 -0.36847535 0.049568437 -0.47802797 -0.22607332 0.1366367 0.17746352 0.0374329 -0.3889416 0.69795877 -0.1436189 -0.14567591 0.022357006 -0.61277205 -0.28622216 -0.02301233 -0.6888008 -0.35230002 0.65577346 0.873774 0.29235128 0.11356906 -0.6748695 -0.2996903 -0.10475781 0.48726085 0.2098876 -0.54532355 0.30955714 -0.24423397 0.5032585 0.23256303 0.024013542 -0.69188905 0.07671466 0.018412314 0.13358885 -0.24455951 0.57937026 0.67744845 -0.04030931 -0.49587432 0.1093533 0.39100286 0.20359041 -0.44679123 1.1004323 0.009348632 -0.425398 -0.4796838 -0.2646686 -0.39250892 0.38831905 -0.28696483 -0.051063955 -0.65947545 0.03596112 -0.11807155 0.04059148 -0.84710944 -0.8223487 -0.29836187 -0.72526956 0.3371374 0.488707
8018 0.20101953 0.082110815 0.085291654 -0.009502306 0.48368406 -0.5363778 -0.48062527 0.09963158 0.4411065 -0.25279963 -0.09739316 0.07347367 -0.34742507 -0.3425212 0.031938117 -0.4057599 0.28276345 0.17566249 0.020148076 0.46141556 -0.5802757 -1.0356909 0.10742442 0.31202322 0.47210586 1.1178453 -0.064755306 -0.08209029 0.2723767 0.014396668 -0.34685788 0.13103354 -0.19671603 -0.13912435 -0.3228755 -0.25659385 0.4652871 0.98119706 -0.40124235 -0.023446271 -0.16240151 0.24059398 0.59340286 0.1473324 -0.6695856 -0.16667032 -0.06720747 0.15022455 -0.2944001 0.23498389 -0.4233905 0.18848611 0.67658067 -0.32070038 -0.15916668 -0.5663225 0.017379533 0.30058494 -0.739287 -1.232824 -0.13709915 -0.23155323 -0.29786897 -0.61970675
7116 0.5809772 0.44668257 -0.2615537 0.032654215 -0.51588136 0.0809159 -0.017251035 -0.24374236 -0.1286398 0.17175509 0.21997549 0.82326806 0.7396135 0.5121179 0.3766113 -0.21243519 0.20052446 -0.7825975 0.7603412 0.26609692 0.07029899 0.07745892 -0.7822194 0.21037823 -0.16809799 -0.49616048 -0.9365462 0.7700589 -0.25255716 0.6134186 0.508643 0.5967281 -0.47056505 -0.7491909 -0.24998686 -0.6458793 0.5165142 -0.66385555 0.18354826 0.6711149 0.17525545 0.111455545 0.44560102 0.23071602 -0.566258 0.19273633 0.15699495 0.12412797 0.39185423 0.24120517 -0.020843418 0.92885584 -0.006808627 -0.22875349 -0.3233655 -0.8097464 -1.3277824 0.43059745 -0.1848669 -0.7119345 -0.16180667 -0.30163288 -0.5841754 -0.44640678
7003 -0.3130465 -0.4537789 -0.28401482 -0.002995658 -0.3257617 -0.26452288 -0.19158347 0.096743144 0.884356 -0.008435652 0.10562976 -0.613527 -0.88127345 0.18812129 0.39152712 -0.533641 -1.0078075 -0.04497613 0.6078619 0.35238522 -0.096123755 -0.6914076 0.14352213 -0.4839683 0.2832958 0.68359584 -0.5221849 0.41482806 0.8328217 0.14639522 -0.16823404 -0.15550204 0.06524637 -0.14453146 0.06763582 0.17711438 0.10917493 0.5767877 -0.21084662 0.16396308 -0.47724107 -0.15905449 0.0012759992 0.6622005 -0.3848856 0.11536915 -0.12413992 0.110701054 -0.032683596 -0.2532674 -0.6010214 0.92255443 -0.17979147 -0.48065436 -0.28041056 -0.4178894 -0.63432586 -0.39327848 -0.44795868 -0.6781246 0.13314855 -0.4826918 0.05242363 -0.27116576
6133 0.08820526 0.06794442 -0.17011851 -0.40394494 0.25655976 -0.2333901 0.5347793 0.2853971 0.1236068 0.3644549 -0.31941906 -0.91403574 0.04971041 0.19788273 -0.44354582 0.29029718 -1.2426397 0.42788818 0.85119253 0.33650327 0.013613198 -0.62472236 -0.13887735 -0.124679655 0.15273535 -0.08454631 -0.54025805 0.062961474 0.33509424 0.26143676 -0.12523323 -0.27435455 0.7154286 0.09915045 0.45052776 -0.29333615 0.254447 -0.28066096 0.019398527 0.016160144 -0.04171596 -0.306713 0.54432607 0.6007681 -0.22176586 0.35423207 -0.10275278 0.27867657 -0.2727346 -0.11069813 0.061998013 0.41298476 -0.044736475 -0.2850996 0.08645609 -0.25373825 0.16040397 0.6194409 -0.37354308 -1.0157306 -0.50113255 -0.23426016 0.07033127 -0.19087434
6134 0.24620639 -0.27586472 -0.21322986 -0.9278484 -0.109529346 -0.030869683 0.0028703639 -0.22512342 0.21201509 0.08112215 0.28187907 -0.6461488 -0.18502443 0.13741648 -0.66371566 0.7209605 -0.7032383 0.6056553 0.15673372 1.0565206 -0.945648 0.10255137 -0.48878172 -0.8552356 0.1878073 -1.1366707 -0.53451926 0.010923815 0.059397534 0.6066489 -0.13118547 -0.29184246 0.30628213 0.4972693 1.0262054 -0.6047252 0.14557359 -0.08260972 0.073788725 0.5180342 0.11121188 0.39589292 0.17143005 0.3993566 -0.20153369 0.75171494 0.4482156 0.011108918 -0.1161404 0.45402387 -0.3102064 -0.23330186 -0.75769264 -0.17546973 0.44825032 -0.8520206 0.03140252 0.27148667 -0.028861199 -1.3415927 -0.23137249 -0.23100789 -0.38118768 0.00437423
8379 0.66541684 -0.56784827 -0.16672775 -0.1361537 0.5106073 0.019074189 -0.50827646 -0.2784841 -0.32814413 -1.1021454 0.10224369 0.013021121 -0.50636494 -0.49179828 -0.28116897 0.010253345 -0.26286697 -0.30595735 0.29005402 0.26308525 -0.13121912 0.20998488 -0.4695289 0.45435727 0.37693074 0.38380003 -0.033894457 0.72704726 0.38876367 -0.46540648 0.54728276 0.75340533 1.0473704 0.033185393 0.4673656 -0.70722634 0.31011707 -0.023239372 0.91180015 0.18363434 -0.5009542 -0.11936409 0.22099012 0.42548352 -0.42039713 0.4759716 -0.1292627 -0.6829853 -0.60354143 -0.44071725 0.3031631 -0.4131815 -0.6164945 -0.3348916 1.1840777 0.10106863 -0.8736078 0.35872173 -0.70482 0.100932285 -0.22377464 -1.3012443 -0.19695093 -0.6955596
7314 -0.44677135 0.41639304 0.39614034 -0.81525755 -0.40975136 -0.55595714 0.41321176 0.5752468 0.1683671 -0.14158383 -0.22090961 -0.39420182 0.08120983 -0.9261679 0.4578869 -1.0426923 0.33846897 0.12175959 0.17577034 -0.27751133 -0.40186462 0.8051177 -0.567621 0.059209365 0.46772647 0.15619636 -1.729673 1.4016368 -0.15532304 0.453797 0.24964102 0.12965119 0.27985916 -0.4407883 -0.30911505 -0.4801223 -0.35771906 -0.40579644 0.27339813 0.1957573 0.83553004 0.6972728 -0.3776123 -0.08145498 -0.51140743 1.1479679 -0.50035214 -0.3442728 -0.10151117 0.5418436 0.2629359 0.68559927 -0.03596753 -0.5526106 -0.38402498 0.01806739 -1.3938328 0.14659506 -0.78596056 -0.67819124 0.39085597 -0.29675755 -0.20575345 -0.789178
7267 -0.09835768 0.0023183683 -0.09950739 -0.28650326 -0.712254 0.26993164 -0.4510229 0.15746288 -0.24086718 0.686651 0.17888567 -0.14356399 0.30402946 -0.53406256 -0.007870409 0.65371835 0.83430064 0.3965241 -0.40440032 0.59877855 0.548768 -0.55132675 -1.1487349 0.00859882 0.34781444 -0.22562228 -0.4894898 0.5659301 0.6889552 0.18324688 0.095055416 -0.28073254 -0.23573229 -1.2584457 0.34883592 -0.7516005 0.65345013 0.886309 0.39460915 0.37297443 -0.42315376 0.6895637 1.3187759 -0.22087039 -0.791647 0.75140077 -0.7115725 0.6737451 -0.12379408 -0.25495416 0.17073052 1.1126883 0.42099193 0.6379378 0.17383836 -0.039407674 -0.5735931 -0.44387802 -0.23138492 0.21060409 0.21742718 0.1165099 0.54718214 -0.7560348
6348 -0.5801925 0.65885407 -0.30087253 -0.14219972 -0.73445517 0.6984428 0.027930925 0.0990735 -0.20745218 0.20549548 0.10929075 0.033071827 -0.28731385 -0.15470487 0.91889054 -0.63676524 -0.35007748 -0.50850743 -0.15567222 0.71447515 -0.033101816 -0.6955635 -0.46875632 0.75045395 0.033426795 -0.46992454 0.12781209 0.406689 -0.8043453 0.8289732 -0.2517158 -0.21424557 0.3299134 -0.41929317 0.54991174 -0.0027096402 0.09460636 0.86467665 0.8093156 0.91456074 0.29685527 0.531293 -0.92083645 0.22502291 -0.51552796 -0.110867925 0.69849074 -0.36745906 0.051216003 0.310582 0.59244794 0.27692363 0.18965656 0.61736447 0.28417894 -0.7115374 -0.17040329 0.32004598 -0.0122331 -0.08985828 0.819201 -1.2884806 0.3935684 -0.12103412
6398 -0.13459685 -0.33637163 -0.31079856 -0.017340835 -0.23845126 0.16441135 -0.81320775 0.3159871 -0.022730954 -0.43755344 0.4769428 -0.101263575 -0.35212353 0.28416416 0.42699066 -0.8554687 -0.79787385 0.4864845 0.60700023 0.0040816776 -0.1842263 -0.5628363 -0.13814367 -0.092049144 0.23496048 0.19195867 -0.27233464 0.33722442 0.80822647 0.17612903 -0.35017014 -0.2150075 0.18042517 -0.30960754 0.42045414 0.20714466 -0.33692238 0.8017783 -0.42275405 0.03573362 -0.30485487 -0.025708579 0.36575043 0.31740877 -0.40868655 0.1361857 -0.15123746 0.27952895 0.0070492974 0.2153626 -0.070899636 0.34844735 0.114623345 -0.29538333 -0.053799838 -0.29994985 -0.29301634 -0.14421651 -0.48386705 -1.0918702 -0.38829696 0.0011347942 -0.15695436 -0.2561815
4201 0.089365415 0.31255385 0.08750696 -0.15301852 -0.03918696 -0.08580798 0.2514317 0.760182 0.06707653 0.32979932 0.25146836 -0.17950411 -0.47717485 0.52269924 0.22757736 -0.6130496 -0.47563264 0.28451115 0.66154504 0.64505196 -0.7795677 -0.28674933 -0.0708872 -0.1760018 0.09844939 0.88339216 -0.46450752 0.49139372 0.46419555 0.18205976 0.40732566 0.3034374 -0.16218442 -0.6172015 -0.11149401 0.32106924 0.030832902 0.6215746 0.23435952 -0.26811725 0.58206004 -0.32519007 -0.45171395 0.15554892 -0.36553994 0.32784766 -0.610635 0.060687203 -0.05967343 -0.11483981 0.03127952 -0.12165818 -0.2987103 0.4876208 0.22016291 -0.09228672 -0.028785732 0.41282034 -0.32073683 -0.5818765 -0.1985064 0.062662534 0.03697909 -0.20167631
1658 0.54072493 0.26927668 0.4780664 0.3358119 0.07615649 -1.1213728 -0.64624375 0.23547007 0.58087873 0.29416698 0.061511457 0.46456918 0.3866893 -0.41876343 -0.075131744 -0.8849532 0.34677652 0.112198554 0.51271415 -0.07987535 -0.26286095 -0.8340378 -0.32097244 0.48402065 0.71291846 0.098462634 -0.55943555 0.38117775 0.5310719 0.5903442 -0.53901935 -0.32251096 0.6572492 1.3257715 0.21012942 0.24362047 0.8174623 0.37389553 0.3244315 -0.10245182 -0.13701233 -0.0039067 0.45095408 0.049785886 -1.0567212 0.20904487 -0.03006076 -0.103494525 0.18811853 -0.6357798 -0.011947855 0.35183322 0.036063805 -0.24485661 -0.17090382 -0.6867563 0.59426224 -0.18201798 -0.32129776 -0.7987435 -0.51322556 -0.18996583 -0.35016602 -0.9536002
6661 0.034879353 0.13864753 0.67799443 -0.41167772 -0.43509233 -0.15559158 -1.4756471 0.46071982 -0.34295765 0.19592294 -0.07999181 -0.5663135 0.6840775 0.41673592 0.3142069 -0.32349792 0.6290852 -0.49623555 -0.5231921 0.007682401 0.24857098 -0.1590792 -0.35460716 -0.08615803 -0.17281605 0.83707607 -0.27274078 0.23839757 0.11005024 1.3077077 0.8020876 0.40101898 -0.07509563 0.04102586 0.51599574 0.6223429 -0.5485272 0.1062684 0.66628736 0.50649434 -0.17185213 0.5707169 -0.22105883 1.1042397 -0.26100284 0.39808452 0.34068996 -0.32469916 0.4647648 -0.84521025 -0.2952745 0.12577455 0.7375586 -0.57076913 0.73019624 -0.9975256 -0.55053514 0.16301452 0.39470872 -0.8061701 -0.696626 -0.52993906 0.13028939 0.59670687
6660 0.09294739 0.26448807 0.45563003 -0.3525153 -0.16959296 -0.5094925 -1.5098708 0.013145719 -0.2425832 0.2533944 0.00016746768 -0.8055614 1.0570059 0.60564274 0.45618573 0.07936969 1.0386901 -0.09921366 0.09445324 -0.28140157 0.4391416 0.021992553 -0.0109083 -0.26273257 -0.04319539 0.6991015 -0.15234494 0.26616034 -0.7397665 1.2816473 0.84333074 0.497122 0.27898216 -0.20599951 0.48383996 0.53433025 -0.052369222 0.33403674 0.6770202 -0.39259577 0.15765299 0.3447154 -0.57668656 1.1052204 0.048557468 0.7513467 0.20760293 -0.32952008 0.8594049 -0.5616069 -0.5023193 0.07110978 0.08610941 -0.18315957 1.281807 -0.7877385 -0.9448421 0.6172511 -0.015665364 -0.9852994 -0.65980697 -0.50319546 0.5309463 0.7512735
6035 -0.9178979 0.749748 -0.026633784 -0.7158384 -0.16631849 0.17062445 -0.2827194 -0.6055536 -0.21496178 0.1131619 -0.3548413 -0.2555851 -0.5754679 -0.0095226 0.41477984 0.17138675 0.78384846 0.22660893 -0.09349632 0.4833264 0.07829818 -0.7952036 0.19118069 -0.51075447 0.9398354 0.8267026 -0.33815685 0.8498744 -0.8166895 0.25675097 -0.114618376 -0.33253315 0.03153303 -0.39299008 0.9424042 -0.56038284 0.08805212 0.6505879 0.10909307 -0.17290829 0.17665984 0.37403905 0.123166285 0.59002453 -0.2350376 0.09475523 -0.98453116 0.6661594 0.09964251 -0.18062711 -0.41395143 0.14305978 0.34709987 0.048972663 0.87897474 -0.13082565 0.19221708 0.023784846 0.74885035 -0.3852039 0.24424775 0.27144617 0.59347945 -1.7817546
1486 0.6798655 -0.67230725 0.6824055 -0.8632348 -0.038482364 0.06734495 -1.1504027 -0.28989536 -0.66157645 -0.5105201 -0.31290448 0.099256255 -0.5211878 0.21157934 -0.5992238 -0.47152853 0.20032363 -0.0703504 0.19687985 -0.017381163 0.6813552 -0.11775281 0.08370341 -0.7441856 0.7832039 0.27827227 0.4947306 1.1074723 -0.0829416 0.20770931 -0.07987597 -0.110409215 0.4161442 -0.71114284 0.16242716 -0.123782076 0.32645568 0.007113774 -0.037743013 -0.0214549 -0.045095045 -0.19821192 -0.17809975 0.4819014 -0.36272424 0.20683686 -0.5566042 -0.42230076 0.7416664 0.21848215 0.17426708 -0.21193616 -0.056137927 0.26019496 -0.36347637 -0.5083652 -0.7961735 -0.3160976 0.008122493 -0.041737698 0.76110655 -1.1941618 -0.64755666 0.0015164306
7083 -0.1524729 -0.5305676 0.39637718 0.008211945 0.17421411 0.16061296 -0.5559646 -0.09859056 1.0113199 0.44516852 0.5489533 -0.21656209 0.25324047 -0.9227643 -0.31314924 0.27649018 -0.22144873 0.10679205 -0.07605542 -0.061152745 0.008700463 -0.56810933 0.10377404 0.04771974 -0.24689616 -0.4330596 -0.9758565 -0.17912579 0.0654532 0.222847 -0.37517858 1.1713508 -0.3107761 -0.9004015 0.1695599 -0.4571608 -0.2699389 0.34394693 0.5122221 -0.24293502 -0.14279394 0.22620855 0.45588243 0.49082756 -0.9291961 0.6872791 -0.011399357 -1.1657293 0.432978 -0.26708326 -0.21785244 0.6793032 0.604172 0.61508477 0.19525962 -0.12404584 0.27137387 -0.5859554 0.702588 -0.37713212 -0.284103 -0.281417 0.028461384 -0.19594966
7273 -0.32558164 -0.31993356 -0.6197763 0.18917121 -0.80790055 -0.08771818 -0.2852812 0.32822803 -0.22409661 -0.46238515 -0.29673514 -0.62277997 1.1295949 -0.55709434 0.27392775 0.19398622 0.2206754 -0.5962452 0.46459126 0.74753785 -0.24081448 -0.5968803 -0.64237344 0.30427155 0.075327255 0.034937177 -0.050492015 0.10105497 -0.74458754 0.36022845 -0.044907268 0.39568767 0.18048786 -0.5807203 0.35517853 -0.8090817 0.068920165 0.5419485 1.4114053 0.3873697 -0.08904554 0.71032256 -0.17805701 -0.7355543 -0.8623311 0.026347095 -0.23211373 0.34640726 0.85096896 0.59021604 0.2918322 0.90288913 -0.24846749 -0.50303537 -0.21731737 0.40041557 -0.43824622 0.6835774 0.914984 -0.5642025 0.6882819 -0.36859518 -0.9127856 -0.40970722
4339 0.2129016 0.10364045 0.39011264 -0.6198768 0.022883806 1.0277416 -0.18901697 -0.23035751 0.046249907 -0.4551837 0.96773225 0.022445183 0.29432985 0.3605623 -0.15517157 -0.019909134 0.05786659 -0.4931191 -0.13630694 0.7416748 -0.36127615 -1.4973029 -1.1131159 0.12767197 0.7777343 -0.16567829 -0.68978536 0.049948566 -0.30082822 0.39704522 -0.44501662 1.190554 -0.51560146 -0.7731032 0.0058219302 0.028795129 0.9046025 0.35610804 0.3592192 -0.7032719 1.5189657 -0.6000732 0.24674106 -0.21913995 0.19649042 0.26282007 -0.016174557 -0.35936838 -0.37783995 0.05928728 0.09959481 0.01139867 0.3372595 -0.27878708 1.1548308 -0.09795091 0.5359702 0.22472571 -0.19290899 -0.23768473 -0.16863242 0.06900395 -0.65287066 -1.0491673
3799 0.17586668 -0.17958893 0.6892463 0.13610025 0.0223116 -0.5032919 0.026087066 0.29205027 -0.065357134 -0.09303161 0.84530824 -0.40510723 0.32725975 0.54443663 -0.7437965 -0.12819634 0.067728624 -0.76559836 0.12449712 -0.27983007 0.13619739 -0.999825 0.118487686 0.48538584 1.272173 0.16921744 -0.015752358 0.054560877 0.2359564 0.51236683 -0.0053820536 0.33378562 -1.1344457 -0.13652319 0.44126973 -0.7397016 0.18193007 0.26391324 0.043486997 -0.34379217 0.7411249 0.057707097 0.5667657 0.094939865 0.14275347 0.68548274 -0.6529855 -0.5863517 0.08826677 0.38920128 0.10346104 0.38283473 -0.297402 0.01116347 1.4750938 0.48105907 0.055661477 0.15981804 -0.44200087 -0.6772009 0.5508438 -0.08414161 0.49048063 -0.022076663
5305 -0.2586581 0.038054504 -0.06463692 0.07582285 0.31073672 -0.22546555 -0.38043034 -0.66611713 0.5443077 -0.14026092 0.14887016 -0.14809261 -0.27862018 -0.7477948 -0.6835892 0.38998896 -0.18933034 0.107986555 0.047213096 0.13905141 -0.61725795 -0.32838792 0.27279893 -0.29292813 -0.09593844 0.2565409 -0.7624226 -0.15470873 0.092015535 0.12744904 -0.15970917 1.091616 0.19846441 -0.75099105 0.3134882 0.07133846 0.017365552 0.17648758 0.32477072 -0.12503213 0.111589745 0.63367915 0.2485249 0.49604946 -0.83353066 0.636322 0.44986618 -1.1596417 0.44207463 -0.53342456 0.38648263 0.70260984 0.6327242 0.6938145 0.32467368 -0.16268392 0.3755292 -0.7913953 0.70251137 -0.37420943 0.1714851 -0.5043174 0.2539045 0.05284009
6583 -0.38943028 0.6338036 0.31260562 0.3656134 0.5033871 0.09665697 -1.1230254 -0.073294885 0.57964355 0.16557907 0.105359375 -0.5320184 0.380922 0.4868227 0.18111746 0.2822569 -0.060754325 0.10567046 0.82793343 -0.08353614 -0.42856362 -0.33434474 0.38234848 0.01644166 -0.017088955 -0.8064688 0.019611094 -0.42588595 1.2115057 1.2229723 0.83631617 0.3270974 0.2792665 -0.8903545 -0.1480239 -0.0008508411 0.55388093 -0.69257927 -0.08628047 -0.8127486 1.3354064 0.7347057 0.53626126 0.059213802 -0.112308174 0.92878175 -0.5410713 0.1397702 -0.7653886 0.02960826 -0.2515004 1.3561306 -0.28529134 0.50659573 0.31250542 -0.37462673 -0.9532538 0.46767703 0.17670037 -0.34043896 0.5379181 -0.08571668 -0.8432626 -1.2522327
6736 -0.47690064 -0.41774988 0.13779368 0.31722426 -0.07776112 -0.49424338 -0.17226307 -0.4741961 -0.6361904 -0.40068126 0.37492108 -0.25501832 0.54186326 1.5898612 -0.9467663 0.3480097 -0.26352978 1.1998582 -0.9321355 -0.06952474 0.51120496 -0.5821091 -0.3150889 0.7177175 -0.39601994 0.6402915 0.59216654 0.6969992 0.1460391 -0.2565193 0.29216245 1.3572599 0.3234377 0.2233314 1.2978475 -0.12997243 -0.8883599 0.24169336 0.9021527 0.8211295 0.11332939 0.14792669 -1.17328 1.7186407 -0.038011886 0.60895044 0.34258 -1.3392203 -0.20125262 -0.20086281 -0.3792634 0.6190324 2.203302 0.01794817 -0.19141008 -0.5863144 -0.019635187 1.0525994 -0.19201049 -1.1000283 -0.10211391 -1.2688409 -0.4028908 -1.3773444
2661 0.05028941 -0.13331373 -0.0029829473 -0.41569653 1.0210198 -0.04395578 -0.76213074 0.031343862 -0.5629955 -0.3069794 -0.18450138 -0.12006108 -0.20331204 -0.11319488 -0.8339517 -0.38244253 -0.54872143 -0.59263444 0.78567326 -0.27888015 0.26748082 0.5394342 -0.20059714 0.034557268 1.1122797 0.52923536 0.3709141 0.44877696 -0.24354781 -0.054098055 0.07532877 0.42174906 0.5606662 -0.5228855 0.8490153 -0.6069695 -0.13191316 -0.16053605 0.5440838 0.32565427 -0.16609646 -0.2696316 -0.13505468 0.24419098 -0.31289512 0.55871934 0.16774468 -0.30114055 -0.5834081 -0.40600017 -0.13652106 -0.042357795 -0.103826135 -0.2420406 0.6343247 -0.41255903 -0.23179694 -0.5759449 -0.51648825 0.5267033 0.31685463 -1.0707238 0.11042937 -0.5442537
5612 -0.45503348 0.18976241 0.45665127 -0.30021238 0.05126542 0.14975362 0.092584066 0.43641844 0.53873104 -0.5118032 -0.5796724 -0.5849992 0.048179597 0.24777639 -0.58550745 0.8955161 -0.55979186 0.16583896 0.81131583 -0.051834 -0.419363 -0.707238 -0.09832196 0.68034226 0.16463862 0.084077485 -0.21284926 0.50115657 0.58950454 -0.27624464 0.30124065 -0.2479917 0.36669245 -0.3080429 0.0126047805 0.52919364 0.18977872 0.8231778 0.2480897 -0.002052746 -0.18622114 -0.3674098 0.43697864 0.6734446 -0.45860997 0.15387282 -0.45970836 0.64228106 -0.24963439 0.01162638 -0.40732422 0.4239206 -0.27154237 0.09980445 0.45763996 -0.38435453 0.06846189 0.64355886 -0.5690768 -1.0695132 0.20996016 -0.16939364 -0.2153315 0.1439809
5776 0.025170032 0.40823284 -0.5384889 -0.4841527 0.43091366 1.1441538 0.2938431 -0.16617769 0.42668164 0.023725448 0.69867736 -0.041734166 0.6718907 0.84049624 -0.29489455 0.16621771 0.59838164 -0.83670723 -0.5515215 0.8270755 -0.3287899 -1.3744762 -0.8045308 0.324681 0.2985348 0.3560631 -0.6848102 0.55470234 -0.10157204 0.74227405 -0.36036956 0.63729584 -0.25388485 -0.07363338 -0.23963228 -0.24781798 0.6840827 0.3579096 0.09224744 -0.78834885 1.0871589 -0.5969041 -0.16340633 -0.3364685 -0.39547667 0.88307095 0.6163775 0.2512867 -0.2722854 0.19513926 0.5480381 -0.43691444 0.015676307 -0.14226444 1.2517574 -0.70326203 -0.2964093 -0.29061124 -0.09149727 -0.17570621 0.06656394 -0.62559104 -0.89567894 -1.1153516
4931 -0.22877932 0.43884134 -0.71868086 -0.48851553 0.67380106 0.123801604 0.6816304 0.20233046 0.2215503 -0.21580283 0.3865913 -0.08986374 0.70413387 0.4320102 0.48722443 0.29927844 0.23647738 -0.8689084 -0.1963251 0.38459745 0.0865115 -0.5132167 -0.14112715 -0.21039523 0.33170947 0.18272024 -0.75770813 0.9208662 -0.16887145 0.40987933 -0.4566223 0.09055078 -0.30224034 0.48706302 -0.3729319 -0.9322393 0.64394003 0.964678 -0.09500369 -0.5983843 1.0725237 -0.37495843 -0.44937962 0.020332789 -0.60811615 1.1045305 1.038137 0.051233243 -0.5368051 -0.15736893 0.103871435 0.454653 0.0712608 0.20902504 0.8110772 -0.6272828 -0.712318 0.07046531 0.3967734 -0.018507143 0.44559896 -0.9432809 -0.61618155 -0.74193937
4443 -0.40247 0.1191825 0.572174 -0.07338298 -0.0070260842 0.013507987 0.061251357 0.54260254 0.10248052 -0.8186761 -0.40128484 -0.028534923 -0.3053738 0.63808626 -0.08006456 -0.14019763 0.24026886 -0.13430157 0.21793818 0.08443665 -0.2790295 -0.7437061 0.15402898 0.16695574 0.3698333 0.23228294 -0.29512632 0.46574855 0.8088157 0.055003893 0.033556484 0.052899104 -0.061768968 0.026633225 0.32700232 0.37567782 0.27699715 0.9263793 0.63798636 -0.11101196 0.45823538 -0.0070189787 0.34602168 0.09189604 -0.8304365 0.24992166 -0.8304223 0.13628985 -0.5581899 -0.16826314 -0.3852948 0.5445627 -0.29947945 0.7314264 0.1538564 -0.39144307 0.032320365 0.8164161 -0.5429823 -0.40276644 -0.35355812 0.13185813 0.119941734 -0.039116852
5141 -0.8797779 0.025180511 -0.19987746 0.3185218 0.29299745 0.6114019 -0.21409254 -0.013612107 1.0892036 -0.18106996 -0.28725153 -0.10835052 -0.20641176 0.12676598 -0.036840428 -0.4634856 -0.4246084 0.77392477 0.4974297 0.6397617 -0.12128841 -0.4470795 0.071752936 -0.09069829 0.2690018 0.07118723 -0.13251266 0.27471676 -0.036384784 1.0470551 0.17235036 0.45464662 -0.24838042 0.45633167 -0.2703743 -0.19667464 0.26385105 0.5611778 0.77721953 -0.12241191 -0.34134093 -0.24177794 0.66330963 0.04410008 -0.60926855 0.41705853 -0.28906983 -0.8680048 -0.06728551 -0.27319738 -0.5144594 0.40805385 -0.41070485 -0.22180633 -0.37765408 -0.07953645 -0.11945337 -0.42183897 -0.6060885 -0.57269394 0.10872916 -0.0011953438 0.4265807 -0.22081497
906 -0.00037897762 0.20701042 0.24613293 0.03564756 0.04882512 -0.19475646 0.02053767 -0.342979 0.7544166 0.5521001 -0.5573857 -0.60127586 0.42039886 -0.42832863 -0.26227993 0.38093132 -0.5035565 -0.07971507 0.11552136 -0.7331453 -0.08930871 0.35687262 -1.0207211 -1.3569167 0.548601 0.64207405 -1.1171182 1.3891646 -0.73962367 0.35496914 0.16616228 -0.06954597 -0.1303153 -1.0103935 0.18254298 0.5056592 -0.56884205 0.05793234 0.79971886 -0.29641145 0.22038469 0.9376163 0.22136667 0.14726445 -0.23865993 0.52562445 -0.34539247 -0.14617504 -0.20295194 -0.2572509 -0.36212617 0.66524833 -0.374248 -0.4658885 -0.8276112 0.09453882 0.2780151 0.13660258 -1.0165007 -0.65677613 1.182734 -2.1693077 -0.59134597 -0.32731614
5451 -0.8793242 -0.08866974 -0.11785628 -0.37632078 -0.07413056 0.034609523 -0.3743521 0.37915674 1.1317875 -0.41133577 0.55083436 -0.47938442 -0.19040911 0.4136883 0.06249934 -0.07745941 -0.26046908 0.21264389 0.19290242 -0.87215805 -0.53547066 -0.45780212 0.024003627 -0.28866106 -0.0001372013 -0.058294002 0.013281814 0.6594799 0.5136311 0.47507727 -0.14979264 0.026582122 0.39893758 -0.21102163 -0.0418476 0.11529001 0.32100752 0.61472976 0.21418108 0.2386365 -0.61259395 0.041930772 0.997666 0.7642793 -0.2530468 -0.261722 -0.4884249 -0.00067978766 -0.59600836 0.2954963 -0.8010452 0.706173 -0.49515125 0.0012552255 0.13724023 -0.79098153 -0.4573303 0.3045522 -0.5212017 -0.5574418 0.48428953 -0.041023515 -0.274517 -0.20131294
3193 -0.6440064 0.47911125 -0.0741684 -0.18288724 0.734483 0.6842192 -0.12249755 -0.35766435 0.6186639 0.27626544 0.12070371 -0.14436658 -0.3813588 0.5901725 -0.042699978 0.114359066 -0.69134337 0.77373385 0.8041296 0.22328551 -0.010934779 0.10536393 -0.613127 0.28118744 0.30803877 0.13013723 -0.48694164 0.29160002 0.58029836 0.5609977 -0.071454436 -0.20879406 0.2153869 0.006375785 0.736139 -0.6479706 0.30914408 0.47786054 0.4081748 -0.342632 0.20740162 -0.2649887 0.44065413 0.24738243 -0.62488854 -0.034138262 -0.15987599 0.06671474 -0.1710286 -0.6864188 -0.22556068 0.2995293 0.28773594 -0.4856984 -0.6894829 -0.12867582 -0.39879867 0.47104138 -0.41748637 -0.5547151 0.09804784 -0.09222698 0.5367313 -0.010374049
7923 -0.9024028 0.961795 0.37217003 -0.4578666 0.09658702 -0.10472374 -0.72768104 -0.32464236 -0.7487845 0.44406545 0.66801023 -1.0184495 -0.36429006 0.26266408 0.13563895 0.070373505 -0.22843944 1.4227751 -0.2139469 -0.43211988 -0.19930832 -0.8232686 -0.6203736 -0.2537498 0.36403212 0.09168375 0.3532242 0.6279292 -0.13178985 -0.22598776 0.3506982 -0.060939696 0.55347884 -0.47771505 -0.0591555 -0.34474948 -0.82881576 0.3010699 0.31718126 -0.8559952 0.4419965 0.029242048 0.045288548 0.20208111 -1.2917554 0.08179728 0.97742516 -0.20977005 0.81393594 -0.34350196 -0.396833 0.11334944 -0.9172615 -0.1002507 0.4334576 -0.13179465 -0.91178775 -0.31808147 0.2736409 -0.54636586 0.5025709 -0.30689788 -0.8099662 -0.44903898
304 -0.3424648 -0.6360274 0.63178694 -0.5110121 -0.4956626 0.24732316 -0.48907727 -0.29970998 0.1699975 0.13175425 -0.23117408 -0.17221464 0.58519053 0.48459345 -0.1542408 -0.34913418 0.4558077 0.3790526 1.4913836 0.4744134 -0.18849571 -0.64797604 0.46717814 0.39221418 -0.70217633 0.4863645 -0.059294518 0.9787248 -0.08079968 0.33604902 -0.59547055 0.15942365 -0.21102858 -0.506275 0.17490655 -0.37488782 -0.32558936 -0.08585193 0.5155901 0.5814818 -0.13951345 0.90413123 0.218866 -0.38319212 -0.7196412 0.17590852 0.3952979 -1.5832897 -0.48581913 -0.26344243 -0.13262257 -0.51842356 0.41326687 -0.047230624 0.57953155 0.024346802 0.028872702 -0.32843515 -0.11284907 -0.34516746 0.52512896 -0.12059983 0.65722954 -0.55277675
3240 -0.33151323 0.16592444 0.3182396 -0.6181813 -0.3916025 -0.15616885 -0.5897638 0.372691 -0.080411784 -0.3325563 0.08601933 -0.6569895 0.62626046 0.39202487 0.3527636 -0.30882403 1.0605584 0.008016615 -0.15404232 -0.3500797 0.24303748 -0.57963425 0.4620079 -0.103751935 -0.24988377 0.5527618 -0.16930552 0.286343 -0.38130343 0.5490273 0.27374834 0.5968467 -0.10562367 -0.43930727 0.2084357 -0.047643915 -0.5550594 -0.005727607 0.4642251 0.06744173 -0.038524758 1.0125973 0.17091776 0.49185342 -0.50082254 0.3017559 0.43314418 0.36477306 0.5712194 -0.9886875 -0.59653157 0.20919733 -0.02219148 -0.54261017 0.9614915 -0.44011754 -0.21429253 0.02235345 0.5959875 -0.71091104 -0.37219456 -0.9442751 -0.19215317 0.7273315
501 0.31061172 0.07905685 -0.068064384 -0.37063643 -0.1361692 0.83787954 -1.3638178 0.34530544 0.52434975 0.9466309 -0.03482081 -0.8020229 0.72023726 -1.199831 -0.0116994735 0.33070353 -0.2638316 0.34215796 0.2910974 -0.31712982 0.20486595 -1.2979352 -0.09934607 -0.13412303 -0.36903283 -0.39194667 -0.9714844 -0.24623823 -0.40688297 -0.46068984 0.12525192 0.70856494 -0.37505057 -0.86587113 0.61915797 -0.6463399 0.100785285 0.37884334 0.36610675 -0.13175522 -0.122739 -0.20354918 0.6519883 -0.17001072 -1.1473864 0.9368296 -0.26848504 -0.43757373 0.7804632 -0.8509645 -0.19811766 0.84020376 0.92493856 0.5444961 0.63732994 -0.2574252 -0.3276419 -0.18238968 1.0775603 -0.011719775 0.47359425 -0.034140486 0.24185383 -0.3867863
555 -0.12861328 1.7186149 0.602448 -0.77197444 0.8164454 -1.0709709 -1.1425055 -0.18501954 0.915937 0.52377635 -0.033377413 -0.28440216 -0.6809783 -0.9347892 -0.566694 0.38546887 -0.1701574 -0.3947341 0.010893569 0.6348983 0.8762917 -0.22341324 -0.86060005 0.4853198 -0.36203793 0.10141888 0.3597718 1.8199928 -0.21800204 0.98110086 0.20289576 -0.15543003 -0.29008865 -0.891601 0.3108791 0.36178756 0.8832521 -0.2687271 0.7148295 0.2666454 -0.19152528 0.17116523 1.1377574 -0.6963362 -0.1188246 0.7222609 -0.10430338 0.36396205 0.27770656 -0.18943836 -0.2638515 0.21121588 0.1600009 -0.30398077 1.7552382 -0.075019 -1.4672278 -0.15868624 0.72551817 -0.14165567 0.21757689 -0.50144273 0.021780765 -0.2233307
4199 -0.22151168 0.0675262 0.37804514 -0.25335133 -0.18267247 0.1090982 0.38324186 1.2531229 0.4549778 0.53894 0.5126068 0.04332686 -0.15942019 0.76119393 -0.32499844 -0.17223015 -0.043967023 -0.5029231 -0.03906508 0.45225698 0.19063185 -0.16371621 -0.13781132 -0.1253272 1.0452703 0.40810004 -0.22674541 0.20923287 0.19325079 -0.3095837 0.274619 0.40386745 -0.15406197 -0.98029256 0.38866514 -0.14942732 0.104193404 0.62225085 0.20801547 0.16163108 0.038405996 -0.15332964 -0.17879534 -0.18989092 -0.1323865 0.33089355 0.46809644 -0.24081965 0.004941572 -0.15121615 -0.06655148 -0.26870653 -0.56180257 0.91485506 0.16691075 0.113707684 -0.072292574 0.4402577 0.03187321 -0.87259763 0.17671771 0.11006185 -0.21990605 -0.842487
6861 0.23116104 1.2394869 -0.47657302 -0.3318019 0.94983757 -0.44380426 -0.11847302 -0.27023736 0.5316025 -0.1470592 0.06872546 0.18252721 0.14620747 -0.10061926 -0.34898034 -0.3670356 0.041521672 0.24069145 0.76163995 -0.0012393101 0.38674417 -1.6272388 0.34252182 0.05828909 0.6971823 -0.049921516 -0.30229032 0.65832156 0.9758231 0.3970921 0.89797026 0.03723082 1.2762539 -0.16178614 1.6132591 -0.5318935 0.30460262 0.18903624 0.80942124 -0.30031535 -0.20395878 -0.048964925 -0.30567944 -0.040053062 -0.010350079 0.6949204 0.21104337 0.036498934 -0.013608766 0.6461573 0.25777325 0.33117524 0.8819707 0.2023471 -0.38150647 -0.67525077 0.38108385 -0.49328488 -0.7870421 -0.767549 -0.5460362 0.49417725 -0.5101353 0.17232749
6034 -0.38397723 0.37799013 -0.35431147 -0.66474324 0.03211339 -0.073695034 0.095551305 -0.9204333 -0.20215939 0.081982374 -0.26882836 0.17109029 -0.12575506 0.21077445 -0.11067751 -0.10481542 0.75224465 0.32909742 0.28557658 1.0120192 -0.07955155 -0.5557425 -0.11402945 0.12757385 1.317709 0.35465077 -0.25961158 0.81967944 0.1803865 -0.32890987 -0.207665 -0.2743397 -0.2501404 -0.44069704 0.41720465 0.21205705 -0.45901752 0.66639096 0.42797711 0.03775006 0.19108447 1.0486217 -0.02733827 0.41051185 0.023191191 -0.28689978 -1.3596665 0.39574224 0.009971623 -0.055877075 -0.72554284 0.7466748 -0.033386186 0.33061108 1.0353118 -0.09271826 -0.08980871 0.4610374 0.52286124 -0.321949 0.29414716 0.28377 0.5043328 -1.3668984
6587 0.103023104 -0.36069554 -0.26976296 -0.06936423 -0.043053225 0.054924957 -0.6858601 0.33433908 -0.050074644 -0.033259086 -0.14268945 -0.2638145 0.28349745 0.2336467 -0.20520045 -0.27953622 0.21225944 0.6036645 0.44111907 0.21801041 0.24084488 0.09664872 -0.1946559 -0.29916275 0.84689504 0.5405483 0.6459625 0.86252105 0.5743273 0.1517573 -0.0101509 -0.2939734 -0.66481555 -0.5958725 0.46359548 0.5239538 1.1247007 -0.8723102 0.04520351 0.094346136 -0.022584157 -0.4018136 -0.49961236 0.9526883 -1.0527623 0.50741136 -0.46623474 -0.55194163 0.3149962 -0.19131319 -0.00017762712 0.22012495 -0.14696178 0.68154776 -0.078235276 0.3881852 -0.22011292 -0.63532674 0.11177425 -0.05045453 -0.29006767 -0.9308719 -0.58281994 0.23787516
7114 0.20848593 0.097981006 0.056015994 0.7571312 -0.4690423 0.0803222 -0.3089409 -0.23254438 -0.14252956 0.03313838 0.14710158 -0.2333281 0.8496417 0.06721081 0.1864121 0.29974627 0.24636637 -0.8631097 0.101818316 0.82937104 -0.21569549 -0.6506428 -0.52195156 0.17751908 -0.15467776 0.08872754 -0.31577495 0.2413233 -0.35254008 -0.04200202 0.48891705 -0.3147524 0.6054439 -1.3448801 0.40168127 -0.36956343 0.68707556 -0.14036709 0.83709913 0.39329353 0.12627962 0.809517 0.054140847 -0.07604557 -0.5589332 -0.023948742 0.46363187 0.23352908 0.9204002 0.6511106 -0.01709626 1.0126837 0.37108377 -0.53443563 -0.40713352 -0.025122717 -1.097669 0.33211565 0.1962729 -0.58445483 0.21075395 -0.17048645 -0.66616 -0.3116613
57 -0.5425441 0.22108573 -0.40337586 0.081240796 -0.56844854 0.42760676 -0.58611166 0.31780708 -0.12251168 -0.10335998 0.0057268976 -0.34655368 0.64707226 -0.58745307 0.79034376 -0.5548674 0.031125532 -0.40211216 -0.42271444 0.20245834 -0.09621286 -0.7263429 -0.58228105 0.23059043 0.03698743 -0.427002 0.16807598 0.12253883 -0.6565931 0.08073642 -0.37546664 -0.17018703 0.061896004 -0.6585551 0.7666612 -0.39549598 0.06595807 0.4337982 0.84152204 0.23775935 0.045593984 0.40448588 0.18674298 -0.08166308 -0.31907505 0.03999643 0.42693207 0.03304421 1.4157068 0.5549329 0.048926644 0.3119626 -0.16655836 -0.21850628 -0.0445875 0.501613 -0.02891586 0.010307103 0.19747582 -0.57773334 0.374113 -0.9349296 -0.76756305 -0.32187
3973 -0.034611747 -0.08680766 0.6691464 0.2680404 -0.83870393 0.2547061 -0.7493874 -0.39283094 0.16243996 -0.23235203 0.05659983 -0.21745868 0.65604347 0.5454107 0.035643958 -0.5832605 0.20834406 -0.14177343 0.43777516 0.16752996 -0.3802725 0.044017836 0.21537259 0.5322053 0.730554 0.060586616 -0.7085806 0.7001696 -0.46486127 0.28982076 0.6828431 0.48465014 -0.65636057 -0.31099907 0.15410209 -0.81037 0.22325547 -0.84787136 0.14885904 1.1682615 0.045302846 0.17948262 0.6631575 0.3160812 -0.736243 0.28003404 0.471252 0.62824905 0.08447687 0.20963182 -0.0547764 0.7829902 -0.021215469 -1.139459 -0.04073973 -1.1246121 -0.72757757 0.3615889 0.78178936 -0.17172404 -0.42879057 -0.2549359 -0.56148314 -0.3681444
2894 0.5030159 0.04092193 0.25662535 -0.22363204 0.011469585 0.313798 -0.55958724 0.6345911 -0.50283456 0.1081094 0.43895894 -0.1887732 0.57638043 -0.64234114 -0.9984903 -0.45053104 -0.88844305 -0.122243695 0.113550134 0.6161141 0.9293324 -0.2751037 -0.19950303 0.5390372 0.1720209 0.28990456 0.3292959 0.31849864 -0.486542 0.48879907 -0.22604142 -0.026411872 0.47396052 -0.2682338 0.8814815 -0.6491182 0.5645382 -0.49856064 0.65655285 -0.79426855 0.20873386 0.42782727 0.17288022 0.28525954 -0.4911999 -1.0405513 -0.73562485 -0.16926676 -0.16231401 0.3548886 -0.3023249 -0.025445618 -0.8807997 -0.11819353 0.36816052 -1.1740961 -0.20313579 -0.20633547 -0.53518045 0.072144605 0.24544041 -1.2602782 0.05188433 -0.6066605
1862 0.14513838 -1.3822608 0.049510222 -0.07922512 0.6175274 -0.09360415 -0.49634433 -0.43812007 -0.30412388 -0.90557146 0.4533762 -0.10176712 -0.2706548 -0.7176713 -0.55278975 -0.28519255 -0.35668638 0.08131758 -0.040421743 0.21396793 -0.073170975 0.325949 0.0054447874 -0.34281716 0.2614669 0.5866415 -0.14697728 0.8171404 -0.1967973 -0.08776147 0.6392149 0.46150076 0.6390305 -0.05176097 0.48124978 -0.81274724 0.9366633 -0.32188958 0.90727955 0.26257208 -0.08801306 0.25535324 -0.18008804 0.3414162 -0.38356388 0.2850343 -0.61985296 -0.32433853 0.20185186 -0.4795204 -0.29135683 -0.536317 -0.3024394 -0.0450259 1.2785629 -0.70079094 -0.35501358 0.009124113 -0.77625906 -0.01075227 0.26103285 -1.1763164 -0.26360783 -0.7176625
7648 0.05986999 0.04055638 0.13668135 -0.23828198 -0.6310595 -0.560908 -1.0149112 0.3444703 0.44833 0.49094486 -0.46038848 -0.17043564 0.711675 -0.21882701 -0.38439935 -0.7665767 0.08465754 -1.0012051 -0.17107135 0.22126622 0.9426579 -1.0621961 0.34444585 0.4065946 0.520842 0.23176934 -0.64716834 0.22622141 0.43387783 0.40415594 -0.23782925 -0.07462286 0.22054139 0.31418923 0.097346485 0.016674409 0.702221 0.010349172 0.5634708 0.39573997 -0.082116865 -0.4334428 -0.49640295 0.6542874 -0.44981867 -0.08523199 -0.09524022 -0.35516393 -0.61237866 -0.37025425 0.0027577272 0.0144179985 -0.080719806 0.61336774 0.2985892 1.0582273 0.2349208 -0.9089777 0.3975659 -0.57404876 -0.5439006 -0.8001333 -0.9316682 -0.5434171
2070 -0.3555934 -0.12561773 -0.34691027 0.18698427 0.04225817 -0.051369395 -0.757117 0.12626196 1.3453882 -0.24330917 -0.23545691 -0.45463356 -0.78965163 0.29737732 -0.21726447 -0.60912436 -0.8115851 0.4943979 0.014123891 0.5455684 -0.21605259 -0.2637842 0.7699575 0.3630429 0.30046767 0.6706653 -0.40572605 0.4007198 0.15707809 0.72880644 -0.6065747 0.17671625 -0.08092175 0.00040011283 -0.13862616 -0.6271824 0.59804976 0.99217093 0.13051154 -0.03593491 -0.11142107 -0.0670123 1.0596731 0.12119468 -0.31466872 -0.02339167 0.17150344 -0.029040074 0.06937444 -0.15358093 -0.8005135 0.5418082 0.13721956 -0.6464471 -0.51411384 -0.6792274 -0.54618394 -0.2790644 -1.0091906 -0.3430594 -0.005223145 -0.17638712 0.06615971 -0.5250733
3421 0.14526908 -0.16638856 -0.9559286 0.1634463 0.103878364 0.25071695 -0.36207852 -0.39516416 0.5923015 -0.20161796 -0.2882185 -0.2316174 -0.6848387 0.16727363 -0.013533821 -0.35878038 -0.07695977 0.35768247 0.39569885 0.8761989 0.5434445 -0.5147382 0.12423373 -0.26398465 0.45149082 0.4868366 0.0071128495 0.6536472 0.05683657 0.66358036 -0.18213011 -0.025448516 -0.022246234 0.20934413 0.05113041 0.086563684 0.10732997 -0.13965441 -0.110840075 -0.20761396 -0.13713197 -0.16910878 0.45159382 -0.07757548 -0.43410003 0.4173909 -0.32713598 -0.72852814 0.12674044 -0.4017286 -0.3558412 0.7890898 -0.43744412 0.015339172 -0.3421682 -0.57695806 0.13600282 -0.6534096 -0.9003694 -0.936191 0.18555373 -0.13161653 -0.029239582 0.13046004
5342 0.52003217 -0.30947736 -0.61293083 0.67220044 0.047503445 -0.082564324 0.025012042 0.33716473 0.057138406 -0.41505885 -0.20842537 -0.31663725 1.1485777 -0.4987959 0.94342035 -0.046160277 -0.26651305 0.5985974 -0.13332099 0.49827743 -0.15680708 -0.24756132 -0.09897895 0.50739706 0.6897449 -0.263692 -0.8035405 -0.33337945 -0.035566878 0.2532691 -0.9062001 0.24986449 0.6351694 -1.1345541 1.2164693 -0.07437263 0.93770784 0.0030476416 0.7788114 0.7232106 0.44619963 -0.13137951 -0.0028133162 -0.27949825 -0.51819164 -0.32082075 -0.26438934 -0.2831974 1.4197588 0.096208476 -0.24006759 0.36474264 -0.18448049 0.23133299 0.85640156 -0.08734743 -0.30141258 0.6762001 -0.05297404 -0.46763548 1.0110277 -1.2677937 -0.5786949 0.0019940303
5140 -0.48659506 -0.21412787 0.307627 -0.10043641 0.2632398 0.33376753 -0.36047673 -0.58716 0.79870373 0.31146812 -0.45384604 -0.25847715 0.08431002 -0.06808956 -0.24870893 -0.053439435 0.0033791899 0.28638607 0.80978984 0.3516917 -0.5630809 -0.5335428 0.5328159 0.29073414 -0.19692472 0.11198609 -0.53145725 0.73942584 -0.6543837 0.44141808 -0.2308489 0.8799475 0.16609463 -0.6987654 0.33423254 -0.13435231 0.26458433 0.083560765 -0.09529299 -0.19454437 -0.20659304 0.28693047 0.54725546 0.26939228 -0.37755057 -0.12885754 0.44971007 -1.5283113 -0.13855876 -0.18417183 -0.2927569 0.52513075 0.20821251 0.13395904 -0.15226641 0.3073145 0.1719735 -0.6639752 0.20888072 -0.5110471 0.38957107 -0.055006836 0.69919235 -0.27327183
7984 -0.7562458 0.3509948 -0.28474438 0.33246785 -0.13178913 0.38259637 0.08988163 -0.35882077 -0.39315593 -0.5832865 -0.11195802 -0.68267536 0.7754581 -0.6242557 0.56661123 -0.67245513 0.025032915 -0.62314224 -0.09331551 0.40780604 -0.2920957 -0.69471985 -0.9218338 1.2887851 0.27406088 0.24230927 -0.3193714 0.6394641 -0.42279083 0.1233598 -0.69250196 -0.07086128 -0.05325087 -0.8504064 0.7056785 -0.71421707 0.56617194 0.18023361 1.2770339 0.018151768 -0.739985 1.5882813 -0.120835 0.10937718 -0.9812955 0.37528569 0.439258 0.19246885 0.4947166 0.047161438 0.36321217 0.53170425 -0.2868439 0.19605887 -0.22772618 0.33675155 0.15628432 0.90238327 0.2341262 -0.42127505 1.01215 -0.49719083 -1.3083133 0.37131262
5661 -0.1780787 -0.38358903 0.313871 0.21534286 0.16020146 -0.0016167624 -0.4598529 -0.62788606 0.22872657 0.313765 -0.13314219 -0.22847462 -0.15607907 -0.4896898 -0.47188884 0.23663758 -0.060533524 0.4215041 0.7288695 0.29422644 -0.57343024 -0.45408684 0.57118696 0.54364276 -0.29131904 -0.20562004 -0.6655147 0.29803544 0.09317952 0.59105706 -0.38471708 1.5809144 0.4698062 -0.8552527 0.08814742 -0.25046614 -0.3474016 -0.001421596 0.14984275 -0.4375829 -0.36784288 0.38699153 0.13753343 0.42836472 -0.64810777 0.17968455 0.2822399 -1.4088751 0.25171587 -0.012127319 -0.27765042 0.55878687 0.48486298 0.51546144 -0.07913881 0.30234823 0.045180466 -0.7327113 0.7299327 -0.9487562 0.2980502 -0.31110314 0.5593356 -0.5037569
7498 0.14420192 0.49576136 0.19992942 0.40682298 0.085464686 0.34004173 -0.32040238 -0.4288421 -0.8738775 0.67609996 -0.9036025 -0.4076556 0.17921638 0.21578836 -0.73466414 0.3824973 -0.008824913 -0.30751494 -0.027868487 -0.5935497 0.46137443 -0.26890692 -0.06919919 -0.42897746 0.39590803 0.16385445 -0.40770045 1.3620816 -0.7957784 0.36693066 -0.06849948 -0.15748855 -0.16117857 -0.49905866 0.67682606 0.52304393 -0.3152519 0.17631388 0.19358194 -0.11856794 0.11137011 0.7914612 0.31384715 0.38102037 -0.022835696 -0.06168908 0.115355246 0.25062418 0.5848553 0.41745573 -0.5277063 0.7461086 -0.071668044 0.008614232 -0.5142017 -0.2644944 -0.10713877 -0.5992178 -0.84360564 -0.42176646 0.57081157 -2.3559315 -0.8560622 -0.3446909
1128 0.20897223 1.3861567 0.57198834 0.22325474 0.09804588 -0.098805346 -0.4479367 0.34156957 0.13863409 -1.3015366 -0.21878734 -0.44159386 0.7328292 0.6078485 -0.1257918 0.052534968 0.019934269 -0.4691091 -0.07492495 0.42432824 -0.722402 -0.8547641 0.26953766 -0.47320437 1.5535947 -1.0558484 -0.84793156 0.6598007 1.32679 1.0404285 0.7073467 0.408225 -0.9055178 -0.6487501 0.35317004 -0.43282703 0.2149575 -0.15298682 0.15960647 -0.40047345 -0.83987087 0.49813238 -0.6649598 -0.22309048 -0.26298046 -0.06318474 -0.015077653 -0.43269473 0.42722216 0.17770632 0.93758833 -0.41777092 0.49576634 -0.34164512 -0.2256341 0.54670566 -0.07297342 -0.679644 0.014648473 -0.9477564 0.9621991 -0.7724565 -1.3769568 -0.56054527
5347 0.12367481 -0.21304683 -0.09586314 0.24930531 0.7023633 0.32105535 -0.7297922 -0.04791642 0.19244698 -0.19357106 0.24978672 -0.69531417 0.40776572 0.15324016 0.44889814 -0.38703957 0.23118506 -0.70637625 0.2890749 -0.37607613 -0.26952168 -0.58761215 0.34629893 -0.4787958 -0.058249593 -0.22645795 0.5202542 0.3014891 1.3836768 0.9976429 0.6312879 0.606593 -0.23296474 -0.047079135 0.52313614 0.0062059993 0.05438573 0.21551414 0.14176965 0.0716929 0.42802438 0.31833738 0.9328388 0.77470136 -0.45240492 1.1105664 -0.37323186 0.29802683 -0.64423025 0.32203045 -0.26924917 0.57254916 -0.38483223 0.33194706 0.22468787 0.6939295 0.3486224 0.52681714 0.5362481 0.017670825 0.74415064 -0.39128062 -0.3327408 -0.92153585
5012 -0.72259074 0.8868494 -0.39830184 -0.20113648 0.13606514 -0.14661306 -0.6362876 -0.5769704 -0.3565687 -0.31107253 0.0073772375 -0.5972143 0.65275145 -0.4428965 -0.69291025 0.4927204 -0.62417996 -0.17104635 0.38672963 -0.078465395 -0.397144 -0.22335641 0.6429592 -0.12313405 -0.3273375 0.900984 -0.24111715 0.5820455 0.40471956 0.24750282 -0.51989186 1.089412 -0.6105675 -0.28152964 -0.2254341 -0.7258804 -0.053508803 0.097159155 0.4337761 0.14398786 0.12466495 0.10572743 0.005280421 -0.016381772 -0.48168978 -0.44978058 0.6711319 -0.8750402 -0.19707279 -1.2681419 1.2016948 -0.001354746 0.6360734 0.5167933 -0.17572944 -0.45206314 -0.07856269 0.57429904 0.21447748 -1.5505743 0.3450545 -0.09215523 -0.4874658 -0.3073693
5696 0.16300474 -1.1664627 -0.298341 0.0024201144 -0.117762215 -0.15384383 0.47004667 -0.73330694 1.1634096 -0.2357733 0.51116514 -1.1872689 0.22281139 -0.34915304 -0.4734573 -0.21855393 -0.6109235 -0.59699017 0.299299 1.4269091 0.5596304 -0.538714 -0.36979097 -0.8276642 0.97542346 -0.4048284 0.6647385 0.9050677 -0.66032547 -0.003327039 0.37115222 0.66259176 -0.5399582 -0.629905 0.5617744 -0.041159622 -0.20048696 0.1529513 0.49521855 -1.305659 -0.1693615 0.11926862 -0.37814933 0.4560956 -0.03435567 0.0035480617 0.16720673 -0.5264173 -0.550091 -0.41140664 0.5478854 1.4561142 1.1568112 0.96631515 0.3424637 0.267711 -1.0321258 -0.15322119 -1.0599111 -1.7261612 0.25867945 -0.4049333 -1.3553977 0.06217493
3039 -0.4591382 -0.4012249 0.32636383 0.060836602 -1.0127982 -0.001402209 -0.11126569 1.2182188 0.8029886 0.5292444 0.8117752 0.15327093 -0.18991834 0.8111988 -0.7269386 0.32095182 -0.03680404 -0.6482076 -0.14380035 0.46348205 0.55317813 -0.6496988 -0.23983774 0.0038090926 0.39318326 0.385402 -1.1454501 -0.27288055 0.0543742 -0.07670599 0.016274843 0.69308746 0.18006442 -0.5813911 0.55377007 -0.8502894 0.49134058 0.12310707 0.6957127 0.051028904 -0.33460173 -0.22470497 0.0037300612 -0.068956874 0.15732351 0.33534253 0.10431391 -0.4605927 0.29849222 -0.70628315 -0.22174028 0.40324545 0.097579196 0.15774494 0.62484497 -0.007895063 0.50594074 -0.0026696408 0.28826037 -0.31971487 0.14881894 -0.56887424 -0.049894426 -0.6356486
4259 0.14805098 0.0026963293 -0.040609255 -0.077414945 -0.23943146 0.100922525 -0.20325674 0.046894506 -0.077605374 -0.18112262 0.21340527 -0.34261605 0.21847914 0.26121357 0.38924757 -0.37015083 -0.71191156 0.1698679 0.84426653 -0.74670345 0.061939467 -0.83042324 -0.5223531 -0.29593092 -0.2218114 0.514654 -0.54046196 0.94308424 1.3996185 0.7817514 -0.15872736 0.7632569 -0.3187567 0.28446156 0.7003374 -0.68761665 -0.97774446 0.18219429 0.06509346 0.118204795 0.93670076 0.3318732 0.49201038 0.29538924 0.36701542 0.2487139 -0.055914804 0.22652727 0.52806187 -0.5086252 0.00791471 0.051108688 -0.17168592 -0.15098642 0.40313476 0.24930514 0.15978394 0.75353384 -1.1154536 -0.31590438 0.7108217 0.25480568 0.020815307 -0.82053226
5497 0.24546723 0.44121426 -0.38218525 -0.5431265 0.23740566 -0.4122402 -0.111566186 0.7039829 0.01095979 0.3115673 0.116987854 -0.513161 -0.5500197 0.12749812 -0.40581092 0.092990085 -0.71488535 0.21536818 0.5851546 0.34214085 -0.23212332 -0.92163974 -0.40120235 0.6534924 0.7816931 0.051739346 -0.41409168 -0.22202885 0.5136355 -0.32018903 -0.5605362 -0.046717163 0.054204315 -0.3321587 -0.9293091 -0.5546381 -0.32881516 -0.17373183 0.15626188 0.51974696 -0.23253818 -0.06636755 0.39392483 1.0056795 -0.26832062 0.043990772 -0.60121274 -0.037571102 -0.0438829 -0.30536625 -0.21380652 0.61219096 0.36387607 -0.65130746 0.47291908 -0.14374314 0.5814785 0.74114025 -0.7435936 -1.2234641 0.17702606 -0.07983881 -0.120706216 -0.2197351
2598 -0.040751405 -0.62791306 -0.7375764 -0.4813329 0.15674205 -0.7551338 0.4729318 0.32492256 0.17948048 -0.24029244 -0.60377467 -1.222764 0.039976653 0.88184524 0.016985552 -0.39453194 -1.3464702 -0.052510463 0.48969772 0.62921256 0.40169606 -0.5744512 0.4719804 0.45720857 0.81781465 0.05397846 -1.126586 0.3083005 0.3518066 0.34701958 -0.2534305 0.14235765 0.35195857 -0.59664875 0.21962105 -0.097264245 -0.39183283 0.24320298 -0.6657281 -0.15935016 -0.54405415 -0.1621846 0.31556413 0.56572783 -0.20315787 0.48383844 0.07789116 0.34488177 -0.30764768 -0.39559197 -0.3184352 0.63564664 0.14294133 -0.4014513 -0.079471625 -0.7297845 0.17279585 -0.036080126 -0.065347366 -0.98472357 -0.021011086 -0.73566157 0.7130504 -0.42129397
5790 0.04639462 0.079643846 -0.07722744 0.2872269 -0.4985106 0.0641534 -0.9657547 0.48112783 -0.12262786 0.32192218 0.4170094 -0.34462267 0.30232456 -0.42443207 -0.98314434 0.014190422 -0.8357719 -0.9838564 0.6388075 0.061671615 0.42484614 -0.25888076 0.1941585 0.3127215 0.74808985 0.09496783 0.13405527 0.3477219 -0.5245529 0.11052388 -0.34405497 -0.09331042 0.4023638 0.30948102 0.13562526 -0.5582491 0.1434132 -0.34871808 0.44082943 -0.11861012 0.41463396 0.4590445 -0.5144881 0.93483305 -0.42025614 0.019464359 -0.9526536 -0.18818215 -0.33672515 -0.113625586 -0.62393844 -0.31002796 -0.08512016 0.31663233 0.38983315 -0.42947 -0.0807093 -0.27477896 -0.1836356 -0.0694235 -0.3850732 -1.3232354 -0.18201122 -0.32851648
5330 -0.07466305 0.20762716 -0.244967 0.1015648 -0.38839698 -0.7239538 -0.316152 -0.020706262 0.06699369 0.30517668 0.4337045 -0.052297257 0.5609886 0.13116206 0.6525233 0.1792323 0.4333484 0.97693294 0.6822804 0.30636102 -0.101020224 0.7769901 -0.53062105 0.03515701 0.6522402 0.3816172 -0.27508867 0.647335 0.42485532 0.27924207 -0.05724495 -0.12334068 -0.5916966 -0.30257574 1.6380718 -0.46841428 1.1976708 0.67143714 0.8110857 -1.0142642 -0.2568569 -0.3886594 1.3564025 0.758203 -1.318181 -0.42856452 -1.1191667 0.014705656 -0.6219698 -0.35140303 -0.5141656 -0.8587867 0.07733369 -0.089126416 -0.3156725 0.24064061 0.0867934 0.12296561 0.36617005 -0.9647492 0.30768818 -0.6030161 -0.011800762 0.08860696
1836 0.49473187 -0.49891895 -0.8297318 0.1306265 0.254359 0.44264683 -0.31678233 -0.27939624 -0.40122634 -0.87582344 -0.1547582 -0.17709309 0.52173495 -0.71858263 -0.08020249 0.33627793 -0.23290268 -0.18152902 0.3732422 0.41011992 0.6373596 -0.13557865 0.2570002 -0.53642833 0.3440092 0.33504474 0.16639501 0.44129255 0.6630907 -0.040935878 0.28478476 0.4601004 0.55391324 -0.29547074 0.6340702 -0.14127976 0.99457395 -0.34307334 1.0094349 0.17753582 -0.14744087 0.4785791 -0.0171917 0.43844074 -0.052168146 0.6975412 -0.2759692 -0.3003931 0.046170942 -0.33968475 0.08876443 -0.7300865 -0.81240106 -0.23063631 1.5210358 -0.7388727 -1.2744223 -0.086364046 -0.62540424 0.14613058 -0.057916906 -1.1953107 -0.009467552 -0.38353264
26 -0.057811957 0.16386102 0.068830654 -0.06203514 0.009286946 -0.2162377 -0.31634456 -0.00053948956 0.060840327 0.34327355 0.5457924 0.25808576 0.19462442 0.38276342 0.53518564 0.12573206 -0.16934906 0.4995369 1.1209385 0.45078734 0.2539856 -0.7069143 -0.028242785 0.036936164 0.41105035 0.7550518 -0.19081602 0.2609472 0.45277002 0.38265532 0.2549409 0.47007212 -0.28392673 0.21347418 0.11045862 0.28361765 -0.2209833 0.73605186 0.031098736 0.13395745 0.4656651 0.57126725 0.30787066 0.37792933 -0.2816098 0.10695266 -1.0512835 0.12971394 -0.25736496 0.09534191 0.50887626 -0.69423 0.42871055 0.67950237 0.24263386 -0.035319764 0.25195354 -0.056109898 -0.26707366 -0.39722165 0.10053317 0.01083454 -0.14962791 0.32267362
6194 -0.33411205 -0.33677822 0.07828166 0.30881897 0.9755078 0.22078604 -0.13402325 0.17489046 -0.321419 0.30083796 -0.02502094 -0.55672795 1.0512724 -1.2930291 0.5608609 -0.3339857 -0.11110464 0.17302774 0.027606297 0.5687639 0.3322062 -0.7696938 -0.05834394 0.72227246 0.31750622 -0.027845081 -0.9109195 0.41630942 -0.09368188 0.67981255 -1.0554055 -0.6567781 0.39564398 -0.860694 1.1583945 -0.2830864 0.648226 0.1068593 0.70477164 0.83042735 0.4893849 -1.0321579 0.30289707 -0.07951051 -0.55089647 -0.9679895 0.45657802 -0.15584661 1.180706 0.17366831 -0.6996023 0.18129267 -0.20266339 0.4958651 1.2671167 -0.5475123 -0.6225625 0.4516955 -0.3466602 0.2001278 0.85930836 -1.2349423 -0.6707139 0.17655098
6822 0.57684875 0.46930444 -0.16861627 0.4103991 0.12563732 0.74256206 -1.0852561 -0.7518366 -0.13596822 -0.5996005 -0.078473814 0.30355692 -0.2782836 0.12364039 -0.87995887 0.12788305 -0.57323074 -0.75059897 0.569533 0.2982255 -0.091386594 0.6692798 0.18143798 0.6728317 0.54184914 -0.15583783 -0.11185948 0.86931777 -0.13503812 0.29551753 0.33451203 -0.13088614 0.32364142 -0.3982839 0.4942139 -0.2412953 -0.3314614 -0.120136864 0.90005225 -0.6131355 -0.35661352 0.61750984 0.71589077 0.953481 -0.71713996 -0.27888098 0.45541734 -0.3185482 0.18563037 -0.10760276 -0.521831 -0.5678986 -0.018091867 0.30135825 0.7764445 -0.20497158 -0.34499034 -0.17859513 -0.7751345 0.49399474 -0.019763168 -1.2316947 -0.2519341 -0.9667904
554 -0.20561633 1.3721279 0.4988901 -1.1026582 0.295703 -0.9644312 -1.3237325 0.027729314 0.3452311 -0.20678018 0.118359156 -0.07396669 -1.04577 -1.1847703 -0.14185026 -0.16401008 -0.33904207 -0.07862462 -0.44893003 0.47408882 0.6948825 -0.4510947 -0.69759476 0.68519384 -0.4966988 0.28145376 0.16568711 1.1196357 -0.010385691 0.6881361 0.78347105 0.23457569 -0.85289085 -0.8586631 0.04030541 0.075724564 0.81175685 -0.39613354 0.64652884 -0.30162227 0.24291739 0.48097327 1.1587464 -0.37380704 -0.2928178 0.30491328 -0.07118964 0.29961 0.53104466 0.41194138 -0.30043823 0.20392992 -0.23623268 -0.54216045 1.8995377 0.31089813 -1.5327793 -0.056033444 0.8037167 -0.74014026 0.09238961 -0.7736726 -0.07051294 -0.24414302
1863 -0.9731834 0.7776813 0.122871116 -0.31333593 -0.07148454 -0.12152173 -0.31750375 -0.36318383 -0.42778748 -0.6652653 0.18565948 -0.04268889 0.5494325 -0.0037911173 -0.31973165 0.0017142732 -0.3602681 0.2259044 0.42453828 0.53330183 -0.07932574 -0.5624764 1.0023341 -0.2797748 -0.3000714 0.23779523 -0.15026456 0.84524363 -0.43685782 0.5871365 -0.89128476 0.8025719 0.13810244 0.26523212 0.32664397 -0.012309466 0.27888384 -0.03618825 -0.16110499 0.6765701 0.05079247 0.5672806 -0.16809438 -0.3776547 -0.48830038 0.3208262 0.32823947 -0.9625313 -0.19684684 -0.47770426 1.0720531 -0.15443796 0.3220887 0.34909803 0.022336233 0.3825254 0.03782029 -0.019362647 -0.049887102 -0.857785 0.17323118 -0.45728958 -0.1583565 -0.18045063
25 -0.5200837 0.21723022 -0.07777858 -0.5425315 -0.4044443 -0.629983 -0.42906448 -0.1738019 0.16211846 -0.16186343 0.297687 0.5807879 0.3134358 0.09813719 -0.24493623 -0.06955816 0.28532648 0.3796717 1.2545316 0.5539575 0.24262205 -0.51781124 0.6765597 -0.15358828 -0.4797318 1.0415661 -0.018929249 0.07299772 0.24060795 0.2702299 -0.34538484 0.56756634 0.3703158 0.104601815 0.27765864 0.011403501 -0.13113493 -0.12706347 0.2392291 0.3566221 -0.09203589 0.49025112 0.17217769 0.1778912 -0.5769725 0.53553325 0.0743941 -0.38320383 -0.1978445 0.1752323 1.0802588 -0.2759743 0.48500788 0.55031323 0.34578937 0.38565883 0.19251497 -0.23293892 -0.20792215 -0.45346472 0.40060773 -0.1486032 -0.45961642 -0.27271593
2485 0.17568073 0.1594538 0.55231917 -0.69390535 -0.2571449 -0.59667546 -0.6256183 0.047010638 -0.51657385 -0.48296377 -0.11412919 0.037260734 1.2510873 0.6610756 0.27644655 -0.23547228 0.3478341 -0.005052985 -0.16784832 -0.39192545 0.28427324 -0.56746083 -0.51250786 -0.067323804 -0.19093275 0.72135687 -0.7293328 -0.2980429 -0.24389 1.9146066 0.8496066 0.61421394 0.7642396 0.05533475 0.16982344 0.3425942 0.3868189 0.39282823 0.3530612 0.2623388 -0.028651057 0.052326724 -0.60327077 1.4769384 0.013631357 0.24831797 -0.3187628 -0.60848033 0.60000753 -1.1800851 -0.2996879 0.19635534 0.20411663 -0.3438876 0.4366188 -0.4994336 -0.8931187 0.33846036 0.1432207 -1.134219 -0.4001383 -0.57352096 0.6497963 0.18059008
276 -0.110521615 0.023855206 -0.16178201 -0.07083137 0.20214711 0.036227576 -0.107885 0.45994085 0.06347527 -0.58827144 0.25885785 -0.7908104 -1.2314051 0.25429153 0.5334012 -0.7083686 -0.9360331 -0.031454496 0.80803126 0.03701301 -0.014632735 -0.7256744 0.45741647 -0.062856175 0.37825415 0.03490541 -0.5122228 0.48774385 0.6891634 0.24689306 -0.5823637 -0.004292887 0.04075603 -0.4687649 0.31400394 0.34850878 0.04284247 0.46978998 0.11723198 0.100998886 -0.59070927 -0.3220716 0.668886 0.4501675 -0.27765974 0.011672829 -0.36175677 -0.15561156 -0.017529229 -0.06383423 -0.2345102 0.65442497 -0.33568838 -0.043805297 -0.4355337 -0.26281688 -0.52989143 0.18875718 -0.27103525 -0.73738587 -0.52958035 -0.29859143 0.08705938 -0.3694313
5599 -0.0851729 -0.0018103512 -0.39271122 -0.30357265 0.37023866 0.1492102 -0.15660492 0.2995486 -0.6114877 -0.03333611 -0.08965966 0.12847202 -0.46983814 -0.050576612 0.25415158 -0.04788752 -0.4732418 0.18248987 0.265065 0.36092243 0.19009393 -0.95222473 -0.17259078 -0.090465166 0.7069706 0.48431247 -0.15854421 0.008092797 0.54265046 0.25429264 -0.6289052 -0.07930838 -0.04609153 -0.18909936 0.019272536 0.103514165 -0.16138513 0.40538737 -0.15097253 0.07061403 -0.12852791 0.28720158 0.7509589 0.6798363 -0.63825524 0.0012130341 -0.74999744 0.11418355 -0.3901158 0.16260871 0.09192763 0.18729658 0.44612685 -0.38882002 -0.008505705 -0.5827155 0.29271877 0.13241489 -0.6035201 -1.0812979 -0.28023866 0.15308157 -0.11064449 -0.35752073
5708 -0.49383414 0.6603904 0.16887382 -0.41603944 -0.12654705 -1.0365722 -1.4539205 -0.001931702 0.8379624 0.021273544 0.4565529 -0.48644054 0.38787907 0.86375743 0.16887935 -0.7759705 -0.052305017 0.04840554 1.0345085 0.6377806 0.18880281 -0.78728664 0.45054734 0.112892084 -0.42977977 -0.5591023 0.04046842 0.64087415 -1.0196797 0.2604557 -0.82669425 -0.28777006 -0.56710714 -0.94228065 0.63612235 -0.27278727 -0.0667037 1.2865239 0.069298714 0.8529964 0.52610874 0.3594981 -0.50190216 -0.5026208 -0.713798 -0.18592606 0.24276575 -1.0806019 -0.33862227 -0.5651099 0.9587054 0.7226905 -0.28912076 -0.61443275 -0.0070989956 -0.39410985 -0.06584967 0.23130055 -0.5528441 0.41538346 0.12023295 -1.0246915 0.46158165 -0.16184598
2340 -0.45683753 -0.2435192 -0.64163405 -0.33158815 -0.5061021 -0.6085168 -1.0675982 0.14882699 -0.35068116 -0.10159097 0.15595692 0.2970212 0.9584928 1.3244424 -0.119389825 0.2118467 -0.51078784 1.2451551 0.058819976 0.35864577 -0.5130981 -0.0520231 -0.7488548 0.6740537 1.2241586 0.5133881 -0.09392673 0.71838707 0.26858822 0.07090265 -0.09189225 0.26139107 -0.7390318 -0.15787463 1.4628803 0.5825148 0.7080522 0.4160569 0.23965974 -1.2071694 0.30975878 -0.93585473 0.9430274 0.7601764 -0.13724448 0.08309629 -0.25444084 -0.8036152 0.32371143 0.82108665 0.64269114 0.082784824 0.095694296 -0.3761423 -0.55613667 -0.28556845 -0.30713582 0.098124504 0.61236686 -0.30060935 0.35663477 -1.3056062 -0.40637776 0.6527523
1419 0.1824358 -0.15994993 0.43016955 0.67530483 -1.2201954 0.26900062 -0.3211564 -0.7928384 0.0189808 0.31340444 0.4407622 -0.43227077 0.7053075 0.16104954 0.08658899 0.13582939 0.4033402 0.109023385 -0.24197684 0.576183 -0.5497838 -0.96492344 -0.34958833 0.39724007 0.912155 0.05076029 -0.14588946 0.92220074 -0.09880627 0.37234038 0.91942215 -0.2564088 0.56164616 -0.80125093 0.16029075 -0.4908163 0.45199975 -0.51837903 1.1835215 1.4029536 0.09508111 0.6605425 0.36728397 0.40853706 -0.4063346 -0.13044347 0.96775776 0.08806268 0.63560456 0.15089282 -0.024628242 0.34892982 0.6078124 -0.766185 0.060552176 -0.3722922 -0.43399206 -0.056791253 0.8456526 -0.27899086 -0.62786806 -0.29005042 -0.5293144 -0.35885575
1853 0.30338115 -0.22490312 -0.69662195 0.62782866 -0.7938006 0.14247884 -0.5126562 -0.24319576 -0.37904847 -0.13791154 -0.20858449 -0.26214835 0.39758527 -0.34613132 0.91439235 -0.5039104 -0.005224574 -0.0054228096 -0.08541173 0.40091243 -0.2784014 -0.42481264 -0.31162712 0.71849567 0.48276132 -0.41570762 -0.71588606 -0.47315416 -0.12823603 0.100292295 -0.41192317 -0.07189831 0.6553877 -1.2844671 1.0147047 -0.31522503 0.44857916 0.38838893 0.87427896 0.24188374 0.80691403 0.21959431 0.11897333 -0.25795472 -0.40116778 -0.093816265 -0.2687165 -0.3241633 1.6721102 0.10615539 0.19207278 0.32905024 -0.35911748 -0.20398085 0.49389789 0.045705143 0.19815886 0.7865545 0.0810018 -1.0326066 1.128425 -1.2817671 -0.473319 0.09990257
7100 -0.67154646 -0.35439885 0.5700087 -0.013422561 -0.6781381 0.030296382 -0.5995619 0.4906281 0.39686206 0.5910863 0.9307438 0.2403873 -0.25622547 1.1312811 -0.43899432 0.13499758 -0.139763 -0.28601402 -0.69148576 0.2582997 0.74823403 -0.56855005 0.28080913 -0.05301443 0.87486786 0.33816046 -1.0631456 -0.19936678 0.052838143 0.104388066 0.46253276 0.30334812 -0.1008106 -0.31763893 0.3589483 -0.73105824 0.575528 -0.4343506 1.0168482 0.6181276 0.18329276 0.18493415 -0.38245946 0.67314804 -0.04694253 0.4854546 0.42838845 -0.5334517 0.062817596 -0.2656738 -0.053025186 0.55762476 0.30402663 -0.22080627 0.64299124 0.4628614 -0.054209284 -0.108654305 -0.09371789 0.022912437 0.052351326 -0.18238786 -0.67866886 -0.20489916
5709 -0.5405072 0.6447239 0.014773447 -0.36883855 0.19864543 -0.98952955 -1.1670201 0.07816452 0.6651282 0.42251155 0.52459896 -0.40021643 0.3744543 1.1494185 0.15595956 -0.40983626 -0.055792134 -0.10813563 1.4738107 0.62706625 0.23936817 -0.6686068 0.25094637 -0.3815885 -0.44162384 -0.38503975 -0.007977891 0.51951045 -0.9253298 0.064753965 -0.69273007 -0.08222076 -0.43696216 -0.89741254 0.46600616 -0.3405055 -0.2827078 1.5385263 0.26305702 0.81094694 0.19525784 0.5305188 -0.4332216 -0.07743636 -0.74330306 -0.5167038 0.51000977 -0.85955554 -0.47309706 -0.5783115 1.1459496 0.70977247 -0.28021738 -0.85827065 0.16463876 -0.36588076 0.081017286 -0.06898873 -0.12460869 -0.075923614 0.26242048 -1.4214268 0.66902685 -0.09030483
1485 0.4954832 -0.19321251 0.48466066 -0.72968554 0.31772563 0.012851154 -0.73707116 -0.7355812 -0.7774123 0.26435623 -0.62130517 -0.016541911 -0.5154212 0.3035085 -0.47471914 0.08392932 0.3865004 -0.32981813 0.051912427 -1.0268818 0.3412314 -0.50628245 0.099323295 -0.45603058 0.9571151 0.29095396 0.16914025 1.4489752 -0.20759231 0.25751656 -0.30296513 -0.08708972 0.5917706 -0.7293914 0.12768799 -0.15392491 -0.17826115 0.35656282 0.22732566 0.028887147 -0.11864138 0.29969957 0.09084585 0.3144934 0.05023348 0.25883114 -0.45228624 -0.046818424 1.1499647 0.35657918 0.12484177 0.049274605 -0.37557235 -0.09006912 -0.8833601 -0.25886327 -0.80289537 -0.47133872 -0.08544987 -0.50702506 0.7179694 -1.9070983 -1.1712217 -0.102768496
3410 -0.32409915 -0.20378947 -1.0094663 0.0055904863 0.26994315 0.31122047 -0.64160573 0.46004367 0.2481415 -0.34085214 -0.39025676 -0.5138841 -0.8889057 0.84400076 0.48697585 -1.0036459 -0.7508043 0.0061549945 0.38238403 0.5911783 -0.10710939 -0.6829937 0.5028301 0.14055781 0.3622489 0.28813916 -0.066657364 0.55413085 0.14634663 0.28270873 -0.3213885 -0.21792558 -0.2242777 -0.16693296 0.36445454 0.06728851 0.108596765 -0.18395697 -0.14775956 -0.087921046 0.025737382 -0.06792377 0.94194 0.25953117 -0.5572287 0.28592888 -0.4186881 -0.27950436 0.32042938 -0.62480867 -0.30772877 0.064360544 0.3706506 -0.36419824 -0.60549814 -0.717484 -0.3832612 -0.3518247 -0.74854004 -0.8135705 0.1642669 0.35471112 -0.17073232 -0.108279675
7060 -0.43871945 1.5760604 0.36792505 0.38743326 -0.9114225 -0.25730878 -0.40008923 -0.4040209 0.23884398 -0.23022063 -0.5515301 -0.35608223 -0.6610286 0.7363553 -0.3573724 0.53671837 -0.15918314 -0.33483484 0.56973976 -0.2820655 -0.83524746 -0.20506537 0.31675705 -0.8501237 0.8278295 -0.5389952 -0.2393756 -0.1055216 0.6108059 0.82104146 -0.5605225 0.8468222 -0.8472723 0.15071245 0.07685547 -0.7605554 -0.11506518 -0.3053838 0.46141794 0.50145936 0.019648157 -0.19716932 0.031280477 0.2169495 -0.44881216 0.36005148 -0.045658592 -0.8080486 0.4160848 -0.6317759 1.9183719 -0.12680437 0.4749963 0.04709541 0.41527444 -0.8537488 0.1624025 -0.37836787 -0.039763752 -1.184863 0.88182265 -0.53604025 -0.43044567 -0.5168898
4486 0.21725416 0.87138844 0.014047789 0.27228543 -0.31038108 0.3623613 -0.56665707 0.43994972 -0.35421848 0.020585598 -0.38597566 0.0724586 0.08385476 -0.32656026 -0.17552674 0.33303973 -0.83528614 -0.80677867 0.47678086 0.13306214 0.47083133 -0.24036175 0.5449502 0.035924155 0.31476113 -0.29388183 0.41263565 0.62116903 -0.6064523 0.34615508 0.04180985 -0.43515697 0.315199 0.4797739 -0.27291214 -0.85613567 -0.40984476 0.073082924 0.68045634 -0.47685006 0.35439712 -0.12248374 0.07284835 1.0824206 -0.7852799 0.5218265 -0.3179192 -0.42514458 -0.45605016 0.38530207 -0.4658983 -0.42243603 -0.051990222 0.49818182 0.89891136 -0.26829222 0.02326726 -0.28021103 -0.041007098 -0.27330837 0.5311903 -1.2669165 -0.72522527 -0.056172065
682 0.27628082 0.6277255 -0.124283955 0.51527494 0.23264605 0.45690256 -0.8102074 0.031382207 -0.008318689 -0.56184185 -0.12653385 0.09348114 0.44989333 -0.113349006 -1.1726369 -0.028904345 -0.6986345 -0.12653437 0.3398889 0.4201828 0.62490875 0.28374165 0.15552105 0.20510516 0.5422582 0.0143989995 0.36584893 0.6650835 -0.5340663 0.10570043 0.08912882 -0.20479879 0.009859644 -0.33407035 0.11176854 -0.47381425 -0.36831638 -0.26032794 0.6932889 -0.44097343 -0.1695812 0.1569203 0.54010737 1.0547916 -0.6875223 0.084501356 -0.009020897 0.09482157 0.1486016 0.5882657 -0.5089067 -0.31781414 -0.09614759 0.14529878 0.49784857 -0.79655737 -0.18383373 -0.4766441 -0.39099896 0.30821493 0.3643209 -1.2639989 -0.27384722 -0.57359225
6287 0.25273848 -0.055073455 0.7036856 0.0597642 -0.66781497 0.597251 0.21736524 1.1496913 0.8767907 0.7046735 0.5951348 -0.23331916 -0.20866913 0.914734 -0.85373497 0.02961914 0.42885876 0.23908895 0.44258064 0.31337568 0.5134195 -0.32876313 -0.07175674 -0.058852073 1.2781358 0.12948589 -0.46923313 -0.22691412 0.13022244 0.71872276 0.44206688 -0.41614568 -0.16524123 -0.7643169 0.72637963 -0.84008396 0.13601364 0.55842125 0.1454106 0.10087923 -0.052328177 -0.26767704 0.1754165 -0.6361866 -0.054745737 0.5941623 0.25456393 -0.51307034 -0.10715886 -0.06891668 0.06389116 -0.3087759 -0.2514926 0.3923989 1.1699759 0.16844463 0.26815858 0.5026538 -0.40378022 -0.3589335 0.43709853 -0.5540005 -0.3520851 -1.1656274
4404 -0.18897644 -0.26096705 0.43273506 0.039328016 -0.6463634 -0.06395791 -0.3300653 0.6028461 0.72865313 1.386586 0.599006 -0.050231956 -0.22555366 1.2209997 -1.1366253 0.37553313 0.24981576 -0.29111868 0.18716286 0.30283168 0.9576858 -0.5510197 -0.5766717 -0.15512206 1.0231987 0.2581828 -0.4704361 -0.14319743 0.24185513 0.35853928 -0.22634238 0.44253463 -0.14824498 -0.5024005 0.33673644 -0.67321783 0.25038078 0.2646767 0.90582895 0.26216623 -0.0830817 -0.215877 -0.10713212 0.19726802 0.06961989 0.57471985 -0.44609612 -0.70131195 -0.30433756 -0.5949168 0.21113329 0.29710564 0.32618293 -0.7441521 1.1198542 0.76472783 -0.04545886 0.38002002 0.031951223 -0.3669587 0.40770736 -0.45675936 -0.16935027 -0.43912065
4200 0.3694606 -0.0672632 0.10795521 0.38879073 0.46118245 -0.32702953 0.27468565 0.9749363 0.53790194 0.52008724 0.1954122 -0.3601562 -0.6296068 0.46216428 -0.4534274 -0.0184913 -0.56775856 -0.021345304 0.38147515 0.6228834 -0.1653113 0.021057997 -0.80066323 -0.473988 0.7827926 0.50745076 -0.34726542 0.4466978 0.6483641 0.43329304 -0.29999432 0.5326724 -0.18929926 -0.46465796 0.47681838 0.17577718 0.2973293 0.98029447 0.53452265 0.28489965 0.77437955 0.59842 -0.32278293 -0.08689904 -0.30929783 0.30486 0.3172618 -0.11935019 -0.099185124 0.18617797 -0.05834368 -0.63290495 -0.9677119 0.89838415 -0.11585578 -0.030837508 -0.5576463 0.8599599 0.87795174 -0.4953846 -0.11624276 0.22351952 -0.310494 -0.8116054
3998 0.14014126 -0.21082765 -0.6696398 -0.33515713 0.5745004 0.09806627 -0.47406632 -0.4587467 -0.76524925 -0.79020864 0.6207111 -0.7090241 -0.56327575 -0.4924994 -0.301068 0.188606 -0.39269942 -0.7343677 0.7204326 0.14866748 0.04541555 0.9533595 -0.6519143 0.37723437 0.6182361 -0.02723374 -0.37936866 0.26312834 -0.075631045 0.3725304 0.9700905 0.8641941 0.3370811 0.20266786 0.4752798 -0.35922915 0.5359723 0.32924244 1.0756271 0.15970084 -0.704702 0.3513281 0.35755143 0.5792454 -0.5179663 -0.43488836 0.15689085 -0.51958436 -0.6814427 -0.72279304 0.3939619 -0.76397675 -0.263493 -0.4100281 1.1149145 0.06744704 -0.12874107 -0.5870468 -0.6858732 -0.105817564 -0.0069174585 -1.0860431 -0.65672165 -1.5055684
6106 0.38251537 -0.9663595 0.04385528 -0.8190753 0.27337855 -0.55935407 -1.1655896 -0.24271882 -0.01613262 -0.2971386 0.3591954 -0.6457252 0.54662484 0.25661305 -0.3198359 0.13310312 -0.41362104 0.13187276 0.39815876 0.7082669 -0.00056040706 -0.17128009 -0.060348373 -0.50710297 0.8149451 -0.3385477 -0.09093389 0.7121723 -0.17240337 -0.14692567 0.59740376 0.19362043 -0.18268116 0.18401128 0.26624456 -0.6637028 0.890353 -0.9453745 1.1542885 0.17090213 0.47600996 0.07565713 -0.48090863 0.92302305 0.5976694 -0.19485624 0.5375781 0.68571454 0.24897365 0.15268296 0.17654185 -0.33697143 -0.3777861 0.99746805 -0.12962484 -0.83794445 -0.31397453 0.07112923 -0.30406624 -0.36030328 -0.11708635 -1.1177862 0.4186804 -0.19601054
1196 -0.021464558 -0.31839484 -0.38520434 -1.2515568 -0.061574448 -0.53735 -0.49785534 0.12535413 -0.1549908 0.3537736 0.040010385 -0.9030789 -1.2296956 0.42310366 -0.9796691 0.6249994 -0.11582421 0.65734637 -0.08349199 1.1191639 -0.90453595 0.38161826 -0.12414346 -0.13582322 -0.39842358 -1.3237482 -0.14994046 -0.6435194 0.3167393 0.90931916 -0.516218 0.027399102 0.27419963 0.38861755 1.2844915 -1.1820514 0.008141953 -0.117504954 0.21332198 0.7157938 0.012800036 0.21970156 -0.029029686 0.4901011 -0.05741296 0.56274617 0.2718021 -0.1578028 -0.5015894 0.0062071728 -0.43525997 -0.4500235 -0.512187 0.18733297 0.03704141 -0.6378872 -0.6776953 -0.008511287 0.069003895 -1.5444794 0.14948137 -0.8468409 -0.72675085 -0.5472774
5543 0.7273255 -0.39670703 0.13927446 0.08086329 -0.15356709 -0.22692999 0.05337808 1.0065224 0.12303396 0.22359091 -1.2194724 -0.8054564 -0.53662086 -0.10470417 -0.37359363 -0.2584866 -0.17303787 0.88785887 0.25813392 1.1321917 -0.766894 -0.18533717 -0.042213228 0.8542895 -0.27320454 -0.9903882 0.24941228 -0.036099505 -0.14835808 0.86752933 -0.06307713 0.67256826 -0.2784781 -0.4339064 1.6600537 -0.6125912 0.625885 0.5815315 -0.036018964 0.62758327 0.717244 0.81737155 -0.498696 1.3820585 -0.057289332 0.6879433 0.3053633 0.06438836 0.5245056 0.09610833 -0.22730556 -0.19205736 0.22511715 0.81203014 0.10596189 0.19895956 -1.4325029 0.03695001 0.2577476 -0.5434631 0.29666874 -0.49295187 -0.46885502 -0.5069135
3035 0.2626984 -0.008198538 -0.57255167 -0.059114646 0.6026801 -0.23791099 -0.3722753 0.53936213 0.50563365 0.29652196 -0.7668387 -0.3812137 -0.1734778 -0.40089318 -0.48872373 -0.8371086 -0.17560074 0.44621176 -0.036522612 0.87351495 -0.88536257 -0.039313573 -0.6184044 -0.59960055 0.07646417 -0.70782804 -0.06477616 -0.23957789 0.2910903 0.63510895 -0.7894466 0.9219491 0.20831123 -0.2581372 0.67919576 0.041764654 0.40181515 0.3095927 0.33779842 1.6581937 0.8503665 0.3769491 0.378435 1.2912729 0.24333994 0.6463035 0.22974035 -0.018380314 -0.28629407 0.36508885 -0.6872059 -0.82443476 -0.5142108 0.3492109 0.9307424 -0.20294812 -0.86395115 0.025309086 0.3848648 -1.1340525 1.0700657 -0.47147223 -0.80567414 0.14713866
4407 0.5205165 -0.5349698 0.1596707 -0.61392736 0.931917 -0.2563643 -0.24866219 -0.19257611 0.086154275 0.46409822 -0.10788387 -0.34347057 -0.21102723 0.37300834 -0.6445827 0.51107913 -0.91248643 0.5261493 0.24957241 1.3695801 -1.2644801 0.43640175 -0.60156345 -0.68451697 0.6548175 -0.85877895 -0.60170835 -0.23638006 0.15976204 0.80677354 0.10284115 -0.48585904 -0.43901813 0.39985675 0.82927233 -0.20182455 -0.32047787 0.86364603 0.8655646 0.27446464 0.32163513 1.1254028 0.16706625 -0.09202815 -0.020156458 0.3574521 0.44019818 -0.30059043 -0.3613569 0.34595767 -0.029942418 0.037300423 -0.38736603 -0.019968197 0.64819336 -0.72433937 -0.11844516 0.8572716 1.050098 -1.1694319 0.24235697 -0.26504868 -1.2917193 -0.3351903
2561 -0.25737956 0.4109283 0.40407604 -0.48341435 -0.07434499 -0.7235079 -0.15717134 0.07117692 -0.41436327 0.019064493 0.24956977 -0.31007242 -0.5662348 -0.1883943 1.3027524 0.967073 -1.1215106 -0.8483208 -0.07343464 1.1032227 0.4918845 -1.0207297 0.08537248 1.0487438 0.09247398 0.108817555 0.4776385 0.8654662 -0.32620612 1.588616 -0.24027331 -1.0418009 0.9755054 0.33381838 -0.05257017 -0.8389709 -0.26128343 -0.033389673 0.32240048 0.3450575 0.003014224 0.09490537 0.20836098 0.5071085 -0.44028768 0.75258523 0.015410084 -1.0472873 -1.0514777 -0.36613455 -0.022819573 0.37993997 0.1524233 0.6257421 0.43323088 -0.67104435 -0.34020582 -0.23759967 0.6196335 -0.18583624 0.6392172 -0.40025547 -1.0104182 -0.459103
4905 -0.69946253 0.49933672 0.6999427 -0.96775186 -0.255927 0.07459864 -0.51639366 -0.18784149 -0.21334532 -0.54786456 0.3370382 -0.12769884 0.94869345 0.012241639 0.22674055 0.43588918 0.43925393 0.5516889 0.7489633 0.35323575 0.08143582 -0.58610576 1.2515773 0.20284303 -0.7252138 -0.16722666 -0.4027425 0.6055219 -0.31110626 0.25272492 -0.60718626 0.5379295 -0.40835193 -0.06341799 0.607778 0.20382673 0.0038844952 -0.055826187 -0.21594672 0.37919155 0.7297616 0.101968475 -0.31355017 -0.63112694 -0.665142 0.036693685 0.07618498 -0.9066918 -0.33916965 -0.45822453 0.6045557 -0.14977859 0.60290116 0.0436895 0.05908757 -0.052506614 -0.10559517 -0.08483512 -0.4168366 -0.7994663 0.33418858 -0.981216 0.36085322 -0.6966363
7135 0.070636526 0.66987807 -0.48846343 0.18013953 -0.008849546 -0.08309773 -0.061499022 -0.16227981 0.891117 -0.4622599 -0.41120636 0.17227131 -0.350027 -0.33297378 -0.20673507 -0.44213992 0.45400536 -0.24852872 0.33544287 0.24632938 -0.47827303 -1.3074163 0.61896026 0.08730569 0.27306658 1.0437913 -0.02474648 -0.6808358 0.36557236 0.21525913 -0.26728395 0.17489171 -0.2761034 -0.535704 0.10954292 0.6323607 -0.18113297 0.14817992 0.12523104 0.38664702 0.21055873 -0.37982002 1.13511 -0.1480633 -1.0945976 0.09699528 0.33957356 0.28514814 -0.011855997 -0.35757712 -0.22535424 -0.6604576 0.37805703 0.4245718 -0.007350025 -0.87577844 -0.8599306 0.5161258 -0.14174908 -1.3086406 0.16720179 -0.12904094 -0.41929144 -0.40491313
7115 0.62229806 0.66541857 -0.20653954 0.4945537 -0.28588587 0.1781757 -0.15482962 -0.60580987 0.34926486 -0.2276137 0.4602676 0.43358397 0.9468877 -0.2163171 0.25738674 0.24864133 0.2381785 -1.3814228 0.3847121 0.19588864 0.08932427 -0.7088737 -0.7442337 -0.07043784 -0.3308899 -0.31903034 -0.72425395 0.3006982 -0.38597748 0.3786039 0.40400282 -0.23304163 0.51092315 -1.7960491 0.26196572 -0.49597415 0.8685258 -0.5830179 0.5829346 0.9031787 0.7872382 0.4017199 0.7850239 0.382339 -0.37127948 0.32812867 0.115911804 -0.06658656 0.6642646 0.28445867 -0.47917026 0.8656822 0.16236016 -0.57382125 -0.69331646 -0.3514382 -1.4787742 0.6233881 0.03631386 -1.0455981 0.41225073 -0.4965226 -0.7350426 -0.13716397
3018 -0.46453732 -0.20888183 0.4260291 -0.7578412 0.13345374 0.2999793 -0.28622553 -0.40777862 0.03129673 0.21056308 -0.10473117 -0.6818857 0.44943726 -0.13201174 0.1489685 -0.08646237 0.39948204 0.4239352 1.0096253 -0.016211536 -0.17002757 -0.16647358 0.42597705 0.3722908 -0.08456077 0.3062097 -0.49567866 0.87470925 0.65512735 0.3347765 -0.58317244 0.7723533 0.81967837 -0.15829326 -0.023241615 -0.42097986 -0.179428 0.026487388 0.66144156 -0.2838617 0.17014004 0.25341764 0.51560676 -0.18389739 -0.14717993 -0.5876096 0.5477955 -1.3510351 -0.36754996 0.5011656 -0.8252671 0.13119678 0.33415467 -0.08465718 -0.1534429 0.25082052 -0.027781583 -0.62929887 0.27552232 -1.1243072 0.66694033 -0.10615873 0.9616431 -0.24092638
1487 -0.22505921 -0.3885728 0.57049996 -1.0604177 -0.27139643 0.022517605 -0.7080484 -0.9334398 -0.677469 0.30595052 -0.10068901 -0.3968986 -1.1253421 0.058148585 -0.07954423 -0.16016518 0.33203998 -0.006696843 0.22987747 -0.86932987 0.45136514 -0.59178907 -0.08963007 -0.47273684 1.1604341 0.51545244 0.2629572 0.9016309 -0.097509965 0.51135665 0.023044372 -0.38144663 0.70171046 -0.6870297 -0.0787254 -0.25787517 -0.22216779 -0.04052915 0.5969209 -0.15703353 -0.18068036 0.25444067 0.19501072 0.2877384 -0.19814248 0.44460613 -0.3970096 -0.30486113 1.4784352 0.18565048 0.22071014 -0.27082422 -0.46380222 0.28067026 -0.29475212 -0.21305828 -1.0971757 -0.5611064 0.74647474 -0.33253857 0.31909138 -1.340308 -0.7743626 -0.023701409
2880 1.0147026 -0.38274503 -0.038935453 -0.8206789 -0.23946485 -0.097160086 -0.4801005 0.43580538 -0.72038 -0.68559986 0.35874516 0.097794026 0.59884334 -0.79685986 -0.62300825 -0.32476586 -0.7744358 0.110782176 0.07484696 -0.09167258 1.0158181 -1.0144262 -0.452968 -0.037826598 0.36784267 0.057710484 0.43123174 0.5180439 -0.04706979 0.53523386 -0.2126722 0.5781314 0.25681213 -0.5922837 0.5028037 -0.89240164 0.63804513 -0.57542783 0.9243495 -0.51397854 -0.058439672 0.13828105 -0.81797075 0.589021 -0.1119849 -0.3837053 -0.34559205 -0.0059422986 -0.3259148 0.7047912 -0.4391707 -0.08498511 -0.70277196 -0.17970853 0.3631303 -1.5067978 -0.4121145 -0.37771097 -0.22682188 -0.21906209 1.0060562 -0.9071853 0.0902067 -0.4179037
4094 -0.04510458 0.20453338 0.55353564 -1.1008949 -1.0993513 0.4453373 -0.6442008 -0.8940384 -0.42077404 0.07279855 0.51327664 -0.54887265 0.84542006 0.18466951 -0.02261143 -0.46315426 -0.3987476 0.3519987 1.0404248 0.1742453 0.029219566 -0.6485433 0.9788769 -0.113169104 -1.1168654 0.4477275 -0.2713994 0.47005218 0.57116187 -0.20366332 -0.64041054 -0.016534938 -0.5264365 -0.6848752 0.19996625 0.08556896 0.34659803 -0.257095 0.8852239 0.49719274 0.6206782 0.37467062 -0.17881484 -0.5482857 -0.9202532 0.43154827 0.45080137 -1.1551975 -0.64681435 -0.13207285 -0.009739952 -0.04456906 0.01968643 0.03531076 0.62296116 0.32000288 -0.30578375 -0.03242793 -0.04447592 -0.53927743 -0.1509177 -0.15977937 -0.15857823 -1.1514506
4797 -0.6354746 0.27896312 -0.14329338 -0.34238005 -0.019056166 0.12688038 0.12829518 0.52213526 -0.4889573 -0.51854235 -0.075762376 -0.011760312 -0.10568522 0.30185673 0.08737033 -0.16582923 -0.6988201 -0.050178748 -0.12067123 0.20951217 0.23304419 -1.1250123 0.106263325 -0.49391007 0.8257813 -0.04723068 -0.6304424 0.3232272 0.94654965 0.40904862 -0.7141108 -0.12054473 0.2471454 -0.18838263 -0.038374808 -0.04695891 0.53053755 0.28658557 0.332164 0.122643694 0.24583384 0.08927528 0.7534622 0.7015971 -0.74705154 0.017571254 -0.8233667 -0.017781444 -0.61428404 0.13695732 -0.25295028 0.8222624 -0.014763243 -0.085209854 0.0023895078 -0.13595173 0.024335405 0.70046157 -0.7451182 -0.9276301 -0.84993243 0.11251812 0.35549667 -0.3525141
2045 -0.040511195 1.0733978 -0.11698348 -0.4801421 -0.41270408 0.087464914 0.11096547 0.77878433 0.20478186 -0.26155952 0.06228643 -0.57512486 -0.6581596 0.021148441 0.28567123 -1.4291177 0.20674434 -0.09430688 -0.12463782 0.53563076 -0.5245066 0.22691019 -0.59116006 0.14335181 0.20422982 0.95965385 -0.98451024 0.8115024 -0.07293984 0.0346902 0.7815783 0.47742817 -0.21753667 -0.12679808 0.29109013 -0.5795337 -0.3628827 -0.078548856 -0.3965663 -0.7288285 1.0399601 0.4145706 -0.5996259 -0.40250266 -0.3691673 0.9687936 -0.3733133 0.2750395 -0.093285024 -0.026575692 0.20369394 -0.098359995 0.24266791 -0.48272553 -0.062159732 -0.43847433 -0.5067262 0.21816798 0.36273673 -0.59433365 0.27397802 -0.4011072 -0.27015498 -0.3774166
8306 0.3029677 0.3639266 0.5527759 -0.7571506 0.02425208 0.04862435 -0.47254676 -0.026496658 -1.2647749 -0.5547128 -0.29023144 0.26345882 0.32612854 0.95155877 -0.26642647 -1.047305 -0.044611704 -0.2378132 0.32751918 0.5929662 -1.3056674 -0.36847883 -0.27351484 -0.2698124 -0.26193842 -0.5070563 -1.1857551 0.8767476 -0.3565586 -0.0425424 -0.7644192 -0.40278342 -0.80554307 -0.13563421 0.8241046 -0.2669031 -0.22368303 0.77771765 0.8368905 -0.084291734 -1.006485 -0.02017512 -0.032442592 0.5820232 0.8216892 -0.35005066 -1.3574142 -0.43569738 -0.43812975 0.005295964 -0.42754546 0.2325244 -0.6825128 0.85941917 0.3490551 -0.21080314 -0.53934693 -0.49453074 0.41676062 -1.7933829 0.4651321 -0.03502138 -0.74102455 -0.944844
2226 0.29702574 -0.227429 -0.3438615 -0.604192 0.30498326 -0.10953948 -0.4978578 0.3858519 0.22282878 0.25242537 -0.67544645 -0.70182 -0.60377556 0.073139496 -0.8023683 0.5306057 -0.27710164 0.9585212 0.26812008 1.0071381 -1.0557045 0.3593155 -0.28259695 0.18233597 -0.068893194 -1.0881878 0.1351385 -0.48278984 0.080545686 1.002968 -0.6525656 0.25119534 0.21690957 -0.0047854343 0.8994729 -0.5165162 0.14877573 0.49710354 0.34983215 1.4102787 0.69663864 0.48315933 0.081295356 0.4991202 0.15716194 0.36663547 0.46685615 -0.20776309 -0.09988838 0.40776858 -0.33265772 -0.4692082 -0.27610737 0.34230712 0.22437768 -0.19932 -1.1120062 0.1310544 0.16967914 -1.1266763 0.029611262 -0.56573963 -0.5670887 -0.15038311
3302 0.86262995 0.40935373 -1.1328244 -0.39263386 -0.7876075 0.04487806 -0.7443018 0.25803265 0.09065659 -0.0053889737 -0.37133142 0.46463656 0.77718014 0.7268135 0.5800794 0.47569114 0.32579154 -1.1011854 1.1888545 0.48493242 -0.43843842 0.14869787 -0.14919834 0.21968462 -0.10661132 0.03370013 -0.43604738 0.8120578 -0.67061377 0.5333991 0.3967686 1.0530307 -0.49547762 -0.7805725 0.2660014 -1.305192 0.4670738 -0.4496609 0.67187506 0.9309051 -0.3102828 -0.11559053 0.49816784 -0.041043345 -0.58282304 -0.12527739 0.020297498 0.48943448 0.27940276 0.5313115 -0.24888365 1.3230898 -0.12450277 0.15439577 -0.42701337 -0.32191503 -1.1641406 0.04271867 0.5802861 -0.6607329 0.0038787723 -0.3250781 -0.56340134 -0.32517093
4416 -0.17167528 0.80460155 0.17964278 -0.7033464 -0.6114897 0.17795217 -0.48167488 0.42020565 -0.2552596 0.3567793 0.071481794 0.15789081 0.12801698 -0.62109697 0.2849552 0.6345586 -0.4167466 -0.9345883 0.4871772 0.8381458 0.45421064 -0.2946895 0.757896 0.4137688 0.6220223 -0.47695002 0.30866557 0.8929474 -0.56334597 1.0703928 0.30367973 -0.5477498 0.59394085 0.7594618 -0.28763938 -1.1017382 -0.43122557 0.28376156 0.32472447 -0.1607768 0.16624196 -0.25104985 0.41793802 0.5082835 -0.51884955 0.8047438 -0.3222122 -1.2216328 -0.7821964 0.30013978 -0.283513 -0.3354602 -0.21030383 0.6219588 0.7662407 -0.34136975 0.014938559 0.24471281 0.017871123 -0.3910506 0.26115265 -0.7731656 -1.3952224 0.1451464
2238 -0.0069888155 0.35240436 -0.75368595 -0.5982182 0.3037958 1.1309482 0.5857661 0.3905288 0.3705346 -0.08564921 0.81133115 0.016776321 0.7395433 0.9803924 0.20299582 0.69479156 0.4959968 -0.58889425 -0.9518516 0.68462044 -0.022802232 -0.8769646 -0.6656966 0.23350112 0.24558164 0.5511744 -0.69520646 0.5944078 0.03696968 0.344834 -0.77075076 0.65702873 -0.011032968 0.11827271 0.060170233 -0.06340841 0.8025506 0.38936463 0.6597163 -0.32570815 0.6807282 -0.92338496 -0.40110222 -0.009342762 -0.4619063 1.1264917 0.5153725 0.3236015 -0.44087428 -0.17718458 0.2742314 -0.15378617 -0.23905945 0.0886131 0.94585305 -0.54539657 -0.38172927 0.05472947 0.12962617 -0.6001081 0.4180011 -0.4200968 -0.6420096 -1.3379307
3741 0.9366379 -0.34366697 -0.19280271 -0.6212358 0.8487908 0.006068015 -0.5002818 -0.3775899 0.296067 0.24970445 0.18031505 -0.43885013 -0.22266471 0.51351964 -0.056677524 0.8377751 -0.7050449 0.48068786 0.24043499 1.6194705 -1.2047641 0.220439 -0.45910442 -0.6656935 0.4036308 -1.054092 -0.8754077 -0.45365623 0.07257141 0.5920794 0.58076936 -0.5014201 0.31281778 0.6532691 1.4765464 -0.842871 0.024366861 0.53294426 0.82241106 0.011047214 0.77281916 1.0874729 0.29220736 0.7144062 -0.16003373 0.792876 0.5470296 -0.5451478 -0.13645585 0.58002955 0.06451442 0.053880688 -0.4590838 -0.19710365 0.4645619 -0.824759 0.2630809 0.5034643 0.41190627 -1.0758044 0.23493266 -0.06803825 -1.1116911 -0.09816053
3326 1.2469805 1.0456047 -1.1750492 -0.34179282 -0.25638273 0.38589168 -0.07045772 -0.25676233 -0.15171462 0.3034834 1.6518734 1.0691729 1.1334124 0.55988175 0.34469125 0.017202878 -0.059351902 -0.8045926 0.12496248 -0.31395853 -0.7153276 0.12865959 0.14001687 0.42866114 -0.2814324 -0.96421564 -0.99207914 1.1933415 -0.15161274 0.46580774 0.3530443 0.860594 -0.24868804 -0.78504425 -0.13899946 -0.18742254 0.29998314 -0.40013248 0.593275 0.9451053 0.33565977 -0.09212736 1.1153635 1.2701634 -0.7346139 0.7651897 -0.06454897 0.22558738 0.5732578 0.45432934 -0.22430019 0.65558946 0.36495724 -0.03204757 -0.32414174 -0.7631319 -1.5296267 0.08053829 -0.5752556 -0.7391656 -0.39764205 -0.52278614 -0.8474707 -0.3828267
