2499 64
142327 -0.30434778 -0.56045353 -0.16334218 0.2912474 0.57437885 -0.02352024 -0.15457821 -0.121546395 0.08907949 -0.59280217 0.007445675 0.6467812 0.01541601 0.6396952 -0.3941129 0.15740465 -0.49951187 -0.03156916 0.3780513 0.2222843 -0.4325037 0.32505766 0.15283187 0.2905576 0.3544197 0.21914116 -0.072292894 -0.31430328 -0.23258068 -0.18491776 0.2809856 0.0007557074 0.4001386 -0.55770886 0.33386013 -0.50049233 -0.36619616 -0.3776335 0.40193865 -0.46817082 -0.09480678 -0.030263325 -0.17722736 0.024461698 -0.13979827 0.6040126 0.4386453 0.5602411 -0.34274215 -0.29050577 -0.32570234 0.39373833 0.20042668 0.3607386 0.1767306 -0.37925225 0.22222303 0.010989703 0.6645213 0.20052116 0.94598424 0.2188562 0.3569348 -0.8469786
145099 0.1441318 0.52913964 -0.5109148 -0.21757495 0.90453726 0.4645727 0.56718075 0.07830263 0.24311624 -0.53725046 0.09763319 0.20589401 -0.43312073 0.01328706 -0.26192838 0.16192679 -0.0036528518 -0.45445666 -0.19458567 0.026120808 1.0029314 -0.4449342 -0.10207157 0.5823014 -0.34537306 0.23344819 -0.6303117 0.3469584 1.6376232 -0.51781005 0.08297824 -0.525497 -0.073510624 -0.26517686 -0.09613222 -0.10532247 -0.05855935 -0.35222214 0.72034365 -0.39599812 -0.13089305 0.22217506 -0.8989466 -0.25436714 0.5610638 0.0024721704 0.059572816 0.47582042 0.51590526 -0.5148522 -0.054773804 -0.820472 -0.49460465 0.21811333 -0.07675723 0.064421736 0.110757366 -0.6313881 -0.007649182 0.552401 -0.46741512 -0.12029159 1.1562325 -0.4452879
145557 -0.05906462 -0.09275552 0.5739271 -0.1903328 0.8495056 -0.5851546 0.15916172 -0.37271452 -0.41632482 0.42405155 0.14701141 -0.33352596 -0.74594474 0.18404548 -0.73267096 0.33811507 -0.14520864 -0.17363572 0.013529791 -0.052289657 -0.4885983 -0.7179588 0.26024982 0.44338524 -0.8155848 -0.75453174 -0.19483574 -0.17264302 0.5121838 0.32708916 1.1207917 -0.24224553 0.11224562 -0.08659185 0.20869042 -0.028006097 0.1716534 -0.59824353 -0.2890136 -0.51611835 -0.566488 0.9991098 -1.2316996 -0.3162 0.6632199 0.32780865 0.33463624 0.25438675 0.30886108 -0.27881196 -0.9548648 -1.4870574 0.2317834 -0.13167053 -0.059696496 0.66012067 0.008583658 -0.09016429 0.20015302 -0.105049334 -0.05858508 0.22750011 0.59734076 -0.2862579
143476 0.1498507 -0.62073123 -0.3060135 0.5713845 -0.025520477 0.47977352 -0.05782986 -0.045912504 0.12861282 -0.7565403 0.3500646 -0.083331935 -0.22197255 0.16074857 -0.24977048 0.54957855 0.5630628 -0.095509656 0.9106797 -0.42682135 0.35134813 0.061525635 -1.4200761 0.28121015 0.042224437 -0.61423415 -0.12402056 -0.19497603 0.41070434 -0.6914944 -0.18508065 0.8614304 -0.6773186 0.1580626 0.06676281 -1.0830103 0.4943868 -0.29073378 0.32396293 -0.21599878 -0.98107404 0.3304062 -0.62456435 -0.2617996 -0.29816383 -0.2817475 -0.36428386 0.09498258 1.2889944 -0.46877998 0.07770167 -0.25444484 0.45238823 -0.012096106 -0.0964015 -0.45251593 0.74757195 -0.06835282 0.29410443 0.49596956 -0.7142007 0.21873416 0.108293146 -0.15446243
145581 0.44965702 0.030898549 -0.64387095 -0.047380235 -0.108456716 0.37938207 -0.50798565 -1.0406278 -0.5731333 0.15967828 -0.36214212 0.23492554 0.2668432 0.025519919 -0.32726032 0.04181328 -0.08484342 -0.1866709 0.6286929 0.09636897 0.547002 -0.06582062 0.08901382 0.26042438 -0.51371515 -0.45321515 0.25776643 -0.45795923 0.018410303 -0.37777045 0.6107876 -0.26350844 -0.20694911 0.7821072 1.0994217 -0.2717125 0.4047799 0.02136492 0.46840408 -0.33239695 0.207022 -0.09470312 -0.27296686 0.45880982 0.14127512 0.38723442 -0.28743604 0.2888683 0.3841275 0.010998074 0.28129187 -0.43923956 0.4426572 -0.24898642 0.2681176 -0.55508506 0.92530066 0.05103874 -0.75662273 -0.24983862 -0.50263643 -0.28895947 -0.25965708 -0.43939173
143406 0.19242668 -0.19987915 -0.16555008 0.48911557 0.1381489 -0.83375144 0.30207947 -0.30541232 -0.4630537 -0.19102949 -0.3271036 0.17960587 0.32887894 0.24475391 0.14855875 0.25877714 -0.5633903 -0.07498249 0.47656384 -0.10973887 -0.6879202 -0.3474817 0.3117382 0.004098984 -0.5434545 0.27625814 0.75803894 0.29177755 -0.63962936 -0.8267841 -0.45563987 -0.055462927 -0.3817942 -0.12878624 0.45682368 -0.26337805 -0.12989976 0.36316773 0.17244518 0.022215093 0.7463369 -0.15849917 -0.9084219 0.3571794 0.12526698 -0.8013005 -0.34556767 0.7363791 0.7502375 -0.23295861 0.285446 -0.43973258 0.15336049 0.038375754 0.93173003 -0.20158118 0.015931433 -0.6343153 -0.04831249 -0.35714284 -0.6532432 0.46127117 0.19430254 -0.41519925
144099 0.1777852 0.4084384 -0.3697641 -0.1242034 0.25144556 0.32209802 0.5435316 0.09833607 -0.037834685 -0.8490736 -0.93559426 0.42807835 -0.023641514 0.010101579 0.10598489 0.61037576 0.15962149 -0.23948805 0.18905072 -0.77641267 0.29538882 -0.6952765 -0.51519936 -0.06427276 0.090219006 0.13428088 -0.19040617 -0.46284997 1.1458123 -0.17227441 1.0279932 -0.094317034 0.28784734 -0.3081717 0.6507891 0.9838749 -0.44963273 0.1602068 0.5181207 0.18235542 -0.0903462 -0.086142264 -0.5730456 -0.15523055 -0.21938263 0.51884323 -0.5373973 0.20542307 0.53968745 0.006376643 -0.61905056 -0.33131057 -0.07839089 0.3855108 0.79306954 0.32072073 -0.32374915 -0.29501283 0.52989787 -0.30711466 -0.06894633 0.8248875 0.3772114 -0.57007706
143288 -0.6472578 0.17866848 -0.8938576 0.29765242 -0.17793015 0.1661578 0.39119482 -0.38909227 -0.44483203 -0.086914904 0.09727671 0.22000219 0.42972097 -0.29691237 -0.70896244 0.111149095 -0.08384385 -0.23855397 0.22451946 -0.16514029 -0.023793207 0.20405403 0.015843004 0.6458338 -0.19179949 0.15701291 -0.1808455 0.42490456 -0.7045714 -0.33030394 0.124241464 0.6399437 0.022457479 -0.7157168 -0.040256526 -0.06787913 0.31052092 -0.2663935 0.19010182 -0.48591822 -0.2765316 0.56102574 -0.59774065 0.28237435 0.92196006 -1.0334251 -0.40681067 0.46472487 -0.02041936 -0.19061571 0.09631026 -0.15138543 0.35521647 -0.8084774 0.48002422 0.17885976 0.47896525 0.25728533 0.882878 -0.7521295 -0.5687386 0.7027532 0.21113262 -0.015818063
144783 0.50960934 0.192621 -0.2549177 -0.1352735 0.68368655 0.6548265 -0.5103317 -0.33566338 -0.42179146 -1.388826 -0.44090238 0.15706548 0.2554869 -0.43150228 -0.059929047 0.09052405 0.07036261 -0.53761613 -0.26073518 -0.22293544 -0.40989068 -0.75073224 -0.287699 -0.48285937 -0.57644373 -1.0137823 -0.21826433 -0.14408395 0.42724213 0.12972815 -0.08270424 -0.34291908 0.13187996 -0.16246851 -0.030310404 0.30929717 -0.1456509 0.35503593 0.28023794 -0.5524934 -0.43864354 0.5788746 -0.4526615 0.3253575 0.23371814 0.62665963 -0.5672431 0.4193278 -0.5957445 -0.5470822 -0.027854448 -0.490604 -0.7218474 -0.6911627 0.029216964 0.21069865 0.3615952 -0.13286355 0.48616636 0.54556406 0.22461392 -0.087561786 -0.21699838 0.23986566
146767 0.36179155 -0.04797528 -0.062211163 -0.3933387 -0.15514661 0.5207172 -0.24198732 0.00079460104 -0.38946122 -0.60155594 -0.56837386 0.7255555 -0.15933129 0.12375809 -0.0027217625 0.50543964 -0.2161879 -0.28958818 -0.52635205 -0.109401904 0.32149255 -0.52729744 0.2327437 -0.20344868 -0.6224201 -0.11151444 -0.11137959 0.66786325 0.53196406 -0.64581925 -0.17858616 -0.44920048 -0.4793425 -0.197354 0.19719435 0.36429098 -0.63064104 0.07680776 -0.15536572 -0.21566169 0.2571011 -0.17390509 -0.6470486 -0.73958623 0.33575258 0.18835147 0.14633231 0.77052397 0.01491847 -0.55044895 -0.48853356 -0.77226526 -0.6209749 -0.06823272 0.29300594 -0.29441625 0.27017727 -0.45180964 0.49248487 -0.2818725 0.041069996 0.5478814 1.057256 -0.2075793
145212 -0.20095657 0.32191032 -0.57250345 0.9711939 0.35988477 -0.106101975 -0.3743985 -0.3013491 0.035444412 0.093316056 0.2194794 -0.6965267 -0.44054398 0.44151577 -0.5164684 0.26199493 0.4029848 -0.29648352 0.22378041 -0.4371123 -0.19911021 0.35520422 0.4428517 1.7984387 -0.8769575 -0.70795774 -0.7738879 -0.13634104 -0.7081772 0.5989065 0.37595266 -0.14766037 0.10997879 0.04297128 0.39196116 0.9510113 -1.0718168 -0.16536936 0.12627824 -0.31301054 -0.07944362 0.38293406 -0.56664515 -0.22708277 0.008084128 0.73659277 -0.44232753 0.54136425 0.7532306 -0.62522125 -0.071837075 -0.6112265 0.83315974 -0.4341026 -0.6981302 0.25499657 0.59705293 -1.0186045 -0.40634614 -0.29361525 0.2139744 0.19503392 0.4375296 -0.2105876
145444 -0.2721361 -0.5710246 -0.36832702 0.63096 1.0054543 -0.1907598 -0.070490055 -0.7335282 0.72896373 -1.1568309 0.19115624 -0.35346362 -0.7194731 0.29680794 -0.3279508 0.56329423 0.33286196 0.5794458 0.10912564 -0.16739911 0.5501209 0.16225958 -0.50424814 -0.012223033 -0.70226896 -1.0272766 -0.15060537 -0.53385377 -0.941241 0.082338646 -0.2853255 0.6588261 -0.8455165 -1.4103249 -0.118763134 -0.11038264 -0.42617953 -0.45740572 0.46750304 -0.14452934 -0.62934256 0.5994124 -0.3010315 -0.27965492 0.13748933 0.66704047 0.12946957 -0.07920612 0.6696331 0.22828554 0.1860189 -0.6807156 -0.14288953 0.015126186 0.8620978 0.73938435 0.868549 -0.72590727 -0.3796873 0.0602153 -0.044540055 0.0017484471 0.14550559 -0.10594641
144106 0.53401536 0.05855363 0.09445935 0.2636082 1.0144442 -0.46342272 -0.20469178 0.1443083 0.2932914 -0.364577 -0.13970782 -0.01864501 -0.6503536 0.42216617 0.7209919 -0.3724762 -0.40527967 0.3922594 -1.6045096 -0.29194966 0.49804476 0.44890463 0.13568167 0.47796583 -0.6330814 -0.7340881 0.15096039 -0.6491758 0.1876658 -0.15434135 -0.13925363 0.11252362 -0.5837859 -0.38980648 0.68097967 0.077908665 0.19022729 -0.3166019 0.1704937 0.067532085 -0.27770978 0.79289913 -0.89070034 -0.10735599 0.9247323 0.59145784 -0.79482055 0.8425129 0.6208232 0.029925358 -0.17694426 -0.19632971 0.09097597 -0.7247047 0.08329375 -0.0029645935 0.52901214 -0.63504875 0.24495725 -0.08127541 0.2835765 0.0076619964 -0.2962778 -0.16887595
144347 0.48517284 -0.9324888 -0.5788423 0.18939272 0.793971 0.26134688 0.104774304 -0.48551407 0.25177962 -0.3728559 -0.5781058 0.51244354 0.0343754 0.21818207 0.13166428 -0.12368505 0.28491342 -0.6505696 0.20601241 -0.015052073 -0.2237144 -1.4450635 -0.5847098 0.32671532 -0.33923173 -0.64566773 -0.07113211 0.8776017 0.86151683 -0.2887088 0.03735807 0.28782105 -0.7141836 -0.1769061 -0.32569477 0.42478654 -0.74202454 0.16701904 -0.34382468 0.14543505 -0.21838173 -0.38437572 -0.4649565 -0.53895164 0.308934 0.76555514 0.15366684 0.7635287 -0.38065624 -0.05570839 -0.1571162 -0.3886633 0.027528597 -0.5841024 0.72783667 0.207599 0.3334066 0.25577173 -0.016350947 -0.30067462 -0.014856932 0.082137726 0.797177 -0.33466825
144195 0.3944269 -0.68144464 0.114898816 -1.222896 0.26155394 -0.054633353 -0.20486742 -0.512555 -0.17665322 -0.2034847 0.10593342 0.7254537 -0.46304867 1.4392512 -0.5476209 0.11172982 0.2756807 -0.9967723 0.37132695 0.31460807 -0.21398948 0.5381543 -0.9176452 1.0700346 0.009826357 -0.1848485 -0.015484112 0.9935998 0.44986963 -0.07727063 -0.4826363 0.10238921 0.34783274 0.12881824 -0.33474782 0.1882251 1.0385028 0.45424297 -0.67339253 0.05855024 -0.1840113 0.84380054 -0.65547276 0.3029071 0.6459556 0.38815445 -0.6204193 -0.32311192 0.26287353 -0.292833 -0.12174595 -0.50948584 -0.5880741 -0.04369119 0.19989198 0.26889408 0.70117646 -0.36799997 0.6555277 -0.7240589 0.19530264 0.46751946 0.4991093 -0.10664729
145262 -0.06202032 -0.3362293 -0.07132749 0.28686434 0.10076204 0.82024086 -0.4454929 -0.061766587 -0.59154207 -0.6408343 -0.062019 0.0808229 0.19762163 0.15977237 -0.24948053 0.7237407 -0.45173 -0.43680272 -0.29274443 -0.58169144 -0.021098342 -0.3872975 0.3438608 -0.3810756 -0.558356 -0.068836845 0.75772405 1.088122 0.19795573 -0.103561744 -0.29157963 -0.2684839 0.4060288 0.09616297 -0.22975463 0.82785004 -0.6060088 0.28923887 0.5008628 0.27525324 0.17615719 0.2727412 -1.3392075 -0.6809285 0.9618857 0.60633713 0.3799061 0.3575241 0.4449831 -0.88626784 -0.2678213 -0.8092616 -0.72501785 0.45806926 0.25833845 -0.04495905 0.19949155 -0.16484821 0.09607767 -0.07760074 -0.18027991 0.61299956 0.1410843 -0.7543871
145474 0.45501277 -0.567342 -0.29628426 0.685557 0.49573982 -0.057861377 -0.6696878 -0.3869221 -0.1379705 -0.6087921 0.22798906 0.19316019 -0.6252895 0.13709122 0.23838273 -0.10898064 0.35254803 0.31146532 -0.50074923 -0.20881963 0.77225596 -0.5880435 -0.17877656 -0.20392717 -0.6630566 -0.2599754 0.036720324 -0.29099107 -0.70205426 -0.03434671 0.4633215 0.15013625 -0.19539884 -0.40621546 0.17170493 -0.1351539 0.078358725 0.076266795 0.33811337 -0.25253788 -0.609543 0.3252605 -0.4743174 0.05876453 0.7382684 0.8535545 -1.0079811 -0.14135903 0.1165667 -0.34789306 -1.0274597 0.4946301 0.36030686 -0.66747046 0.6586929 0.41317537 0.13575757 -0.5877071 -0.16582227 -0.42230195 -0.06710142 -0.7012711 0.038381293 0.030539425
142997 0.23385057 0.061132006 -1.1096747 -0.25450498 0.6792113 0.31368396 0.54374826 -0.28411788 -0.9099983 0.19004825 0.10603316 0.118303634 0.5358288 0.865027 0.104012415 -0.12601534 -0.30498967 0.61000276 -0.20898499 -0.2414547 -0.0642238 -0.011208305 0.57635355 0.11026428 -0.52971727 0.3795953 1.0172246 0.18573135 -0.40422416 -0.2082612 -0.13291219 0.2333382 0.48101553 0.012674308 0.50151384 -0.17639227 0.61788166 0.07676265 0.29392776 -0.6084244 -0.4340191 -0.22294527 -0.6197714 0.03920084 0.06433559 0.00068837724 -0.42626256 -0.58438575 -0.04050793 -0.25307325 0.05390886 -0.50091046 -0.10347314 0.36182562 0.48101586 -0.30195075 0.73770005 -0.6045154 -0.19140978 -0.5523159 0.097393416 0.39444864 0.7431319 0.0689332
143447 0.42733276 -0.3957567 -0.6409171 -0.40285134 0.1092058 0.41007647 -0.17393044 0.14001301 -0.06645171 -0.96605116 0.46940055 0.12970744 -0.34555286 -0.62590915 0.011391347 0.93011165 -0.5604459 -0.16904335 -0.015030396 0.0134460265 0.24878709 -0.87617326 0.3272799 0.048412558 -0.6250195 -0.9854757 -0.11293091 -0.1029504 0.20586193 -0.20577593 -0.43780985 -0.50836414 -0.5659301 0.23133351 0.45685092 0.36612007 -0.39187285 0.5782515 0.51960206 -1.0653931 0.21971345 -0.2648268 -0.30432805 -0.05347554 -0.009529995 0.28947842 -0.11339154 -0.11277299 -0.21731704 -0.26639834 0.26207685 -0.52044094 -0.27623737 -0.29668447 0.09049627 0.5436894 -0.086736254 0.00851274 1.6821296 -0.7809247 -0.15182582 0.71971196 0.24731836 -0.24515024
144726 0.20722857 0.44423085 -1.1299043 0.37059644 0.024438757 1.0333116 -0.028539699 -0.16163109 0.20820762 -0.2826954 0.2602735 0.25929248 0.23838562 0.19709556 -0.031890597 -0.63125736 0.021537539 -0.078830056 0.3392036 0.10924393 0.19586954 0.07037205 0.5389129 0.46390077 -0.14406753 -0.06309403 -0.29921865 0.21415956 -0.8164923 0.33716413 0.2663404 -0.6942707 -0.3918721 -0.42736706 0.62484235 -0.3747194 0.22838424 0.48815012 -0.06240369 -0.5638935 0.09742958 -0.32604522 -0.94011384 0.09893305 -0.015900174 -0.32182378 -0.8874689 0.072368935 -0.1997893 -0.35804343 0.8914513 -0.18565041 -0.14106238 -0.45320508 0.76542175 -0.17914498 0.6670662 0.3137216 0.43190664 -0.17934048 -0.43883467 0.57836664 0.3222713 -0.41337597
143512 0.1254963 -0.885256 -0.9299285 0.3228293 0.24238573 -0.070406206 0.19150999 -0.15451974 0.8902597 -0.3400968 0.22776671 -0.6548251 -0.7059918 0.29269212 -0.39961275 0.48078737 -0.67527634 0.85044277 0.2610154 0.3049558 -0.04501479 -0.11607562 -0.1913068 -0.09033394 -0.6978402 0.31149277 -0.43589273 0.35826343 0.34329194 -0.093234785 0.5211871 -0.38582486 -1.0634089 -0.180937 -0.037851784 -0.107306264 -0.08217457 -0.28933713 -0.14881057 0.6434822 -0.9733806 1.0054063 -1.1160622 0.24920209 0.16040091 0.57841235 -0.62709236 -0.2687605 0.9005399 0.27536556 -0.12837347 0.25217757 -0.23828827 -0.19430982 0.15565263 0.0791975 0.78467965 -0.8230513 -0.0729851 0.7745949 0.14679644 0.8836894 -0.03100356 -0.6511938
144135 0.3963629 -0.051992662 -0.6220791 0.119044766 0.105026774 0.775723 -0.40440542 -0.8735454 -0.66106296 -0.429834 -0.5026026 0.31391114 0.21804506 0.0017004497 -0.0380761 0.13538608 -0.23591089 0.29020467 0.19799642 -0.03099205 -1.3225099 0.07769029 0.11626996 0.8745284 -0.2590984 0.39173976 -0.5627404 0.43089992 -0.10464001 0.21673073 -0.44255927 0.11701053 -0.29780295 0.48597798 -0.523788 -0.36566457 -0.3085691 0.007427947 0.9863807 -0.4213619 0.1642208 -0.11708606 -0.59382993 0.67529833 0.26314744 0.35095897 -0.966428 0.65742326 0.49388966 0.20129722 -0.25053346 0.024851978 0.7517623 0.45131305 1.0009141 0.13691545 0.23605356 -0.3950464 -0.4322015 -0.20918845 -0.1549428 0.7474641 -0.34287676 0.5480295
143708 -0.47674784 -0.85243654 -1.174552 -0.375639 0.85429585 -0.41691807 -0.3439114 -0.3370415 -0.060891084 -0.666367 -0.06947546 0.13386136 0.053294055 0.29059243 -0.03436347 -0.38120967 -0.49980295 -0.2069524 0.33519801 0.36732778 -0.7328988 -0.088267975 -0.11719445 0.7084446 0.53753537 0.18718313 0.41055262 0.019941233 0.18390276 -0.3556229 0.55122393 0.27124897 0.11493106 -0.013680183 0.4725688 -0.29770362 -0.68647397 -0.108611375 0.56321186 0.15496379 -0.32959476 0.11205 0.2853897 0.605978 0.18617603 0.19310644 -0.041381482 0.5954218 -0.111386694 -0.27923185 -0.13205828 -0.23496546 0.83533925 0.48428267 -0.6173376 -0.42116165 0.09817759 -0.4010551 0.86728543 0.5662213 0.516837 -0.12438705 0.04645991 -0.69816214
144243 -0.06314975 0.14172961 -0.42309937 -0.2924293 0.03951906 0.39463598 0.16417406 -0.045572795 -0.030973502 0.021568261 -0.12737478 0.57299656 0.5516049 0.0072870185 -0.06348877 -0.3684988 -0.33815593 0.016841387 0.1417874 -0.5963404 -0.74491644 -0.6879866 -0.11184053 0.7289533 -0.15467201 0.009593931 0.7203291 -0.29436624 -0.46021822 0.035734043 0.014439224 0.7663649 -0.5444996 0.04881051 -0.07075544 -0.06558979 0.09100571 0.63668007 0.55221546 -0.23479499 0.20167075 0.3096458 -0.7683475 0.37942138 0.45756632 0.28933096 -0.10244321 0.9793174 -0.2769752 0.0850502 0.5595576 0.2897126 -0.07331381 -0.10518172 0.2435152 0.103205726 0.67662156 -0.454557 -0.58052033 -0.8034106 -0.50376576 0.31045175 0.6119339 -0.18286957
143469 0.23800921 -0.68979865 -0.4951899 -0.39828184 0.21737786 0.0039475025 0.5080579 0.45304394 -0.5570606 -0.3874544 -0.3358064 0.30465165 0.05694022 -0.35232267 0.23984759 -0.51682794 0.46317127 0.1339246 0.9844146 -1.0050427 -0.35494688 -0.07607763 0.13900056 0.26938584 0.14153256 0.016553279 0.07078653 0.16646843 -0.7876686 0.4043274 -0.14755204 -0.8280293 0.7204675 0.40429947 0.54937357 -0.5794162 0.54972553 -0.1337782 0.09164562 0.12262712 0.37636742 -0.00023477696 -0.9791284 0.6476172 0.32065067 0.49878544 -0.68601745 0.52940476 0.4567969 0.07047476 0.25184682 -1.016902 0.0007377305 -0.11933176 0.62517965 0.14104204 0.5218898 -0.52967304 -0.017370423 -0.68999743 -0.41807988 0.2045498 0.17376088 0.39632067
143928 0.080286555 -0.3071229 -0.66107154 0.24931185 -0.049449313 0.35119146 -0.7686662 -0.29328123 -0.052575912 -0.367291 0.026302086 0.5640906 0.25229204 -0.5942735 0.13413297 -0.2746563 0.033878732 -0.42181855 0.33304584 -0.38897756 -0.41587776 -0.38422987 0.90294784 0.44587618 0.15540776 0.10207695 0.38337818 -0.6977428 0.03818005 -0.042163234 0.06494338 -0.73231703 -0.19506498 -0.35408857 -0.19282083 -0.29314587 0.5463426 -0.28145772 0.49339578 -0.7054789 0.30145234 0.08680709 -0.54166853 0.09721589 0.7044195 -0.7230048 -0.33828437 0.2320972 0.646325 -0.41244903 -0.24194773 0.50898206 -0.111181 -0.17680039 0.23254213 0.32750243 0.8989807 -0.42385912 -0.022150643 -0.40689394 -0.64740247 0.5452448 0.8574749 0.31738994
143841 -0.20006195 -0.91672295 -0.53933346 0.90685415 0.25842497 -0.43768406 0.49332228 -0.24893901 -0.082214326 -0.7888972 0.44815263 0.08415753 0.3974872 1.1040989 -0.2106478 -0.11257126 -0.25618392 -0.17601047 -0.003150206 0.5582335 -0.83340544 0.05923886 0.011749087 0.18847261 0.74153745 -0.41502416 -0.7723361 -0.5752152 0.0822889 -0.13454987 0.71140575 0.20325622 -0.20155503 0.011804823 -0.2849382 -0.47133517 0.19531676 0.2576162 0.11731958 0.009332824 0.07597844 0.21491128 -0.60696006 -0.184046 -0.34147713 0.2647614 -0.22980475 -0.020214684 -0.18725337 -0.0058629783 -0.15666775 -0.3191379 0.006617988 0.524335 -0.2842861 0.011586341 0.10873115 -0.2360195 0.09161633 0.1239437 0.022690842 0.2650652 0.23582532 -0.12893589
142497 -0.22662005 -0.53464055 -0.22449586 0.06579154 -0.24192785 -0.02494051 -0.15200359 -0.080654494 0.2719514 -0.7956348 0.17954546 0.52676123 0.10055365 0.7769932 -0.43057448 0.08562246 -0.5428939 -0.26337543 0.0061806897 0.5407113 0.28276825 -0.2724646 -0.023274371 0.7874278 -0.087864004 0.6753325 0.18636663 -0.6918514 -0.2704466 -0.39706686 0.69069636 0.084924705 -0.024043467 -0.18725637 0.29178727 -0.33496934 -0.1878526 -0.7221882 0.14548714 0.078323305 0.06281081 0.2909534 -0.22311066 0.8569646 0.44452754 -0.023722166 -0.22606276 0.5142062 -0.75841355 -0.08461877 -0.13931535 -0.15302217 0.63671225 0.25152943 -0.2149032 0.030435724 0.13438007 -0.12435351 1.090158 0.03053596 0.41483635 0.036434185 -0.24284029 -0.28737634
144295 0.54330575 0.07557352 -0.82061386 -0.6607104 1.2363875 0.116986424 -0.010921504 0.22307096 -0.06716206 -1.487708 -0.73663014 0.24301574 0.3271268 0.7212452 -0.34720254 0.48699445 0.56169206 0.27111465 -0.38431868 -0.7369225 0.100236356 -0.15191117 -0.873064 0.5364437 0.6247618 0.78302574 0.4506264 -0.5728802 -0.7509561 0.07991713 0.826023 -0.6406487 -0.8503426 0.1300798 -0.09938473 -0.016201742 -0.6990209 -0.30391857 -0.6860376 -1.214094 -0.31907588 -0.34078485 -0.20137559 0.6877185 1.6681372 0.08415396 -0.3288247 -0.23848465 -0.022986569 -0.7516292 0.34217203 -0.40582752 -0.10031863 0.1584863 -0.38629115 0.0894757 0.68269074 0.3517091 -0.0320243 -0.13515739 -0.66035 -0.33600387 -0.2517159 -0.5137669
144649 -0.08222775 -0.59863913 0.18221033 1.0462934 0.3227722 1.0006394 -0.4909902 0.1891157 0.27267 0.38179407 0.48383197 0.56519556 0.45448267 -0.46414182 -0.6878108 -0.8190301 -0.2839141 1.2756337 0.3844222 -0.44342473 0.10051506 -0.2919195 -0.31175986 0.14087567 0.45462784 -0.42934552 -0.77793056 -0.46924832 -0.37960997 -0.9727743 -0.45859632 -0.08958098 0.07882547 -0.20678596 -0.2787593 0.2876091 -0.4327218 -0.54393053 -0.24300095 -0.60585684 -0.45986506 0.21440998 -1.3448584 0.48199376 0.13947198 0.27947262 -0.043034405 0.5878244 0.29357988 -1.5575254 -0.5091027 -2.398602 0.3663569 -0.81993085 -0.5566909 0.784051 0.57404506 -0.5118171 -0.76777 -1.2509612 0.4950066 0.77146477 0.26304987 -1.0635706
144447 -0.18088266 -0.513239 -0.7168166 -0.3974585 0.12603459 0.74507433 0.7220255 -0.4550031 -0.30624047 0.08665938 -0.3728022 -0.03510721 0.34577265 1.2566928 -0.26158866 -0.5547001 0.2072938 0.07526509 0.4233898 0.000992697 0.014412122 0.44168508 -0.5782788 0.7474466 -0.7730264 -0.34218222 0.43409535 0.047492564 0.08881368 -1.1780272e-05 0.4535708 -0.22450456 0.12311484 0.34772807 0.15723185 -0.1955269 0.32125425 0.07304262 0.76298606 -0.18429527 0.17390506 -0.022200633 0.34510812 0.59801334 0.7797842 -0.45643812 -0.66910875 0.20555717 0.2633474 -0.47980756 -0.3905486 -0.08732904 -0.35368374 -0.47404897 0.60316384 0.2750526 0.5493326 0.2030403 -0.32102555 -0.3917047 -0.7971334 0.2862582 0.5761873 -0.061704118
143847 -0.32939136 -0.6377489 0.35068178 0.27615717 -0.011933614 0.09880312 -0.56347245 -0.47356302 -1.076013 -1.0611694 -0.078944854 0.8226711 -0.35200912 -0.17635909 -0.7791387 0.5753911 -0.21116261 0.17357059 -1.123705 -0.29104778 0.08579991 -0.4835468 -0.5222327 -0.08853253 -0.5926672 -0.27263093 -0.2987794 -0.22367655 0.4464481 -0.89938635 0.21201584 -0.28854394 -0.67168355 -0.054807108 -0.04840144 0.5993976 -0.81181866 0.08572393 0.02465297 -0.5636032 -0.25245687 0.7803718 -0.24243103 -1.426828 0.33763954 0.54013157 -0.3738977 -0.03328969 -0.022786872 -0.5444757 -0.66495186 -0.6956682 -0.31722578 0.13848706 0.70000225 0.0065366603 0.0025888835 -0.042431936 -0.12576467 -0.47037622 -0.3894687 0.40055 0.38547322 0.085004
144155 0.22475943 -0.50740224 -0.5612447 0.14288792 0.06456702 -0.80360407 0.1545013 -0.5638707 0.4830449 -1.0900677 0.2781818 0.21147889 0.7546239 0.53837484 -0.06711317 0.8854091 -0.3025458 -0.42777112 0.0072192727 0.84877443 -0.2547832 0.15048236 -0.0812432 0.80398303 0.37747985 0.037919946 0.33404872 -0.63953584 -0.2131403 -0.58593166 0.23382269 0.21289913 0.25491694 -0.41406363 0.40682825 -0.5506988 -0.05128183 -0.5355962 0.15005644 0.13064747 -0.33012453 0.56299394 -0.3093015 0.566466 -0.5179943 0.7066238 -0.19318235 0.6070034 0.09752028 -0.5765657 -0.1252787 -0.20386927 -0.17717093 0.54885256 -0.5319789 -0.26630983 0.106220216 0.106899776 0.7540875 -0.5689864 0.40124688 0.49398717 -0.19060835 -0.19839697
144368 0.63067096 -0.4740609 -0.68647444 -0.24170367 -0.28526908 0.03478831 0.21221276 -0.060239043 0.055319995 -0.38773507 -0.5192852 0.472598 0.8915578 0.10423327 -0.82558876 0.36513054 -0.13456666 -0.36104897 -0.14599799 -0.111369915 -0.21493745 -0.38463366 -0.41349268 0.3040269 -1.1861452 -0.049031667 -0.13573195 -0.58248156 0.3631198 0.41276035 -0.21279502 -0.028836416 -0.693433 -0.050592598 0.35689163 0.17144005 -0.44548574 0.4717672 -0.18231495 0.0005942966 -0.7272785 0.034423962 0.2999309 -0.638594 0.40673026 0.7837533 -0.80275226 -0.0640758 -0.73183066 0.26881763 -0.62476724 -0.5714368 -0.43140626 0.2792135 0.62195665 -0.100853056 0.24616635 -0.65817225 0.25350207 -0.10075447 0.024770284 -0.13382226 0.17248696 0.018619217
144242 0.11920966 -0.27339676 -0.6456467 0.21890749 0.24947739 0.20979911 -0.11802693 -0.82996154 -0.5459259 -0.04678741 0.3935051 0.10340698 0.9964327 -0.42776304 -0.43405783 0.10521542 -0.5352417 -0.9603659 0.027782695 -0.28729278 -0.52254987 -0.20287623 -0.3084942 0.44654176 -0.049905397 -0.103505634 0.6667 -0.01860919 -0.9304104 -0.40352 0.39838943 0.3183172 0.16421534 0.06448012 0.12539767 0.1315638 0.19708021 0.551465 0.63926774 -0.6630275 -0.06796647 0.53290814 -0.37801817 -0.008999601 0.2914389 -0.52679294 -0.39601523 0.3563192 -0.013302516 -0.27593762 0.3321005 0.08762626 -0.13183053 -0.44519767 0.27794367 -0.32826117 0.13709116 -0.9034467 -0.63749397 -0.27481946 -0.7175964 0.76926655 0.70293015 0.31713784
140274 0.59309536 -0.2571467 -0.54660165 0.4374173 0.6858562 -0.5256444 -0.2409089 0.6093472 -0.12142487 -0.25605986 -0.45585632 0.4921404 -0.026053824 -0.021897007 0.120919354 -0.2198205 0.0073324726 0.45849994 0.7726089 -0.40130135 -0.4247024 0.88414085 -0.41888428 0.50243795 -0.45019236 -0.33646485 -0.4786602 -0.8118939 -0.10783088 -0.64900357 0.8692218 -0.52706546 -0.5765801 0.09886926 -0.9466492 0.39444372 -0.09083416 0.28636214 -0.27195317 -0.51085323 0.25286102 0.37207255 0.5113312 -0.29922786 0.37536442 0.27794123 -0.18699555 -0.07589719 -0.116347514 -0.2885022 0.36072877 -0.35294938 -0.25059766 0.7505058 0.281926 -0.72784036 0.18785249 -0.22035296 0.5891539 0.27495232 -0.33429763 0.06521493 -0.06982185 -0.81805325
144907 -0.2548575 -0.15028934 -0.8906745 0.0016941659 -0.008200051 0.3755814 -0.49426794 -0.32307208 0.14447488 0.025797071 -0.0752987 -0.71408 0.11771269 -0.4292923 -0.6077015 -0.54281175 -0.23256293 -0.3805208 0.3019127 -0.94656265 0.034300715 -0.09540176 -0.42346618 0.5048291 -0.47996622 0.036279064 -0.0042344774 -0.4079754 0.019721579 -0.38119882 0.4564831 -0.16867162 -0.22717853 0.22942746 0.16193493 -0.3628512 0.752685 0.05523962 0.48480076 -0.9387515 0.5511205 -0.055493206 -0.68047833 0.8736895 -0.2235694 0.37066057 -0.33247992 0.16748923 -0.106593244 -0.38902193 0.4487669 0.017938213 0.2106247 -0.14746453 1.7372094 -0.35772562 0.4452993 -0.027443092 -0.65570664 -1.0136949 -0.14930841 -0.22147453 0.2584619 -0.40035614
143185 0.3437792 0.46371922 -0.87237996 0.62935174 0.7923703 0.058759846 0.21069522 0.19498573 0.22032999 -0.26783898 -0.43236712 -0.037851974 -0.18833351 0.026834926 0.30142692 0.14056167 -0.9296408 -0.63747203 0.58601415 -0.5524557 -0.917374 0.59839845 -0.0949136 0.59820986 0.5506629 0.19112125 -0.19600338 -0.49170506 -0.62843204 -0.4380228 -0.20606478 -0.4222855 -1.0343113 0.33959287 -1.0301679 0.08400325 0.6400635 0.5286329 0.08417433 -0.98032224 -0.07040528 -0.15390775 -0.062038206 -0.4312735 1.3354335 0.8786877 -0.4988427 -0.44516698 -0.002547459 -0.14565575 0.15194161 -0.55298847 0.34564415 0.12769018 0.8658526 -1.1925405 0.4362852 0.21248952 0.1400546 -0.03787803 0.012043411 -0.47173363 -0.020568358 -0.9481624
145588 0.44722643 -0.13713235 -0.91489613 -0.147619 0.23613712 0.9407138 -0.35288978 0.067155816 -0.646098 -0.20378532 0.055032533 0.25158393 -0.25509077 -0.47406754 0.051813986 0.37547484 -0.94146043 0.5506485 0.6936893 0.14780016 -0.5418551 -0.25442368 0.019813398 0.45686257 -0.2636807 -0.0062946803 0.47648007 -0.30578557 0.17394839 -0.18845046 0.5317951 0.2818966 0.07105787 -0.11814537 -0.32787704 0.3019272 0.27390978 -0.019869667 0.48710188 -0.01693747 0.11614694 -0.24948631 -1.1859537 -0.27303967 -0.42712253 -0.33095285 -1.0396821 0.234201 -0.59424424 0.22958674 -0.0916077 -0.080334894 0.26282945 -0.12880433 0.9826143 -0.2717425 0.9554618 -0.024818072 -0.21306607 -0.5864205 -0.26626062 0.6800194 0.12066569 0.15285689
144651 0.5208135 -0.23083642 -0.24073918 0.0789583 -0.31904975 0.45758694 -0.0189959 0.033391964 0.1828416 0.5195498 -0.3405062 0.45598367 0.46764907 -0.2006727 -0.4205587 -0.7670535 -0.7468319 0.21315674 0.15455426 0.079804204 0.0012883883 -0.3608333 -0.28860348 0.021311237 -0.24638885 -0.6662287 -0.107948385 -0.44947627 -0.17320043 -0.26657608 -0.42707285 -0.5698861 -0.024426999 0.16729185 0.26294324 0.20866162 0.010146074 -0.48200804 0.2002621 -0.47642672 -0.5711225 0.0011212135 -0.8494507 0.4668082 0.0033973474 0.018394861 -0.6521302 0.40080628 0.18239208 -1.4966707 -0.08249314 -0.19090635 0.46628252 -0.34118482 -0.08962472 -0.08123905 0.28352353 -0.12558639 -0.22148442 -0.31619823 0.015709551 1.1142393 -0.009603421 -0.40547404
142714 -0.45335743 -0.26435053 -0.37561056 0.7893926 0.5358866 0.68288904 -0.5069634 0.39385805 0.5245884 -0.86796814 -0.6967393 0.11798234 0.3044179 0.37071452 -0.27119654 0.020075826 -0.6357831 -0.4682833 0.05206607 0.29634044 -0.4621378 0.043790873 -0.09378 -0.02018438 0.45771584 -0.64162886 0.29839513 -0.38851354 -0.3542072 -0.27073047 0.08157085 0.5620819 -0.032331314 0.0142173255 0.9374655 -0.4426859 0.9025059 -0.43026036 -0.52711487 -0.32118097 0.08910767 0.19569544 0.088219196 -0.10927593 0.26863188 0.27463073 -0.1384655 0.563049 -0.12458763 0.008058921 -0.25477055 -0.2971405 -0.23042817 0.5579331 -0.008934435 -0.82726884 -0.26357728 -0.786641 0.22776149 -0.12465905 0.74117947 0.43911436 0.27791584 -0.50602436
144160 -0.17090052 -0.25816354 -0.67206514 0.25709027 0.55778265 0.0688977 -0.17491445 -0.18231863 0.3905698 -0.7870353 -1.0227948 0.42527905 -0.2191741 -0.22626142 -0.25020558 0.25873002 -0.2772964 0.5642226 -0.010466814 -0.5571706 0.2536866 0.65179795 -0.37127125 -0.12929413 -0.30536598 -0.03251922 -0.5030044 -0.6356906 -0.91900367 -0.17601043 0.4832437 0.22123773 0.18769856 0.8807113 -0.24300897 0.8441663 -0.37821275 -0.46150428 -0.42224383 -0.78209 0.42571574 0.44405612 0.3322381 0.6433548 1.318822 1.0590693 -0.13754162 -0.47206473 -0.063313685 -0.1691749 0.23800339 -0.34254357 -0.056876794 0.5415805 -0.2972777 -0.53054297 1.2268519 -0.45540228 0.46979627 0.13866758 -1.0386298 0.24405533 0.35276127 -0.43621337
145290 0.014417596 -0.48199928 -0.376263 0.60401213 0.11440418 -0.7295373 -0.036019668 -0.15190986 -0.10292929 -0.8708942 0.37187973 0.19133963 0.15566209 0.8264189 -0.0088627795 0.24600874 -1.338753 0.010921366 0.5893843 0.47716397 0.32097468 0.37523764 -0.2382164 0.7804181 0.3633679 -0.15228836 -0.5314775 -0.735034 -0.011878233 -0.37920564 0.36132085 -0.008621832 0.019119198 -0.0767008 0.15297148 -0.5197918 0.5798808 -0.20399296 0.16605541 0.071834736 0.22954234 0.31231257 -0.44660845 -0.27261287 0.39629662 -0.03588786 -0.6581143 -0.07040653 -0.081274964 0.39230263 0.36478606 -0.7851312 -0.22875687 -0.32106233 -0.1952708 0.5890711 -0.119675964 -0.526949 0.35905635 -0.028461894 0.57546985 -0.43335596 0.49806798 -0.22102524
144303 -0.78922284 -0.66148126 -0.56862295 -0.42777577 0.35174915 0.15295023 -0.09493341 -0.5521028 -0.2570692 -0.62962234 0.5634061 -0.42088062 -0.0016741614 0.9127843 -0.04569117 0.27462214 -0.8068359 -0.7842307 0.36186713 0.11818417 -0.43946895 0.095730305 0.41234952 0.30100465 0.010842528 0.38855824 0.15418921 -0.9194664 -0.019481352 -0.9384152 -0.002579959 0.34351382 0.4157875 -0.020183098 0.112250894 -0.6956777 -0.6564304 0.22939752 -0.2703028 -0.020306 -0.2825182 0.40001824 0.1599808 0.40595245 0.27149513 0.4956009 -0.0166925 1.2588348 0.20537397 -0.08985556 -0.6128371 -0.40532947 -0.2572966 0.6042764 -0.032919534 -0.17022128 0.12017365 -0.31767935 0.3455384 0.38568047 -0.13154781 0.0018420309 -0.28814214 -0.89390403
144284 0.5429959 0.48785314 -0.8095108 0.7204107 -0.19715905 0.06932336 0.12141837 -0.37172568 -0.8480281 0.201334 -0.31592163 0.61993825 0.12750371 0.086469285 -0.2644114 -0.70981693 -0.31105557 -0.27610928 0.5461019 -0.43496922 -0.17965662 -0.49160025 -0.0027600043 0.4040576 -0.19130778 0.27357298 0.7700087 0.017483039 -0.35544252 0.37390888 0.36022273 0.5201686 0.1644226 -0.09177753 0.6403696 0.13891463 0.43012688 0.32992274 0.7572081 -0.7033787 -0.5110026 0.23848996 -0.63067704 -0.023605458 0.41602194 0.1653771 0.04341296 -0.37759057 0.24813923 -0.41927335 0.034012824 -0.3210119 -0.8471177 -0.15884408 0.35457054 0.05679451 0.13328275 -0.35794023 -0.2241285 -0.021431161 -0.19548328 1.1206166 0.14221705 0.102403246
143529 -0.28845954 -0.37431142 -0.09521059 0.6514428 0.3992639 0.047783617 0.5647869 -0.7346791 -0.24504946 -0.5504618 0.16240966 0.34586883 -0.5110807 -0.09911749 -0.36597258 -0.97494304 -0.37810403 -0.46128938 -0.28749606 -0.07898317 -0.30946407 0.40397438 0.35267013 0.43008432 -0.074522294 -0.19706365 0.73265123 0.08055742 0.48915696 -0.007210958 0.046231907 -0.28641096 -0.42561132 0.5426961 0.24784887 -0.19905028 0.50738937 0.67381155 0.17068392 -0.29335654 -0.15798502 0.25193733 -0.4044878 0.7137205 0.3672 0.26662838 -0.2882837 0.2675937 0.034749456 -0.3701357 -0.09055884 -0.09224258 -0.0005661268 0.063456304 0.085119635 -0.34038642 0.7946351 0.33300778 -0.6074743 -0.55698675 -1.1955967 0.6056307 0.4001561 -0.0460169
145630 -0.19354135 -0.4513041 -0.8005202 0.380015 0.14830317 0.53388184 -0.45401087 -0.6634191 0.38053867 -0.7719475 -0.22392575 -0.13812752 0.5133836 1.0534319 -0.15063532 -0.3101894 -0.8213535 -0.12141113 0.4010097 -0.0011993217 0.17876902 0.15244576 0.48441485 0.16034071 0.7138305 -0.1941069 0.20862849 -0.38939425 -0.12475532 -0.72805303 0.09758487 0.0020459925 0.0918862 -0.48045367 -0.09020844 -0.7528098 -0.23716629 -0.16530915 -1.0685751 -0.70031744 -0.22035246 0.5376927 -0.3570556 -0.057340283 -0.2879631 0.34619 -0.45371085 0.4619741 0.53041106 -0.08184561 -0.6614783 -0.5294968 -0.41901293 -0.0482449 -0.18554157 -0.31601036 -0.835187 -0.30186 0.48882517 0.12653984 0.75044316 0.16945331 0.26035136 -0.5925517
144532 -0.64848477 -0.15674438 -0.21570805 0.78011066 -0.22385012 -0.4324499 0.06750685 -0.15103813 0.056957085 -1.0090321 -0.013653661 0.5524434 -0.061136555 0.8143311 -0.7062135 0.39303422 -0.76293653 -0.039517023 -0.08365122 -0.20274296 0.7152938 0.19765571 0.33531716 0.14332767 0.4953557 0.08823452 0.42595747 -0.37211084 0.8067342 0.38645747 0.22710073 -0.015405421 -0.64022154 -0.11641326 0.039485745 -0.46620777 0.35288522 -0.3967292 -0.21711783 -0.47159466 0.17164484 -0.0626686 -0.3645261 0.15108664 0.43151078 0.5345487 0.23506305 0.37532708 -0.3065451 -0.22692575 -0.31906095 0.27393305 0.4555135 0.2238139 -0.17155528 -0.21395859 0.3544561 -0.29679763 0.32745606 0.17072515 0.25995862 0.38698968 0.4653857 -0.18675068
145623 -0.12869772 -0.28539953 -0.61145335 0.22315094 0.6652761 0.51697814 -0.14627993 -0.096888505 -0.6671097 -0.3372291 -0.035590846 0.05275792 0.48926887 -0.08305042 -1.0443143 -0.14927779 0.43611318 -0.32503152 -0.25579026 -0.08597151 -0.3095375 -0.6851048 0.743394 0.1110073 -0.2745057 -0.22884172 0.07444249 0.24876928 -0.57599306 0.57215524 0.15058608 0.006589226 -0.21093431 0.62092423 -0.2580504 -0.7939669 0.29288357 -1.055026 0.26617867 -0.33980727 -0.36878955 0.3106004 0.13021514 0.5364678 -0.06611005 0.44091922 -1.0766766 0.44586572 0.64412254 -0.4535555 -0.040601764 0.2904568 -0.08103987 -0.4749988 0.8697972 0.18348253 0.5100893 0.25221747 0.043819163 -0.7670938 -0.3968358 0.7554042 0.30263594 -0.04158923
144411 -0.40938443 -1.5827873 -0.21611758 0.3283353 -0.11122614 0.26439127 -0.1945018 0.9217671 -0.03942212 -0.43342662 -0.48556328 0.56934243 -0.115911506 0.50723577 0.30023074 -0.04693248 -0.06815966 -0.16285177 0.47978455 0.4933593 0.37026554 0.22759947 0.25035343 0.45848817 0.47144008 -0.6763754 -0.16234581 0.2874877 -0.076971255 -0.49629322 0.45618325 0.1793213 -0.39831346 -0.34232026 0.1639778 -1.1885966 -0.3437892 -0.37080345 0.27564716 -0.8857027 0.40045655 0.3432088 -0.046901565 -0.36313432 0.9527506 0.5691123 -0.0059320903 0.67777574 -0.29847986 0.8137936 -0.07972764 -0.5766195 -0.17854504 0.22659089 0.14375299 -0.06655254 0.25516534 -0.22318739 0.14815558 -0.14410047 0.6862608 0.1562993 0.12212843 -0.3055578
144892 0.4412827 -0.39225814 -0.7415377 0.4552941 -0.016585145 -0.09111596 -0.8875831 0.1929396 -1.0284883 -0.30553433 -0.10555931 -0.18535027 -0.05007321 -0.8929088 -0.72032416 -0.1730371 0.4052098 -0.18483797 0.19752404 0.21714513 -0.14855318 0.34176847 0.22623903 0.28291994 -0.09722846 0.0579131 -0.3459151 0.4171229 0.343509 -0.20626183 0.48501787 0.66414416 -0.36902735 -0.66484463 -0.081910804 -0.54345435 0.011995824 0.34996232 0.6766927 -0.0759027 0.66028285 0.04650401 0.041753527 0.40691328 0.03662701 0.45328423 -1.0703875 0.40711212 0.66038394 -0.5968541 -0.028531348 -0.52977365 -0.7385128 -0.20846976 0.14753282 -0.029500501 0.5395039 -0.38090035 -0.13654512 -0.5102071 -0.014396111 0.7364368 -0.1427198 0.4078816
142682 0.21308187 0.20359139 0.0964673 -0.25901058 0.9213923 0.084117286 0.25165984 0.10213713 -0.30885136 -0.6688317 -0.24141556 -0.14912392 0.078636296 -0.21648297 0.32652396 -0.30161634 0.10765298 -0.38697475 0.06492845 -0.70461136 -0.29781482 -0.4782659 -0.29216966 0.1808316 -0.62893903 -0.4416559 -0.3816784 0.1343779 1.1109458 -0.26682973 0.30779126 -0.31772643 -0.07556087 -0.05077512 0.41220722 0.59378767 -0.20792194 -0.20235229 -0.004772465 -0.5307094 -0.3323607 0.56872165 -0.36323145 -0.45880693 0.066993095 -0.07072915 -0.7557023 0.44307685 -0.13774736 -0.20476332 -0.4762052 -0.9889961 -0.23333387 0.18309078 -0.0602054 0.2486435 0.2230317 -0.30420086 0.45408708 0.15760826 0.067167565 -0.015601079 -0.0052206535 0.22809467
145582 0.8866475 0.38291946 -0.21240516 0.09688036 0.7106104 -0.4482164 -0.3243202 -0.38541037 -0.027705006 -0.16020389 -0.8068331 -0.27766672 -0.65935594 0.13239649 -0.19593443 -0.32055017 0.6314063 -0.25772706 1.2512048 -0.010029753 0.65358156 0.008109318 -0.046900447 0.5652497 0.20808911 -0.7482223 0.06135681 -0.45063904 -0.5510983 -0.6702546 0.32963797 -0.6127327 -0.5395755 1.2274747 -0.09053178 -0.6590254 -0.35114247 -0.17838618 0.5966808 -0.23849313 0.111570515 0.29190686 -0.4213774 1.0096366 0.52558166 0.8414176 -0.18272907 -0.15129347 0.31629413 -0.27170095 -0.50978374 -0.8893832 0.29879248 0.5673305 -0.32914585 -1.3761396 1.1338499 0.10279909 0.38400012 -0.46520168 -0.36808333 -0.44624653 0.072498955 -0.3786154
145236 0.19125989 0.022302236 -0.54103684 0.46158195 0.26715308 0.4079578 0.2658882 -0.43911192 -0.15129402 -0.66559297 -0.23918746 0.3888166 0.24113525 -0.33444154 -0.56793034 -0.3244566 0.39768708 -0.07671759 0.32748833 0.36818343 -0.3661325 0.127997 0.18215759 0.26251614 -0.39465183 -0.22286306 -0.13704821 0.2292858 -0.38945732 -0.64337254 -0.25682622 -0.20065573 0.41064933 -0.24180019 0.05539825 0.17657323 0.7108639 -0.38081485 0.328126 -0.6219122 0.25419965 0.16353409 -0.8801684 0.6093675 0.3612199 -0.23526175 -0.8350091 -0.569642 -0.30616337 -0.34655675 0.33314493 -0.577526 0.31792086 -0.5669108 -0.035285305 -1.0205295 -0.3329263 -0.83554596 0.05800524 -0.6246632 -0.83463454 0.49849415 -0.26759458 0.41811493
144730 0.9449296 0.37769172 -1.371838 -0.19987342 0.9008183 -0.6245812 0.17260222 0.3025087 -0.34131953 0.38883713 -0.118646264 0.9064689 -0.34176633 -0.10544308 -0.02770145 -0.479444 0.25109765 0.26160997 0.75519186 -0.5321802 -0.04819421 0.34793854 -0.32859683 0.041013062 -0.59654963 -0.93847907 -0.085317455 -0.46702585 -1.1671957 0.27608505 0.2625112 -0.09341932 -0.32084888 0.42121318 -1.0287015 -0.29813784 -0.32543707 0.36955488 0.051463146 -0.7293697 -0.12118368 0.2608049 -0.29830596 -0.37031052 1.152999 0.4361481 0.30896863 -0.05949246 -0.18556708 -0.41972136 0.1513743 -0.7040921 -0.38637018 1.3218371 0.68399537 -0.18632093 -0.17880192 -0.7255625 0.85508204 -0.029241998 -0.7141893 0.4643835 -0.34793958 -1.4003586
144670 -0.14493892 0.25249854 -0.68490463 -0.28464738 0.3259803 0.6668451 0.030709505 -0.7684732 -1.0387393 -0.15385598 -0.61776996 0.10146536 0.4707558 0.4494248 0.34218892 -0.9319214 -0.1909102 0.4211834 0.17049138 0.2625939 0.41822672 0.08738961 0.23710941 0.20537102 -0.7617162 -0.56830126 0.52712977 -0.4037058 0.6383911 -0.1937769 0.001123699 0.06171489 -0.49230412 0.16261661 -0.066679046 -0.5851192 0.5860091 -0.3543136 -0.062152047 0.19241686 -0.23615554 0.6253241 -0.3301103 0.844082 0.06875697 0.004117213 -0.5609737 -0.15211532 0.39795473 -0.49427858 0.083917804 0.22421041 0.36776784 0.56805885 0.3012026 0.38531992 0.8140871 0.058200866 -0.19974025 -0.3897741 0.45512426 0.8992179 0.78595036 -0.35705963
140621 0.3575386 -0.30746844 0.30052456 -0.85882056 1.1529682 -0.51012546 -0.06777624 0.2639946 0.22866774 -0.40712467 -0.5769153 0.2942368 0.5334842 -0.26071003 -0.31503564 0.12565163 -0.16891135 -0.6239992 0.4647776 -0.62803894 -0.26936334 -0.27314878 -0.05996594 0.8088776 -1.3401656 -0.39063668 -0.1717687 0.09830038 0.30209157 0.17852013 0.21970797 0.085484974 -0.21014237 -0.9444494 -0.16519815 0.6095401 0.0227179 0.45336598 -0.19410509 0.014677674 -0.47483668 0.24836119 -0.25202155 -0.63453126 0.29781517 0.67502105 -0.9061031 0.15518248 -0.37726453 0.29613754 -0.68614644 -0.42551595 -0.04905362 -0.021311099 -0.10058737 -0.21384023 0.1100918 -0.16537455 -0.43350542 -0.43271476 -0.362432 0.5927452 0.52669704 -0.54298455
144669 -0.029878115 -0.2238516 -0.91166997 0.33445978 0.5307189 0.5348471 -0.16256224 -0.4458659 -0.34239897 -0.08517326 0.011873979 0.09801062 -0.3507122 -0.51688457 -0.24497834 0.10547273 -0.08456865 0.15539426 0.38048753 -0.1435733 -0.21571332 -0.18639682 0.28021127 0.7813989 -0.19445048 0.24663615 0.57337177 0.48213515 -0.62712336 0.06291925 -0.39983153 -0.6060708 -0.14112777 0.13667785 0.8731862 -0.3632948 0.728283 0.21333131 0.17203782 0.28892285 0.8102129 0.29798257 -0.81514394 -0.19317357 -0.01635025 0.02914236 -0.59983027 -0.08128765 -0.69270355 -0.35489434 0.35675862 -0.47714335 1.0252712 0.29126596 0.324268 -0.31531587 0.44008788 -0.2513154 0.13596967 -0.6683189 -0.6205794 0.61363417 0.26630476 0.16677627
143379 -0.43522048 -0.5812623 -0.30263585 0.8165145 0.22495586 -0.122655295 -0.2738706 -0.071520604 0.5476784 -0.68202513 -0.85411996 0.5905137 0.7243603 0.5167209 -0.2825477 -0.2283908 -0.53480643 -0.4042533 -0.3555077 0.42917514 -0.2644862 -0.09468092 -0.527581 0.07662195 0.39818355 -0.23756155 0.4011185 -0.59574455 -0.007037511 0.15714692 0.1011854 -0.16648726 0.21530546 -0.38880232 0.14393431 -0.2230016 0.6582726 -0.18447651 0.565398 -0.24712706 0.03709781 0.22447321 0.17231831 0.030037608 -0.041190173 0.15887831 0.13880074 0.7934701 0.30193695 -0.6756483 0.14010322 -0.4006133 -0.30881166 0.6906195 -0.40044206 -0.44407398 0.53671604 -0.7700873 0.6439043 -0.15744483 0.8096335 0.16552258 -0.021129075 0.050569206
143061 -0.24003974 0.3151341 -0.39086732 0.3543362 1.0174251 0.27731398 -0.65663874 -1.01348 -0.5259938 0.65161043 -0.33836606 0.44150665 -0.25561792 -0.05539254 0.96031475 -0.92638755 -0.6727106 -0.6363783 0.24659288 -0.48128408 -0.06988391 -0.034613933 -0.26173407 0.3844657 -0.39097294 0.61459583 -0.44401678 -0.029250037 -0.47171125 0.26428786 0.1018415 0.47248885 -0.6778072 -0.6717585 0.37720302 -0.672657 -0.054839388 -0.62090397 0.031273957 -0.011710671 0.39903736 -0.14800093 -0.9017531 0.40148914 0.48546436 -0.3921021 -0.8728667 0.50929576 0.01757064 0.028753413 -0.00017852616 -0.67517734 -0.5851269 0.016367208 0.20019129 -0.01052868 1.0868447 -0.10139861 0.32694963 -0.7357239 -0.27600223 0.51267874 0.042810515 0.43890166
144061 0.17529453 -0.83141404 -0.4331215 0.657015 -0.0718448 0.43186018 -0.7074509 0.57493657 -0.06858034 -0.608466 0.73681724 0.22865948 0.5671979 1.021467 -0.16932923 -0.29181874 -0.7202646 -0.4151577 -0.013494231 0.2629026 -0.18161553 -0.038495116 0.15409733 0.601463 0.044372275 -0.36004648 0.11409147 0.014476751 -0.54414845 -0.2663109 0.54905653 -0.13262418 -0.12841865 -0.45020923 0.09808286 -0.49938446 -0.1582523 -0.5260828 0.10728521 -0.016796326 -0.2865678 -0.28492367 -0.299156 0.46073312 0.3737222 0.033358764 -0.533781 0.39643168 -0.7014073 0.19617999 -0.09057533 0.07600489 0.33524942 0.58371085 -0.4638512 -0.5460002 -0.15151587 -0.5068176 0.9060705 0.73530006 -0.09844087 0.2538118 0.40188053 -0.6105866
143416 -0.013537735 -0.19840011 -0.71367764 0.32284632 1.1813444 0.17760867 -0.1994848 -0.47959906 -0.75599223 0.45935628 0.06055016 0.6537557 0.031866275 -0.32908237 -0.6413256 0.095621 -0.76417786 -0.6550627 0.27065778 -0.25238806 0.21290386 0.30760247 0.047653347 0.053439233 -0.35891643 0.1240646 0.28613392 -0.36567903 -0.23871855 -0.5130777 0.08989524 0.46244353 -0.095192395 0.23511763 -0.30969557 0.015665494 0.293007 -0.488634 0.69950217 -0.51068807 0.15061167 -0.304226 -0.6744199 -0.06275767 0.108891554 0.19302738 -0.7662455 0.11750713 0.22804019 0.01837869 0.16452427 -0.17632306 0.098158665 -0.5990097 0.73869884 -0.4448826 0.14579599 0.5305136 -0.21772525 -0.29768226 -0.29274252 1.3117845 -0.45475736 0.3707242
143480 -0.028214745 -0.9751766 -0.096682794 0.14939359 -0.09235341 0.5270796 -0.04171378 -0.6568927 -0.01395459 -0.95255333 0.29757196 -0.43500826 0.26631775 0.42611635 -0.084789716 0.35682738 -0.04459187 -0.34062546 0.2604606 0.48827723 0.3100976 0.2112837 -0.44931537 0.33351338 0.43894705 0.078014396 -0.35994792 -0.45272037 -0.33639255 -0.5122253 0.5470794 0.42104232 0.100468256 -0.3535982 0.31112581 -0.28299132 0.8758184 -0.60702646 0.52412415 0.12996514 -0.3904126 -0.025635034 0.06519278 0.2272276 -0.08463067 -0.4600914 -0.19590318 0.48810205 0.2976507 -0.046487708 -0.3503898 -0.37067154 0.32102066 0.4368346 -0.12713666 -0.11865543 0.52863604 -0.08861722 0.73043853 0.16673583 0.13600813 0.20952217 0.30918458 -0.45096123
144516 0.71867895 -0.49501744 -0.52402127 0.6063213 0.3525148 -0.111804016 -0.35361183 -0.25251964 -0.19990484 -0.57397324 0.3365002 0.5190259 0.24502768 1.0471 -0.3309589 -0.1520201 -0.34418708 -0.25486407 0.619198 0.11090907 -0.7097936 -0.11742008 -0.30418518 0.12400384 1.1038723 -0.32046577 -0.009876194 -0.5240136 -0.085427396 0.066859946 0.5963844 -0.30808902 -0.5379111 0.049805705 0.20823197 -0.65216017 -0.1451301 -0.12728247 0.85749286 -0.41512442 -0.060614996 0.65695894 -0.1528197 -0.18898365 -0.23489727 0.4577405 0.6959938 -0.09954672 -0.21029545 0.43042213 -0.16287982 0.4618729 0.0371031 -0.12419983 0.12570608 -0.14598708 0.32133716 -0.36473998 1.1441449 -0.002570375 0.44900444 -0.14164624 0.32360497 -0.6798296
143240 0.62458825 -0.1621509 0.100079484 0.043907184 1.1177706 -0.38410506 -0.7425162 0.24248502 -0.038592063 0.019498227 0.3596432 1.4137009 0.52375287 0.5380979 0.042427342 0.7768156 1.0823206 -0.7123079 0.19940262 -1.4967288 0.23537177 0.9334073 0.49910077 0.23750788 -0.6889141 -0.4316771 -0.53368896 -0.101487696 0.30882722 -1.2118216 0.7791746 -0.79717356 -0.6801586 0.03229318 0.9706084 0.08069927 -0.14181417 0.44510424 0.18477482 0.105151966 -0.4011954 -0.25535658 0.4353182 -0.34098828 0.9302737 -0.2776722 -0.45431158 0.21998139 0.5375614 0.058363345 0.10482687 0.108808346 1.0088116 0.03794868 0.7071726 0.19437212 0.88703364 -0.95249397 -0.06551376 -0.32018837 0.12844083 0.6619633 0.18279487 -0.9189288
145882 -0.28772438 -0.4906637 -0.6501509 0.2352433 0.19226587 0.22358382 -0.45055696 -0.38947773 0.5332189 -0.83783865 -0.06064377 0.5249706 -0.14156325 1.1045512 -0.30809596 -0.07226008 -0.38512716 -0.53323394 1.0705653 0.2621299 -0.41696915 0.7924191 -0.5613375 0.28848493 0.36357212 -0.883001 -0.5388641 -0.39950222 0.04751354 -0.13281885 0.30083925 0.14736596 -0.1071599 -0.69947106 0.80381656 -0.48160338 0.5464361 -0.3500349 -0.7353086 -0.16522378 0.5054577 0.103410825 -0.19115561 -0.43413457 0.2723432 -0.08366214 -0.4649832 -0.06804428 -0.30758652 -0.09907315 -0.17076093 -0.42346367 0.071089275 0.96127355 -0.28084204 -0.04866826 -0.59069556 -0.25574404 0.14320071 0.22358106 0.16016413 0.70786744 0.1632507 -0.42228764
144079 -0.1113925 -0.31184506 -0.18435809 0.7451032 0.875927 0.119718626 -0.31130478 0.1298333 -0.027796624 -1.0602787 0.31161258 -0.04428982 0.14289913 1.117892 -0.15886079 -0.34782693 -0.19666956 0.4411058 -0.24978666 0.1309082 -0.26576155 0.23467273 0.28451893 0.16612808 -0.11035416 0.43847314 -0.1811106 -0.12716495 -0.5704676 -0.612935 0.6980538 0.3465973 0.1571907 -0.3355215 0.67403185 -0.7457469 -0.35517105 0.02234081 -0.12522723 -0.31923923 0.30231777 -0.16968235 -0.0034427317 -0.33433 0.42882115 0.492199 0.24018182 1.1627903 -0.8179087 -0.040822666 -0.23158479 0.0008647966 -0.14523956 0.4336759 0.58205175 -0.551227 0.42866585 -0.35814708 1.1188295 -0.055990547 0.99840504 0.29974592 0.078151934 -0.2543492
144821 0.21579035 -0.68891877 0.033023164 0.41920382 0.41901964 0.70009136 0.3738009 -0.7874508 -0.5042207 -0.28345886 -0.49184623 0.14311667 0.094388634 -0.3200406 -0.15290128 -1.2625415 0.002657949 -0.03549121 0.08501973 0.41708434 -0.044454858 0.6496729 -0.6714368 1.172218 -0.48024935 0.5504621 -0.06285283 -1.0195245 -0.49151328 -0.5437746 -0.42190117 0.01081337 -0.33661544 -0.23180686 0.47629526 -0.45488626 -0.1358864 0.16485314 -0.081942335 0.4535332 -0.22046077 -0.20050028 -0.9537496 0.20109181 0.34134772 -0.54824907 -0.5172295 0.0168281 0.2883961 -0.03180709 -0.14536783 -0.18804598 0.023589073 -0.098664194 0.56322277 -0.1558329 0.34357285 0.38108155 0.47863466 -0.4220629 -0.33963603 0.6196998 0.3673245 0.24926755
144855 -0.16918641 -0.9815834 -0.27672347 0.103720695 0.2645343 0.24041961 -0.08124039 -0.15198247 -0.027220212 -0.9925899 0.1837202 -0.17349179 0.36312994 0.333517 -0.25025848 -0.09880945 -0.62048686 0.062100355 0.58816826 0.16299555 -0.30839667 0.5033664 0.07024844 0.08249404 -0.14005938 0.32340047 0.13509338 -1.0298692 -0.0923667 -0.48593387 0.3444791 0.015296444 0.49327633 -0.13115494 0.5251564 -0.7819098 -0.15889579 -0.34031257 5.9073427e-05 -0.63990325 -0.19340913 0.08102307 -0.079747505 -0.101128675 0.04719351 0.5315552 -0.06284562 1.0221312 -0.12278224 0.2648846 -0.72504264 0.11723538 -0.18712738 0.4177353 -0.5107839 -0.31318617 0.18604429 0.22715284 0.46412286 0.27142355 0.506131 -0.0956694 0.65363723 -1.0268788
144856 -0.27668783 -0.9135823 -0.5253629 0.5025815 0.20233212 0.28967863 0.101406366 -0.58683825 -0.009263267 -0.2429215 0.012889494 0.533683 0.16165061 -0.18148176 -0.6553536 0.11654831 -0.09008741 -0.20080912 0.39088383 0.026209466 -0.43018934 0.42150977 -0.51593125 -0.06470748 -0.10909855 0.26024386 -0.14642653 -1.4778268 0.4130305 0.16797362 0.7218239 0.009614096 0.8607323 0.22118233 0.56927395 -0.5036238 1.1453228 0.008849368 -0.5912037 -0.8334323 -0.11368061 0.17866957 -0.35735482 -0.29496357 0.37973067 0.24607778 -0.54116124 1.4220968 -0.09181903 0.48599654 -0.60365033 -0.22326176 -0.015413542 0.49094594 -0.5424728 -0.25807318 0.447428 -0.24078415 0.086870566 0.89981914 0.8654056 -0.2804068 0.6193265 -0.6844326
143528 0.29123378 -0.7771272 -0.36029232 0.22282092 1.267494 0.5074 -0.04069155 -0.55621165 -0.34578717 -0.08850573 0.010572395 -0.2473913 -0.4111561 -0.4896329 -0.31966865 -0.82959163 -0.88833654 -0.2407483 0.33249232 -0.673627 -0.08718309 -0.3190598 -0.2620994 -0.024983997 -0.08621528 -0.33658126 0.31723064 -0.15145491 -0.115106426 -0.04935448 -0.24766254 -0.39238083 -0.3257118 0.3503139 0.45514858 0.29211757 -0.10550479 0.47520876 -0.017400235 0.44775534 -0.06611283 0.5134758 -0.4739312 0.9781791 0.095735334 0.2656691 0.20737283 0.64958566 0.14065091 -0.26349533 0.4355281 -0.376617 0.2128068 0.5267225 0.37220758 -0.03639483 0.32218236 -0.16928847 -0.0035133618 -0.5507653 -0.54767084 0.663446 0.8755787 1.006102
143868 0.36797777 -0.53456485 -0.36086893 0.8071958 0.4503314 0.006641357 0.10626638 0.5304597 0.20795372 -1.1213268 0.004808173 -0.23076306 0.071199864 -0.3089418 -0.23049973 -0.3479983 -0.47780052 -0.24831934 0.8038376 0.8396201 -0.26137322 0.29158175 -0.14175227 0.15548462 -0.46492088 0.3613904 -0.15475756 -0.037511986 0.024146916 -0.59594375 0.8293962 -0.08903907 -0.056875166 -0.27967888 -0.07371 0.08820615 0.17801054 -0.07691722 -0.31895068 -0.14701022 -0.18148944 0.32639912 0.1408724 0.1189616 0.33694887 0.9911861 0.40538326 0.33428258 0.33212346 -0.25882712 -0.23482469 0.6018963 -0.056792945 0.30402952 -0.029121283 0.35510296 0.64533085 -0.58059 0.31365746 0.14007358 0.6228057 0.28705806 -0.093550704 0.469923
142965 -0.14562431 -0.5816181 -0.4875457 0.68174493 0.60295624 0.53383523 0.16444969 -0.5926783 -0.7108584 -0.20873925 0.020648401 0.33320358 0.27931875 -0.0065389997 -0.23777403 0.22173135 -0.13613614 0.9579045 0.1601146 -0.83173805 -0.014722143 0.59560615 0.5796324 0.83595556 -0.05753322 -0.36931697 0.85769266 0.46752664 0.8359982 0.008121468 0.1657566 -0.007929191 -0.034158956 -0.07675086 0.32591704 -0.19383565 0.5318504 0.63475525 0.11782695 -0.43998468 0.5260432 0.26850873 -0.6105173 0.87401 0.2118947 0.87282574 -0.058236945 0.0036393965 0.29521444 -0.39444947 -0.07882298 0.16491638 -0.073587276 -0.6426195 0.39996374 -0.39773324 0.4602345 0.48819834 0.28577217 -0.55377454 -0.28574365 0.6306732 0.8947703 0.73421043
143693 0.56057084 -0.05867862 0.4161576 -0.914612 0.014286019 0.81796944 -0.41048992 0.49263525 -0.7761105 -0.50470775 -0.52883345 0.40572223 0.5785915 -0.1382506 -0.13585143 0.114779525 -0.46762034 -0.102844946 -0.14793143 -0.6068523 0.3229316 -0.22675744 -0.40679082 0.09076401 -0.9446444 -0.14630511 -0.7081703 -0.045832053 0.82640785 0.19935693 0.69411534 -0.008551057 -0.5060785 -0.19492677 0.8327468 0.10299157 -0.9730012 0.86426204 -0.12771349 -0.2773875 0.2573077 0.38575673 -1.3040271 -0.97953 -0.16981052 0.15207137 -0.5837562 0.6812258 0.6305633 -0.18357538 -0.3494498 -0.97595745 -0.052741915 -0.076405376 0.2140085 -0.21620622 0.48626107 -0.82575303 0.893872 -0.53913265 0.51956797 -0.030805668 0.15594518 -0.27784875
145633 0.19457448 -0.3629691 -0.07739006 -0.6866314 0.15455541 0.6086219 0.095582515 -0.5413182 -0.58553785 -0.5399817 -0.60800403 0.19327122 -0.28816703 -0.21778817 -0.4703636 0.6204823 -0.18915893 -0.015427927 -0.39144713 -0.4304179 -0.38217297 -0.23360698 -0.10443803 -0.23173355 -0.89574385 -0.123303644 -0.3690994 1.4364567 0.24450001 0.27103567 0.9414837 -0.15587635 -0.20914605 -0.20036733 0.09125088 0.19324914 0.48885334 0.16916955 0.07839737 0.14527069 -0.1566678 0.6310332 -0.8261501 -0.72096306 0.6222213 0.44764087 0.53476477 0.275621 0.6706662 -0.83856934 -0.42515185 -1.155863 -0.4598644 0.15283781 0.03502581 -0.26348165 -0.16503666 -0.14147007 1.0305129 -0.2639682 -0.16077198 0.075495265 0.5890496 -0.867646
144799 -0.59947246 -0.27077687 -0.6293126 0.6558349 -0.04050715 0.42261168 -0.24520425 0.049510516 -0.2918105 -0.20574303 -0.10708492 0.88110244 0.85607874 1.0226951 -0.018061329 0.5042383 -0.13379373 -0.6450126 -0.057250045 0.37746644 0.24353552 0.2932201 -0.36531705 0.314859 -0.2557779 0.58033216 -0.07783071 -0.5077956 -0.16035528 -0.2875495 0.6680157 -0.40581432 -0.18811812 -0.6754895 -0.06430669 -0.5898104 0.039064307 -0.28502527 -0.3693563 -0.52455443 0.3058675 0.4353844 -0.6923311 0.43334156 0.04802743 0.945782 0.25144488 0.70215225 0.26743823 0.9922838 0.060721748 -0.35886687 0.071317494 0.5673695 -0.30371788 -0.7233224 -0.34444848 -0.70170337 0.91337323 -0.13983908 0.7111731 0.4609423 -0.42588538 -0.8143528
141650 0.28854135 0.2745258 0.14317454 -0.09797778 0.6013001 0.23497544 0.12810987 -0.17662327 -0.14543048 -0.0015242136 -0.61501676 0.060436156 -0.5441457 0.5404266 -0.19088988 0.17241575 -0.023956912 -0.40559933 -0.028749803 0.1756229 -0.26378012 -0.8962603 0.00044133025 -0.6482013 -0.73170936 0.00062305987 -0.44079453 0.40880504 1.0170544 -0.28441843 0.2700158 -0.6562352 -0.021993272 -0.4391861 0.03386231 0.12300178 0.05868348 -0.8957816 0.365692 -0.6112609 -0.18209538 0.60598123 -0.8987544 -0.7617836 0.64071435 -0.09841296 0.4376446 1.0954998 0.14903036 -0.52821386 -0.078049965 -1.0007101 -0.05348978 0.05236334 -0.012816681 0.3179377 0.027480654 -0.3918945 0.05520938 -0.72693825 -0.39172798 0.12711133 1.0853372 -0.48297563
143000 0.111849695 -0.21512876 -0.8375223 0.41404954 0.67894423 -0.08253614 0.33688968 0.29007474 -0.02465135 -0.4222394 -0.079601884 -0.015275292 0.38765806 0.73823965 0.31011766 0.5624451 0.02877732 0.033300728 -0.07546476 0.6104086 -0.12087537 0.45232847 0.043257844 0.28546855 -0.07289012 0.47109964 1.0886151 -0.2730117 -0.43600255 -0.6795702 0.29864237 0.22882676 -0.25561222 0.32719916 0.7819454 -0.44504997 0.34384868 -0.068497084 0.08737132 -0.5413884 -0.5185655 -0.42011124 0.067402154 0.5024561 -0.5153057 -0.04104193 0.08613723 0.1843432 -0.45077342 -0.40058625 -0.864119 -1.0868037 0.14525133 0.6749491 -0.19804817 -0.2365094 0.05153256 -0.68365407 0.680421 -0.6539093 0.80342644 0.3797184 0.4230049 -0.18809463
143919 0.074436724 -0.51229805 -0.2459654 0.37769952 -0.008066714 0.22034861 0.2317121 -0.15071207 -0.47290024 -0.7484153 0.5931447 0.23116726 -0.66928923 0.7053995 -0.3858359 -0.6671787 -0.34856826 -0.06630605 0.07246881 0.14210737 -0.2800296 -0.2957032 -0.36373678 0.0733981 0.5390066 0.17874888 -0.09092153 -0.65742666 -0.34436736 -0.49623543 0.52401465 -0.50517356 0.05857898 0.21667148 0.5699201 -0.90924376 -0.042034548 0.43728748 0.44120172 0.60714495 0.82009226 -0.4682716 -0.4763932 -0.10950404 0.28243598 0.6833611 0.04032871 0.5747605 -0.48404613 0.11637417 0.25589663 -0.15643612 0.22057286 0.674046 -0.11621486 0.18237169 0.3535224 -0.90365154 0.50726634 0.056278933 0.069379464 0.6911861 -0.18128446 -0.3023504
143792 -0.052289 -0.28256264 -1.0638833 0.02561657 0.7766496 -0.36815682 -0.04664818 -0.51919466 -0.13060108 -0.12067469 0.11346213 0.68787307 -0.2311089 0.21266937 -0.28280163 0.003356586 0.11092977 0.6660631 -0.26494026 -0.9546659 -0.04526416 -0.28428262 0.46864775 0.12819871 -0.19507068 -0.3807716 -0.1492727 -0.17213285 0.046796028 0.076878 -0.041417867 -0.27117616 -0.5696592 -1.2465253 0.391713 -0.050937854 0.42525432 0.97148395 0.3189567 -0.06786646 -1.2087275 0.783117 -0.35512513 -0.314282 0.1854596 0.6150804 -0.8946948 0.5433839 -0.16497804 -0.45324773 -0.9585384 0.07543714 0.47050616 0.6989457 0.64383763 0.9013968 -0.22286333 -0.10761575 0.41659155 -0.47279328 -0.7672435 -0.7800971 0.14933842 0.08071257
151376 -0.3703797 -0.1944078 -1.1934731 -0.36219707 0.00806687 1.0988374 0.30915174 -0.69518834 0.011087505 0.24742433 -0.13357665 -0.30274478 0.6240995 0.033694196 -0.5146801 -0.13149798 -0.022952778 -0.3554929 0.09936503 0.1297308 0.186549 -0.055585817 0.0042900033 0.2763297 -0.26464787 -0.081704624 0.10364262 0.21487686 -0.5570685 0.19930835 0.060556334 -0.26069933 0.089347646 -0.043441847 0.6324723 -0.50507784 0.40864122 0.20021312 0.43302894 -0.50818247 0.05508166 0.074466154 -0.7430136 0.52805156 0.06917014 -0.4251182 -0.76406515 -0.5335008 0.42761844 -0.68774307 0.35018152 -0.43965548 0.3250042 -0.03123535 0.44612113 -0.3169269 0.5656182 0.08739536 -0.16229841 -1.0405157 -0.21498406 0.03798876 0.23728907 -0.71159583
145682 -0.76552826 -0.7894472 -0.43187398 0.38460076 0.28340235 0.30601886 0.11449647 -1.079527 0.08338286 -0.9656844 0.056542274 -0.39383218 0.6523139 0.7653848 0.13935818 0.50005394 -0.46685478 -0.3834496 -0.10837503 0.3025216 0.24673134 0.3443542 -0.3290249 0.24341722 0.5616534 0.3921275 -0.13514279 0.10256595 0.2808524 -0.3111374 0.7905184 -0.082517505 -0.3492047 -0.13749988 -0.36330062 -0.20475966 0.20781244 -0.6052566 -0.02443114 -0.5916051 -0.2874397 -0.12738565 -0.19179967 0.046668842 -0.20234889 0.2755658 0.569315 0.022646872 -0.40279043 -0.45207566 -0.3827483 -0.607555 0.9132291 0.8942471 0.543884 -0.21519081 -0.1787231 -0.8245927 0.5830196 -0.3227092 0.74627995 0.33087084 -0.099094465 -0.51194483
143102 0.47680375 -1.4180133 -0.3790163 0.19581375 0.72558904 0.107350096 -0.17053622 -0.74842125 -0.6144582 0.6520129 -0.7355199 -0.50654036 0.104062274 0.38061553 0.38199985 -0.32717595 -0.020100983 0.33322033 0.53171736 -0.024750471 0.14992298 0.2196145 0.51222515 0.38268963 0.11796558 -0.10193392 0.13842916 -0.59983665 0.026059093 -0.07334442 -0.15652713 -0.49028158 -0.31715894 0.0023302396 0.14188305 1.041009 0.34947205 -0.21516527 0.19464675 -0.0841822 -0.038947154 -0.12566689 -1.1096213 0.47377464 0.5222567 -0.5994319 -1.2025449 0.3367294 0.47902238 -0.57928 -0.14000979 0.042609464 0.37727797 0.77426827 0.40783867 0.1823977 0.15537678 0.35534608 0.39436555 -0.31749415 -0.3815684 0.9004045 0.12756439 0.40766838
145889 -0.7376932 -0.7515991 -1.1078681 0.2489112 0.0077413823 -0.077330574 -0.22162966 -0.2988378 -0.957152 -1.1019859 -0.07955419 -0.5555811 0.11739884 0.76162493 -0.006049933 -0.288306 -0.5272904 -0.4628988 0.4085654 0.14754692 -0.85525346 0.28314576 0.1872418 0.6577582 0.1780788 -0.1899388 -0.74280834 -1.2096041 0.304702 0.1147903 -0.15351531 -0.19880019 0.09839479 0.14004743 0.3107713 -0.44118297 0.79529804 -0.22782253 -0.11307216 -0.31092712 0.029316047 -0.5632933 -0.39293465 0.11439854 -0.34505594 0.8586193 0.26789406 0.9570419 0.31975374 0.205747 -0.5598736 -0.060294673 -0.06996017 0.07711454 -0.5133159 0.13028759 0.07779525 -0.5789986 0.8125605 0.49992967 0.4969231 0.45703664 -0.36587742 -0.75332844
143653 0.18893161 -0.17004819 -0.4265425 1.2847067 0.47895128 0.36554828 -0.10986018 -0.13512282 0.4227711 -0.73881996 -0.41084307 0.04641397 -0.6546765 -0.03303486 -0.3387474 0.5574053 -0.71518266 -0.6472013 0.71062416 -0.025731977 -0.8229783 0.26297793 0.3876356 -0.076913446 0.16616488 0.044370327 -0.055872377 -0.29220298 -0.16455828 0.09971295 -0.13125198 0.6030213 0.11588698 -0.15434386 0.6561259 -0.47989577 0.71828467 0.07602931 -0.57474655 -0.089753926 -0.6698577 -0.16658932 0.032763 -0.35060295 0.5835866 0.010649989 -0.2904625 0.68710685 -0.11276209 -0.60158885 -0.88002384 -0.19566955 0.1393465 0.15477134 0.26585674 0.10071725 0.08244486 -0.5312254 -0.061389044 -0.3171254 0.868538 -0.08648379 -0.7943872 -1.3646172
144541 -0.16915251 -0.5890283 0.27180207 0.10787979 1.1567546 -0.104442455 0.05627397 -0.37889418 0.690479 -0.73934585 -0.016726537 0.49901065 -0.6866175 0.20663752 -0.64500964 0.52873343 0.16498895 -0.3471734 0.41547105 0.23564245 0.3532231 -0.8950428 -0.119724415 0.5441084 -0.5263134 -0.35177386 -0.15459894 1.1199465 0.69111407 -0.46327654 0.05449792 1.0988865 -0.81238204 0.046599302 -0.0042469497 0.35993418 -0.07491925 -0.6173558 -0.52849877 -0.6061629 0.11443759 -0.08582495 -0.86932707 0.2495431 -0.12451528 0.39969283 -0.81956375 0.41832218 0.11959243 -0.76015484 0.42849717 0.1573524 -0.5030335 -0.094520465 0.29853985 -0.0072796694 0.21614873 -0.6909946 -0.42527825 1.0654002 -0.61435914 0.15314211 1.0292114 -0.9954764
143569 0.61299866 -0.8467142 0.1917588 0.97725093 1.0752358 -0.44291258 -0.47164422 -1.2869115 0.1474075 -0.18087097 -0.11575784 -0.21810964 0.7797511 -0.5379161 -0.44658685 -0.10007535 -0.19487727 -1.0450422 -0.020940015 -0.169816 -0.080279246 0.5379333 -0.7105145 -0.07915174 -0.56374264 -1.0984484 1.2206753 1.146372 0.14447397 0.6342881 -0.5074329 0.79166985 1.1126122 -0.7384729 0.367666 -0.76535636 -0.60592574 -0.6759283 -0.1983164 0.21590604 -0.5724349 -0.9127663 -1.2887456 -0.20066673 1.4164348 1.0555109 -0.28004003 0.82909817 0.50669324 -0.07803283 -0.43765378 -0.1788124 -0.014142572 0.12572905 1.7609239 1.2399358 0.81341016 0.17879859 0.8733212 0.08488205 -0.93256104 -0.39093658 0.802214 -0.99331814
143687 0.088974446 0.13023303 -0.7581776 0.46722397 0.1383662 -0.23481177 -0.9202709 -0.3270158 -0.47229856 -0.5029207 -0.2026337 0.74661493 -0.18118185 -0.13451596 0.7923819 -0.354108 0.079495415 -0.6092133 -0.0128887445 0.5645015 -0.070206106 -0.584253 0.040687047 0.16358693 -0.6062129 0.20182358 0.076588765 -0.4528952 -0.2607298 0.5526341 0.10062961 -0.08244402 0.22085807 0.27510288 0.2616474 -1.0006255 0.078147724 -0.021880494 0.02232101 -0.8362461 -0.20365569 0.037835088 -0.55771863 0.30049643 0.88557476 0.61521065 -0.18922764 -0.7020543 1.1137904 -0.8174663 -0.62449515 0.41085994 -0.07843448 -0.73200065 0.89916617 -0.017298236 0.22453266 -0.4205367 -0.36289218 -0.5853218 -0.34905726 0.38014907 0.65151626 0.22140042
144834 -0.4997952 -0.6746318 -0.31472677 0.5530229 0.37556693 0.9658773 0.08749888 -0.119542375 0.7207284 0.019440053 -0.598315 0.7587121 -0.42404073 0.50755197 -0.075000115 1.501713 -0.37374058 -0.8674509 0.17560692 -0.05808621 -0.17627044 -1.4287285 -0.8646102 0.92426497 -1.1111017 -0.81200194 -0.068201624 0.70096165 0.2461621 -0.32811958 -0.5517122 -0.50634056 -0.42493525 -0.12503187 0.21113798 0.4442695 -0.36245036 0.7168075 -0.86666006 -0.42362496 0.633815 -0.40084052 -0.2434193 -0.47146904 -0.005786549 1.5257324 -0.5180208 0.4760926 -0.6358284 -0.36287898 -0.6391333 -0.3175516 -0.44051933 -0.1644827 -0.1460515 0.43256456 1.0930501 0.013183573 0.47119677 0.17708807 -1.160269 0.6709269 0.26411653 -0.5864636
143662 -0.113986164 -0.7358636 -0.8811078 0.02963833 0.1914346 -0.3779302 0.21594158 -0.3997358 -0.025605885 -0.64099 0.677029 0.09815237 0.34516373 0.93224704 0.094040535 -0.10904957 -0.75862885 -0.5565622 0.17252228 0.7516211 -0.18909892 0.23226875 -0.03333888 0.2829128 0.48788503 -0.035783913 0.43374068 -0.27353588 0.20004143 -0.4475399 1.1164713 -0.3029544 -0.052523006 -0.813668 -0.27312574 -0.72173256 -0.052276224 -0.12858929 0.5877857 -0.30189657 0.088706285 0.3857411 -0.3549587 0.11077184 -0.117134854 0.8292802 -0.14288563 -0.20633426 -0.15080445 -0.39269072 -0.35811168 -0.086861126 0.28628206 0.50803506 -0.25675237 -0.48373175 -0.059914712 -0.85294944 0.6397121 -0.12656294 0.50818956 0.17566265 -0.7560952 -0.4322986
144652 0.29814753 -0.56947273 -0.29008767 0.14571407 0.31595117 0.6558659 -0.7026817 0.016416784 0.336863 0.5015606 0.60025764 0.6657492 0.64178395 -0.57719773 -1.0436672 -1.268298 -0.8005339 1.0224451 0.7470067 -0.055036414 -0.6792625 -0.3363844 -1.2970921 -0.25399435 0.18500276 -0.3738298 -0.18903926 -0.28184137 0.08045055 -1.1944278 -0.9679346 0.17039593 -0.12284262 -0.5339115 0.2425819 0.27837348 -0.16357584 -0.19228582 -0.2067027 -0.97873557 -0.5295623 -0.5681624 -0.89216226 0.6466988 -0.017940892 0.3154016 0.06644252 0.46228448 0.53615206 -1.8492637 -0.3706005 -1.7265247 1.3097098 -0.91751003 -0.033823144 0.018766811 1.1972812 -0.19586368 -0.016029254 -0.49846745 0.09010734 1.005194 0.21714409 -1.3528404
144052 -0.1201747 0.073335 -0.18934967 -0.40131554 0.63123024 0.7039241 0.33922037 -0.46753207 0.052978434 -0.39006123 -0.32048407 0.7224796 0.36629745 1.015138 -1.0450058 0.34917706 -0.5668164 -0.20202358 0.3204762 0.8679796 -0.19817647 1.0919476 -0.13905026 0.29550895 0.26645088 0.3795142 0.634424 -0.45023412 0.14006789 -0.16138399 1.1395212 0.5281346 -0.025438042 -0.530526 0.52057886 -0.07412528 -0.3384068 -0.4190965 -0.27655384 -0.7415791 -0.22171289 0.40843588 -0.3674431 0.32182437 -0.10260159 0.18733047 -0.20386437 -0.054154515 0.40156353 0.36065802 -0.3336884 -0.47929198 0.7774162 0.09588647 -0.3243912 0.17984363 0.40410012 -0.47953433 0.055183 0.08747213 0.4576242 0.12247553 -0.6728841 -0.5058676
144484 0.28440464 -0.18373692 -0.72001374 1.1949891 0.38835424 0.5822121 -0.11766776 0.08952355 0.18685204 -0.78371114 0.035388984 -0.1367635 0.41095644 0.390092 -0.27963167 0.1256997 -0.2487332 0.004684858 -0.025079107 0.87915295 -0.31815058 0.8794714 -0.38433897 0.23902479 -0.064349525 -0.07770497 0.21804997 0.069749795 0.31167665 -0.34309083 0.42017937 0.028241333 0.09431608 -0.025941273 0.6283261 -0.7735623 0.38111532 -0.044132758 -0.25001568 -0.235491 -0.18060045 0.04782786 0.33375368 0.45875162 -0.10443349 0.5253359 -0.1671826 0.61251736 -0.4634794 0.3632176 -0.4120656 -0.0313401 0.051117685 0.8272206 0.19384885 -0.6763587 -0.6889565 -0.4162428 0.3928266 -0.2739835 -0.42496878 0.5070878 0.37110105 -0.5772927
143673 0.63225126 0.3584083 0.14061287 -0.42819864 1.1580108 -0.10050407 -1.2137082 -0.18846332 0.6862712 -0.97069335 -0.16589664 0.9197432 -1.0447456 1.3324552 -0.285678 -0.61366284 -0.27510697 -0.122532435 0.56245375 0.061788853 -0.0686175 0.3739678 0.19397087 0.15198448 -1.3831477 -0.08034343 -0.15849216 -0.44482827 -0.14910577 0.29510504 0.09713306 -0.016116677 0.0096670175 0.87709224 0.07988622 -0.0821874 0.47920263 0.4031785 -0.04570627 -0.10425836 -0.13890062 0.898449 -0.8494035 0.6883457 0.07156825 0.14020345 0.42433786 0.062027648 0.13575932 -0.51195776 -1.5282007 -1.1111541 0.9413658 -0.30049384 0.018363316 -0.17086253 0.005297233 -1.0300992 0.3027329 -0.61687833 -1.4876623 -0.1576275 -0.43640736 0.72536904
144625 0.3263247 -0.9681783 -0.51218826 0.10020471 -0.00011988327 -0.11958478 -0.03730432 0.05170766 0.40673488 -0.8919662 -0.42050326 0.4476658 0.15380497 1.4016603 -0.058846146 0.0692274 -0.6574373 -0.59877425 0.7310239 0.78912073 -0.018791456 0.96206886 -0.21996014 -0.10027737 0.103505485 -0.92126393 0.04361421 -0.070437565 -0.16895649 -0.11858484 1.1462088 -0.54329604 0.05752333 -1.3568263 -0.2307049 -0.7986611 -0.6028886 -0.1362204 0.64428973 -0.40128106 -0.10631463 -0.5499557 -0.33334127 0.0038998483 -0.083043754 0.80748814 0.16278246 0.44630435 -0.50615305 -0.007521398 -0.024838902 -0.31938398 0.06105294 0.59051627 0.042105082 0.0020358723 -0.30692333 -0.5435605 0.41044128 -0.19462611 -0.082162485 0.18885495 0.037933838 -0.1692391
143449 0.39146605 0.006937656 -0.5274469 -0.022761377 0.6537405 0.57608575 -0.118612505 -0.21755594 -0.26124343 -0.50373816 -0.084233955 0.07259266 -0.33945456 -0.684904 -0.765256 -0.61144334 -0.43582645 0.06258227 -0.14731026 -0.20780525 0.3649855 -0.31632516 0.45177463 0.44992444 -0.5902228 -0.81144166 0.26151618 -0.15966411 0.28108007 -0.4336444 0.32263532 0.10284181 -0.6510849 0.40110376 0.43671408 -0.44158942 0.042614456 0.43096834 0.22597656 -0.49266124 0.60604846 0.2645897 -0.2655723 0.7351806 -0.42591745 0.4878864 -0.19820966 -0.113254204 0.33869794 0.03528013 0.7970074 -0.014505577 -0.28953394 -0.80289805 0.03362151 0.11404379 0.022208314 0.2211265 1.1432315 -0.77125156 -0.6747049 1.0055952 0.41030672 0.032985095
143239 0.057773106 -0.4142521 0.7371733 -1.0082257 1.1565839 -0.6222711 -0.22930422 -0.12633057 -0.57316834 -0.64713085 -0.5792794 0.007363407 0.950989 -0.48272967 -0.6279778 0.22227885 -0.47346765 -0.8599444 0.55970997 -0.26256835 -0.14303042 0.3599281 -0.36452815 1.1150142 -0.65636736 -0.88818526 0.15748376 -0.19909132 0.23564707 0.3330583 -0.01676638 -0.20934488 -1.148029 -0.51404434 0.35314727 0.49397147 -0.60038155 -0.30149123 -0.41133258 -0.4494361 0.012725238 0.16952084 -1.0001404 -0.905716 -0.43217567 0.0041041384 -0.353274 -0.5211034 -0.96193105 -0.93559045 -0.9028375 -0.7388237 -0.18196388 -0.8528774 -0.014807773 0.20386231 0.15248176 -0.2127956 -0.20681103 -0.19178043 -0.20548946 0.38719812 0.9606942 -1.0542494
140633 0.27221474 -0.91818947 -0.7296678 0.77502215 0.33947578 -0.24096866 -0.14690165 0.49040395 0.24283047 -1.06903 -0.5066399 -0.13948806 -0.031723376 0.40224934 0.44079944 0.27175584 0.1828866 0.11652671 -0.24061917 -0.50955033 0.032773346 -0.058118924 -0.33425543 0.19890839 -0.017025536 0.57632416 -0.3624009 0.44667983 -0.03771404 0.051867906 -0.16221115 -0.2228837 -0.9308742 -0.17026676 -0.98832005 -0.8598948 -0.19444235 0.20100838 -0.35733062 -0.30707556 -1.2458844 1.2671801 -0.87256175 0.054852687 -1.1835554 -0.046092723 -0.5230609 -0.17133686 0.20861068 -0.2273269 -0.27991542 -0.29190993 0.24750549 -0.6708333 0.037382778 0.049982853 1.0146154 -0.8616382 0.14353211 1.3560404 -0.7098585 1.3645493 0.8810885 -0.74363804
141505 -0.3877518 -0.4063919 -0.46282402 -0.0035250427 0.9852797 0.26806808 0.18381195 -0.60190827 0.8443834 -1.112495 0.4668192 -0.23132561 -0.89714795 0.12733345 0.07917419 0.49379674 0.06096207 0.55185634 0.30290416 0.10878674 0.22882475 -0.41107252 -0.242903 -0.013253394 -0.5565753 -0.47196677 -0.03618574 0.44229132 0.1199844 -0.110738896 -0.52828294 0.6278598 -1.3347527 -0.17662974 0.022225605 0.04002903 -0.561815 -0.61002 0.005287651 -0.31190908 -0.66952723 0.43477592 -0.6225539 0.21431601 -0.16533656 0.5871506 -0.38177145 -0.087426074 0.8078833 -0.1411724 0.15700534 -0.15834998 -0.4662528 -0.5761465 -0.0063564735 -0.108070634 0.5183741 -1.7633139 -0.41793802 0.6266014 -0.33427462 0.52197015 0.50036305 -0.87295073
144275 0.47177872 -0.8292282 -0.27583286 0.46727738 0.70662576 0.58235365 0.25292683 0.02561096 0.05110719 -1.0478723 -0.41707394 0.6409536 -0.09098011 0.39368203 -0.4720635 0.67931426 -0.7211734 -0.16156295 0.53196794 0.19296682 -0.5016965 0.29682028 0.4584525 -0.0020677377 0.3729811 0.8984835 0.072563745 -0.7551038 -0.52923864 0.020142227 0.59155846 0.0064069787 0.022951474 -0.7038695 0.44646302 -0.45328444 -0.008155116 -0.33869287 0.0980966 0.2083474 0.26282218 -0.31581718 -0.44118997 0.63561064 -0.22127761 -0.1052087 0.027694145 0.20207189 0.18662845 -0.45626602 -0.41303885 -0.22351836 0.21148516 0.28772435 -0.2707965 0.2865275 -0.30474046 -0.7159391 0.67303985 0.12463072 0.8950525 0.24689305 -0.17510998 -1.0074624
144917 0.38113916 -1.5481287 -0.8510119 -0.115274005 0.72232604 0.47605944 -0.648924 -0.048895564 0.26263005 -0.6591701 0.5873805 0.2792024 -0.26272196 0.23411028 -0.7262642 -0.29055664 -0.7866913 -0.15248351 -0.1321357 0.14931421 -0.33834115 0.2633689 0.26182345 0.06015526 0.38176265 -0.32925653 0.01830302 -0.51926166 0.12685417 0.07227372 0.29427105 0.21903287 -0.089416035 0.34172803 0.5483505 -0.20805995 0.46910468 0.3975067 0.2923503 -0.72789 0.27248654 0.36516657 -0.2358933 0.04353803 0.048355702 -0.015184827 0.075576045 0.36324677 -0.027581137 0.88033265 0.3628184 -0.67529386 0.49292633 0.553911 -0.09418791 -0.30960113 -1.1450448 -0.96563303 0.59528506 0.18877025 1.2940203 0.9083105 0.4677127 -1.0838474
143387 0.80954665 0.5868137 -0.6952851 -0.35028836 -0.024261037 -0.52770233 0.46466872 0.123707555 0.002146948 0.056473922 -0.66365075 0.3505742 -0.060244028 0.44875896 0.7045591 -0.017843401 0.37336573 0.16271935 0.46264556 -1.1298549 -0.3777406 0.0014066462 -0.23599859 0.46638513 -0.35795802 0.030904274 0.38093737 -1.2931696 -1.088977 0.04504624 0.27404475 0.7618551 -0.38925242 0.33793232 -1.1293138 -0.4550395 -0.17251989 -0.11622765 0.5014395 -0.6725482 0.45696566 0.55598444 -0.72876894 0.19331098 1.055911 0.24245104 -0.122617684 0.68647903 -0.53841025 -0.22990401 0.6526404 -1.2155461 -0.036935125 0.8437997 -0.070301004 0.4037109 0.0840461 -0.71285594 0.113945365 -0.08702111 -0.7111569 -0.06909859 0.53870344 -1.4168398
143415 -0.03624416 0.3971799 -0.9863029 -0.029613718 1.0490949 0.40261215 0.023913087 -0.42874357 -0.2756986 0.16780035 0.20029588 0.18743967 0.069958284 -0.66651404 -0.85486597 0.25662833 -0.23639469 -0.27253228 0.4371034 0.32628018 -0.16253656 0.081657395 0.19650614 0.15900934 -0.27053353 -0.03374453 -0.0938791 0.24671416 -0.48285863 -0.35943475 -0.058351424 0.23519737 0.1590737 0.056428988 -0.28413612 -0.32908705 0.6261831 -0.7319089 0.33783764 -0.8003194 -0.5720611 0.046630986 0.1777436 0.12318578 0.7308552 0.41607228 -1.2983063 0.28508678 0.07969876 -0.76748437 -0.23038289 -0.2238779 -0.05426015 -1.1118783 0.55246735 -0.41980562 -0.10884004 -0.1505992 0.08876257 -0.5914427 -0.7044297 0.7342886 -0.40182757 0.22654608
142760 -0.040870436 -0.66086745 -0.6129847 -0.95127034 0.3229259 0.56420964 0.12925377 -0.18695289 -0.8969572 0.3976683 -0.33413357 0.041340593 -0.10741016 0.39696357 0.048228614 -0.44535345 -0.2160098 -0.15689912 0.6043018 -0.20891732 -0.4087728 0.09964646 -0.72518516 0.34799215 -0.12953795 0.029804258 0.9260528 -0.2516836 -0.5987054 -0.4377318 0.4439321 -0.34292337 0.37207425 0.10795467 0.29829916 -0.67013913 0.25784737 0.008605899 0.15959793 0.038299713 0.54593027 -0.14076439 -0.4846046 -0.07161544 1.0129045 0.055029932 -0.7201869 0.11331443 0.51656294 -0.33574942 -0.16522531 -0.059255827 -0.6118372 -0.5670606 0.19202077 0.071332455 0.05349636 -0.9125837 -0.11676587 -0.6392522 -0.62403804 0.40987185 0.19916245 0.68102735
141812 0.6732999 0.13210732 -1.3208599 -0.26643053 0.52210397 -0.2572192 0.29380652 0.038519505 -0.15399085 -0.12603015 -0.64779603 0.3936133 0.33995876 -0.002664828 -0.06828792 1.0226146 0.25283447 0.3677329 -0.23000678 -0.3122736 0.041531593 0.056438707 -0.60056466 -0.46306884 -0.862899 -0.07060942 -0.64358 -0.835858 -0.4549494 0.40939343 0.61464286 0.63796014 -0.3702752 0.79284775 -0.40381885 0.86517745 -0.20698656 0.5102957 -0.3042613 -0.6854117 -0.2300993 -0.110069 0.1685058 -0.13181365 0.55506176 0.9996713 -0.5120064 -0.22298658 -0.15644558 -0.52913773 0.29253224 -0.35300872 -0.1288083 0.7007798 0.098464526 -0.07934149 0.11759921 -0.34489474 0.9511016 -0.20725992 -0.03697143 0.84637713 -0.03889335 -0.74207103
141562 -0.114866644 -0.31951126 -0.1217565 0.3696224 0.17922094 0.59687614 0.33724317 -0.8522757 -1.3703078 0.14345466 -0.8743991 0.3335678 0.21929044 -0.011383276 0.3187297 -0.731847 0.025398446 0.012671118 0.36009964 -0.124174446 -0.04935468 0.08719132 -0.20895708 0.3697079 -0.7692155 0.29990962 -0.03996654 -0.50558573 0.045017213 -0.46883637 -0.47488874 -0.11460927 -0.658743 -0.52834505 -0.20628068 -0.6727521 -0.16878794 -0.24490325 -0.121751726 0.5945107 0.09842556 0.15237004 -1.0532078 0.44135118 0.8061233 0.24072172 -0.6445256 0.47943005 0.39382833 0.08428387 0.35028902 0.025679303 0.5620225 -0.011444923 0.15044014 -0.6262014 0.11457423 -0.2756713 0.21775055 -0.87129635 0.06817231 0.26773006 0.37575936 0.51405257
140787 -0.30685297 -0.43598375 -0.9553904 0.22600085 0.18263224 0.05772233 -0.2370215 -0.07284879 -0.08967218 -0.81144506 0.596185 0.18492585 0.7196033 1.0367472 -0.18923031 -0.43150422 -1.089309 -0.6400758 0.33785775 -0.09565523 0.16861965 0.08773377 0.20621482 0.4712951 0.75391084 -0.076148726 -0.109512284 -0.7123954 -0.31351694 0.2846549 0.04764905 0.2540419 0.42578173 -0.3781286 -0.08700256 -0.42900607 -0.67855084 -0.34682962 -1.0140243 0.47509953 -0.17073849 0.2664882 -0.11482612 0.29979435 0.35158908 0.38751993 -0.29193842 0.24271864 0.3618452 0.09365796 -0.38585153 -0.57978636 -1.0374379 -0.020916928 0.6123693 -0.3832906 -0.04320303 -0.46010447 0.9317219 0.18537487 0.03343441 -0.12584765 -0.3118558 -1.116508
143105 -0.07058034 0.12289429 -0.5611802 -0.14508025 -0.33733135 -0.0632846 0.003982164 -0.48970097 1.0110513 0.43781075 0.30392134 -0.82532525 -0.92947805 0.25896922 0.38057736 0.17205575 0.15984912 0.36271638 -0.94300073 -0.5234565 -0.549883 0.3459348 0.2517944 1.3759414 -0.81051457 -0.3330585 -0.17470534 -0.5313409 -0.22783484 -0.40264547 0.636025 -0.14248113 -0.12387378 -0.13808534 0.4934214 0.14100833 -0.3038094 -0.6036005 -0.3187084 0.3541683 -0.29756525 0.9465485 -1.3673141 -0.36906597 0.83262444 0.62725544 -0.80894804 0.6643054 0.36836392 -0.5778033 0.20798713 -0.05578637 0.551706 -1.2193109 0.07840379 0.2621438 0.73395705 -0.7795779 0.18338285 0.04279561 0.24784917 0.5762244 0.030686414 -0.8074896
143788 0.5051174 -0.13509043 -0.9938156 0.08034528 0.9889484 -0.6491192 -0.40881866 0.42582756 0.35883266 -0.24386145 -0.0492153 0.9176649 -0.18050008 -0.046997927 0.66070724 -0.15195692 1.0236847 0.5423668 0.16611941 0.23138699 -1.2154528 0.5140567 -0.6771187 1.172316 -1.2058852 0.41062638 -0.32224596 -0.9343284 0.14725645 -1.9670154 0.88416666 0.20182255 0.3355802 0.51571363 -0.6612333 0.12147551 -0.30215228 -0.14135909 -0.37468106 -0.9883344 -0.19161604 0.13798165 0.15090232 -0.044209942 -0.2054499 0.4812284 0.2806662 -0.027298383 -0.90019697 -0.43661842 0.30336052 -0.4997312 -0.5694227 0.60080796 0.30587953 0.4494989 0.4917993 -0.8309449 0.9620634 -0.5006363 0.025607908 -0.12494986 -0.24428524 -0.6982505
144002 0.7205365 -0.4230545 -1.4537702 -0.2640854 -0.054354716 -0.13877495 0.36798105 -0.042356323 0.13302645 -0.29636407 0.18801528 0.260921 0.4772884 -0.012596262 0.4118941 -0.5083965 -0.009908319 -1.0655928 0.15645035 -1.6713519 -0.007468272 0.7245641 -0.8461416 0.34007072 -0.89369905 -0.7978077 0.3925365 0.21846612 1.0303546 -0.7226591 0.48243812 -0.3420259 -0.12794814 0.20435321 0.26784098 1.424709 -1.1958033 -0.2910836 -0.4317176 -0.6523277 0.89679396 0.82321745 -0.6097435 -0.56735075 -0.5143185 -0.30326763 -1.2721853 0.40071377 -0.21013078 -1.3856407 -0.84374326 -0.45936045 -0.8535164 0.4546421 0.20159988 -0.58631885 1.0605729 -0.7605355 0.53637713 -0.32879815 0.4033977 -0.48912692 -0.010137219 0.07869162
140275 0.3427437 -0.9710877 -0.18440175 0.36413416 0.33215198 0.11877956 -0.45031872 0.73079234 0.10447539 -0.8695492 0.06379162 -0.058483858 -0.24124335 0.76772505 0.10749498 -0.48693362 -0.54631144 -0.17016204 0.80158883 0.35441664 -0.29798335 0.86396486 -0.21194704 0.35068017 0.3954055 -0.39965072 -0.5309747 -0.52349627 0.08388494 -0.6709252 0.812068 -0.028673427 0.09316224 -0.30579805 -0.22813095 -0.29664752 -0.22208156 0.16245441 -0.10846933 -0.5390213 0.35985312 0.1840789 -0.2526421 -0.6101171 0.019774063 0.46856704 -0.2897485 -0.2063584 -0.07435098 0.018444153 0.09046359 0.2539157 -0.27805126 0.8145557 0.026412155 -0.36159393 -0.17893338 0.048434157 0.3901049 0.18530484 -0.2705109 0.00042684848 0.10863989 -0.64083135
143878 0.4514546 0.1740666 0.6125803 0.027641807 0.7033707 0.116121456 -0.46943906 0.41227436 0.06672216 0.044543665 -0.30059314 -0.33350587 0.020286808 0.7338783 -0.6840995 -0.026573254 0.03648509 -0.69754094 0.8117936 -0.039463308 -0.97357744 -0.3323873 -0.51454204 -0.7354291 -0.47212356 0.5691191 -0.6850532 0.47281197 1.1553428 -0.43803293 0.41736832 -0.36472136 -0.17830706 -0.014343493 0.61203593 0.10396128 -0.6480124 -0.59895927 0.47590035 -0.64805025 -0.06798488 1.0463173 -1.0530593 -1.0457524 1.0069687 0.19564958 -0.40140337 0.6217732 -0.6140625 -0.47028926 0.7402324 -0.07781366 0.4061635 -0.53849566 -0.4421197 1.0332726 0.6699302 -0.7767031 0.70925057 -1.4104722 -0.41532964 0.7121952 0.76628995 -0.4432003
145422 0.75243497 -0.54632723 -0.7316316 0.36341143 0.66918504 0.3730223 1.1679851 0.4055705 -0.42122236 -1.3003715 -0.109699026 0.6656284 0.11119748 0.27938256 -0.052185867 0.2249606 0.2508788 -0.7081615 -0.004198032 -1.1791251 -0.56062895 -0.9480619 -0.81943566 -0.36730608 -0.5778701 -0.18357068 -1.1698091 0.37982795 1.243164 -0.49942842 -0.4969936 -0.65438795 0.05902799 0.058813594 0.52072746 0.9088811 -0.33156163 -0.42898613 0.1953594 -0.29125062 -0.2278609 1.1751401 -0.5369208 0.5137009 0.1706247 0.7148173 -0.9910077 0.029749144 -0.7806195 0.07897317 -0.18663153 -1.0216594 0.034360714 -0.433092 0.9330256 0.13827652 -0.23374546 0.63564014 -0.14977671 -0.2975728 0.5695858 -0.18290274 0.4874837 -0.9384121
140435 -0.2769143 -0.63343734 -0.71883386 0.5146815 0.5191244 0.73185784 -0.33194575 -0.56077725 -0.18095082 -0.39212352 0.40946096 1.0497051 -0.047091283 0.4254968 -0.48946327 -0.2996272 -0.34376085 -0.26365015 0.20779897 0.40813607 -0.57151043 0.6048904 -0.33832595 0.3944945 0.12999853 -0.6483818 0.21280734 -0.20394064 -0.14275458 -0.23639745 0.16541688 0.07563012 0.40976655 -0.14399058 0.2545104 -0.56046265 0.3397295 0.37812346 -0.6662794 -1.212384 -0.07707765 0.33586156 -0.08000789 -0.18512766 -0.04865258 -0.12342921 -0.36553618 0.9073746 0.075831994 0.7916069 0.036810562 -0.43534395 0.36564398 0.95972645 -0.36599964 -0.18521906 -0.700941 -0.66794604 0.24150759 0.5173821 0.85293263 0.21496809 0.16585828 -0.8340159
144531 -0.22426938 0.21773927 -0.7509393 0.7271621 -0.26702276 0.21563175 0.17850746 -0.039989777 -0.08681556 -1.0912483 0.1685343 0.58124936 -0.25702155 -0.18074253 -0.21578032 0.019182663 0.1816742 0.119768515 0.051233143 -0.15793347 0.9307758 0.2636031 0.05638542 0.28832287 -0.07168575 0.11835857 0.14430732 -0.07677592 1.5005547 0.6466715 -0.02629887 -0.19667739 -1.1398467 0.18410344 -0.4914637 -0.24743742 0.15098414 -1.1239163 -0.086953446 -0.4273977 -0.15808879 -0.12402531 -0.56686443 -0.38950822 0.5321486 -0.0053252494 -0.19126435 0.4191441 0.11111169 -0.23866567 -0.36816403 0.088239715 0.0455642 0.18800849 -0.14535265 -0.31203523 0.29107365 -0.91360104 0.40147164 0.7112659 -0.27046943 0.37678534 1.2966331 -0.36492622
140657 0.3764776 -0.048513826 -0.42121735 0.953195 -0.16967747 0.041369807 0.10990086 0.096445836 0.03024262 -1.250229 -0.6710059 0.32376966 0.59755385 0.36901957 -0.27100593 0.07677239 -0.37135726 -0.2882993 0.29389504 0.3253241 -0.46648344 -0.01638379 0.07254104 0.40457273 0.54648703 0.061865825 0.13879672 -0.4089245 0.34918523 -0.3026877 0.03320498 0.16452332 0.065846376 -0.25776783 0.23988555 -0.15639299 0.4317808 -0.3430104 0.11119479 0.055869926 -0.24855979 0.00034387762 0.019061541 0.7421769 -0.03660232 1.2718582 0.33692464 0.41365376 0.17775035 -0.01810422 -0.48784357 -0.120684244 0.2652797 0.3117841 -0.37430018 0.018729867 -0.11180626 -0.4863361 0.20558453 0.21142799 0.30549443 1.2653406 -0.18710256 0.19579975
141609 0.49499184 -0.063368015 -0.41252494 -0.31050014 -0.3846039 0.40997133 0.058673684 -0.037780102 0.11403518 0.1787535 -0.41486245 0.3557128 0.6383 -0.36220035 -0.26882413 0.061791074 -0.69822556 -0.21890327 -0.10996465 -0.8349838 0.05644335 -0.25616142 -0.9607883 0.13157794 -0.35953423 -0.8161845 -0.27563155 0.15175462 0.8669235 -0.6946376 0.25974977 -0.48877072 -0.8128152 0.18418136 0.81669354 0.70109266 -0.6685257 0.07509737 0.1607698 -0.34333268 -0.16120811 0.13833095 -0.7915205 0.30846775 -0.234694 -0.08275871 -0.47673342 0.06308468 0.33326206 -0.6470207 -0.72659427 -0.5749443 -0.6430909 0.35716513 0.14564331 0.42261872 0.200803 -0.4864905 0.99879885 0.11452159 0.37235278 0.0079202745 -0.12151267 -0.14221443
144994 0.23243506 0.5279737 -1.1087861 0.45711043 -0.07196766 0.59582114 0.20298435 -0.8322734 -0.02242746 -0.48615655 0.46949166 0.2558884 0.072383836 0.15478191 0.20446584 -0.70812786 -0.4926423 -0.64552236 0.24609035 -0.37445447 -0.124548 -0.17978047 0.19675499 0.8719059 -0.11037812 0.14681299 0.4076364 0.13373524 -0.6016974 0.62222445 0.98624045 0.15531029 -0.4738797 -0.22643617 0.26905233 -0.002316883 0.76361024 1.1063588 0.1893833 -0.90450454 -0.026917705 -0.09859193 -0.8361629 -0.17820555 0.17079085 -0.34053347 -0.37185693 -0.29124117 0.11460763 -0.49847788 0.91648674 -0.53686285 -0.41406518 -0.4678321 0.74712366 0.019514518 0.19808431 -0.07734232 -0.29146466 -0.3014763 0.042799607 0.6770746 0.028601443 -0.24114904
140436 -0.108273685 -0.19666228 -0.6970769 0.6548966 0.45252955 0.5938618 -0.45507762 -0.4382902 0.041747063 -0.084346734 0.71282166 0.58002716 0.39031923 1.1610787 -0.12057011 0.1817092 -0.6677051 -0.42132488 0.29462028 0.035893817 -0.4710351 -0.095978335 -0.78419435 0.47207776 0.35305446 -0.3363659 -0.046523392 -0.15846495 -0.40402815 -0.6530301 0.24566393 -0.20472348 -0.01832799 -0.0782232 0.10223974 -0.69959575 0.19538309 -0.06475339 -0.4657409 -0.40784663 0.32415333 0.0412886 -0.32523996 0.03941368 0.074300565 0.07962596 0.12049464 0.7744665 0.14043811 0.83996403 -0.30948576 -0.3306054 -0.2890441 0.51671743 -0.29429853 -0.33348176 -0.6272806 -0.5149943 0.90856814 0.07953154 0.6217407 0.050078414 0.57890064 -0.961802
143085 -0.12633535 -0.18477874 -0.501722 -0.239316 -0.075093895 0.26799658 -0.6715931 0.15556575 0.2859077 -0.10058545 0.13746749 -0.008422513 -0.48678082 -0.06020604 0.11730349 -0.22655419 -0.22303195 -0.32254815 0.3324471 0.3936557 -0.36213478 0.44789782 -0.11659803 0.9739976 -0.5834067 0.30953246 0.4151603 -0.026637653 -0.100697115 -0.56300217 0.04003591 -0.48577163 0.54856527 0.25943747 0.11584777 0.009097124 1.1543518 -0.28686425 0.6634419 -0.47278488 -0.048793558 -0.074637465 -0.32811522 0.4213763 0.5836799 0.646894 -0.2198393 -0.100684956 0.7225642 -0.8823987 -0.39124206 0.46533376 -0.62182903 -0.57712495 1.0585282 -0.3980872 0.5027883 -0.10196219 -0.42504054 -0.81103224 -0.6346179 0.7591807 0.107194096 -0.2476671
144845 0.68082535 -0.0136539955 -0.2607154 0.43413898 0.37738058 -0.7741258 0.27246705 -0.38179424 -0.75964236 0.2387314 -0.4642757 0.43895206 -0.10533326 0.62288487 -0.86927146 0.19952008 -0.90359116 0.19694047 0.44895032 -0.20792581 0.50917387 -0.21315978 0.08458333 0.17600465 -0.43772003 0.6252789 0.42656973 -0.8659954 -0.7139886 0.24499243 -0.47435406 -0.68252563 -1.0129675 -0.40198055 0.26719332 -0.4007315 0.005720829 0.15997487 0.1521018 -0.40629673 0.35583127 0.110182695 -0.33448538 0.5660419 0.13026917 -0.16590121 -0.6184662 0.9958177 0.7473409 -0.25855544 0.12625223 0.061453573 0.0013650074 -0.73906744 0.41994694 -0.53642654 -0.884357 -0.01604925 0.2682267 -0.64615923 -0.35050702 0.3751612 0.4481521 -0.42375842
145979 -0.37271893 -0.59941405 -1.098271 0.38336858 0.60014296 -0.46950698 -0.95294815 -0.22143489 -0.5746252 -0.6672011 0.19004151 0.54970056 -0.2680428 -0.37856638 -0.07084041 0.20941514 -0.10710032 0.43630412 -1.0037212 -0.6490513 0.712162 -0.64874905 -0.3305593 -0.021050738 -0.11040589 0.028050061 -0.037499174 -0.17329723 -0.17269897 -0.3294225 0.38918027 -0.43702933 -1.2223713 -0.2810518 0.7007489 -0.13323402 0.07921969 0.004899246 0.6241341 -0.044911146 -0.719776 1.0702893 -0.24277171 -0.5267556 0.25349522 0.60115445 -0.78547037 -0.24363251 -0.0024828196 -0.39255825 -1.569692 -0.81580967 0.103764266 0.34543848 0.78026795 0.81157386 -0.37672064 -0.4575088 -0.01615526 -0.48505306 -0.90941817 -0.7891589 -0.2675357 -0.14063087
141297 -0.27344027 -0.65773034 -1.4089017 0.14236043 0.3477349 -0.8550236 -0.9409466 -0.45866632 -0.4141565 -0.74128824 -0.47102103 0.92134327 -0.43244657 -0.15379885 -0.1456736 -0.106604345 -0.4124618 0.6572145 -0.7470949 -0.8688323 0.6531426 -0.24740009 0.5687411 -0.6473919 -0.124200545 0.2621164 -0.09903579 -0.5245993 0.5978605 -0.44282553 0.4026786 -0.5619709 -1.1470734 -0.24613202 0.7578244 0.14470363 0.48809978 0.36350092 0.06449493 -0.39847302 -0.6072538 1.0900756 -0.35893843 -0.6027749 0.28838915 0.7992261 -1.0157809 0.5202746 0.38043082 -0.39251631 -1.2987349 -0.92371684 0.39656055 1.2313602 0.33873826 1.5114595 -0.5815916 0.15289794 0.6127966 -0.46382257 -1.0104923 -0.7795615 0.49391675 -0.48799044
143470 0.39758217 -0.59173626 -0.6390729 -0.7555276 0.5105487 -0.49944544 0.5037571 0.42180708 -0.1102744 -1.0756979 -0.3393964 0.48676583 0.3880387 -0.22579937 0.20023637 -0.64585453 0.70771575 -0.018863885 1.5675327 -0.31262898 -0.16850777 0.37186033 0.46830735 -0.31610462 -0.15588586 -0.21304874 -0.103736885 0.06427237 -0.47264382 0.044255912 -0.2202439 -0.6946998 0.29349044 0.34262368 0.22951658 0.26931533 0.42293736 -0.32125935 0.29347044 -0.29919058 -0.08831408 0.31438065 -1.1602377 1.018024 0.60345924 0.40176558 -0.89795667 0.5022945 0.37281826 0.163166 0.28216448 -1.6298174 0.5485555 -0.24456814 -0.024602195 -0.49068516 0.5686299 -0.6057016 -0.2020779 -0.6576328 -0.9112609 0.3245401 -0.13314575 0.8677127
143607 0.3124292 0.2986368 -0.6841575 0.19646487 0.26054674 0.49818015 -0.44178194 -0.8551239 -0.5576738 -0.01805819 -0.21730167 0.45326373 0.118453056 -0.5463356 -0.06294959 0.1149646 -0.15568711 0.9100441 0.43551257 -0.015315805 -0.66627777 -0.10503126 -0.056946382 0.6927724 -0.019015344 0.18429902 -0.1894418 0.4222663 -0.42469537 0.37536758 -0.50642073 0.1882285 0.04833402 0.16900933 0.2964055 -0.83923876 0.12681147 0.3148066 0.47426632 0.16205488 0.7432131 0.60725754 -0.81020886 0.76193327 -0.083797604 0.51150554 -1.0561507 0.11741653 -0.39784825 0.059017353 0.19611622 0.21316265 0.21196008 0.3040283 0.6499582 -0.18490928 0.27610496 -0.76457894 -0.52360165 -0.9125348 -0.20035443 0.48618093 0.8932251 -0.3841338
143204 0.12988557 -0.18641032 -0.16505457 -0.79362595 0.736693 0.48449063 0.5716807 -0.656832 -0.37049899 -1.0355407 0.2707203 -0.18723296 0.09286471 -0.07483149 0.32932276 0.8550279 0.12491962 -0.445376 0.68053454 -0.8265114 0.23529631 -1.0232631 -0.46327236 0.35463366 -0.15718232 -0.17940274 -0.5040838 -0.29682404 0.8054799 -0.050565347 0.06814826 -0.6192334 0.30637854 -0.2054046 0.82589847 1.1089405 -0.68374795 -0.061214995 0.27019477 -0.08385994 -0.11358793 0.004842864 -0.4455901 -0.28594774 0.939743 -0.029859755 -0.35491312 0.3356178 0.31062198 -0.2939415 -0.3477077 -0.2153637 -0.8012048 0.6003984 0.04089718 0.07777742 -0.116140455 -0.4939784 0.35185137 -0.23344481 -0.48287892 1.0126865 0.108819745 0.11566184
145587 0.0021642745 -0.0014074208 -0.66448134 -0.41970804 0.07219909 0.8922444 0.18280444 0.22103082 -1.0588824 -0.75985664 0.33034903 -0.024597298 0.0013514952 -0.20302357 -0.10365972 0.7897293 -0.43995723 0.9790829 0.19360577 0.27636075 -0.087163426 -0.40515468 0.34825483 0.29666942 0.0038668371 -0.3671274 0.92292655 -0.65082556 -0.059868798 -0.32988375 0.38711742 0.39234123 0.22714642 -0.1610268 -0.78120995 0.046626523 0.6586584 -0.2191237 0.12875801 -0.42756927 -0.17085032 -0.7793532 -1.4956739 -0.24244186 -0.20208009 0.06958929 -0.5337419 -0.36116114 -0.533781 0.335251 -0.49517545 -0.54181767 -0.21162093 0.01563174 1.0437801 -0.2210697 1.1011871 -0.3820297 -0.035304695 -1.0011854 0.20124374 0.5293295 0.9216659 0.053001247
140110 -0.48790723 -0.14162439 -0.6883104 1.1884106 0.21272288 0.09553888 0.24718906 0.2652863 0.49490994 -0.79050535 -0.48421338 -0.010490321 0.6429404 0.09900183 -0.2386535 0.23516588 -0.42626083 0.11735156 -0.19196895 0.6940204 -0.3811517 0.08390392 -0.43539482 0.39475864 -0.4831002 0.21281964 0.8068979 -0.17351872 -0.091547154 -0.81510377 0.49397415 0.025344804 -0.15359822 0.17154212 0.39887312 -0.6631347 0.8699425 0.018806498 0.0636448 -0.18853347 -0.014081389 -0.29447344 0.50149935 -0.07105846 -0.31116042 0.104058854 0.27864662 0.84588736 -0.6096896 -0.7585429 -0.25447658 -0.6145758 -0.32987082 0.96069425 0.06593187 -0.62843883 0.22404173 -0.9434082 0.9370383 -0.5536339 0.8270042 0.105990514 0.9090744 -0.3585915
146395 0.37372264 -0.64769393 -0.045277722 0.79003024 0.3553811 -0.037252285 -0.52274555 -0.754344 -0.55829763 -0.25126925 -0.11154636 0.13316777 -0.1579102 -0.4048407 -0.28070977 -0.34111878 -0.37663865 -0.44224656 0.15335824 0.12041811 -1.0349782 0.3157381 0.1808412 0.4381036 -0.42982352 0.27279112 0.055658344 0.061847515 -0.14043671 -0.16596772 -0.07530277 0.2840432 0.06919372 -0.012380871 0.4085945 -0.058343373 -0.27970615 0.14625974 0.6450775 -0.2030826 0.14378491 -0.13431801 -0.74846286 0.33962634 0.39352053 -0.20634714 -0.5554991 0.5741304 0.118134655 -0.10618744 0.22778681 0.012818684 -0.25124687 -0.24170046 0.8304535 -0.19332299 0.21021858 0.37686136 -0.22345145 0.37146258 -0.84387344 0.60931987 0.47472212 0.60956246
144982 -0.2806621 -0.13883434 -0.7675934 0.21085654 0.18815345 -0.4776133 -0.41809577 -0.14190167 -1.0272794 -0.04390669 0.27657163 0.18607222 0.27468935 -0.71545386 -0.9367111 -0.0988885 0.19799139 -0.7997249 0.2515326 -0.28362936 0.39887172 -0.51852125 0.47411254 0.18876702 -0.18590873 -0.08746791 -0.50526595 0.67681235 -0.42974642 -0.13434826 0.6405808 0.7162167 -0.42562276 -0.2158252 -0.13064478 -0.33862472 -0.08502383 -0.60715824 0.4607561 -0.40174544 0.090345465 0.28723532 0.0068808203 0.36872163 0.34207484 0.0054249796 -0.98129904 0.86398566 0.7530344 -0.15599917 -0.14654256 -0.24320383 -0.2082407 -0.65809286 0.43637422 -0.26063606 0.20282233 0.1665216 0.3669993 -0.74337775 -0.45332584 0.66943634 0.23022217 0.263897
141142 -0.008089317 -0.46042144 -0.6109993 0.38760358 0.04022083 0.36786294 -0.20190538 -0.3755318 0.1561571 -1.4992992 0.40700197 0.21861842 -0.1621369 0.87453234 -0.30199802 -0.40618116 -0.65878254 -0.15258513 0.8911769 0.051004358 0.13817371 0.19495349 0.21768975 -0.14971459 0.53696465 -0.16155939 -0.033099107 -0.42750892 0.18665993 -0.47166312 0.5140004 0.32346404 -0.28165573 -0.42214203 0.20090325 -0.7686323 0.16182001 0.09521808 -0.2647437 -0.050017655 0.3564341 -0.2688483 0.29580548 0.09503513 0.55255836 0.2800672 -0.09170277 0.34539095 0.17540205 -0.5078152 -0.258054 -0.18325189 0.3458042 0.9285472 -0.07555471 -0.512848 -0.4522983 -0.81253576 0.09150928 0.08887147 0.7505924 0.37945372 0.5214698 -0.12210761
144070 0.42984757 0.29515952 -0.8898461 0.43052724 0.3651681 0.26972222 -0.35749778 -0.32332855 -0.6096138 -0.24590911 0.22025141 0.36395335 0.4459822 -0.50947464 -0.47280782 -0.13545194 -0.032252897 -0.463075 0.298873 -0.012740946 -0.5257466 -0.08783078 0.3546033 0.06845864 -0.6512013 -0.058132418 0.20517522 0.1944714 0.27253717 -0.07161708 -0.08958001 0.42587128 0.00943287 -0.11317281 0.059196554 0.025724683 0.3241744 0.3021546 0.7091853 -0.26306483 0.091960564 -0.14080171 -0.1502383 0.5359365 0.3885229 0.40125462 -0.7457422 0.20921002 -0.36758062 -0.04089244 -0.10684598 -0.5678923 -0.8584504 -0.6594221 -0.2215068 -0.15283753 0.3138381 -0.66675824 -0.08114881 -0.18058403 -0.12814473 0.58574474 -0.2916884 0.7033902
143672 0.22519217 -0.39518255 -0.9325115 -0.021845974 0.33734775 -0.010543925 -1.1089531 -0.046525005 0.9891676 -0.8848981 -0.4968431 1.112779 -0.5882002 0.77880853 -0.8225945 -0.4156359 -0.44379368 1.011305 0.8348595 -0.15948193 -0.33651146 -0.101217896 0.9999651 0.41535497 -0.7788659 0.049730953 -0.6125861 -0.31493574 0.052791078 -0.014722367 -0.16944686 0.23745291 0.41018984 1.0947087 -0.17329457 -0.19429156 -0.15469639 -0.81406426 -0.28110188 -1.0403106 0.35415623 1.4403228 -0.08414057 0.38850972 -0.24110971 -0.13276087 0.17831497 -0.09190341 0.500971 -0.8659187 -1.5588048 -1.9312801 -0.51500434 -0.79493785 -0.348542 -0.07059138 0.18496048 -0.15087608 -0.019678596 -0.78646517 -0.829504 -0.13848603 -0.67440015 -0.43252692
144153 -0.28992772 -0.9087061 -0.58780646 0.24520558 0.2416963 -0.5487054 -0.076149955 -0.5798235 0.66228575 -0.77793765 -0.22165047 0.15944307 0.7710491 1.0669757 -0.008898759 0.66781336 -0.30782536 -0.37417752 0.08521468 0.39247352 -0.2096425 0.27923155 -0.20199215 0.9089679 0.6754459 0.29193175 -0.5252797 -0.25945023 -0.34551394 -0.341267 0.49025536 0.20693465 -0.11906891 -0.34976542 0.024137827 -0.9635103 -0.14018556 0.023940964 -0.48980084 -0.40809605 -0.2526361 0.5304219 -0.63273805 -0.1829828 -0.34623316 0.6997898 -0.10299175 0.6913672 0.29439652 -0.25968382 -0.17418317 -0.40588194 -0.2129494 0.41643053 -0.33103627 -0.31741118 -0.8245814 0.35160908 0.6902386 -0.5798587 0.72383815 0.7301514 0.24698485 -0.5296827
144848 0.44263595 -0.4472751 -0.7344117 0.2780714 -0.33995226 -0.54472536 0.07579736 0.26350945 -0.4837827 -0.31323078 -0.48391253 0.35695964 0.30218482 0.90342176 -1.2029951 0.26568985 -0.76171464 -0.21894525 0.22261919 0.36665434 0.19553068 -0.008733287 -0.62896293 0.46584713 0.2903281 0.003068594 0.04155261 -1.0914865 -0.45835322 0.44074774 0.037272222 -0.44828823 -0.2672402 -0.0072959755 -0.11209139 -0.58203804 0.05635411 -0.17679654 -0.13110687 0.330778 0.5430472 0.42281723 -0.55635977 0.31423113 0.32091454 0.22741587 -0.60583407 0.6240524 -0.08253151 0.3989893 -0.16817755 0.18584144 -0.24758078 -0.3162438 -0.027043082 -0.15028413 -0.60445994 0.13849233 0.85454273 0.106603235 -0.36024487 0.022417592 0.18668176 -0.60936683
143471 0.09199521 -0.14726052 -0.19869192 -0.30147445 0.06632208 -0.5684144 0.6854973 0.43437606 -0.08594043 -0.5886475 -0.4079931 0.24351588 0.18071061 -0.09299987 0.6449941 -0.7512662 0.62238175 -0.17742011 1.4798087 -0.62492424 0.12121501 0.33948603 0.33626926 0.40861875 0.2216062 -0.31700256 -0.23483369 -0.16432917 -1.0607122 -0.25072432 0.21441177 -0.68481773 -0.16501942 0.94570094 -9.891231e-05 0.06253052 0.06027263 -0.14833888 0.42808887 -0.33017984 -0.365966 0.4722765 -1.0485104 0.92813253 0.69725835 0.99675846 -0.16405416 -0.09536738 0.022968818 0.13814111 -0.035507742 -1.2129809 -0.20553565 0.51978505 0.12378278 -1.099178 0.6429807 -0.50661886 0.07190619 -0.23813652 -0.6084074 0.090679124 0.12698732 0.04897526
148228 0.661039 -0.23879234 -0.05569643 -0.13607593 -0.013926373 0.5379342 -0.15941834 -0.32898837 -0.3741925 -1.1414937 -0.84467053 0.46425793 0.055212148 -0.15657541 -0.41684186 0.5157994 0.4935465 -0.62006384 -0.41957894 -0.7659325 0.13909104 -0.6111728 -0.32988402 -0.21883443 -0.045620877 -0.092728905 0.3523643 0.23233278 0.9549982 -0.1944552 0.48435608 0.56349975 -0.020388203 -0.26440874 -0.14092319 0.4898609 -0.46604118 0.7798738 -0.020342251 0.13367303 -0.11860962 -0.12883052 -1.1134303 -0.648305 0.24445358 1.0527834 -0.29848984 0.8524626 -0.2999521 -0.24034743 0.04174672 -0.4467683 -0.062135343 -0.0016521601 0.5967246 0.00031174606 0.11600878 0.07403073 0.58048916 0.013209349 0.15150647 0.43845516 0.14928618 -0.053465173
