119 64
5547 0.118343376 -0.06617106 0.109627426 0.5428505 0.023016531 0.22122769 -0.07728439 -0.42387533 0.15992281 -0.009878055 -0.44725436 0.06721286 0.179222 0.15747005 0.28396532 0.08456234 0.16515522 -0.3579118 0.36663958 0.41032255 0.008126612 -0.3664006 0.025696505 0.09382157 -0.08016387 0.0938585 0.034845997 -0.4566864 -0.045830842 0.28455263 -0.24120161 -0.19186814 -0.04114164 -0.32986933 0.32921797 -0.22948144 0.107440874 -0.13127874 0.35619825 0.6755285 -0.1197476 0.0780508 -0.0998741 -0.06579517 -0.1944007 0.2267061 -0.06270661 0.4261963 -0.11955179 0.13297635 0.11836244 0.06771666 -0.011254291 -0.016921025 0.01939732 0.27433115 0.30718613 -0.026582966 0.23983173 -0.1982943 -0.04499307 -0.021678435 -0.26987693 -0.85034865
5453 -0.051887996 -0.13298681 0.2219468 -0.09571535 -0.11187939 0.16274162 0.11101123 -0.35336334 -0.10016341 -0.037493467 -0.1286259 0.21165763 0.15980375 -0.15450235 0.3868346 0.11855188 0.3281608 -0.5385457 0.04821083 0.041073434 -0.10256295 -0.06439041 -0.16850768 -0.07512415 0.52871925 0.06898737 0.55669636 0.07042485 -0.3073219 0.23647064 0.37590024 0.17832996 0.17704266 0.26357272 -0.10632249 -0.5602745 0.8439187 0.06721201 -0.052334256 -0.06646449 0.4009225 0.06711187 0.17447583 0.6860936 -0.22759955 -0.1268857 -0.3961163 0.52830374 0.544858 0.36184496 -0.6068732 -0.07537872 0.107030764 0.12650816 0.2753622 0.24807532 0.13868494 0.16935387 0.1945865 -0.17666313 0.03961102 -0.573722 0.26011765 -0.037932456
3314 -0.058439624 -0.25735763 -0.4933159 -0.03508559 0.10875735 0.0145680625 0.2503797 -0.20360745 0.50160533 -0.21343327 -0.26761472 -0.24041514 0.55093026 -0.080393925 -0.103343725 0.13032074 0.77533525 0.13534226 0.7798224 0.3421696 -0.03864089 0.124084555 0.23478462 -0.4439615 0.29577485 -0.036558848 -0.012404413 -0.7058917 0.30607298 0.7193399 -0.045833804 -0.07514684 -0.067647405 -0.121998206 -0.18229835 -0.6772976 -0.1264026 -0.48295888 -0.28365886 0.6103103 0.39144924 0.17082763 0.0067943824 0.48532686 0.041817106 0.17942944 -0.078448154 -0.008960862 0.5987085 -0.1712448 0.14396389 0.031323057 0.22902763 -0.04473687 -0.27823582 -0.29421854 -0.02252477 -0.7048465 -0.23332812 0.30086884 0.46827212 -0.20606808 -0.24643017 -0.26292267
3865 0.31296483 0.22719933 0.5084732 0.2964275 0.10793162 0.06798262 0.10144889 -0.68764114 0.40637854 0.48803493 -0.9941482 -0.28647825 0.4095609 0.47996196 0.07742247 0.51181084 0.06450478 -0.6509421 0.6528949 0.33693302 0.5482036 -0.6200751 -0.19531463 0.20326784 -0.31911477 -0.3015172 0.35775596 -0.1809365 -0.04687508 0.1557211 -0.15173441 -0.7460287 0.40250126 0.06823938 0.12968598 -0.49641794 0.15683986 0.13628416 -0.02312073 0.9873587 -0.17867534 -0.3001275 -0.2929409 0.11153027 0.54920316 0.48835394 -0.1115746 -0.4301079 -0.26869106 0.8633086 0.57573634 0.022271123 -0.07971576 -0.31592512 -0.39409328 0.1967702 0.83425313 0.045348167 -0.35205355 -0.12855516 0.23777899 0.036602076 0.006557301 -0.43565845
246 0.12081659 -0.15837061 0.2961034 -0.2525148 0.055847935 -0.08660535 -0.0021499312 0.046749905 0.014286036 0.08355114 -0.3998949 -0.4533272 0.64715284 -0.1795737 -0.0013557737 0.43318355 0.34713817 -0.31198126 0.5005123 0.05171642 0.50880414 0.4877215 -0.07937301 -0.27164817 0.31184104 -0.18996413 0.12885962 -0.24058239 0.1133407 0.5995235 0.15028207 0.07161559 -0.09993775 0.3265425 -0.40780896 -0.3005594 0.33631682 -0.1971203 -0.0876797 -0.10096714 0.68293405 0.087212116 0.032974396 0.45684645 -0.027634578 0.18692997 -0.120758034 0.07289611 0.6742101 -0.22315693 -0.15264174 0.13601996 0.01013515 0.0046230946 -0.18399832 -0.46717653 0.06312089 0.02657484 -0.20295075 0.48902676 0.49104017 -0.5306633 0.22226872 -0.032824755
4299 0.22564107 -0.4966824 0.25720888 0.68638855 -0.07461357 0.31861725 0.09243792 -0.1319024 0.2688697 0.37352479 -0.33610132 -0.08946684 0.43739653 0.45253363 0.44956478 0.42657948 -0.08120744 -0.58553296 0.4304816 -0.076130144 0.059287895 -0.38809085 -0.051643766 0.07858334 -0.009966731 0.5777979 0.13361135 -0.62753457 -0.21199703 0.5986153 -0.5350278 -0.35794717 -0.58047664 -0.17503795 0.1121131 -0.86242914 0.3848736 0.047454786 0.77292264 0.36649275 -0.13670275 -0.18030335 -0.6170733 0.5083078 -0.2461618 -0.35363388 -0.06507964 0.67006 -0.2562248 0.02140632 0.7320872 -0.26496372 0.46875012 -0.17066786 -0.2602413 -0.15324752 0.21062088 0.21865115 0.09807177 0.27817565 0.05690104 -0.09220531 -0.44461897 -0.7969314
7179 0.1312065 -0.6057962 -0.1365418 0.14127104 -0.17071964 0.5096875 -0.043156896 -0.4821274 0.3989751 0.32839024 0.06458399 0.32562637 0.022481706 0.5114616 -0.07447504 0.24453962 0.17713812 -0.16955818 0.1675031 -0.039394487 -0.036831375 -0.39687875 0.23445706 0.07281998 -0.0038145343 0.17048408 0.35202628 -0.6271336 -0.0085716825 0.05674973 -0.029937088 -0.0010135344 0.058506425 -0.27753332 -0.13613151 -0.44824222 0.46687222 -0.27877146 0.5179303 0.1485536 -0.1656877 0.0833409 -0.05930395 0.5033205 -0.2744565 -0.24293418 -0.14445838 0.45046386 0.0061750715 0.029396595 0.07534913 0.011962056 0.52483845 0.3956827 0.08722071 0.11291814 -0.044398874 0.165839 0.11715984 0.42680752 0.19243309 0.07757535 0.051511593 -0.55867904
3981 -0.85992163 0.31817526 0.5390075 -0.7680281 0.16379224 0.07464649 0.025335662 -0.025695154 -0.6154124 -0.29870602 -0.40977535 0.2588097 0.8735564 -0.03783961 0.07198571 0.45407417 0.8448944 0.4205999 0.9714506 0.66128653 -0.5053509 -0.38312522 0.47213435 -0.08056329 1.0406626 0.033081472 0.22696501 -1.5250071 0.84617335 0.28946102 0.9276268 -0.08788062 0.6369226 0.66401565 -0.05609685 -0.05728906 -0.015591277 -0.016222682 -1.1021906 0.71364367 -0.42871234 -0.764478 0.6743664 0.12766226 0.15971886 0.4367448 -0.9165298 1.4829991 0.26382387 -0.88882697 -0.4520127 0.0919188 0.27847344 0.16018863 -0.3980821 0.23108779 0.22503422 1.3924353 0.39133462 -0.24052882 0.53138876 -0.22358398 -0.34470567 -0.13943079
4133 0.32949027 -0.35099438 0.3430488 0.30567157 -0.17124441 0.11323623 0.2971107 -0.5015597 -0.14804892 0.19266428 -0.030174801 -0.21914916 0.100307964 0.14988764 0.36976725 0.09419539 0.36526766 -0.13745433 -0.17240247 0.58689326 -0.1958957 0.20275989 0.12999931 0.22556208 0.42835647 -0.033331387 0.1566548 -0.0054561878 0.077685185 0.08161181 0.045135044 -0.23083442 0.13725883 0.026390934 0.4219711 -0.49376348 0.6181871 0.25123292 0.008347537 0.09179312 0.2837562 -0.07593292 0.23309667 0.14247203 -0.28388822 -0.068181254 0.10036406 0.5143356 0.4960119 0.18048143 -0.24498463 -0.2555273 0.19217968 0.08797305 0.031105103 0.009392229 0.38480717 0.26289588 0.30952668 -0.5145454 -0.3662347 -0.17764124 -0.30390906 -0.24952285
177 -0.053099263 -0.185415 -0.36940914 -0.2184971 -0.2561202 0.14059453 0.15628184 -0.33397564 0.22014643 0.047726203 -0.294147 0.16758685 0.5082444 0.343847 0.12008957 0.3506524 0.8525657 -0.10204731 0.34932283 -0.20164858 0.10520725 0.34616107 -0.2643221 0.035576247 0.3511572 -0.024480265 0.07260308 -0.19420353 0.7110711 -0.29005793 -0.07188394 0.09934369 0.30123314 0.11183395 -0.26901007 -0.24439444 0.60950255 -0.20235883 0.28807476 0.11520232 0.29723394 0.43147722 0.13182065 0.39254713 -0.8305365 0.0130564915 -0.18129778 0.22099994 0.66021985 -0.11710798 -0.6452869 -0.13617535 0.35672688 0.3701493 0.4789546 -0.13996606 -0.5494004 0.17606904 -0.07293301 0.120094195 0.17838547 -0.4416514 0.4070928 -0.24443159
5232 -0.1757902 -0.09713705 0.009342556 -0.46904352 -0.2884046 0.14205253 0.23214407 -0.37882832 0.38542962 0.08240021 -0.5766117 0.09875679 0.3996378 0.23237154 0.6217447 0.4721745 1.0352365 -0.6663748 0.56574875 -0.12021168 0.35527492 0.15553725 -0.30447462 0.18463062 0.52738076 0.10862554 0.54130507 0.38751233 0.122934036 -0.63828707 0.50182813 0.12454858 0.27429053 0.35565656 0.26035622 -0.30192983 1.0417045 0.056274213 -0.0034007563 0.25989273 0.31586498 0.4148154 -0.10587859 0.5584152 -0.1820338 -0.22681358 -0.32045707 -0.3912128 0.41312498 -0.05906388 -0.421548 -0.35334218 0.09538124 -0.013657501 0.20428957 0.19306935 -0.18283676 -0.16260135 0.029876089 -0.6135543 -0.112085424 -0.7973441 0.98978364 -0.34929252
800 0.17297658 -0.6264758 -0.04670746 0.18545541 -0.31416553 0.43984887 -0.049810797 -0.20063284 0.4713624 0.4629829 -0.2667855 0.2664231 0.21392286 0.52817345 0.15048714 0.4371239 0.06362902 -0.1416484 0.29842997 0.028578667 0.15373677 -0.19063416 0.10912541 0.16016033 0.13356617 0.18126777 0.18198352 -0.6743936 0.021002306 0.16100183 -0.417221 -0.22868909 -0.04997438 -0.20095015 -0.028221572 -0.55093 0.5874565 -0.21710023 0.8041106 0.5041225 -0.3014436 -0.057711706 -0.26368716 0.20841967 -0.22734845 -0.3730086 -0.20832309 0.55289835 -0.17824605 -0.022956062 0.7535058 -0.34239456 0.5199654 -0.087674834 -0.054395575 -0.34657612 0.23646596 0.3153665 0.19285078 0.25326937 -0.046943273 0.11922456 -0.25810206 -0.97462136
3170 -0.43189242 -0.22962822 -0.15124981 0.62437487 0.5215942 0.378974 0.3495075 -0.5341435 0.8071561 0.8010482 -0.62616944 0.08050801 0.035776317 0.56359184 0.3702853 0.57969654 0.19441651 -0.72046137 1.0002643 0.04049221 0.47328827 -0.75317043 0.14084928 0.29904616 -0.09475079 0.14257789 0.23455657 -0.17475556 -0.29608962 0.24045657 -0.13266306 -0.046242267 0.2683866 -0.49398908 -0.29024243 -0.7670474 -0.17273659 -0.5661152 0.6811184 0.7119018 -0.12914954 0.14785753 -0.18725179 0.3388118 0.1900117 0.19390012 -0.16194905 -0.23356588 -0.21809503 0.6419621 0.021256357 0.0012908692 0.11732187 -0.033230577 -0.42219314 0.31779522 0.37762535 0.26762682 -0.10785974 -0.11656969 0.20986691 0.16924404 0.07308259 -0.54158807
932 -0.39234054 -0.17344528 0.17697471 0.27352124 -0.47650737 0.19968338 0.058008723 -0.25372478 -0.347937 -0.37340155 0.105205365 0.04880048 0.5792383 0.5552568 0.30145878 0.27240017 0.81024545 -0.9961536 -0.02729566 0.2112493 0.0024912823 -0.23549627 -0.1681106 -0.060827058 0.17245764 0.33426178 1.0054334 -0.14362521 -0.08615727 0.18043381 0.50498116 6.634474e-05 0.09897301 0.4542467 -0.35838765 -0.5345943 1.1739664 0.07875904 0.070220605 -0.51848847 0.77725554 -0.57886565 0.03772794 0.71255946 0.13287792 -0.3110885 -0.8103521 0.82780147 0.40193698 0.23787013 -1.0238643 0.18249097 0.38538978 0.8008822 0.3739265 0.7341224 0.09934856 0.27770513 -0.36992756 -0.36366925 0.42591155 -0.98914266 0.34031498 0.2297907
3983 -0.71187085 0.2831714 0.47399095 -0.7053476 -0.023708627 -0.045861844 0.10813964 0.12092177 -0.66753536 -0.5587936 -0.35536453 -0.07315135 1.1244692 0.18606663 0.2766932 0.26416475 0.87443835 0.49812496 0.71083295 0.90293974 -0.3112326 -0.35344514 0.4051648 -0.04739398 1.1330175 0.18490775 0.022919126 -1.601364 0.890927 0.36564913 0.71235955 -0.2691302 0.37249768 0.5774163 0.16037935 -0.18207 -0.09831846 0.16843426 -1.153646 0.5625905 -0.27887076 -0.8688931 0.6168229 -0.059902288 0.23603082 0.16006862 -0.71290696 1.5253763 0.26849455 -1.0584474 -0.5509752 0.19914767 0.28872672 0.22592476 -0.3177652 0.10075586 0.12532578 1.1015192 0.15392067 -0.37753868 0.6247564 -0.33644754 -0.53471345 -0.21302119
4790 0.3208091 -0.1034955 0.36646086 -0.6773977 -0.34468797 -0.14112401 0.28117406 -0.38980666 -0.45346326 0.067639746 -0.13817854 0.4482033 0.57400113 0.034029942 0.2544054 -0.12958072 0.20196667 -0.68617463 -0.20273882 0.01516458 0.6295117 -0.4271581 -0.35973507 -0.26905087 0.9284615 -0.027926141 0.737772 -0.19150932 -0.41100934 0.103365175 0.0030905285 -0.07465267 0.72183996 0.52219987 -0.23955718 -0.7857867 1.1064831 0.13097894 -0.38085246 0.33901972 0.89492136 0.052651454 0.09905851 0.5825128 0.02488626 -0.657357 -0.13180494 0.74360645 0.7241742 0.11993659 -0.17249273 -0.24383149 0.58852106 0.34881553 -0.20163748 0.10658255 0.3276696 -0.6780197 0.0104413405 -0.06997541 -0.34646496 -0.74158883 0.5864638 -0.06445738
5661 -0.09568882 -0.18722072 0.533158 -0.6778197 0.14147623 -0.21105447 -0.04156365 0.07501068 0.10909214 0.39344335 -0.98079866 -0.4567921 0.9739067 0.17805448 0.08182296 0.777594 0.5618195 -0.27695486 0.6673635 -0.26205286 0.7842806 0.40659568 0.04162494 -0.10404897 0.17254625 -0.23725219 0.0022199072 -0.21871245 0.53654295 0.023371814 0.01917763 -0.025098544 0.16653664 0.6666124 -0.44084242 -0.059502743 0.2840088 -0.14758377 0.06882593 0.013818261 0.67394596 0.16511914 -0.08176155 0.19959301 -0.27708393 0.26687434 -0.31139383 -0.11230086 0.7703528 -0.49277034 -0.46703723 0.066858955 0.14857675 0.13758095 -0.011080202 -0.442555 -0.3593658 0.4971791 -0.18917102 0.3804738 0.47056583 -0.59494406 0.7475336 -0.23063193
3652 0.22984163 -0.110754825 0.7536249 0.48707297 0.13136823 0.033581633 -0.12734094 -0.13881548 0.20210321 0.36480364 -0.93877023 -0.06473343 0.75490916 0.6735833 0.16454214 0.4607785 -0.16711666 -0.86239964 0.62925977 0.13102461 0.53006697 -0.5631649 -0.032057263 -0.0984857 -0.34309506 0.23755714 0.08966732 -0.29691657 -0.08216989 0.4033665 -0.6412745 -0.8362295 -0.24054962 0.38824898 0.21855906 -0.50556654 0.33263353 0.2974787 0.491052 0.69523543 -0.03358189 -0.48401308 -0.47413164 0.12847243 0.29960892 0.13080505 -0.11623217 -0.32609248 -0.29949325 0.2741557 0.6161486 -0.18268092 0.06953007 -0.15998007 -0.19230698 0.028136801 0.7109663 0.095906116 0.0071630306 -0.012629162 0.045446087 -0.06633978 -0.18231472 -0.59665185
3315 0.037022468 -0.3647716 -0.20130901 -0.22994998 0.09998708 -0.070217825 -0.17401133 -0.304444 0.35628927 -0.18141258 -0.7619883 -0.61620575 0.7281876 -0.37450472 -0.27287763 0.282294 0.84245545 0.11994622 0.8397648 0.2654772 0.0142014185 0.39902583 0.10034133 -0.5701619 0.17032766 -0.22956277 0.080089524 -0.43113676 0.26287726 0.72836024 0.23811983 -0.2282417 -0.08112823 -0.044101536 -0.34894237 -0.5455341 -0.18242335 -0.4597051 -0.5099583 0.46692812 0.5210984 0.21995313 -0.026054 0.35510063 0.05664981 0.603953 -0.04052073 -0.05256079 0.6549131 -0.2113461 0.12807627 0.076623216 0.01742227 -0.01848864 -0.16510752 -0.3495083 0.107997246 -0.4171435 -0.43506312 0.458712 0.80100197 -0.4899756 0.18187007 -0.38644597
4286 0.22259744 0.15170754 0.07075159 0.1735301 0.11751018 0.6124927 -0.0062626107 -0.57938194 0.22899583 0.56526047 -1.0189923 -0.042026766 0.5658005 0.4745201 0.8011152 0.08659686 0.068967745 -0.24828826 0.37463012 0.8132776 0.43390888 -0.5346954 -0.24498828 0.35877308 0.7179154 0.44319293 -0.25903738 -0.67610604 -0.3882762 0.12597977 0.08667302 -0.51421726 -0.38080677 -0.68234986 0.5699749 -0.88311714 -0.29108986 -0.10949367 0.2317887 0.85252446 -0.33222497 -0.35613295 0.26173472 0.1224995 -0.42169842 -0.037694965 0.6119764 0.44200432 -0.5007895 -0.12785208 -0.2149821 0.62997353 0.19611362 0.006509237 -0.17115709 0.015142513 0.16946164 -0.05509462 0.50569415 -0.08184624 0.5627588 0.3881777 -0.16402459 -1.0213428
328 0.004168963 -0.48616293 -0.26860562 0.5236624 -0.09624571 0.17839415 0.35175198 -0.1115617 0.45326078 0.3085957 0.17991425 -0.100650765 0.33474848 0.6455581 0.3206215 0.34664395 0.28665 -0.31482294 0.5730516 -0.22073993 0.10006086 -0.29868975 0.039291155 0.13488764 0.04812358 0.44405812 0.21739817 -0.6676709 0.10270147 0.289165 -0.40889758 -0.117625944 -0.28905004 -0.25160834 -0.2770768 -0.75688106 0.016641216 -0.16327725 0.38292098 0.26061445 -0.0053782226 -0.13080284 -0.39148107 0.56291306 0.0809961 -0.5765186 -0.042276233 0.23989217 -0.20662388 -0.024061354 0.4556426 -0.032661557 0.62875146 0.13878259 -0.579735 -0.15324391 -0.14493932 -0.13812082 -0.05247712 0.291246 0.14893971 0.16756019 -0.031474307 -0.062448345
6032 0.14063299 -0.19192778 0.20965251 -0.21640453 -0.047484122 0.26630095 0.45715064 -0.043986466 0.3977794 0.38208836 -0.32140666 -0.21066543 0.52446955 0.3584573 0.3166526 0.51937276 0.5981728 -0.21616478 0.19916415 -0.17805338 0.1780838 0.18591256 -0.10680727 0.28091782 0.36655727 0.022056088 0.06091385 -0.13031247 0.32524556 -0.50315475 -0.2205184 -0.16757561 0.26162744 0.44418597 0.37352863 -0.4521785 0.93721133 0.007650613 0.410499 0.018056424 0.48317683 0.22175233 -0.16620283 0.73736554 -0.86421037 -0.5124015 -0.008546447 0.22781268 0.88368905 -0.15233071 -0.50615346 -0.3948261 0.68787277 0.0154062705 0.4000998 -0.039949216 -0.4704483 0.14872552 0.2190621 -0.19696195 -0.18332145 -0.2865776 0.44376752 -0.39481592
1933 -0.3137276 -0.2572327 -0.42514673 -0.09056818 0.006852166 0.099344045 0.054698516 -0.023063168 0.5502915 -0.36455095 -0.389269 -0.14127022 0.53686714 0.2648528 0.06122937 0.14447217 0.7886138 0.12249945 0.7273492 0.2113205 0.30157533 0.01383684 0.19246304 0.038874056 0.44563425 0.083198674 -0.28710148 -0.5598844 0.49972075 0.1269857 -0.25935438 -0.052270185 0.16162896 -0.32929504 0.06351353 -0.26571965 -0.13870217 -0.3734461 -0.016916938 0.52367455 0.038639527 0.5327108 0.020285226 -0.123136215 -0.036383487 -0.053267628 -0.045604393 -0.07610568 0.30020824 -0.5640379 -0.013269882 -0.14705285 -0.14726321 -0.06662101 0.12907188 -0.22209014 -0.1277549 -0.328322 -0.32006767 -0.25229686 0.298628 -0.18472941 -0.13683048 -0.88702416
395 -0.005042227 0.25499704 -0.17004094 0.22727498 0.011234475 -0.016939232 0.46883127 -0.19140619 0.26277608 -0.09184777 -0.0031895288 0.3542176 0.14804469 0.107482225 0.49533188 0.17490624 0.26230785 -0.457965 0.36877525 0.31230938 -0.12998411 -0.026664192 -0.04370457 -0.18621768 0.23494723 0.1268699 0.135896 -0.24689083 0.13929063 0.5050797 -0.020055914 0.19718629 -0.09755945 0.19077638 -0.060638744 -0.33103245 0.5660041 -0.06473261 0.14760084 0.3062879 0.0879973 -0.043669548 0.21234666 0.5231523 -0.2410462 0.24808224 -0.51740515 0.058096625 0.29189384 0.51732 -0.55788183 0.22656335 -0.0065364772 0.07614804 0.2766312 0.088976726 0.07620935 -0.31345072 0.1619234 -0.041940417 -0.0104503855 -0.3213701 -0.19413002 0.14739384
3980 -0.73052067 0.38969597 0.5004138 -0.60090625 0.035744287 -0.064595595 0.11609944 0.008810275 -0.7603787 -0.4612389 -0.23708262 0.005277992 0.9952508 0.13977651 0.15010147 0.2878914 0.8012249 0.37261197 0.7190664 0.80100834 -0.30011955 -0.40700045 0.35834464 -0.044928998 0.98290735 0.12936157 0.18674003 -1.4896756 0.8449384 0.36801556 0.7949265 -0.17723195 0.48473167 0.56615025 -0.019258564 -0.09507191 -0.09151808 0.100542314 -1.123554 0.56056917 -0.2967269 -0.82765007 0.5785765 0.031457074 0.33150426 0.25819907 -0.74318475 1.4861927 0.20812511 -0.9296992 -0.43311822 0.17088298 0.33011237 0.26471052 -0.43697923 0.19842951 0.21861464 1.1475507 0.07641356 -0.2675057 0.560633 -0.3801695 -0.48951098 -0.04028949
3984 -0.76399636 0.42649707 0.4441504 -0.49325845 0.056993224 -0.069518685 0.17780618 -0.0073973485 -0.77773875 -0.55360466 -0.1928246 0.029093208 0.9971275 0.139618 0.15743653 0.22973561 0.8804684 0.37235248 0.76991147 0.8575377 -0.39131615 -0.4023075 0.33307454 -0.06915126 0.96744585 0.20441432 0.12380624 -1.4910839 0.90429634 0.40240902 0.7681014 -0.17419979 0.44136012 0.5532887 0.069897056 -0.099983364 -0.05870237 0.12182621 -1.094522 0.6028413 -0.3199736 -0.81954515 0.5805273 0.034694888 0.28472325 0.3207428 -0.74825335 1.5209922 0.21255177 -0.9444489 -0.45388803 0.09410474 0.3244662 0.2775737 -0.41031656 0.24099155 0.23060657 1.1316663 0.041363355 -0.33161917 0.5456086 -0.44680402 -0.6072106 -0.05251549
2979 -0.0010363966 -0.09338042 0.21100731 -0.5371433 -0.20890442 0.30896983 0.12273924 -0.09694537 -0.09982206 0.17762707 -0.33142903 -0.35845423 0.3417523 -0.23542835 -0.051502757 0.45449433 0.3555536 -0.15198794 0.113009356 0.05609814 0.77904934 0.38087562 -0.058948345 -0.055447694 0.65936726 -0.28910667 0.49680626 0.042800516 -0.4653838 0.53455937 0.7454244 0.16812396 0.375459 0.4945675 -0.36561462 -0.5285562 0.6637607 -0.16904683 -0.099079706 -0.15027797 0.8205441 0.039560378 0.16866717 0.60984945 0.2920652 -0.13368653 -0.26542136 0.37032968 0.73276716 -0.05033631 -0.20882525 0.012153091 -0.22705594 -0.3579554 -0.28490752 -0.4183646 0.38812652 0.2389806 -0.12971549 0.3329982 0.41750148 -0.4720066 0.15299855 -0.15214343
8886 -0.042471144 -0.16284487 0.2825737 -0.31855166 0.0027372134 0.44894898 0.26951268 0.0990212 0.46583632 0.1800668 -0.55717874 -0.47368473 0.52856916 0.14961247 0.43071407 0.6018222 0.75716436 -0.5140462 0.37197787 -0.2391745 0.25867552 0.09881214 -0.24797669 0.38478777 0.49495354 0.14364432 0.3416658 0.08594818 -0.07243153 -0.6477454 0.20069951 -0.03313063 0.15931825 0.33642614 0.46738765 -0.5544381 1.0231813 -0.040167782 0.18019883 -0.13326924 0.5712011 0.3261463 -0.39272642 0.924774 -0.63690776 -0.6178438 -0.08145098 0.067322984 0.7571494 -0.28931737 -0.58838046 -0.29905382 0.42779478 -0.26953804 0.47217694 0.17770281 -0.5179532 0.030667277 0.0596481 -0.48555866 0.019916534 -0.5590497 0.82403094 -0.54420286
1305 -0.1188438 -0.053644657 0.13126798 -0.14469041 -0.2398571 0.33946952 0.3197336 0.17268361 0.25559038 -0.11856361 -0.07387072 -0.5620813 0.45869958 0.056772202 0.5537193 0.5610987 0.7359982 -0.60319126 0.13707034 -0.27284566 0.25946 -0.17611273 -0.37493086 0.50465995 0.42349404 0.12476562 0.60246 -0.23217672 -0.25319803 -0.4804684 0.3312477 0.07344836 0.11046983 0.09160001 0.21884975 -0.5975758 0.8736122 0.02496381 0.102923185 -0.2715941 0.6082481 0.1080525 -0.562041 0.9306161 -0.42014974 -0.93318504 -0.2590773 0.58008504 0.50740147 -0.03080938 -0.4027022 -0.042213153 0.45938978 -0.32843223 0.27664956 0.370971 -0.6747699 -0.12389947 -0.16982949 -0.5357324 0.12331829 -0.58718157 0.45886096 -0.34898147
3018 -0.066521 -0.4369763 0.7347035 -0.35211283 0.23849292 -0.25553367 -0.13305597 0.07149738 -0.016082888 0.25216764 -0.79895073 -0.6760393 1.1039199 0.04413304 -0.0718646 0.7185474 0.49487752 -0.44198427 0.8229803 -0.026104916 0.80233073 0.5941969 0.35964817 -0.34129724 0.21426155 -0.13049456 0.013218777 -0.42609763 0.47297454 0.74559927 0.021571264 0.05899892 -0.07981981 0.6139501 -0.54464895 -0.1791101 0.22891635 -0.26901776 0.05252751 -0.19718896 0.869056 0.18687165 -0.02903942 0.20534319 0.0069501996 0.47287655 -0.33597085 0.07693917 0.9344443 -0.74699163 -0.33338282 0.102139704 0.03377322 0.33697495 -0.23101537 -0.53418696 0.048237357 0.52714664 -0.31752658 0.68301016 0.6325233 -0.8837377 0.44603196 -0.30169874
5622 0.28022358 0.06605139 0.6512704 0.4305509 0.034521177 -0.10539406 0.083321266 -0.31845814 0.16644701 0.39216462 -1.1244513 -0.113929376 0.8192378 0.81896055 0.23318739 0.42419887 0.050547536 -1.061738 0.5950679 0.34354162 0.90893877 -0.64364135 -0.2196639 -0.10174638 -0.32538882 0.09345968 0.37140435 -0.0525818 -0.060740747 0.24430774 -0.5253501 -1.0221784 0.05711498 0.41307354 0.14577115 -0.6800214 0.5156462 0.31960922 0.30837184 1.0176144 0.14086404 -0.5266717 -0.5824091 0.07556933 0.6842102 0.18723488 -0.0848151 -0.58874357 -0.3142653 0.47448424 0.8022892 -0.3299351 0.14454573 -0.17654012 -0.43973905 0.064865276 1.0193119 -0.24751349 -0.50835073 -0.25001043 -0.03666061 -0.45821303 -0.12452634 -0.55963635
3221 -0.08901701 -0.5316324 0.22470658 -0.4385984 -0.12006681 -0.21372713 -0.15245585 -0.87493104 0.2490634 0.31419837 -1.0120549 -0.05731656 0.65843624 0.1441119 0.28885427 0.7029421 1.4075617 -0.5214492 0.7520591 -0.6084016 0.41832805 0.29763585 -0.09271756 0.0466784 0.12045764 -0.15900949 0.5987743 0.089367 0.53478855 -0.56517166 0.33991015 0.16082914 0.5136381 0.26426703 -0.3012359 -0.005847027 0.45003128 -0.08153579 0.16601437 0.32932553 0.56172055 0.71954036 -0.13039896 0.19557504 -0.61720437 0.2975588 -0.3854384 -0.230991 0.63654524 -0.0911249 -0.5863958 -0.20186792 0.20018588 0.4091185 0.1455806 0.1805417 -0.7252918 0.40492737 -0.021555101 -0.05727745 0.24561098 -0.81733274 1.3964279 -0.4928007
3982 -0.73382705 0.47289625 0.4657479 -0.6520172 0.091824904 -0.035462674 0.1515125 -0.0047647497 -0.688347 -0.43611026 -0.2941143 0.0161497 1.0114475 0.06396033 0.14701517 0.29514644 0.7717692 0.42764577 0.82450056 0.82679343 -0.26599368 -0.39534563 0.37428492 -0.048573084 1.0451728 0.10444958 0.11919623 -1.5728528 0.8522905 0.4242028 0.80863434 -0.13228267 0.51671976 0.5280321 -0.043066524 -0.128625 -0.137059 0.011293967 -1.131636 0.6551294 -0.3248616 -0.7507559 0.60395724 0.06765527 0.28316373 0.3452729 -0.7580385 1.4532748 0.2691634 -0.94233805 -0.48495874 0.26316246 0.29854873 0.23507315 -0.42562896 0.17634428 0.2170913 1.0737556 0.12462737 -0.17876425 0.6099411 -0.34144133 -0.49677294 -0.09421819
3059 -0.04594568 -0.36586624 -0.32384843 -0.3123664 -0.099770255 0.47318813 0.19442588 -0.21986897 0.41055566 0.3177627 -0.15882702 0.19295865 0.41311792 0.4483333 -0.042577498 0.2700878 0.64252007 0.11877003 0.21945074 -0.28932855 0.11643473 0.047509614 -0.023188926 -0.002362191 0.27690923 0.2353201 0.0019779948 -0.42240316 0.25913998 -0.2744592 -0.049881548 0.01791724 0.09531062 0.16412538 0.1395636 -0.4261695 0.5382328 -0.2511002 0.5764367 0.06692296 0.18633617 0.2662081 0.04358861 0.6947763 -0.83931464 -0.41473636 0.06946076 0.4847875 0.59381455 -0.40400425 -0.3624754 -0.26623118 0.75593674 0.26829574 0.26912144 -0.042398404 -0.60646594 0.23840946 0.11897288 0.38283557 0.23496199 -0.08893905 0.3093852 -0.524976
1062 0.7056757 -1.1469836 1.2105467 0.20192464 -0.6116749 -0.23640855 -0.002616529 -0.41212183 -0.6938195 0.23440298 -0.41744363 -0.7603829 0.72645336 0.3617555 0.7971086 0.43178415 0.6997525 -0.086243846 -0.19516562 0.813258 -0.3727828 0.43383792 0.2934275 0.48611608 0.89411455 -0.10296479 0.32731968 -0.5168726 0.61327034 -0.22838771 -0.10175486 -0.62664914 0.120076306 -0.09281097 0.3087532 -0.6906818 0.88396853 0.6669891 -0.42806026 0.13935462 0.53348255 -0.49704662 0.010437164 -0.35911036 -0.34490034 -0.31600994 0.07296686 1.2839739 0.5254635 -0.5183891 0.011727958 -0.4212371 0.5305221 0.27970126 -0.113259085 -0.39074278 0.2589237 0.8972975 0.4188302 -1.0762256 -0.5074917 -0.48963276 -0.19872354 -0.65432787
8596 -0.21572767 -0.4487369 0.546975 -0.57746106 0.073576875 -0.37656748 -0.15903485 -0.70532465 0.08080436 0.5849513 -1.0501877 -0.15595374 0.8749058 0.35298148 0.16881332 0.82616943 1.0333898 -0.56327045 0.74873596 -0.5438024 0.87707037 0.27010038 0.110744685 -0.05521363 -0.015668362 -0.13310042 0.4925676 -0.019792447 0.6244962 -0.17127658 0.2666255 0.16584326 0.42949095 0.4651593 -0.68443054 0.013740494 0.26066193 -0.18265882 0.30666012 0.07014625 0.55481136 0.5346554 -0.06190675 0.12426986 -0.30290145 0.46714646 -0.46460915 -0.25792375 0.66654843 -0.27035233 -0.6441813 -0.054965336 0.32460093 0.6861546 -0.097348146 -0.027649922 -0.5197627 0.7908318 -0.32668567 0.44230008 0.49615157 -0.9667776 1.2838827 -0.2762099
7607 0.08286475 0.2998242 -0.08239117 0.3399075 0.016790716 -0.13612317 0.17891039 -0.4522173 0.26811394 -0.12413635 -0.32192016 -0.11847426 0.31701583 0.21502063 0.30548126 0.21045215 0.2524055 -0.12473835 0.5512796 0.71095604 0.5500779 -0.47565967 -0.19546482 0.100120574 -0.23116703 -0.29564095 0.20044355 -0.6366866 0.1848831 0.49530476 -0.18435135 -0.1482451 0.020562783 -0.41679183 -0.0022640363 -0.15843177 -0.009091273 -0.14712425 0.17164624 0.86380845 -0.14499778 0.031840287 -0.052638028 -0.1202657 0.37802038 0.2685009 -0.2958195 0.10215056 -0.14694166 0.31832418 0.46146902 0.1659569 0.026014166 -0.24944022 -0.40831992 -0.054480985 0.43371162 -0.17436546 -0.625986 0.09023372 0.30904248 -0.32224694 -0.6316932 -0.6520498
3578 0.19205281 -0.28599876 -0.49346244 0.23915608 0.03484684 0.28549024 0.47586328 -0.16200584 0.6052489 -0.032777153 0.2263863 -0.26304105 0.4549997 0.53936636 -0.06830066 0.21980347 0.50609905 -0.022109227 0.55289644 0.1382693 -0.042247467 -0.25709677 0.19597957 -0.25841466 -0.005266107 0.3386497 0.20428042 -1.0600516 0.12934485 0.69861156 -0.22795328 -0.1384694 -0.34018257 -0.07219315 -0.1750459 -0.8852328 0.13078155 -0.27577788 -0.035631165 0.28594306 0.25106326 -0.16299467 -0.29641196 0.96724325 0.1126988 -0.3335684 -0.046996802 0.16147079 0.31566557 -0.14986274 0.3446265 0.17111751 0.70230466 0.120263234 -0.5403536 -0.26750252 -0.19935618 -0.72397274 -0.26705518 0.75434554 0.5808277 0.060431954 -0.29348537 0.08418683
1190 0.002987898 0.059942257 -0.24087137 0.1524927 0.0689887 -0.001490002 0.035459556 -0.31362686 0.36525217 -0.15638758 -0.331644 -0.06969981 0.36608857 0.04719374 0.26031438 0.11869018 0.40401295 0.08528693 0.6065878 0.4195711 0.24800459 -0.31393132 -0.08647501 -0.05829882 -0.038782097 -0.09540351 0.07398853 -0.652168 0.07498468 0.43608668 -0.06554573 -0.11824967 -0.21565051 -0.41084895 0.058203045 -0.25811726 -0.18179487 -0.16552176 0.05498536 0.71147877 -0.12607779 0.09071983 0.03684282 0.056357928 0.11913491 0.09482333 -0.13426547 0.107568495 -0.09275449 0.059628494 0.3219868 0.115170166 0.014354379 -0.21613143 -0.25408176 -0.10897561 0.07223315 -0.28898197 -0.3245948 0.14278257 0.4518817 -0.119655035 -0.38420224 -0.6491158
4620 -0.1677564 -0.22853398 -0.41472948 1.0195591 0.35617897 0.4924787 0.44062158 -0.52448654 0.77266294 0.4792024 -0.17463091 -0.19883843 0.30319762 0.62904954 0.2045734 0.52416265 0.3847998 -0.86054206 1.1882595 -0.13307482 0.45694908 -0.47680473 -0.04610227 0.3679267 -0.08209983 0.47106788 0.08185683 -0.5223615 -0.017416816 0.34615216 -0.3417638 0.008717956 -0.046121914 -0.62167704 -0.15117298 -0.7685038 -0.20419995 -0.63591063 0.7531385 0.5903851 -0.0041315896 0.45202503 -0.4597471 0.6840461 -0.08434264 -0.04276403 0.060937244 -0.19767871 -0.18074767 0.17615773 0.21766202 0.07585851 0.34723964 0.14839728 -0.44524333 0.2791766 0.08438358 -0.29100513 -0.058933213 0.25275826 0.24111155 0.09209762 0.08943949 -0.48251736
3009 -0.047914144 -0.3323722 -0.6410374 -0.11104297 -0.20007198 -0.031270944 0.17166357 -0.35540178 0.61085236 -0.27383885 -0.40402076 -0.11401077 0.60042197 0.30168784 -0.037608523 0.2028538 1.0210094 0.25561312 0.49827546 -0.0052381805 0.003978655 0.22300808 0.08395601 -0.22968394 0.09066076 -0.050538365 -0.07321372 -0.5216494 0.7267686 0.10509904 -0.2907464 -0.09837214 0.15590812 -0.05487067 -0.1664751 -0.3764069 0.10176747 -0.28217724 0.07160742 0.4318145 0.31216845 0.38651708 0.023383489 0.18586694 -0.4434196 0.16753149 -0.2137345 -0.010193453 0.6800968 -0.04601565 -0.3332401 -0.0022258954 0.22207975 0.19875123 0.33043528 -0.1575374 -0.544433 -0.31905386 -0.3654679 0.1777011 0.4883319 -0.28200552 0.106630445 -0.47387436
2690 0.35257944 -0.34996274 0.33788034 -0.31376904 -0.8197153 0.18298446 -0.03991269 -0.8572976 -0.055945724 0.17735936 0.025595719 0.15344489 0.2475605 0.30339012 0.2913453 0.29974058 0.29040313 -0.21084127 -0.35827407 0.19827542 0.14454442 -0.005037659 0.093595766 0.4474558 0.866203 -0.47653675 1.203973 -0.4106508 -0.017813843 -0.25869924 0.45087448 -0.036977526 0.9841368 0.16655791 -0.4641549 -0.5425187 1.1371441 0.10085859 -0.31640863 0.06820558 0.29099858 -0.124065824 0.09401931 0.45951283 0.23162065 -0.6353046 -0.7448808 0.48695523 0.555101 0.57129437 -0.33328745 0.20430769 0.3528185 0.27018067 0.17620176 0.04290399 0.21537416 0.2548465 0.25298607 -0.20959654 0.0547289 -0.17571078 0.4743409 -0.03798159
4115 0.23626043 -0.1470946 0.33308667 0.106423445 -0.017214349 0.2272214 0.4796688 -0.16678745 -0.045484945 0.19344679 0.03180422 -0.21643399 0.17724814 0.08836379 0.36007604 0.1844624 0.29435027 -0.3155984 -0.07213242 0.3344643 0.10694327 0.14247566 -0.024663175 0.2635632 0.58446467 -0.05366818 0.108412035 -0.050658453 0.018940762 -0.087582 0.058727942 -0.0019640343 0.26591548 0.09325387 0.36200187 -0.4935549 0.8464371 0.0007200331 0.17721969 -0.04969791 0.50185925 0.1899967 0.07267954 0.528628 -0.53856164 -0.3479327 0.08039364 0.55408484 0.8211381 -0.109834455 -0.5215634 -0.3168194 0.35856345 0.033479936 0.26092294 0.048596803 0.03476504 0.07361525 0.12906756 -0.42701286 -0.37165946 -0.41255853 -0.15062883 -0.33721814
4298 0.51470304 -0.40329584 0.55542094 0.7698187 -0.12069484 0.2736245 0.17761035 -0.2961577 -0.05405954 0.58690786 -0.37770858 -0.30354318 0.8094575 0.7540879 0.76140046 0.48986712 -0.060002886 -0.5999188 0.41009665 0.07928773 0.11280646 -0.2727208 -0.39972106 0.12409044 0.09993367 0.6887782 0.3310738 -0.6637558 -0.21195981 0.7084761 -0.5205001 -0.6045549 -0.9531463 -0.0413159 0.1955326 -1.1168928 0.49574015 0.43000883 0.67722994 0.2712431 -0.16957861 -0.5852612 -0.58998 0.8215079 -0.21768054 -0.612021 0.18780768 0.7183498 -0.2924227 0.0038996963 0.87051773 -0.2733752 0.81795794 -0.12804782 -0.698835 -0.40344438 0.1977754 0.517975 0.06992358 0.4172492 0.33870068 -0.07624019 -0.5444303 -0.39529765
4134 0.62696916 -0.8343149 0.88111347 0.33253056 -0.45309874 -0.18297623 0.08021488 -0.4391488 -0.30653715 0.16875462 -0.25666913 -0.6530933 0.42456323 0.23630191 0.653508 0.2958721 0.47327706 -0.20128112 -0.19010198 0.63565105 -0.25635773 0.19786155 0.24114013 0.493343 0.63163996 -0.21981592 0.2796131 -0.34371516 0.37871704 -0.26337883 -0.14567496 -0.49727425 0.2681048 -0.2591029 0.30441558 -0.60050607 0.6778284 0.44151652 -0.27295056 0.1806731 0.4376097 -0.21668111 -0.06554881 -0.21703936 -0.27171367 -0.2841568 0.039725214 0.7664257 0.5025497 -0.064377226 -0.11832325 -0.2475283 0.33416426 0.20241842 0.11510636 -0.09854356 0.17042804 0.35179058 0.28886092 -1.010432 -0.48951182 -0.28494474 -0.15232627 -0.5693096
7363 0.033265103 -0.8913075 0.40154678 0.48080355 -0.5339211 -0.33257842 0.13169554 -0.9331228 -0.2840767 -0.0016802816 0.23148507 -0.42589656 0.49421543 0.31598303 0.8644766 0.03467891 0.926257 -0.5021189 -0.37910834 0.47583464 0.08613557 0.053381864 0.21040905 0.29832876 0.45620748 0.11349128 0.33625105 -0.057422746 0.2375887 0.19455875 0.12602137 -0.43836093 0.049659606 0.118901685 0.54234326 -0.65278906 0.4700585 0.63946456 0.2856304 -0.063215286 0.3565477 0.12952247 0.31944373 0.027770583 -0.09079744 -0.5883553 -0.14880908 0.5635916 0.6527551 0.4289498 -0.48013663 -0.6011047 0.22618409 0.5174942 0.026655037 0.38188744 0.13074504 0.50191975 0.020254446 -0.96758854 -0.3667181 -0.4922719 -0.5066406 -0.3508975
2477 0.21718588 -0.43223935 -0.20080554 0.5717921 -0.56607926 0.18869053 0.14195706 -0.09069594 0.22922155 -0.10255639 -0.46914285 0.10803234 0.13835864 0.30168056 0.8498135 0.12134737 0.06356735 -0.3582533 0.35702378 0.49794906 0.16001926 -0.6068012 -0.21888918 0.41287667 0.4185697 -0.026567237 0.34353596 -0.810525 -0.14210017 0.010131921 -0.32239035 -0.2860902 0.08142887 -0.81537354 0.016107583 -0.5912208 0.30329436 -0.14705923 0.28634658 1.1118749 -0.11700754 -0.2148537 -0.43770775 -0.22919253 0.06069977 -0.22082937 -0.4270585 0.9243371 -0.54768974 0.27490342 0.5119241 0.043165077 -0.06986012 -0.46259874 0.016757017 -0.054610502 0.20716521 -0.1713362 -0.122840725 -0.7108855 -0.02999604 -0.119947985 -0.6829631 -1.4566702
6429 -0.5552123 0.0067993253 0.55715543 -1.017397 -0.18808827 0.13080387 -0.03966185 -0.18611087 -0.4042379 0.016397426 -0.37801686 0.3084132 0.8143692 -0.038831867 0.01734667 0.64669144 0.92898834 0.7933291 0.78656006 0.33390883 -0.5429107 -0.09629924 0.45830113 0.15209791 1.206909 -0.29553947 0.43011972 -1.7003125 0.9373868 -0.17208833 0.792887 -0.13609944 0.9469516 0.63179386 -0.25440848 -0.047397304 0.14953092 -0.074339375 -0.995274 0.72235364 -0.30939466 -0.7546226 0.5969307 0.23069328 -0.10119309 0.026983587 -0.9482523 1.504248 0.46019673 -0.80219334 -0.3460682 0.13785891 0.6779669 0.124351405 -0.3941347 0.00062097545 -0.21144381 1.466766 0.74379754 -0.0901945 0.50563526 0.20725724 0.06585777 -0.1949735
7133 0.05171706 -0.018919088 0.15023655 -0.26625064 0.073482715 0.04152708 0.33629194 -0.03553424 0.19331525 0.17116751 -0.48756865 -0.38769308 0.76327235 0.18786229 -0.023059603 0.49168885 0.74009573 -0.080902696 0.44565582 -0.29736045 0.39079702 0.40065926 -0.11031572 0.05630345 0.16402595 -0.07686058 -0.10419924 -0.19653274 0.6675494 -0.30567366 -0.14923488 -0.05145332 0.29185393 0.5298218 0.1716636 -0.122942455 0.51853144 -0.10431931 0.26889178 0.082042016 0.57730806 0.46025637 -0.23423629 0.5042226 -0.82228184 -0.027699789 -0.05323002 0.14386682 0.995253 -0.49327013 -0.45608854 -0.3313842 0.5007702 0.016433045 0.26036954 -0.09026013 -0.6117143 0.27337268 -0.20206529 0.15675156 0.1107232 -0.58070993 0.38318127 -0.40246388
2699 0.08738811 0.32404327 0.11074782 -0.22571272 0.29436657 0.4602898 0.30031607 -0.82810926 -0.29729977 0.50167346 -0.39083412 0.3246849 0.18596007 0.1324275 0.6682784 0.08645534 0.549933 -0.3712798 0.15498818 0.21498853 0.14093278 -0.2227923 -0.6475301 -0.017058985 0.87505704 0.2305731 0.77564746 0.16989997 -0.6281255 -0.059323724 0.9204414 0.110241465 0.058667388 -0.029029332 -0.045885902 -0.75020164 0.58976734 0.07726216 -0.18100746 0.19615196 0.2582454 -0.19130698 0.42643425 1.1940718 -0.4286942 -0.28412566 0.25192595 0.1622512 0.23607841 0.2725555 -0.7439931 0.0635503 0.5004928 0.05290732 -0.2406579 0.053376637 -0.25614613 0.33878842 0.31206098 -0.0044506127 0.54799604 -0.23448074 0.31825465 0.36997434
7652 -0.03886764 -0.028475052 0.22259246 0.63249403 0.39051807 0.31208897 0.21993908 -0.67066664 0.63191694 0.79813105 -0.8383288 -0.13747314 0.23828185 0.5817403 0.14612779 0.609267 0.05361845 -0.982579 0.8920057 0.12609388 0.75017565 -0.6903509 -0.06280312 0.182496 -0.35371855 -0.0050878767 0.36367327 -0.12253453 -0.35242712 0.39938864 -0.16527027 -0.3483538 0.21591462 -0.20430696 -0.1844676 -0.69915473 0.030756697 -0.35541922 0.603731 0.7388649 -0.027717667 -0.053700514 -0.334303 0.39678982 0.4198706 0.3998131 -0.037037015 -0.36741498 -0.24754171 0.78214085 0.38501528 0.070876956 0.06691829 -0.09552479 -0.5141884 0.29969722 0.7316555 0.10352182 -0.3020493 0.13169195 0.29504424 -0.010418536 0.08554214 -0.51540595
3316 0.07407215 -0.2512973 -0.3064157 -0.20037033 0.08994412 -0.15109572 -0.08810605 -0.32052058 0.4257574 -0.29041055 -0.7373183 -0.4817199 0.7560235 -0.27748168 -0.21268916 0.23437376 0.90647995 0.1531696 0.91560113 0.22355053 -0.04698738 0.28514913 0.07371837 -0.57426035 0.13686001 -0.15342996 0.019250207 -0.61328846 0.453832 0.6658297 0.074632764 -0.25156122 -0.101814605 -0.08326343 -0.29738852 -0.50905687 -0.23361114 -0.41823468 -0.5290603 0.61714756 0.3587135 0.272224 -0.06553383 0.32898656 -0.060723707 0.5983427 -0.067472175 -0.042816874 0.58989334 -0.21731415 0.17904612 0.073712215 0.124082014 0.038675435 -0.14491469 -0.30936146 -0.010465181 -0.5537174 -0.48426875 0.48502132 0.75043684 -0.51425314 0.16196243 -0.4100131
5151 -0.0021127104 -0.41266838 -0.6430899 -0.21469986 0.023203747 0.005871713 0.41336408 -0.072579 0.59682655 -0.1884169 -0.3556378 -0.06328121 0.53369105 -0.03809273 0.14423826 0.033281866 0.8934664 0.11965501 0.69860286 0.46472678 0.02194291 -0.0136894295 0.39332852 -0.631062 0.6698612 -0.058403913 0.36980596 -0.6357351 -0.030861175 0.7937328 -0.06466408 -0.30901366 -0.010663351 0.11731747 -0.04957159 -1.1198889 0.19117182 -0.2881636 -0.60303754 0.9311078 0.6333678 -0.03377676 0.11291551 0.5128691 0.48364598 -0.33362392 -0.193987 -0.17243843 0.6209558 -0.025184643 0.4363534 -0.31634584 0.12292612 -0.36222234 -0.5821384 -0.59833467 0.39666203 -1.256844 -0.23303142 -0.05672065 0.22275867 -0.2562418 -0.28480968 -0.3333453
5454 -0.13391617 -0.09337369 -0.014116197 -0.0069954777 0.13314804 0.51049507 0.47457573 -0.6242786 0.112037525 -0.021571642 0.091135904 0.3048242 -0.1643942 -0.20844908 -0.26163265 0.31927875 0.8767691 -0.3011427 0.33646142 -0.2325979 -0.20186293 -0.34882596 0.15767911 -0.14929801 0.20987052 -0.07058786 0.8729764 -0.20380966 -0.496946 0.2578192 0.6122054 0.2201308 0.8523289 0.59656084 0.17251313 -0.5061804 0.9123879 -0.14687857 -0.09598965 0.28533778 0.7215688 0.12830514 -0.03506226 1.130051 -0.30628413 -0.09499868 -0.5046371 0.7276864 0.80566734 0.48110092 -0.27028993 -0.26685706 0.31728184 -0.20359027 -0.18997397 0.64522064 0.08073501 0.055088084 0.47104886 0.008229458 -0.065718316 -0.18156907 0.19746995 0.007132
9044 -0.25171912 -0.23212865 0.04506382 0.37152475 0.16955435 0.47422647 -0.15355833 -0.24882542 0.37874144 0.159953 -0.4757647 0.4681119 0.05266031 0.17807655 0.10074175 0.44493693 0.3973163 -0.52904576 0.92871356 0.3670634 -0.27510044 -0.4523306 0.1547491 0.23889753 0.2383688 0.09465841 -0.07434681 -0.55523705 0.40720788 0.034657717 -0.081602 -0.28508982 0.1568772 -0.15560803 0.41042703 -0.36698735 0.34247443 -0.10927497 0.28128266 0.8020097 -0.7811763 0.18645957 0.06206261 0.058886874 -0.38298145 0.33688226 -0.20225711 0.24441893 -0.28510526 0.11659909 0.5163516 -0.49445027 -0.06875026 -0.19568783 -0.041749116 0.2957029 0.69053084 0.5651333 0.49765646 -0.5042711 -0.3216981 0.09412472 -0.553193 -0.8800161
3866 0.35716933 0.3794704 0.59725875 0.4032205 0.1504642 0.09732485 0.050620317 -1.0040791 0.17862502 0.4005809 -1.1843302 -0.31045553 0.53705394 0.50666064 -0.10469795 0.42599297 0.2510149 -1.0873867 0.7281433 0.4263532 0.6421009 -0.6999495 -0.22396089 0.04472796 -0.42748678 -0.19596641 0.43924525 -0.16153288 -0.019954173 0.32277086 0.020447193 -0.8834286 0.4668915 0.15851046 0.1566397 -0.49219024 0.11489181 0.10319975 -0.15757795 1.0737879 -0.13448738 -0.24203809 -0.29652804 0.22164372 0.58074987 0.88535386 0.0041058054 -0.5075128 -0.2834516 0.95501107 0.47781146 0.1107617 -0.16444877 -0.032170203 -0.3767198 0.5318154 1.0439787 -0.08653812 -0.53925693 -0.056823723 0.37806338 -0.2953427 0.11274919 -0.40973547
3317 -0.032975003 -0.17422608 -0.45188287 -0.1513412 0.18799378 -0.123592146 0.08640281 -0.30182207 0.41520497 -0.24825206 -0.67584044 -0.4886204 0.7302378 -0.30212438 -0.18119712 0.22365797 0.9603194 0.28370133 1.0136265 0.31332234 -0.0533714 0.2975942 0.080354564 -0.64205617 0.21245818 -0.17259943 0.08789748 -0.6563423 0.3943978 0.81810164 0.18490705 -0.17557248 -0.063154876 -0.12078306 -0.41288298 -0.6355071 -0.30096292 -0.55306304 -0.60948986 0.72806555 0.48202977 0.16771023 -0.019559022 0.46165705 0.07186675 0.58544505 -0.095286004 -0.027074583 0.650234 -0.2194957 0.16567995 0.101048574 0.19066727 -0.05639786 -0.35694802 -0.40884772 -0.0041751917 -0.571724 -0.55514026 0.54912406 0.8836365 -0.495701 0.04846833 -0.29018304
3609 -0.05932093 -0.02100291 -0.30930433 0.9913599 0.118840195 0.3458203 0.40380442 -0.8092854 0.38052368 0.4148359 -0.12153651 -0.06024015 0.2968485 0.6229047 0.4020501 0.31672227 0.44240996 -0.73167986 0.8932505 0.28540042 0.5636488 -0.35227388 -0.11483483 0.6515012 0.2635064 0.3329396 -0.017684203 -0.46785054 0.26408112 0.030780226 -0.21260135 -0.07722022 0.26259798 -0.7666275 0.07013461 -0.5390033 -0.24444424 -0.4433997 0.5808291 0.74519974 -0.17613801 0.501732 -0.117888235 0.17025164 -0.17097408 0.021613158 0.14845811 -0.13148627 -0.27308276 0.15650712 -0.022717819 0.13728657 0.18162306 0.32082054 -0.31802216 0.37211645 0.21916933 -0.16494669 0.09659535 -0.20173502 -0.06280067 0.057327826 -0.083097495 -0.54376334
3222 -0.35685596 -0.44193828 -0.23696601 -0.2742898 -0.11604657 -0.10822885 0.052775327 -0.64160126 0.29618007 0.101321965 -0.6416082 0.037404887 0.63057417 0.40957683 0.21836457 0.51037717 1.4172379 -0.27759168 0.5918676 -0.48670706 0.286934 0.1853763 -0.08996868 0.019988649 0.05274708 0.061729476 0.22745275 0.0045229997 0.6774186 -0.4294486 0.111281335 0.08776372 0.36380184 0.27726755 -0.10773227 -0.10164732 0.30085 -0.03680915 0.39543605 0.24259351 0.39788133 0.586801 0.035062443 0.18111995 -0.665014 0.13212717 -0.296864 -0.067600295 0.6245251 -0.03922091 -0.69887626 -0.3410084 0.22516385 0.38102272 0.27648467 0.20787342 -0.8013613 0.4916288 -0.14623483 -0.16087575 0.2634253 -0.58244616 0.7871381 -0.38083896
8356 -0.31663054 -0.44908416 0.03727438 -0.4726204 -0.0978659 -0.095065914 0.09458326 -0.71916264 0.20671429 0.27674308 -0.7245446 0.026799029 0.5123726 0.23131336 0.48649618 0.5496605 1.4294254 -0.6001362 0.6387795 -0.43753788 0.38599217 0.15942308 -0.20588267 0.029993787 0.34085727 0.05525552 0.6679576 0.43630958 0.2490265 -0.60099816 0.5310587 0.15139668 0.3997667 0.32958862 -0.06549676 -0.3259464 0.6940766 0.030903904 0.09121049 0.23593138 0.58554846 0.5856963 -0.025257202 0.49618196 -0.33638617 -0.08882153 -0.29139546 -0.33082315 0.60437906 -0.04092397 -0.65418273 -0.49910158 0.26778886 0.2902453 0.04343117 0.23472354 -0.52328837 0.26574576 -0.09574296 -0.44979697 0.07718439 -0.9108159 1.2377859 -0.23577736
4364 0.28384322 -0.15499759 0.5432698 0.6784455 0.0022770138 0.08448797 0.034096736 -0.11149004 0.09063446 0.3691993 -0.57012093 -0.16736318 0.6878286 0.67303133 0.24332799 0.44866818 -0.16650574 -0.7310856 0.43653175 -0.086937666 0.2883476 -0.41940784 -0.1464303 0.044210445 -0.30428943 0.51228625 0.042544298 -0.42086414 0.1094982 0.3919176 -0.7496478 -0.6465679 -0.40205118 0.17082666 0.15475339 -0.60130507 0.33899176 0.22575131 0.6753063 0.41083005 -0.19640511 -0.2487173 -0.7136517 0.2918772 -0.11293297 -0.090577655 -0.011172105 0.19592243 -0.28582093 0.018874327 0.73122245 -0.2835131 0.504203 -0.011329406 -0.22882101 -0.028731426 0.37769198 0.25955364 -0.13731761 0.25168908 -0.019817552 -0.25989097 -0.274345 -0.5355092
3360 -0.046129063 -0.3836815 0.58696246 -0.43963274 0.13518609 -0.18371946 -0.2094661 0.2609852 0.029262617 0.065292746 -0.68361044 -0.5861506 0.9855067 -0.05924148 -0.057769433 0.62767506 0.39592606 -0.39311227 0.677049 0.037190493 0.6191925 0.42372674 0.25749665 -0.423682 0.15977098 -0.1474237 0.09403254 -0.46041068 0.1811185 0.8148164 0.055142693 -0.04285474 -0.22679403 0.6552355 -0.49397638 -0.21733946 0.26501977 -0.16999473 -0.119531624 -0.16134092 0.7933891 -0.08379413 -0.02197968 0.25920144 0.21629693 0.28498805 -0.39756915 0.09065349 0.68579316 -0.50290745 -0.13850863 0.16582908 -0.07317124 0.087210886 -0.2395706 -0.53013057 0.1466919 0.2365418 -0.23671553 0.5915126 0.6618336 -0.61755645 0.33395016 -0.16767497
3610 -0.021406358 -0.14140259 -0.51386523 1.0003271 0.07094485 0.48914456 0.36447084 -0.7518216 0.6287882 0.48126838 -0.44805127 -0.03712664 0.38353896 0.624344 0.4972153 0.39828098 0.5207792 -0.835913 1.1531305 0.017510647 0.69118446 -0.35458347 -0.25180662 0.5772104 0.23547202 0.4172955 0.018780563 -0.46206033 0.088532664 0.049017124 -0.33867195 -0.13920343 0.10363867 -0.8103764 0.054109897 -0.75513816 -0.22189842 -0.5571372 0.75246185 1.0124389 -0.074576095 0.6046033 -0.38048893 0.30303752 -0.28371552 -0.07623634 0.18211715 -0.1617205 -0.37993896 0.13242404 0.20152684 0.11198219 0.14496781 0.10896493 -0.36982617 0.2357153 0.12536594 -0.435949 0.13300885 -0.049500957 0.034827314 0.04597882 0.1519208 -0.8995462
6329 0.1603388 0.5976305 0.24856095 0.5221578 0.25927424 -0.08274651 0.17335396 -0.8108047 0.13848464 0.17815381 -0.68572366 -0.23044178 0.459275 0.43319207 0.13534594 0.31604066 0.29574615 -0.5259375 0.70165646 0.69601685 0.6759888 -0.7288286 -0.3989079 0.0208113 -0.5263316 -0.28357747 0.54848593 -0.34756064 -0.018783381 0.40114757 0.059519906 -0.53533924 0.16039078 -0.16212383 0.004486367 -0.31559476 -0.04940688 0.00026426255 -0.02490884 0.9858352 -0.04106087 -0.35445598 -0.19031355 0.2007937 0.725653 0.50169915 -0.10904523 -0.36744052 -0.3292907 0.65711963 0.50527626 0.22621998 0.12918554 -0.14727023 -0.7125954 0.27710566 0.71425515 -0.13039932 -0.72950214 0.12082923 0.5241254 -0.30061704 -0.2922304 -0.18756148
5459 0.04335253 -0.2123547 -0.5527532 0.013160067 0.063320205 0.14120191 0.41216832 -0.087123364 0.57282495 -0.13998432 0.001215733 -0.16593127 0.48345664 0.33954954 0.038357582 0.23791523 0.70185405 0.1693257 0.77309483 0.16527008 -0.020101182 -0.084723234 0.1436198 -0.3508675 0.119473755 0.18213817 0.12512583 -0.97614324 0.27989525 0.67009807 -0.088467 -0.040756565 -0.3238342 0.0060739117 -0.21466698 -0.67882633 -0.0067895805 -0.28326797 -0.22056629 0.48541152 0.21602412 -0.13087557 -0.0698041 0.74300194 0.1373927 -0.15248506 -0.13226499 0.076270975 0.28733623 -0.2342856 0.28590223 0.15828353 0.4663564 -0.071082495 -0.57784134 -0.41217974 -0.23848298 -0.5449026 -0.23026463 0.63478893 0.65782773 0.02532076 -0.22242637 0.036474846
56 0.195891 -0.13137634 0.31838676 0.74056613 -0.03697525 -0.008612798 -0.015049592 -0.58064175 -0.023323739 -0.21564585 -0.217325 0.085954614 0.49509066 0.26314563 0.574621 -0.04136451 -0.026279496 -0.6349868 0.37418374 0.6460304 -0.09295584 -0.63616765 0.013475579 0.100639924 0.24606606 0.33091557 -0.068239704 -0.65857387 0.12637512 0.62128097 -0.4085183 -0.35219586 -0.33927816 -0.49222285 0.32492206 -0.4762899 0.1407503 0.21491732 0.23998642 0.54815084 -0.31436542 0.05295688 0.057572752 0.008852917 -0.19991308 0.16138057 -0.09557005 0.58035296 -0.14812954 0.34468207 -0.1251983 0.083770454 -0.12847777 0.26141992 0.24491063 0.38714182 0.45629594 -0.06931403 -0.019484228 -0.37641254 0.02088563 -0.25571933 -0.7540415 -0.8428855
8988 -0.29725045 0.7228303 -0.15083298 0.013042606 0.3602243 0.055855222 0.78642964 0.03944058 0.637363 -0.14413778 -0.33590463 0.4949203 0.45554602 0.30427334 0.6730445 0.34835577 0.37118438 -0.80853367 0.8249444 0.38086972 0.08368303 -0.33599687 -0.015579927 -0.10691223 0.36351547 0.19570826 -0.21053162 -0.41978127 0.38847247 0.47862443 -0.22964755 0.16762114 0.043340363 0.5860529 0.20099145 -0.32904544 0.637865 -0.11693563 0.19274355 0.57961804 -0.03620055 0.068796314 0.33490402 0.669726 -0.40922937 0.43884575 -0.7297315 -0.16335185 0.46860945 0.62210053 -1.0566329 0.2770525 -0.16375063 -0.049739446 0.58892745 0.2882318 0.073504195 -0.43343547 0.25790763 -0.29488376 -0.0824156 -0.3695214 -0.15126298 0.06892922
4413 0.24348278 0.51280904 -0.0013306638 0.55747145 0.13912019 0.013415073 0.28365964 -0.89530635 0.257014 0.1640148 -0.5283971 -0.24379495 0.38124758 0.5722837 0.17003578 0.30308276 0.40020278 -0.2853507 0.77514935 0.9027822 0.6782948 -0.7461885 -0.36029416 0.13327962 -0.47577116 -0.37355497 0.543096 -0.7241103 0.0700836 0.47216502 0.03484038 -0.47951338 0.16447936 -0.42175156 -0.028107215 -0.39921117 -0.060223263 -0.105539545 -0.010215382 1.1960286 -0.1616273 -0.41039082 -0.12558618 0.16676061 0.7835092 0.43998352 -0.12837031 -0.17780536 -0.36363545 0.6192856 0.75862586 0.28595385 0.19772968 -0.25054446 -0.901677 0.09359151 0.6822122 -0.16477749 -0.79162186 0.20169571 0.62689686 -0.098755985 -0.61328626 -0.32787675
3867 0.43670526 0.046586372 0.572954 0.363305 0.084913164 0.16734405 -0.13349505 -1.0727283 0.32413033 0.45823658 -1.2412639 -0.22475998 0.35773313 0.38701034 -0.16230422 0.4952126 0.37838298 -0.9290376 0.7032223 0.28893822 0.46608773 -0.55586165 -0.17448555 -0.005192625 -0.5402365 -0.3196109 0.5364864 -0.07525938 -0.10154384 0.17566176 0.08414883 -0.84773904 0.4153046 0.12004404 0.19995879 -0.4091952 0.21444978 0.12300389 -0.02986696 1.088021 -0.17195354 -0.18317138 -0.2841303 0.16416067 0.43783462 0.88947934 -0.014604386 -0.49179566 -0.29385966 0.9737717 0.6586974 -0.058228813 -0.2032053 -0.18278506 -0.3749017 0.4275287 0.9394449 0.0615338 -0.3499573 -0.053015634 0.34291866 -0.1163717 0.12923072 -0.58983546
7051 0.3300755 0.091971904 0.69295114 0.61847407 0.14498132 -0.020271841 0.017006818 -0.5694771 0.084442705 0.49155706 -0.95321745 -0.23473643 0.6521641 0.64515257 -0.013316854 0.45098177 0.03133826 -0.90322185 0.6015506 0.18172477 0.6358448 -0.51263124 -0.2003409 -0.037147693 -0.5203729 0.028257852 0.3438057 -0.10616919 0.015938973 0.2884815 -0.3978327 -0.8639902 0.07906461 0.29031622 0.107001044 -0.47616673 0.24713214 0.2216204 0.33417884 0.8177871 0.04137805 -0.35842583 -0.53440225 0.19301292 0.44103846 0.41790524 -0.0025499172 -0.43209758 -0.23746638 0.4959515 0.7099947 -0.22675343 0.17692682 -0.0692762 -0.4779927 0.17454244 0.82821876 0.11870228 -0.42558488 0.090097465 0.14055268 -0.2912808 -0.10403924 -0.41350764
55 0.09073581 0.057803787 0.2766747 0.9047709 -0.020730047 -0.018888732 0.10493592 -0.52605414 -0.11134875 -0.1475775 -0.18016008 0.15455627 0.4977234 0.24465905 0.57700527 0.021114424 -0.0434525 -0.75096244 0.5176245 0.50046724 -0.049811967 -0.65550244 -0.12188911 0.20993534 0.19701287 0.40230346 -0.1102708 -0.65789515 0.25160283 0.57891136 -0.45173874 -0.25959894 -0.24988809 -0.5287274 0.25524783 -0.4534869 0.114279665 0.12726215 0.33000916 0.6546638 -0.38419062 0.13010414 -0.10467217 0.0341683 -0.27641472 0.1841754 -0.13062945 0.7441223 -0.25114128 0.2627892 0.029632902 -0.0048432066 0.008610541 0.24969214 0.13349617 0.45887998 0.49583563 -0.030758018 -0.07685536 -0.34467915 -0.12484189 -0.39559639 -0.7712584 -0.82310385
7580 -0.019860657 -0.118230306 -0.46701628 -0.24409279 0.025583258 -0.18116723 0.08012543 -0.24557447 0.45429245 -0.35386577 -0.62726766 -0.357337 0.6983956 -0.20453176 -0.05494666 0.15130742 0.8557776 0.21518402 0.723379 0.32123253 0.04315344 0.12513745 0.10747 -0.5369205 0.22429302 -0.20652838 0.035320364 -0.6426189 0.36168495 0.696803 0.013392832 -0.21507783 -0.009161969 -0.06357977 -0.2905715 -0.5826736 -0.19705063 -0.3944465 -0.50499284 0.64026845 0.4267075 0.1859474 0.08300528 0.27518296 0.002723799 0.3993366 -0.19079837 0.018481147 0.63244855 0.0052816393 -0.037910435 0.19180475 0.051746536 -0.031476036 -0.072534174 -0.28729573 -0.036709633 -0.71116936 -0.49113417 0.34215137 0.7289795 -0.43066546 0.0037328713 -0.39389917
6165 0.025360748 -0.35419002 0.53841084 -0.48802316 0.10056544 -0.18355171 -0.1057189 0.22588566 0.054743905 0.1097818 -0.6252168 -0.5533678 0.9964691 0.039085865 -0.10845771 0.58164483 0.37104872 -0.37665856 0.5925038 -0.009047168 0.639648 0.37323767 0.18728685 -0.41946322 0.18786806 -0.16993289 0.12395642 -0.4546406 0.21218918 0.6929813 -0.01765763 -0.070357084 -0.08559935 0.6578297 -0.53490037 -0.30390725 0.32841587 -0.18214408 -0.15466371 -0.1301533 0.8547715 -0.10463272 -0.0513155 0.36176935 0.20323583 0.18999352 -0.34786615 0.075760245 0.7749199 -0.45037863 -0.16931579 0.16872205 0.09763755 0.14237684 -0.23508331 -0.5226639 0.05247989 0.15670086 -0.2770274 0.590462 0.6501258 -0.5754875 0.38550517 -0.07086685
3399 0.20737928 0.18916157 0.29744393 -0.4943094 -0.304019 -0.29957786 0.44249827 -0.40190238 -0.5557539 -0.07867389 0.012321436 0.4953694 0.55855685 -0.05370845 0.16405784 -0.14949967 0.24042863 -0.8465628 -0.043113645 -0.037907343 0.6949282 -0.5148807 -0.42146114 -0.34655273 0.78865963 -0.0047706384 0.7625437 -0.1892926 -0.29390442 0.30934563 -0.013386237 0.0081727505 0.80889183 0.58187175 -0.3220631 -0.6967466 1.0620455 0.08753505 -0.4057384 0.44989827 0.90697277 0.14226902 -0.030520821 0.6248549 0.1876877 -0.5019089 -0.30146235 0.7984066 0.7474183 0.21765631 -0.045101278 -0.30889824 0.5620259 0.3312905 -0.308035 0.2631838 0.4899823 -0.86145186 -0.27186355 -0.043546285 -0.43502438 -1.0632175 0.42539603 0.05314373
646 -0.34783754 0.051612575 0.39948294 0.3467903 -0.3185346 0.008515368 0.04131272 -0.3204836 -0.54510546 -0.43033665 0.05931423 0.0414423 0.5646196 0.4064854 0.18289675 0.23062102 0.66056144 -1.016216 0.015521278 0.29806623 -0.07848516 -0.2893886 -0.106739335 -0.086875424 0.0739195 0.25028715 0.93127817 -0.13015336 0.10623498 0.19751675 0.4689663 -0.057150915 0.21314648 0.47866204 -0.32764107 -0.31972998 1.0152607 0.14758833 -0.12073859 -0.37441966 0.62903345 -0.5408474 0.058232818 0.4966318 0.19323155 0.017905094 -0.83064353 0.7706338 0.35307345 0.26711643 -0.92223066 0.1504072 0.31246406 0.81421334 0.31937814 0.8495119 0.30665925 0.35246563 -0.41764626 -0.4033787 0.293559 -1.0786095 0.2051194 0.3101533
7364 -0.011156587 -0.9594412 0.35246244 0.53035426 -0.67638975 -0.34813133 0.23149037 -1.075863 -0.4249781 -0.0052470295 0.25437593 -0.45643923 0.61550236 0.32641596 1.0205545 0.008634687 1.0880871 -0.47766367 -0.41016355 0.638784 0.16544722 0.12938206 0.16352303 0.3108866 0.6373589 0.24274163 0.4329478 -0.06920614 0.27379063 0.31011218 0.16691025 -0.51933664 -0.01067994 0.20048815 0.65581 -0.8136281 0.54734 0.7598275 0.30434898 0.0658678 0.349034 0.12563913 0.38116294 0.011588545 -0.02898171 -0.7270581 -0.1664777 0.7580216 0.67302644 0.3873313 -0.3205542 -0.80449307 0.28045252 0.4685756 -0.2133395 0.3327807 0.3275724 0.6121056 -0.03691368 -1.0366815 -0.40563914 -0.63349205 -0.7106017 -0.47139207
6091 -0.43401957 0.14494652 0.36760193 0.24483727 -0.3185404 0.14048208 0.066476226 -0.2625537 -0.501949 -0.34536424 0.094233096 0.02677671 0.6537503 0.51018614 0.060403265 0.34222782 0.64992666 -1.0281318 0.051250108 0.1446394 0.103646316 -0.34294418 -0.14663158 -0.012116483 0.09287381 0.32938778 0.96884525 -0.19609405 0.10399536 0.10584352 0.52290905 -0.03133771 0.29909796 0.55426896 -0.38961622 -0.34379858 1.0514078 0.055892065 -0.023994569 -0.4645793 0.6205812 -0.5141769 -0.040723808 0.6654439 0.21616256 -0.1356441 -0.83183026 0.7589275 0.37772405 0.14282572 -0.88976324 0.16416742 0.47554994 0.82712954 0.28274626 0.8638295 0.22506745 0.37856188 -0.49320027 -0.22134939 0.3616892 -1.0827405 0.3394576 0.33943754
4755 0.7347495 -1.195588 1.3503592 -0.0006286597 -0.7495048 -0.22444524 -0.10065838 -0.4136429 -0.6796494 0.36325377 -0.5007663 -0.81709284 0.8607755 0.43473136 0.8458091 0.53299505 0.6416819 0.011941627 -0.30861783 0.70467484 -0.2193031 0.4139975 0.2968232 0.5986638 1.0005805 -0.1852089 0.43557554 -0.7142163 0.6218689 -0.377217 -0.061504442 -0.6693315 0.23534784 -0.06133248 0.18345177 -0.69842654 0.90667623 0.66776294 -0.3814852 0.08112168 0.51883 -0.5873865 -0.027733557 -0.3735082 -0.3701351 -0.50768507 -0.055288002 1.4052889 0.5665728 -0.57131135 -0.06022127 -0.2754235 0.6422597 0.32051873 -0.06874032 -0.46084347 0.06257034 1.0967653 0.4575086 -0.96572673 -0.35123417 -0.3905968 -0.05291596 -0.7581811
1886 -0.11495127 -0.12748952 0.81188464 -0.56784403 0.21645832 -0.21337898 -0.095457934 0.21038853 0.006993565 0.34118062 -0.9878535 -0.60148907 1.1901928 0.18313012 -0.070944086 0.8413655 0.38545686 -0.46285853 0.7787164 -0.19873297 0.928709 0.3839908 0.14134252 -0.18643525 0.13345246 -0.14098354 0.026734916 -0.39435464 0.5224703 0.3237472 -0.015035729 -0.057378426 0.109767 0.7597644 -0.5309849 -0.0677127 0.31801453 -0.22652121 0.07897029 -0.106933445 0.75341827 0.07629606 -0.19008502 0.24730271 -0.051653396 0.3719177 -0.39033535 0.0026447363 0.79561 -0.6961714 -0.3882717 0.13435261 0.17684597 0.22622898 -0.091626436 -0.40860784 -0.13369451 0.58492315 -0.37151572 0.6080685 0.62682635 -0.79797184 0.6814749 -0.29237586
4727 0.28747314 -0.3223161 0.22638065 -0.49805507 -1.1265563 0.17415625 0.17318168 -0.8644903 -0.0012171548 0.26010665 0.017044822 0.09235 0.29213342 0.50872314 0.4213431 0.4096689 0.4673455 -0.09698037 -0.39557725 0.17349602 0.5603078 0.037801772 0.020095404 0.7173666 0.9810974 -0.5931825 1.303634 -0.35377797 0.10446974 -0.52455944 0.5160791 -0.064851955 1.3180364 0.32054606 -0.3753672 -0.55731916 1.275469 0.17270751 -0.26878443 0.25033525 0.33686602 -0.13078648 0.06273697 0.2995085 0.46665573 -0.89448786 -0.8824988 0.51861864 0.53196675 0.61718106 -0.17338291 0.07155526 0.29937366 0.061144233 0.012760641 -0.08341149 0.27523112 0.3679589 0.100028455 -0.4309953 -0.06411365 -0.19902903 0.48650026 -0.19784491
9620 -0.69366026 -0.06733541 0.40362155 -0.9601862 -0.03035653 0.18631664 -0.08182914 -0.38081408 -0.36243138 -0.05807242 -0.31555533 0.4604693 0.65230703 -0.28717592 -0.25553596 0.58044755 1.2383631 0.81728053 0.93015146 0.14266151 -0.79947966 -0.06123925 0.55637926 -0.08302517 1.0474738 -0.2840792 0.5400706 -1.5503526 0.8745358 -0.120831355 1.0004989 0.0021350726 1.0845007 0.69660336 -0.22569692 0.027335579 0.13162357 -0.18698591 -0.9718713 0.75378567 -0.19355156 -0.50403816 0.6397158 0.39168268 -0.22152925 0.23530011 -0.9877913 1.4842333 0.64457315 -0.74815714 -0.37564766 -0.0868079 0.67350817 0.1501322 -0.4233027 0.24618483 -0.25425023 1.444065 0.78822196 -0.054175027 0.51012266 0.11871053 0.17727385 -0.17574303
3430 0.27146205 0.050321367 0.25923836 0.025632914 0.20788552 0.57482725 -0.19903494 -0.5141341 0.27120173 0.5180665 -1.2754194 -0.21160771 0.802635 0.49066877 0.6974332 0.10607491 0.03789517 -0.20156027 0.3722001 0.9550535 0.44242117 -0.4966069 -0.09037394 0.18470724 0.70049375 0.43495274 -0.41204828 -0.7753756 -0.3309697 0.27752072 0.026382368 -0.69202036 -0.5534358 -0.55600506 0.63273424 -0.9065151 -0.33837613 -0.09683416 0.11037513 0.7253737 -0.3284635 -0.3967064 0.29276082 0.076739214 -0.43404007 0.091580205 0.6830247 0.32954264 -0.37190846 -0.2722134 -0.29774657 0.7287104 0.11874755 0.11209217 -0.015753347 -0.072458684 0.18586929 -0.027108962 0.51601523 0.067691565 0.7542127 0.38840535 -0.14693356 -1.1038716
6407 0.22079414 0.13257454 0.17619975 0.12526895 0.19039 0.5711834 -0.07367415 -0.5705896 0.2923434 0.54494053 -1.1115503 -0.17448421 0.61974645 0.49995002 0.66966987 0.07216045 0.03753495 -0.2741604 0.30021352 0.807715 0.41605455 -0.5651735 -0.14325686 0.3221559 0.60080224 0.39131203 -0.3319467 -0.5986521 -0.34123504 0.0034009342 0.06706439 -0.6077344 -0.34961858 -0.61226034 0.63526773 -0.80386007 -0.34303108 -0.11251118 0.16053015 0.6880331 -0.30963522 -0.3195065 0.23586152 0.095253415 -0.4448498 0.054943644 0.6581417 0.23869736 -0.39795765 -0.120612666 -0.4367725 0.7140065 0.14421895 0.14324513 0.06878115 0.15946643 0.09113999 -0.08610856 0.4776676 -0.096016765 0.59571004 0.40986696 0.0030689803 -0.99548566
8205 0.6340719 -0.64379305 0.5516777 0.9196116 -0.25437385 0.22230251 0.25701094 -0.45355362 -0.04837956 0.6232855 -0.37928882 -0.48797497 0.81444424 0.7696871 0.79363376 0.49048194 0.14122413 -0.489164 0.31864023 0.19889267 0.023292411 -0.083322965 -0.3188923 0.16194288 0.14305952 0.6835592 0.2985051 -0.61344904 -0.105881676 0.6954771 -0.59908587 -0.77301866 -0.9582301 -0.030718328 0.3816472 -1.2998945 0.55488104 0.55743945 0.6480017 0.28903884 -0.043496426 -0.5632601 -0.59493816 0.7096054 -0.24787901 -0.6747168 0.3128045 0.76680857 -0.15331492 -0.030149473 1.0073974 -0.48336223 0.86904705 -0.103129715 -0.8114238 -0.48812687 0.33680037 0.5313767 0.11527162 0.28620034 0.1646583 -0.07721796 -0.6468014 -0.4781186
6541 -0.0034558703 0.30695602 0.20192763 -0.18021804 0.53683674 0.5729445 0.22074279 -0.97889423 -0.16049501 0.65178293 -0.58433497 0.2476961 0.10470985 -0.0144791175 0.6486015 0.22354732 0.593455 -0.4887744 0.33387715 0.20275639 -0.03947059 -0.3374426 -0.6634474 0.0003874412 0.8960138 0.16450956 0.91920936 0.26488528 -0.80959314 -0.0851139 1.1096843 0.037387945 0.13499083 -0.05787696 -0.040489346 -0.93210673 0.61672014 0.06434479 -0.17157356 0.2730799 0.15117173 -0.13053995 0.44581848 1.5008376 -0.43758023 -0.20981774 0.2989734 -0.010236082 0.31169865 0.49975023 -0.7711623 -0.083590634 0.5422878 -0.044279087 -0.2372287 0.22906128 -0.17771374 0.5347222 0.40935114 -0.09571118 0.6250578 -0.11599585 0.4155523 0.40462223
2478 0.274444 -0.5331935 -0.10225706 0.68395454 -0.6766434 0.09408564 0.19687803 -0.065518394 0.20168354 -0.20292975 -0.402409 -0.16420756 0.27516258 0.31673735 1.01999 0.18502375 0.21553236 -0.3910963 0.35487142 0.5356019 0.11500326 -0.60999477 -0.25079635 0.5563427 0.40058887 -0.03757497 0.39360583 -0.9216412 -0.0487398 -0.028946374 -0.38562465 -0.35480997 -0.033225864 -0.9007564 0.10245757 -0.74231994 0.34614688 -0.028477447 0.23022883 1.1062788 -0.057323996 -0.22930762 -0.6338907 -0.22996603 0.09373571 -0.43005994 -0.42435074 1.0408916 -0.5217235 0.22972709 0.6580538 -0.036592558 0.01476015 -0.5528896 -0.06898791 -0.04719028 0.14593641 -0.2158796 -0.27342054 -0.9209439 -0.12432981 -0.25135583 -0.7784259 -1.5095918
799 0.112008095 -0.6326751 0.09726177 0.21392226 -0.24095206 0.43897864 -0.09265532 -0.23097797 0.3793227 0.5007095 -0.25626868 0.47609583 0.16999638 0.502364 0.20772082 0.44861522 -0.013601812 -0.2388187 0.3684182 -0.009567264 0.07820666 -0.17973317 0.18697612 0.1593269 0.13911298 0.24328002 0.14628339 -0.6975071 0.11477493 0.1922942 -0.40584263 -0.068364345 -0.06754772 -0.18331456 -0.03875659 -0.36306804 0.6246837 -0.22474083 0.93878233 0.47778836 -0.45598122 0.067757785 -0.21819627 0.1517998 -0.3612966 -0.21577823 -0.31243983 0.64944065 -0.20205629 -0.16070642 0.6237425 -0.36794516 0.47557348 0.006118026 0.031811126 -0.29147637 0.18409914 0.57573295 0.30660847 0.31469116 -0.12018441 0.022193508 -0.2820317 -1.0284758
3349 -0.095642634 -0.495775 -0.7608916 -0.10402487 0.24699977 0.21939701 0.43465912 -0.24130827 0.8285459 -0.22793174 -0.3175157 0.12247396 0.30277377 -0.2066877 -0.024704702 0.08975219 1.1885083 0.15460876 0.9305193 0.45436084 -0.45348415 -0.16020563 0.58724546 -0.7946864 0.6660499 -0.1090041 0.642768 -0.63664526 -0.20329913 0.8576626 0.08466895 -0.26205122 0.13589446 0.15082993 0.07343094 -1.3013915 0.3298336 -0.39370704 -0.7611406 1.0611957 0.71144825 0.0443973 0.18601422 0.8898033 0.38695967 -0.33192897 -0.3120115 -0.19307886 0.82203203 0.12031918 0.36318976 -0.51464283 0.14823116 -0.51630956 -0.5932997 -0.39407125 0.44126165 -1.3486894 0.027425554 -0.14663824 0.22312154 -0.15833175 -0.23893434 -0.3015305
7574 0.27721965 0.17824188 0.44921497 -0.48761153 -0.30505002 -0.3001028 0.43563104 -0.35054195 -0.45545673 -0.05350671 -0.1305722 0.28337452 0.6341717 0.00055438455 0.329604 -0.05498177 0.2523494 -0.938528 -0.083864085 -0.023697287 0.7035792 -0.4705393 -0.44483465 -0.17566213 0.7775289 0.0012111004 0.690457 -0.07098222 -0.25874352 0.13082813 -0.083433166 -0.07574436 0.73885506 0.6059008 -0.13031146 -0.688888 1.1325984 0.20933296 -0.38824216 0.35926142 0.8792907 0.1869873 -0.10554774 0.61061573 0.06941416 -0.55167514 -0.24276696 0.63416475 0.7706183 0.24813966 -0.16575104 -0.3018962 0.50807106 0.25828075 -0.1364791 0.29344034 0.398301 -0.8392766 -0.23054062 -0.23626156 -0.48596957 -1.0561053 0.5473879 -0.010193028
9868 0.33352497 -0.11035684 0.8229948 0.31633577 0.053146053 -0.15368605 -0.121163815 -0.34523058 0.14728855 0.38713282 -1.1153015 -0.3198036 0.8548379 0.7842977 0.13354677 0.4782351 0.078404516 -0.9226596 0.45956433 0.32416603 0.7641554 -0.5549396 -0.09407951 -0.078055024 -0.43719414 -0.00041733522 0.3483167 -0.105687715 -0.030630115 0.15974298 -0.49031463 -1.0616761 -0.0010698747 0.39604604 0.12445773 -0.56663495 0.37075934 0.36787087 0.17396021 0.7170368 0.19052015 -0.6017223 -0.49207675 -0.023318512 0.59792787 0.16745555 -0.006887938 -0.5941433 -0.23563772 0.4401069 0.6103646 -0.13666716 0.15964262 0.002629139 -0.34501752 0.086775206 0.81059235 -0.095915124 -0.38367063 -0.19857821 0.11653111 -0.25664672 0.09700273 -0.4135916
5231 -0.29562742 -0.107881896 0.19735953 -0.27854493 -0.009716491 0.0644003 0.27054682 -0.39569783 0.38126656 0.14371116 -0.6385317 0.012659137 0.29482353 0.08183725 0.5245911 0.57160884 1.1230121 -0.74392706 0.7308826 -0.17068087 0.08088702 0.109997205 -0.2322482 0.14299446 0.35267362 0.008068379 0.59646004 0.5728799 0.1409501 -0.6349058 0.52057534 0.094517134 0.3958038 0.42885405 0.25358993 -0.31852555 0.99730587 0.053008806 -0.058903374 0.28824162 0.43766648 0.4117898 -0.10250184 0.6584096 -0.19079378 0.004648031 -0.40950605 -0.5028991 0.57497793 0.15097211 -0.5965453 -0.5217426 0.08905356 -0.041321512 0.24481313 0.40249878 -0.12791908 0.082607605 0.031935103 -0.81424665 -0.1739686 -0.8340087 1.0581315 -0.193024
4976 0.37901798 0.14959493 0.46808213 0.55638885 0.085483275 0.10961184 0.12920612 -0.9238252 0.30686343 0.4775393 -0.9296632 -0.40394685 0.31848255 0.46276668 0.045506764 0.47678733 0.26024643 -0.8486307 0.58621943 0.48215508 0.6426004 -0.5267297 -0.18949479 0.1876186 -0.39814496 -0.3265241 0.5477832 -0.03336952 -0.16363616 0.23587048 0.020484844 -0.72667307 0.40781468 -0.05001386 0.11372285 -0.57889616 0.20914611 0.040556528 0.04711281 0.9409113 0.011737916 -0.21555932 -0.32671273 0.20428406 0.6151898 0.5459192 0.0013144799 -0.4773327 -0.1902309 0.92957956 0.58016074 0.004064099 -0.096942015 -0.22444487 -0.49686635 0.29881856 0.9586346 -0.045077395 -0.46190676 -0.17609647 0.22930682 -0.14968836 -0.05741928 -0.4407336
2977 0.14570677 -0.22490966 0.28795812 -0.51302063 -0.3129043 0.28615162 -0.021038849 -0.08049838 -0.08647352 0.12386171 -0.33553493 -0.5236479 0.5876914 -0.07201426 -0.14557508 0.5108759 0.37430817 -0.114527434 0.06717368 0.057911117 0.65169245 0.3616875 -0.015173209 -0.14013234 0.56118965 -0.26924974 0.6820975 -0.247367 -0.45519602 0.5878632 0.62799615 -0.033603713 0.227719 0.49945256 -0.5279281 -0.5849642 0.6895478 -0.19375621 -0.20811148 -0.31312302 0.9440748 -0.22211139 0.02249739 0.7344788 0.37355605 -0.28371787 -0.2797135 0.44541338 0.7675489 -0.1373704 -0.16237539 0.22883996 0.08032033 -0.14337854 -0.26603433 -0.4353432 0.27938884 0.07834894 -0.20297042 0.5673162 0.66503555 -0.41267177 0.31953263 -0.014464105
1304 -0.03056336 -0.12731482 0.34642923 -0.13675287 -0.20762089 0.46674228 0.13171713 0.03320479 0.31918773 -0.08556199 -0.23880254 -0.681757 0.578491 0.13803823 0.49320215 0.6376161 0.7347946 -0.7591328 0.049949784 -0.28119823 0.26398405 -0.31537634 -0.30091494 0.57720286 0.41165698 0.14488162 0.75266033 -0.29436973 -0.41326603 -0.48872167 0.34300166 -0.07787371 0.1593076 0.20841154 0.30580592 -0.68691194 0.9579736 0.08917882 0.10295925 -0.39487955 0.64488864 0.034772366 -0.57157207 1.0742679 -0.45960984 -1.0208539 -0.28237274 0.53236634 0.5725904 0.14487112 -0.5816233 0.11414347 0.47165957 -0.2735635 0.44719216 0.5377732 -0.6350505 -0.09968523 -0.016320277 -0.5255957 0.22728182 -0.46866128 0.66416335 -0.35945103
6258 0.40851843 -0.7159187 0.31076136 0.574257 -0.24751383 0.20557512 -0.103209816 -0.20220399 0.25610206 0.3840157 -0.34748653 -0.14925134 0.6446825 0.599329 0.34723493 0.44043538 0.01480963 -0.491239 0.36794615 -0.08698355 0.0053559626 -0.25594637 -0.04647062 0.045325458 -0.06265859 0.52909493 0.14751187 -0.74443233 -0.012966051 0.45116326 -0.7156766 -0.5504107 -0.61444414 -0.13657387 0.050824434 -0.7986685 0.34277657 0.12615764 0.6770697 0.31347618 -0.12086281 -0.28655234 -0.57176447 0.3873174 -0.26380768 -0.44357714 0.031789552 0.5524993 -0.28821182 -0.057790697 0.8013795 -0.19050482 0.65402156 0.09918538 -0.29175696 -0.26478028 0.10395199 0.1280424 0.19403505 0.36008334 0.12053293 0.066080265 -0.192684 -0.66815174
1850 -0.14441878 -0.1456834 -0.16251206 0.14776543 0.25576136 0.66772515 0.55780655 -0.66939014 0.31508783 0.072731495 0.12122851 0.3472003 -0.24990067 -0.20105614 -0.27978122 0.38140377 0.9796182 -0.2768816 0.48694816 -0.15315777 -0.4077637 -0.37321815 0.25697517 -0.21873684 0.23852386 -0.08735111 1.050813 -0.19973153 -0.61013705 0.43202028 0.6791128 0.23513502 0.83097583 0.55314016 0.12591769 -0.74774146 0.9811513 -0.287304 -0.1285624 0.3682139 0.7933066 0.113826476 0.037010252 1.3848362 -0.23675159 -0.1402929 -0.54950976 0.64074767 0.8538274 0.5557588 -0.26441655 -0.3160151 0.3439654 -0.32355106 -0.26462558 0.56089705 0.18873899 -0.036766477 0.48608273 0.06146257 0.02547551 -0.13765727 0.17062789 0.054755326
9660 0.05618228 -0.20107044 -0.5686675 -0.11551804 0.05630707 0.026899891 0.20970993 -0.09828329 0.71268 -0.38582093 -0.38852838 -0.23079638 0.6089853 0.011214608 0.03446597 0.17167704 0.7851539 0.21899469 0.78137577 0.43426284 -0.15864027 0.048660956 0.18712334 -0.4650687 0.26557097 -0.01789019 -0.103768446 -0.9156932 0.40190938 0.7153599 -0.13787094 -0.15784 -0.24068743 -0.12167133 -0.099764876 -0.6678764 -0.017545842 -0.372618 -0.3593596 0.61911374 0.21378554 0.10958635 0.075977534 0.46733797 -0.119674996 0.25075132 -0.17907831 0.03093046 0.5408857 -0.10127904 -0.02270074 0.23986281 0.14068562 -0.072393715 0.004862985 -0.32573625 -0.1204746 -0.784384 -0.25187773 0.33558685 0.65106845 -0.17367014 -0.24792436 -0.37794775
9501 -0.4008291 0.96803516 -0.15810926 0.09240138 0.36576268 -0.08958241 0.9446666 -0.09037038 0.5459543 -0.3021013 -0.21559031 0.5075778 0.534638 0.2832784 0.5803653 0.35539114 0.47521532 -1.0082823 1.0200326 0.38296238 0.1992256 -0.45696658 -0.079274975 -0.13800378 0.34986073 0.16586739 -0.1448182 -0.46262735 0.56998175 0.5630009 -0.17213148 0.27306038 0.30457184 0.62494415 0.122479536 -0.26990366 0.6704757 -0.16248244 0.025418578 0.6827062 -0.017939882 0.25904772 0.2964951 0.73955107 -0.28436074 0.5765519 -0.85627097 -0.18109864 0.5847739 0.6844022 -1.1233021 0.2673666 -0.18719277 0.08922892 0.5426374 0.54765 0.19564202 -0.59385765 -0.03357269 -0.3286245 -0.14234746 -0.66456944 -0.13853237 0.18482672
3537 0.08625442 -0.051875733 0.04615993 0.41131073 0.001364526 0.20941381 0.028788611 -0.50730085 0.24072225 0.094491385 -0.43241447 0.13646944 0.17440079 0.21392693 0.35257512 0.16575806 0.22812802 -0.35311905 0.5074863 0.3619888 0.17459346 -0.35169443 -0.03999616 0.26031435 0.12225854 0.06639157 -0.022078235 -0.42187443 0.06828756 0.13222355 -0.10319287 -0.16211712 0.041909173 -0.3900404 0.3072977 -0.21327002 0.047477383 -0.06871231 0.31092522 0.72040004 -0.3269114 0.16574559 -0.02090753 -0.056484956 -0.19641273 0.23284186 -0.04496131 0.21379545 -0.25572747 0.18672688 0.14456388 0.01731392 -0.11666423 -0.09593594 -0.00095766026 0.20494907 0.2596345 0.056067787 0.15323631 -0.24904075 -0.013238167 -0.0057582855 -0.3191962 -0.8224067
3776 -0.07951222 -0.36431953 0.11157688 0.23941265 0.17871003 0.5966556 -0.39509594 -0.47377074 0.39011756 0.21624629 -0.6435193 0.5713849 -0.027148984 0.034842458 -0.034298122 0.49666616 0.5002088 -0.5803928 0.98991585 0.31262597 -0.44053116 -0.34634316 0.08181835 0.11073701 0.17723623 0.0050333673 0.010245983 -0.5475852 0.4021857 0.04973894 0.10106251 -0.2118612 0.086383455 -0.2154984 0.41172823 -0.2893838 0.4598906 -0.13668053 0.2714776 0.8445729 -0.98551923 0.31909177 0.06568092 0.17698634 -0.6427868 0.5827929 -0.09900901 0.33692855 -0.33020929 0.027948648 0.73335916 -0.5492134 0.025420967 -0.16219464 -0.06372657 0.28595796 0.69435143 0.6916213 0.5534526 -0.28629306 -0.20970656 0.0041605467 -0.45907402 -0.9794828
2776 -0.7717902 0.24958849 0.30830732 -0.68970764 0.07291325 0.12018876 0.13451593 -0.010681691 -0.55961275 -0.17957938 -0.30774903 0.23564309 0.71438944 -0.02790017 0.2553293 0.36575264 0.84295005 0.52147365 0.838213 0.60328937 -0.37316945 -0.26674446 0.25255767 -0.0076006455 1.0640142 0.077252135 0.23434494 -1.2609302 0.6508694 0.1752846 0.9174151 -0.0681294 0.42563495 0.49459645 0.024256885 -0.15229551 -0.01574842 0.03547096 -0.9140467 0.70401335 -0.3670855 -0.72264856 0.6343425 0.18743035 0.16619386 0.14801744 -0.68031305 1.3422697 0.12996946 -0.86398304 -0.24568179 -0.06271227 0.31842253 -0.047463447 -0.5699777 0.016169233 0.12555335 1.2745311 0.35658246 -0.27620283 0.46949813 -0.14935906 -0.38940245 -0.16226579
8861 0.08036823 -0.05793901 0.07161551 0.4956075 0.023052154 0.24192718 0.032739043 -0.46707758 0.13998951 0.10986108 -0.33780777 0.14892669 0.22364298 0.25191244 0.382739 0.111383796 0.16120331 -0.43913478 0.51542974 0.37574977 0.13334522 -0.44955692 -0.11761704 0.25762105 0.18189213 0.21311316 -0.052756038 -0.4601061 0.05078904 0.15209636 -0.12098331 -0.15858851 -0.11198814 -0.51116097 0.2822557 -0.32279283 0.027148645 -0.05305768 0.3306737 0.6560388 -0.33908328 0.12603839 -0.009320075 0.044733148 -0.21483667 0.14553672 0.104225665 0.35906872 -0.3292283 0.07459926 0.18644732 -0.011271257 0.01045177 0.02300861 -0.0758869 0.22511242 0.28437117 0.016587485 0.100090526 -0.22283891 -0.028927255 -0.058653247 -0.35309848 -0.79727584
6788 -0.04402001 -0.07742675 0.07438403 0.04206182 -0.14497694 0.32220155 0.2575239 -0.3990694 0.045086354 -0.06262188 0.028084006 -0.007120672 0.11093504 0.07006136 0.15748021 0.2753902 0.63999516 -0.39930514 0.09765015 0.019064985 -0.060184717 -0.026723992 -0.06695387 0.116247565 0.33724627 0.007837992 0.6847532 0.029822486 -0.19110635 -0.055198353 0.4613031 0.14627437 0.39241552 0.26112142 0.046038814 -0.4195094 0.87493366 -0.018879175 -0.034341685 -0.11789752 0.5338161 0.07368986 -0.016142478 0.7603602 -0.19354545 -0.25652584 -0.35309154 0.35414702 0.5935163 0.23147725 -0.5690088 -0.050025485 0.21017851 0.074988864 0.19159836 0.38975972 -0.04672256 0.05770498 0.100794084 -0.25196722 0.04568684 -0.43593475 0.3448444 0.022678988
2044 -0.009697268 0.07843731 0.021210918 0.107776225 -0.060062066 0.23870976 0.35768333 -0.48088175 -0.10627638 0.0944329 0.10804202 0.26852962 0.07314103 0.20367083 0.20432785 0.13593258 0.4050259 -0.56670105 0.07359921 0.15426917 0.10085057 -0.101210915 -0.17671622 0.033775657 0.4112438 0.09343727 0.4967431 0.038630962 -0.12269666 0.07093402 0.31259432 0.17380534 0.3633012 0.18846367 -0.07046894 -0.43205374 0.80983984 -0.060394585 0.09031323 -0.008628987 0.38188785 0.090047486 0.16855213 0.6777545 -0.2262062 -0.11745824 -0.20018679 0.3104301 0.4749385 0.29209465 -0.57614666 -0.04419282 0.27044198 0.2939871 0.100921854 0.3207937 0.13293134 0.008517558 0.1088021 -0.119551055 -0.07429634 -0.42026922 0.16685513 0.16600716
1873 0.031074878 -0.20916112 -0.5541165 -0.14231856 0.061637275 0.00060913106 0.31640404 -0.12955876 0.6211726 -0.261886 -0.32420632 -0.2607292 0.63481045 0.07445919 0.02024782 0.13109004 0.81254226 0.19905698 0.6362366 0.33221993 -0.02437868 0.0789718 0.3098083 -0.448047 0.36158895 0.001844923 -0.046624526 -0.7607751 0.32882097 0.6489205 -0.16152662 -0.18280773 -0.09670324 0.026542913 -0.08432755 -0.76053643 -0.028417498 -0.33810908 -0.3863428 0.51593685 0.4641181 0.13700993 0.094891086 0.49392408 -0.07599959 0.0041707903 -0.10495958 -0.071740404 0.7015862 -0.11674277 -0.14212549 0.17759511 0.19039993 -0.0062480452 -0.08594598 -0.33150584 -0.12991235 -0.8895331 -0.18766417 0.2830828 0.5317061 -0.14626826 -0.10658816 -0.22006264
3341 0.18183857 -0.06966353 0.16626051 0.5600324 -0.008843123 0.23132095 0.08948732 -0.5114391 0.15395682 0.14601196 -0.32653746 0.16450836 0.2218056 0.35722074 0.41833773 0.22819743 0.21955353 -0.38249552 0.5194548 0.3876999 -0.0269678 -0.3983146 -0.1473581 0.3165462 0.1027854 0.15697896 -0.0015805538 -0.522947 0.22203779 0.09507716 -0.21926382 -0.22134614 -0.08802888 -0.45727414 0.3406295 -0.2871512 0.19267602 0.06429213 0.39761522 0.70539474 -0.48082417 0.055474073 -0.044963706 0.06994082 -0.33881125 0.1632986 0.029448306 0.4108102 -0.29513875 0.16552095 0.27659312 -0.12444348 0.12138739 -0.041765034 -0.04664276 0.18456425 0.2530232 0.25180346 0.13984753 -0.2856021 -0.083863094 0.0006806547 -0.48447382 -0.7697431
4996 0.066516444 -0.12035283 0.048080467 0.4401226 0.023391338 0.27616477 -0.014622606 -0.4702167 0.2914091 0.2361224 -0.5622496 0.15445958 0.22523339 0.2855741 0.34003702 0.21717349 0.17868221 -0.34506503 0.5394796 0.27391163 0.08195651 -0.4242791 -0.06331896 0.25863817 0.07747627 0.18055718 -0.11048543 -0.46164483 0.115239605 0.06958951 -0.24248275 -0.27666494 -0.060933664 -0.43751732 0.34026453 -0.31551003 0.008789093 -0.08145834 0.45398942 0.7944933 -0.4538976 0.12622532 -0.087063305 -0.04888986 -0.3488053 0.21909976 0.0443623 0.31812298 -0.3320077 0.14964417 0.27366 -0.090916075 0.03173585 -0.090728156 0.012397726 0.18723303 0.23140068 0.15781218 0.15377088 -0.20808105 -0.006835129 0.067782156 -0.32678655 -0.99540865
828 0.13173752 -0.10414165 0.09765232 0.4352715 -0.15918158 0.20420091 0.025433378 -0.29358473 0.24400133 0.006036385 -0.4357494 0.2422 0.287848 0.38679835 0.36959106 0.18099025 0.10957907 -0.43988463 0.38170812 0.3488003 0.02819911 -0.48131037 -0.096825704 0.17683482 0.031278044 0.14000337 0.02349951 -0.5141604 0.14373308 0.11997203 -0.35389924 -0.34523037 -0.073207885 -0.22105314 0.32200068 -0.31208056 0.3484789 0.08565284 0.42306906 0.73564535 -0.3699654 -0.075065374 -0.14913712 0.012148687 -0.19782276 0.101207 -0.18392257 0.37072396 -0.3004246 0.27701572 0.29538137 -0.13650805 0.01823455 -0.1245227 0.15001173 0.17003949 0.3229118 0.056590967 0.05522467 -0.33305308 -0.09972471 -0.055227708 -0.49286833 -0.88868254
1416 0.12103975 -0.06978561 0.21895435 0.3964869 0.037143562 0.21784902 0.028006893 -0.32276013 0.21165256 0.1817105 -0.52941686 0.048223685 0.23872103 0.29755473 0.3121045 0.20831284 0.07257081 -0.33156934 0.38994882 0.4024403 0.12110856 -0.360492 -0.010173421 0.25331372 0.09412652 0.06637489 -0.09764055 -0.3906125 0.085695945 0.07106151 -0.2449571 -0.32604003 0.019547157 -0.30008218 0.34155637 -0.27899826 0.12517819 -0.02264174 0.32370698 0.6595095 -0.28707942 -0.008797076 -0.06830899 -0.0739582 -0.19550383 0.20232196 0.0066832523 0.2674928 -0.199924 0.13631456 0.18395348 -0.066822544 -0.01287992 -0.12446794 0.07583927 0.1325054 0.33019677 0.16754287 0.10689142 -0.32478225 -0.06171165 0.018096527 -0.37943983 -0.8621408
41 -0.34100315 -0.16969958 -0.18418668 0.7102151 0.64491606 0.44963035 0.30619955 -0.5330586 0.8830912 0.8889851 -0.8065196 -0.011307633 0.18979701 0.43996313 0.22913073 0.68345106 0.23011969 -0.90022165 1.300543 -0.10571239 0.71431804 -0.55994004 -0.026168156 0.11020759 -0.18816693 0.16813171 0.24094602 -0.13881005 -0.42608953 0.55244166 -0.14310427 0.020294718 0.010610702 -0.39798927 -0.3356623 -0.8061667 -0.16357446 -0.7054454 0.85389423 0.7630654 0.0640191 0.24904126 -0.2970049 0.5994734 0.16350642 0.32205492 -0.038670063 -0.38761032 -0.15277691 0.51082027 0.28510648 0.0067090755 0.09126547 -0.18952149 -0.62082845 0.13763341 0.4445614 0.051456332 -0.14107817 0.32381544 0.4050415 0.021976216 0.16832456 -0.6198738
8600 -0.001593968 -0.57050854 0.90601885 -0.6209373 -0.103363134 -0.3448078 -0.29587302 -0.7253433 0.050844714 0.832886 -1.276957 -0.3412808 0.9762039 0.5502647 0.2990183 1.0293312 0.85462415 -0.5592742 0.603691 -0.5289494 0.97426945 0.3032107 0.11139186 0.22981308 0.055602863 -0.287515 0.5305404 -0.14061451 0.6479697 -0.47033656 0.16269867 -0.0689514 0.55065364 0.4880067 -0.7367855 0.00045485987 0.33916706 -0.050136674 0.2959805 0.0630092 0.52840036 0.2800289 -0.17774811 -0.04046871 -0.33546382 0.32466677 -0.47606686 -0.23910241 0.56395876 -0.20970707 -0.5869287 0.13531896 0.37288827 0.68061745 -0.037977695 -0.13424288 -0.53799886 1.0334748 -0.123560555 0.33019918 0.475808 -0.70755416 1.460326 -0.3766351
2175 -0.035403196 0.04917006 -0.016226837 0.031124933 -0.0859895 0.37375274 0.265424 -0.46795008 -0.025730386 0.050802283 0.02672545 0.038537875 0.06758431 0.08907325 0.19039269 0.20559771 0.524549 -0.33571762 0.0662209 0.21008632 0.032191873 0.02256741 -0.18685417 0.06741314 0.40637368 0.010856819 0.5844349 0.03721354 -0.23331289 0.053902116 0.60506165 0.16008012 0.23336872 0.13001473 -0.019329939 -0.4520393 0.76399505 -0.069683455 0.0012615528 -0.09598705 0.3839466 0.0020516985 0.15889303 0.8008228 -0.14926767 -0.14221011 -0.17621186 0.27501443 0.4985912 0.22008905 -0.5480856 0.013656981 0.215192 0.094308995 0.09218382 0.22757225 0.04625969 0.14057635 0.047881704 -0.08677607 0.20863213 -0.36918518 0.1300612 0.11941114
7182 0.09665341 -0.3962658 -0.28218544 -0.12735932 -0.24638884 0.59079844 0.083059825 -0.31116623 0.3836252 0.35918215 0.13676755 0.23151506 0.099616595 0.52012575 -0.0033032119 0.26217848 0.39759955 0.026801797 0.1557788 -0.15583357 0.15511535 -0.3156876 -0.021331117 0.21914017 0.13259736 0.17741016 0.37925082 -0.651564 -0.08334563 -0.24900779 0.10232535 0.03655448 0.081993386 -0.20445737 -0.0030352545 -0.44799817 0.4461673 -0.23401779 0.44607365 0.18207164 -0.080550976 -0.041340765 -0.101555645 0.653847 -0.3021485 -0.6231257 0.04503832 0.5703644 -0.056102797 -0.20311597 0.2334026 -0.009985023 0.7769688 0.18690145 -0.21580839 0.004899252 -0.2946761 0.093934275 0.16102643 0.42658705 0.19060877 0.2071127 0.2246631 -0.42045543
2047 0.1000437 -0.0064438535 0.14492767 0.48175052 0.13840367 0.25830904 0.106224984 -0.37065282 0.3078497 0.19573721 -0.522183 0.072796956 0.25088045 0.2895261 0.500056 0.21899682 0.077056445 -0.3712278 0.5679185 0.49868008 0.09965818 -0.49140427 -0.07274574 0.2798451 0.16973118 0.14451429 -0.080312334 -0.50984305 0.016686063 0.22028634 -0.24083067 -0.23216802 -0.1449882 -0.4744391 0.3512344 -0.41719294 0.07214329 -0.051360305 0.34913072 0.74796 -0.37974387 -0.0006742672 -0.03353641 0.03435567 -0.21343279 0.17765187 0.025395073 0.31106365 -0.2949263 0.17843682 0.18711032 0.013151142 -0.0070570586 -0.18174769 -0.058459967 0.11096827 0.32857957 0.10168347 0.14242193 -0.2797828 0.017361484 0.058834266 -0.4718981 -0.86745596
2605 0.07110336 -0.39879632 -0.4728133 -0.21290858 0.0057557384 0.021108087 0.15925613 -0.07707301 0.5967228 -0.3136029 -0.446851 -0.31553406 0.5891654 -0.1096112 -0.093869165 0.18621314 0.80497867 0.3470045 0.68960065 0.3838099 -0.08915625 0.14776638 0.35332242 -0.53130084 0.39536202 -0.17158303 0.097770594 -0.8384835 0.22831218 0.77850693 -0.052727308 -0.2183517 -0.059818137 -0.01703292 -0.21469873 -0.7705798 0.02611148 -0.38125888 -0.49313205 0.6251713 0.48232004 0.062152922 0.054844834 0.40725097 0.113491915 0.09646358 -0.22691792 0.073329255 0.6866748 -0.17279868 0.15898295 0.056557264 0.0778294 -0.22399461 -0.19581835 -0.51346165 0.044211723 -0.74209595 -0.25705248 0.3223952 0.6314984 -0.19312662 -0.24880525 -0.45883518
3778 0.06475142 -0.12599269 0.16925654 0.5840931 0.064291075 0.18380111 0.08701891 -0.48423347 0.13262561 0.16289043 -0.33546215 0.11891878 0.28581068 0.33607522 0.43765414 0.1034535 0.10949148 -0.4685921 0.48899075 0.4954185 0.07087056 -0.398715 0.04325505 0.23184898 0.2363486 0.24994966 -0.14882937 -0.4558541 0.1375513 0.27526748 -0.24532524 -0.2730129 -0.09273765 -0.38786286 0.34549695 -0.3792602 0.020649306 -0.0063674413 0.33758688 0.65301114 -0.32999748 0.054623708 0.10025061 -0.032658733 -0.19280982 0.1920608 0.046942227 0.30735305 -0.21483682 0.123749726 0.025426105 -0.032246646 -0.021564763 0.11264299 -0.00092661893 0.21137315 0.40468085 0.10716111 0.23551737 -0.33521578 -0.10434212 0.021799251 -0.4646573 -0.73123986
599 -0.06324636 -0.14774136 -0.5528342 -0.13173752 0.15498061 0.015236861 0.23421776 -0.16721359 0.64877385 -0.2819462 -0.37010795 -0.13163467 0.43466988 -0.047189448 0.0062312977 0.14825389 0.79524857 0.15528812 0.758409 0.357878 -0.03756975 -0.0184257 0.23526444 -0.45717856 0.2523321 -0.10578604 0.113430396 -0.64625955 0.17367202 0.6142195 0.024496919 -0.07460813 -0.037684027 -0.06376669 -0.17514229 -0.60325205 -0.0357432 -0.40508786 -0.41292134 0.628853 0.34646577 0.11092511 0.13219778 0.43100706 0.1332468 0.18894914 -0.22267799 -0.18901156 0.5081868 0.03208984 -0.04069254 0.1645919 0.0329757 -0.143771 -0.16649544 -0.26392892 -0.0195067 -0.79180753 -0.21235707 0.22394057 0.57798964 -0.13370928 -0.087156996 -0.22141044
3561 -0.29110613 -0.37520614 -0.5146962 0.05639817 -0.124263495 0.16923927 0.048412155 0.03798196 0.8059685 -0.49865386 -0.444453 0.00043933676 0.50999993 0.4280818 0.16883625 0.3113577 0.80662787 0.031686187 0.8754422 0.41239703 0.1329197 -0.026119882 0.38938126 0.0062029352 0.331403 0.038666554 -0.3115229 -0.83217883 0.68793917 0.33514026 -0.47708702 -0.031105066 0.11984988 -0.24648508 0.07737919 -0.26584932 0.073010884 -0.3426855 0.10404639 0.6651842 -0.15908858 0.42797208 0.032658253 -0.27736574 -0.03607159 0.15066944 -0.4056245 -0.08749145 0.20597766 -0.30199328 0.07167796 -0.086259745 -0.30706236 -0.16192438 0.24105102 -0.26090285 -0.047018368 -0.21158095 -0.14427172 -0.3231239 0.23887621 -0.06802698 -0.43962488 -0.9461935
193 -0.6398082 0.55996156 0.48003957 -0.43433917 0.11818945 -0.11955591 0.18590084 -0.009744064 -0.6800781 -0.5444578 -0.24302544 -0.091778256 1.0152327 0.18681672 0.084346235 0.2022758 0.682364 0.22895928 0.7102416 0.82480884 -0.18386051 -0.46387768 0.32424113 -0.08302456 0.7762719 0.16448516 0.055598784 -1.4417151 0.8593704 0.45954376 0.5946563 -0.21144666 0.45985192 0.50380456 0.030811043 -0.057356838 -0.1673048 0.04622522 -1.0516262 0.5672687 -0.26254126 -0.7067485 0.46697235 -0.016542984 0.32761374 0.41556677 -0.6788543 1.2998592 0.23474553 -0.82309026 -0.49699137 0.29260173 0.2757546 0.34682524 -0.3057013 0.32281005 0.25798354 0.8370397 -0.12497114 -0.20474358 0.5734891 -0.46714377 -0.5367543 -0.031112613
