594 64
1701 -0.60476136 0.3856149 -0.5242142 -0.19060779 0.023646753 0.93830657 -0.045357496 0.03799672 -0.16068992 -0.30402327 0.054326784 -0.3938492 0.3330675 -0.26762012 -0.26062328 -0.25087807 0.23858875 0.57133156 -0.09297575 0.10779635 -0.11393427 -0.37651655 0.8170225 0.40280375 0.194502 0.14102525 0.11939867 0.7421408 1.1209215 -0.1366106 0.45072287 -0.15919377 0.059342276 -0.17974935 -0.034883954 -0.12344038 -0.4630065 0.075944155 0.27384165 0.25252375 0.42532173 0.1391617 -0.19602619 0.26411605 0.9762654 -0.16310503 0.16432126 -0.30084452 0.4818326 0.0722247 -0.18747286 0.27928892 0.09855856 0.39909887 -0.48588172 -0.8189425 0.3266901 0.10656883 0.12673406 0.9138533 -0.40588325 -0.74513173 0.19011024 -0.1465003
2655 0.24221183 0.2875935 -0.35476658 0.58431196 -0.4529847 0.33560768 -0.2745892 0.7404786 -0.12097517 0.66790336 -0.3062012 -0.19814508 0.4120406 -0.22642133 -0.64866936 0.13136145 -0.69390774 -0.2759818 -0.12254344 -0.10155501 -0.4794468 -1.0098536 -0.10687029 0.68454164 -0.6114384 0.12958053 0.4941334 0.24169722 0.38606256 -0.08997168 -0.47536075 -0.32401103 -0.0017602491 0.16118771 0.37889084 0.20265189 -0.20395185 -0.03664497 0.64480275 0.7701758 0.56102055 -0.48591453 -0.16777079 -0.37617287 0.23900244 -0.71794915 0.5047026 0.17323898 0.28471655 0.31119764 -0.8485388 0.044748638 0.07658725 -0.329704 -0.17448373 0.41741368 0.18353572 -0.019901313 0.12313633 0.05832263 -0.7473226 -0.24077098 -0.117795385 -0.04352443
2535 -0.41441104 -0.044124562 -0.40033296 0.18532781 -0.61554927 0.6768405 -0.26975903 -0.34093425 -0.12629272 0.4816307 0.089793965 0.9762383 -0.46197736 -0.39939004 -0.0780045 -0.26769054 0.07779267 0.011582171 0.07691364 -0.51754725 -0.2759949 0.32316792 -0.6595139 0.48909453 -0.79178363 0.056076225 -0.12847748 0.89895076 0.95151794 1.0315117 -0.48134387 0.3253658 -0.3237693 -0.023474438 -0.12083219 0.2273845 -0.056911 -1.0081482 0.63454366 -0.4244886 -0.49127194 -0.2618838 -0.2846499 -1.224129 0.66265976 0.18059401 -0.14282842 -0.16460165 1.0827672 0.08088187 -0.051824547 0.4106552 0.18984036 0.13289444 0.6675901 0.1330931 -0.06276796 0.20043722 0.24934576 0.70552534 -0.35493284 -0.60538715 -0.5500848 -0.66657704
1175 0.6971717 -0.91996163 0.050395135 0.18454537 -0.18006274 0.45072442 -0.5374137 -0.5479552 -0.13370077 -0.08661134 0.47717637 0.756135 -0.16190751 -0.22883451 -0.23824584 0.6249654 -0.5676587 0.35901436 0.18242398 0.3453523 -0.6898304 -0.29287043 0.26380187 0.16750035 -0.14779396 0.017327864 0.6396887 -0.1183426 0.41508254 0.4961383 -0.5277244 -0.37488386 -0.13055794 -0.054015685 -0.27750137 -0.22410393 -0.0013445818 0.42646885 0.83048403 0.16420929 0.28403422 -0.9394089 -0.48212254 -0.44338232 1.1078961 -0.74866015 -0.2620565 -0.80581254 -0.21126078 -0.3565512 0.26212963 -0.75191987 -0.25193328 -0.008782385 -0.39462346 -0.28795642 -0.07935036 -0.34422183 0.037768807 -0.2795863 0.1824014 -0.2940183 0.02689792 -0.46503955
674 0.106842935 -0.5660068 0.75591135 0.3295545 0.07634011 0.049655847 0.4622484 0.40103036 -0.59995013 -0.07738458 0.10849679 0.38396403 -0.39452693 -0.4878858 0.22644906 0.39186278 0.065109596 0.5123646 -0.032938775 0.1899086 0.009284137 0.2111926 -0.0008695833 0.17605506 0.2535862 0.073094584 0.27338034 -0.0018364645 0.9683192 0.47245273 0.18244988 -0.2979781 -0.28622186 0.34741604 -0.14263695 0.046782393 -0.5287526 0.62075275 0.643247 0.16815673 -0.08062067 -0.12387314 0.09828706 -0.5462281 0.026604269 -0.7895816 0.5150822 0.06609889 0.2642402 -0.63218105 -0.078598134 -0.3710173 0.7897617 -0.5750069 0.41333184 0.5410686 0.40662783 0.10449736 0.2367771 0.006921383 0.15462302 -0.7015582 0.53444123 -0.14940165
2290 -0.19073112 0.6513167 0.09921087 -0.5138178 0.23453113 0.30698043 0.017744899 0.45028654 0.3062751 0.29128474 -0.6210294 0.09917172 0.42074534 -0.014070378 -0.027573533 0.07264698 -0.33330628 0.4205346 0.5688427 -0.82550323 -0.5831333 0.87882745 0.20718679 -0.32894868 -0.7126174 -0.1859459 -0.0022560977 -0.1660827 0.5556835 -0.06669571 -0.44924948 -0.42581543 -0.12669955 0.29172063 0.4489461 -0.5766322 -0.21960318 0.4622342 0.6635267 0.18944785 0.926438 -0.5758773 -0.0059088524 -0.43186986 -0.06406482 -0.5908779 -0.13716613 -0.26852933 0.63497937 0.3740487 -0.3437929 -0.13631362 0.37007406 0.18003885 -0.4914996 0.6665736 -0.027166925 -0.14607424 0.72330123 1.039433 0.290886 -0.95993465 -0.09529877 -0.53735316
1873 -0.44892594 -0.58577114 -0.6711243 -0.68798506 0.36848775 0.32693088 0.53115356 0.1475797 -0.28132877 -0.091526374 -0.691944 -0.10952517 0.15611845 -0.35822615 -0.11546143 -0.1477196 0.48823023 0.7296242 0.8853232 -0.186639 0.01909191 0.6715487 0.16917823 0.12367179 -0.13323298 -0.04061963 0.041548032 0.29915515 0.025939934 0.7817736 -0.43152925 -0.044766534 -0.2445767 -0.87921697 0.3442658 -0.1802716 -0.31579703 -0.037735872 0.22998196 -0.34146637 0.2792715 -1.1565111 0.03184097 0.42429167 0.40269735 -0.82073766 0.19030696 0.35649487 0.49900863 -0.3998883 -0.6345327 0.11328292 -0.7416711 -0.5914544 0.44883496 0.38851178 -0.10596347 0.01796947 0.28378147 0.41817346 -0.4548419 -0.5076779 0.4185081 -0.153696
2251 0.13562216 0.10481929 -0.47805667 0.4416073 0.7918195 0.020254312 -0.46723613 -0.14951302 -0.1864773 0.79711056 0.47598588 0.7914806 0.37487885 -0.064420305 0.2704737 0.44863695 -0.50971574 -0.31225812 0.38107893 -0.035548553 0.25906605 0.20472977 0.61754185 -0.20369118 0.4157022 -0.19063117 0.5724548 1.0890437 0.1572429 0.41468215 -0.47053978 0.3970632 0.07684941 -0.31439954 -0.34802267 -0.5090741 -0.4121535 0.6858019 0.070676 0.523703 0.32381085 -0.36760157 -0.13410644 -0.4598851 0.28792733 0.050641667 -0.07192823 -0.2424264 -0.01923272 -0.1429911 -0.5179221 -0.23786919 0.38801366 -0.32490897 0.55891407 -0.7002282 -0.17114018 -0.8180286 -0.49804637 -0.1275748 0.24252194 -0.4537402 0.35866198 -0.99637526
2558 0.18525815 0.24902011 0.2192298 -0.05447538 -0.09317133 0.8420588 -0.18900451 0.086297594 -0.5283887 0.28922984 -0.22280602 0.43498534 -1.0219015 0.15982969 -0.60176104 -0.06349206 0.38545135 0.19094762 0.35343683 -0.82857573 0.49616256 1.2603549 -0.22198029 0.19524308 -0.564894 0.20135704 0.90993994 1.1942753 0.19576254 -0.25927374 -0.17087023 0.28820917 -0.09377045 -0.07007052 0.15074717 -0.8950256 -0.20825154 -0.762099 0.459947 -0.25771105 0.32030192 -0.12902416 -0.9911445 0.31816486 0.71587294 -0.3691809 0.5934205 -0.30635577 -0.7114153 0.08891601 -0.77921486 0.43355605 0.8794015 -0.36164176 0.17964111 0.2563438 -0.12741703 0.07330664 0.2125007 -0.54676145 -0.35263205 -0.05881303 0.6721379 0.503504
1426 -0.12580396 -0.3631384 -0.31646556 -0.59718746 -0.029994685 0.3978634 -0.013691273 -0.04170432 -0.77467436 0.4628012 0.61063355 0.32142475 -0.66485375 -0.36508298 0.045879744 0.18959641 -0.6270763 -0.030363798 -0.7580895 -0.77461034 -0.086515896 0.32429856 0.14102776 0.186382 -0.27988055 -0.1519629 0.5443624 1.2047914 0.28908002 -0.0350743 0.09097809 -0.26254243 -0.42326063 -0.5559511 0.1573789 -0.9838184 0.5786112 -1.138331 1.5178969 -0.15823047 0.02567223 -0.10806153 -0.40750742 -0.62595916 -0.24360469 0.4048365 0.35417622 0.053759396 0.3654199 -0.62105066 -0.52733487 -0.11408362 -0.027438907 0.6123951 0.31626153 0.58470976 0.31424516 0.28724194 0.6540643 0.09406111 0.24639148 -0.3812676 -0.4019196 -0.09576079
2010 -0.7843468 0.3920097 0.101886585 0.0073419726 0.21431357 0.5608585 0.69918436 0.29370156 0.2596375 0.5271565 0.1923681 0.25908282 -0.30874887 -0.51167214 0.05694177 0.12699302 -0.096970245 0.67314947 0.6634958 0.2431685 -0.08703302 -0.35387605 0.06846455 -0.042628415 -0.4703816 -0.06321803 0.10065983 0.13024537 0.29294202 0.40219763 -0.31451204 -0.8786702 -0.032646123 0.31046873 -0.56379634 -0.103360385 -0.27459672 0.20178498 0.4634889 0.08795932 0.11602391 -0.2430916 -0.49699023 0.21251428 -0.16872165 -0.034947142 0.8793964 0.52559066 -0.7958236 -0.34158748 -0.07153505 -0.033502713 -0.16473834 -0.23759413 0.18893434 0.043516275 1.0401986 -0.0021349834 -0.31861755 -0.34638724 -0.2432471 -0.09615607 -0.013280368 -0.8701327
772 -0.41656667 -0.1566454 -0.21775927 0.11926194 0.26442856 0.3005306 -0.5827552 0.01832885 -0.5713073 0.539576 0.04828237 -0.23012087 -0.31958216 0.24220228 -0.3880917 0.27013424 -0.13245529 0.56414336 0.6545106 0.18371595 0.6819206 0.16364773 -0.078551196 -0.29690015 0.41988835 -0.44574666 0.08343591 0.11248809 0.23594952 -0.42253572 0.1549184 0.271355 -0.44052687 -0.4360533 -0.8280245 -0.22758201 0.5168124 0.9729531 0.7009412 0.9290871 0.14091636 -0.24346018 -0.66413844 -0.290436 0.8193574 0.14745991 -0.6052423 0.98582125 -0.08975644 -0.7285183 -0.3546036 0.10555468 0.42855248 0.3563949 0.1665697 -0.05421234 0.1261889 0.8611231 -0.07584163 0.19984575 -0.13050422 -0.6678693 -0.024398072 -0.77300537
25 -1.124498 -0.3870055 -0.29049096 0.26208118 -0.011560233 0.39964688 -0.6676112 -0.35759684 -0.04544678 0.41014323 -0.20914945 0.24374793 -0.5898709 -0.7681846 -0.024879836 0.046622355 0.12721027 0.43549567 0.80475307 -0.049594823 0.16974467 0.42677355 0.010791537 -0.42619947 -0.5430981 -0.14044964 0.15858899 0.46239865 -0.085509144 -0.08082556 0.10142177 0.29083937 0.23029251 0.29952016 -0.021353321 -0.17941391 -0.32689857 0.18816264 0.13026804 0.9978914 1.0504466 -0.41012132 -0.37590006 0.115519516 0.5653396 0.23597376 0.21924755 0.12437108 -0.047342513 -0.31757465 -0.89895314 0.48354247 -0.13679154 -0.030339783 1.3749176 0.039372534 -0.022843624 0.026978433 -0.70512605 0.51961654 0.6287366 -0.22810589 0.04731682 0.36297825
395 -0.050184272 0.5265531 -0.67873365 -0.76052064 0.2655523 0.495111 0.21857776 0.111095056 -1.0655086 0.14067475 -0.1491811 0.17769888 -0.36492208 -0.6591725 -0.41470736 -0.22488824 -0.14497495 0.15466294 0.16884346 -0.87208164 0.06550878 0.7391118 -0.28719628 0.116861306 -0.17456436 0.819194 0.28673056 0.69105744 0.157268 -0.34933564 0.08694733 0.2933248 -0.68895316 0.07774812 0.12381709 -0.68653035 -0.09617304 -0.19197299 0.042914398 -0.9332191 0.12557097 -0.5769416 -1.0855134 0.4368338 0.6572429 -0.37524348 0.469072 -0.08343862 -0.3744417 0.20841438 -0.89609444 -0.2581307 0.03326538 -0.06798476 0.9852035 0.10105828 -0.39490396 -0.0038115103 -0.48447543 -0.074367225 0.3015297 -0.15162514 0.15462546 0.1215605
1466 -0.11885684 -0.1383391 -0.6938556 -0.33560804 0.25972944 0.36182007 -0.035529826 0.2926388 -0.2451343 -0.2398987 0.40899703 0.15665534 -0.36290082 -0.553384 0.2907694 -0.16464913 0.32946426 0.30554804 0.16439155 0.23886882 0.787559 0.29152754 -0.21598718 0.1704674 -0.020227786 -0.54273313 0.17677876 -0.039843403 0.16185291 0.028241493 -0.0053795655 -0.9628508 -0.25655377 0.32204887 -0.7373551 0.035207503 -0.40097153 0.28924435 0.098487735 0.6560103 0.0723722 -0.7604719 0.049807955 -0.2139256 -0.22665536 0.040761646 0.5583821 -0.13033791 -0.014811539 -0.3292634 0.027161319 -0.21887086 -0.08616264 -0.48001832 0.09988419 0.18937194 0.4965583 -0.17912804 -0.21413988 -0.13992517 -0.7809075 -0.61721987 0.33354935 -0.23965926
1658 -0.33113173 -0.3402586 -0.29483584 -0.026908461 0.13342431 0.2603324 0.4945373 -0.016666997 0.23029353 -0.104499534 -0.16688271 -0.10211325 -0.18483318 -0.39107203 -0.15863723 0.38678065 -0.77748 -0.35341477 0.24501245 -0.19390117 0.5013489 -0.62061477 -0.27793452 0.39726338 -0.18638924 -0.5534996 0.4046596 0.13567013 0.33125895 0.084090054 -0.13897753 -0.4029772 -0.4341521 1.0666307 0.2193448 -0.31849968 -0.21195172 -0.5183324 0.6163114 0.58566546 0.5591777 -0.5713905 0.25857338 -0.12621292 0.07267234 -0.31035107 0.16431236 0.16785994 -0.3939037 -0.15505028 -0.2980049 0.034098037 0.40503207 -0.6326001 0.17669398 -0.3632804 -0.06736364 0.318172 -0.41761857 0.45559213 -0.7921746 -0.13040935 0.47276306 -0.29525858
1512 -0.11672433 -0.71518236 -0.031044133 -0.03496742 -0.0040974147 0.58192766 0.05829658 0.16479912 -0.055637944 -0.207291 0.1771389 0.20989369 0.19667622 -0.5033162 -0.8272177 0.51104873 -0.4837809 0.21782205 0.3044638 0.9554929 0.59294826 0.02998869 0.16196957 -0.19967622 -0.3743036 0.10350924 0.58555144 0.34745377 0.45781475 -0.056778327 0.6978747 0.12208837 -0.44145045 -0.29272327 -0.77922857 -0.65596193 0.43102336 0.8694565 0.07219207 0.1467128 0.06379384 -0.09603661 -0.12885882 -0.41534576 0.4379033 -0.13277146 0.6340542 0.5450932 -0.32814962 -0.60124683 -0.054978378 -0.12296316 0.37881592 0.1548198 0.34078708 0.19694364 -0.038148243 0.6687642 -0.20253071 0.12371769 -0.8497308 -0.1242576 -0.65964526 -1.2999701
2707 -0.92002004 0.13503478 -0.18506016 0.030948192 -0.64400655 0.28591868 0.37233308 0.16181433 0.38723716 0.7140098 0.37018812 0.07888632 0.20343049 -0.093091756 -0.002671253 0.7220918 -0.18239737 0.6818274 0.5402151 0.47295752 -0.07255443 -0.20397064 -0.30043155 -0.28682256 -0.056383673 0.68684 0.11737668 0.023018915 1.3121052 0.7007672 -0.16105911 -0.5145937 -0.32517067 -0.85339063 -0.19189605 -0.5544061 -0.25471944 0.13416171 -0.023913933 0.42467362 0.42529714 -0.60794437 -0.94671726 -0.16344431 -0.947965 -0.020237971 0.9079139 0.28545713 -0.98551697 0.20768173 -0.0800596 -0.15333986 0.42271852 -0.18539748 0.40447277 -0.3511521 0.8145423 0.34559184 0.1452308 -0.15407331 -0.18047106 -0.12985611 0.32147205 -0.32730514
2220 -0.30557978 0.039219804 -0.39798218 0.39080513 0.2594365 0.11953927 0.189815 -0.59892195 0.6520347 0.08249096 0.06847177 -0.7377657 0.5487213 0.115413144 -1.0453598 -0.960113 -0.23165995 1.1385181 0.31160685 0.008815251 -0.56533605 0.7423679 0.8126636 -0.27574426 -0.92957854 -0.5902297 0.25674483 0.42944214 1.2380229 0.18362454 0.15127754 0.4162528 -0.24007118 -0.2837394 0.046109844 -0.5163741 -0.455407 -0.3918178 0.42905205 0.23739626 -0.31631717 -0.053660095 -1.4012097 -0.22085233 0.10059385 -0.32216242 -0.13031399 -0.9678718 -0.0058270465 -0.2251759 -0.54929006 -0.08441321 0.5091909 -0.22565424 -0.63976794 0.35402098 0.23306295 -0.3547136 0.17738067 -0.0032939618 0.77212846 -0.67649114 -0.15096168 -0.64144963
2661 0.9543743 0.28591374 -0.15808854 -0.14501423 -0.86855364 -0.04282757 0.5798834 0.33735588 -0.57839876 -0.9831593 0.3414536 -0.2958965 -0.09524567 0.0051111514 -0.2792357 0.5362668 0.41884175 -0.17956889 0.2598699 0.21731637 0.3804883 0.43079004 -0.264754 -0.06220085 -0.36341944 -0.30797938 0.58764046 0.31835738 1.3108091 0.7109509 -0.78510165 -0.33506152 -0.2857319 0.33739504 -0.025300808 -1.6386017 -0.08808985 1.145933 0.42587006 0.97163594 0.22902887 0.14667448 -1.0346868 -0.12550403 0.34295437 1.0539773 -0.6641863 -0.35183966 0.72866637 -0.08843797 -0.7010736 0.18714 0.5831202 -0.10132876 0.5994912 0.51765734 0.11137871 0.26194426 -1.1418833 0.21447259 0.6299722 -0.8655619 0.33241534 -0.55044156
26 -0.35120273 -0.3453849 -0.2180387 0.13850535 0.21454373 0.3228121 -0.12833416 0.23622245 -0.37055996 0.05782305 0.33215678 0.4061467 -0.3998745 0.10958328 0.40637562 0.17158732 -0.15154305 -0.024994303 0.72557473 -0.19500965 -0.107033275 0.3754659 0.08141397 0.22819139 0.12725018 -0.46457845 0.1696547 0.2898708 0.23658778 0.18245114 -0.15503326 0.46728498 -0.36979952 0.33420417 -0.7300823 -0.05419155 -0.09543252 0.7884634 0.09722262 1.1589383 0.11640155 -0.042174034 -0.19638215 -0.4046 -0.023023713 0.38637546 -0.3082079 0.6892287 0.07533713 -0.2660821 -0.6728855 -0.14373784 -0.03395308 -0.72449285 0.18960382 0.04044689 0.24853207 0.17005694 -0.6285926 0.2589686 0.3505993 -0.42055124 0.27293256 -0.35097137
168 -0.21443349 -0.58358324 0.10676906 -0.16861744 0.17459862 0.8065742 -0.55256873 0.043107037 -0.15589853 0.43771538 0.49908963 0.044847846 -0.15671818 -0.1826534 -0.058057487 -0.44523233 0.11203911 0.0023645698 0.6749634 -0.6110983 -0.3320377 -0.0076699518 -0.8488335 0.1774776 -0.123554565 0.32563207 0.72531676 0.8494394 0.8436193 -0.49901503 -0.27405846 0.44744274 -0.47770154 0.32379496 -0.45680186 -0.2871527 0.48368108 1.3305058 0.07299951 1.242006 0.36936417 -0.64248127 -0.1928372 -0.11303901 -0.5011719 0.6827859 -0.50270194 0.08770329 0.24140698 -0.43149477 0.0894524 -0.0022367022 -0.11925032 -1.1337025 1.0557222 -0.15903544 0.5215343 -0.25912434 -0.035350796 0.1487065 0.18227454 -1.3312254 -0.07707827 -0.26351607
57 -0.40114945 0.3390095 -0.02611671 -0.069554426 0.6942331 0.4045869 -0.08396008 0.09497885 0.4881904 0.16821623 0.02620787 -0.23548916 0.7098463 0.066706195 -0.3931195 -0.6413645 -0.47116306 1.0470457 0.25667566 -0.47655392 0.10188705 0.46977094 0.87116927 0.17913635 -0.6747857 0.17072017 0.06416794 -0.16309874 0.93802375 0.14862825 -0.010784137 0.0467604 -0.16477215 0.053962763 -0.01924619 -0.7024178 -0.31247273 -0.083464704 0.07829961 0.44292736 -0.118582174 -0.04160588 -0.39358085 0.11009748 0.16875236 -0.40144768 0.19208309 -1.0799489 0.5733618 0.25070733 -0.33684975 0.513644 0.6166146 -0.19425087 -0.81630623 0.110015966 0.11007484 0.052564684 0.07469199 0.4788979 0.10962859 -0.80901235 -0.51935333 -0.49845323
7533 -0.7342991 0.6059291 -0.8141729 -0.09522544 0.29992247 0.35893613 -0.23740017 -0.16282211 -0.730142 0.38263157 -0.42811203 0.4630328 -0.56825846 -1.1635588 -0.43778694 0.2367158 0.25472033 0.51017314 0.20596896 -0.49070913 -0.1496385 0.010992384 -0.590908 -0.46143138 -0.23980162 0.020106906 0.40366802 0.6590663 0.102475956 0.037433855 0.53210044 0.26207668 -0.6907272 0.16430742 -0.12779163 -0.50742525 -0.7304684 0.06374341 0.0047032563 0.11892259 1.1014545 -0.20175928 -0.87548995 0.39639992 0.62973917 -0.044816606 -0.15802823 -0.4000657 -0.6139239 -0.081859656 -0.6958642 -0.094326824 -0.07296571 0.19798622 1.556378 0.35963836 -0.6575897 0.14950763 -0.3827358 0.23264764 0.50737333 -0.49254674 -0.09720757 0.47224322
6539 0.76760596 -0.7160581 -0.22443052 0.45058167 0.32626516 0.4957565 0.17311634 -0.0052162367 0.6477777 -0.254877 0.12190933 0.5342544 -0.44452816 -0.3647047 -0.23963064 0.5317459 -0.5782917 0.28288364 0.123616174 0.58988047 0.07253238 0.4461317 0.012382009 0.46404776 -0.25069994 -0.14949478 -0.048118863 -0.081353866 0.9976979 -0.22961818 0.08211731 -0.7663142 -0.71024716 -0.29922563 -0.823577 0.04112612 -0.4430091 0.56595546 0.6264486 0.18788782 -0.048379507 -0.6342112 0.49858236 -0.30960912 0.6853049 -0.09961243 0.18368089 -0.58482724 -0.32418308 0.108547516 0.02067821 -0.4414892 -0.059241936 -0.34345844 0.51149964 0.090995304 -0.098371856 0.098977886 0.2692077 -0.3181733 -0.30511346 -0.34186924 0.7305868 -0.46448493
1853 -0.3118768 0.19255774 0.5505795 -0.48148704 0.32981938 1.4361526 -0.07696833 0.15103471 0.2529486 0.61816365 0.17903326 -0.53207666 0.747564 -0.09494846 -0.5047684 -0.20537615 -0.41130224 0.8781513 -0.051343985 -0.33299682 0.19034256 -0.036121808 0.52906376 0.30409294 -1.0572138 0.3419108 -0.12573053 -0.37201026 0.49707842 0.6850125 -0.51897657 -0.23950623 -0.31168082 -0.05536513 -0.54312027 -0.5679913 -0.49062905 -0.31385648 0.4668302 0.18768972 -0.07754884 0.12672064 0.11236212 0.59339046 -0.29156616 -0.5964447 0.08504557 -0.7683209 0.23370063 -0.74265116 -1.044133 0.580374 0.82824653 -0.12571682 -0.4421141 -0.5347624 0.5744586 -0.29679468 -0.12728791 -0.0625943 -0.040573183 -0.458986 -0.93341684 -1.0843971
1736 0.10245705 0.70480335 -0.7311878 -0.45876226 0.06354197 -0.026702052 -0.25111562 -0.24321386 -1.2365465 0.08831237 -0.36925894 0.32108727 -0.19564322 -1.0232288 -0.51555043 -0.2876087 -0.1684207 -0.30429885 -0.24840042 -0.8116145 0.29533386 0.8026321 -0.16783948 -0.38014966 -0.2927395 0.80462027 -0.093410425 0.8811471 0.38968247 -0.47529083 -0.14828447 -0.51578563 -0.43017516 -0.01762143 0.21667032 -0.4579965 0.65614724 -0.56712025 0.67244905 -0.47480246 -0.5135072 -0.20036855 -1.3577199 -0.43051687 0.49488756 -0.35651407 0.5072241 -0.46170074 -0.9308309 -0.44060445 -0.9839477 -0.06496802 -0.37938744 -0.10897134 0.7128502 0.10102886 -0.018692216 0.29138893 -0.05643652 0.21472166 0.34780154 -0.500994 -0.21559747 -0.6378707
2221 -0.1281261 -0.1186463 -0.6142927 -0.17103642 -0.58364815 0.10796959 0.38794106 -0.8484305 -0.060449064 -0.1860316 0.120408006 -0.61156416 0.63381195 0.3041947 -1.3075768 -0.3668428 -0.18736567 1.1529449 0.42155728 0.58539087 -0.5060042 0.9734168 0.64560854 -0.08880731 -0.417023 -0.47991538 0.995893 0.18344232 1.3298154 0.3205704 -0.48156476 0.15110093 -0.04632811 0.49442837 -0.23504035 -0.10223515 -1.0592927 -0.33015373 0.61888903 0.16454399 0.065180406 -0.23916337 -1.0753164 -0.92773986 0.24177253 0.2802431 0.5977489 -0.46073183 0.017918203 -0.7745357 -0.50814146 -0.108212546 -0.043422192 -0.12828939 -0.5822777 0.15799184 -0.46788913 -0.67081904 0.28680468 -0.05216077 0.99675226 -0.032193806 0.17494343 -0.19760078
1511 -0.11259768 -0.71001375 -0.73185194 -0.52793556 0.0031755457 0.42216143 0.2876881 0.3173826 0.5320538 0.4423165 0.38608962 -0.24251267 0.4327791 -0.03486272 -0.8181439 0.21211396 -0.5200295 0.72891396 -0.035304505 0.43834925 -0.076499134 -0.08481701 0.3319232 -0.45066527 0.21524239 0.9811571 0.944371 0.14618626 0.92878795 0.571153 0.50578904 -0.21783412 -0.37048933 0.19518423 -0.05464859 -0.9452717 0.37567475 1.1781318 -0.48754638 0.1554049 0.13766602 -0.035946537 -1.1308094 -0.7504358 0.58447725 0.12586704 0.6828675 1.1383685 -0.8365593 -0.6652556 -0.41125062 -0.42592794 0.35909155 0.6204372 0.5412028 0.16523314 -0.13710026 0.8787689 0.22834592 -0.3020769 -0.7925468 0.04978748 -0.1906727 -0.8041809
2654 0.3203168 0.7366021 -0.37800953 0.7519238 -0.974798 0.09171984 -0.5314285 0.88562536 -0.33928877 0.42257088 -0.622204 0.19698836 0.7402279 -0.71802044 -0.8642072 -0.3841437 -0.10825268 -0.003918051 -0.5652388 0.1644305 -0.19649442 -0.48817977 0.6557862 0.53685707 -0.05005889 0.72242814 0.36758342 1.0911081 0.347895 -0.10485608 -0.13203809 -0.8439164 -0.060390443 0.43658412 0.9260861 -0.22013329 0.6036891 0.068737924 0.5223717 1.437556 -0.05340591 -0.4782831 -0.39961514 0.27057907 0.868835 -0.59991026 0.26652604 0.05274188 0.39947608 2.3816974e-05 -0.38069776 0.04133901 -0.021510215 -0.08038524 -0.44773665 -0.07015281 0.33456144 0.52717054 -0.44050854 0.2876353 -0.210288 -0.8475045 0.42762062 0.21624058
4201 -0.28018567 -0.26285407 0.2396941 -0.14848697 -0.13830745 0.21712309 0.10196308 -0.05049872 -0.7692655 -0.16735569 0.6081654 0.34572637 -0.103576854 -0.64342684 -0.48600712 0.6758069 0.0055415975 -0.02838762 -0.0363482 -0.16586637 -0.37188664 0.2288785 0.5743457 0.1287846 0.5061427 -0.259785 0.17453104 0.047979347 0.034990367 0.3554143 0.17470936 0.334441 -0.040958658 0.5290819 -0.063155964 -0.609653 0.16344298 0.07350008 0.7854646 0.8121961 -0.008775595 0.028782127 0.41891947 -0.47893295 -0.47384652 0.007196941 0.13253704 0.27370542 -0.11188423 -0.33697507 -0.31795567 -0.32109693 0.27271193 -0.53722876 0.6408907 0.293669 0.18387827 0.43399793 -0.47231776 0.23407516 -0.6128405 -0.36194727 0.47977814 -0.6451291
1861 -0.3631838 -0.38693827 0.48094374 0.39243397 -0.0306371 0.41592997 0.32541084 -0.48908386 -0.41794068 0.42997846 0.2217609 -0.25278756 -0.09520661 -0.63573784 0.16015546 0.5038238 0.07526326 0.09628711 -0.3768573 0.1674597 0.29687616 0.30149084 0.19329134 0.21191475 0.28046447 -0.23791638 -0.007704569 0.19271679 0.7443337 0.75452 0.122817256 0.094891936 0.070398524 0.9434484 -0.01963815 -0.9404887 -0.10343761 0.3188945 0.47516096 1.0490987 -0.051676203 -0.48692307 0.10726397 0.16875929 0.15551305 -0.51539767 0.5881933 0.8934475 -0.55120957 0.12290553 0.16829407 -0.18417847 -0.0018358649 -0.16870996 0.50079495 0.58344066 0.5666529 -0.1559355 0.72947466 0.18769667 -0.32576764 -0.4044022 0.19978556 -0.89032406
2557 0.28571588 0.25794482 0.22302699 0.5914119 0.039242867 0.6493704 -0.7457638 0.14612816 -1.1324079 0.3921251 0.443059 0.5044129 -0.65318435 0.04228213 -0.33315334 -0.08489532 0.11047987 0.9244519 0.4075997 -0.9066457 0.49362788 1.5634634 -0.12473965 -0.26067412 -1.1472684 -0.025290338 1.402553 0.9276961 0.15912394 0.16568467 -0.8234964 0.10418287 -0.106036395 0.072341464 0.38007477 -0.53242224 -0.5945187 -0.5244354 0.89701265 -0.112713374 0.49191126 0.45378396 -0.79557765 0.39644945 0.9487798 -0.6534793 0.24515393 0.09476798 -0.81398153 0.021734564 -0.81554973 -0.3810567 0.626111 -0.6380793 -0.118217036 0.63134515 -0.42770758 0.6207331 0.43906155 -0.6911892 -0.39067963 0.19580668 0.07950241 0.36976737
675 -0.044356298 -0.5319816 0.9106266 0.5446999 -0.103011236 0.19394632 0.51492715 0.5062267 0.27197567 -0.27237955 -0.08325506 0.14288291 -0.30421555 0.13534604 -0.22588052 0.4289097 0.62008744 0.45248666 0.9716457 -0.24019352 -0.44067854 0.7136708 0.2852333 0.37520233 0.31978583 0.46448866 0.26986143 0.52113914 0.29358482 0.046699863 0.9044043 -0.52345014 -0.60355693 0.42635974 -0.06526559 0.012932057 0.09106862 0.4527646 1.5096434 -0.18092848 0.28626788 -0.36973006 0.093947284 -0.57614684 -0.11965315 -1.0523081 1.5349233 0.31586736 -0.06928849 -0.2016694 -0.4988283 -0.20820655 0.95714635 0.13749379 -0.021247271 0.36572483 0.07641698 0.37029904 0.19525234 -0.044795826 0.7745744 -1.5882004 0.6921093 -0.20076685
4552 -0.34684464 0.05508256 0.13218285 0.00509882 -0.20989646 0.58088326 -0.018347632 0.14633325 -0.14392424 0.280198 0.04119482 0.31254515 -0.26463675 -0.70594156 0.6607546 0.2879066 0.008091514 0.53239036 0.7084435 -0.01160485 -0.17557555 0.19352248 -0.02628058 0.016001536 0.007851967 -0.37125757 0.44507217 -0.29084674 1.2457558 0.40334117 -0.16598356 0.042115346 0.03528057 -0.010358295 -0.18290631 -0.03490003 -0.118639834 0.9919338 0.60443 0.3659632 -0.22289206 0.2981203 -0.21096392 -0.1584044 -0.49198437 -0.17967235 0.61737955 0.65063715 -0.42131245 -0.9011003 -0.12739134 0.23133123 -0.1035945 -0.323317 0.14181413 0.3071501 0.35535893 -0.15004426 -0.43936512 -0.2992935 -0.036070514 -0.058101308 0.67769164 -0.37941715
2098 0.7740536 -0.4152151 -0.6268655 0.77264285 -0.5461255 0.24184631 -0.30948526 0.3507433 -0.57533294 0.5787759 0.30888322 0.024559407 0.29832348 -0.40395656 -0.6836439 0.10848944 -0.68284404 0.14813901 0.111289084 -0.51389503 -1.4522519 -1.1089652 -0.4403993 0.65539616 -0.35070446 -0.5373967 0.6232297 0.4617113 0.16855071 0.32233244 -0.6641556 -0.80985206 -0.35216573 -0.55660677 0.5497241 -0.31485522 -0.35750064 0.3265437 0.58906436 0.4334032 0.402253 -0.52869195 -0.21030857 0.39461353 0.36642423 -0.670912 0.26124007 0.25221208 0.19388486 -0.2044395 -0.30767727 -0.39278468 0.12159181 -0.08408888 -0.015193055 0.12160366 0.42921537 -0.5488768 -0.08055974 -0.5131386 -0.8905255 -0.37563047 -1.0285747 -0.12001588
1467 -0.3589708 -0.3890979 -0.7408453 -0.22587696 0.64360446 1.0833154 -0.5655628 0.13436812 0.03673745 -0.52422214 1.0116256 0.37925562 -0.3235274 -0.57886004 -0.18967961 -0.2813203 0.25531965 -0.19048949 0.098543435 0.13755046 0.6594573 0.355237 -0.36907327 0.42541146 0.2320875 0.4899712 0.15482163 -0.2582061 0.06304335 0.30985773 -0.9426483 -0.7745385 -0.6507722 0.13800515 -0.77225333 -0.13928232 -0.7058719 0.3580182 0.62889946 0.5115647 0.5237434 -0.2656747 -0.75492626 0.20650774 -0.19462852 -0.13224027 0.837093 0.9446058 0.29993397 -0.80634695 0.52150273 -0.14212923 0.08200558 -0.33021155 0.10487187 0.38478723 0.057111852 -0.2225644 -0.12711972 0.26017767 -0.6559071 -0.81764835 0.1212089 0.32767963
2240 -0.004073569 -0.9067909 -0.71731615 -0.15272658 0.9605878 0.885469 -0.9015111 0.011666862 0.72692955 -0.29627272 0.97990435 0.21232907 -0.39052555 -0.30981627 -0.61364865 -0.3038253 0.12746698 -0.3463932 -0.52823764 0.3458154 0.8215802 0.2757624 -0.036957566 0.40872136 -0.18083185 0.4203644 -0.23591031 -0.08804467 0.39209956 0.102575436 -0.9606356 -1.1660719 -0.5016705 0.22161138 -0.07304159 -0.7948292 -0.81543756 0.43777168 0.92925376 0.047739387 0.36526132 -0.16204272 -1.9373469 0.26834598 -0.21201463 -0.29180783 0.69247264 1.2605954 0.44364828 -0.87483317 0.0060896752 -0.07316595 0.32674977 0.19510344 0.31322536 0.36893222 -0.046501387 -0.30129707 -0.5780931 0.5653435 -0.57499516 -0.70644087 0.5793693 0.6630534
9176 -0.24939391 -0.2478261 -0.036574833 0.36666986 0.1722978 0.29289424 0.49107426 0.6136255 -0.32739493 0.4474051 0.27733514 -0.1029039 -0.2750731 -0.9457272 0.17930777 0.04738049 0.151503 0.36781338 0.3395046 0.6297776 -0.3184385 -0.04164206 0.2642068 0.442598 -0.28116813 -0.27715874 -0.007416138 -0.1898015 0.19020127 0.65481704 0.35992542 0.0074273776 0.14484192 0.7546164 -1.010506 -0.36155432 0.27010393 0.39566955 0.8596751 0.27757788 0.16071029 -0.5391733 -1.1517215 -0.1146704 0.10367016 -0.31194046 0.52297175 0.38594034 -0.21829 -0.096452944 0.19205384 -0.0076050316 0.64182967 -0.10027552 0.63962084 -0.06344942 0.4500657 0.19421233 0.3546644 -0.37486872 -0.31196007 0.2534536 0.07769349 -1.0204327
2420 -0.1520502 0.09379394 -0.5773284 0.17944513 -0.7117292 0.572216 -0.8011894 -0.2652252 -0.53416663 -0.072010376 -0.4593604 0.91891205 -0.47313803 -0.40708607 -0.49662164 -0.22749291 0.020084718 0.08724981 0.29561874 -0.45183292 -0.19980009 -0.2785263 -0.88752687 0.7463603 -0.7331328 -0.013882566 -0.14653777 0.8620564 0.5928491 1.0085934 -0.68368506 0.301623 -0.33676764 -0.17006917 -0.2223342 -0.26214948 -0.45245156 -0.7972354 0.6706359 -0.3979636 -0.76085186 -0.23858133 -0.10675607 -0.8663299 0.9545275 0.26008084 0.28845143 -0.21970409 1.2869428 -0.17157367 0.17890067 0.86127996 0.8752474 -0.032409355 0.90156347 0.13079685 -0.118720874 0.0844799 -0.09103206 1.1780477 -0.36667016 -0.28916278 -0.17045265 -1.0290252
1657 -0.9460273 -0.5620979 -0.65820307 0.051866695 -0.32811603 0.04782205 -0.39244175 0.10793704 -0.70026445 0.012686646 0.063863665 -0.34745222 0.2993165 -0.5268994 0.29636467 0.03661948 -0.7613546 0.21183671 0.596992 -0.37932268 0.5762773 -0.61039025 -0.12260816 -0.20112702 -0.73655397 -0.2947417 0.24795114 -0.35923848 0.0653451 0.54918736 0.56452364 -0.28780425 -0.71231735 0.5451611 0.10240665 -0.3599954 0.07638087 -0.074949056 0.6010611 -0.1326762 0.7529481 -0.347546 -0.26069152 -0.2962541 0.41196555 -0.47134995 0.22281452 0.18992203 -0.15266801 0.2645057 -0.751401 0.56276786 -0.51847506 -0.47662652 0.26118314 -0.19190975 -0.1506109 0.25450912 -0.27452168 0.48102984 -0.46495888 -0.31080508 0.7537148 0.37814537
76 0.34842107 0.42574534 -0.087580405 -0.048965335 -0.31997278 0.72632307 -0.12646438 0.58339363 0.034304302 0.7127128 -0.32294598 -0.55767703 0.30662024 0.30517378 -0.6119988 0.3243886 -0.073417105 -0.1957932 -0.21846151 -0.7954014 -0.7904548 -0.22250226 -0.090718634 -0.08224808 -1.0697901 -0.051432863 0.12014294 0.09412005 0.43473086 -0.13505667 -0.52683634 -1.0058132 0.13317989 0.44402397 0.06442807 0.13702244 0.25934908 0.25589204 0.72033465 0.16996983 0.9755278 -0.70416665 0.2086388 -0.0045815813 0.1915935 -1.0166063 0.56534636 0.38802356 0.8212842 0.27366602 -1.1387489 -0.13078462 0.31520936 0.19504003 -0.534663 0.78784066 -0.123434514 -0.4854237 0.16083804 0.82571435 0.32457003 -0.6655753 0.08124199 -0.79784375
701 0.1326028 -0.837344 0.00091354264 -0.15085527 -1.3401396 -0.37821874 0.11765129 -0.67156225 -0.54342794 -0.6260842 0.100860484 0.6110957 -0.18186553 -0.7433864 -0.9154278 0.3670803 -0.62866 0.50090945 0.200597 0.010305749 -0.27134192 0.24109074 0.86768514 0.459727 -0.7043643 -0.28477046 0.4628486 -0.12224883 0.19162375 0.3781319 -0.9190741 0.23799004 -0.2899369 0.00089105853 -0.65112907 0.36347094 -0.44840413 0.1247637 0.38630986 0.4824486 0.3322408 -1.0828277 -0.7072207 -0.5227462 0.74782616 -0.29648113 0.2500772 -0.61047596 -0.08785735 -0.42107004 -0.10052091 -0.42549688 0.19644675 0.17582265 -0.59808564 -1.186936 -0.29116207 -0.63980484 0.36248437 -0.5907276 0.3213782 -1.1060125 -0.1888877 -0.5551027
5046 0.67192066 -0.92883635 0.58062375 0.18924426 -0.023896165 0.08457005 0.1423988 -0.06682948 -0.48329288 0.43620527 0.16754797 0.12815997 -0.46498102 -0.83420056 -0.042702112 -0.06856826 -0.34718135 0.6812948 0.64757407 0.7387276 -0.3861098 -0.41810372 0.20050015 0.79113394 0.2732183 -0.14587583 0.15164417 -0.079166345 0.57588726 0.6169323 -0.10879859 -0.09222837 0.019296229 0.30557367 0.079894125 -0.6222411 0.32293987 0.95928484 0.79606134 -0.086809956 0.12676589 -0.6428698 -0.526732 -0.4485186 0.4592378 -0.94000256 0.08605001 -0.96263975 -0.119333364 0.17113617 0.4568959 -0.44581065 0.26831958 0.009181426 0.56451756 0.28934714 0.43296778 -0.2639292 0.33158022 -0.43334344 0.15667845 -0.21987131 0.46787378 -0.502503
992 -0.23613682 -0.20590921 -0.5004193 0.31980804 0.26579493 0.7770802 -1.2897958 0.5966974 0.27121553 0.9176259 0.25322285 0.44373554 1.1460464 0.1663607 -0.01504157 0.13984692 -0.67736673 -0.3207036 0.75190413 -0.364699 0.1695696 0.10466423 0.2484312 -0.6345763 1.1120851 -0.20478888 0.62972414 1.2470638 0.06105521 0.9211442 0.24764691 -0.14939585 -0.4679713 -0.08765189 0.06911243 0.3777453 -1.3476896 0.9070837 0.38294333 0.28914487 0.119648986 -0.8014753 -0.9956769 0.40583372 0.25200665 -0.62395674 -0.1353371 -0.61277455 -0.10935464 -0.3021322 -0.7938025 -0.056520417 0.42697313 0.7481064 0.73250866 -0.33048525 -0.13553849 -1.1923789 -0.4665722 -0.113621324 -0.05548648 -0.0088205775 0.06918965 -1.1457881
1442 -0.02260271 -0.60515803 -0.51144326 -0.6334059 -0.28813303 0.9510459 0.397538 -0.24519283 1.1114572 -0.5914569 -0.14426115 0.31247818 0.40034342 -0.71893305 0.30956584 0.4094642 -1.1501794 0.074277 0.01147607 0.29390907 0.7286148 -0.48323107 -0.71221083 0.50136805 -0.17410487 -1.1181728 0.33395982 0.686904 -0.047370687 0.22320034 -0.20823345 0.33336222 -0.15649055 0.27516407 0.643133 -0.15993771 0.29004598 -0.044113226 1.1884211 -0.05228296 1.0399917 -0.738264 -0.41151676 0.08648791 -0.1403798 -0.07481819 -0.21208632 0.2721358 -0.41598925 -0.07036866 -0.8042678 0.29211164 0.7311937 -0.32747355 0.16711684 -0.21715443 0.37305346 0.3509817 -0.28468087 0.265156 -0.8818744 -0.7364101 0.1589101 -0.7641339
1951 -0.04930179 0.7942027 -0.40015364 -0.32243747 0.9437885 -0.22072431 -0.84417486 0.21246937 -0.7132867 0.5495998 0.75375354 0.49612 0.26281786 -0.44120422 -0.3004263 0.6180417 -1.0250005 -0.254638 0.1982252 0.29809782 0.24711916 0.5904216 0.7398462 -0.901666 -0.045925472 -0.0034334462 0.31634483 1.1078106 0.26531485 0.7180564 -0.3832818 0.26325846 0.5626971 -0.7203321 0.06104018 -0.07651039 -0.50110716 0.51250637 0.5313815 0.83678025 0.27678543 -0.25916502 -1.0277379 -0.21756455 0.46235818 -0.14528142 0.02018915 -0.6664813 -0.4088032 0.58445704 -0.3562229 -0.37608102 0.3702162 -1.3752677 0.5285541 -0.83697647 -0.2849467 -0.5294239 -0.9768429 -0.10229655 0.16256507 -0.49452102 0.45539835 -1.0027158
8334 -0.34695253 -0.37152004 0.0019519813 0.36148968 -0.3523514 0.22920376 0.33202612 -0.2871901 -0.31244522 0.54640937 0.16697778 -0.3450977 -0.10769104 -0.9162189 -0.31476095 0.43633384 0.20111659 -0.15440999 -0.5807282 0.46538877 0.43471712 0.30089918 0.3389109 0.2867761 0.074009895 -0.0056392713 0.11056851 -0.057279684 0.24528646 0.04490185 0.29011992 0.6934339 -0.6572546 0.5299507 -0.57336175 -0.43857142 0.3018869 0.53872806 0.92283386 0.58160853 0.020694995 -0.40368462 -0.39368302 -0.22195001 0.10724466 -0.37032694 0.27572468 0.34786838 -0.23745465 -0.30932862 -0.042038295 -0.1006397 0.64370173 -0.13609259 0.63527066 0.0348608 0.18178295 0.49873552 0.21123455 0.023170134 -0.47017327 -0.019255305 0.14853877 -1.6293321
1487 -0.37770638 0.6125824 -0.6065702 0.2173807 0.49572876 0.9230031 0.53257793 0.37278178 -0.57946944 0.021062016 0.93277556 -0.19681588 -0.0770741 -0.2969691 -0.7438967 0.29878113 0.4741422 -0.10466228 0.18875156 0.47155172 -0.37077966 0.19153424 1.2044779 0.30243948 -0.08057977 0.52677685 -0.3807658 0.8445037 1.0161351 0.117534645 -0.1958944 -0.10891583 0.16691898 -0.20705888 0.8401864 -0.0882946 -0.79999906 0.15847245 0.67633253 0.17446913 0.15332304 0.30695263 -0.09995531 -0.009112319 1.1494571 -0.09093578 -0.21295743 -0.11442506 0.13113457 0.42039594 -0.6188359 0.44898742 0.26530877 0.1872567 -0.53953993 -1.1626985 0.24540488 0.1574182 -0.08793764 0.6134998 -1.0658127 -0.7738538 0.31291944 -0.3605669
10098 0.2616665 -1.1796118 0.4575604 0.20473668 -0.027420996 -0.0028693688 0.24441177 -0.33244765 0.4622255 -0.14001842 0.15320013 0.7610762 -0.74159557 -0.21622412 -0.42448416 0.5843756 -0.98948413 0.24657455 -0.09783322 0.5663734 0.047846973 0.47424823 0.6291516 0.52479017 -0.4318974 -0.077282146 0.39870894 0.18287773 0.4726787 0.037272003 -0.16753466 -0.85737145 -0.6206476 0.21743968 -0.48330218 0.10533116 -0.3330292 0.5222128 0.38572207 0.21013732 0.34785318 -0.99043345 -0.28063202 -0.38297266 0.9088421 -0.5605393 0.21908025 -0.92324 -0.050649274 0.2291793 0.09402492 -0.42677924 -0.29986104 0.04000926 0.30512598 -0.48293716 -0.09437124 -0.03304934 0.25550848 -0.63882095 -0.23789121 -0.8652415 0.36568844 -0.36795583
2681 -0.7374041 0.117167786 -0.11533008 -0.096341625 -0.67450273 -0.042054124 0.2796731 0.29067683 0.978332 1.2871106 1.2015178 -0.5438965 0.6033277 0.024902267 -0.19160733 0.9297374 0.17543595 0.8466381 0.7698167 0.46552968 -0.041518547 0.26514298 -0.49950752 -0.22070855 0.6511582 0.88174415 -0.032913443 0.31897214 1.2902242 0.39984292 0.04851223 0.011593788 0.04684149 -0.6247349 -0.08424819 -0.31474122 -0.017510125 -0.386974 0.26308516 0.6831146 0.66088855 -1.0691783 -2.059182 -0.79773766 -0.33581114 -0.20497316 1.0656141 -0.03675432 -0.2336314 0.052167024 -0.19207394 0.2878134 0.087667435 -0.60248774 0.27926934 -0.17120488 0.99208283 0.1854327 -0.5001399 0.11233327 -0.37379465 -0.21288157 0.6492778 -0.08372676
7652 -0.85302716 -0.040740576 -0.45165208 -0.0088000195 0.14477693 0.673082 0.2634602 0.54107064 -0.037867945 0.109644264 -0.2874086 -0.4935006 -0.08577679 -0.39388028 0.35929802 -0.38405788 0.44571218 0.48634705 0.5602026 -0.20195247 0.6543641 0.3361064 -0.04769603 -0.31179416 -0.48425567 -0.5325025 -0.23273708 0.348714 0.024852246 0.72861624 -0.09689631 -0.6531046 -0.33186626 -0.32042828 -0.24933785 -0.106047876 -0.43003303 0.21107367 0.39858812 0.07891057 -0.06119094 -0.7247866 -0.07583001 0.15708902 0.3764877 -0.078512706 0.27977577 -0.10289248 0.34473935 -0.3618866 -0.10120346 -0.9259775 -0.7129829 -0.34934205 0.03263608 -0.16959378 0.39040408 -0.38842517 0.11531083 0.1840345 -0.9219921 -0.20057368 0.8341224 0.09185472
8988 -0.14449081 0.33779773 -0.4966226 -0.65009904 -0.31506595 0.65667206 0.02019141 -0.25170153 -1.2840532 0.9363086 -0.31488982 0.7954688 -0.43068933 -0.7622331 -0.7900116 -0.9582146 -0.65726376 -0.46381056 0.26958728 -0.59515595 0.061113324 0.41126263 0.45109588 0.4222983 0.24208115 0.7808928 0.54423875 0.34846917 0.52386767 -0.18371657 0.18289326 -0.023484662 -1.4293071 -0.19561374 -0.106216304 -0.756653 -0.79578155 0.073570855 -0.0069870884 -1.0045649 -0.17151508 -0.7419329 -1.1128765 -0.017951941 0.2647826 -0.73848337 0.66364616 0.9694297 -0.40365744 0.25474638 -1.2712841 -0.2750779 -0.21673052 -0.010889498 0.50726676 -0.12744983 -0.7562071 -0.32123467 -0.35716292 0.011169876 0.78426135 -0.25628138 0.4298161 0.372282
3556 -0.14924462 0.009328707 -0.5606104 -0.40374574 -0.20182945 -0.27602112 -0.004391097 -0.19113448 -1.2885528 0.023502756 0.2274393 0.008407409 -0.21846189 -0.6488491 -0.611872 -0.13734654 -0.7342748 -0.75081265 -0.3479907 -1.1640484 0.30362114 0.34432563 0.11095014 0.0067280075 -0.35113907 0.3093855 -0.11133344 1.1515137 0.0068541337 -0.100634344 -0.26440457 -0.8755319 -0.49746636 -0.22028252 0.17476134 -0.5860751 0.8439355 -1.0272352 1.0971878 -0.19312434 -0.30464548 -0.1376695 -1.077167 -0.62327963 0.09726471 0.31943923 0.4373484 -0.33086294 -0.77080023 -0.562877 -0.91144776 0.15482222 -0.08848511 0.56559134 0.34732783 0.3537275 0.20231101 0.02779518 0.5305986 0.3390366 0.51003605 -0.8989233 -0.19559307 -0.71548486
7179 -0.7952928 -0.90816677 -0.9084385 0.30566368 0.18964432 0.13940628 -0.721223 -0.44229144 -0.13724515 0.7886521 0.26576945 0.7817159 -0.64626217 -0.62805665 -0.19507629 -0.45009735 0.20492487 0.66407007 0.8526242 0.119270556 0.5645351 0.09982868 -0.39454302 -0.7210845 -0.7810924 0.17221802 0.82520646 0.3895517 0.44944197 -0.6843335 -0.85583943 -0.09403053 0.4905707 0.32322997 0.058340937 -0.12073295 -0.22370219 -0.075915314 0.28858155 0.50750995 1.2099117 0.071931496 0.32121477 0.7219236 0.48132387 0.019441491 0.24743725 -0.09833507 0.22487307 -0.41635787 -1.634203 0.058592252 0.016433502 0.26128206 1.3124992 0.07326814 -0.46557188 0.25206268 -0.6492041 0.58097863 0.68010885 -0.84473366 0.45761827 -0.04881092
4199 -0.37511006 -0.54565924 -0.49716184 -0.5956175 -0.2843467 0.2764918 0.4750331 -0.34420797 -0.72077787 0.4657478 1.3080194 0.50389564 -0.1078206 -0.41655833 -0.15725173 0.7764964 -0.112676196 -0.12569669 -0.30977386 -0.32940888 -0.16291212 0.3652592 0.71623504 0.64519864 0.18575436 0.0682363 0.46329802 0.6000026 0.012972699 0.49639872 0.33495328 0.14231615 -0.09654891 0.098919705 -0.18539238 -0.54065543 0.31077808 -0.68553007 1.1366023 0.41141948 -0.092712045 -0.3718596 0.2990966 -0.121069945 -0.5511326 0.50002766 -0.063491315 -0.120900735 -0.14687258 -0.66808176 -0.9215778 -0.3831996 0.32628107 -0.21702723 0.21554519 0.7691189 0.46320546 0.43924186 0.3793333 0.49846765 0.065245576 -0.23046292 0.086865135 -0.47800353
2241 0.3146853 -0.98597425 -0.7240895 -0.49426425 0.7970343 0.926619 -0.93455404 0.43010604 0.68770075 -0.32086104 0.6547761 0.019838952 -0.32815757 -0.002161838 -0.85486406 -0.37781605 -0.014884098 -0.21575005 -0.36864126 0.33134893 0.86476165 0.1908553 -0.12062254 0.37838978 -0.145876 0.27074525 -0.15397395 -0.1354133 0.6564854 -0.050888713 -0.70615804 -1.1117648 -0.484689 0.3330773 0.25039604 -1.1926965 -0.88707817 0.46628466 1.1430155 -0.25268596 0.19317195 -0.6543054 -2.1765354 0.046768297 -0.4375038 0.121863484 0.1357143 1.333199 0.5400718 -1.2446631 -0.4615894 0.14199673 0.29295054 0.73816735 0.21627805 0.6688101 0.1850912 -0.83976936 -0.55593234 0.8303087 -0.17744827 -0.5025093 0.4824373 0.5769136
3809 -0.5109534 -0.22236647 0.6683403 0.39654464 0.12720197 0.123040535 0.09545811 -0.049091917 -0.5046108 -0.0533099 0.30570877 -0.011816326 -0.5919509 -0.6634425 0.13254912 -0.010642889 0.0777382 0.6927354 -0.38206947 0.03238262 0.01597558 0.3819541 0.048350133 0.18394458 0.42617756 -0.77147347 0.54210305 0.38085154 1.2487184 0.6714171 -0.3217894 0.0068753073 -0.052423146 0.35647193 -0.31030902 -0.36222175 -0.42801896 0.60093707 0.6501915 0.3346467 -0.3558838 -0.20872274 0.33065227 -0.07518988 -0.33321676 -0.69460535 0.5304013 0.95054615 -0.3854546 -0.184983 -0.035424 0.003102827 0.012494549 0.112929225 0.09922119 0.26565614 0.95374346 -0.018294638 -0.19988021 -0.20929997 -0.09161061 -0.55246747 0.6399256 -0.3994739
2202 -0.30962852 0.57527417 -0.80456716 0.3615389 0.14901495 0.86805916 0.38784364 0.4136753 -0.4868173 0.16787302 0.25006053 -0.45854858 0.6369934 -1.0177311 0.02538874 0.06738467 0.42959443 0.95253056 -0.16967857 -0.13894077 -0.7838174 -0.28906748 0.80417347 0.38167033 0.46445695 0.037697867 0.5296775 0.8882305 1.0953281 0.29639134 -0.04168171 -0.13071704 -0.50006384 -0.6351799 0.38356876 -0.4721302 -1.0020559 0.2495681 0.04854737 0.20748217 0.6289298 0.4730062 -0.009448909 0.19416097 0.7005034 0.23175904 -0.26407328 -0.33831397 -0.042073686 -0.02310868 -0.23897935 0.17157173 0.20391004 1.0916637 -0.4685039 -0.54610133 0.18579961 0.2892272 0.06787141 1.0418986 -0.5822336 -0.8271137 0.3175532 -0.5633114
7888 -0.67653495 -0.41344732 -0.68442106 -0.6623987 1.16221 0.2790906 0.6481285 -0.32814473 -0.52979547 0.2691021 -1.0943317 -0.5793205 0.42638385 -0.048350852 -0.038890973 -0.39613497 0.15080225 1.0543013 0.90724844 -0.51578176 -0.0050427103 0.85493726 0.02460315 0.48663133 -0.2532406 -0.0125020025 0.059065554 0.113083184 0.31446707 0.7735637 -0.7945948 0.002409993 -0.22452496 -0.90931153 0.5628504 -0.16341814 -0.17077889 0.45532337 0.42040116 -0.48301488 0.459514 -0.9517334 -0.12452996 -0.04835302 0.13312115 -0.5537312 0.13966888 -0.07296888 0.26594874 -0.7608581 -0.33672565 -0.43465754 -0.58513594 -0.12435211 0.33453608 0.26738003 0.14283977 0.26719514 0.38593587 0.7389463 -0.704916 -0.6252949 0.2997102 -0.05572228
1264 0.119736396 -0.36043635 -0.67051804 0.25345868 -0.25783753 0.49057713 -0.43484285 -0.21037693 0.0314531 0.73913825 0.48608083 0.49995425 -1.0466607 -0.46964145 -0.13316004 -0.4260312 0.1312452 0.2505321 -0.046126105 -0.9130144 -0.31001672 0.40615627 -0.53882706 0.54607326 -0.33927628 0.28766212 0.15112919 1.3930354 1.3906484 1.6307734 -0.010397004 -0.035247657 -0.20331544 -0.12793668 0.6027691 0.16916415 0.7258152 -0.8576536 0.39736366 -0.48600107 -0.37341276 -0.7768878 -0.36806086 -1.3028251 0.3915016 0.073588684 0.23180148 -0.010230722 0.92325646 0.4518666 0.31600547 0.12268734 0.3470377 0.32496718 0.1622333 -0.20334394 -0.548156 -0.27504012 -0.72985494 0.5084892 -0.0020952162 -0.48724613 -0.48394373 -0.373053
167 -0.07154805 -0.43116924 -0.098181546 -0.22722407 0.34151378 0.594872 -0.8692033 -0.35583982 0.1459348 0.48398104 0.96859914 -0.090522096 -0.8444473 -0.5122404 -0.58333457 -0.5988705 -0.1590136 -0.048449624 0.5707567 -0.699458 -0.24781041 0.84034145 -0.9254517 -0.16982009 -0.30106443 0.5813852 0.8503953 0.81597924 1.1964667 -0.5788478 -0.30882055 0.46856907 -0.7097398 0.23434582 0.66743207 -0.19314307 0.8845458 1.1940132 -0.34175742 1.4472773 0.460854 -1.1248806 -0.22281466 -0.32806575 0.29386866 0.43659094 -0.06527112 0.59077823 0.21682745 -0.5048725 0.5073547 -0.17940897 -0.17040911 -1.252141 1.1431983 -0.26459092 0.42839563 -0.68612754 -0.035843685 0.427001 0.11834559 -0.84454286 0.17808884 -0.33918
1162 -0.82017154 -0.12363719 -0.15798014 0.45427713 0.2075064 0.74244964 0.26027462 0.15148509 -0.5474687 -0.3728726 0.23011583 0.06861173 -0.53329617 0.033714335 0.010176364 -0.22254232 0.2976124 0.20434764 -0.32605416 -0.22145535 0.5339632 -0.041062832 0.18607779 0.48435816 0.06714031 -0.4525041 0.1875058 0.18720624 0.6857511 0.5412946 -0.116851166 -0.107018664 -0.26643652 0.42212006 0.0040704887 -0.591422 -0.5430074 0.7444745 0.34893435 0.5423265 -0.27848655 -0.17541383 0.28439695 0.034121234 -0.062256053 -0.36428303 0.925342 0.12998931 -0.08629643 -0.014036773 0.12527885 -0.69873923 -0.6156439 6.6909204e-05 0.061269738 0.07926569 1.1833055 0.21460259 -0.16298316 0.16172232 -0.4385424 -0.44058743 0.23463728 -0.5902998
1232 -0.49791878 -0.3565995 -0.24361719 -0.098008245 0.13293819 0.20840855 0.28606448 0.8189983 0.03861795 -0.16314843 0.10042084 -0.072727524 -0.091812864 -0.48533928 -0.12102944 0.30532455 -0.32731092 0.41194624 0.55789435 1.104896 0.1512769 -0.4002575 0.03936584 0.1094009 -0.68203676 0.2044867 0.7084446 0.4766472 0.42231306 0.44071838 0.25316268 0.13233069 -0.0521497 0.37144232 -0.88253236 -0.28251857 0.006164181 0.6981977 0.7647766 0.15290274 -0.032346886 -0.24092835 -0.7461486 0.09302103 0.19836959 -0.38117373 0.87051237 0.6665598 -0.3687647 -0.16221869 0.35722733 0.18627091 0.24047722 0.0356284 0.41247776 0.06563981 0.34996423 0.47782674 0.054315194 -0.4050615 -0.030211527 0.28047633 -0.44867787 -1.4511788
1876 -0.12371845 -0.85753316 -0.65322506 -0.93205726 0.3919083 0.29246575 0.5515327 0.60938895 -0.6728936 -0.28205532 -0.89000547 -0.1371719 -0.14996755 -0.20358223 -0.27398658 0.4097684 0.5405865 0.64454085 1.1796714 -0.423199 -0.32893825 0.9712721 0.7084398 0.25639296 -0.67121017 0.3219135 0.3368071 0.83084685 0.044448387 1.1521424 0.24393281 0.30389434 -0.27142155 -1.0742404 0.8078937 -0.6212176 -0.46800506 -0.5713956 -0.1572236 -0.24481452 0.75767636 -1.1685035 0.26872197 0.13632044 0.3975481 -0.45739502 0.507504 0.022787467 0.82410836 -0.19774707 0.1247392 0.46214965 -0.39179096 -0.55726326 0.6879026 0.24034119 -0.03270041 0.53771615 -0.23142017 0.31327736 -0.700505 -0.4250149 1.001915 -0.8744159
5497 -0.18044305 0.045308616 0.31923553 -0.10474952 0.5719548 0.25700167 0.42198467 0.39888096 -0.25144103 0.047084123 0.15687129 0.47672373 0.18041182 -0.9111045 0.34822923 -0.06854862 0.4402565 0.86285126 -0.074159235 0.71510834 -0.11559153 0.04649452 -0.7668707 -0.07042981 0.039422315 0.026990091 0.60033745 -0.19251148 0.6168971 0.56233513 0.08098966 -0.6671745 -0.7380183 0.16778205 -0.26599556 -0.3261811 -0.5668203 0.05235965 0.9307119 0.52991974 -0.28934124 -0.29404137 0.28890872 -0.98396593 0.5467041 -0.5734583 0.54467785 0.014434772 0.2737987 -0.46457675 -0.36676824 -1.157785 0.9198378 -0.45288807 0.3291647 0.9052058 0.6566489 0.06904413 0.5371054 -0.20779704 0.24779385 -0.47024304 0.9361893 0.12838364
9031 -0.26266846 0.6401918 -0.06444396 -0.7598446 1.0113865 -0.10050456 0.5585201 0.2572319 0.019563712 0.31335443 -0.8557267 -0.5712983 0.25163034 -0.13823262 -0.043781787 -0.04941872 -0.0029344542 1.0519203 0.50116664 -0.41001385 -0.26864076 0.92207223 -0.02567641 0.29352915 -0.4839004 -0.06995238 -0.17480385 0.17290278 0.4621186 0.71783113 -0.87476957 -0.058040675 -0.3411187 -0.1860895 0.40011516 0.037583888 0.056255143 0.4069825 0.68674994 -0.3395118 0.827582 -1.1326393 0.27308655 -0.10565863 0.22484958 -0.8811623 0.006739863 -0.051786005 0.27104363 -0.36408687 -0.0013074101 -0.23802254 -0.08003823 -0.011576681 0.40360823 0.45438918 -0.20437324 0.17294739 0.5688551 0.89008784 -0.21813942 -0.78419024 0.48709992 0.030123187
1534 0.4723404 -0.16998006 -0.7699036 0.063305 0.0050147325 0.433075 -0.7309383 1.3313015 -0.14965656 1.178827 -0.7271917 -0.43196714 -0.10652927 0.46008283 -1.5170488 0.28514758 -0.63156384 0.38422802 -0.37089327 -0.35726437 -0.6060001 -0.56154907 -0.11761902 0.93262494 -0.17786847 0.016296152 0.33702114 0.21344942 0.44258687 0.13707669 -0.043379873 -0.13554662 0.23028553 0.07649351 0.25641367 0.24555294 0.21193357 -0.44656986 0.71988153 0.7090798 0.7939648 -1.1885647 -0.40162477 -0.2871513 0.33542353 -0.38173836 0.8868016 0.69791543 0.30958495 0.1534298 -0.72943556 0.03548752 0.38297734 -0.9183962 -0.046322364 -0.74448085 0.47060496 0.15994981 0.2084098 0.16253458 -0.6883575 -0.5280875 -0.36556235 0.2776001
1082 -0.0659776 0.3795342 0.06919702 0.09292432 0.62404126 0.11385025 0.14363536 0.036330953 0.32362562 0.06405959 -0.72341996 0.031805422 -0.08316467 0.1124497 -0.61595124 0.23183241 0.16240792 0.31129083 0.73206925 -0.39397725 -0.5785749 0.7982425 0.33770898 -0.42822513 -0.9015197 0.20182216 -0.048215974 0.44730073 0.7780276 0.14110535 0.8037204 -0.4646339 -0.15998363 0.25128174 0.34592727 -0.6896332 0.24386467 0.36029232 1.1240231 0.13073218 1.1441907 -0.5932128 0.12781039 -0.5957745 -0.7923525 -1.1138631 -0.23909205 0.3506519 0.4643648 0.40416488 -0.23773436 -0.05951241 0.96292967 -0.09645241 -0.7924564 0.482448 -0.061777394 -0.11102917 0.58635485 0.6406481 0.620763 -1.8710781 0.11524211 -0.18472083
5599 -0.2597117 -0.25449875 0.526922 0.33889037 0.26542583 0.5016269 0.34782827 0.36836335 -0.17213675 -0.42365646 -8.358728e-05 0.14351353 -0.083385825 -1.0056117 0.35403958 -0.1766061 0.46922404 0.340275 0.5255665 0.3372081 -0.09939103 0.2095474 -0.17095579 0.5973775 0.35163835 0.39650938 0.2570037 -0.44337893 0.23208353 0.29134777 -0.032928158 -0.87962854 -0.03711489 0.33074924 -0.8742638 -0.25215313 -0.263652 -0.13348702 0.8053711 0.49416527 -0.011604691 -0.70525956 -0.028675834 -0.43036148 -0.014760041 -0.31521884 0.4702318 0.29691455 -0.04400449 -0.34412596 -0.3244416 -0.45026207 0.6842564 -0.288096 0.48428106 0.4192633 0.556948 -0.023641458 0.35673866 -0.12904322 0.06431448 -0.2561935 0.6263495 -0.6931079
2219 -0.36268958 -0.33580902 -0.58820003 -0.3813428 -0.47815588 0.09409895 0.40321615 0.55446285 0.8225311 0.66404605 0.08150003 -0.5789869 0.5425351 0.34941816 -0.3515155 0.6285441 -0.26439038 0.87903374 0.1080622 0.13403481 -0.16521186 0.05478605 -0.03529818 -0.15235806 -0.08467722 1.0958261 0.407654 0.12805113 1.2519721 0.6144431 0.29932517 -0.5002175 -0.38867888 -0.46304104 -0.31833813 -0.89280754 0.25773203 0.53662646 -0.4539456 0.33056787 0.23420356 -0.3423909 -1.2261791 -0.6428471 0.07724943 0.3370396 0.8477747 0.7348423 -1.2155516 -0.35547322 -0.4381379 -0.3523507 0.54590386 0.4144147 0.6799495 -0.39405543 0.6232795 0.793068 0.16348074 -0.5134109 -0.48576298 -0.3727192 0.18007384 -0.35065967
4636 -1.0700155 -0.4717628 -0.34080672 -0.34249085 -0.06878142 0.16293742 0.073290214 0.11772288 -0.1146838 0.013695219 -0.15832324 -0.6309267 -0.1117659 -0.30396253 -0.07722162 -0.15238525 -0.24583134 0.6026574 0.8673139 -0.2977312 0.57544416 -0.04803201 0.067106515 0.08636923 -0.8117778 -0.10937419 -0.16353177 0.2854632 -0.108034275 0.58273005 0.36305222 -0.36435258 -0.04070787 -0.1760522 -0.152563 -0.14220692 -0.25265014 -0.22546984 0.31048658 -0.042583928 0.28898352 -0.700322 -0.3507268 -0.21763 0.87960917 -0.40429753 -0.27320078 0.24816753 0.13403729 -0.026263515 -0.720902 -0.116391025 -1.0570347 -0.7131163 0.05466338 0.28500116 -0.25619003 -0.041151572 0.025982004 0.36846775 -1.2106227 -0.6784947 0.8772837 0.26477373
2496 0.075687885 -0.81603754 0.28452197 0.43226224 -0.13145268 -0.01098628 0.47644374 0.17150724 -0.91873276 0.5204495 -0.045783214 -0.19235225 -0.03284707 -0.49098986 -0.12225345 0.005092846 -0.097033344 0.49908644 0.45018575 0.68962646 -0.00091000163 -0.40875876 -0.2245283 0.62967503 0.2895937 -0.08380636 0.103425585 0.22750631 0.63301545 0.6668403 0.5636126 -0.04910795 0.00424167 0.64085305 -0.6459886 -1.0936506 -0.049118448 0.16486968 0.88351184 0.6595825 0.19637983 -0.6469942 -0.463425 -0.012625856 0.07262825 -0.87434435 0.15600719 0.14400525 -0.074204184 0.5968852 0.6678196 -0.5557871 0.26143372 0.3776319 0.49530944 -0.14910083 0.59041816 -0.39877903 0.44855177 -0.80748487 0.0019836964 -0.64397454 0.21715747 -0.86781245
3524 0.717542 0.19070193 -0.44177017 0.1077212 0.71149135 0.16902263 -0.5256179 0.19597428 0.22441879 0.5331998 0.92799306 0.62088114 0.40683368 -0.38672632 0.7656893 0.36953312 -0.29552525 0.47865534 0.54476696 -0.0615959 0.37436977 0.11582455 0.27346537 -0.13477752 0.6047819 0.313422 0.5437992 1.0658845 0.036628097 0.90662616 -0.6059449 0.8113134 0.3023148 -0.65035444 0.48913646 -0.42502552 -0.6113911 0.372127 0.520853 0.66113025 0.42624187 -0.19588692 -0.25231433 -0.7326149 -0.1311356 -0.07116172 0.47388765 -0.76966655 -0.15035045 -0.38271543 -0.9002296 0.062444083 0.23338963 0.155424 0.8663923 -0.8477647 -0.09578052 -1.119095 -1.1258961 -0.055826202 0.1292418 -1.0253065 0.2053436 -0.8038255
7 -0.49541497 0.6166027 -0.6649236 0.59563786 0.23118454 1.2446616 0.4383762 0.28575823 -0.4214331 0.1353699 0.55405307 -0.30385947 0.6151534 -0.895671 -0.08974339 0.20601062 0.27307236 0.71497643 -0.28128764 -0.0738306 -0.6547803 -0.14720564 1.1337204 0.39628652 0.07492805 0.15839864 0.35353276 1.1091931 0.87278587 0.44237033 0.03524574 -0.43215477 -0.3302299 -0.50482696 0.16512294 -0.163249 -0.5790907 0.3997998 0.2515033 0.0110294465 0.37546563 0.24446328 -0.16786338 0.36209345 0.7366247 0.10740265 -0.2275003 -0.1912177 -0.24749231 -0.07176855 -0.03423799 0.27853653 0.2775553 0.9555329 -0.6800138 -0.8139227 0.03263649 0.20291859 0.0567295 1.025902 -0.80758244 -0.8569685 0.34555998 -0.36096707
1046 -0.14708228 0.6027831 -0.5871657 -0.059880763 -0.4593285 0.9698682 -0.047907267 0.33279023 -0.057586994 -0.19654185 1.0484636 -0.19584307 0.00991557 -0.42482767 -0.21950328 -0.31924754 -0.1312246 1.1529849 0.18719792 0.2828662 0.047430184 0.023363302 0.44310966 -0.056320056 -0.024773125 -0.27528486 -0.22475438 1.125336 1.402351 -0.3439358 0.2614698 0.30447787 -0.29592532 -0.30242002 0.6799475 -0.32357728 -0.80740225 0.3459706 -0.49885902 -0.3471849 0.5957643 -0.36898607 -0.003313565 0.00027164535 1.0575268 -0.4722821 -0.062714025 0.46007043 0.54277945 0.056035787 -0.2061155 -0.032211304 -0.065528095 0.49008742 -0.62546647 -1.2168982 0.7134175 -0.19248402 0.49693948 0.9479626 -0.3224837 -1.2935306 0.09224401 -0.099794365
978 -0.25042686 0.27979115 -0.56483215 -0.2288475 -0.39094448 0.4893527 0.24517785 0.2576183 0.6516369 0.44023067 0.26527783 -0.1574099 -0.2875168 -0.56574416 -0.26833755 0.2670492 0.06374812 0.9137721 0.5435861 0.37572813 -0.010874311 0.0036684815 -0.45282206 -0.46275744 0.07242159 0.8135928 0.5462512 -0.16027158 1.3718679 1.4108887 -0.11140791 -0.32128242 0.07664307 -1.267015 0.46313944 -0.7387222 -0.060384467 0.02604191 0.5027499 0.81085724 1.1279765 -0.94952565 -0.644152 -0.638236 -1.3101435 0.69862366 0.115203336 0.15328008 -0.64012134 0.11842454 -0.29567507 -0.02189832 0.25985062 0.20122443 0.4727227 -0.9315728 1.1574657 0.81040823 0.31976613 -0.730307 -0.2711434 -0.6291556 -0.0250336 0.058954347
2237 -0.28124052 0.05781121 -0.91012573 -0.25727984 -0.36050296 0.832039 0.09185404 -0.63148624 -0.19436419 0.88778484 0.3792633 0.6251641 -0.68836254 -0.5416421 -0.35681584 -0.33404395 0.26521108 0.014796785 0.22450323 -0.26085284 -0.30705607 -0.48252282 -0.8304807 0.8493061 -0.6416332 0.12011423 0.0019782817 1.2207 1.0877279 1.3090719 -0.5197139 -0.2360871 0.08910163 -0.25080276 0.08585802 -0.043538466 0.1284652 -0.35708898 0.5531031 -0.6866803 -0.2646219 -0.1577358 -0.37461185 -1.6372846 0.49472952 0.35111737 0.25524276 -0.009688036 1.3768207 0.028099552 -0.10426159 0.09200594 0.036284562 0.43300053 0.4119857 0.07342859 -0.85042274 0.3072668 -0.30519322 0.08252101 0.3797711 -0.9407951 -0.5050727 -0.27993163
1488 -0.6398824 0.23734786 -0.099611096 -0.24361728 0.7424442 1.0871891 0.6277524 -0.1545251 -0.47294766 -0.41624048 0.31641582 -0.1579669 0.49737877 -0.32355836 -0.38622367 0.17737548 0.45340225 0.37675285 -0.070821874 0.32067 -0.35688886 -0.109002054 0.91238725 0.18883432 0.0005323307 0.21925493 -0.57240075 0.8061791 1.2926774 0.12726504 -0.40514916 -0.16803658 -0.06993254 -0.41995278 1.0012919 -0.19618222 -0.66011876 0.25368762 0.5283861 0.38566595 0.33878928 0.26661777 -0.19746388 0.22249839 0.9222851 0.42953795 0.04942229 -0.19269598 0.13183303 0.544016 -0.5278455 -0.109103724 0.028605003 0.31152013 -0.2647806 -0.86661905 0.04199282 0.27706602 -0.15407501 0.8141956 -0.6857315 -1.0520234 0.059049148 -0.24717969
9119 -0.14084327 0.61182195 -0.4454238 -0.4362536 0.957216 -0.072162464 -0.44081402 0.28715098 -1.153861 0.33348593 0.29072106 0.5790961 0.2868599 -0.7760704 -0.4840352 0.60750836 -1.1212887 -0.56270987 0.39887038 0.5436418 0.15391336 0.58436525 0.98027354 -0.69666326 -0.3416591 0.33472514 0.29359606 1.1976807 0.27518463 1.0583669 0.14207464 0.124820925 0.47734305 -0.95918095 0.1583526 -0.49820617 -0.9017426 0.48307845 0.4433797 1.0864497 0.5367857 -0.3713359 -0.59911734 -0.6045556 0.3477971 -0.009535693 0.106935784 -0.31951663 -0.35995996 0.9577299 -0.007401311 -0.8936124 0.7315252 -0.9138291 0.47245964 -1.0635204 -0.56572384 -0.56676954 -0.95458776 0.26196438 0.6289519 -0.41116863 0.46691638 -1.0667834
7034 1.1307728 0.4553675 0.71294796 0.3015199 -0.40482682 -0.13780862 0.8633798 -0.07081496 -0.8926437 -0.6697662 0.49013808 -0.5011218 -0.12211446 0.11227247 -0.6030827 0.5160232 0.27549598 0.39836398 0.08857788 0.7064965 0.68155503 0.88980895 -0.06986744 0.090578884 -0.53447515 -0.5357983 0.78589773 0.1977977 1.2621228 0.8831609 -0.40632176 -0.6171581 -0.3151709 0.1650016 -0.45832714 -0.24394554 -0.09924582 0.6234592 0.08211298 0.52340823 0.24671912 -0.07424096 -1.123272 -0.5675086 0.29411238 0.19964942 0.17735197 -0.50245905 0.352225 -0.91944385 -0.63977563 -0.081138015 0.36062536 0.111096084 0.13500527 0.2908581 0.074777946 0.16262601 -0.5751903 0.7509037 0.8791006 -0.61834615 0.6908599 -0.08267182
2526 -0.7578175 0.19413167 0.20124474 0.27287668 -0.050999008 0.25220853 -0.13681453 -0.013966662 -0.08460151 0.47803625 -0.15611552 0.057376895 -0.32857707 -0.47978556 0.03765649 0.62882054 0.5751315 0.02856573 -0.17144977 0.48795536 0.5981666 0.32184958 0.4287125 0.059070807 0.38316068 -0.4008753 0.2583916 0.10384538 0.19163397 -0.5138665 -0.10750415 0.9885762 -0.81675667 -0.31337273 -0.9176733 -0.5522188 0.63366044 0.3300326 1.3833388 1.2224556 0.6364716 -0.1663291 -0.7780331 -0.25055832 0.73664725 -0.2303671 -0.24112302 0.39206287 -0.3948253 -0.5749035 -0.018886417 -0.07217492 0.7497761 0.45300758 0.5691914 -0.15376551 0.22782958 0.4316897 0.10412938 0.23216467 -0.40432832 -0.7319288 0.19734418 -1.2474331
3381 0.3976295 1.0853777 -0.687086 0.078775644 0.18323939 -0.28623238 -0.17556043 -0.14270376 -0.97740066 -0.03845643 -0.3098191 0.35312682 -0.39321375 -0.9556981 -0.32563165 0.13231428 0.32530835 -0.45326334 -0.39750314 -0.30908945 -0.027261239 1.3480898 0.014295953 -0.4742484 -0.6826106 1.0989476 0.06724599 1.3309257 0.78282255 -0.49803618 -0.20235619 -0.7782124 -0.3565461 0.13235871 0.12682258 0.112072796 0.6716873 -0.53302807 0.92986727 -0.26623616 -0.33598435 -0.1325125 -1.4808892 -0.47096792 0.48090965 -1.0760701 0.8650998 -0.48517466 -1.374636 -0.46018374 -0.92604965 0.030713134 -0.41662133 -0.20377257 0.59790975 0.011230732 -0.28444812 -0.13545479 -0.07816121 0.4090422 0.7135527 -0.6626851 -0.6848378 -1.3145252
8715 0.56656325 1.1222997 -0.52530324 0.549414 -0.78941417 0.29381135 -0.6369484 0.2920341 -0.47534552 0.16569927 -1.0634729 0.08766696 0.51259017 -0.82019365 -1.1325146 -0.9087145 -0.15779704 -0.8426839 -0.6483996 0.4584066 -0.35038078 -0.1755199 1.0305198 0.5735232 -0.083203085 1.3270344 0.2834418 0.81829065 0.7764309 0.14193255 -0.41386634 -1.0072767 -0.51104623 0.55547696 0.77679676 -0.2180695 0.4208568 -0.03415118 0.118630886 1.8230786 -0.032787085 -0.5818217 -0.44005036 -0.020741902 1.2766528 -0.88605136 0.07016545 0.13892175 -0.054916997 -0.5454839 -0.4538145 0.058749754 0.22831628 -0.3407732 0.31709135 -0.073064394 0.35484853 0.20358323 -0.004156557 0.9482055 -0.5073704 -0.92490834 0.21878694 0.097479604
955 -0.049661536 0.339292 -0.6697503 0.08806928 -0.13328138 0.73817164 0.10901151 0.53206366 -0.21264866 0.27146456 0.8234284 -0.26778242 0.1701887 -0.5331095 -0.44618836 -0.43715194 -0.12911007 0.43125662 0.38211855 0.41566002 -0.24535672 0.028865 0.76367766 0.022813112 0.084641494 0.045066223 -0.17144945 0.68919337 1.3343512 -0.09617901 0.058041252 0.2330864 -0.012349087 -0.11141368 0.31626955 -0.5004106 -0.52640986 0.044512335 -0.3402229 -0.2785113 0.59874743 0.021166058 -0.3804137 -0.02544156 1.3876889 -0.12589814 -0.38981512 0.40477616 0.5212396 0.21658157 -0.5858428 0.013135431 0.018145565 0.30694038 -0.4406865 -1.5106909 0.9877044 -0.42697006 0.82398677 1.1467676 -0.807965 -0.80420107 0.0409993 0.12595765
9802 -0.7905073 -0.29363436 -0.49798024 0.26478192 -0.37422246 0.0706416 -0.83029914 0.085334994 0.07756529 0.15331732 0.3273443 0.8696963 -0.79435164 -1.1132783 -0.6151415 -0.17540312 0.009724806 0.57047397 1.3886236 -0.044573348 0.21238357 -0.031139951 0.20897956 -0.6862576 -0.91978997 0.4851666 0.13928871 0.43261853 -0.19272342 -0.41795218 -0.2931086 0.29953554 0.23176306 -0.108226396 -0.26789957 -0.01540058 -0.3927976 0.069991045 0.19885857 0.5479547 1.3613039 -0.48787084 0.22127075 0.08423063 0.39063397 0.28646037 0.74328065 0.21668673 0.19415092 -0.78544664 -1.4820367 0.4878676 0.05430246 0.49258104 1.3544651 0.0770036 -0.11430855 -0.8706902 -0.47903186 0.7907199 0.67880756 -0.5584614 0.07486765 -0.024004087
8018 -0.046600156 0.12468537 0.18868448 0.16847475 -0.17852736 0.8774274 0.7272753 -0.28387493 -0.12680379 0.77729684 0.2011692 0.102890015 0.039629668 -0.1598649 -0.09271217 0.042394523 -0.45514378 0.050659336 0.43322128 0.25285184 0.069338195 -0.45928138 0.34126833 -0.14164287 -0.1723261 -0.42851076 -0.040001195 -0.13118127 0.5300405 0.62991965 -0.040532146 -0.31895027 -0.33910537 0.8266863 -0.18297428 -0.5258678 -0.18846159 -0.5846245 0.25505465 0.81237864 0.4433372 -0.18626553 -0.08492209 0.059818666 -0.50493616 -0.41537485 0.72168815 0.6496953 -0.89636606 -0.19188915 0.12372728 -0.07119962 -0.0915105 -0.2956829 0.35276842 -0.10805232 0.36301178 -0.03356618 -0.22986455 0.36276132 -0.8389279 -0.12692001 0.2826923 -0.7626698
6133 -0.38188434 -0.012812432 0.05510001 0.24322397 0.42142668 0.4427088 0.36621347 -0.12806368 -0.011645042 -0.2975946 0.42495188 0.009055296 -0.10085816 -0.7872562 0.29157278 0.23021266 -0.056274276 0.45616433 0.17218204 0.110004656 -0.14801504 0.5356038 -0.83784395 0.21010925 0.2856318 -0.39517304 0.34968272 0.12019843 0.8530574 0.15262984 -0.20447937 -0.59527475 -0.5430238 -0.07584767 -0.48687375 0.07129939 -0.0564764 0.32216993 0.6555525 0.6111242 -0.16592754 -0.47231796 0.39673847 -0.28735408 0.02789923 -0.61163723 0.39970446 0.2885828 0.29542756 -0.46499658 -0.23079959 0.05527724 0.6476504 -0.032703266 0.034092363 0.739939 0.7592029 -0.104776055 -0.06507151 -0.7558653 -0.27171338 -0.44680458 1.3449745 -0.046469714
573 -0.22233625 -0.15464793 -0.53765076 -0.13448134 -0.66911465 0.6632361 -0.50729907 -0.63881665 -0.24369034 0.56516933 -0.5710691 1.2258918 -0.509788 -0.5191078 -0.4138088 -0.44327462 0.069317326 0.6992125 0.087878875 -0.31408796 -0.38360855 -0.3012281 -1.1559988 0.16163968 -0.58985615 0.1789796 -0.026151016 1.1057744 0.61133415 0.3722711 -0.93670475 -0.033351842 0.00450235 0.3017276 0.0859716 -0.12297129 -0.32174358 -0.9254012 1.0462509 -0.1660701 -0.8578558 -0.30150378 0.11145909 -0.91985583 1.0657638 0.4696531 0.26318833 -0.101282634 1.1695772 0.06536697 0.17945877 0.3963091 0.5963697 0.07035926 0.51835454 0.017321974 -0.30408898 0.16019572 0.20919727 0.73303014 -0.46983185 -0.44043517 0.28163567 -1.0740311
7696 0.21277286 -0.42123273 -0.48389858 -0.43000028 -0.89293665 -0.47156614 0.23383355 -0.829033 -0.4755744 -0.6137812 -0.02665668 0.04110609 0.12551413 -0.27997127 -1.4056522 -0.07028181 -0.3578147 0.74165785 0.35230476 0.099675745 -0.47235438 0.14258882 0.71885026 0.11069157 -0.8879452 -0.66881603 0.7292572 -0.09413552 0.80482084 0.29214817 -0.8345809 0.45088893 -0.3707608 0.39094043 -0.5907773 0.14794175 -0.7302073 -0.42754796 0.3830925 0.28253084 0.27781445 -0.6418428 -0.5808925 -0.5222818 0.6329363 -0.037717685 0.43558237 -0.18325214 -0.41833958 -0.75676036 -0.19576937 -0.49075267 -0.1554265 0.2508135 -0.60938525 -0.7230405 -0.43155813 -0.76702553 0.48410824 -0.26615447 0.94117224 -0.90389466 0.21314983 -0.6332734
1699 -1.3532226 -0.70051354 -0.4338932 -0.23374134 -0.34574306 0.48990062 -0.094871946 0.40403157 -0.50967586 0.08622897 -0.22452538 -0.30303633 0.5616097 -0.16132495 0.17417225 -0.4769622 -0.27574015 0.3584135 0.1281961 -0.011728748 0.20443642 -0.4672443 0.7516195 -0.09461077 -0.819387 0.11954353 0.20864382 0.15561703 0.072274454 0.8424183 0.38461596 -0.38467807 -0.151202 0.30383444 -0.4550511 -0.34310398 0.0065161185 0.10902461 0.41917086 -0.10539674 0.11797362 -0.14714721 -0.25560874 -0.20968075 0.89514744 -0.05030323 0.25539088 0.22052774 -0.031773858 0.4134054 -1.3151004 0.39434028 -0.8282156 -0.65207505 -0.27611935 -0.02857243 -0.20942323 0.32204905 -0.051066883 0.83714044 -0.75408715 -1.0947789 1.3090589 0.57761455
4208 0.27988112 0.21877725 0.26676324 0.53447306 -0.028203813 0.92071694 -0.90737754 -0.11141063 -1.5805424 0.4548962 0.21737485 0.69417334 -0.66153383 -0.1339815 -0.3295364 -0.09595812 0.21818773 0.9338291 0.47560382 -0.97384715 0.46569595 1.6802979 -0.10047553 -0.54402167 -1.2982979 0.008957863 1.6050367 0.5508217 0.17770825 0.2572981 -1.2303268 -0.086213544 0.03175573 0.1821451 0.12292627 -0.70572865 -0.7810577 -0.27903035 1.16378 0.32534528 0.43287164 0.4005204 -0.91134036 0.28973734 0.92497057 -0.617054 0.07477131 -0.06058937 -1.0206573 -0.12946443 -0.93913484 -0.17165108 0.15579638 -0.8102744 -0.3808797 0.6598685 -0.54454005 0.45642915 0.31590468 -0.51353806 -0.52974015 0.3004601 0.22812065 0.41286016
8452 0.58567446 -0.10968658 -0.35987407 0.17254779 0.8828615 0.26651916 -0.7405023 0.2232508 -0.022306321 0.97052586 0.42686796 0.77565235 0.5322227 -0.38033003 0.18098739 0.18412448 -0.33163896 -0.15585876 0.5241758 -0.05233235 0.26215717 0.72523975 0.8909623 -0.28432 -0.07376657 0.28600052 0.5281968 1.8547193 -0.0040039998 0.31642637 -0.35765475 0.41239 0.10439581 -0.771789 -0.062117968 -0.6995826 -0.13586287 0.5185625 -0.00233998 1.0758399 -0.047193903 -0.4398435 0.32759812 -0.17273267 0.571252 -0.489298 0.16354197 -0.40572098 -0.39091 -0.5767718 -0.39201924 -0.19659327 0.0868317 -0.41193298 0.48130974 -0.95745164 -0.34230205 -0.322567 -0.5197296 0.012021148 0.76359266 -0.4173513 0.84648645 -1.2357653
1424 -0.34421158 -0.44598037 -0.6217837 -0.7053921 -0.24256828 0.42250058 0.7795312 -0.50306183 -1.0501826 0.5968999 1.6867648 -0.08870835 -0.09965612 -0.033369888 -0.20466954 0.53708756 -0.24743608 -0.26570463 0.4365074 -0.36946198 0.14463077 0.39004052 0.6029614 1.1738626 -0.24788588 0.114496976 0.5385316 0.6128403 -0.18643083 0.56497663 0.31031978 -0.3539281 0.11460403 -0.27756974 0.21869785 -0.6000895 0.29513454 -0.69918936 1.4152734 0.340686 -0.22046828 -1.0497886 0.1416627 0.5098881 -0.6318008 0.8061272 -0.009178654 0.16756554 -0.24230327 -0.7394978 -0.8238333 -0.42264873 0.51672375 0.44239116 -0.046868626 0.5261587 0.61515665 1.0499518 0.4211636 0.36611044 0.81968427 -0.6870352 0.6002786 -0.5526018
1875 -0.27003506 -0.574526 -0.8171658 -1.0098999 0.6970845 0.25188655 0.53116536 0.7981878 -0.32131654 -0.01797482 -0.882602 -0.24053714 -0.022847302 -0.27411708 -0.34002617 0.24491401 0.6356021 0.7710438 0.9232426 -0.38684016 -0.3289321 0.64774734 0.6661759 0.2728282 -0.63345045 0.43104917 0.3350237 0.7312229 0.10282502 0.9186223 0.08145663 0.3225095 -0.2659057 -1.2172289 0.78009576 -0.3854496 -0.2556276 -0.30152708 0.18476634 -0.25767013 0.7082069 -1.2733173 0.1180108 0.52075905 0.5508725 -0.66551507 0.5340326 0.061499692 0.7309646 -0.17671044 -0.11195403 0.61569387 -0.61910594 -0.49233627 0.45811293 0.27685294 -0.08378481 0.80629677 -0.38365757 0.3469908 -0.57109785 -0.44101396 0.8424134 -0.73408574
513 -0.76636505 0.8184474 -0.36246294 0.31299788 0.21055919 1.0040399 0.41317874 0.1815891 -0.38790053 0.09198725 0.30608603 -0.19608794 0.6111267 -0.830419 -0.19179752 0.19820718 0.3807995 0.9353444 -0.18200782 -0.13295257 -0.49266544 -0.36405286 1.0713669 0.23577647 0.0020146514 -0.20165795 0.071266256 1.0121505 1.3784057 0.36959863 -0.24317577 -0.19583388 -0.45706466 -0.6214257 0.61079276 -0.114033446 -0.86045635 0.4779883 0.3946379 0.22118643 0.4941803 0.30068648 -0.029954648 0.38597143 0.90339786 0.38964373 -0.2573451 -0.19030976 -0.12687859 -0.018201984 0.070730895 -0.11985693 -0.08826618 0.8753702 -0.31814086 -0.74855846 0.12676522 0.22967406 0.28818735 0.9296987 -0.51548046 -0.8207671 0.25430954 -0.27157718
7114 0.09551604 -0.18177846 0.29292184 0.28888837 0.5543458 0.42901692 -0.27255598 -0.26581448 0.756883 0.21864378 0.115303665 -0.33633658 0.7574224 0.2829869 -0.596106 -0.7827338 -1.041197 0.8996225 -0.22181898 -0.56205064 0.03885566 1.1317289 1.1534872 0.11738277 -0.18120609 0.94578475 -0.36601126 0.14935146 0.6922294 0.90521127 -0.3289898 -0.09525112 -0.46171388 0.09649118 0.614819 -0.60310936 -0.08502233 -0.34508327 0.3023802 0.7698177 -0.011912361 -0.05534286 -0.45023173 0.029291503 0.3125618 -0.81108415 0.65112895 -0.7796327 0.25441048 0.2629818 -0.3791986 0.7611658 0.575867 0.31893092 -0.4564395 0.11858554 0.3739258 -0.022436772 -0.47783417 0.8627866 0.2990129 -1.0834881 -0.12384715 -0.11846096
4168 0.10295853 0.6066041 0.2832146 -0.09061171 -0.06583287 0.7410907 0.36468256 -0.47417524 -0.0531367 1.3453673 0.5528757 0.14117628 0.4241955 0.06178515 -0.29702824 0.57307595 -0.7097786 0.35041928 0.3238179 0.43976986 0.12559383 -0.3862908 -0.1087308 -0.72277904 -0.25779873 -0.051028144 0.18904452 -0.049624365 1.2295952 0.70248127 -0.111780494 -0.49462917 -0.31000093 -0.10871881 -0.34806868 -0.36875486 -0.26786694 -0.7481291 0.059537016 0.77243024 0.7679578 -0.6038394 -0.4125408 0.015650751 -0.8858993 -0.15515712 0.83325213 0.6496349 -1.0965326 -0.11581043 0.16460754 -0.02913732 -0.28323755 -0.73198265 0.50992817 -0.29532203 0.44254613 0.6831242 0.00015518322 0.89607394 -0.4665589 0.031104844 0.6026852 -0.76901823
1592 0.5567162 0.27980357 -0.23308036 0.19322543 -0.4278419 -0.12118438 0.6285571 -0.43262887 -0.58346236 -0.7244427 0.14478783 -0.8463609 0.17987695 0.48644394 -1.0858185 0.39557257 -0.14696473 0.5887262 0.21675684 0.80477846 0.18251704 1.4985042 0.39915457 0.20892255 -0.8210179 -0.6994916 0.96345603 0.37585178 1.6001735 0.48594245 -0.4135185 -0.2546595 -0.1327899 0.23133859 -0.5671645 0.029665733 -0.45461717 -0.09250722 0.39047068 0.51096004 0.10649537 -0.21577892 -0.9036385 -0.7435648 0.14394441 0.26557544 0.39488444 -0.44939595 0.057438314 -0.8686461 -0.5194897 -0.09619764 0.10892199 0.20080943 -0.13748337 0.022813225 -0.2383492 -0.116499946 -0.37412593 0.6465648 1.2186266 -0.038222473 0.6291086 -0.29229817
8317 0.74405503 0.743526 0.68161744 -0.061146542 -0.0030382592 0.79031885 -0.14615625 0.4299271 -0.74906266 0.37573725 0.20750785 0.7938639 -0.87287986 0.10476683 -0.4798774 -0.033892952 0.60769075 0.28738984 0.7577555 -0.520465 0.53197515 1.0531095 -0.3068552 0.31839633 -0.63369 0.4634639 1.4876196 1.3338982 0.109276116 -0.27525598 -0.28320646 0.6710923 -0.18653786 -0.6778766 0.069048814 -1.2844899 -0.42254373 -0.70154077 0.8154969 -0.25640893 0.89105964 -0.045520097 -0.842041 0.13615346 0.40224093 -0.104855664 0.65679055 -0.45209745 -0.9295331 -0.044341523 -0.7058306 0.9535572 1.0341336 -0.6315494 -0.17147964 0.45829892 -0.042200234 0.1201169 0.17979987 -0.08810221 -0.43514064 -0.5071546 0.42620867 0.5414793
3536 0.32074177 0.41758788 0.23345499 0.102188036 -0.3139341 0.46674785 -0.10100202 0.7563411 0.026387667 0.30129877 -0.66064644 -0.279853 0.34303468 0.2365773 -0.38681376 0.089707345 -0.07485401 -0.008512441 0.23669727 -1.0031666 -0.60026705 0.3747326 0.08198866 -0.013476124 -0.93245614 -0.028471593 -0.017612576 0.0392662 0.6503397 0.08942641 -0.4283567 -1.0331266 -0.16271152 0.5918559 0.24331413 0.18869898 0.27913386 0.31065863 0.5723447 0.30284995 0.9801615 -0.9384584 0.16320881 -0.07043048 0.08327028 -0.7660585 0.2500357 0.034475755 0.29647112 0.40109804 -0.8807977 -0.11744989 0.31126675 0.48504263 -0.38683426 0.87587297 -0.30919984 -0.64003974 0.31469545 1.1532854 0.56588113 -0.942293 0.5230227 -0.9227016
2194 -0.06638442 -0.13593261 -0.7842461 -0.6452197 -0.5826738 0.56776005 0.22040156 0.29077077 -0.59523445 0.6458118 1.1383438 0.411495 -0.70391667 -0.62454414 0.44324654 0.58579063 -0.28673217 -0.14587736 -0.88707083 -0.66872853 -0.32355767 0.22233549 0.6698354 0.50969356 -0.3786495 0.26305506 0.92985284 0.8191636 0.14624034 0.13642606 -0.01850637 -0.1963913 -0.12938437 -0.36576065 -0.15836725 -1.0719166 0.55726135 -0.86624604 1.6687841 -0.2299589 0.30965987 -0.081867315 -0.17689931 -0.6271748 -0.53920853 0.39972833 -0.04291875 0.25780544 0.14096437 -0.67333 -0.97122645 0.040675804 0.2005401 0.24544057 -0.28803143 1.011544 0.6035224 -0.07655907 0.62814236 0.40335885 0.24554875 -0.71366644 -0.3651692 -0.102942735
1032 0.93500936 -0.9792284 -0.12123735 0.971246 0.014645619 0.12724134 -0.7621555 -0.51017773 -0.26444796 0.41699082 1.112619 0.6931073 -0.017067483 -0.59401745 -0.2840473 0.5421783 -0.37419963 0.25227702 0.5169186 -0.4390343 -1.2241111 0.48014736 0.39189968 0.12154978 -0.45002037 -0.42134604 0.9797216 -0.27947503 0.32847437 0.54006904 -0.4379383 -0.96033466 0.013112634 0.023548681 -0.35259822 -0.18609747 0.1154587 0.5541059 0.9934329 0.008693126 0.45468518 -0.977668 -0.9335614 -0.37038237 0.9829781 -0.032660145 -0.35985094 -0.50591195 -0.2744803 -0.23453711 0.06328392 -0.85039395 -0.37281793 0.35622388 -0.41753265 0.1565253 0.06374483 0.30093908 0.2995515 -0.046659373 -0.49052513 -0.19223402 -0.9039084 -0.34206587
4797 -0.064405225 -0.28929612 0.94717795 0.38355672 0.27230778 0.04284742 0.14547046 0.07955918 -0.43729293 -0.32862785 0.16891819 0.13339637 -0.055241004 -0.6277605 0.43448588 -0.16830479 0.45882943 0.32987532 -0.09238957 0.5663541 -0.24422702 0.2703083 0.19703387 0.6881812 0.31774667 0.32437357 0.45887926 -0.039015103 0.59526694 0.45486563 -0.09259514 -0.29937932 -0.2059482 0.4579561 -0.47013727 -0.46713546 -0.39982748 0.27265894 0.7167264 0.73109823 0.06516678 -0.62494475 0.011657961 -0.48312354 -0.18530814 -0.7985987 0.5743641 0.465563 -0.42783833 -0.023437418 -0.55690265 -0.3681649 0.23041247 0.06665214 0.70444703 0.3638125 0.6905763 0.343771 0.8740609 0.0626335 -0.5432226 -0.26405936 0.7406425 -0.87319684
1081 -0.08826453 0.03015829 0.6085087 0.4795626 0.13217968 0.2539536 0.48755017 0.032783132 0.26255175 0.014775575 -0.7181548 -0.051279716 -0.108810596 0.38789025 -0.41219035 0.42669496 0.69932836 0.20252837 1.1407927 -0.083295874 -0.69262016 0.9725868 -0.007821719 0.117920175 -0.5568948 0.22970289 0.041660205 0.5235441 0.47092116 0.32291192 1.1599681 -0.5406802 -0.23839657 0.4769171 0.2051562 -0.38910112 0.23782486 0.5767653 1.4140418 0.027227798 0.5286921 -0.7009551 -0.03589164 -0.8416524 -0.6225651 -0.9709309 0.65799797 0.363181 -0.00959557 0.20618461 -0.53600174 -0.07142591 1.026081 0.015701897 -0.43793407 0.1925408 0.15046264 -0.04700325 0.45736003 0.31834164 0.77293277 -1.9745396 0.57116485 0.035986938
475 -0.0107407095 0.30006516 -0.67041284 0.5878519 0.4249214 -0.1793699 -0.083755426 -0.69575846 0.6107686 -0.35110444 -0.40648302 -0.6171653 -0.0069857677 0.019638237 -1.4000529 -0.75129193 -0.16403946 1.2284681 0.27629942 0.056305826 -0.10769154 1.1119461 0.8606836 -0.7802093 -1.0596184 -0.8605689 0.17549711 0.65090233 1.3519719 -0.2652728 0.3567837 0.22844648 -0.0561285 -0.58003753 0.18914863 -0.69201195 0.0077527473 -0.551296 0.49529436 0.23531769 -0.41936252 -0.45939615 -1.3341694 -0.40860218 -0.071217395 -0.8225329 -0.058524158 -0.44037676 -0.29644123 -0.38853854 -0.77092177 0.038812347 0.5193874 -0.1088854 -0.86372876 0.27586707 0.19085523 -0.40572858 0.1317122 0.043956965 0.801647 -0.7876392 0.044751916 -0.95626163
499 0.75571704 0.545151 0.668292 0.06260111 -0.31382754 1.0981777 0.12479528 -0.17802215 -0.722204 0.17547448 -0.34197623 0.7141319 -1.0587778 0.24587221 -0.14279054 -0.20686878 0.79190004 0.6086632 0.61655104 -0.2990786 0.4329191 0.6819123 -0.3230682 0.4408982 -0.5358449 0.2052558 1.460237 1.194253 -0.14524114 0.30544117 -0.24273947 0.7311895 -0.36392975 -0.8115642 0.61761487 -1.3144096 -0.37991577 -0.563455 0.7794115 -0.12438332 0.85918695 0.0113493595 -0.47687027 0.6301966 0.31211233 -0.28953984 0.51516914 -0.4516866 -1.0538666 -0.14413899 -0.89600635 0.7244825 0.94443333 -0.21264793 0.053854767 0.37742928 0.07888911 -0.07386683 -0.06479078 -0.2054258 -0.16839883 -0.74805105 0.2294882 0.25090364
6454 -0.15934213 -0.6624267 -0.0872996 0.406447 0.08889408 0.5871252 0.20013073 0.20466566 -0.25465825 -0.3736008 0.45523816 0.14682104 -0.009594275 -0.8578341 -1.0040481 0.3601883 -0.40438044 0.30723536 0.22868147 0.30014232 0.6559419 -0.34936824 -0.3776565 -0.76891005 -0.30486754 0.36510473 1.1065291 0.5911364 0.53277105 0.6149777 0.7717917 -0.118925326 -0.78255415 -0.8053986 -0.5986353 -0.6963917 0.20484383 1.2381418 0.09159543 0.2689354 0.19698976 -0.27399424 -0.20667848 -0.23810199 0.327232 -0.19407502 -0.10004502 0.711959 -0.21023954 -0.09728273 -0.003177389 -0.171495 0.8800692 0.80900645 0.16238004 0.82519114 0.050333343 0.7730855 -0.08366111 -0.21426447 -0.8620835 -0.016306272 -0.64593035 -1.5084472
6960 -0.21170925 -0.39462605 -0.47108522 -0.15860666 -0.124313906 0.17488495 -0.27685344 -0.5147511 -0.6190051 0.29264998 0.28008574 0.6387132 -0.5608249 -0.3785141 0.1261467 0.05046569 -0.4424874 -0.16803879 -0.6540494 -0.22749694 -0.23589526 0.0011087696 -0.55209965 0.26140192 -0.89495295 0.3516277 0.5062848 1.412848 0.84515697 0.6950928 -0.25110957 -0.050855976 -0.2631106 -0.47935665 -0.2317802 -0.70155793 0.2145255 -1.1948758 1.0095258 -0.31615764 -0.16900845 0.008542093 -0.27429155 -0.7748702 -0.050566193 0.081767514 -0.08176897 0.1577835 0.9123367 -0.10938359 0.30341902 0.21966146 0.26566768 0.53433967 0.27201352 0.42808768 0.13847747 0.5295012 0.5847032 0.4632374 0.17638916 -0.44796672 -0.32758373 -0.26257956
1849 -0.07005172 -0.8464933 -1.3895642 -0.16949078 0.10222743 0.6910976 0.1844768 -0.12537728 0.74767864 -0.05377187 -0.19698432 0.1585061 0.43933052 -0.401392 -0.4707621 0.053682894 -0.23835617 -1.2025769 0.9308021 -0.025738372 0.38463563 -0.5883482 -0.057529453 0.7419032 0.45423368 -0.8938681 0.18946126 0.6546041 0.2959418 0.82963353 0.4050888 -0.6869642 -0.7776543 0.9653769 0.67084557 -0.56553614 -0.55700594 -0.9758208 1.0873253 0.42214942 1.0289893 -1.0406907 0.46882474 -0.85785 0.19145383 -0.6188811 0.31309888 0.20541443 0.18038554 -0.6203226 -1.0120566 -0.18614694 1.4183955 -0.8815827 0.060282804 -0.41382396 0.30306134 0.5015916 -0.04650412 0.1950518 -0.7471008 0.29604596 -0.15159109 -0.5124283
855 1.1953915 -0.88198 -0.6094073 1.0210627 -0.23847198 0.30047846 -0.4942875 -0.45328736 -0.21943495 0.28748626 0.46766156 0.3519035 0.17085628 -0.28707758 -0.48423475 0.42239198 -0.53276896 0.31807697 -0.021557236 -0.21738733 -1.5498087 -0.42828122 0.04845568 0.08103363 -0.5867285 -0.5356877 0.6719172 0.2529217 -0.00012339573 0.45171058 -0.5284938 -0.96899897 -0.068069 -0.3144832 -0.04812665 -0.42263722 -0.27611464 0.66616267 0.7098375 0.32240704 0.24686861 -0.6735046 -0.6038061 0.12809722 0.6670008 -0.47208932 0.025562156 -0.2413555 0.24149467 -0.26766482 0.13837683 -0.807652 -0.21385714 -0.08954749 -0.1840591 -0.089475475 0.28080937 -0.14530255 -0.2082705 -0.1320026 -0.5878774 -0.11584993 -0.80060023 -0.34206685
8520 -0.36903942 -0.16718665 -0.9085844 -0.36128336 -0.04224319 0.50127506 0.22441289 -0.32067236 -0.34467188 0.8460903 0.5070161 0.47208178 -1.0080588 -0.88015115 -0.16696535 -0.37635276 0.18766458 0.39270157 -0.37007877 -0.43473405 -0.235048 -0.42656356 -0.34888574 0.8138076 -0.30932963 0.5103726 -0.0315967 1.6879596 1.2520387 1.4438599 -0.05875936 -0.21795103 -0.20224129 -0.23811494 0.2482003 -0.3749446 0.5012048 -0.7691343 0.8343319 -0.20749211 0.3252087 -0.16900963 -0.23092467 -1.4978718 -0.0003274493 0.10777357 0.32137194 0.01047383 1.257892 0.3989611 0.53644913 0.09125551 0.31217444 0.2988642 0.14852831 0.22284348 -0.8768905 -0.06352925 -0.24076587 -0.067729756 -0.058605313 -0.6966319 -0.89334387 -0.23768522
1933 0.16226153 -0.1269368 -0.82987195 0.22533308 0.1011933 0.18675111 -0.72135884 1.1759831 -0.350923 0.997502 -0.836808 -0.1582674 -0.11787918 0.4483837 -1.6270169 -0.058152694 -0.7742429 0.10926702 -0.16094986 -0.05696092 -0.71391326 -0.3795369 0.003954992 1.1163464 0.019448826 0.09266734 0.61026806 0.0044946615 0.7833341 0.5487748 -0.054613143 -0.20895237 0.35430187 0.2581996 0.34718496 0.50346196 0.16424385 -0.18198143 0.66111505 0.60554326 0.84782875 -1.092668 -0.270489 -0.43853042 0.34306708 -0.6733963 0.9894893 0.5184381 0.09033342 0.31099644 -1.0413276 0.09560966 0.18799642 -0.47500348 0.0004141128 -0.63973314 0.9555702 -0.071150094 0.29977557 0.6668725 -0.9019564 -0.3864583 -0.5019646 0.34116727
6432 -0.29642427 -0.51646096 -0.91558635 -0.187408 0.7902467 0.7209238 -0.7620391 -0.21966575 -0.24568585 -0.8819032 0.8904986 0.47305492 -0.6072265 -0.39198273 0.1069506 -0.9507142 0.3109476 0.0029507533 0.246323 0.48725304 1.1829572 0.10372457 -0.521168 0.6449617 -0.116047345 -0.045764912 0.3307955 -0.15211177 0.6929269 0.55591965 -1.3667268 -0.7217573 -0.48197797 0.17305319 -0.5437274 0.44154373 -0.67576855 0.5549054 0.9589753 0.35023922 0.3902876 -0.2991149 -0.63256323 0.12182743 -0.06393703 -0.1873103 0.75465524 0.65582216 0.17424642 -0.9702258 0.080652505 0.03231815 0.0010893111 -0.40160453 0.47973597 0.3053964 0.31164014 0.11821401 -0.27808008 0.20540257 -0.8490748 -0.7038651 -0.017820239 0.25480133
1161 -1.234261 -0.13132119 -0.30406252 0.25201753 0.17578034 1.2738435 0.29910275 0.8796464 -0.34034353 -0.383621 0.05830212 -0.6641943 -0.48185506 0.047038395 0.2944143 -0.7498044 0.49748576 0.38580236 -0.21994674 -0.03697777 0.39167225 0.045415465 0.15114745 0.21965496 0.13081692 -0.18083528 0.22979304 0.4282004 0.4990327 0.05071808 -0.1196822 -0.35844657 -0.30262592 -0.09637487 0.2879137 -0.28578267 -0.19111678 0.38569313 0.66002536 0.28064665 -0.38457516 -0.673029 -0.021491481 0.2217918 0.5966163 -0.030516526 0.10291593 -0.3151265 0.002382412 0.14705993 0.17198524 -0.7846176 -0.52520496 0.25232852 -0.25877872 -0.26472235 0.8389956 -0.4223154 -0.4788498 0.41155177 -0.4974411 -0.26963568 0.42185664 -0.30878603
6015 -0.14118911 -0.1609898 -0.487182 0.2542833 -0.11750375 0.6171472 -0.7129457 0.02834082 -0.08009927 -0.1408504 -0.3284054 0.81185067 -0.2658002 -0.34174278 -1.0406581 -0.5469348 -0.2593605 0.13540497 0.1291231 -0.65170693 0.19660132 -0.33432674 -0.9441616 0.7138351 -0.5520707 -0.08128894 -0.53126925 1.0279818 0.6659611 0.9232775 -0.5051234 0.1332237 -0.49971443 -0.2890997 -0.3394741 0.014784475 -0.27234098 -0.8471674 0.8057196 -0.7924037 -0.63311243 -0.6501235 -0.5216284 -0.74889815 0.80918294 0.41510883 0.24136904 -0.2644765 1.1967181 -0.07380461 0.17072256 0.6107975 0.62408966 0.38621768 0.63923067 0.16273618 -0.18112402 0.29395285 0.07903042 0.9053445 0.036563437 -0.4662406 -0.3539106 -1.1026602
8966 0.2542562 -0.43269655 0.72925395 0.38645855 0.30974737 -0.045296423 0.51233363 0.48919913 -0.60933214 0.8669755 0.603192 0.26135963 -0.33209184 -1.0050727 -0.33061773 -0.5947088 -0.2718247 0.78375477 0.9616888 0.3553149 -0.15159042 -0.4625211 0.15919195 0.92252123 -0.24459513 -0.31298894 0.11243571 -0.38396907 0.13814168 0.36741504 0.38397747 -0.040178202 -0.011300002 0.54616094 -0.60685194 -0.10200976 0.29228193 0.77000046 1.1566788 -0.022571957 0.14125632 -0.99005663 -1.6203052 -0.3583207 0.44726533 -0.114556774 0.49586275 -0.6519904 -0.008751692 0.22058474 0.60927397 -0.5176025 0.39411986 0.19262893 0.48003766 0.1940083 0.22923578 0.22835435 0.09625049 -0.15892157 -0.011813508 0.31963202 0.14631878 -0.6932591
530 -0.03292223 0.33473194 0.5975714 -0.20580344 0.46759844 0.9001205 0.44823748 0.09646145 0.28192648 0.90567905 -0.07386159 -0.27776104 0.23634775 -0.18722948 -0.5510505 0.039094854 -0.17657527 0.17608082 0.18332194 0.36917683 -0.16701205 -0.44783136 0.24178247 -0.34136522 -0.8974702 0.3862387 0.13303643 -0.2909222 0.4371633 0.5853611 -0.723055 -0.5341095 -0.5568334 0.3863089 -0.38895664 -0.07648327 -0.40538305 -0.23481789 0.8274534 0.28866473 0.33532 -0.0026417437 0.0027901367 0.65901536 0.01307789 -0.4643347 0.56155324 0.106353186 -0.2759873 -0.31309718 -0.74658686 0.11022488 0.31871396 -0.14591528 -0.31935167 -0.11729344 1.0638876 -0.37091735 -0.3609609 0.23057434 -0.30398425 0.40719494 -0.7147476 -0.491695
276 0.11816835 -0.31090006 1.0991455 -0.07455341 0.1150585 0.06522068 0.107831866 0.35499865 -0.42686144 0.40148208 0.19409461 0.5956679 -0.48904768 -0.74437416 -0.08841358 0.17103016 0.027347267 1.0909733 0.05499852 0.48287192 -0.121894635 -0.44207358 -0.055656563 0.2866922 0.35091534 -0.04208109 0.56374234 0.27269882 0.632329 0.4866655 0.33788437 -0.6891912 -0.58934 0.22493634 -0.072312154 -0.35791308 -0.7720727 0.5741417 1.2348912 0.18170585 -0.045559023 0.49780625 -0.1997268 -1.0764934 -0.14156501 -0.60876846 0.5248492 -0.25850388 0.65881246 -1.0470133 0.024225868 -0.9449786 0.7961938 -0.51015896 0.49651918 0.76473653 0.10102201 0.1701911 0.18966338 0.07457941 0.0592936 -0.739666 0.7389195 0.293607
3895 -0.28767297 1.1863999 -0.92976975 0.3139107 0.4501826 0.42098552 -0.06941419 0.028832503 -0.26892185 -0.1986932 -0.22843829 0.120020464 -0.04745321 -0.60395515 -0.7197363 -0.391126 0.094386585 0.33501664 0.09138805 1.0486754 -0.11640607 -0.07367774 0.9741808 0.0322701 0.16749157 -0.08541621 0.30238926 0.1123474 1.515415 -0.18171342 0.42900208 -0.8258484 -0.46306154 -0.68502796 0.34727624 0.18686749 -0.55153036 0.23366363 0.48960605 -0.08640727 0.20855789 0.36848378 0.02340758 0.35589695 1.127467 -0.68661255 0.21127363 -0.6597605 0.7839252 -0.1062865 -0.5886467 -0.17599961 -0.007831093 0.3097241 0.14762096 -0.89266694 1.0088058 0.31277373 0.26213408 1.2866607 -0.5536044 -0.88093734 0.040137857 -0.3608659
5077 0.13690098 0.013792219 -0.7643184 0.36639264 -0.042344075 0.3166238 -0.693611 1.1460516 -0.0719344 1.0110251 -0.951015 -0.0014033833 0.20722128 0.30703798 -1.5041392 -0.103898406 -0.41885084 -0.22922733 -0.17670421 -0.26980987 -0.6586682 -0.7029417 -0.02144311 0.9132824 -0.011191348 -0.0149105955 0.28599578 0.15320139 0.5697141 0.46362782 -0.30165967 -0.154175 0.10828721 0.12793912 0.21611987 0.18195125 0.11393163 -0.2022263 0.8837106 0.78012294 0.7711969 -0.84032416 -0.47372308 -0.28151646 0.21232626 -0.440143 0.75965786 0.3976682 0.2356494 0.22010554 -0.89812493 0.010355976 0.030030955 -0.56891453 -0.0052203364 -0.52506644 0.6399622 0.15013352 0.50910276 0.12239237 -0.72023064 -0.46561384 -0.36985004 0.2782384
580 0.78812885 0.029632023 -0.25042057 0.4990043 -0.7397017 -0.119957544 -0.4274801 1.299432 -0.11488898 0.33895224 0.065909535 -0.0026836495 0.30898583 -0.2125312 -0.8979416 0.17083833 -0.64579684 0.024714136 -0.101273686 -0.7526968 -0.78133535 -0.9899293 -0.0629352 0.8986913 -0.65883666 -0.31004375 0.561971 0.21209092 0.2673089 0.2132302 -0.35190517 -0.6222524 -0.3075405 -0.3171095 0.25826484 -0.22800522 -0.4625826 -0.19832118 0.5667809 0.8869106 0.5546355 -0.52069867 -0.03465411 -0.09209839 0.31303725 -0.7242862 0.6605367 0.27106112 0.55575776 0.052940253 -0.89701366 -0.28390086 0.14855428 0.0066952524 0.36729196 0.11712603 0.6962589 -0.27533498 -0.07770048 0.036575865 -0.6424387 -0.3299018 -0.43176037 -0.0048112646
8759 0.5686081 -0.7175261 0.02126149 -0.26648036 -0.15027598 1.5051173 0.327815 -0.6362376 -1.1100864 0.62643653 -0.44190687 1.0184001 -0.5533361 -0.57383907 -0.006383754 -0.5879617 -1.4480493 -0.17870079 -1.230164 -0.17743063 -0.052263726 0.87019515 0.394171 0.42966777 -2.8138413e-05 -0.38945174 0.77461493 0.74498075 -0.032656666 0.81224406 0.03926028 -0.4877811 -1.068321 -1.1372391 0.08766908 -1.4635637 0.17260768 -0.8517469 1.3069172 -0.21592602 -0.31114426 -0.1120706 -0.47156125 -0.09632488 -0.31156263 0.03342129 0.38357967 0.399761 0.32037994 -0.89813566 -1.2468559 0.28120717 -0.12648255 1.0496372 0.68865794 0.42919222 1.2035947 0.68048817 0.5571921 0.9341995 -0.15727106 -0.5874095 -0.420735 0.26987514
562 -0.06921039 -0.2379672 -0.26815528 -0.13522162 0.301432 1.2560871 -0.72671306 -0.15733266 0.064132296 -0.20553811 1.315616 0.63860506 -0.32719862 -0.41834524 -0.2303281 -0.41679892 0.34794226 -0.43133876 0.77288616 -0.09768317 0.27960566 -0.11954525 -0.6548733 0.8136184 -0.1667954 0.49601606 0.16973859 0.14369678 0.09915711 -0.10090815 -0.8979054 -0.051230125 -0.78574294 -0.22788922 -0.6610216 -0.5862915 -0.59264135 0.96328986 0.5398367 0.6312798 0.9295644 -0.34346747 -0.8440911 -0.071606666 -0.47255805 0.39623073 0.2780455 0.5868017 0.49537614 -1.0198824 0.4413168 0.24474044 0.05241046 -0.4587378 0.63298666 0.17538951 0.7777312 -0.6386421 0.22887687 0.3831492 -0.6042922 -1.3441308 -0.5509165 0.54660904
795 0.23614383 -1.334218 0.119262144 0.027933786 0.43464032 0.55479145 0.07733839 0.1144543 0.60822403 -0.17324793 -0.26962867 0.63141257 -0.044087533 -0.0916761 -0.8285404 0.44400215 -0.5120085 -0.29160953 0.28643316 0.69088006 0.095049106 0.111596175 -0.14572422 -0.2796767 -0.21543115 -0.15053232 0.6111298 0.1602024 0.8843993 -0.40306178 0.4457492 -0.51960313 -1.2000366 -0.22342062 -0.7857533 -0.06933185 -0.1743169 0.30521476 0.36467373 -0.00087535905 0.112308644 -0.38725215 -0.04166181 -0.32233617 0.9982451 0.0061640297 0.32057577 -0.3056985 -0.54219115 -0.14841017 0.22953819 -0.58704036 0.11407215 0.013497858 0.8610324 0.015769582 0.38764983 0.6701835 -0.042575248 -0.080063656 -0.4286014 -0.2974731 -0.2745808 -0.8044278
4859 0.19971848 0.22639085 -0.38658053 0.24931918 -0.755822 0.62537193 -0.88496786 -0.80433714 -0.4767761 0.4700867 0.29650986 0.7442873 -0.65911406 -0.39583823 -0.47300723 -0.6908035 -0.12813684 -0.00954285 0.4931175 -0.42495003 -0.32002336 -0.1243716 -0.8732217 0.3431358 -0.49710104 0.055454634 -0.26907837 0.6729989 0.7731012 1.0192757 -0.29348543 0.24492358 -0.29322216 -0.07546909 -0.33380327 -0.23608834 0.09938474 -0.9925549 0.55940014 -0.35148603 -0.5953418 -0.20759945 -0.23608094 -0.7748364 1.0018342 0.3275388 0.42237273 -0.09551435 1.2004776 0.13967204 -0.34349442 1.1294769 0.5219954 0.06542678 0.68979764 0.13531025 0.14196071 0.34037977 0.11327658 0.7295772 -0.35178858 -0.43008733 -0.12960118 -0.76175576
8946 -0.96911234 0.42895153 -0.42611682 -0.12400756 -0.050633308 1.2519726 -0.46992916 -0.3851937 -0.57836264 -0.17017594 0.27625024 -0.43308893 0.3036048 -0.04866453 -0.41025877 -0.6489113 0.13139164 0.28255558 0.49726266 0.6394054 -0.21995427 -0.41621816 0.5623425 0.8913805 0.28848007 0.06017707 0.27373046 0.41595644 1.1746883 -0.017105361 -0.19073583 -0.79981697 0.27880192 -0.47909266 0.37219435 -0.14660406 -0.7144184 0.17150687 0.20984657 -0.14740667 -0.32040516 -0.19591437 -0.17521276 0.56442225 0.8118745 0.12550858 0.318051 -0.21870488 0.55715054 0.26305008 -0.83450645 0.52002424 0.27306014 1.0619835 0.15305513 -0.9141705 0.2328366 0.44955862 0.27050218 1.0011526 -0.12100655 -1.1762825 0.038602974 -0.15294977
990 0.18637563 0.12006412 -0.6855375 0.27044633 0.082446024 -0.12752688 -0.8136529 1.1166149 -0.33165774 0.6397384 -0.635516 0.17980243 0.24382342 0.03640831 -1.3170707 -0.00080982206 -0.6888057 0.074090935 -0.06399243 -0.15951084 -0.28040904 -0.742471 -0.21066208 1.0066818 -0.42070073 0.042543232 0.64577824 0.35466757 0.66774505 0.4032565 -0.61622185 -0.29497996 0.39805442 0.35644934 0.2309998 0.6526838 0.013548197 -0.11092028 0.8100479 0.42183402 0.66526943 -0.91705835 -0.18858603 -0.36243933 0.32158288 -0.95068014 0.8572511 0.4699805 0.09657211 0.21703997 -0.82360584 0.08168464 -0.02193252 -0.3174201 -0.44710997 -0.17867978 0.53379196 0.033427004 -0.033889513 0.6570787 -0.9755705 -0.17066042 -0.3587626 0.054136023
6814 0.70902103 -0.68702024 -0.7809256 0.5140615 0.13932207 0.8292085 -0.08930667 0.01849066 0.52831095 -0.12352974 0.37113476 -0.0730126 -1.7227651 -0.5656128 -0.85896856 -0.7147977 0.73217976 0.72751933 0.76539356 0.6250389 0.31145117 0.09757863 0.09656736 -0.810276 -0.41367275 1.1865739 0.9365051 -0.0412636 1.3817434 1.5810053 0.74923474 -0.72424084 -0.23433894 -1.4300662 1.5373675 -0.4744084 0.114419214 0.23644005 -0.08980522 0.56771487 1.2768958 -1.8683506 -0.79557896 -0.53584826 -1.0243319 0.54999566 0.575593 1.3798158 -0.37199256 -0.45888287 -0.78242046 0.6198958 0.72868544 0.91812027 -0.25939378 -0.24167559 0.9544171 0.29893586 -0.37898406 0.37076494 0.6002144 -0.5504206 -0.0047937096 0.13933714
6435 -0.1680758 -0.66979766 -1.0130072 -0.27428618 0.25713825 0.45701754 -0.15921302 -0.053310204 0.35677147 0.19950564 0.037676577 0.034783743 0.024134334 -0.74284667 -0.33091655 -0.08490563 -0.32309985 -1.1154761 0.7154385 -0.36788714 0.50405616 -0.5375563 0.1595208 0.5677967 0.06130935 -0.9230481 0.15266578 0.1830884 0.322474 0.35171396 -0.03804704 -0.74492794 -0.44130087 1.0577438 0.42591837 -0.12659343 -0.16587888 -0.8182145 0.7671873 0.4097262 0.7448522 -0.8274712 0.38953713 -0.5050351 0.056112785 -0.802494 0.5994019 0.17479168 -0.17228022 -0.52879834 -0.66079897 -0.19429567 0.65817755 -0.7838058 0.048158694 -0.45370573 0.06824961 0.83512574 -0.13267915 0.048750307 -0.78516054 0.1469213 0.27745628 -0.5936563
128 0.077203475 0.63562965 -0.14860038 0.16044241 0.23737119 0.74039197 0.054708276 0.40995625 -0.4558263 0.57892346 1.5511651 -0.07661171 0.07080125 -0.6346081 -0.937922 -0.22094005 0.04338389 0.027958177 0.54680485 0.4021271 -0.3286593 0.50611967 1.0752476 -0.27531722 0.13870876 0.15409428 -0.38710403 0.81863207 1.17116 -0.24240611 -0.28804243 0.10671425 0.345598 -0.10763702 0.6210114 -0.6412829 -0.43729734 0.050839156 0.0969956 -0.026586551 0.61737204 -0.039095163 -0.48596594 -0.08159468 1.7679945 -0.2008302 -0.2930125 0.27936542 0.7287002 0.565113 -0.556079 0.13616577 -0.11660155 -0.24172701 -0.61085916 -1.297028 0.9049229 0.09079619 0.3120083 1.1461874 -0.95829594 -0.40759808 0.39413035 0.08396862
329 0.5874408 -0.53132546 0.16845128 0.31543413 0.45217225 0.22968248 -1.043977 -0.99082214 -0.34254953 0.23342818 0.3112043 0.27897066 0.3416509 0.44080523 0.38473713 0.4801545 -0.25282946 0.20753554 0.21285914 0.13483143 -0.16032001 0.10578129 0.3801643 0.07103378 0.24877347 -0.34108263 0.4563198 0.19615547 0.31124622 0.5964749 -0.591922 -0.09920431 0.19055456 -0.20810719 -0.24488766 -0.55807817 -0.009446826 0.8271964 0.4277237 0.22292282 0.3648256 -0.7359008 -0.4114116 -0.8130675 0.8466053 -0.31890076 0.028698437 -0.6279186 -0.11642647 -0.15711167 -0.5748673 -0.48539978 -0.12686744 0.18832421 0.69324064 -0.9391704 -0.3307657 -0.34062806 -0.33214694 -0.4539502 0.14516279 -0.3745078 -0.4498818 -0.5643943
993 -0.4200566 -0.47267744 -0.5076716 0.2886523 0.3924246 0.9631492 -1.6546319 1.0844922 0.25261396 1.0770504 -0.05233888 0.19339865 1.283401 0.0921057 -0.41210127 -0.3076974 -0.65078104 -0.29611173 1.1291652 -0.44307724 0.18854798 -0.23021065 0.48106357 -0.27429494 1.0026928 0.00028368775 0.29254842 1.1454687 0.08082913 0.8550958 0.55471015 -0.3807228 -0.52370447 -0.009868946 0.09995731 0.25834596 -1.5824848 0.97705626 0.34623417 0.33050117 -0.055148795 -1.1705991 -1.27982 0.66131914 0.31095907 -0.5687908 0.18487 -0.575083 -0.11607147 -0.17883664 -0.77071106 0.20852964 0.54340184 1.0903535 0.7536821 -0.4419912 -0.13304834 -1.2093228 -0.6934372 0.10639787 -0.056596678 0.07520814 0.30669978 -1.2788522
8142 0.21088094 1.0064272 0.85162514 -0.3373314 0.300669 1.0981089 0.20509778 -0.30081537 -0.011943098 1.2847801 0.4653027 -0.00068494776 0.3011887 -0.37493935 -0.48637402 -0.24758348 -0.57846147 0.33909363 0.51085144 0.53283334 -0.13863277 -0.7604012 0.43871313 -0.6558321 -0.59765935 -0.15616216 -0.0054217167 -0.19928792 0.8607851 0.57893956 -0.29238245 -0.40601063 -0.8765731 0.66079473 -0.2925958 -0.3121013 -0.09341948 -0.6462171 0.91827154 0.6235788 0.48372313 -0.03726466 -0.25511426 0.46128926 0.06531512 -0.08798492 0.8696159 0.42152444 -0.68656987 -0.33320868 -0.10246399 0.09482484 -0.43394044 -0.5644023 0.29133618 0.12526631 0.9893638 0.29398164 -0.15984094 0.56958354 -0.35698408 0.3611075 -0.28696242 -0.5563797
6165 -0.9885026 -0.48214337 -0.47578263 0.25534466 -0.14281736 0.021158874 -1.02854 0.06421223 -0.005330988 -0.028804801 -0.021887075 0.8229186 -0.8320803 -0.8967302 -0.5109143 0.019469835 0.08947394 0.47828314 1.2103231 0.008960259 0.14396758 0.3454131 0.27282387 -0.79345024 -0.9598807 0.19062893 0.34486338 0.4646937 0.27487004 -0.06377407 -0.28700915 0.5490961 0.21779084 0.11236866 -0.5333377 0.105092674 -0.1887964 0.36404535 0.24569336 0.4769934 1.3587282 -0.29496846 0.1940823 0.06975647 0.6146832 0.24531282 0.6469485 0.14051706 0.18889233 -0.74731106 -1.3362269 0.51937664 -0.26036 0.37944186 1.2951416 -0.011190997 -0.05960925 -0.51709884 -0.6269666 0.92116797 0.48856372 -0.20630604 0.15981661 -0.028754983
41 -0.93228513 -0.66325843 -0.7185012 -0.7375 0.33843106 0.2662067 0.49739668 -0.58977056 -0.6325801 0.2767553 -0.66119874 -0.45069218 0.24549663 0.20108731 0.02964793 -0.19078062 0.3565085 0.923324 0.9961944 -0.16823553 -0.04794992 0.34724632 0.04556722 0.04298691 -0.2332619 0.25849676 0.25174916 0.09166341 0.24066238 0.8066998 -0.42470083 0.10239159 -0.22691475 -0.8444909 0.5933377 -0.4827273 -0.107108474 -0.34350473 0.41606635 -0.24042593 0.55422646 -1.259208 -0.23462002 0.3206528 0.4533001 -0.7260366 -0.35450116 0.1017971 0.61463404 -0.62877667 -1.0561218 -0.2225395 -0.40453386 -0.57531345 0.63336444 0.64583206 0.21775705 -0.4762904 0.16782705 0.48697233 -1.2244649 -0.2637895 0.5093992 0.10807001
8886 -1.1101019 -0.09491262 -0.5001773 -0.2396945 0.6078092 0.6285418 0.44411796 0.051893983 -0.2068204 -0.26017833 -0.44937173 -0.49166912 0.038876247 -0.02292629 0.1733859 -0.30331534 0.25154662 1.1787469 0.57794756 -0.4126081 0.20038112 0.9608459 0.21127231 0.22303319 -0.10980875 -0.030202596 -0.088014804 0.42953876 0.16751587 0.74444884 -0.4152279 -0.0075656692 -0.35841903 -0.847845 0.13947392 -0.0358605 -0.20755257 0.124198236 0.6435778 -0.06994615 0.28003946 -1.352322 -0.1868699 0.31324103 0.28581688 -0.37484938 0.08593484 -0.118547104 0.63019 -0.4724704 -0.33755243 -0.6585242 -0.53310627 -0.15432817 0.38901964 0.26162755 0.16424917 -0.4462943 0.067538366 0.22975542 -1.0472192 0.009547391 0.61736643 -0.06435683
8787 -0.49995282 0.13932244 0.12123734 -0.386877 -0.43581638 0.22123845 0.032662295 0.29358247 0.25196013 0.6887847 0.068563506 0.19825695 -0.38229114 -0.43898425 0.43145302 0.6296616 0.17224865 0.7751361 0.6187536 -0.18092874 -0.4208629 -0.16424209 -0.30114567 0.021499313 -0.02897698 0.1997579 0.56428516 -0.16768378 1.5185287 0.46722886 -0.041050848 0.03535278 -0.21876307 -0.7432218 -0.08717751 -0.3297208 -0.2682433 0.58045703 0.13763519 0.4591789 -0.11457327 -0.15030983 -0.3164633 -0.18614082 -0.65276223 -0.081336126 0.8489478 0.7571086 -1.3584944 -0.47371092 -0.16377158 0.12550251 0.72108096 -0.2452328 0.17486677 -0.051576987 0.6905397 -0.33348224 -0.5329405 0.23311484 -0.17232305 -0.1449306 0.8570914 -0.18687224
