2326 64
140872 0.21284214 0.17744438 0.2282355 -0.5160086 -0.64232165 0.45912614 -0.011418204 -0.46037784 -0.12768659 -0.028432747 -0.21290755 -0.13867325 0.14132836 -0.6679675 0.0013841526 0.15024951 1.067963 -0.15675183 0.6950825 -0.43589917 0.20128112 -0.2873471 0.4850043 -0.035680596 -0.09559372 0.20690197 0.006350549 -0.5976 0.22540301 -0.09739407 0.0809835 -0.58505815 0.31147596 -0.54763186 0.06569348 0.80554986 0.17768326 -0.2904225 -0.67570275 -0.31513083 -0.08601861 0.22925608 0.53145707 0.22007696 -0.41110674 0.2350397 0.29438877 -0.12621844 0.14093485 -0.36761603 0.80476403 -0.4255458 -0.21116461 0.1695717 -0.17367266 -0.049653232 0.022826234 -0.327261 0.0447679 -0.3533312 -0.62687343 0.44459555 -0.08586814 -0.2825932
141439 0.5325168 -0.24878961 0.41671827 0.038495608 0.15919472 0.10834603 -0.98616964 0.05626528 -0.28224292 -0.25915244 0.088410035 0.48000813 0.5288898 -0.16434279 0.21195243 -0.27693775 0.21580563 -0.6181289 0.8073006 -0.094820306 0.5905867 -0.4484755 -0.19709142 0.89984465 -0.057415757 -0.27301893 0.7601209 -0.032491367 -0.21399795 -1.1062771 -0.6386711 -0.011584431 -0.4409244 -0.026108503 -0.88290304 0.080440335 -0.20019966 0.40841216 0.3038207 0.75951725 0.2587586 -0.49258184 -0.120683424 0.37026832 -0.557962 0.03361099 0.8729917 -0.71261495 -0.19454257 0.5655379 -0.5753522 0.48290405 0.059774313 -0.25229874 0.0046365103 -0.19964868 0.23638374 -0.2284213 0.2214507 -0.810627 0.026127249 -0.2774223 0.30280098 -0.35770154
142920 -0.27750522 0.49207035 -0.729694 0.2274918 0.55313194 0.076424934 -0.30440077 0.35298905 0.45013016 -0.9371048 0.27740434 -0.050816733 0.09415763 0.025358884 0.5412917 0.07358449 -0.38799027 0.2851358 0.38487425 0.35089803 -0.6309234 0.51963276 0.33650047 0.7222221 -0.11457516 -0.23632531 0.64835835 0.35579905 -0.26955837 0.74306285 -0.3289365 -0.35546306 0.0033193058 -0.22609198 -1.0326391 0.3424528 -0.72662127 -0.45150727 0.35987613 -0.14433104 -0.2974523 -0.39507887 -0.11585792 -0.20010367 0.030321583 -0.28188622 0.9764324 -0.24285263 -0.7746898 0.6198164 1.2265722 -0.04994462 0.7077095 0.22783552 0.90613854 -0.2051114 -0.38422093 0.1098214 -0.38352558 -0.13637672 0.021732016 0.26707357 -0.055739917 -0.5500622
140828 -0.00021685526 0.5265802 -0.3247934 -0.4501592 -0.13418785 -0.3872806 -0.3714954 0.013123247 -0.12782551 0.41514337 -0.72216344 0.6047046 0.2569473 -0.9918866 0.37119785 -0.24633633 0.36163515 -0.30515507 -0.055817973 -0.009732238 0.054744106 -0.21781072 0.14116396 -0.5494381 -0.32621154 -0.815143 -0.24009442 -0.537092 -0.37226397 0.0056286515 0.33846155 -0.18721244 0.37847367 0.23313159 -0.53035116 0.5090421 0.064752266 -0.11534968 -0.6192712 0.23056301 -0.06260988 -0.1088835 0.8825134 -0.5442036 0.011466825 -0.2878286 0.36801305 0.15959011 -0.10574399 -0.1104288 -0.007440807 0.15096614 0.18815461 -0.41491166 0.27161974 0.056145612 -0.117817104 -0.12349444 0.019295026 -0.75642407 0.06886471 0.2280674 0.04220885 -0.23594476
141508 -0.3849772 0.7720307 0.31266066 0.30516842 -0.60816216 0.95723104 -0.713492 -0.71307254 0.44737464 0.12033185 -0.2113053 0.23803014 -0.19259496 -0.017681768 0.33615848 0.22456692 0.42298418 0.19729692 0.54383093 -0.6574432 -0.33323112 -0.46432245 0.4960807 -0.35463068 -0.10235491 0.11906591 -0.35138822 -0.07687366 -0.5387241 0.192421 -0.28973576 0.13064288 0.54051524 -0.26891503 -0.32846585 -0.86359835 0.2675104 -0.7925739 0.12653674 0.65429026 0.08123186 -0.46454343 0.39666402 0.20161018 0.22587563 0.3733461 0.09953326 -0.02339721 -0.41157562 0.0032299052 0.509301 -0.06105205 0.6460931 -0.5456694 0.6937233 -0.13350224 -0.045168146 -0.56699646 0.37639993 -0.5771212 0.36840722 -0.1875875 -0.088290386 -0.25914624
142241 0.9440286 0.2172941 0.53908646 1.1859483 -0.039545834 -0.23532708 -0.16616754 -0.43193242 0.13577642 -0.228449 -0.23338977 -0.017265797 -0.19293599 -0.59509426 0.55123717 0.34790057 -0.022688597 -0.48804393 0.6172947 -0.3133519 0.5950512 0.03011982 0.40185273 0.49143037 -1.2014153 -0.26091707 0.027674505 0.41276932 0.8295688 -0.7609864 -0.32960552 0.4013628 -0.66178304 -0.23795891 -0.46172896 0.334637 0.37634182 -0.5677997 0.072290674 -0.07713347 0.1886848 -0.6349026 -0.198604 0.6709338 -0.6294131 -0.05824196 0.34470147 -0.15292095 -0.33821505 -0.21814343 -0.2545204 -0.02830005 0.7469481 -0.4906869 0.0884743 -0.33665606 -0.8865332 -0.32902104 0.26251614 -0.5940028 -0.093609564 0.35837743 0.17894414 0.15652023
142333 -0.09097834 -0.29913965 0.6855854 0.46983817 -0.4033557 0.18021859 -0.38363197 0.039261386 0.5416293 -0.7197787 0.020118726 -0.09106319 0.53397053 -1.0032946 0.8028389 -0.15774809 0.13954069 0.23561345 -0.012488047 -0.015524097 0.18017629 -0.51108485 0.64222705 0.05848263 -1.1882503 -0.035154186 -0.1178988 0.41477343 0.3564008 -0.4924778 -0.37235615 0.2303774 -0.6937598 -0.18352176 -0.81798923 0.011483115 0.70100087 0.23615763 0.24187668 -0.024570927 -0.60196763 -0.0994297 -0.3340671 0.27332896 -0.57612514 -0.45762435 0.16690499 -0.012945957 -0.13455316 0.5157391 -0.12756763 -0.806885 -0.061464056 0.064052776 0.066375844 -0.44408354 -0.41019398 0.22123855 0.49806193 -0.05354674 0.19027866 0.51874924 -0.51173365 0.3705052
142496 0.36191735 0.2196216 -0.2267626 -0.36700666 -0.05849399 -0.21764724 0.17647013 -0.29552153 0.06612421 -0.081122376 -0.28273517 -0.6729663 -0.071011394 -0.020797582 0.053524952 -0.4552808 -0.25300133 0.058922496 0.19739725 -0.5350826 -0.37330464 0.003399173 0.13153543 -0.3337499 -0.61954373 0.10844502 0.2283785 -0.96090347 0.064406276 0.9250146 0.005004075 -0.32657924 -0.9331884 -0.0341155 -0.5684296 -0.010347698 0.76257694 0.2937202 0.0844168 -0.17918211 -0.64815944 -0.06510911 -0.43080053 0.105579965 -0.9319038 -0.24797422 0.035163257 -0.1835868 0.27369013 0.13779162 0.013319109 -0.785664 0.43208078 -0.65001434 0.21049076 -0.75109756 1.0722628 -0.22880702 -0.2968644 -0.9156188 -0.23462376 -0.38577858 -0.3463438 -0.39798662
140621 0.95821583 0.7422857 0.11716517 0.63431686 0.05414914 0.37938526 -0.49936745 -0.7929771 -0.57616824 -0.6761866 -0.3806114 0.23199394 0.28136045 0.68091834 -0.50725013 -0.02089048 -0.23748837 0.8588875 0.19934078 -0.5216049 -0.3536121 0.22259773 0.04860748 0.14108336 -1.3907887 -0.7415132 -0.7640407 0.025340201 -0.39269438 0.4683677 0.301642 -0.24113789 -0.28038147 -0.12052754 -0.3388857 0.35241857 -0.5332522 -0.06475276 -0.39852747 0.8044258 0.017391501 -0.40020642 -0.21838892 0.26329994 0.35996792 0.31414986 0.79770935 -0.6363807 -0.16807725 0.06049383 0.16015257 -1.119105 -0.22171049 0.45309812 0.26979432 -0.38607004 0.30343327 -0.3814429 0.31571537 -0.6180165 0.48134667 -0.41657323 0.092026815 -1.0700995
142414 -0.8734039 0.6538293 0.4605306 -0.32606167 0.07534949 0.06441455 0.06710783 -0.17027776 0.073322386 -1.0977076 -0.56130517 0.19667831 -0.0003753604 0.1703024 1.0402389 -0.3877858 0.12086834 0.038700834 -0.12985887 0.014866894 0.21808004 -0.5106258 -0.3487192 0.46305355 -0.8194694 -0.1269051 0.20180704 0.3423674 0.43136737 0.5202614 -0.21246572 -0.303326 0.2602624 0.099751405 -0.7008943 0.30518225 -0.40009683 -0.25647 0.79139215 0.5877224 -0.2769798 -0.20399228 0.5326411 0.03785985 -0.37061986 0.43979666 1.1892091 -0.065098144 -0.55932564 -0.24480411 0.25680107 0.25154412 -0.46696225 -0.12332528 0.015145551 -0.21125479 0.10719922 -0.802195 -0.6545768 0.13422646 0.04411444 -0.31212863 0.34090972 -0.33611485
142679 0.5671033 0.38920096 -0.498412 0.17867567 -0.48957402 0.22735146 0.19888952 -0.35323584 -0.33779693 -0.468117 -0.5854081 -0.10618848 0.02174873 -0.22941162 -0.33494434 0.4662225 -0.099371836 -0.18688346 0.8130855 0.1394504 -0.1279463 -0.84336257 0.035960272 0.2321543 0.31225842 -0.30044648 0.14594226 -0.11392318 0.25103644 -0.42299587 0.5579091 -0.80583906 -0.6442288 0.084287845 -0.25700352 -0.064678416 0.54678726 0.16222556 -0.13200243 0.12818411 -0.18038002 0.5727943 1.2746185 0.052931584 -0.1935461 0.5441713 0.060491536 -0.24353133 -0.024660403 0.18692994 0.31681874 0.032119848 -0.14952774 -0.3936404 0.99613154 -0.5764108 -0.22989993 0.06259748 0.15417108 0.117019415 0.05783258 0.10112408 -0.15373679 -0.14494623
140061 -0.23634273 0.13185649 -0.09982439 1.1342961 -0.24417846 0.2598232 -0.34302863 -0.22539882 0.68122697 0.21716401 -0.48459566 0.0035172554 0.63973653 0.05651494 -0.17430863 0.013639894 -0.55817544 -0.61041653 0.19562034 -0.25943464 0.6352914 -0.023988869 0.13496786 -0.008857251 -0.5555099 -0.38684165 0.03138865 -0.3035372 -0.0269458 0.21271877 -0.17337167 -0.42868915 -0.41394573 -0.016169151 -0.60924584 0.255328 -0.069486804 -0.13918167 0.012650722 -0.060650174 0.29384336 0.20438987 1.1068386 0.88894 -0.37934294 0.14838766 -0.00015692305 0.0054527815 -0.123762146 0.062092885 0.77935785 0.3233665 0.66186935 -0.57737535 0.5390682 0.07757428 0.22249508 0.6120508 -0.6071462 -0.1174342 -0.14434229 0.5578341 0.22530995 0.18502511
140219 -0.08432203 0.36694863 -0.41028106 -0.15244614 0.25996965 0.44719687 -0.7106359 -0.95530516 0.35446626 -0.15520702 0.08162448 -0.73516077 0.71070254 -0.34573185 0.06387765 0.05741651 0.29239798 0.40807706 0.601942 -0.089511186 -0.27428734 -0.13066968 0.2914455 0.29561454 0.49979085 -0.6934379 -0.57743376 -0.047269188 -0.3575577 0.012360722 0.36211172 -0.25522193 -0.54204774 -0.27015975 -0.3016639 -0.19323367 -0.5778786 0.25782067 -0.5860295 0.16904415 0.29737282 -0.1636698 0.35234758 0.41778174 0.03668679 0.2784285 0.9199728 0.33774263 -0.47755307 0.22195448 -0.18727736 -0.70444536 0.025205394 -0.48300186 -0.0029321746 0.19796589 0.016521279 0.17479348 -0.110764556 -0.17110176 -0.38179612 -0.3718162 -0.12353769 -0.6284361
141859 -0.07965477 0.37431774 -0.5457351 -0.13084477 -0.8581635 0.06639823 -0.4326656 0.03160458 0.9938167 -0.2605074 -0.40870497 -0.27747047 0.0222441 -0.64601564 0.92754143 -0.44744566 -0.3227948 0.32168368 0.6005695 -0.3574284 -0.06113268 0.18687291 -0.63264924 0.8607912 -0.45766577 0.18944818 -0.7395802 -1.0704767 0.81713 -0.27220917 0.16205467 -0.47925907 -0.8786177 0.34910735 -0.120052144 0.15426387 0.3573742 0.61839306 0.34099066 0.30991066 -0.8775251 0.098959066 -0.21779694 -0.9785042 0.32721183 0.32924667 0.2788761 -0.39958382 0.043478187 0.5529105 -0.28235242 -0.5154544 1.0136137 -0.2174965 -0.21078967 -0.89198637 0.44847748 0.37397477 -0.23015009 -0.2491427 0.37020358 -0.42051816 0.14773722 -0.05999353
142460 -0.5517857 -0.1850424 0.19725107 0.087993324 -0.3477257 -0.15759234 -1.0575259 -0.58222264 0.32284218 0.060627677 0.07733039 0.29962948 0.37904784 0.38528782 0.12224594 -0.006856928 0.15328294 0.26109657 0.4468823 0.1995965 -0.26708418 0.5660455 0.28942916 0.8116305 0.10324485 -0.04984261 -0.16760327 0.37104085 0.28596607 -0.4549939 0.19375584 -0.36752853 -1.117918 0.68991107 0.341391 0.45777202 0.3202299 -0.2772377 -0.8978943 0.6738828 -0.90035737 -0.26220518 0.17974034 1.0529505 0.37854946 -0.61213124 0.4734553 -0.4938461 -0.75313604 0.18656245 0.43798405 -0.7959973 -0.2792122 -0.51463604 1.1416757 0.020038744 0.12582977 -0.39582875 0.11705593 -0.34255424 0.49832428 0.27289987 0.024334343 -0.81611925
142023 0.4598016 0.21798159 0.34438977 -0.31968695 -0.08991333 0.06014766 -0.16251388 -0.2643102 0.5775199 -0.29429865 -0.10975058 -0.4244665 0.07474768 -0.48537564 0.8536776 -0.24724677 -0.16134843 -0.1870844 0.22305764 0.056626454 -0.8608089 0.44365472 -0.08398012 0.05205356 -0.46654892 0.115814365 0.19794281 0.17450732 -0.5852679 0.13543369 -0.31342676 0.3295975 -0.16387358 0.43038565 0.4329283 0.105508275 0.4815369 0.48349777 0.50947016 0.30848244 0.24187028 -0.3858676 0.45301527 0.6417751 0.6851002 0.14272459 0.69607794 -0.77000433 0.92826974 0.09776455 -0.0762415 -0.0024356984 -0.17899883 -0.20211732 0.4098588 -0.5991668 0.70457095 0.28845733 0.36043397 -0.7819576 -0.3067139 0.9386798 0.22448201 0.39366338
142497 0.12697159 0.35039818 0.33068523 -1.0562307 0.10646764 -0.19147743 0.5465626 -0.7515259 0.035925213 -0.10874627 -0.03253091 -0.41516423 0.26857102 -0.23553692 0.28066662 0.050371554 -0.005541951 0.32305324 0.0220806 0.11429222 -0.5129079 -0.8875044 0.12042485 -0.54770845 -0.73968786 0.029385967 0.15776278 -0.44645834 0.059452 -0.06154277 -0.1704931 -0.5515476 -0.6570887 -0.061008867 0.29744494 0.34426567 -0.056105476 0.31175882 0.7565621 0.22489019 0.0015998667 -0.16478752 -0.4811112 0.5220226 -0.39831176 -0.41414654 0.29165056 -0.22543538 0.034200832 0.22511105 0.46798256 0.34490022 0.59174806 -0.0059978147 0.2818545 -0.3630841 0.52558935 0.50591105 -0.48598734 -0.35872093 -0.103952534 -0.023433076 0.04161369 -0.5126937
142265 -0.06465046 -0.1437546 0.26846656 -0.18564907 -0.37607473 -0.3209931 0.16811666 0.02745696 -0.18218102 -0.26946634 -0.5876047 -0.029896675 0.36381984 -0.4931668 0.8631665 -0.32759482 -0.19205989 -0.00030775406 -0.049941245 -0.4167123 -0.103859805 0.39762703 0.68698776 0.25074783 -0.42883915 -0.042742126 0.020548852 0.102035314 -0.3568831 -0.20782156 -0.6782038 -0.55764234 -0.5816773 -0.019274073 0.68422335 0.0040242677 0.16530265 0.44345158 0.011896736 0.12710163 0.19806774 -0.06847363 -0.20397559 0.649841 -0.30844438 -0.09412073 0.90792745 -0.5408609 -0.015371663 -0.20999786 -0.116798595 -0.26009032 0.072130136 -0.062461212 0.090578474 -0.45673203 0.27548003 0.72288424 0.60480976 -0.1073301 0.14080496 0.6368909 0.055912383 0.3349764
142682 0.30355924 0.009078638 0.32398134 0.19903094 -0.49091408 -0.2055703 -0.48729593 -0.63630676 -0.37758863 -0.2960529 0.16646785 0.28743657 0.11922721 0.33873716 0.021382954 -0.08244021 -0.35749808 0.14662561 1.1190021 -0.2090163 -0.562833 0.10775135 -0.52209705 0.25992918 -0.82351875 -0.057068076 0.14857103 -0.41154894 -0.41907567 -0.87503123 0.251424 -0.62229794 -0.26256984 -0.5468523 -0.029001858 -0.031398527 -0.09838771 -0.6466936 -0.09872711 -0.09190332 -0.81652874 -0.087628424 -0.07771695 -0.25369012 0.013775047 -0.10763542 0.90124846 -0.2808109 -0.6789642 -0.29881412 -0.11457732 -0.771524 0.013883177 0.3833511 0.37634093 -0.13896082 0.050072763 -0.3513912 0.5119649 -0.012937211 0.0006534989 -0.022919646 0.119714305 -0.24147998
140110 -0.21360303 0.3269994 0.3869834 -0.5580922 -0.20314863 -0.6157273 0.30784887 0.32642132 -0.045493655 0.07628337 -0.5831163 -0.15081319 0.04179493 0.6924191 0.60159653 -0.22401632 0.2897193 0.2066019 0.75197405 0.27381453 -0.18681777 -0.28129345 -0.012186641 -0.216564 -0.09512891 0.25286725 -0.10977648 -0.09662948 -0.04732256 -0.13171531 -0.48275492 -0.25202233 -0.79041255 0.6686703 0.27100086 0.37729955 -0.17213307 0.4665022 -0.279649 -0.121777594 -0.09512098 -0.41487336 -0.024708373 0.43870887 0.00082340743 0.45528436 0.9990445 -0.33708003 -0.052741107 0.07417024 -0.21017893 0.58305657 0.82027113 -0.10072166 0.14052394 0.021732135 0.19637977 0.41595772 1.2339951 -0.67024785 -0.20154846 0.82981694 0.44982392 -0.1923175
142676 0.27570722 0.32945296 -0.44749475 -0.22435454 0.016892169 -0.049657464 0.15818284 -0.7743356 -0.10790813 -0.51235116 -0.5637421 -0.099888496 0.13475947 -0.63458 -0.028593414 0.4847732 -0.45452204 -0.56179386 0.6205211 -0.115991995 -0.3865083 -0.109904386 0.081770346 -0.10012484 -0.03421553 -0.37340748 0.06471952 -0.4959803 0.36397436 0.028424608 -0.1808634 -0.01798832 0.33905035 -0.35665634 -0.57001835 0.43549126 0.4143504 -0.28722227 -0.61263907 0.3143106 -0.09433696 0.16497356 0.9451982 -0.069285154 0.009559461 0.28357306 0.10903554 -0.042879786 -0.21884644 0.21560867 -0.20858236 0.1319912 -0.3241682 -0.24580282 0.5300418 -0.7453021 -0.11907131 0.07419084 0.20228212 -0.040634114 0.18645665 0.50639874 -0.3830915 -0.25019822
142745 -0.8091336 0.5015558 0.40984336 0.19971068 0.12288671 0.36610544 0.08143793 -0.17159563 -0.3607228 -0.30658266 -0.08731018 0.42494333 0.7631452 0.1581743 0.9119066 1.0400398 0.19285941 1.0781461 0.2284714 0.22805358 0.34017974 1.0584482 -0.33227015 0.21460587 -0.5469362 0.16842543 0.7684048 0.3540914 0.077093504 0.04598002 0.3541895 0.07523514 -0.6920836 -0.22623095 0.2329625 0.66485995 0.5616074 -0.8563416 -0.28909957 -0.0466203 -0.14495249 -1.0085056 0.537371 -0.098691694 0.27658665 0.6470178 0.9357066 -0.6092671 -0.003850027 0.9022001 0.8205241 -0.15563494 0.17318052 0.06505599 0.2629249 -0.72876674 0.020030033 0.33030474 0.017308855 -0.22294122 0.0057991776 -0.45502332 -0.29629862 -0.15641533
142854 0.08658481 -0.14501955 0.46404555 -0.6301599 -0.48958722 1.0836521 0.39363113 -0.8076743 0.005155376 -0.505816 -0.5048044 -0.2900234 0.061985843 -0.8288763 -0.1202352 0.1356822 -0.48100272 0.12277225 0.27114764 0.44408643 0.13211457 0.12341307 0.13621642 0.4842526 -0.07191063 0.11759319 0.31895658 -0.4149846 0.29915693 0.8011251 -0.42284083 0.19763514 0.48669916 -0.048025925 -0.90948224 0.20980379 -0.08016125 0.08206136 -0.9635319 0.17909035 -0.34041554 -0.08771475 1.0892901 0.34727457 -0.37852436 0.044384845 -0.15521958 -0.23767525 -0.12477906 -0.4207745 0.4713 -0.41540685 0.09692416 0.09956015 0.2767531 -0.25893182 -0.20971756 0.66763145 0.5335586 -0.24063142 -0.1945498 0.18693806 0.11278169 -0.4986261
140829 -0.22483681 0.07899778 -0.79367024 -0.49030888 -0.18835941 -0.50588113 -0.55072975 0.47132802 0.37894613 0.1543755 -1.0404823 -0.0076431492 -0.12006091 -1.0176111 0.14814968 -0.35301608 -0.6516385 0.57672846 -0.037099726 -0.00040979407 -0.14061147 0.13933699 0.21927422 -0.31849536 -1.1545265 -0.84610116 0.5198301 -0.85394615 0.37366876 -0.2300377 -0.1351968 -0.56767964 0.06567944 0.77731746 -0.6436373 0.14757325 0.37465045 -0.028501896 -0.14340444 0.6651532 -0.9477093 -0.52250975 0.84055924 -0.5700514 -0.5240191 0.9694956 0.25955793 0.8095717 0.08821414 -0.27497542 -0.01907025 -0.09242635 1.000091 0.27536765 -0.0028665646 -0.38328904 -0.46162897 -0.14184238 0.26277322 -1.0263144 0.10346785 -0.91000086 0.0027333272 -0.17915699
140274 0.60432094 0.35149786 -0.4893088 0.31178594 -1.2722416 0.16874649 -0.82252306 -0.45736626 0.45095238 -0.1543941 -1.1741047 -0.20980549 -0.47489145 0.08572688 0.2230819 -1.4119593 -0.27515152 -0.16166297 0.4028073 -0.0648749 0.08952042 -0.11510379 -0.74536383 -0.07282886 -0.37981933 0.48457897 0.4628906 -0.79668266 -0.038935456 0.37651104 -0.023701694 -0.19106132 -0.82940614 0.17601651 0.48868775 0.28026062 -0.06502794 0.313667 0.34189406 0.20843343 -0.66123325 -0.6077679 -0.290917 -0.25356856 0.39449397 0.72158647 0.22529696 0.14363304 -0.50490785 0.58088696 -0.20002203 0.23976278 0.0957874 0.21182969 -0.30855528 -1.1996156 -0.31475094 -0.489937 -0.7051516 -1.0108343 -0.25004774 -0.3987448 -0.5000311 0.08554613
141196 -0.21057247 -0.14138843 0.5443476 -0.25696915 -0.29746595 -0.27371252 0.18103343 -0.27649578 -0.15659666 -0.44955108 -0.24099472 -0.47099054 1.0216298 -0.15501615 0.28402716 -0.2858519 -0.3978357 0.44864562 0.3608267 0.3445726 -0.609669 -0.17631942 0.4605743 -0.5027431 -1.0018041 0.31367666 0.65374273 -0.01592299 -0.633234 0.32241803 -0.1654571 -0.5763196 -0.36251333 0.19272046 -0.03316184 -0.18749902 0.25965267 0.43266892 0.33231026 0.71700966 0.40388927 0.23416425 -0.31069463 0.50319684 -0.26574105 0.32624888 0.719754 -0.41189218 0.59104955 -0.11536908 0.22970475 0.11249976 0.38068 -0.77882206 0.2773242 -0.08959419 0.46026504 0.30164894 0.30725878 0.20734793 -0.020674134 0.2050712 0.02138693 0.25984806
140162 0.3442746 0.5617624 0.3477661 0.12313729 -0.3044877 0.22446834 -0.19356598 -0.435724 -0.4029687 0.06676163 -0.55941737 0.05576956 0.33589026 -0.4662783 0.92772907 -0.5762716 0.21557133 0.14712085 0.12658642 0.95624006 0.56676346 -0.44398084 -0.24219257 0.47913226 -0.45957685 0.03188136 0.14902706 0.19828752 0.5396535 -0.04971115 0.017685106 -0.6501943 0.16383222 -0.73226064 -0.10355809 0.67122984 0.5939173 -0.1071612 -0.807198 0.52209026 0.43908238 0.57709867 0.36536992 -0.16693708 -0.25383696 0.19394144 0.046415064 0.7576228 0.016302943 0.32639024 0.48759577 0.1458562 0.17922762 -0.49303308 0.06923083 0.20081152 -0.043171808 -0.31709653 -0.032911118 0.023732651 -0.10604947 0.21273476 0.29855543 -0.035373323
142591 -0.20469037 0.06737844 0.15881614 -0.033874243 0.32787693 0.6826408 -0.8702926 -0.11579741 -0.14974964 0.0729076 -0.05090984 0.08696611 -0.15329179 -0.39510688 0.3254624 -0.32653475 0.20420119 0.2968476 1.367762 -0.12922895 -0.1048282 -0.64356863 -0.25642762 0.16399 -0.24673846 0.13050005 -0.66962963 -0.4082085 0.29161525 0.15753275 0.6802551 -0.6833871 0.47925848 0.055696737 -0.43192723 0.30361444 -0.08721281 0.06680746 -0.74432087 -0.031530876 0.6575673 -0.7026023 0.7400218 0.9159162 -0.25607786 0.22781341 -0.3691732 -0.002505498 -0.7596972 0.016058367 0.352714 0.2602974 0.45270133 -0.34207186 -0.21484673 -0.78572935 -0.11627599 0.7270842 0.49174616 0.4018012 0.3580848 0.13402963 -0.18849814 -0.02598781
142128 -0.3059648 0.7584172 -0.061235204 0.03204915 -0.5457176 0.051521625 -0.7129091 -0.023170628 1.1652057 -0.2934643 -0.53471255 -0.4086575 0.09021974 0.09595547 0.42444453 -0.8574857 -0.4063695 -0.23583345 -0.011179151 -0.372673 -0.3515047 0.30864808 -0.2404175 0.55259424 -0.10680795 0.08491323 0.46968794 -1.023049 0.64349747 0.5845631 0.8827602 -0.260517 -0.7421946 0.22550188 -0.6914483 0.534072 0.74989283 -0.054226775 0.13513616 0.07193903 -0.2625064 -0.6254944 -0.44449085 -0.571771 -0.2058354 -0.79565495 0.7638667 -0.32564074 0.5834337 0.16424488 -0.010363907 -0.06657862 0.16924213 -0.47437647 -0.550451 -1.0150918 -0.022353414 -0.061382394 0.2803708 -0.027686689 -0.39212918 0.1739102 -0.16221823 -0.09640925
142815 0.1055605 -0.08412379 -1.3573307 0.07035728 0.5973456 -0.3599723 -0.54518867 -0.30652773 0.013461581 -0.7023565 -0.21993116 -0.63287425 0.23033021 -0.5458418 0.41586444 -0.31229183 0.3117423 0.5495925 0.19085191 -0.3044846 0.118564196 0.5975222 -0.19429067 0.26124746 -0.44982925 0.39756405 -0.4282086 -0.49615523 -0.3490455 0.4641224 -0.24119084 0.011419467 -0.011274847 -0.20150894 -0.12167308 0.2260874 0.47791722 0.24152587 -0.2197286 0.10866955 -0.44399017 -0.11871823 -0.24747093 -0.28328 -0.43248117 0.10169624 0.144303 -0.7765424 -0.18239887 -0.054631494 -0.49464184 -0.28658605 1.1056834 -0.34047177 0.045213547 -0.9111653 0.40557444 -0.081666656 -0.2768027 -0.38515383 -0.070828415 0.054661065 -0.12469173 -0.21037
142861 -0.5046997 0.050289717 0.37058952 -0.054664426 0.53556097 0.57718176 -0.12905927 0.44330415 -0.29201502 0.019983724 -0.024165198 -0.028271401 0.5027812 -0.195681 0.041188434 0.15918802 0.17971773 1.3204907 0.35615125 -0.38367897 -0.13001367 0.14175598 -1.1750356 -0.5008359 0.19105844 -0.44223267 1.1271613 -0.32279128 0.6187914 -0.3813739 -0.07625256 -0.42059404 -0.9615965 -0.34204417 -0.25619435 -0.036172498 0.7684012 0.015805349 0.5099646 0.45299408 0.29076514 -1.5944327 0.19851966 -0.38887998 0.4651062 0.7627484 1.0940288 0.23791431 -0.8474875 0.4568234 1.3509327 -0.15581289 -0.06047948 -0.6219922 0.72642374 -0.49193457 0.6260011 -0.28259873 -0.032221556 -1.1521767 -0.68854064 0.08388938 0.31573182 0.21919043
141664 -0.12683976 -0.11552015 -0.8993713 0.2625507 -0.038231213 0.14468366 -0.7981014 -0.71960306 0.14987919 -0.16061707 0.8130305 0.07801045 0.5716319 0.45777774 0.5460158 -0.45462015 0.0021533906 -0.1191148 0.27968922 0.29235756 -0.24036855 -0.46683234 0.0071075237 0.5992541 -0.7067027 -0.3638065 0.6256738 0.011240668 -0.92475545 -0.57220256 0.022605691 -0.52414364 0.4125677 -0.27280885 -0.36547786 -0.047491018 0.5518551 -0.68640804 -0.31578633 -0.13911878 -0.09614797 -0.7878325 0.12477885 -0.52353776 -0.08799883 0.5029389 0.27802277 -0.41102475 -0.37392658 -0.38587168 -0.12729388 -0.6177403 0.32480833 0.6590162 0.53753 -0.55276483 0.6443184 -0.4410864 0.78581744 -0.8070851 -0.6771114 0.8994198 0.46419087 0.13645057
140522 0.5307872 0.043276552 -0.23476177 0.007955457 -0.5690124 0.12692921 -0.12345111 -0.49122015 -0.005399532 -0.3079071 0.511127 0.25592571 0.22251296 0.13601913 0.38482732 -0.3037545 -0.27358168 0.5800443 0.3562498 -0.14487146 0.27915278 -0.0025291261 -0.010703046 -0.16771747 -0.78300816 0.47445095 0.23616438 -0.5675879 0.16789947 -0.32349867 -0.18642879 -0.30557546 0.5971505 -0.20991081 -0.53691304 -0.18364337 -0.0120669305 -0.5939105 0.25032204 -0.24304245 -0.4211801 0.45921987 0.37517694 0.16173992 0.8027536 -0.083549306 0.5167075 0.06394603 -0.6475763 0.06943541 0.39351878 -0.44351226 0.6026868 -0.0012381908 0.28402266 0.26254466 -0.2875935 0.32928964 0.54422253 0.07012813 -0.1384669 0.22036518 0.44318813 -0.09820499
140230 0.17053787 -0.032369383 -0.58748835 0.4440903 -0.54448664 0.41924304 -0.7235466 0.25593805 -0.024369787 -0.43331364 -0.3482153 0.14914636 -0.23177032 -0.032731842 0.18875958 -0.81425375 0.72613025 -0.2076627 0.25401264 -0.3549145 -0.10217308 -0.21531345 -0.071098 0.0028376342 -0.19646162 -0.549202 0.2457519 0.50164443 0.42598647 0.12416314 0.038952142 -0.64118624 1.107941e-05 -0.22974215 0.31341767 0.5437754 0.20131741 -0.30555615 -0.44913715 -0.05614456 -0.24809726 0.07821824 0.8175316 0.18271217 -0.32021055 0.47694454 0.4008523 0.361434 -0.14263673 0.024515565 0.6840655 0.37395135 -0.37724695 -0.5680048 0.32656267 0.34356663 0.16487846 1.0482888 0.477086 -0.29144263 -0.61524945 0.6290346 -0.3421756 0.05175987
144075 -0.025915358 0.23237708 -0.065856755 -0.23737004 0.11500137 -0.0088219065 -0.1791412 -0.040673465 0.20654088 0.3526268 -0.44535655 -0.5017016 0.50566256 -0.4779598 -0.077657774 -0.024973001 0.1987281 0.01686461 0.13846637 -0.07939249 0.1071406 -0.700904 -0.27012324 0.1792597 -0.25571197 0.13144432 0.15494731 -0.016216267 0.41803402 -0.27201432 -0.4999418 0.29308322 -0.1610931 0.16107841 -0.051723454 -0.17021488 -0.009660257 0.13605861 0.5448818 -0.09565712 0.038351055 -0.5723225 0.2279225 0.5330902 -0.0077350168 -0.13392843 1.483624 -0.7740999 -0.12767473 0.29625338 -0.6072289 0.37754598 0.022457898 0.06631844 0.28472334 0.049071666 -0.15490183 0.3112004 0.64074194 -0.10294257 -0.07828975 0.24544905 0.29072812 0.13613369
140629 -0.23921837 -0.875159 -0.074522495 -0.50262105 -0.16132136 0.07678934 -0.3416022 -0.46748307 0.23012753 -0.43258214 -0.708764 0.17091323 0.56391877 -0.12158898 1.1905657 0.13002965 -0.07476301 0.65685946 0.27663338 0.3451426 -0.40534517 -0.81642914 0.32954744 0.08035931 -0.42203772 -0.019486578 0.27262142 -0.13210326 -0.23553167 0.119097464 0.14567947 0.13480222 -0.28885213 0.36490333 -0.1499941 0.08363981 0.048574835 0.604796 0.9314673 0.615162 -0.12734231 0.5234501 -0.006903626 -0.0014654511 0.56609493 0.52618885 -0.067238905 -0.95756286 0.70317376 -0.08976621 0.3790066 0.06403111 0.74186075 0.2784469 -0.10906097 -0.62394357 -0.026439518 0.15816851 0.70396453 -0.25091502 -0.43943375 0.25621247 0.90118456 -0.30896807
140830 0.1359143 0.50182056 -0.55036664 -0.2638898 -0.72082216 -0.39171878 -0.8367895 1.020413 -0.17302501 0.550534 -1.1736308 0.3546461 0.2412283 -0.6146974 -0.483368 -0.69504577 -0.49004534 0.35128006 -0.0070933993 0.039932404 0.22984478 -0.18687509 -0.4497229 0.55741 -1.1749432 -0.3549861 0.1947598 -0.973141 0.07706179 0.23198232 0.21780284 -0.09348811 0.16283275 0.2263199 -0.3597773 0.38353223 0.21168996 -0.20676588 -0.21090901 -0.33327493 -0.46721873 -0.9400657 0.3768903 -0.26152277 -0.12335085 0.13352951 0.36608425 0.13221556 0.3381892 0.117048435 -0.22310284 0.38725552 0.14658391 0.11043601 0.5970447 -0.39992312 0.32061774 -0.57992315 0.12099969 -0.9259195 0.40262341 -0.34104994 -0.2245825 -0.5466057
142007 0.16968268 -0.36103898 -0.0014958308 -0.15114418 0.1496619 0.39819008 -0.9543336 -1.4559302 0.5894358 0.7893586 0.011622089 -0.54282826 0.045070477 0.17519955 0.117067054 0.58979887 -0.29810768 -0.015734835 0.40036392 0.34169123 0.43774188 -0.5583172 0.079518385 0.55446124 -0.25507522 -0.17006376 0.35313308 -0.59382826 -1.2769443 -0.11211178 0.65882766 -0.6053009 -0.7713477 -0.26261568 0.037903946 0.5176117 -0.45027575 -0.5845619 0.014243077 0.016928501 -0.5798961 -0.19420153 0.53837574 0.039816156 -0.03505135 0.39518645 0.91883916 0.38153994 -0.5522614 -0.28730583 0.5209044 -0.9158653 0.14651692 -0.7062727 0.7124542 0.16737019 -0.19520213 -0.017302893 0.24117555 -0.24035513 0.4883074 0.3240887 0.0038967668 -0.2668588
141063 -0.18970084 -0.29288697 0.06460096 -0.31391397 -0.8717588 -1.0027667 -0.7551753 -0.024720209 -0.1421827 -0.17464519 -0.083353445 1.0006413 -0.12883002 -1.1298437 0.12872608 0.5013044 0.048941884 0.008767307 0.42064175 -0.037719876 0.15882848 -0.05379455 0.4877755 -0.11879504 -0.9331468 0.21530062 0.25903207 -0.18082017 0.037425123 0.13844505 0.47626975 -0.08635415 0.35374027 0.27117467 -0.31319547 1.2401582 -0.55724376 1.0156511 -0.6223749 -0.21323381 -0.33780894 0.25310528 0.44883382 -0.55526465 0.24390922 0.32287565 1.0796124 0.12935251 -0.42444354 -0.2152098 0.21251287 0.09923979 0.02260599 -1.0432853 -0.040723845 0.13298601 0.9369629 0.41650707 -0.10720337 -1.1880602 -0.22648005 0.24176122 -0.43650144 0.25092024
140576 -0.022415224 0.18309112 0.28679225 0.2021434 -0.06540683 -0.48619464 -0.64828634 -0.044386186 -0.25224295 0.35756165 -0.278016 0.15221456 0.2800428 -0.57686687 0.43906006 -0.42943224 0.13611862 0.29319307 0.9419968 -0.01750562 0.33067182 -0.7412573 -0.5219458 -0.12779185 -0.3751735 0.01285126 -0.32084927 -0.40739444 -0.22912519 0.14521267 -0.36987782 0.43941554 -0.14868483 -0.19191293 -0.8229578 0.24327876 -0.92384315 -0.2737441 -0.37647322 0.027149733 0.012194803 0.22881275 0.6028106 0.5062922 0.5601067 -0.13047166 -0.13395156 0.4855272 0.25177455 0.48086002 0.51679534 0.03177218 -0.1893757 -0.19843818 0.44057798 -0.55729026 -0.06336353 0.22815508 -0.48097122 -0.10937079 -0.21031106 0.88572615 -0.4508791 0.16642223
140738 -0.11115634 0.352417 0.05718195 0.5131782 -0.43376786 -0.28472164 -0.34780136 -0.46423787 0.023685059 0.12326537 -0.49248776 0.027609887 0.037807863 -0.30795044 0.16976064 -0.3417354 0.35289994 -0.2555234 0.45943812 0.1452639 0.24887869 0.16791312 -0.017953359 -0.3448746 -0.23735435 -0.5377093 0.82933575 -0.4747482 -0.24383476 -0.16693372 -0.012962797 0.018080462 0.24008967 -0.03217522 -0.9705885 0.72027713 -0.40182644 -0.95684826 -1.0532315 -0.17700431 -0.01940906 -0.031908587 0.27348807 0.5190035 -0.06680179 0.61225736 -0.03896216 0.41121665 0.5931507 0.19175513 0.59579766 0.34510672 -0.18017346 -0.38164213 0.31635073 -0.50437975 0.62664264 0.1497917 -0.13428856 0.22507033 -0.12632406 0.21925148 0.19178858 0.0047961385
140295 0.09849662 0.45636433 0.79271114 -0.862185 0.870695 -0.5933392 -0.067999095 0.029945532 0.15825118 -0.1524287 -0.6881252 -0.121684626 0.57934546 0.5693366 0.77448153 -0.084120825 -0.5357712 0.5546969 -0.14056431 -0.07686016 -0.21031784 -0.33482704 0.744351 -0.019448506 -0.16965123 0.8845388 0.02259678 -0.5589919 0.14480565 -0.046605617 -0.7583475 -0.32689205 -0.47270146 0.19820997 -0.011257111 0.097501546 -0.49140802 0.6462842 0.17501867 -0.07369371 -0.02263469 -0.4552598 0.117269725 0.4022032 -0.16858573 0.53604436 0.42009708 0.19431308 0.16677861 -0.25651473 0.36976737 0.16426606 0.62008923 -0.13250329 0.37591618 -0.5335523 0.5814456 0.54984576 0.5436266 -0.9275991 -0.50320834 0.46426874 0.17480135 -0.10812345
140970 0.0517415 0.59134287 -0.017009858 0.5868866 0.053798385 -0.123439334 -0.83080333 -0.7153581 -0.08769924 -0.0060002143 -0.11652881 -0.06068982 0.4835047 0.30261287 -0.50752795 -0.08340407 0.29773736 0.8030079 0.74584526 -0.8217973 -0.3279093 -0.681149 0.270898 0.957686 -1.357397 -0.285095 0.5981602 1.1511187e-05 0.58125585 0.2730314 -0.4354286 0.4229902 -0.07488521 0.5981685 0.5281338 0.22785099 -0.45711052 -0.14769307 -0.3331311 0.40248957 -0.60210073 0.17148863 -0.10244042 0.5372641 0.3313959 -0.33117652 0.22096352 0.13636011 -1.5528531 -0.116174035 0.08494407 -0.46710938 -0.24197108 0.18578498 0.22186305 -0.26898804 -0.115534514 0.049419038 0.77917516 -0.41210666 0.045207754 -0.32862332 0.51415473 -0.11481707
140713 0.12730856 0.69510627 -0.19694433 0.43004414 -0.6411237 -0.23107855 -0.47805274 -0.4022767 -0.5340686 0.0128784515 -0.77760863 -0.016092775 0.46327308 -0.36381277 0.11118158 0.15039088 -0.09617312 -0.031410776 0.8329228 -0.5445265 -0.52581245 -0.5544682 -0.41335696 -0.08461997 0.3086265 -0.22945817 0.4073552 0.30627528 0.21933334 0.2715405 -0.2730238 0.03344176 0.3061952 -0.95995194 -0.24678575 0.2953693 0.07776195 0.020433724 -0.47371116 -0.29610318 -0.14935769 0.25379148 0.7901153 0.5428516 -0.37279853 0.07580136 0.16884659 -0.101681374 -0.12912 0.38259965 -0.108534165 -0.18351518 0.9067699 -0.7458412 0.25086907 0.023426672 0.37904295 -0.19686224 -0.50619954 0.016664827 0.05372153 0.35984355 0.33051777 0.3094719
140393 0.06507858 0.22749212 -0.0008143751 0.078677885 -0.19406883 1.0381094 -0.5920741 -0.2493309 -0.26022702 -0.3438976 -0.55081266 -0.3608947 0.30407476 -0.0592945 -0.08501524 0.011626383 0.33659795 -0.78015476 0.4777806 0.10171741 -0.06088933 0.039774265 0.4387709 -0.8276425 -0.79936624 -0.079302534 -0.20369668 -0.79404783 0.1593107 -0.1719357 -0.42154887 -0.48499256 0.018817248 0.27470988 -0.40534738 0.43242615 -0.39188597 -0.44959995 -0.41802058 -0.07429556 0.11869058 0.28666925 0.53412986 -0.09758331 -0.64005107 -0.21310434 0.017633684 0.15725367 0.0076092533 0.19369903 0.39069247 0.0023101624 0.15354134 -0.3549476 0.41832855 -0.29296353 0.42601413 0.48797795 -0.68156534 -0.64688003 0.010222854 0.21995905 0.43972626 0.26898098
142906 0.12938602 0.54276097 -0.596478 0.008540808 -0.2217074 -0.8293496 -0.5333339 -0.14325365 0.4534887 -0.31004262 -0.17992692 -0.15204047 -0.3893103 -0.18884125 -0.023299878 -0.407169 0.41955358 0.073440015 0.039275765 -0.16615452 0.11840326 0.008635982 0.2832424 0.5224578 -0.71990347 0.56425184 0.49317086 -0.95452994 0.21386215 0.5131164 0.46660444 -0.500939 0.034753993 -0.09804685 -0.59045327 0.18779099 1.2565892 0.92342 -0.5900866 0.3758946 -0.798771 -0.9875734 -0.074242264 -0.3360781 -0.4942609 0.81475013 0.31254438 0.39307797 -0.104564354 0.5262454 0.6055253 -0.78273356 0.4859175 0.13198543 -0.334238 -0.34792277 0.28118458 -0.0697475 0.39066428 0.103880055 0.23323771 0.5712753 0.12331774 -0.6238686
141740 -0.28049466 0.40138718 -0.37926573 -0.40948454 -0.45643085 0.8998944 -0.59818935 -0.3166011 -0.87945735 -0.65750873 -0.23677325 -0.4205726 0.19927987 0.18036643 0.11870299 -0.14855118 0.5791709 -0.26603532 0.4231954 -0.085180424 0.48584154 -0.36345375 0.44323462 -0.13060683 -0.46188134 0.3295358 -0.108455144 -0.65422803 -0.046594948 -0.03900622 -0.33273807 0.053957507 -0.15203293 -0.38401186 -0.1783874 0.9444779 -0.55031693 -0.17283459 -0.06786432 -0.2443358 0.1296781 0.3082154 0.020212173 -0.16269049 -0.53969204 -0.082254015 -0.18023413 -0.59398586 -0.13231191 0.20171632 0.83425367 -0.4360509 0.41207254 -0.23816256 0.6405171 0.2988389 -0.501596 0.048609495 -0.16142909 -0.24960038 -0.6101795 0.107261606 -0.44696185 0.019646322
141794 -0.6951151 0.60689 0.8840393 0.41232333 -0.5152541 0.110470094 0.13867998 -0.47639725 -0.13186087 -0.013045704 -0.3203958 -0.73953086 0.53870076 -0.23603794 0.7548869 -0.62513435 0.45378616 0.5502108 0.71515554 -0.8188386 0.38688663 -0.3471547 0.09660487 0.4446328 -1.0682307 -0.037889108 0.34673035 0.74556154 -0.7984536 -0.69081867 -0.28945094 0.3698346 -0.028743854 0.8600194 0.19099577 -0.6544876 0.08391605 0.56864816 0.11155439 -0.30604228 0.7907458 -0.67410254 0.6667752 -0.49834418 -0.74640024 -0.54385465 -0.17527537 0.34849423 -0.4060908 -0.14689952 1.3119353 -0.43113345 0.20961487 -0.6305614 1.1952014 -1.8010672 -0.52213186 -0.32888412 0.022059415 0.12490862 -0.033070315 0.24919963 0.15198518 -0.39654794
142566 0.4384303 0.1594633 -0.057342786 -0.15948209 -0.17855896 0.1930483 -0.3197426 -0.65964746 -0.2529885 -0.8198065 -0.07234255 -0.26408902 -0.31520447 -0.21867284 1.0412046 -0.22162145 0.118942015 0.13651271 -0.2136224 -0.83892316 0.2926645 0.027050927 -0.37114137 -0.20704094 0.11768497 -0.5237649 -0.38065943 0.034765 0.12658472 0.6686174 0.0099567175 -0.10722518 0.31466198 -0.06706592 -0.31975994 0.6490638 -0.16685046 0.095915586 -0.38612258 0.17934194 -0.41575623 0.06981618 1.0179746 0.48615798 0.010224818 -0.15821055 0.30335292 0.46576917 -0.45163473 -0.354864 0.14438762 0.6650372 0.18696982 -1.4001771 0.23727797 -0.2783596 0.032140378 -0.17820361 0.32266518 -0.47846752 -0.6297572 -0.17344072 -0.10856117 0.29480627
142772 0.30601817 0.0027639319 -0.47665274 0.09480279 -1.02801 0.584511 -0.3864277 -0.293613 -0.4189253 -0.06772599 -0.673285 0.018664414 0.6836703 -0.35213605 0.5605653 0.23350996 -0.77768505 -0.21280055 0.5389583 0.09404801 0.23155534 -0.66772115 0.13952595 0.07436758 0.19942132 0.2356713 0.16510575 0.47115183 0.35144442 0.1524992 -0.3209375 -0.4799584 0.47251633 -0.12161299 -0.27199933 -0.057696383 0.44132182 -0.14615074 -0.59497356 -0.36506075 0.37205786 0.06824608 0.041705914 -0.220504 0.1403172 0.30183297 0.56264615 0.035959046 -0.28779516 -0.44263086 1.1480975 -0.0056926548 0.22602089 -1.0114605 -0.23621497 -0.2410787 0.07722159 -0.19146882 -0.09741381 0.1250023 -0.06400315 0.17623161 0.23231298 -0.6894622
142195 0.5480628 0.6427559 -0.09046195 -0.1343 0.07832488 0.053914603 -0.50789917 -0.5909391 0.23251872 -1.0791725 -0.28067604 0.34512264 1.3118974 0.18750067 0.03981795 -0.19679888 -0.7768382 -0.30992576 0.7083268 -0.38827 0.009432826 -0.122562915 0.41524547 -0.5561728 -0.6814253 -0.33410877 0.40341842 -0.2617581 -0.3171214 -1.2273002 -0.54466486 0.80473953 -0.007227904 -0.70395726 0.30953008 0.9020269 0.80441415 -0.25737518 -0.24563624 -0.35284787 -0.93961865 -0.60352534 1.2170944 0.47094774 -0.5856157 0.35222846 -0.06250315 0.15655826 -0.25217953 0.49785835 -0.2630127 -0.83172655 0.18356311 0.15837757 -0.25586367 -0.19675337 -1.0595608 -0.028537959 0.79209745 -0.38258874 0.27563915 0.25611538 -0.50261533 0.28567505
142651 -0.018379817 0.23779434 -0.35084137 -0.40497243 -0.6070861 0.3053947 -0.21138273 -0.005671102 0.39687064 0.338349 -0.54175186 -0.7291357 0.040499073 -0.07288995 0.39554012 -0.33386484 -0.9726849 1.1487583 0.24860337 0.56137925 -0.77257055 -0.40461257 0.3017017 -0.33783418 -0.97102404 -0.23308434 0.12806186 0.082204014 0.23946409 -0.2605324 -0.062296417 -0.10424058 -0.38899827 -0.22391127 0.6994141 0.9301519 -0.13882196 0.9444809 -0.47405884 0.5818951 0.6140928 -0.18487841 -0.5453599 0.4082199 -0.25629637 -0.26959655 0.21446902 -1.1401855 0.23670837 0.4030876 -0.16388254 0.41571915 0.61021745 -0.7530569 0.15350133 -1.1278442 0.07586545 0.06044305 0.37171546 0.14472541 0.3750678 0.8496464 -0.30906114 -0.07644865
142905 0.56290776 0.1176464 0.12202689 -0.33505812 -0.095236406 0.11023995 -0.15884484 0.15280432 -0.2891042 -0.03315196 -0.2238225 -0.40941405 0.2941516 -0.3388002 0.1980371 -0.87496585 0.4174569 -0.21900672 0.06604759 0.1131304 0.23523332 -0.30085805 0.28877833 0.42400113 -0.6104222 0.23921728 -0.16435508 0.0791454 0.059062146 0.22456558 -0.061233573 -0.48244792 0.13254191 -0.5085571 -0.34720364 0.36273393 0.78133327 -0.061919197 -1.0750575 0.21114182 -0.5961193 -0.088111185 0.6191678 -0.14066721 -0.12603855 0.78110147 0.06110182 -0.048960328 -0.65412205 0.44857138 0.8562735 -0.11809605 0.48534685 -0.2225897 -0.43183702 0.4575933 -0.06870067 -0.3504452 -0.21080858 0.31057575 -0.29184714 0.43557277 0.0061882334 -0.55414677
141584 0.27023268 -0.41104117 -0.16198488 -0.25167587 0.12088095 -0.07727414 0.42320916 -0.37281117 0.6153598 -0.5206761 -0.35299098 0.19672807 0.6614688 -0.14911631 0.18859008 -0.32700038 0.23394394 0.25987718 0.5603924 0.6276655 0.1734201 -0.7977625 -0.37954903 -0.143152 -0.6985785 0.310253 0.5118305 -0.3940933 0.14228913 0.12894396 -0.03186665 0.48731628 -0.22695135 0.40934533 0.567815 -0.2538098 -0.4635124 -0.35128206 0.005682105 0.45424026 0.26840708 -0.16463888 -0.14959481 0.08772897 0.12462998 0.45858926 0.8726093 -0.5114281 0.70717835 0.742119 0.15944833 0.11008907 0.826464 -0.22863933 0.48719117 0.054119766 -0.13311243 0.42173532 0.49699417 0.1883086 -0.31867558 0.08789874 -0.14119503 -0.72799516
142638 -0.1477311 0.2582943 -0.033244163 -0.19806029 -0.24228716 0.6130358 0.094053574 -0.3750273 -0.55771583 -0.2430125 -0.601015 -0.27592194 0.16672386 -0.35164136 0.34227103 -0.04183515 0.8088576 -0.7368394 0.38449445 -0.23443961 0.76518285 -0.30923155 0.20951034 0.42279842 -0.2949335 -0.22149783 0.048703596 -0.99567384 -0.616209 0.083109595 -0.07575232 0.08166316 0.3024888 -0.3060428 -0.06870945 0.3284751 0.4032962 -0.36074948 -0.42186382 0.019770231 -0.20792851 0.06507731 -0.076020084 0.22663948 -0.017130911 0.117997125 -0.61611503 -1.0492448 -0.82766175 0.4243768 1.2903504 -0.24420892 -0.13886522 -0.74935526 0.3503362 -0.016703198 0.09485499 0.14050665 0.055853326 -0.88570565 -0.82582664 0.3699733 -0.11549362 0.15563563
142498 0.40297607 0.4182255 -0.14321227 -0.54438347 -0.35830802 0.2846805 -0.20977111 -0.23606938 -0.24184664 -0.54158324 0.021680256 -0.7224059 -0.49914 -0.6165994 0.25674474 0.35019338 0.04915137 -0.33037832 0.0034825213 -0.49561995 -0.08099394 -0.5561271 -0.36524117 -0.66584665 -0.38321996 -0.16550864 0.08709691 -0.52837914 -0.14074518 0.64978814 -0.52335876 -0.3393881 -0.33088535 -0.05097506 0.22325669 0.19055323 0.00024374686 -0.27083984 0.069334924 -0.25093544 -0.17170557 0.1502498 0.08226376 0.05902056 -0.27799103 -0.6496285 0.030641759 0.032838486 -0.12134758 0.22394922 0.5685129 -0.053138003 0.0482801 -0.3118325 0.47230378 -0.43856454 0.3180333 0.70168453 -0.52642256 -0.4649897 -0.32623863 0.53924257 0.090652 -1.1575954
142419 -0.11722472 -0.1472564 -0.18361554 0.07633626 -0.54737777 0.15519807 0.05249785 -0.64262253 -0.053859804 0.38119 -0.34399053 -0.8801897 0.5244473 -0.45180535 0.20511909 -1.1840062 -0.17460482 0.88932514 0.2976446 -0.5650135 -0.2643627 0.017835215 0.18902695 -0.4144505 -0.25386342 0.39649925 0.24116433 0.009009791 -0.0931208 0.10163182 0.18974556 -0.5489368 -1.3189284 0.06445122 0.23819363 0.2845432 -0.3996533 -0.086961254 0.39266917 0.52498037 0.5413619 -0.6320157 -0.065329336 -0.017921396 -0.20833708 0.25431043 0.18418027 -0.7909267 0.5271744 0.3432729 0.014843457 0.7973843 1.0489575 -0.3399333 0.096906416 0.0770575 -0.28547537 0.37547937 1.0207992 -0.39565486 0.20213106 0.5461946 0.24132247 -0.007851397
142048 0.5345597 -0.15279996 -0.77908564 0.3144337 -0.33183655 0.43528318 0.2235405 -0.3006247 -0.3927668 0.43475387 -0.50048983 0.15768768 0.53011584 0.081259325 0.34464446 0.4159214 -0.09873519 -0.08083792 0.28733256 -0.05098971 -0.1363758 -0.82215023 0.06070534 0.3016273 -0.2099319 -0.06363983 -0.32041162 0.117789336 -0.50066495 0.103255555 0.5956883 -0.23884428 -0.029455561 0.50957435 -0.8764356 -0.16452889 0.4598721 0.29102156 -0.05157889 0.2368506 -0.11649858 0.2789677 0.24130459 0.23670043 -0.46478328 0.6206658 0.17930472 0.06450228 -0.3006463 0.1808573 0.6705277 0.18899648 0.44830883 -1.1952927 0.020241458 -0.25456947 -0.20819202 0.25371042 0.5118082 0.1665694 -0.8875289 0.20374386 -0.55597275 -0.3282669
142677 0.4562764 0.3381891 0.0945599 0.08234469 0.36940965 0.23202386 0.36705655 -0.49407876 -0.050952625 -1.1758252 -0.6676281 -0.17793557 -0.14789373 -1.0527505 0.061174124 0.1373921 -0.14405347 -0.2798416 0.1519899 -0.038837187 -0.05827249 -0.6459929 0.33315486 0.036986798 0.18597019 -0.65610176 -0.48727623 -0.48751086 -0.043830946 -0.015524121 0.2727535 -0.81420624 -0.456377 -0.3874253 -0.28630552 -0.3193445 -0.30757913 -0.16860038 -0.82422984 0.15210451 -0.4880261 0.18697956 0.6093143 -0.27183726 -0.067912854 0.70237523 -0.42466223 -0.47783995 -0.8664118 -0.026365303 0.64262044 0.15827465 -0.18840826 -0.5210562 0.44068274 -0.79643285 0.07726589 -0.18620537 0.4553567 -0.41980812 -0.106010236 0.12970327 0.093954735 -0.3104026
142763 -0.060029328 0.7374685 -0.7429237 0.37722072 -0.6955373 0.29310942 -0.0406696 -0.64361334 -0.04535807 -0.6702046 -0.12618051 0.30660075 0.5520801 -0.3562047 0.25389376 -0.52252066 -0.15414791 -0.24563664 0.089051545 -0.030914666 -0.3189887 -0.33270913 -0.12851465 -0.24681975 0.22767994 0.3447527 0.48582667 0.26674953 0.869833 0.044807132 0.5665132 -0.6235102 0.6029335 -0.55922 -0.27076262 0.8382215 -0.63754016 -0.05894455 -0.6093701 0.028519003 -0.050349094 -0.07159565 0.50988156 0.41103882 -0.31619558 0.201653 0.0806768 0.058838513 -0.13133386 -0.22448191 0.7592445 -0.3847167 0.15878628 -0.57497805 0.3004687 0.17965247 0.27141365 -0.01477558 0.394434 -0.2320632 -0.689208 0.43912476 0.036848053 0.3139551
141056 -0.043750733 0.3118069 0.5788045 -0.56904614 -0.31771955 0.23874621 -0.75894123 -0.5057011 0.17915492 -0.44571188 -0.39613688 0.46604052 0.27567223 -0.14958379 0.4250619 -0.08200176 -0.07500039 -0.48051575 0.92727816 0.10503598 0.012899496 -0.009322239 -0.24687323 -0.5216723 -0.24214272 -0.45328802 -0.6152268 -0.4532869 -0.17614776 0.41066194 0.3348895 -0.19519006 0.6213059 -0.105373755 0.03286183 0.53154373 0.19713065 -0.08611437 -1.4304518 -0.5826149 -0.13788591 -0.256155 0.26560047 0.027970409 -0.43041438 0.20949315 0.18065721 -0.1847775 -0.1082392 0.67885566 -0.06973796 0.10982742 -0.5570935 -0.8191939 0.71750635 -0.034677982 -0.027785337 0.33544445 -0.09059088 -0.037432753 -0.52239245 -0.047589682 0.37353158 0.27281925
142168 0.27693945 0.53257734 0.3630901 0.104160026 -0.2724997 -0.41696176 0.41919628 0.22772789 0.08118238 0.08837364 -0.8983996 -0.34905276 0.57146126 0.00015597363 0.12010821 0.15497619 0.48751467 0.4336848 0.6793793 0.18773206 -0.19535998 -0.07996013 0.36080253 -0.30469286 -0.22772023 0.48414984 -0.14741506 -0.47861713 -0.32778928 0.21781133 0.1649458 -0.8313157 -0.7369414 0.03551156 0.47585618 0.608519 -0.44313148 -0.033142418 0.65333486 -0.13409354 -0.04555562 0.0049192924 -0.37432033 0.42262903 0.5568966 -0.086464636 0.77615666 -0.40455714 0.4943133 0.680061 0.058078133 0.7036203 0.47576147 -0.14615917 -0.27707 -0.6470759 -0.4455528 -0.37303054 0.61907244 -0.7135518 -0.4955491 0.34202912 0.4013959 -0.3168981
141171 -0.034408975 0.1355837 0.31230083 -0.462526 0.07703089 -0.60258824 -0.29231128 -0.5333411 -0.40468788 0.24558806 0.056902867 -0.10613736 0.46501833 -0.50199103 0.6237602 0.037569128 -0.7470985 -0.31456545 0.060578503 -0.01231984 -0.33835542 0.07800372 0.0026248926 0.2224557 -0.7907627 0.12454468 -0.30230233 0.43227047 -0.43801355 0.3780432 -0.75573874 -0.115971975 -0.46209532 0.36565277 -0.068637624 0.2738453 -0.73837173 0.38652062 0.6411076 0.108733736 -0.04670492 -0.17871049 0.37569636 0.31178835 0.55204666 0.23752435 0.50129783 -0.30722666 0.9460942 0.905296 0.76310706 -0.40701813 0.5615686 0.08133538 0.028168265 -1.0144258 0.091761634 0.021084145 0.55941087 0.21261062 -0.3021985 -0.033940893 0.17402771 0.27108473
142808 0.17028622 -0.5626143 0.0382893 -0.058393855 -0.025753025 -0.083248414 -0.90524304 -0.46586755 -0.6613697 -0.18252869 -0.83205545 -0.32744426 -0.46804595 -0.91242445 0.2127592 -0.5616201 0.65545636 -0.16264606 0.12462549 0.69651765 -1.0980126 0.11503111 0.3062844 0.11611774 -0.2663445 -0.14659129 0.27624056 -0.38455978 0.49628335 0.80095285 -0.24484646 -0.28236625 0.1031453 -0.048778724 -0.97575206 0.3537371 0.25821087 -0.086876415 -0.5918358 -0.7970176 0.780658 0.19962174 0.3759444 0.24982806 0.40298724 -0.20807675 0.56591964 0.321136 -0.34107012 0.74008286 0.4469772 -0.6394847 0.59540725 -0.54484445 0.04693131 0.1401697 -0.8005817 -0.04841832 0.30155745 -0.11411076 0.02886 0.89204293 -0.18074383 -0.15804319
140111 0.86194193 -0.05183062 0.5398105 0.26586097 0.19847733 0.084425636 0.31972393 0.04055899 0.41724482 -0.16665018 -1.290015 -0.12852992 -0.54723436 -0.03875936 0.40990645 -0.46724737 0.25610822 -0.17552342 0.61179924 0.25310266 -0.41533813 -0.045867503 0.595632 -0.14777169 -0.42901462 0.6961482 0.2516508 0.2783997 0.012659131 -0.2136192 -0.41190213 0.11832135 -0.44316608 0.25088456 0.8257778 0.122987136 -0.27136362 0.17551084 -0.44249925 -0.13944334 -0.20641038 -0.23933655 0.0019422033 0.011342255 0.023257233 0.74292094 0.9547749 -0.15990247 0.16064453 0.787996 0.053465925 0.44708678 1.0950817 0.11781705 0.7920066 -0.27098057 0.46564692 -0.21744548 0.7262807 -0.27133694 -0.41974312 -0.17281371 0.48337722 0.051675715
142464 0.3363745 0.037982993 0.4832497 -0.52185786 -0.6139422 -0.29549876 0.25061953 -0.45911416 0.36903343 -0.2351281 -0.7382721 0.070114434 0.35905465 0.604047 1.0061383 -0.6134509 0.75819975 0.16063727 1.0108023 -0.010518555 -0.19436927 0.11729723 0.11600101 0.85288095 -0.43939975 -0.33058488 0.6525082 1.0028405 0.6458366 -0.3412486 -0.21730857 -0.3034067 0.319812 0.89816415 -0.29913217 -0.16248722 -0.14865476 0.2471095 1.1205114 0.2833547 0.53514254 -0.5745859 0.7101622 -0.5164438 -0.6053048 0.16323714 0.19208658 -0.21953498 -0.39782283 -0.39119402 0.29339558 -0.7041179 0.12355783 0.10951734 0.63515 -0.6132274 -0.6136537 0.3319879 -0.33712307 -0.16105735 -0.30495515 0.36086297 -0.078424856 -0.7009787
142106 0.26333568 -0.10558132 0.9799409 -0.48798653 -0.34236422 -0.5367517 -0.3582872 -0.011496217 0.5852486 -0.24161968 -0.42439315 -0.2924818 0.9822429 -0.4874723 0.37646613 -0.4439518 0.49076462 0.14683634 0.33650288 0.22485103 -1.022549 0.5626153 0.08395411 -0.38392466 -1.0155333 0.55489266 -0.2713738 -0.5103897 -0.5719805 0.15047143 0.13563485 -0.20789592 -0.45842543 -0.5803209 0.3407501 0.25264877 -0.04783645 0.36625683 0.6316245 -0.14587301 0.28262842 0.34966788 -0.55772597 0.4715001 -0.028926857 0.47715923 0.67243 -0.44084603 0.14281851 -0.0015850887 0.3698334 1.0325567 0.53650874 -0.19513811 0.36529905 -0.27056226 -0.6122676 0.1829672 0.17727949 -0.33987546 0.07653199 0.2121802 0.66322464 -0.39251027
141919 -0.085053615 -0.940144 0.16096342 0.116315685 -0.51292294 0.0038875344 -0.7422013 -0.5305382 -0.30330077 -0.18335631 -0.27059796 0.014140223 0.32876915 0.26763672 0.48724502 -0.08595864 0.33040863 0.13745347 0.14536808 -0.33652684 -0.12645717 -0.57173675 0.042655487 -0.1122892 0.6771818 0.02697346 -0.3447987 -1.0918422 -0.088364616 0.40446308 0.07917319 -0.077915154 0.33378398 0.1801527 -0.5622171 0.3763201 -0.17739487 0.054148212 -0.58270913 0.30888093 -0.045371003 -0.016869498 0.6746321 1.023433 -0.09615153 0.0617534 0.17279793 0.049455043 -0.53022665 0.19112173 0.77201325 -0.21744184 -0.04798033 -0.8304348 0.35564888 -0.35290372 -0.5229795 -0.094226204 0.51043373 0.010731345 -0.6657125 -0.30674276 0.45829102 0.69357723
141822 0.088186495 -0.34282896 -1.3916554 -0.2882595 0.7059146 -0.15386483 -0.83108145 -0.17779067 0.46947026 -0.74844813 1.0295806 -0.41441175 1.227129 -0.38426507 0.57941514 -0.83242106 0.56412566 0.8337308 0.08299305 0.5995726 -0.13624066 -0.13369083 0.30038822 0.84535044 -0.6622145 0.649501 0.02514645 -0.13840532 -0.6224562 -0.40766218 -0.77250546 -0.20091824 -0.09469421 -0.8695056 -0.3714495 0.24689566 0.3978456 -0.571488 -0.8859486 0.4737534 -0.32481024 -0.58782434 0.14476904 0.054459676 -0.30049807 -0.8497953 0.45883134 -0.5995309 -0.28066632 -0.5649497 -0.36427245 -0.28124747 0.57002497 0.063419715 0.6671262 -1.4888259 0.4060197 -0.5711186 -0.71067786 -0.60668993 -0.70061326 -0.2317313 0.040483855 0.24516305
140599 0.53702706 0.28541058 0.15201975 0.053927146 -0.60818976 -0.27505633 -0.40587825 -0.9682856 -0.033035554 -0.3731465 -0.36630216 -0.07176469 0.61991733 -0.5394438 0.268156 0.21118537 -0.1390893 0.1949767 -0.13264832 -0.034262758 1.15898 -0.40887567 -0.24196301 0.97809434 -0.87614036 -0.57652575 -0.92140216 0.33688584 0.744259 -0.22354065 -0.16119272 0.2637734 -0.01956649 -0.106551066 -0.36939687 -0.46219033 0.2238863 -1.0039784 0.64957917 -0.21190505 0.001392525 -0.9539573 -0.5956184 0.8477855 0.011031316 -0.0007388835 1.0682635 -0.69038486 -0.62668306 -0.048702937 -0.20011075 0.037423946 0.47786352 0.36259624 0.4356946 -0.16494873 -0.22356686 0.60446554 0.9741343 -1.1161476 -0.20371002 -0.35667327 -0.08882201 0.9708545
140840 0.69696254 0.21471308 0.1557262 -1.2775441 -0.6428547 -0.39980653 -0.89492065 0.06089608 -0.4674074 0.32400492 -0.40043005 1.0169287 0.091400936 -0.14884412 0.20304172 -0.7521336 -0.9306398 0.299576 0.05965735 -0.83693725 0.37304902 -0.3671672 -1.4398817 0.5118486 -1.2057142 -0.76042825 0.15799792 -0.1071116 -0.31115258 -0.7934653 0.04879262 -0.46544492 -0.37676874 -0.5535555 -0.8339738 0.19122425 0.044442996 -0.62082106 -0.3849201 -0.8653397 -0.4563453 -0.44243547 -0.9871589 0.2649464 -0.13877223 -0.06471804 0.92038995 -0.4447367 -0.12096138 -0.7384202 -0.6737191 -0.37013498 0.36601204 -0.52546936 1.1156132 -0.07963254 -0.40269744 -0.2453354 0.1202853 -0.8122796 0.4543949 0.10219863 0.33151153 -0.4440988
142415 -0.92585224 0.58614546 -0.375325 -0.7286393 -0.15070423 0.19524102 0.18751085 0.4497694 0.55968624 -0.009810529 -1.1789209 -0.14651363 0.0922906 0.09936678 1.053339 -0.6051503 -0.11284123 -0.6360738 -0.15983209 -0.27335557 -0.057071637 0.38695535 -0.2640332 0.36914524 -1.0911812 -0.5222083 0.5467847 -1.1351019 1.0718498 0.30516765 0.029032309 -0.84930456 -0.4443283 0.39655596 -0.44340217 -0.0037387956 -0.27234778 0.8099372 -0.38988274 0.74438626 -0.05109128 -0.27971452 0.42504665 -0.19683458 -0.28271526 0.93610746 0.9914034 -0.30664545 0.31728855 -0.53658724 0.33985457 -0.49985453 0.039792746 0.10197788 -0.16655815 -0.2335654 -0.75767154 -0.67319137 -0.3434821 -0.12821616 0.105683036 -0.2433459 0.15767542 -0.05252609
142047 0.19309126 -0.28346863 -0.4423591 -0.5487254 -0.15733725 0.1709873 0.6037053 -0.3410279 -0.35410205 0.25831538 -0.67009944 0.33288574 0.89229274 0.6858639 0.2443351 0.14498492 -0.051632892 0.17493856 -0.2742473 0.37882477 -0.25734314 -0.67904574 0.30146894 -0.27236834 -0.48914573 0.13938095 0.2886185 0.11930902 -0.016466819 0.3927604 0.21986634 -0.6562007 -0.7040682 0.3581072 -0.56830704 0.16963838 0.37654194 -0.40481737 0.16162288 0.70414615 0.48721546 0.2357206 -0.24596328 0.20235117 0.025442889 0.20177126 0.68373543 -0.51732874 0.13207687 -0.20780212 0.061871763 0.66115195 0.7396809 -0.31864542 0.22989705 -0.6463987 0.045903422 0.60498697 0.5824521 -0.21739699 -0.7672316 0.42489132 -0.2679455 -0.4977476
142504 -0.040522806 0.08046455 0.46936512 0.1043721 0.006523876 -0.06395105 0.7631088 -0.24718915 0.7762143 0.0647345 -0.90994215 0.19275574 0.091799095 -0.8226283 0.0100680115 -0.8621989 0.1438047 -0.29134044 0.64420587 0.10915889 -0.218543 -0.39982203 -0.1531948 -0.58797115 -0.5631675 -0.14715134 0.29821986 0.516427 -0.41817516 0.106189184 0.25296658 -0.010927407 -0.2248003 -0.37521577 0.10911035 0.044589333 0.06870234 0.3169813 0.63224036 0.12461027 -0.5970115 -0.64138037 -0.08063894 0.8983843 0.6285619 -0.06323788 1.1822555 -0.82995385 0.10089366 -0.001617629 0.18216786 0.31699428 0.82670206 -0.122094415 0.08751003 0.1444146 0.20150398 0.58910805 0.57790524 0.17632401 -0.07660436 0.23103727 -0.06122006 -0.37766662
142199 -0.40431848 0.3715914 0.1778968 0.32434222 -0.3623378 -0.27300608 0.55850095 0.30776384 0.01143977 -0.60530764 -0.3995888 -0.3274206 0.3743725 0.10831031 1.0108054 0.64400584 0.2768863 -0.1423084 0.5201984 0.33532834 -0.17656386 -0.5252889 -0.009336476 -0.16335243 -0.5133965 0.24878584 0.11996218 -0.65222883 -0.27719238 0.16731027 -1.0728812 -0.6399939 -0.1012497 0.3881948 0.45906022 0.44349894 0.099879436 0.28600195 -0.31924143 0.19575961 -0.12100668 -0.5894767 -0.27116415 0.7617688 0.35784128 -0.36477593 0.9499011 -0.1168225 0.04079691 0.053156693 -0.18120272 0.30978262 -0.0060029337 -0.09053977 0.5908916 0.23204635 0.44895616 0.34758657 0.8992606 0.23920579 -0.67167604 -0.1324456 -0.3469214 -0.7895709
142272 0.14309646 -0.71556014 0.2361383 0.1558171 -1.055435 -0.1937277 -0.63649344 -0.65805775 0.3530104 -0.069745295 0.30704194 0.60124075 -0.08937085 0.32579398 0.20811273 0.5542986 -0.023290819 0.40753818 0.3402905 -0.48878354 -0.32872173 0.17322645 -0.748814 0.4259627 -1.0466789 0.16136812 -0.0008875886 -0.123014525 -1.07335 -0.4205726 0.13694519 -1.2912787 -0.20691748 -0.13250658 -0.4047605 0.29134387 -0.5465997 -0.92020327 -0.21961029 0.31027994 -0.22893575 -0.4387341 0.2613644 -0.76510584 0.53714097 -0.49968177 0.74839014 0.2128913 -0.29115027 0.4995683 0.6463194 -0.7445772 0.86764956 0.06612647 0.5457084 -0.2203522 -0.58571357 0.27368852 0.8159459 0.012588106 -0.0553387 -0.074591495 -0.37400702 0.017688388
140910 -0.07047322 0.27526334 0.37840354 -0.55795807 -0.22020382 -0.06848433 0.043222863 0.09035361 0.27484465 -0.33336362 -0.57961494 0.04751259 0.3290629 -0.43078613 1.0388502 0.10720859 0.13376047 0.31751195 0.7707673 0.30267313 -0.9712712 -0.7031403 0.28362584 0.087052934 -0.4016214 0.31454304 0.035282154 -0.7484961 -0.019601837 -0.03337408 -0.80295455 -0.66508454 -0.42894953 -0.20605046 0.38287216 0.12544134 -0.5604785 -0.32477814 0.35566786 -0.15667216 0.31756866 -0.060725633 -0.87646747 1.0425199 -0.13749924 -0.16324204 0.44392654 -0.0879494 0.83463734 0.33984968 0.22078414 -0.23824817 0.120972104 0.25961253 0.12591948 0.039625768 0.43666697 0.24842861 0.9286418 -0.27724338 -0.015724786 -0.39926025 -0.17676984 -0.28641516
140346 0.21584825 -0.30540636 0.7433066 -0.5985709 0.330786 -0.36409885 -0.08232732 0.34732783 -0.00047187274 0.08114683 -1.1283642 -0.8585189 0.15319104 -0.42553976 0.57980305 -0.5154825 0.40250754 -0.35204265 0.013713682 -0.10507355 -0.5481385 -0.21166354 0.093690224 0.57465905 -0.50179714 0.5047819 0.04721108 0.50724787 0.45673224 -0.32631156 -0.53439546 0.394599 -0.2181103 0.65484124 -0.25835764 0.22443256 0.065436855 -0.23351982 0.47769094 0.28804764 0.3909223 -0.6398043 0.22462437 0.3024901 0.53999776 0.5044118 0.26173592 -0.13769098 -0.33428043 0.2592691 0.021900054 -0.5671605 0.5175696 0.30875596 1.101515 -0.18791439 0.27776107 -0.017369328 -0.17227064 -0.42477122 -0.6414658 0.25743443 0.65481853 0.2570999
142620 0.3284686 0.46936136 -0.12299508 0.46755502 -0.6105613 0.22769026 -0.8227492 0.21342684 -0.4195633 -0.14082743 -0.3658241 0.007325311 0.691718 -0.5555616 0.1022087 -0.4173567 -0.18301544 0.17444691 0.2967104 0.53803134 0.20805724 -0.22641286 -0.62054855 0.04699877 0.3189951 -0.6073417 0.3023985 0.317885 0.6126427 0.31200898 0.3235166 -0.4311915 -0.16953199 -0.5278924 0.1107348 0.3339642 -0.3956091 -0.29396245 -0.33436176 0.67339396 -0.7244172 0.7722114 0.94520575 0.64286155 -0.46494085 0.47979942 0.021100488 0.37403786 0.37228155 0.40695736 0.3732682 -0.06762311 0.4738848 -0.417188 0.49324572 -0.124102 0.54909873 0.40775576 0.29391757 -0.15623322 -0.3273528 0.4698142 -0.41338918 0.4910942
140577 0.28623536 0.36436436 0.24883401 -0.022145605 -0.6194453 0.15214428 -0.4313885 -0.60595304 -0.0026915192 0.06140234 -0.32813627 0.0013426892 0.23790859 -0.07969492 -0.15113536 0.033086583 0.208474 0.12418354 0.90983325 -0.11452115 0.6263308 -0.8865843 -0.42040277 -0.6519648 -0.1246243 0.0490422 0.19506091 -0.18943886 0.2815683 0.54273283 -0.88525796 -0.073016435 -0.45626128 0.0674077 -0.47736537 0.42740497 -0.5282586 0.06782437 -0.26255482 -0.47668022 -0.121654496 0.39436582 0.19420545 0.0067819804 0.09886389 -0.36380088 -0.13188411 -0.3521581 -0.10740201 0.3245218 0.9170596 -0.0038591654 -0.09392715 -0.31673393 0.40809423 -0.22766887 -0.4935353 0.78453094 -0.671453 -0.06983109 -0.3782784 0.72579926 -0.043733366 -0.08012283
142300 0.5471102 -0.29686913 0.02006669 -0.5584705 0.014858986 0.6548553 -0.3826737 0.08877963 0.4871152 -0.15359336 -0.6928037 -0.43485284 0.5358623 -0.44212702 -0.11167315 0.307258 0.4755262 0.07750528 -0.09715943 -0.77697635 -0.4185746 -0.34323597 -0.22616556 -0.13735066 -1.1308752 0.25157335 -0.30291703 0.26893488 -0.115864575 0.06134627 -0.004678589 -0.10194597 -0.09679877 0.2312739 0.36471933 0.69769454 -0.6242925 0.2900255 0.4755163 0.19308913 -0.43747747 -0.05010093 -0.37096325 0.5677399 0.057136007 -0.27973592 0.8554188 -0.15546815 0.22623421 0.9362019 0.028554613 0.28663802 0.68864334 0.27537876 0.33270478 -0.39793003 0.13321938 0.27562088 0.8514972 0.25335488 -0.58395267 0.6823655 1.290648 0.06975662
140578 -0.08792993 0.6839468 0.31013548 -0.15270844 -0.6678677 -0.16287674 -0.5190874 -0.42584592 0.33879513 0.017796004 -0.7379415 0.26404652 0.2489101 -0.7341056 -0.46007153 0.07859047 0.14115714 0.6611162 0.8138572 -0.24909532 0.5852254 -0.95809746 -0.4571205 0.08566513 0.11669176 -0.2956743 -0.15614761 0.3855137 0.19097586 0.6740821 -0.8376171 0.29737195 0.23737903 -0.84811276 -0.5278317 0.3525145 -0.17262189 -0.09682277 -0.5251281 -0.1946543 0.1654741 0.2892731 0.4025007 -0.06111244 0.031014439 -0.27019992 0.31829628 0.14734143 -0.29228485 0.4511349 0.41367355 0.28875655 0.21150242 -0.49669015 0.116000995 -0.72459817 -0.49394652 0.21353646 -0.25819603 -0.051074676 -0.40030837 0.70936203 -0.045892265 0.14106278
142369 -0.025753463 0.48843485 -0.5762271 -0.5759912 -0.40562072 1.2570328 -0.0693527 -0.30367237 -0.108323626 -0.5520844 -0.37805998 -0.023209251 -0.20695263 -0.3033074 0.218902 -0.57623696 0.31550893 0.21454504 0.27262762 0.018112268 0.2848791 -0.23361067 0.0050378866 0.17642258 -0.5473041 0.7784743 0.29788527 0.49041295 0.27334204 0.053607676 0.0990261 0.18979792 -0.2057912 0.16570485 -0.9709355 0.20372872 -0.57239693 -0.085850984 -0.5640158 -0.47738335 -0.5617263 -0.49833238 0.5942137 0.52701044 0.4334621 -0.11566507 0.0062728557 0.35557368 -0.67577916 -0.3434048 0.19315407 0.5889203 -0.42689857 -0.83690304 0.012146599 -0.008215194 0.1648171 0.20898607 0.14918931 -0.3201244 -0.5571633 0.3481493 0.37483877 -0.14664307
140797 0.054259047 0.14605905 -0.7692149 0.085610166 -0.5617557 0.6764754 -0.16978604 -0.5618263 -0.053765733 0.4053813 -0.10280523 -0.3344416 -0.14188726 -0.15137471 0.78657925 0.27840504 -0.6051055 -0.07458819 0.6340103 -0.23065454 0.2790009 -0.117776036 0.43001726 -0.69941103 -0.3367467 0.7517981 -0.09855421 -0.37038186 0.13943413 -0.13845575 0.10392786 -0.5726042 0.39701208 -0.22225101 -1.031334 0.18933277 -0.03586904 0.15968882 -0.31083843 -0.1330896 0.05425084 -0.03152124 0.7332507 0.50860715 0.3603508 0.14559776 -0.15764655 0.0056336457 -0.6359611 0.004142475 0.47776544 0.13270997 -0.0339971 -0.012068218 0.6681032 0.0714925 -0.046947118 0.32516465 0.36587328 -0.6377785 -0.8908594 0.08122129 0.35408568 -0.2071429
141860 -0.122420974 0.50532377 -0.4899673 -0.9520559 -0.8225642 -0.58757603 -0.35269284 -0.28132612 0.2609285 0.17417192 -0.32456243 -0.7026361 0.46633032 -0.23666336 0.97155786 -0.18797451 -0.4421521 -0.29119152 0.36104864 0.09161045 -0.5150812 -0.036178514 -0.13432914 0.0457766 -0.44833264 -0.24241173 -0.8507663 0.08178982 0.24664368 -0.22717518 -1.0730824 -0.5183854 -0.6417454 0.9676541 -0.23504888 0.1462609 -0.441951 0.35840872 0.7825773 -0.03133775 -0.26759326 -0.114322536 -0.2154046 0.0049768235 -0.017390737 0.5247598 0.6337531 0.12866665 0.20476313 0.81280047 0.3615832 -0.42679325 0.4117028 0.15628178 -0.18719009 -0.8925378 0.80158305 0.6541691 0.46970117 0.037972577 0.07176624 -0.40810788 0.2690949 0.06641491
141926 1.0605743 0.26909396 0.14059216 0.44622406 -0.43318686 0.005862368 0.13026352 0.5037433 0.8097997 -0.11149966 -1.0279741 -0.18323478 -0.8320215 -0.20684935 0.32956177 -0.341513 0.069688916 0.99365854 0.24704967 -0.26110625 0.40199253 -0.18230535 0.047766075 0.09013048 -0.14742976 -0.0062455125 -0.18399902 -1.1210289 0.37536722 -0.16055487 0.28047273 -0.4228584 0.34781978 0.6418565 -0.68683 0.7013133 -0.014209228 0.24130894 -0.1788132 0.42570433 -0.121144876 -0.2835977 0.15753725 0.06328803 -1.241384 -0.75701743 -0.45065176 -0.07742181 0.555405 0.87697554 0.4049383 -1.1602745 0.860107 -0.22141014 0.21086006 -0.58648926 1.2614657 0.097509265 -0.0138380155 -0.9449328 -0.12126441 -0.25035518 0.02420207 -0.7288006
147343 0.2110906 0.72759783 -0.19178818 0.5454972 -0.50485736 -0.2768635 -0.4403364 -0.018404508 -0.6409089 -0.2213786 -0.7141097 -0.32520616 0.070529535 -0.34169844 0.66442144 -0.16915686 0.09338949 0.41785574 -0.15233481 0.3417555 0.18250743 -0.49052918 -0.29504514 -0.15186056 -0.24519801 0.08989888 -0.5191888 0.19654588 -0.32799965 0.20888989 0.24222681 0.15746558 0.08532207 0.031112049 -0.7080557 0.6322909 0.21293409 -0.31812435 -0.121459596 0.031720947 0.047179937 0.65059537 0.61798 0.17235091 -0.12510295 -0.42518994 0.16245513 0.4045338 -0.28989288 0.13237703 -0.008048541 0.2098558 0.46954027 -0.76905715 0.26561207 0.09986519 -0.2983981 -0.2732778 0.079001874 -0.22142094 -0.48809627 0.43007264 0.21591644 -0.100019604
140873 0.03145792 0.4876031 0.43726206 -0.4406818 -0.4506385 0.48521766 -0.28861877 -0.22786595 -0.115100235 0.44253695 0.43274036 0.12032046 -0.13917506 -0.48270774 -0.08766189 -0.0988343 0.3313976 0.15777467 1.1917398 -0.6232641 0.11496642 -0.5961833 0.070818715 -0.19331889 -0.7383466 0.30763763 0.1379433 -0.3155378 0.7270626 0.8360709 -0.13602738 -0.7233701 0.5750425 -0.88854384 0.35243472 0.4258372 0.80149 -0.14798792 -0.2538416 -0.23245259 0.11838767 0.20872456 0.6722572 0.976899 -0.119161 0.08483358 -0.07260544 -0.16278236 0.45807657 -0.25512546 0.48742023 -0.21993758 -0.27277887 -0.20386024 0.9390365 -0.17788136 -0.21837825 -0.46847552 -0.1603228 -1.0973603 -0.732029 0.12415604 -0.0130517045 -0.3241107
141757 0.5042634 -0.19364925 0.395116 0.17671432 -0.11131577 -0.42618892 -0.5131614 0.6761714 0.32532158 -1.0647397 -0.5706608 0.2196367 0.568795 -0.8724996 -0.16351534 -0.43201318 -0.2210691 0.71645606 0.6429993 -0.48035216 -0.39347085 -1.1260022 -0.1098717 -0.45462388 0.42563254 0.54120964 0.52366513 -0.14701867 -0.5541479 0.0673196 -0.49225318 -0.09406019 -1.2716326 0.8467954 -0.04927149 1.0355846 -0.52161825 0.37616536 0.35368878 0.08817827 0.4249411 -0.32258514 0.30806893 0.5886045 0.19323589 1.050975 0.45061398 -0.091008596 0.6574401 -0.6420667 0.2884294 -0.38422725 0.8941721 0.7153989 0.0979569 -0.5771607 0.34367383 0.41077006 0.1716906 0.22553317 -0.81485987 0.12112033 0.039092273 -0.6947521
140275 0.60009617 -0.24031956 0.33073494 -0.106537625 -0.5829079 0.12143101 -0.44134378 -0.029644867 0.5398654 -0.27510998 -0.9190238 0.41040793 -0.28912428 -0.022998858 0.30238038 -0.42730683 -0.20672587 -0.07955866 0.3047061 -0.3906898 -0.038641132 -0.031595062 -0.07313699 -0.28804794 -0.33253756 0.08557914 0.7514613 -0.6044008 -0.5011054 0.687521 -0.61267257 0.08901727 -0.44508478 0.15690336 1.0078039 -0.052399054 -0.24939626 0.42276943 0.11427064 -0.117297105 0.3266893 -0.43089223 -0.34177357 0.5987036 0.54028267 0.73425484 0.78493965 -0.009437128 -0.0019877495 0.5178425 -0.10481393 0.54834086 0.6044043 0.036661215 -0.11103361 -0.4480355 0.035242207 -0.28383762 -0.034100823 -0.6033259 -0.74915147 -0.30851015 -0.07082955 -0.13293082
142693 0.124530286 0.36720482 1.206709 -0.07371466 -0.061550315 0.2755101 0.83609545 -0.17745966 0.34661707 -0.061442085 -0.17235757 -0.51336217 0.05415765 -0.6334433 0.31530604 -0.647138 0.24281389 -0.21760194 -0.6468104 0.34920976 -0.37238505 -0.5737939 -0.27655554 -0.017077662 -0.4572453 0.037073266 -0.068243496 0.3404397 -0.34476864 0.059864886 -0.20064664 -0.2578263 -0.38424638 0.4029035 0.43707493 0.680275 0.03807502 0.59522957 0.48191148 0.03678514 -0.34226802 -0.22908883 0.31451538 0.7876971 0.54729515 0.1117793 0.78633547 -0.8223173 0.26024178 0.6224917 0.36213294 0.13814099 1.1005294 0.099324115 0.3611767 -0.40834045 0.49200287 0.4335366 0.043479536 -0.5923634 -0.2745478 0.22686309 0.2280112 -0.49341753
142586 -0.40406704 -0.010583929 -0.21324715 -0.025229832 0.27093303 0.69032156 -1.6844568 0.17111638 -0.20715554 -0.8028223 0.71295434 0.17526159 -0.332828 -1.0092723 1.498976 0.03938424 0.32986516 0.3620587 1.186669 -0.055503406 -0.2559943 -0.869538 -0.2698409 0.5944615 -1.0736324 -0.7627878 -0.1308928 -0.31466454 1.0877143 -0.20899071 1.1735183 -0.52716863 -0.4074758 -0.047877744 0.023512146 0.31245866 0.1804326 0.37089577 -0.6229479 -0.48286065 0.99612796 -1.1387689 0.8483619 1.8458569 -0.8501634 0.66061234 -0.56944704 -0.054601092 -1.0091369 -0.11449667 -0.060721807 0.010504195 1.4797211 -0.10877397 -0.45997602 -0.90633667 -0.47664204 1.0012771 0.54024225 0.6885426 0.11907632 0.13828662 0.29589078 0.17332125
141545 -0.627153 -0.207238 0.46965632 0.46087804 0.96864176 1.5528276 -0.039485414 -0.063138515 0.021344922 -0.68993527 0.39609683 0.22739264 -0.08574821 0.3462654 0.3076954 -0.41783738 0.27385595 0.89344555 0.07429731 0.16943449 -0.38999707 0.32636207 -0.40449825 0.1951619 -0.2738078 -1.1034741 1.6113768 0.02686424 0.600976 0.09141362 -0.4390821 -0.5138688 -0.21018058 0.39022765 -0.8813521 0.77423483 0.3200489 -0.49345967 0.30968302 -0.88518214 -0.45349306 0.34347278 0.3281777 -0.5072866 0.51091087 0.15249631 1.574284 0.32074657 0.16365708 1.5307838 1.3333167 -0.42851228 0.41428116 -0.8917219 0.15314656 -1.6674849 -0.2934982 -0.6123771 0.5968904 -0.42364737 -0.15721887 -0.37858528 1.1347358 -0.20779727
142941 -0.11333293 0.5502193 0.655334 0.17566109 -0.5878563 -0.30585983 -0.68796486 -0.78457534 -0.0051936624 -0.15532842 -0.8725558 0.15075704 -0.46928275 -0.26828262 0.17484404 -0.17722295 0.21062975 0.023891946 0.41355675 0.7757133 0.21453318 -0.09757166 0.5311987 -0.6902378 0.39526972 -0.43199226 0.61830735 -0.24314469 0.025907684 0.3954268 -0.48479086 -0.12180028 0.4728417 0.3964299 -0.8846267 1.0350189 0.10107392 -0.4706647 -0.6473252 0.3954543 -0.09154001 -0.2117918 0.8788779 0.37900385 -0.08799695 -0.44211298 -0.36560646 -0.76742846 -0.23503143 0.39033756 -0.22968301 -0.660176 0.9245439 -0.67064744 -0.43994448 0.034299456 0.55374354 0.49574968 -1.2083687 -0.7166559 -0.2452473 -0.057196286 0.59634626 -0.36264738
141865 0.6656205 -0.07991695 -0.41189718 0.0063729594 -0.17683068 0.21801367 0.3230118 -0.99515665 -0.2714196 -0.7624844 0.18369845 0.028939152 1.020425 -0.43309572 -0.01930613 -0.19555795 0.227194 -0.54251504 0.7142297 0.4426129 0.55845845 -0.3784636 -0.17386125 0.092792064 -0.749328 -0.20596088 0.21074162 -0.53644156 0.7357476 0.72182816 -0.0054523754 -0.49790722 0.25152004 -0.0005377513 0.25778595 -0.20633644 -0.14544004 0.7768163 -0.21319869 -0.5667371 -0.23766932 -0.07284573 1.0652913 0.30114302 -0.23827082 -0.053868476 -0.46953598 0.34339327 -0.071463086 0.3421607 0.47390673 -0.45306242 0.29141405 -1.1527433 0.79497135 -0.053509265 0.64350635 0.06326139 0.35788593 -0.20644102 0.11941316 0.3608181 0.4015417 0.36477122
140984 1.0886265 0.38374546 -0.8640379 -0.22653466 -0.21429412 -0.8373144 -0.6631225 0.2634415 0.6153486 -0.69847345 0.3396554 -0.0037224593 -0.06412458 -0.41101742 1.3247362 0.67206454 0.24780762 0.63415754 0.5453135 0.090900004 0.36438474 -0.1550686 -0.9420728 1.4453729 -0.94688267 -0.010395454 1.3945482 -0.09064423 -1.4201856 0.725734 0.9094755 -0.8909762 -0.7080485 -0.12975834 -1.580233 0.8432196 0.10571941 -0.40544757 -0.25689846 -1.3043022 0.58253187 0.13632587 -0.26301426 1.294132 -0.59621733 0.4222028 0.8397854 -0.5928948 -0.13785854 0.2482426 0.8943039 -0.3254253 -1.2115636 -0.68648773 -0.9561784 -0.60706973 0.8411553 1.10822 0.09611749 -0.57743275 0.29792655 -0.83317024 0.75565946 0.5718247
142743 -0.027066099 -0.27467352 -0.36398274 -0.36907655 0.49561962 0.40430173 -0.85406595 0.13489461 0.16036554 -0.51466936 -0.14590842 0.6844674 0.3075564 0.5232323 1.416035 0.989715 0.11119117 0.54485404 0.21674435 -0.0059950175 -0.020869631 0.86493886 -0.44823706 0.4596465 -0.10636056 -0.041262828 1.1937 0.38205293 0.059626073 0.29002708 -0.17936754 -0.37689617 -0.767018 -0.13597095 -0.6621577 0.27843183 0.7048382 -1.2057105 -0.5528194 -0.8668283 0.13369861 -0.6958043 0.8038191 0.29620302 0.3006067 0.483597 0.98263675 0.07892336 -0.13620424 1.3282093 0.98468834 -0.35701686 0.34332952 -0.093590975 -0.5463281 -1.1266226 0.17741477 0.22915687 0.69307244 -0.5130393 0.40875044 -1.1054095 0.0012949182 -0.17486753
142141 0.38718086 0.03686741 0.5832419 -0.59384215 0.06678618 0.03748288 0.1841079 0.041774414 -0.2831709 -0.41305935 -0.6406716 -0.613618 0.60839146 -0.18144652 0.043157216 0.066615954 0.04301558 0.17322952 0.28474137 -0.15784572 -0.87507886 0.35384685 0.2376987 0.14218324 -0.7506034 0.4112098 0.23929079 -0.3532563 -0.19920437 -0.1338048 0.020377494 -0.39359358 -0.37555537 0.20387562 0.3487628 0.7631206 0.24530454 0.7004604 0.37581292 0.81306297 0.19917397 0.06165855 -0.21042764 0.55459815 -0.0019304883 -0.19693199 1.1201895 -0.3925316 0.13343395 -0.22150284 0.03185872 0.79386955 0.693666 -0.10237415 0.06968727 -0.37814516 0.2626055 0.47698423 0.043019023 -0.67472696 0.28605977 0.72046125 0.6025367 0.42714092
140363 0.43285748 0.36575246 -0.5021994 -0.12628445 0.17108949 -0.41974315 -0.36497554 -0.5419422 -1.005549 0.3963367 -0.5966059 -0.3473617 -0.0043775155 -1.0774878 0.7595078 -0.6044723 0.56124943 0.2764374 0.081827536 -0.12658103 -0.57042515 0.10910564 0.38912302 -0.26697302 -0.20445158 -0.3959001 -0.065776356 -0.07312995 0.029932048 1.1723325 0.33409595 0.1725619 -0.1514353 0.55758566 -0.66408396 0.4719302 0.41227806 -0.10387785 -0.14613292 0.14611976 0.2840209 0.09631097 0.4053168 -0.054527048 -0.08367101 0.20270976 0.8339334 0.3516325 -0.59604317 0.6395312 -0.37924117 -0.54375046 0.3723519 -0.1947225 0.6777132 0.41940817 -0.22545724 -0.60986865 0.25520867 0.5913715 -0.19445059 0.92037535 0.23451585 0.000443178
141562 0.5862313 -0.09505204 0.28701076 0.28380662 -0.2200266 -0.3310943 -0.17145091 -0.89767116 -0.30632606 -0.07686371 -0.08516941 -0.29975253 0.49030063 -0.38552007 0.6500235 -0.022271832 0.009356608 0.19647962 -0.02674129 0.45272914 0.29722753 -0.60661286 -0.5209838 0.19725879 -0.27007067 -0.31355044 -0.09465447 -0.30024415 0.59088206 -0.004228532 -0.3780821 0.08939613 -0.148098 -0.31803277 -0.4684817 0.4935386 0.3827316 0.0050330306 -0.81855136 0.7340832 -0.20756945 0.4964308 0.48912534 0.13959055 0.17984593 -0.17126483 0.348631 0.8509805 -0.25273216 0.2678615 0.21176364 0.50112814 -0.044698033 -0.665644 0.49315563 -0.8740257 -0.10642526 0.43741956 -0.6304006 -0.13217346 -0.3058356 0.5257173 -0.342517 0.06039188
148502 -0.46277523 0.37364167 0.012320656 -0.16561334 0.3863615 0.07587996 -1.1042931 -0.9238576 0.49483457 -0.036340732 0.08316755 -0.56914145 0.3414099 0.3323438 -0.43421242 0.089646235 -0.001493294 0.2529723 0.64633346 -0.13972332 -0.29838246 -0.3999986 0.4602041 0.9604736 -0.5451139 -0.5399421 0.09934205 -0.19177324 -0.16740745 -0.2043102 0.6289236 -0.16940057 -0.76488405 0.78258085 -0.17780028 0.360292 -0.1977239 -0.49729246 -0.23338558 0.2522973 -0.80264485 0.092771225 0.4337739 0.417187 0.28240398 -0.4933988 0.5938115 0.34957895 -0.96721876 -0.34765667 0.3719574 -0.4832444 -0.26858103 -0.23654792 0.5979171 0.1934012 -0.32833278 -0.02004052 0.41724142 -0.21440665 0.016907187 -0.23240532 0.044146337 -1.1540862
141303 -0.43167582 0.89374804 -0.26079506 0.21531548 -0.329085 1.0683081 -1.0714203 -0.16840112 0.13870807 0.29181626 -0.38380557 0.16620398 -0.10252593 -0.39460948 0.005082611 -0.29050252 0.19414684 0.5333366 0.51433593 0.32855427 1.0682315 0.072109774 0.777925 -0.49205038 -0.04722772 0.303273 -0.54453164 -0.24144493 0.23493783 0.025670545 0.045214694 -0.12593009 0.76021206 -0.31627312 -0.35322344 0.36702427 0.71442443 0.2646862 -0.056594804 0.15073717 0.6839489 0.61685187 0.6110556 0.2249113 -0.631462 -0.24028178 1.4150343 -0.00682366 -0.2337703 0.5278067 0.32534042 -0.091701366 0.13353704 0.056363095 0.9474062 -0.5223791 -0.008193686 -0.25763783 -0.34166357 -0.17816734 -1.1108576 -0.058122247 0.49817008 -0.009129922
142022 0.22089939 0.5862924 0.8880965 0.05337186 -0.5572043 0.32898384 -0.6269799 -0.06850914 0.90492684 -0.9702091 0.72893465 -0.35271996 0.38006818 -0.7937439 0.731231 -0.69606924 -0.25799686 -0.023941364 -0.4767933 0.1719414 -0.6660057 0.079238184 0.1676217 0.91117924 -0.6311315 0.20233323 -0.32071885 -0.4220767 -0.098448254 0.17031969 -0.36903566 0.44161186 -0.67705816 0.28160062 -0.40518546 0.582092 0.6647738 -0.052836746 0.47728166 0.6962864 -0.17710501 -0.9645886 0.07451627 -0.43876445 -0.31528428 -0.35586715 0.34735715 0.3089613 0.9374175 0.4608236 -0.09293325 -0.10960987 -0.3696269 -0.59310085 0.20043048 -0.62111413 0.34452036 0.47134185 -0.0056512873 -0.02079662 -0.48604786 0.97629607 -0.32969654 0.3336464
142435 0.7031321 0.21318386 0.3607217 -0.8702402 0.10122973 -0.094858065 -0.059542388 0.13325287 0.14384894 -0.09939594 -0.5193922 -0.31840268 0.39834395 -0.31973284 0.08586054 -0.1654773 -0.0011608135 0.027959729 -0.055778988 0.54078466 -0.25837624 -1.118781 -0.36768797 -0.5703023 -0.625858 -0.29469022 -0.08395011 -0.18422972 -0.0503921 0.034316894 -0.07385883 -0.036932316 -0.71040976 -0.08906782 0.12810671 1.1125113 -0.2948931 0.003999667 0.6308694 -0.18781754 0.6111153 -0.10702458 -0.3933995 0.44949377 0.0089842975 -0.055080727 0.35913447 -0.08319635 -0.39537755 0.42528045 0.8710014 -0.21349476 0.77657616 0.24467851 0.30331331 -0.082532495 0.684605 -0.027755963 0.41899955 0.30954435 -0.04077416 0.07365616 -0.23110504 0.098556966
142126 -0.2265785 0.8968777 -0.63073516 -0.07199269 -0.6161241 0.52886605 -0.3532779 0.5915059 0.5919589 0.018797731 -0.675054 -0.5018137 -0.07096791 -7.426897e-05 1.5331246 -0.8568897 -0.68570065 -0.45702487 -0.016183542 -0.21484189 -0.17745759 0.17280747 -0.48165032 0.48521483 -0.16191009 0.055227514 0.56339854 -1.2379575 0.84385604 0.20859721 0.50317574 -0.8291133 -0.39974704 0.8480888 -0.808668 0.2505119 0.407783 0.5031483 -0.04847695 0.3469049 -0.122092195 -0.30124933 0.07961868 -1.0142612 0.1457194 -0.31982478 0.98803884 -1.2155035 0.095507674 0.021124253 -0.06331365 -0.47917518 0.45347336 -0.5035367 -0.22659741 -0.6783178 0.06716747 -0.06675165 0.27526602 -0.41851687 0.13702337 -0.8376114 -0.49967963 0.33735228
140796 0.6977515 -0.047804587 -0.50304943 -0.47999868 -0.9456906 -1.2194649 0.27299246 -0.43543622 0.8471298 -0.121646605 -1.3001511 -0.09581166 0.5273887 0.7267921 0.21403849 -0.42313758 0.76021135 0.6324402 1.2730117 -0.24993005 -0.24908222 0.9667717 -0.44549203 0.44936535 -0.68296486 -1.2936487 0.14198212 1.5490556 0.7950543 -0.74406403 -0.35549116 -0.6716876 0.14119212 0.6553015 0.02770053 -0.25518033 -0.6542092 -0.5426579 0.7923703 -0.32057905 0.649605 -0.24771905 0.61626065 -0.25021416 -0.45876443 0.38961926 0.8040183 -0.3248474 -0.78651834 -0.31597325 0.079336844 -0.8905102 0.32350844 -0.90857583 0.72185206 -1.3156452 -0.77034193 0.7960836 -0.90383846 -0.7879884 -0.7427231 0.3295022 0.0942005 -0.45055372
141061 -0.39934158 -0.36428308 0.04118888 -0.32056782 -0.32863012 -0.5624094 -0.24300456 -0.3109501 0.23205732 -0.35015768 -1.4629823 0.7259969 -0.37790665 -0.72101647 -0.11546326 0.6087834 -0.25442323 -0.122526675 0.24030855 0.20331982 0.48687488 0.36826134 0.99608123 -0.21287656 -1.3104464 -0.025589695 0.57379836 -0.18892856 0.6082624 0.5594415 0.58312637 -0.23410723 0.08207572 -0.11053328 0.21023405 1.102486 -0.7110071 1.5005282 -0.4363057 0.22636925 -0.5929449 -1.576853 0.09821275 -0.9794215 -0.049780045 0.26254612 1.287037 0.40605414 0.42169455 -0.32145905 -0.113381945 -0.38483867 -0.21621592 -0.7732228 -0.24315159 -0.7930349 0.43174633 0.20752232 -0.41012427 -0.9901785 -0.54883295 0.73598003 -0.04429661 0.40715465
140575 -0.2593313 0.48555037 0.5528011 0.2655455 -0.35598394 0.48287502 0.05568941 -0.14292952 0.1461918 -0.0074496786 -0.47676075 -0.36185247 0.39090356 -0.40349102 0.15497233 -0.405053 0.28080782 0.3400171 0.40995184 -0.5628671 0.49023807 -0.87730694 -0.017922748 0.1231253 -0.7987257 0.30285037 0.44688016 0.64167637 0.1069205 0.2710566 -0.88256 0.79263806 -0.17218639 0.5458947 -0.49267614 0.5054073 -0.7843809 -0.14204876 -0.28067476 -0.36069253 -0.29070786 -0.30429545 0.14419073 0.20758231 0.21394616 -0.3626653 0.02354038 0.27602556 -0.7691644 0.20421813 0.3716891 0.038373448 -0.36682633 -0.032152325 0.3948407 -0.8069422 -0.4749632 -0.28733304 -0.21855754 0.05525143 -0.02130905 0.35200408 -0.49514836 0.21657664
148450 -0.37842748 -0.040401097 0.27206922 0.12062402 -0.5517091 -0.025173903 0.6601285 -0.42770985 0.35935858 -0.471503 -0.9555725 0.124662034 0.42579657 0.39579824 1.0686232 -0.23199031 0.20932077 0.39237437 0.86722755 -0.99443644 0.27013007 -0.062810995 0.3800618 1.2743397 -0.6008845 -0.40867123 1.3927811 0.9250049 -0.3009469 -0.30654353 -0.7468919 -0.522168 0.04878947 0.2420357 0.16892518 -0.09577847 -0.306525 0.48825207 0.7178939 -0.22726223 0.5913686 -0.56863713 1.0132443 -0.13147011 -0.79465604 -0.7819026 0.18971127 -0.2222798 -0.49480903 -0.1564479 0.122075394 -0.67653185 -0.020768734 -0.5259946 0.3478267 -0.6374931 -0.5496757 -0.33082357 -0.12520027 0.07428144 -0.23585024 0.016907798 0.11261182 -0.62307614
141560 0.15076469 0.17817293 0.70918375 0.704667 -0.2966016 -0.23755258 -0.8972468 -0.626637 0.3561569 -0.37388504 0.06436038 -0.12010078 0.66648966 -0.9145752 0.8825604 0.07520386 -0.14586982 0.09650337 -0.24021965 0.34767014 0.18847437 -0.76481557 0.28299364 0.3113475 -0.95074844 -0.30072492 0.35294062 0.46693486 0.77060324 0.21496741 -0.94356954 0.4632799 -0.90611994 -0.4935914 -0.7662314 0.4348579 0.69666386 0.14487518 -0.45954707 0.5644475 -0.75820327 0.1472866 -0.34681407 -0.21427895 0.05016539 -0.016648585 0.37531322 0.093124054 -0.6198876 0.1359265 -0.4780002 -0.22034453 -0.65858054 0.023306662 -0.16038178 -0.71738696 -0.6829111 -0.07730477 -0.21821302 -0.108046554 -0.36807808 0.6174835 -0.29203933 0.08343894
141142 -0.074329324 -0.064910136 0.017384654 0.4371945 -0.4241903 0.13397905 0.10212207 0.21083947 0.4495881 -0.11026145 -0.5063213 -0.03770553 0.60642695 -0.21204609 0.74945796 0.30172798 0.16947427 -0.03502101 0.40628007 0.6147739 -0.14741394 -0.5787765 -0.21179454 -0.4362501 -0.592877 0.3113636 -0.07373444 -0.46997678 -0.14688244 0.38712502 -0.76964974 0.19553815 0.15976381 0.78451866 1.0578116 0.28769287 -0.027439158 0.039553102 0.15021215 -0.04519451 -0.4961774 -0.20450476 -0.6407624 0.5950254 -0.1802153 0.87353766 1.3795925 -0.44164938 0.71122867 0.7410649 -0.26808625 -0.07958696 0.09900373 -0.3375473 0.97883487 -0.67475724 -0.19087501 -0.16957782 0.89225733 0.32460895 -0.115349896 0.10753202 0.24735518 -0.6692166
140345 0.050528377 -0.40385902 0.42520982 -0.88223636 -0.15552711 -0.16357732 -0.4810229 0.068163514 -0.776374 -0.33556268 -0.85529846 -0.6640337 -0.058072638 -0.6494352 0.17992893 -0.6738566 0.45801324 -0.37761647 -0.40591407 0.22524504 -0.91705024 -0.13400303 0.3524698 0.4767524 -0.71000564 0.06800808 -0.055670362 0.019183189 0.31629738 0.4016387 -0.81062454 0.048784208 -0.08915907 0.5083105 -0.4395371 0.6435148 0.80468047 -0.60132146 -0.042849474 0.0550741 0.6096291 -0.21032308 0.7705919 0.4430071 0.36223257 -0.10205777 0.21289153 0.2185422 -0.839882 0.84947157 0.11259049 -0.27039772 0.49210155 -0.5013694 0.4436665 0.39975777 0.28203797 -0.7770746 0.14575306 0.40059993 -0.44304264 0.5965724 -0.14962357 -0.14713752
141902 0.23502849 -0.25143698 0.22983055 -0.29048565 -0.35799518 0.09387684 -0.59364295 -1.0241493 -0.32005402 -0.36555237 -0.893731 0.0034872163 0.27288657 -0.8630044 -0.3867132 -0.2530236 0.09162262 -0.24453178 0.34077248 0.7965366 -0.48568985 0.54184437 -0.28256723 0.39613086 0.1491374 0.18531239 0.37094778 -0.2054126 0.114278406 0.884314 0.0053366823 -0.3387143 0.25987804 -0.25113317 -0.7683564 0.19523098 0.05262355 -0.15325804 -0.20051381 -0.7551802 0.43586236 0.85779214 1.3618487 0.44903845 -0.2308467 0.06710713 -0.009729163 -0.5052535 -0.31070566 0.34733075 -0.00044810693 -0.67229456 0.44359243 -0.27965325 0.4787985 0.11546981 -0.61048955 -0.05675656 0.042355776 -0.8143023 0.12833214 0.25850445 -0.13096966 -0.3497546
140667 -0.32581303 0.1481471 -0.9380921 -0.093056485 0.36396617 -0.8159614 -0.51712805 -0.75174785 0.83168525 -0.8223424 -0.10920754 -0.7556587 -0.64947426 -0.11150566 0.5580588 -0.18079543 0.5466819 0.8552119 0.11217188 -1.0572178 0.32536116 0.64099586 -0.29454973 0.016702302 -0.568623 0.9329459 -0.022114154 -0.6218945 0.6321963 0.41112167 0.15360647 -0.7900111 -0.13385618 0.40879688 -0.6235516 0.23056586 1.10322 0.62919295 -0.42237943 0.37658703 -1.0337094 -0.3967661 -0.27638474 -0.06270576 -0.43717027 0.08257229 0.16283545 0.5119711 0.2610942 0.1289737 0.23292944 -0.8276053 0.9248771 -0.3207159 0.30745777 -0.46682376 0.45850462 -0.29187343 0.05520752 -0.8303421 -0.23590049 1.0003008 0.06871172 -1.2316654
146767 -0.8234271 0.5131994 0.18060721 0.4350978 -0.33928564 0.22315015 -0.807238 -0.7401256 -0.13607986 0.21326579 0.027605345 0.4703369 0.116048016 -0.37186483 -0.096469365 0.041031875 0.69972557 0.68885773 0.41580588 0.31355304 -0.47717103 0.17099474 0.6105702 0.23635443 -0.042745166 0.34991473 -0.44651887 0.19605158 0.27288318 -0.3778319 -0.38554725 -0.32898536 -0.14918211 0.58270204 -0.3016582 -0.023691325 -0.08396103 -0.5258165 -0.3477014 0.68669695 -0.32896447 -0.5174676 -0.12500717 0.72548044 0.7311302 -0.29037654 0.2018501 -0.97855914 -0.8842512 -0.32554936 0.5454041 -0.4171008 0.33938417 -0.39817768 0.55333924 0.16431718 0.19968385 -1.1976616 0.9237541 -0.7525969 -0.037540723 -0.34182113 -0.5350119 -0.50214887
140798 0.17453587 0.74141604 -0.4549095 -0.39268315 -0.6593214 0.24664664 -0.5033152 -0.4817836 -0.1965802 0.11438302 -0.13473222 -0.34603882 0.07531669 -0.5917727 0.43513995 0.5712306 -0.8745066 -0.46875614 0.42716274 -0.08780806 -0.071990125 -0.171641 0.2223805 -0.19909008 0.14727533 0.101663455 0.3284615 -0.6089621 0.011338018 0.2185607 -0.30342627 -0.38985604 0.8279048 -0.56624883 -0.58529973 0.012718874 0.7324397 -0.118669085 -0.13430986 -0.3044863 0.6229943 0.17801906 0.43026242 0.24035355 0.16655561 0.5826167 0.19568376 -0.5194829 -0.80686617 -0.328409 -0.055155005 -0.22547947 -0.2682321 -0.21824023 0.6116834 -0.24242994 0.021292452 -0.09099412 0.53627545 -0.46767035 -0.31464076 0.26154065 0.18401884 -0.4277533
141801 -0.18994063 0.5693844 0.6875849 0.28493252 0.04439827 0.59238493 -0.15207312 -0.43472338 -0.18852489 0.35080245 -0.012457221 0.5209351 1.1689807 -0.038800128 0.5926095 0.8271646 0.41680622 1.4363207 0.479897 -0.045059778 0.09689476 1.1411811 -0.90561295 -0.006449726 -0.33936188 -0.28951663 0.35100552 0.043406323 -0.30023208 0.31239423 -0.39948666 -0.5340297 -0.9723871 -0.06877613 0.6153591 0.42320788 1.3133527 -0.21725659 -0.13284254 0.8602283 0.5023017 -1.2062432 0.029926555 0.11056769 0.0804984 0.4810603 0.7449819 0.23440233 -0.9622671 0.46966934 0.98022133 -0.23045558 -0.34682316 -0.11950198 0.55519366 -0.4171924 0.21245876 0.16700529 -0.28866348 -0.9359963 0.19097179 -0.7706944 -0.11440498 -0.366683
142488 0.78084517 -0.37497553 0.8409252 -0.022721676 -0.65653694 0.13393156 -1.0462571 -0.21064384 0.44680107 0.392708 0.6858293 0.026063992 1.2423958 -0.06656157 0.6593328 -0.5777472 0.705034 -0.66873217 -0.27655178 0.04197865 -0.44732487 0.17941262 0.8695639 0.3160184 -0.7150654 0.1079622 1.3504941 -0.1332943 -0.49433795 -0.36002883 -0.38893184 -0.8962598 -0.23718473 -0.15688302 -0.6135002 0.5252715 -0.45581225 -0.095998235 -0.12675571 0.034114752 -0.57902837 -0.31966797 0.084618196 0.33212554 -0.5290925 0.6157431 0.17430963 -0.91016746 -0.4042401 1.0866818 -1.2781446 1.0415187 -0.86106676 0.33869243 0.43124294 -1.036517 0.07323342 -0.4837899 0.23831424 -1.0423652 -0.051648047 -0.46563187 0.874571 -1.4976043
140216 0.11806631 -0.25927225 0.12594964 0.14107855 0.42328966 -0.15533774 -0.26538062 -0.6524815 0.94007653 -0.53895974 -1.183991 0.83264405 0.049938608 0.19484127 -0.06760384 -0.45239696 -0.39022395 -0.3194327 -0.17549716 -0.12620701 0.17176992 -0.18463708 0.19070514 0.12473522 -0.68077815 0.94672704 0.4577638 -0.20830297 0.0832405 0.08683191 -0.094766416 -0.14191549 -0.20854296 0.24298675 0.8644957 -0.3779953 0.0813939 -0.176891 0.3415584 0.07310489 0.74870807 0.15154722 -0.13383484 1.14937 0.10132036 0.5264162 1.3549197 -0.016886871 0.1399829 0.70253855 -0.1612423 0.19965382 1.0667741 0.04580799 0.58510995 -0.4884369 0.100375205 0.8340603 0.2941668 -0.12074617 -0.7933446 0.3122 -0.6840757 -0.96420574
140521 0.8444603 -0.4054835 -0.53664464 -0.16330844 -0.044115476 0.1150433 0.38755304 -0.7617049 0.5091724 -0.4169814 -0.4162646 0.2384255 0.65898395 -0.21369098 0.53239965 0.12197209 0.67202103 0.5740085 0.08238048 0.22022676 -0.002021772 -0.27516034 0.08984048 -0.061799843 -1.2139107 0.89230645 0.3617257 -0.45328206 0.31465352 -0.165053 0.1780046 0.30739316 0.6197775 0.11606401 0.18119475 -0.13510288 -0.32302794 -0.16656414 0.91620994 0.27818695 -0.4586761 0.4301545 0.20344916 0.6786216 0.7183029 0.30644786 0.7362811 -0.61395407 0.33016384 0.80149186 0.28834006 0.055669 0.7385874 0.22886312 0.39340195 0.0023834065 -0.07797517 0.36779225 0.60049766 -0.01336285 -0.18776025 0.012194631 0.9368761 -0.102498434
141013 -0.37077624 0.32463467 -0.0849448 -0.10571077 -0.37363452 0.22259846 0.095093645 -0.7035214 -0.5992157 0.32640564 0.36320224 0.08294305 0.74365973 -0.3784511 0.3101457 -0.07654985 0.66594684 -0.6826815 0.38142592 -0.341971 -0.2151296 -0.09289606 -0.010879024 0.20979674 -0.34569585 0.30737475 -0.5288209 -0.019819662 -0.008690796 0.6145666 0.3519864 0.30517223 0.62150663 0.10419958 -0.961455 0.3885971 0.6498147 0.15844958 -1.0394721 0.7153868 -0.21196789 -0.048533063 0.118409865 1.018788 -0.11021358 0.43372372 0.032898236 -0.5671925 0.14870276 0.16579679 0.40212312 -0.28037742 0.50183076 -0.40058306 0.3724825 -0.47317284 -0.19600597 0.2625231 0.25155246 -0.0050579077 0.014413863 -0.19123584 -0.42027703 0.19963627
142527 0.13008843 0.0137256645 -0.05798817 -0.24762762 -0.05731405 -0.014127141 -0.5046508 -0.26803344 -0.124524176 -0.037126392 -0.6057734 0.14902186 1.0112768 -0.74335945 0.11427282 -0.06884684 0.09221806 -0.3336126 0.46286055 -0.2618255 -0.27855706 -0.0077711446 0.13404992 -0.46139455 -0.20718503 -0.54379135 -0.090679064 -0.566009 0.11605366 -0.19220166 0.2950899 0.21627462 -0.26330778 -0.028676866 -0.88549805 0.36036626 -0.20410872 -0.13847551 -0.66397583 -0.7080142 0.09832823 0.81087214 1.4177144 -0.31459534 -0.020051809 -0.16288856 0.37374842 0.19538371 -0.096753605 0.42634848 -0.005594947 0.11444695 0.10134419 0.1363601 0.67584145 -0.1359528 -0.091057576 0.554261 0.1787912 -0.28655887 -0.007468543 0.29291156 -0.45319074 -0.07712305
142368 0.17881075 0.2542968 -0.8220613 -0.5469211 0.02940856 0.6741932 -0.07813047 -0.6545996 -0.018051302 -0.8756301 -0.44125962 0.15416718 0.26715237 -0.54178756 -0.1540623 -0.95821595 -0.25898626 -0.30776492 0.733513 0.33098477 -0.1590653 -0.003079749 -0.014863614 0.17587389 -0.46694487 1.0042908 0.7036974 1.0590347 0.8370727 -0.069873646 0.42458573 -0.59685624 -0.25911635 -0.68175054 -0.8461079 0.56349593 -0.18941578 -0.3215768 -0.6976042 -0.6593788 -0.36501738 0.2314736 0.9064065 0.53542405 0.56194496 -0.019712253 -0.34217474 0.19841003 -0.03836347 0.12315058 0.49230367 0.05364475 -0.15818071 -1.0386193 0.10831939 0.37640816 0.09252323 -0.082481846 0.19208527 -0.512993 -0.763933 0.15399688 0.37255922 -0.75968575
140911 -0.5605187 0.7005184 0.035017684 -0.91852486 0.49703112 -0.04881433 0.18695065 0.00070931076 0.6378638 0.27820665 -0.70022446 0.0333014 0.9466105 -0.63284296 1.1090599 -0.36915413 -0.09369345 0.17604996 1.2299509 0.24323761 -1.3642111 -0.80914223 1.0058137 0.4639012 -0.1177863 0.22954015 0.069161266 -0.20916845 -0.006896101 0.0075122137 -1.0069294 -0.8963673 -0.24230148 0.14826654 0.13638872 1.0041224 0.083043024 0.06003476 0.7937741 -0.083932735 -0.08713123 -0.27666843 -0.79901296 0.58243865 0.11203965 0.13244815 0.5445115 -0.1901924 0.21237776 -0.29255491 0.1961375 0.027022913 0.026365783 0.0847345 0.118174665 -0.31276 0.518143 0.58219993 0.580196 -0.31299046 0.24766995 -0.9752479 -0.48729447 0.12675112
141022 -0.8146909 -0.12294637 0.2318219 0.37223315 -0.8119053 -0.46943945 -0.25458038 -0.06559221 -0.8947119 -0.68300754 0.37099913 0.31654534 0.40453506 -0.003088102 -0.25588968 -0.16988397 0.022022447 0.8441074 0.9629131 0.67103875 -0.2871016 -0.14677827 0.17382 -0.19202696 -0.6324248 -0.37088153 0.21567887 -0.34653258 0.58485264 -0.9723056 0.45254594 -0.14267875 -0.24132334 -0.7016288 0.24463661 0.052436415 0.55065155 0.111428894 0.6707036 0.28867483 -0.22206074 -0.782748 0.92952806 0.32589436 0.5176688 -0.20765433 0.4600325 -0.6242796 -1.2071826 0.021124808 -0.11048411 -0.50448424 -0.12809579 0.23109171 1.0284114 -0.5414558 0.3860619 -0.6764952 0.41992393 0.17032984 -0.65621793 0.11519924 -0.05539157 0.1275813
147340 0.45663175 0.70036787 -0.4537037 0.2797117 -0.79540086 -0.22073089 -0.42657048 0.5383974 0.80446774 0.3936852 -0.7213588 -0.2634272 -0.035705123 -0.17822045 0.10489383 -0.847931 0.020573596 0.22125228 0.48726258 -0.5645292 0.2548058 0.31107563 0.33175156 0.63566655 -0.64508355 0.13408157 0.3467663 -1.6316378 -0.019816132 0.22696333 0.9261976 -0.3979811 -0.11046735 0.3888103 -0.6331004 0.52092177 0.5203773 0.9551255 0.47269148 0.12073784 -0.93971175 -0.50616044 0.16952012 -0.18070978 -0.31874993 -0.1291868 0.10631016 0.09085609 -0.33391473 0.6904234 0.6781919 -0.6735228 0.8333012 0.2955772 -0.2771406 -0.6562885 0.78542423 0.24707378 -0.10972141 -0.5707784 0.00010775785 -0.7211153 -0.5821007 0.14906499
142637 -0.25317326 0.5159103 -0.13716923 -0.071193054 -0.19562738 1.3474433 -0.100084454 -0.7183497 -0.6487119 -0.50577587 -0.8547137 -0.17220776 -0.05371904 -0.010315899 0.30497006 0.23018134 1.5016212 -0.46820363 0.45345283 -0.052841656 0.67231965 -0.75189567 0.4442301 0.15933046 -0.5758568 0.2363729 -0.021285076 -1.2229245 -0.7865798 -0.53487384 -0.20263739 0.28611565 0.10406892 -0.12878622 0.39288962 0.8083042 -0.115654856 -0.52278614 -0.2770212 0.0660794 -0.18842481 0.5055722 0.31132895 0.31805053 -0.39376822 0.16809988 0.015103564 -0.8919614 -0.54013205 0.71136916 1.0021411 -0.9863671 -0.30848902 -0.86189395 -0.17097777 0.12601347 0.3651875 0.5135923 0.27865517 -0.8482297 -1.2172529 0.46216422 -0.7326546 0.14094344
141411 -0.18062386 0.11890946 0.2434558 -0.085058555 0.14439626 0.37055835 0.22077233 -0.73203987 0.4603255 -0.25049147 -0.34303373 -0.039559484 0.39115614 -0.9995062 0.13350713 -0.34121346 0.7257003 0.29980004 0.40681338 -0.009041305 -0.20393059 -0.6653821 -0.0153336385 0.44608948 -0.048310403 -0.80933726 -1.0012308 -0.36203966 -0.2940071 0.17250212 0.5259472 -0.62717813 -0.38155973 -0.38458535 0.09425461 0.28409216 -0.58701766 2.4575302e-05 -0.90185714 -0.04977401 0.3405718 -0.51887393 0.7646877 -0.18537442 -0.028939024 0.66292787 -0.26687708 -0.0034930508 -1.2917647 0.5047546 0.16979751 0.20406201 -0.21123499 -0.75507724 -0.45683232 -0.44537535 0.19589865 -0.20125501 -0.02608124 -0.10045771 -0.18987778 0.39649165 -0.25125223 -0.44325036
141916 -0.12830107 -0.7955235 0.23587336 0.56225216 -0.29574716 -0.24056555 -0.94402647 -0.9693676 0.010674639 -0.09406266 0.13895303 -0.04300466 0.24435067 0.9128606 0.64528716 -0.25360274 -0.034845088 0.80463856 0.19214357 0.102099515 -0.6914814 0.15573086 -0.28068855 0.37115562 0.1005022 0.1634527 -0.31809983 -1.0546688 -0.32695982 -0.40417278 0.34929612 -0.31676275 -0.70984244 -0.44781592 -0.5539817 0.3442916 -0.39136374 0.054992374 -1.0196667 0.7718671 -0.43852642 0.0142422775 0.19211188 0.8740809 -0.27670485 -0.6156033 0.44548082 -0.504895 -1.1336015 0.50069207 0.49137694 -0.7124611 -0.24601011 -0.3878815 0.44393364 -0.10585698 -0.1356958 -0.5733932 0.37082464 0.14184572 -0.117750295 0.27587804 0.20568548 0.3116507
144855 0.23970595 -0.10500121 0.2771701 -0.6577051 -0.008304647 -0.031539913 -0.24841066 -0.012331889 -0.284332 -0.04066406 -0.35942805 0.030120375 -0.27849537 -0.708131 0.6391255 -0.62904024 -0.38926333 -0.1955389 0.105264865 -0.53137463 0.024171393 -0.15066521 0.73182684 0.105497696 -0.23647289 0.18927376 0.0558844 0.060642604 -0.50838524 0.06592269 -0.77085865 -0.50563365 -0.94001764 0.4532357 0.6237863 0.5552156 -0.5495128 0.15869474 0.23504439 0.38201943 0.23531699 -0.25241643 -0.30231214 0.3477399 0.15512963 0.4971552 0.74115396 0.18200475 0.49612013 0.17832029 0.39660588 0.09097624 0.83798695 0.3036962 0.022295129 -0.62908727 0.49765992 0.31058323 -0.087950855 -0.29651985 -0.5199896 -0.09209198 0.4909291 0.1158504
142039 0.28915057 0.31966347 -0.29497564 0.038542572 0.41701683 0.28757757 0.22126105 -0.8111044 -0.14904848 -0.8139027 -0.150077 -0.522222 0.61531115 -0.91965634 0.05634782 -0.23376462 -0.14617653 -0.50185764 0.68301225 0.10750905 -0.08706911 -0.4886839 -0.16040593 0.036996912 0.16819142 -0.13455944 -0.22110328 -0.57481277 -0.015324755 0.77579856 0.48654035 -0.6514836 -0.035712056 -0.21251713 0.5588711 -0.4730525 -0.08706512 -0.089228414 -0.27777973 -0.5423475 -0.23848447 -0.14301732 0.52031416 -0.087615006 0.11263864 -0.44742724 0.29459327 0.65001273 -0.28313297 0.0967226 0.5144495 -0.3530848 0.10832289 -0.7001143 0.57223076 0.04294369 0.37206614 0.40812615 0.2716679 -0.5409523 -0.4438302 0.04592159 0.37440127 -0.74120295
140630 -0.8777137 -0.18505903 0.7364993 -0.57766944 0.27518097 0.064581394 0.14356345 -0.24564214 0.28830475 -0.6120334 -0.5041259 -0.38641992 0.4022131 -0.11684249 0.8882241 -0.24046488 0.07613874 0.4898206 -0.3030495 0.40063247 -0.26947352 -0.4049728 0.20908508 0.32903436 -0.31541792 0.12301218 0.25687957 -0.10261377 0.08823545 -0.14799541 0.045627993 -0.012832786 0.034899462 0.18860938 -0.16099979 0.37795988 -0.038462464 1.1972463 0.5904767 0.15626524 -0.2661191 -0.020166412 -0.20312446 0.2831997 0.77523875 0.87994707 0.5624913 -0.53091395 0.259972 0.2209879 0.31804648 0.024180984 0.5963592 0.42429417 0.45941335 -0.22691987 0.4027461 0.08668567 0.23460558 -1.2114449 -0.49388084 0.6454718 0.6638185 0.16469651
140787 0.79943186 0.26397282 0.32559964 -0.35664064 0.0913906 0.31639948 -0.11441356 0.15248819 0.20158646 -0.32447028 -0.56219643 -0.2557356 0.2495228 -0.052724216 -0.37234798 -0.10277905 0.18696028 0.23941521 0.30653185 1.1806908 -0.49786368 -0.53860617 -0.40509954 -0.9260561 -0.81441534 0.08423722 0.6756579 -0.044000085 -0.44886813 0.20902114 -0.07323176 -0.3652264 -0.50715333 0.2989835 -0.06565413 0.11363235 0.1296918 -0.19916525 0.36978173 1.1094549 1.0002767 -0.31913406 -0.15249181 -0.07183066 0.7435435 0.16414185 0.3189475 -0.2291865 -0.077685714 -0.2021411 0.38007325 0.04365606 1.0314051 -0.18242429 0.36582768 -0.5421428 0.38862646 0.69409305 0.7194501 -0.067843445 -0.30273062 -0.022723429 0.21691626 0.55568814
141582 0.36580744 0.14870256 -0.5434225 -0.19034961 0.264694 0.14333229 0.36584872 -0.50159305 0.22268201 -0.3452407 -0.55662113 0.3159517 0.76184386 -0.57227457 -0.24627022 -0.17553441 0.18087949 -0.52021503 0.8935057 0.917604 0.66127646 -0.9213004 -0.5436138 -0.015868872 0.09370185 0.08057057 0.5256842 -0.21530974 -0.111939706 0.81291956 0.06178344 0.25004423 -0.11540201 0.3898871 0.46225995 0.036597043 -0.40578333 0.3188896 -0.17712164 0.20674841 -0.13142675 -0.0038172174 0.45199138 -0.009605474 0.059661694 -0.02961452 0.03710455 0.1422191 0.02093479 0.42914924 0.14697358 -0.46700817 0.9159055 -1.0057448 0.4750806 0.17424221 0.30286574 0.22440699 0.6033244 0.03514118 -0.44210052 -0.13267398 -0.58346987 -0.736463
140748 0.4642209 0.30500796 0.1628017 -0.110843495 -0.96000713 -0.116561666 -0.027781604 0.30331445 -0.92612636 -0.10271207 -0.6805168 -0.045870293 0.26761624 -0.2959404 0.5487907 -0.020061933 0.6670049 -0.21491346 0.35077026 0.015578223 -0.054768223 -0.21251327 -0.074268535 0.72428787 -0.62000334 -0.061637376 0.27743888 0.036216643 0.046781156 -0.0066130687 -0.26691487 -0.48817235 -0.11799636 -0.7706944 -0.04608592 0.14453046 0.48360768 0.05744258 -1.0459168 -0.0076515432 -0.2211408 0.6187702 0.6750565 -0.2108511 -0.48359415 0.5428494 0.26002496 -0.05029958 -0.49682778 0.42478526 0.5704243 -0.19885321 0.36225694 -0.5444963 0.16027504 0.49580187 0.25642556 -0.44844425 -0.46335074 0.058062535 0.21720642 0.58653915 -0.15745065 0.058589146
141729 -0.023748953 -0.072363354 -0.9781928 0.22778414 0.6865527 -0.14185227 -0.66163117 -0.22407438 0.7986979 -0.8195714 0.5094652 -0.9854982 1.0242358 -0.97280097 0.5771143 -0.5376037 -0.08105489 0.5197126 0.36298847 0.22925466 -0.082229115 0.30700263 0.5148182 0.40631133 0.04188734 0.17333406 -0.3664421 -0.2960753 -0.27014577 0.0030494807 -0.31772184 -0.47960415 -0.15044662 -0.41130394 -0.20774333 -0.085973665 -0.42230332 -0.4213345 -0.8180507 0.13575834 -0.42936453 -0.9463372 0.065596454 0.09153157 0.119141 -0.64349157 0.9244951 -0.09126119 -0.63207144 -0.38169283 -0.080176696 -0.44329375 0.6994388 -0.019806385 0.31830904 -1.0122874 -0.12486199 -0.10408829 -1.2222202 -0.30111277 0.26660997 -0.5153962 0.12185881 -0.25107548
140933 -0.59373367 0.7272076 -0.31369868 -0.55668384 -0.078068204 -0.19510211 -0.32407105 0.5008837 -0.5196457 -0.60895973 -0.46680444 0.49070916 0.051061265 -0.80269665 -0.39924702 -0.22684509 0.32764715 -0.37582198 0.8984459 0.2237008 0.6893813 0.443643 0.41786674 0.25054896 -0.51888674 -0.102589294 -0.2600568 0.5028727 -0.35408127 -0.53397864 -0.34105435 -0.6832776 0.18583138 0.27000314 -0.5690119 0.32878497 0.4768441 0.11983621 0.7204599 0.7873484 -0.23466438 -0.6204582 0.63034976 0.35435194 1.0547564 -0.71793115 0.85638154 -0.8907573 -0.1868294 0.5390138 -0.44734025 -0.055559516 0.5275108 0.09519245 0.6557731 -0.5221049 0.22356045 -0.91650546 0.018782532 0.81608313 -0.9060358 -0.04388583 -0.023708697 -0.3349877
