789 64
4199 -0.16402186 -0.14456868 -0.78143793 0.23188697 -0.09889897 -0.17320915 0.027263451 0.3978227 0.9995409 0.13192426 0.44638804 0.3184399 -0.27998728 0.122348815 0.3559567 0.19578418 -0.2321448 -0.28612372 -0.057384644 0.29658124 0.36688176 0.58467364 -0.3573288 -0.32079828 -0.074673064 0.20609352 0.3478181 -0.7059563 0.7894411 0.41545445 -0.047608405 0.5399598 -0.24719451 0.27469152 0.03754532 0.9748514 -0.18680674 -0.012297204 0.09304778 -0.3444108 0.1188052 0.2473207 -0.17247917 0.37168527 -0.34466752 -0.035629462 0.71882373 0.38397127 -0.14229728 -0.058255117 -0.47038442 0.4503815 -0.0890336 0.30329803 0.27380055 -0.20424631 0.3019606 -0.1376592 -0.2390418 -0.059216682 -0.36637944 0.36797312 0.15296817 0.3289563
5547 0.36045918 -0.31823424 -0.120908365 0.0520447 0.109971836 0.058738716 -0.9895968 -0.013000156 -0.038084477 -0.045221124 0.3695936 -0.3005083 0.513758 0.4488521 0.6204595 -0.62077737 -0.34555292 0.6592133 0.5099725 0.67190343 0.06839576 0.19270588 0.015198752 0.4257772 0.20038724 -0.15827571 0.07451197 -0.31249514 0.5193241 0.055724535 0.6284971 0.07406639 -0.42503104 0.65342706 0.16658434 0.052935038 -0.19100459 0.31927446 0.064374134 -0.25401813 -0.22399856 -0.10686859 -0.30931345 0.019403415 0.41103965 -0.47789654 0.12775697 0.46136898 0.1408142 -1.0622488 -0.11703771 -0.5070883 -0.3882736 -0.61123407 -0.48437068 0.094858594 0.6498966 -0.81839246 -0.21729279 -0.43019164 -0.5374423 0.6505194 0.5847519 -0.67751837
3174 0.4349036 -0.4803604 -0.23639515 0.3264198 1.006139 -1.1537268 -0.74864 0.0055652214 -0.037856538 0.26789808 -0.34516704 -0.12408733 0.6544253 -0.9418643 0.19717686 0.73447543 -0.066865124 -0.33929673 -0.20422041 0.4918735 0.10447796 -0.05223257 0.49845824 0.7469562 -0.21657927 0.058723014 0.8290166 -0.92642236 -0.21469922 -0.10333478 0.10012496 0.21739231 -1.1138948 0.692711 -0.102163516 -0.29270232 -1.0830704 -0.5614425 -0.33399683 0.039945643 -0.9300636 0.85328573 -0.88326365 -0.48379382 -0.09318473 -0.11632797 -0.7907515 0.42105952 -0.097524606 -0.5923987 -0.99410164 -0.17976096 0.08916801 0.25475067 -0.14924398 -0.68596566 -0.26216814 -0.45834127 0.525758 0.2489822 -0.84517974 -0.26690358 0.29821917 0.41153216
5330 -0.28410834 0.2600117 0.3786331 0.34068975 0.47503355 -0.45472315 -0.76291573 0.13718174 -0.22612669 0.49824566 -0.08824289 0.028926352 0.12199051 0.53749245 -0.10309855 -0.03141754 -0.6125274 -0.64135075 0.35061944 0.54209524 0.2660391 -0.73067427 -0.48812497 -0.4047032 -0.01652129 0.08337826 -0.22827624 -0.7195486 0.8652026 0.42728627 0.07587236 -0.041254412 -0.61791885 -0.0544292 0.38410184 0.24120884 0.027330652 -0.13590546 -0.23978043 -0.21462722 -0.8391384 -0.97105813 0.44095665 -0.09717482 0.18999033 -0.04655551 0.121019766 0.22444533 0.6199999 0.10256268 -0.79214597 0.15062833 -0.061049506 -0.16352092 -0.15641381 0.159875 0.06124304 -0.16098943 -0.10799717 0.12380397 0.2931057 -0.408992 -0.497843 0.37606975
4443 0.20558347 -0.1849317 0.37817365 0.7837273 0.46832532 -0.01179886 -0.22509865 -0.016799912 0.21680857 -0.08585126 -0.25474837 -0.122304834 0.21136136 0.51549995 0.478838 0.12768938 0.021421054 -0.25760663 0.42785278 0.75385064 0.75565386 -0.19983205 -0.43735597 0.014725391 -0.2505918 0.030132841 -0.08765271 -0.47257796 0.49936843 0.75648415 0.036684953 0.67712986 -1.004784 0.49087808 0.5628427 -0.065742284 0.055423856 -0.058591846 0.6326674 -0.21719794 0.37661844 0.06401087 0.03296626 -0.09488751 0.16987102 -0.061062045 0.46267596 0.14641976 0.5120368 0.5149257 -0.7470726 0.36301577 -0.12929586 0.2735625 -0.3370691 0.1424472 -0.3200632 0.42553064 -0.10809173 0.7287318 -0.03941241 -0.4072063 -0.3800427 -0.12791488
5234 0.16718832 -1.0233812 -0.36566797 0.16738461 -0.17590643 0.2281621 -0.78484917 -0.04386667 0.14313033 0.04895047 -0.24404897 -0.058945514 0.5528753 0.1557899 -0.24757479 -0.032462474 -0.2344931 -0.08812988 0.43296042 0.6638452 0.20254752 -0.25060934 -0.35253015 0.04059454 -0.4255439 0.44044146 0.28106174 0.13219854 0.25824082 0.14171751 0.11987801 0.2952665 -0.18805501 0.12373795 -0.44391504 -0.45472533 -0.46723163 -0.02201697 0.47961536 -0.7098695 -0.20872833 -1.0147501 -0.12910825 0.26709822 -1.0123394 0.6155481 0.97353774 0.4580406 0.7097269 0.18750745 0.013499362 -0.03891133 -0.22638349 0.75298774 -0.5402499 -0.60200894 -0.5166974 -0.08047511 0.79064965 0.008168662 -0.27796602 0.0020913891 0.30597422 0.33311936
5453 1.1963649 0.16810055 -0.19443534 0.30803964 -0.033884827 -0.7182567 -0.6035417 0.45755234 -0.12215868 0.2358299 0.005609603 -0.021525262 0.23113394 -0.069740966 -0.023289226 -0.2192375 -0.57891136 0.38082045 0.23377113 -0.41479024 0.5010184 -0.04049448 -0.39389023 0.30610356 0.031804137 0.12076216 0.16769518 -0.2741742 0.113116734 0.51347935 1.0981686 0.49639788 -0.7129802 0.17043678 -0.20496756 -0.37361914 -0.97179675 -0.388309 0.15978044 -0.18031377 0.08419185 0.037576206 -0.07319543 -0.17378557 0.5579863 0.12339017 0.4421443 0.21856882 -0.065894 -0.8395913 0.6672178 0.7337304 0.23997763 -0.46175835 -0.48367828 0.50785536 1.0884656 -0.6999137 -0.37798113 -0.10840597 -0.3095313 0.32338235 0.3829224 -0.010976231
3303 -0.27650973 -0.6860318 0.3014044 0.50050133 -0.64351684 0.6309325 -0.2983419 0.62584823 -0.22333357 0.21952355 -0.11356992 -0.43610495 -0.200403 -0.30979392 -0.44822094 1.1022795 -0.41386726 -0.35791567 -0.089982435 0.5300515 -0.21885143 0.30729467 0.04643532 0.7171715 -0.16938002 0.37812495 -0.49867183 0.15918718 -0.662576 -0.14968511 0.394204 0.80695504 -0.9608863 0.21708119 0.23742871 0.16303697 -0.47499016 -0.38980234 0.5370741 -1.180336 -1.0711623 -0.41960514 0.35049948 -0.56273866 0.47415927 0.2911765 -0.11007674 1.0177562 0.7295652 -0.15006448 -0.9457765 0.22587276 -0.5390331 -0.07627942 0.5978391 0.91411716 0.9762305 -0.18241172 -0.32336286 -0.93933517 -0.12685303 0.12872836 -0.09390625 -0.16269816
3164 0.15713413 -0.96219766 -0.34645325 0.25957415 -0.15314691 0.38655958 0.08693166 -0.13951533 0.024995692 0.117589295 0.44647112 0.3356643 1.4044911 0.0834749 0.52236265 -0.06613329 -0.018245535 -0.6264691 0.6220665 0.35351843 0.20600137 0.27056623 0.1475101 0.07375644 0.2061833 0.82800555 -0.023830272 -0.44547552 0.1251281 0.35972652 0.43929073 -0.15726425 -0.12619333 -1.0438361 0.09549557 -0.12516926 -0.5342087 0.00978869 -0.013046019 0.09035719 0.12723446 -0.39174476 -0.06115091 -1.2004758 -0.16968104 -0.19004238 -0.29904884 0.29437676 0.53050834 -0.2175928 -0.16729017 -0.35773858 -0.35499954 -0.29357582 0.4545876 -0.44088182 0.5241693 -0.5286081 0.21710517 0.25417337 0.058570992 0.2835363 -0.54460424 -0.024458751
3421 -0.39091933 -0.6742643 0.20117837 0.9311362 0.7290913 -0.17558806 -0.8717483 0.61555064 0.16827838 0.48279738 0.54385346 0.6441038 0.15607947 0.2749766 -0.28236276 0.039730806 0.17266133 -0.7186708 0.3879489 0.55838466 0.42421347 0.563616 -0.097469375 0.39449355 -0.71634907 0.21354893 0.65766454 0.0514025 0.2405451 0.7388214 0.32909817 -0.081320055 0.16806836 0.42829314 0.36742505 -0.6155425 0.14356148 -0.15569901 -0.31185123 -0.71445197 0.2840281 -0.53641194 -0.3803891 0.00079377496 -0.29524192 0.38302317 0.27605867 -0.1757442 0.43939832 0.27563268 0.20502229 -0.4244996 0.31222767 -0.17479926 0.08575724 -0.08652891 0.27093557 0.124300115 0.41649866 -0.7533375 0.18697819 -0.044624534 -0.20739003 0.4181143
4201 0.29083407 0.15569307 -0.1603865 0.27620825 0.1927274 0.6080472 -0.14461735 -0.35375082 0.32320023 0.056982946 -0.4140467 -0.49382997 -0.30245268 0.034017567 0.30837557 0.029657284 -0.2333711 -0.53150076 0.42582613 1.8916973e-05 0.90313584 0.529806 0.3121573 0.36375922 -0.44261587 0.131203 0.6573899 -0.60647684 0.73840004 0.73555857 0.6336276 0.3164088 -0.10674142 -0.07212846 0.7179792 0.0059260353 0.0606983 -0.07980766 0.105069794 -0.39703026 0.09516386 -0.011044589 -0.82942724 0.25792727 -0.2713393 -0.24139825 0.31171015 0.37103286 0.10116515 0.035869908 0.24583891 0.3963447 -0.28411528 0.17824313 0.08938236 0.134082 -0.3419309 -0.2031328 -0.3163111 0.06743208 -0.3685935 0.16547595 -0.34745112 -0.10795747
3170 -0.53789705 -0.4403524 0.22576237 -0.35041547 -0.11617699 -0.038572997 -0.7689708 0.46389243 0.15762843 0.17597061 0.2885835 0.023747649 0.1360346 -0.22835657 1.0003697 -0.34768665 -0.45689362 -0.12178087 0.6738732 0.3362388 0.23214342 0.28185025 -0.33172983 0.08955279 0.7401551 0.18050721 0.23238523 0.09449484 0.5346884 0.28004092 0.11442647 0.30971685 -0.24464884 0.073340245 0.41393617 -0.073599316 -0.6641499 0.3201076 -0.72091573 -0.17404415 -0.26213318 -0.48003596 -0.43138292 -0.27207196 0.38352606 0.006821015 0.46964914 0.43592444 0.16279638 0.025308542 0.15516885 -0.17465888 -0.20707159 -0.30349812 -0.29948717 -0.5798414 -0.24468134 -0.18063073 0.47659007 -0.48637903 -0.06935536 -0.0026429314 0.6432574 -0.38241798
5108 -0.68545574 -0.21801424 -0.61870193 -0.29852876 0.14053188 -0.3349819 -1.0164117 -0.75278574 -0.39478052 -0.50808465 0.023284594 -0.59266335 0.11706574 -0.34758362 0.037971478 0.9085144 0.2246622 -0.6484115 -0.19008602 0.7667805 0.18468732 0.30719683 0.14106427 -0.3116644 0.03694927 0.069554 0.2537005 -0.95515686 -0.31701645 0.28190723 0.34473372 0.51398766 -0.346375 0.186362 0.51958233 -0.52711636 -0.6636049 -0.47038844 -0.13790838 -0.6098632 0.45642483 -0.91370624 -0.40710682 0.12772083 0.0002351213 -0.81276333 -0.048647396 -0.065914996 -0.03556736 0.41928664 0.40949017 0.044572122 -0.033079427 -0.03707479 -0.024639886 0.49678656 0.9515813 -0.12390477 0.4990374 0.02521832 -0.5717025 0.0038207828 0.061515156 -0.33703375
3314 -0.37938246 -0.45454386 -0.13264029 0.7707875 -0.020963853 -0.32856998 -1.1019099 0.23624715 0.1529354 -0.4108703 -0.42809677 -0.3247967 0.86737305 0.3720128 0.30607137 -0.2500315 -0.6291144 0.75679845 0.63111395 -0.3447131 -0.34748226 -0.32420442 -0.449935 0.30155507 -0.8685039 0.5633307 -0.27963176 -0.023674853 0.83614504 -0.029764887 0.93205845 0.17153995 -0.94139194 0.48234034 -0.78888047 -0.43371862 -0.23131858 -0.5669198 0.11104238 -0.12567331 -0.007840305 0.2315493 -0.66959614 -0.2774231 0.64273787 0.28293273 0.06937835 -0.15991282 -0.27243653 -0.66706395 0.19685325 0.22539347 -0.037649862 -0.94316447 -0.028584572 0.1194876 0.98273224 0.03368172 -0.027997691 -0.7266321 -0.7222704 0.6166564 0.27060768 -0.2824379
4578 0.03134594 0.1609126 -0.6367087 -0.2916118 0.32506663 -0.06892332 -0.24196205 0.8020872 0.26147988 0.33196038 -0.1689828 0.23980719 0.36000654 -0.88760144 0.6717777 0.794516 0.22182092 0.08685957 0.13084878 0.7033335 0.39424407 0.5206359 0.21409082 -0.32777423 -0.8762341 0.87777793 0.037441388 -0.8204724 0.65167737 0.62563723 -0.08791458 0.34131563 -0.24399352 0.24318013 -0.31032196 0.56389046 -0.0024813171 -0.28927898 0.19766715 -0.786446 0.45236003 0.5081862 0.31239694 0.19651929 0.12342467 -0.09629716 1.1393578 -0.04652016 0.34592846 -0.11460119 -0.31390038 0.23433635 0.36138085 -0.037259825 0.7368768 -0.44428092 0.66356707 -0.9549876 -0.5725645 -0.20215063 0.5091881 -0.024840835 0.44181272 0.5720964
4200 0.1974512 0.1521798 -0.5432182 0.1636218 0.4767783 0.8454854 -0.2841328 0.07925397 1.0097972 -0.5900053 -0.11667488 -0.018207394 -0.70557356 0.18024482 0.4364567 -0.22287835 -0.12443246 -0.060167015 -0.36897597 0.29604024 0.841902 0.45690656 -0.056602407 -0.25369155 0.027883206 0.57560974 0.7536478 -0.47149202 0.30750832 -0.48880363 0.08165006 0.37607208 -0.6553447 -0.19621907 0.24796899 0.35264966 -0.068518564 -0.56910473 0.18106852 -0.16444346 -0.26954657 -0.44062355 -0.5749653 -0.39592916 -0.3233545 -0.064216614 0.32965612 0.17762446 -0.003281053 -0.26365092 -0.3968395 0.30500224 -0.048072677 -0.38144016 -0.21133722 -0.05055473 -0.17988692 -0.46407238 -0.382297 0.24337214 -0.6384025 -0.08485163 0.112248145 0.7176371
3470 0.34486005 -0.16878542 0.13182333 0.5676792 -0.42232805 -0.02443781 -1.2960442 1.3834035 -0.42129987 0.30225945 0.38113016 0.6271083 -0.31718808 0.0059109866 -0.25319707 0.35737994 0.50145704 0.38736722 0.47068033 0.64021844 0.38085058 -0.24293587 -0.6177413 0.57411987 -0.48757282 0.37910503 -0.3273287 -1.1786592 -0.2057207 0.71547997 0.39650264 -0.23386882 0.005736295 -0.9517405 0.097078 0.15385768 -0.3009274 0.38098708 -0.505814 -0.85012263 -0.009302713 -0.94285625 -0.28044933 -0.8019356 0.48920664 -0.21330893 -0.47743672 0.24668786 0.37129438 0.502772 -0.4817931 0.22884566 -0.3919024 0.7860895 0.21490978 -0.423142 -0.2617994 0.238948 -0.05830772 -0.1749924 -1.4719441 0.12730774 0.7927323 0.46135288
4713 0.15197 0.08551523 -0.3704789 0.012839517 -0.3224821 0.35470742 -0.073298424 0.14038113 0.593693 -0.74451494 -0.30826345 0.32002598 0.38723603 -0.42307663 1.1463327 -0.091855206 0.48888105 0.3427552 0.20780662 -0.15769266 0.16731183 -0.001622683 -0.15148148 -0.23281795 -0.50947577 0.739809 1.1062858 -0.33730966 -0.11735388 -0.10412233 0.055573422 0.3690657 -0.4593935 -0.20155753 -0.16586503 0.20688817 -0.6474224 -0.5313925 -0.34996602 -0.1533881 -0.39594638 -0.7320052 -0.24721384 -1.0902258 -0.87294686 0.011571667 0.04348439 0.6081602 0.15465046 -0.21316545 -0.6042254 0.14454973 0.37925678 -0.55399907 -0.028728725 0.73941076 0.44439605 -0.79346865 -0.062398687 0.6905057 -0.25908753 -0.5615942 0.10064758 0.07172991
4939 -0.042116687 0.11015827 -0.5508544 0.47559464 -0.04903449 0.37145296 -0.5349965 -0.6245105 0.3155126 0.5685537 -0.43295848 -0.15345198 -0.6815831 -0.6117509 0.3449812 0.18857642 0.24847041 0.14776692 0.84836674 0.86227316 0.15578954 0.89030766 -0.32244554 0.020973366 -1.0133241 -0.48117784 0.66934717 -0.920442 0.8894031 0.12224256 0.723761 0.22730955 -0.6334849 0.44011125 0.39123496 -1.1367359 -0.3356501 0.11883344 0.27927062 0.05694237 0.19242977 -0.16360633 -0.9374623 -0.5508546 -0.13988909 -0.14468418 -0.03060537 0.6441637 0.45016706 -0.7337347 0.33022606 0.4205772 0.09541415 0.7246706 0.856425 0.18252693 0.22777903 -0.14545025 0.07912621 0.03753181 0.33580396 -0.014985177 -0.7325201 -0.3294885
5531 -1.0298358 -0.38515586 -0.06565977 0.100200824 -0.10141771 -0.36199304 -0.6745091 0.46711847 0.3391407 0.72736925 0.09698333 0.4458614 0.4000054 0.7241484 0.21341653 0.049232665 -0.45746258 -0.18992363 0.5485014 -0.005983033 0.7736657 0.13438109 0.5226804 0.5442529 -0.3906241 0.5915846 -0.29492018 -0.5192519 1.1406184 0.5938113 -0.2451806 0.23100339 -0.24374805 -0.4336003 -0.19116084 -0.7634423 -0.60992694 0.17288905 0.024088873 -0.23251732 -0.41351658 -0.47829 0.5648313 0.6459729 0.058718834 -0.41254953 -0.6830988 -0.038615182 0.48917207 -0.25595418 -0.76269513 0.56409836 0.41817117 0.12314795 -0.5635135 0.46856385 -0.43442446 -0.7451761 -0.0709099 0.42085832 0.1868162 -0.4926479 0.3020864 0.113823704
1466 -0.52236104 -0.73768556 0.5854105 0.43109545 0.051048003 -0.11349097 -1.1522343 0.3676492 0.53877234 0.32083288 0.5415686 -0.2629338 0.30721486 -0.06536222 0.41094446 -0.15087347 -0.5599025 -0.617725 0.6760297 -0.10194113 0.7426035 0.07329677 -0.10959533 0.3688546 -0.21555103 -0.09628873 0.21913771 -0.15527724 0.39922816 0.406791 0.14904417 0.12335517 0.41268378 -0.44015503 -0.24067035 -0.43957242 0.18464276 0.16150385 -0.3849846 -0.13144863 -0.063687906 -0.37735772 -0.19205399 0.0074870735 0.18123865 -0.4463488 -0.021934263 0.2975368 0.559091 0.5119311 -0.0074698757 0.020549448 -0.20374443 0.15555741 0.051939487 -0.01182526 -0.23439974 -0.40008846 0.06591224 0.13739336 0.03327664 -0.16451865 -0.25577885 0.046367094
5376 0.0036932016 0.21103162 0.44036335 0.73327696 0.40611526 -0.25536218 -0.12723245 0.29045743 -0.122812726 0.39765462 -0.5302048 -0.36268032 0.12484025 0.49132296 0.48699787 0.041080665 -0.35749662 -0.34285596 0.46578163 0.027612545 0.6240788 0.55041045 -0.4399085 -0.07435668 -0.2833746 -0.068911664 0.4279653 0.09097036 0.80386233 0.36566138 -0.46012422 0.49387085 -0.3509067 -0.19819336 0.59861 -0.523887 -0.88097316 0.009704946 -0.4574976 -0.5881377 -0.15789817 -0.4968583 -0.9013172 0.20042685 0.19501942 -0.24618357 0.64361423 0.02149916 -0.14623797 0.20004034 -0.07713336 -0.53313935 -0.6103393 0.11022807 -0.11956243 -0.23328415 0.49716422 0.37954363 0.16859373 -0.3850806 -0.2251094 -0.18927261 0.24309225 -0.53953665
5437 -0.32630235 0.47731584 -1.0694151 0.55502826 0.12722896 -0.46576065 -0.54720706 0.47644567 0.8946428 -0.337966 -0.4121341 0.7085629 0.5601827 0.06964333 0.021450635 0.008848381 -0.39028853 0.55910105 0.38070866 0.7343199 -0.18425487 1.1860341 0.15805681 -0.42746264 -0.08039122 0.26631537 -0.4159637 -0.37353146 0.6532084 0.25314245 -0.11334581 -0.27711958 -0.8390807 -0.20473558 -0.17749466 1.0456413 -0.50608194 -0.12035185 0.017843664 -0.6150582 -0.14717115 0.36201233 0.24536219 0.1252056 -0.446597 -0.008291735 0.7368453 0.52031946 0.2068582 0.1285562 0.37047672 0.0036363625 -0.08689391 0.45585304 0.6102623 0.020543307 0.30234537 -0.3060568 0.2674188 -0.7653713 -0.7752298 -0.09521431 -0.5327952 0.041590266
5236 -0.17096119 -0.48787358 0.16844909 -0.47902003 -0.067365855 0.1987607 0.109756395 0.786733 0.12657562 0.5963442 -0.07838926 0.11861346 0.95030123 -0.31743294 0.39119273 -0.20951255 0.5744529 0.23006126 0.35454908 0.66899157 0.24753647 0.6321287 -0.077590466 0.89842737 0.19241045 1.0805691 0.2179055 -0.89223695 0.33192867 -0.307769 0.3316413 -0.6796686 -0.48626235 -0.08705197 -0.31137636 0.5765849 -0.68704206 -0.56769925 0.5712122 -0.5424666 -0.80520225 -0.02335375 -0.15379736 -0.87225854 -0.075177826 -0.6016739 0.30131018 -0.22303459 0.47888663 -0.20433491 0.10129505 -0.27545837 0.18428229 1.2338061 -0.11218206 -0.11755775 0.98611945 0.3373671 -0.09399976 -0.23067573 0.1159512 0.28197053 -1.1515658 -0.25187033
2302 0.5205111 -1.0734974 -0.7388944 0.598852 -0.160135 -1.3024217 -0.651091 -0.6928454 0.10807959 0.5592956 -0.71006316 -0.2208769 0.12938829 -0.2515614 0.26183742 0.047161136 -0.579761 0.17856143 -0.3466972 0.54776514 0.29609698 0.32880476 -0.9576586 -0.06422859 -0.28301826 0.6696815 -0.11520355 0.18477689 0.25683054 0.29000863 -0.6153325 -0.76206136 -0.83877575 0.82887393 0.6497037 0.0472524 0.09573239 -0.116440326 -0.04133742 -0.6450526 0.3703387 -1.07113 -0.22457905 -0.35533798 0.9586204 0.18344608 -0.63340026 0.30309495 0.04129891 0.05121221 -0.6772081 0.73856336 -0.0675729 0.63471043 -0.71239597 -0.0023855232 0.25959855 -0.8776322 -0.6979011 0.2117087 0.23404492 -0.48285356 -0.7882485 0.13934411
3809 -0.34966737 -0.32605398 0.40246356 0.5367903 0.9669103 0.010278848 -0.590025 0.20051628 -0.12443999 0.22036567 -0.3300659 -0.33293307 0.22301576 0.6476448 0.10164331 0.1756853 0.037645146 0.02778315 0.46300384 0.0102408575 0.8223327 -0.013445644 0.10247468 0.4368194 -0.31127432 -0.04543249 0.47206816 -0.52922755 0.4577147 0.7098704 0.35270524 0.2824629 -0.43683928 0.2969914 0.54168624 -0.3843834 -0.24654663 0.17888841 0.84205765 -0.29979795 0.8541106 -0.09613094 -0.010347136 -0.36244678 -0.74904406 -0.29429504 0.54963976 0.35152632 -0.06816531 0.7645973 0.025237434 0.32379147 -0.39464983 0.12653443 -0.049393598 -0.36753637 0.14952813 -0.20588878 -0.01973179 0.050599784 -0.6982474 -0.6097817 -0.35062352 -0.12942007
4415 -0.3877563 0.10482958 -0.56588155 -0.05590228 0.20424391 -0.15791178 -0.9325441 0.060857054 0.45459157 -0.08708799 -1.1789849 0.24256009 0.8892513 -0.3859564 -1.0640874 -0.16140445 0.67706764 -0.70968956 -1.06176 0.0145602245 0.6007175 0.24127442 -1.0073801 0.04322701 0.5990077 -0.4624838 -0.074152954 -1.7254286 0.009744703 0.3117628 0.04868753 0.34437782 -0.68822056 0.53376776 0.24441215 -0.37458932 -0.7036156 -0.69985116 -0.3370416 -0.8826004 0.019844668 0.111536846 -0.31434458 0.27735138 0.30635053 -0.4459654 -0.95811623 1.2835702 0.5133896 0.09703858 -0.21935403 -0.20432381 -0.10308477 -0.500014 0.25120738 -0.024197794 0.9259767 -0.63215375 0.88814265 0.9204621 -0.6203594 -0.09618464 1.1053523 -0.1803768
4552 -0.6735436 -0.0013587134 0.14197443 -0.10809362 0.17773105 -0.06259874 -1.1260184 -0.39764577 -0.19383775 -0.10386819 -0.14439443 -0.42182553 0.35298958 0.614221 0.34289652 0.26120356 9.8350865e-05 -0.07729168 -0.19847773 0.38502035 0.37131372 -0.0109149655 -0.11613478 0.14996165 -0.34821504 0.22311816 0.96316355 -0.40336627 -0.070078805 1.1549633 0.8153891 0.060378104 -0.29171532 -0.17425704 -0.20115753 -0.39775538 -0.42113608 0.09059783 0.47206485 -0.25827873 0.38085312 -0.30627802 0.19909249 -0.5075844 -0.1152175 -0.81957996 -0.05138998 0.10083212 -0.27765325 0.9856309 0.4646401 0.42820314 -0.41348714 -0.10603103 0.26154247 -0.0015269589 0.3143758 -0.48657686 0.15807368 0.11205049 -0.42942864 -0.28529608 -0.26170388 -0.31336588
981 -0.27413756 -0.96556014 -0.24335833 0.40683898 0.039768543 0.19033027 -0.65627116 0.31321523 -0.29075518 -0.4830296 -0.71332353 0.3855538 0.13352384 0.3062514 -0.2310992 -0.041265525 -0.24985185 -0.090258755 0.521352 0.8710477 0.09587963 -0.23083787 0.4061844 -0.16603296 -0.6073531 -0.24885705 0.66066694 -0.33537555 0.26056847 0.024003359 0.13911322 0.67235446 -0.31933117 -0.35152715 -0.013126543 -0.6114225 -0.16340123 -0.12397532 0.83911604 -1.0881426 0.117634125 -0.8335346 0.06763866 -0.03930456 -0.56038207 0.8421263 0.7045701 0.7064197 0.13735102 0.24769965 -0.0390699 0.11093542 0.04709939 0.5298857 -0.25758812 -0.4840436 -0.44726682 -0.43369028 0.56591475 0.7376857 -0.58345395 0.22881046 -0.2897208 -0.087093405
3865 0.18850368 -0.79188967 0.574084 -0.110510156 -0.08494285 0.23963933 -0.6245133 0.26181376 0.28380153 -0.3722704 0.8310623 -0.68486416 0.91584617 0.118973225 -0.0010856923 -1.106411 0.18327019 0.5936024 -0.058118027 0.3453173 0.22240388 0.70732754 -0.13164636 0.015930211 0.30615005 0.40586424 -0.49728188 0.08842625 1.2767045 0.479522 0.8651715 0.36233363 -0.15927985 0.54408365 0.2869739 -0.67272615 0.0379365 0.102923736 -0.68611175 -0.39928874 -0.5942043 -0.45974094 -0.07072741 -0.8830634 -0.300072 -0.6841446 -0.027026104 0.6608524 0.77960587 -0.51925105 -0.081170365 -0.05684535 -0.37019634 -0.39776355 -0.17579837 -0.16756858 -0.062360186 -1.2811694 0.031524032 -0.6319213 -0.44549984 0.12574388 0.24784988 -0.50166136
2290 -0.44903332 -0.9304237 0.5103008 0.3393847 -0.30076283 -0.13445435 -1.1710113 0.13670562 -0.3793225 -0.37398982 0.073350504 0.002096908 -0.6444032 -0.31248882 0.32385337 1.5105318 -0.418355 -0.14895627 -0.30469576 0.44537032 0.35157967 -0.14309338 0.38793507 0.95457584 -0.38932106 0.5580098 -0.85165036 0.37738144 -0.028306607 -0.40975446 -0.050022632 0.77439445 -1.159524 0.5667185 0.48576716 0.29942945 -0.6293654 -0.67740566 0.089332625 -0.7571028 -0.90579987 -0.4077893 -0.007659608 -0.8363629 0.091293946 0.5341437 -0.67413133 0.81225246 -0.29542544 -0.3427151 -0.294373 -0.18223494 -0.3752083 0.3079407 0.8453937 1.1611247 0.8329332 -0.24634473 -0.09924525 -0.30823284 0.043097362 0.3892287 -0.08502612 -0.41645285
3138 0.124830216 -0.82477754 -0.8739514 0.2771487 -0.5462932 -0.18662989 0.39087436 0.7164921 -0.25452414 0.08994906 0.28831702 0.08052056 0.9182629 -0.1649314 -0.11005172 0.3032903 -0.8091028 -0.576643 0.92501235 1.0301503 0.5280336 0.7938482 -0.19734204 0.34236348 -0.14184569 0.97526115 -0.44366473 0.161592 0.66288215 -0.2881977 0.87229073 0.82450724 -0.6191328 -0.8943546 0.24502014 -0.3230282 -0.2263963 0.3706337 -0.42322007 0.41040334 0.094603956 -0.24374573 -0.18933983 -0.9121362 -0.69385016 -0.15079764 -0.47276837 0.070153505 0.70008194 0.15054554 0.20702249 -0.9417866 0.09509879 -0.7404787 0.41126564 0.019845262 1.2965969 -1.0784967 0.28280085 0.4930361 -0.5905876 -0.13437445 -0.63647884 0.60646933
4711 0.13848434 -0.2368482 -0.13461113 0.19538227 -0.5673482 0.058665182 0.44599622 0.0040943725 0.20662746 -0.15053071 0.022032943 0.27188995 0.9937122 -0.069004215 1.5434319 -0.06471598 -0.15186456 -0.08089452 0.09948211 0.12765291 -0.17558998 -0.12796256 0.13791192 -0.024062237 -0.4770497 0.847662 0.6262274 -0.5869529 -0.48995435 -0.22341846 0.29762736 0.3265189 -0.2205285 0.034495357 0.47883403 -0.0026098848 -0.72168803 -0.16550969 -0.22852741 0.36123437 -0.31883508 -0.88380927 -0.3087239 -1.370651 -0.48973575 -0.13705073 -0.44735244 0.874257 0.5976204 0.15830393 -0.06324698 -0.14868896 -0.5149725 -0.44821608 0.22655262 0.2748278 0.783128 -0.8163936 -0.24150813 0.57270813 -0.17860255 -0.2103765 -0.20493607 1.0042529
4817 0.24043731 0.2581876 -0.04581535 0.7782853 -0.25732166 0.3706442 -0.67659414 0.27863273 -0.49246114 0.8984432 0.4347594 -0.29472017 0.14864643 -0.77473474 -0.38459834 0.41991764 -0.67427397 -1.0983202 0.059667308 0.72776496 -0.6373912 -0.7880964 -0.22963876 0.06907908 0.045967057 0.5515689 -0.7075027 -0.09292193 0.6281117 0.96909314 0.19087219 0.10332599 -0.6730004 0.113143004 0.6696474 0.56455624 0.2946751 -0.49035898 0.033552844 -0.7282041 -0.84004146 -1.1452523 0.27591497 -0.29582995 -0.21688828 -0.028639821 0.06528907 0.20943737 0.2623812 0.13152754 -1.3901322 0.062106326 0.6813718 -0.048395675 -0.43145293 0.21783571 0.9583314 -0.6130843 -0.67755395 -0.12882884 -0.79691905 -0.6367504 -0.10281581 -0.433136
1478 0.16725546 0.49543613 -0.33821705 0.35983348 0.895085 0.9332111 -0.70348644 0.66201335 0.8316611 -0.556943 0.088860765 -0.457535 0.21578659 0.09444289 0.23505549 0.2816535 -0.51990306 -0.20016493 -0.6243588 -0.09370631 0.6146493 0.3297491 -0.05489994 -0.069903366 -0.18329257 0.898472 1.1329141 0.26065162 -0.031968072 -0.06251871 -0.030668106 0.4351739 -0.51246357 0.5037711 0.36414617 0.5214644 -0.6731604 -0.74800545 0.17284347 -0.70729584 0.44303888 -1.1020584 0.3957268 -0.5345976 0.40484962 -0.51628524 -0.03323553 0.012443124 -0.068675734 -1.0853149 -0.39070776 0.050903175 -0.073703766 -0.15227741 -0.6613528 0.00480318 -0.11192305 -0.31011382 -0.18523127 -0.04075155 -0.7938614 -0.40649793 0.24614577 1.5425345
3172 -0.59107286 -0.45274514 -0.4055371 0.0051639727 -0.050167058 -0.35456496 0.111452304 0.310068 0.7680166 0.30498514 -0.011941951 0.5551253 -0.13416378 -0.21222377 0.80809116 -0.055797677 -0.4461313 0.35834536 0.5149575 0.54188406 0.6025756 0.41077387 -0.38512734 -0.18044443 -0.18706653 0.9904306 0.33447996 0.5315851 0.337253 0.15871271 0.29790968 0.6453359 -0.32944906 0.20654504 0.61826676 0.31005275 -0.14520508 0.24592988 0.03827023 -0.724285 0.027898379 -0.29216927 0.26691467 0.28490436 -0.01291201 -0.6375928 0.537895 0.8677861 0.18567243 -0.07459916 0.08517113 -0.2162704 0.23907165 0.20112334 -0.09200696 -0.42511982 -0.39023444 0.13940749 0.74901825 0.006670161 -0.2721779 0.82515943 0.716798 -0.58758235
3504 -0.012995553 -0.088805705 -0.8261763 0.20116028 0.17252003 0.06063543 -0.14208418 -0.007922069 1.2485689 -0.91703224 -0.5690138 -0.10526458 0.08465668 -0.39349058 0.8643484 -0.09616401 0.42846975 -0.10707126 -0.36668587 0.079743125 0.7202043 0.06288127 -0.4026129 0.35695553 -0.046217963 0.9439565 0.8290003 -0.14783423 0.3660543 -0.35068265 0.23713002 0.19042706 -0.14017324 0.47071934 0.59114206 -0.0786938 -0.33908126 -0.31785083 0.19126849 0.6691269 -0.4122277 -1.1895726 -0.40824288 -1.1083058 0.31606385 -0.43284574 1.0543799 0.18935145 0.15610772 -1.0834311 -0.52842826 -0.63341707 0.21340783 -0.0024447897 0.6244721 0.3127585 0.1555176 -0.09195007 -0.29937443 0.41316992 -0.7686642 -0.43105876 -0.18494484 0.7924195
731 0.08973893 0.22653085 -0.9793492 0.449532 -0.906904 -0.48860738 -0.36663696 0.7354213 0.45813814 0.041932225 -0.31170362 0.42055905 -0.035485677 -0.20531917 0.37479028 -0.3109073 0.2832364 -0.60230666 0.5825954 0.722814 0.19325681 0.78409654 -0.2194167 -0.12810764 -0.6204742 0.8452077 -0.18461563 0.16664577 1.0202 0.23798595 -0.6303721 0.4165395 -0.2447848 0.64579344 0.37768838 0.76296926 -0.2608602 -0.56156474 -0.12583327 0.16739443 -0.5833126 0.14467333 -0.2684862 0.57684153 -0.43213987 -0.72441036 0.7369247 -0.277143 -0.57182956 -0.039616887 0.12688686 0.4019818 -0.39505762 0.07615029 0.632171 -0.25820628 0.2986088 -0.96122897 0.49414507 -0.2032771 -0.50383747 0.10821323 -0.122704044 0.3798014
3410 0.32973126 -0.050245136 0.22036564 0.5807271 1.0333775 -0.18648383 -0.6698875 0.28922555 0.47412902 0.39842978 -0.14454055 0.23519441 -0.008067075 0.45919213 0.31925234 -0.50173575 0.23183353 -0.5963897 0.3638875 0.24492033 0.87042606 -0.15189865 -0.2022658 -0.08477668 -0.7997407 0.14075607 -0.10853274 -0.22047408 -0.17023219 0.8434244 -0.0889962 0.15588409 -0.5109642 0.20756108 0.48373523 -0.80944115 -0.43654844 0.3240203 0.6719871 -0.9575228 0.03619235 -0.28157666 -0.5267177 -0.055610277 -0.7422323 0.27812126 0.4730431 0.011046385 -0.23104315 0.2105049 0.19011183 -0.5495604 -0.6629165 0.33278665 -0.0055637583 -0.55049163 0.19812538 0.12829229 0.65158874 -0.3215033 -0.023337455 -0.6820485 -0.42329806 0.030024344
3765 0.4493525 -0.58914536 -0.78780425 0.6162976 -0.40966418 -0.9047652 -1.0741436 -0.11269722 -0.09085776 0.40758234 -0.9613862 -0.030357996 0.25300884 -0.22877295 0.40795237 -0.07481646 0.039409406 0.23711401 -0.23094934 0.6964098 0.63395894 -0.063383624 -0.6917121 0.16026305 0.066079386 0.97423834 0.05437445 0.17944174 0.04860306 0.17336631 -0.5879176 -0.04454851 0.24342756 1.0113356 0.4629516 0.062341273 0.2577929 -0.24970324 -0.15199678 -0.5894488 0.21034527 -0.97142595 -0.34365284 0.032142766 0.72557026 0.6420415 -0.42463812 0.6652051 -0.4940552 -0.44091713 -0.6017156 1.0734515 -0.8983018 -0.24411605 -0.41558903 -0.37215856 0.67850596 -1.0127338 0.08659549 -0.042001363 0.58358014 0.51667905 -0.53365034 -0.15887773
6539 -0.0052295565 -0.6385202 0.13061953 1.0068195 0.6627589 -0.12475335 -0.51919746 0.112895586 0.4297055 0.6992605 0.49372157 -0.39219224 0.38868427 0.023730773 0.7433679 0.17300737 -0.90239435 -0.10100872 0.9422086 0.45475402 0.7839905 -0.15087552 -0.18980743 -0.20958728 -0.50776863 0.36007154 -0.48490623 -0.39386603 0.16123937 0.846157 -0.21203566 -0.014586165 -0.5276006 0.45858517 -0.007698562 -0.016918518 0.021889279 -0.47052467 0.41204873 -0.37306154 -0.023916377 -0.76722777 0.30287036 -0.033358574 0.25678673 -0.06664153 -0.013971407 -0.40801045 1.2564774 0.81460917 -0.19139116 0.47411984 -0.022250954 -0.044976957 -0.22323184 -0.15081343 -0.5628028 0.3813769 -0.014628582 0.79072285 -0.32969528 -0.2591829 -0.2345697 0.028089454
5409 -0.5713232 0.049438536 -0.5395781 -0.64958173 0.46419248 -0.29979083 -0.7585501 1.1530764 0.3061118 -0.1251066 -0.7988671 0.85023725 0.3995829 0.5554077 -0.2982472 0.15102671 -0.4424738 -1.1467057 0.5420999 -0.05218266 0.15861031 -1.0512472 -0.7557286 -0.2825311 -0.29568854 -0.21679047 -0.09010496 -0.29973295 1.0033574 0.3808489 0.1209699 -0.46631604 -0.88861895 0.57558495 0.2701657 0.11804321 0.19976068 -0.0029865277 0.07180316 -0.33322656 -0.7640758 -1.2003015 -0.061960746 -0.30584842 0.5241516 -0.058429547 -0.23472011 -0.32536542 1.0281404 -0.44463912 -0.52700424 0.28581154 -0.34396586 0.1528195 -0.18604855 0.34318173 0.07533552 -0.43921164 -0.6309215 -0.15343136 0.40693077 -0.08906906 -0.5423493 -0.48931697
4404 0.014665494 -0.24931045 -0.27739662 -0.23904596 0.6948172 0.51898044 -0.3901287 0.9007317 0.056039095 0.61049646 -0.25413978 0.16778448 1.3161354 -0.19411501 0.024696179 -0.13791479 0.40508732 0.73896164 -0.002406766 -0.30264327 -0.13768882 0.9693528 -0.5944256 -0.2289414 -0.5960612 1.2000495 -0.067082144 -0.57469714 0.20090008 -0.20386681 0.20913425 0.13034254 -0.13731894 -0.030795254 -0.06888809 0.9852409 -0.7117645 -0.45540953 0.61719954 -0.45913792 -0.62225544 0.42638162 -0.3738613 0.269521 0.25791904 -0.6521026 0.5568643 0.4288717 0.19742376 0.3820317 -0.5897887 0.31171635 0.44068888 1.0212463 -0.10929785 -0.65916353 0.6837586 -0.27942786 -0.032452617 -0.28451848 -0.43154535 -0.01812753 -0.9651504 -0.14322348
2377 0.26491436 0.028762791 -0.41498065 -0.43643975 0.0035174014 0.61580974 -0.28188887 0.8570734 0.9911004 -0.70493937 -0.1807167 0.38310838 0.1374911 0.04943298 0.55033076 -0.3702103 0.15841328 0.82669896 -0.328836 -0.090833455 0.5239079 0.37778366 0.6568746 -0.672087 -0.5476373 0.8738987 1.474334 -0.33790988 -0.29084074 0.47520024 -0.10577695 0.4610266 -1.2379985 -0.09366502 0.24303134 0.2836141 -0.56530243 -0.7692111 0.1574602 0.06384231 -0.6441128 -1.098731 -0.4104133 -0.51677644 -0.45553663 0.62977606 0.050547052 0.5208858 -0.6925667 -0.41251922 -0.9375878 0.52433014 -0.20337746 -0.60695565 -0.15695958 -0.055137943 0.19024149 -0.10889659 -0.13303927 0.5224336 -0.38033485 -0.4797868 -0.22521585 0.4893527
3201 -0.3735514 -0.12619734 -0.6687593 0.2824021 0.22983441 0.11596799 0.33628133 0.5776674 1.1042076 -0.9064654 -0.068460084 -0.075160526 -0.010926181 0.091729775 0.5544022 -0.14655347 -0.69655114 -0.35742986 -0.032334454 0.79656595 1.1648469 1.5069076 0.08103748 0.27742964 -0.53683674 -0.39390475 1.0846537 -0.14116046 -0.00022809434 -0.51622987 0.14238426 0.01189954 -0.29452303 -0.007843319 0.31869987 0.28359106 0.08021955 -1.541833 0.59978855 -0.014168208 -0.09405771 -1.1769203 -0.059177738 -0.69184285 -0.069104366 -0.09214996 -0.08528047 0.68654096 0.10478999 -1.0310174 -0.6019325 0.9396155 0.082079954 -0.33480558 -0.65248287 -0.44154862 0.79172033 -0.1341999 -0.69057506 0.35211205 -0.2928084 -0.572479 0.3732263 0.86158925
4470 -0.6626143 -0.1929232 -0.8615918 -0.6937412 0.015569339 -0.30102468 -1.3795073 1.3298103 1.1648359 0.101436906 -0.73022646 0.85276186 0.90103096 0.6599439 -0.6151025 0.59444445 0.08787789 -0.49120453 0.6020243 -0.79321116 0.23550828 -1.0982502 -1.0168319 -0.14473014 0.20877086 -0.1139715 -0.16902518 -0.4308988 1.028102 0.03878185 -0.13960238 -0.41624382 -0.7441023 0.67484355 0.49765465 0.20737697 -0.28635707 -0.04921789 0.6970538 -0.017304488 -0.50371504 -1.866104 0.14968768 -0.14874698 0.5669569 -0.19673967 -0.02068082 -0.5820107 0.8730801 -0.2744823 -0.053902805 0.41471604 -0.4417187 -0.2637836 0.29217553 0.3054024 -0.099438146 -0.99138653 -1.0933746 -0.375366 -0.22135045 0.17810868 -0.85109293 -0.2664628
83 0.20490585 0.3864463 -0.01995813 0.014612337 0.01433282 -0.36744967 -0.21382895 0.6107807 -0.33044097 -0.14390509 0.46411893 -0.044683147 -0.06492307 -0.0039964085 -0.33381644 0.37061596 -0.9286411 -0.6889241 0.50384676 0.21084067 0.2649231 -0.5488093 -0.64242685 0.044553667 -0.13328968 0.1921547 -0.34435233 -1.0151222 1.2021779 0.5055442 0.1455498 -0.1353263 -0.95064044 -0.26141724 0.71309066 -0.68777496 0.48053843 -0.4495846 0.029047407 -0.28853583 -0.64100695 -1.2789177 0.13634866 -0.21490769 -0.020062888 -0.28746742 0.6491268 0.47970936 -0.15183014 0.68284094 -1.4270989 -0.24500802 0.62872934 -0.09456598 -0.39083883 0.29935926 0.29487294 -0.3604601 -0.10485477 -0.25220296 -0.41015574 -0.60417694 -0.7805964 0.2623037
1878 0.10922696 0.3501583 -0.9166654 0.77883685 -0.581859 -0.35655934 -0.5520904 0.6100626 0.18692477 0.3718708 -1.0352604 0.41006142 0.14702488 0.4964151 0.17203738 0.9258873 0.05060036 -0.027340008 -0.040019937 1.1717584 0.8623249 0.3083577 0.15853897 0.36210686 0.032158323 0.52467513 -0.41963083 0.31878144 0.26430774 0.09835987 -0.51886463 0.4808289 -0.005695006 1.231665 0.4809024 0.26845187 0.15657496 -0.24529009 -1.0193089 -0.30120453 0.43566006 -0.69448954 -0.53508925 -0.19610527 0.4408631 0.2087484 0.24970894 0.52195174 -1.0090636 -0.4702092 -0.46176362 0.71495175 -0.54499805 -0.033521146 -0.24764326 -0.41084138 0.7358184 -1.0320525 0.6730593 0.11506122 0.38222435 0.30743697 -0.34541073 -0.06550351
3782 -0.4792103 0.13285655 -0.5848412 0.6532344 -0.24482304 -0.67254174 -0.46428043 0.6357515 0.4846726 0.33003628 -0.47102365 0.725046 0.6284919 -0.2930719 0.2787853 0.20127022 0.068273336 0.41508415 -0.1161165 0.6247195 -0.53367436 0.9100819 0.6480506 -0.45337817 -0.31500348 0.46167213 -0.26634577 -0.6717722 0.8521533 0.646734 -0.21847537 -0.40455252 -1.0309848 -0.7544803 -0.22460684 1.1662569 -0.28075662 -0.05454898 0.2999843 -1.1955767 -0.4959505 -0.010572982 0.7476783 -0.16323438 0.006155803 -0.4697447 0.6208127 0.6965113 0.5755337 -0.16109537 1.0379398 0.56555575 -0.60494244 -0.10934374 0.57366115 -0.41271615 0.196365 -0.20798962 0.53446275 -0.89482766 -0.8818355 -0.5224578 -0.13804153 0.35772708
1207 0.14662251 0.3388764 -0.60349154 -0.04469259 0.0024271992 -0.060590018 -0.5950289 0.5548616 0.395383 0.27999976 -0.8255799 0.16237433 0.6509659 -0.47040784 0.6504259 0.4779824 0.16575736 0.19714919 -0.08555223 0.4654024 -0.14888038 0.22976206 0.13205476 0.32415342 -1.1337321 0.7075201 -0.1726135 -0.52333933 0.55111 0.26847863 -0.05859475 0.47301564 -0.6975085 0.031488072 0.30854732 0.23811151 0.13030143 -0.23646605 0.32751346 -0.10637392 0.028116416 0.10338232 0.8590061 -0.07164739 0.71589607 -0.731128 1.2645906 0.06671973 0.3786191 0.37640223 -0.22341126 0.32185477 0.19156227 0.9267843 1.1949338 -0.54823035 0.55144066 -1.3340948 -0.14250956 -0.50685245 0.79975975 0.46243182 0.4957919 0.84226465
6421 -0.502703 0.1115048 -0.67159384 0.38759476 0.73556286 0.32764703 -0.39636984 0.373123 1.0421876 0.30556238 -0.5090651 0.56915253 0.24381864 -0.28216326 0.104798414 0.12959205 -0.06139775 0.6092139 -0.04396846 -0.26515228 -0.46877652 1.5171708 -0.8807254 0.09675291 -0.35371765 0.6665566 -0.08232906 -1.1290509 0.40054148 0.42592326 -0.04532947 1.281607 -0.098647974 0.07764498 -0.15652154 1.0616138 -0.02689965 -0.150342 0.031176934 -0.10661745 -0.3793278 0.10558439 0.057362903 0.056201287 -0.083628684 0.021758666 0.82984763 0.036906876 0.040859044 0.42816842 -0.062275425 0.35917214 0.06404947 0.52986884 -0.19029084 -0.16379976 0.25150016 -0.35468856 0.14767747 -0.21733321 -0.626746 0.3463774 -0.66818565 0.28792062
246 0.4178205 0.17795631 0.1033105 0.4815126 0.012935693 -0.56380206 -0.6472594 0.294028 0.39273778 -0.29179597 -0.5500414 -0.07956295 0.55950326 0.120668 -0.39546412 -0.12979406 -0.69034654 0.26684687 0.36200976 -0.21039385 0.0009233793 -0.29883122 -0.44663033 0.21282932 -0.79796636 1.097894 -0.29568264 -0.38778222 0.29505512 0.553864 1.0212466 -0.021576935 -0.32793325 0.53593034 -0.7196145 -0.7214116 -0.4672108 -0.32167068 0.23814307 -0.06893686 -0.110878274 -0.12333507 -0.4775777 -0.35794586 0.60434806 0.3547823 0.05175463 0.5402917 -0.78419256 -0.3483963 0.7450679 0.83949953 0.39329278 -0.48878977 -0.13786443 0.3963361 0.84874856 -0.12967709 -0.21874145 -0.48636088 -0.23142497 0.63975847 0.2966171 -0.03293491
8231 0.7363339 -0.41172183 0.1385866 0.57414705 -0.116526484 0.013962304 -0.81156737 1.6498531 0.055351667 0.2579831 0.507012 0.18066967 -0.28134584 -0.107413 -0.19664267 -0.006902436 0.47774342 0.58046687 0.62387747 0.9757697 0.42853084 0.08591818 -0.89625597 0.6616597 -1.225185 0.10023207 -0.4266938 -1.1558511 -0.42407095 1.0469133 0.16273344 -0.37198353 0.26724052 -0.8265221 0.23255524 0.5949689 -0.6400076 0.11776333 0.020866958 -0.5785886 0.20649147 -1.5518758 -0.2747911 -0.35873985 0.6768317 -0.016861536 -0.3922638 0.10270595 0.28701183 0.26963457 -0.44529858 0.33615837 -0.19162102 0.72663695 0.35601804 -0.14516039 0.14470579 -0.0035963021 -0.290657 -0.0801668 -1.2556806 -0.21468154 1.0561997 -0.07697065
3771 0.34813103 -0.052201033 0.8246026 0.38416088 0.6325062 -0.35410833 -1.0168816 -0.09367071 0.67476845 0.5584248 -0.16364981 0.15316182 0.11924446 0.44409788 0.055038545 -0.80499 0.46582434 -0.57897043 0.317044 0.7833428 0.30297858 -0.39928934 -0.3962238 0.075491056 -1.0521073 0.14928266 -0.32504022 0.02544558 0.60563207 1.0704334 -0.4822312 0.40753773 -1.0247381 0.41707227 0.8410006 -0.25045505 -0.82532555 0.6749978 0.4045394 -0.9727181 0.179924 -0.048007414 -0.025733832 -0.19504902 -0.17713836 0.20802167 -0.11558711 0.44361773 0.15647562 0.48403117 -0.11007482 -0.086149335 -0.053390563 0.19227543 -0.3121406 -0.21523695 0.12894434 0.5187181 -0.1300508 0.7168888 0.24921358 -0.71372294 -0.43371403 0.24882177
5079 0.031627566 -0.17162465 0.34082693 -0.67664707 -0.2999715 0.8562319 -0.0013746305 0.99470603 0.9494032 0.5220857 -0.037540004 0.796461 0.6146923 0.0073746615 -0.3771635 0.15171708 0.4469406 0.18188228 0.8111094 1.2961098 0.4688 0.15473315 -0.061263602 0.7922437 0.02767111 0.87846005 0.5880749 -0.9554937 0.17287216 -0.3956578 -0.1846341 -0.3315403 -0.78366315 0.09901407 -0.15059279 0.42640576 -0.5774157 -0.17754367 -0.2510336 -0.97704184 -0.19133618 0.24037664 -0.27518594 -0.8159873 0.06731917 -1.0893121 0.28474522 -0.19857353 -0.045517247 -0.45617256 0.014374054 -0.33483794 -0.4636046 1.3158733 -1.0979093 0.09756933 1.2308383 0.28704897 -0.13379815 0.32910758 0.33250824 0.6028847 -0.772403 0.37186354
4524 0.07443031 -0.8265001 -0.37823886 0.34612817 -0.5656446 0.2145252 -0.8728977 0.6300497 -0.23498817 -0.14136699 -0.55450696 0.2208293 0.2698091 0.22197694 -0.4044735 -0.16780202 -0.12468822 -0.28858078 0.42212096 1.1024708 -0.16201097 -0.15410356 0.21788009 -0.025171908 -0.6457556 0.07899135 0.46892416 -0.19230832 0.34039253 -0.009846455 -0.031867452 0.47206026 -0.5720571 -0.07975612 -0.09069418 -0.6086509 -0.35976735 -0.43821934 1.0726503 -1.099177 -0.10358986 -1.3484857 0.13838151 0.044113133 -1.0005829 1.0584073 0.6758737 0.768898 0.5032384 0.08473905 0.08166261 -0.25624067 0.52871597 0.6870217 -0.37997398 -0.8198345 -0.25780347 -0.3605535 1.016928 0.60115963 -0.67871326 0.0039604795 -0.08094894 -0.14360778
7179 0.67970175 0.059934758 0.061329 0.32787403 0.35322866 -0.11599735 -0.79642236 0.18267868 0.1202437 -0.0668633 -0.067636475 -0.2965191 0.42592221 -0.22031179 0.48165748 -0.1864275 -0.31204313 0.9846426 0.5772082 0.46540785 0.65195733 -0.07169839 -0.08822425 0.6482652 -0.101327196 0.60573393 0.10074534 -0.68986076 0.15356626 0.52203673 0.2651136 0.37923214 0.25265822 0.1683992 -0.45711473 -0.1714947 -0.58211577 -0.1835618 -0.25263205 0.16814017 0.2480706 -0.5416091 0.16620272 0.15770736 0.2042918 -0.08381286 0.16882622 0.06303445 0.18669496 -1.1599908 0.1937267 0.09250245 -0.29807597 -1.3154263 -0.49096915 0.16414931 0.48992524 -0.18745688 -0.36791268 -0.27664188 -0.356952 0.34313795 -0.13271448 -0.89408255
3346 -0.5919485 -0.68131816 0.15257014 0.9435613 0.56098884 -0.2321519 -0.70420563 0.008330608 -0.42553055 -0.27296528 -0.28016698 0.06794254 -0.07459246 0.5034557 0.2655507 -0.0029389393 0.024053728 -0.34103233 0.30990496 0.7089869 0.6947627 -0.39882883 0.024472233 -0.3133239 -0.29411045 0.014688236 0.29741928 -0.56613636 0.0794273 0.39255643 0.6589838 0.47527364 -0.33664864 0.1383974 -0.12655056 -0.3678721 -0.40309778 0.1945431 1.2928352 -0.32634598 0.14283477 -0.020808915 0.085775964 -0.2324349 -0.616113 -0.580289 0.5105355 0.30131006 -0.43501136 0.5630835 -0.39736822 0.17931291 0.03158793 0.13792482 -0.2790147 -0.37173894 0.011745767 -0.29753143 0.19179408 0.25748596 -0.31731668 -0.7954812 -0.408708 -0.39802706
1494 0.29484165 -0.13583 -0.45032197 -0.64654356 0.13606466 0.37577543 -1.109016 1.0584676 0.20785567 0.69408566 0.15263522 0.09292531 0.76459193 -0.62653685 0.69097745 0.5319975 0.42476448 0.43688208 -0.029288542 0.059317563 -0.18103328 0.8166223 -0.46522868 -0.19724096 -1.1740168 0.84664935 -0.05251857 -0.4029924 0.10878692 0.21530885 -0.11464242 0.4039652 -0.2880672 -0.25836298 0.18311073 0.6473098 -0.54459995 -0.5767244 0.7388617 -0.4797231 -0.37458342 0.6566377 0.29036716 0.1287565 0.8698012 -0.4460951 0.91069925 -0.16856255 0.12962207 0.46118438 -0.77804404 0.3161818 0.3353448 0.66139287 0.76817167 -0.34131035 0.54699594 -0.9451301 0.4988714 -0.033547446 0.47914144 -0.2601208 -0.2613431 0.21107037
2053 -0.2192755 0.41422454 -0.7971435 0.4060181 -0.8138178 -0.09266522 -0.72173166 0.48682836 0.4664222 0.25750285 0.12285607 0.8061001 0.58441573 -0.34206867 0.4112297 0.0698589 0.34599334 0.2115683 -0.14887369 0.34792426 -0.12618203 0.98287714 0.27947393 0.17841287 0.08957973 0.21311347 -0.009579299 -0.73328817 1.1621381 -0.038681775 0.01646358 0.19402437 -0.568106 0.12157899 0.064060755 1.247122 -0.18468477 -0.40571204 0.42660025 -0.5420468 -0.45099977 0.06581538 0.27951422 -0.014562627 0.007547938 -0.5233778 0.79277086 0.28618678 0.53862494 0.006615092 0.7407213 0.4571248 -0.42784485 0.20258923 0.25913548 -0.567244 0.6256475 0.4648855 0.7846334 -0.6297701 -0.6102739 -0.615721 -0.3977164 0.24861386
2010 0.15116023 -0.38692185 0.07099705 -0.3055204 0.05144186 0.14004472 -0.89944685 -0.44735014 0.35481024 0.024937404 0.81005263 0.01930138 0.97503495 0.24617653 0.111219324 0.39051235 -0.46270946 -0.19729798 0.071981505 0.5893269 0.27323097 0.23284028 0.042340647 0.22725971 0.32026345 0.17322408 0.41493514 -0.14371543 0.39221287 0.26304907 0.4188821 -0.36299425 -0.19588478 -0.771756 -0.2740615 -0.7595023 -0.42199802 0.38944578 0.25174809 -0.6608599 0.24561115 -0.76374185 -0.06412704 -0.77260965 -0.2433178 -0.38289317 0.02507113 -0.25304022 -0.015384129 0.90546185 -0.32035324 0.57893735 -0.38357672 -0.3465298 0.772985 -0.26888984 0.15345569 -0.5177463 0.72020984 0.4545069 0.12103159 0.13028349 -0.47757596 -0.026411077
1861 -0.07858789 -0.37791502 0.22707386 0.14517236 0.91121024 0.20436956 -0.29854327 -0.0014798905 -0.25160515 0.16175005 -0.29136422 -0.035664733 0.0009742366 0.49590644 0.061285 -0.074081935 0.0060362415 -0.47273135 0.47629976 0.48471144 0.4420858 0.20124038 0.39433512 -0.20224713 -0.23415536 -0.38249323 1.0043144 -0.44491196 0.92265785 0.020517495 0.21631071 1.02795 0.23135428 0.011939974 -0.04351974 -0.37593699 -0.16396996 -0.018041732 0.30239138 -0.88116163 0.342016 -0.6087863 0.10793887 -0.6737524 -0.01089908 -0.16975398 0.1268905 0.15327474 -0.34560668 0.60642856 -0.019619111 0.6389603 -0.06579095 0.4050844 0.3415464 -0.052308533 -0.24484603 -0.4317412 0.4659142 0.113132946 -0.8017877 0.21041544 -0.734175 -0.16122139
4752 -0.44865137 -0.3150914 -0.46807417 -0.6735704 1.1078701 0.11274946 -0.5028552 1.0726565 0.62569106 -0.1399287 -1.0453131 1.1917022 0.5777252 0.4077934 -0.8187778 0.13449694 -0.7634963 -0.69728404 0.10795985 0.28903273 0.25766546 -1.006042 -0.62416 0.15006243 -0.8115512 -0.5072516 -0.5806907 -0.33109564 0.81990916 0.60405785 -0.53458536 -0.4548112 -0.8135985 0.51135707 0.27502185 -0.33848485 0.27762252 -0.5143832 -0.038293414 -0.07033615 -0.10650434 -1.0524132 0.043462638 -0.979032 0.041966844 -0.52394795 -0.7789889 0.5944162 1.2133594 -0.5335826 -0.067157805 0.15928394 -0.32031694 -0.05406547 -0.6806161 0.6798554 0.5776988 -0.55714226 0.13706042 -0.013778092 -0.030143775 0.06469325 0.303527 -1.1990895
4299 0.6198749 -0.48790967 0.13897155 0.18254583 0.5303226 -0.060214948 -1.393824 0.12779717 -0.1721061 0.24618575 -0.002495404 0.21418062 0.41588932 0.20214644 0.7333085 -0.33632368 -0.79759085 0.9300562 -0.0006820186 0.31418172 -0.38471612 1.204376 -0.48412612 0.3438539 -0.16511379 0.10781572 0.14069106 -0.66334313 0.57229424 0.20624769 0.25080332 0.7100997 0.23033664 0.50081843 -0.07938564 -0.60889566 0.21490905 0.015321834 0.0418795 0.029756239 -0.18637027 -0.6896422 0.11504508 -0.6734061 0.5163091 -0.1450845 0.029288111 0.17625085 -0.18713202 -1.0545137 -0.6163395 -0.6445062 -0.41654572 -0.70370066 -0.750834 0.68616384 0.37040967 -0.6364328 -0.56941813 -0.27477437 -0.53361565 0.6014806 0.37214753 -1.4020901
2939 -0.76439464 -1.1586591 0.18358833 1.051956 0.87723297 -0.41752636 -0.8108153 1.2309291 0.21364526 0.88054925 0.24569197 0.28256518 -0.13100384 0.70113915 -0.15692121 0.59536374 0.9780528 -0.3155648 -0.028216384 0.74927855 0.7183272 0.7108741 0.43420118 -0.22951917 -0.85376877 0.73004895 0.376558 0.30011126 -0.07648596 1.2838895 0.86691576 -0.34742066 -0.74602437 0.43818885 0.32136658 -0.5369548 0.25268424 0.08281877 -0.8202407 -0.43958223 -0.26878813 -0.41750696 -0.22148742 -0.5155546 -0.02578021 0.57735384 0.37328842 -0.67765224 0.7629899 -0.09572996 0.19139464 -0.46406996 0.18771821 0.06455849 -0.50421315 0.1890276 0.46775445 -0.23070498 0.2561625 -0.5248084 0.23307993 0.19111869 -0.301932 0.4408702
3083 -0.14017923 -0.2891346 0.25327855 0.40415776 -0.6230495 0.65971094 -0.60266757 1.585659 0.4006322 -0.012110128 -0.20526682 0.005746869 -0.05808118 -0.23289698 -0.91417813 0.97480285 0.10884321 -0.23807397 0.20427898 0.6062852 -0.5289648 0.25193885 0.21854302 0.5829006 0.1445276 0.156835 -0.28531528 0.50618416 -0.712655 -0.27388516 0.3987196 0.36661306 -1.1545231 0.55960685 0.3844122 -0.27978882 -0.5944039 -0.02943844 1.2228551 -0.9273712 -0.8146273 -0.7591231 -0.45833576 -0.43965128 0.5252883 0.06307995 0.10739635 1.5331612 0.9786969 0.0752063 -0.5500776 -0.2054242 -0.541154 -0.5222162 1.055645 1.0007529 0.5418815 -0.53646666 -0.523301 -0.99902296 0.31334725 -0.057607375 -0.7191536 0.025682144
2040 -0.555996 0.466879 0.28235573 -0.24811554 0.7772015 -0.62856543 -0.5102545 -0.45256317 -0.52406025 -0.04543939 -0.5188422 -0.36763716 0.30378616 0.33332112 -0.20701148 0.88573074 -0.35915625 -0.19631407 -0.03313725 0.6263398 0.75540954 0.65837425 -0.0031927095 -0.04045459 -0.47191447 0.20932747 0.1551155 0.23337667 0.34820428 0.3613169 -0.74858075 0.106854334 -0.6939868 -0.31954777 0.7077035 -0.45766497 -0.8336087 -0.4611635 -0.61349815 -0.24182658 -0.0035345487 -0.92298746 -1.662426 -0.11380296 -0.027630826 -0.49665996 0.8594299 0.040990375 -0.0057264147 0.13999014 -0.11698021 -0.27500015 -0.350362 -0.11503408 -0.21875039 0.31691754 0.7629748 0.015075317 0.37621298 -0.41442516 -0.70092624 0.09002323 0.15199305 -0.6771896
5152 -0.10783164 0.39286897 0.6599874 0.56542003 -0.24979614 -0.26821458 -0.7105347 0.086302854 -0.71061516 0.57736254 -0.4077466 -0.05628962 -0.026892416 0.91891134 0.03805639 0.092712656 -0.3472723 -0.917647 0.6604417 0.2726342 0.592693 0.18301591 -0.43943295 -0.94024223 -0.15834756 0.1081985 -0.08230007 -0.19011512 1.0316336 -0.0962543 0.1507506 -0.0104934415 -0.59663284 -0.16289856 0.82979673 -0.46464005 -0.3643242 -0.13059837 -0.20274244 -0.38014734 -0.4911833 -0.51991737 -0.35702357 0.42321882 -0.17075628 -0.66093343 0.28330144 0.21857896 0.5717555 0.0029609997 -1.0221131 -0.46866825 -0.50505817 0.3388187 -0.50780946 -0.2468005 1.0605186 0.009875091 -0.11240503 -0.27263469 -0.53240705 -0.9509833 -0.21106465 0.31627318
3981 -0.7312288 0.61184454 0.3925623 1.1640261 1.1343105 0.4944403 -1.1000199 1.6485648 0.8699945 -0.8741659 0.0013115369 0.5427937 2.0614383 0.07638661 0.14964134 0.84190464 -0.7043862 -0.8514339 -0.8604071 0.47796598 0.14081188 0.32942858 -0.772509 -0.61885965 0.37180173 0.27723762 0.35414448 -0.14884172 0.7299416 0.27758598 0.28234333 -0.28469184 -1.0086902 0.21757944 1.0086426 -1.5308177 -0.87337565 -1.2355713 1.3426219 -0.7796478 -0.8721126 -0.15774891 -0.37721157 -0.4666415 -0.20979151 -0.45394853 -0.747694 -0.3235391 0.025864193 -1.1454037 0.6998425 0.24697314 0.9527768 0.28463292 -0.40726715 0.34182274 -0.25034916 0.5552353 -0.3041619 -0.5125504 -0.8340844 0.70765746 -0.59931445 0.39042884
5612 -0.017174201 -0.33830187 -0.22004928 0.34528258 0.28358266 0.094575495 -0.18874325 -0.14956868 0.3480778 0.18630643 -0.2140755 0.16932596 0.5003875 0.43888712 0.77906054 0.0401077 -0.77344733 0.022211583 0.7352458 0.6828653 0.9799145 -0.053979687 -0.59933394 -0.6334979 -0.2602917 0.4552857 -0.27332413 -0.7719903 -0.23586082 1.0572599 0.21298516 0.6969298 -0.4842827 0.8063032 -0.41967452 -0.15834258 0.109674 -0.43821183 0.5975358 -0.7763036 -0.16261967 -0.44065478 -0.15365656 -0.10387769 -0.16791733 -0.2212559 0.7272662 -0.31750277 0.42653307 0.28984496 -0.44137236 -0.008799905 0.10369416 0.47405246 -0.22692561 -0.091164455 -0.9744693 0.7179826 0.08708559 0.43864927 -0.11999619 -0.52541614 -0.07971364 0.32020646
1445 0.06441184 -0.82860416 -0.23732495 0.07746042 -0.52848655 -0.07595163 -0.67828524 0.84922075 -0.26953614 -0.33368486 -0.30207884 -0.035984337 0.48156703 0.34384674 -0.85197514 -0.32629222 -0.7813589 -0.15580599 0.20522687 1.159124 0.032800596 -0.1655563 -0.06011457 0.2560954 -0.36558497 0.12788545 0.5664829 -0.29949692 0.506718 0.16258904 -0.11655583 0.68021405 -0.25986096 -0.043478083 -0.023995556 -0.4588891 -0.4078625 -0.12686932 0.6655006 -1.0286803 0.07556325 -0.57366365 -0.14961915 -0.2525527 -0.62271535 1.0972621 0.6670617 0.73279166 0.43298703 -0.21466236 0.31336358 -0.4543613 0.50112206 0.6507513 -0.405714 -0.54577607 -0.48862424 -0.17432363 1.0965961 0.9433323 -0.7029743 -0.09827905 -0.27298763 0.13171422
1442 0.2423796 -0.22142768 0.76865196 1.3017615 -0.13375425 -0.47839049 -0.19547793 0.2387562 0.22820751 -0.23379242 -0.7591211 0.46725643 0.27844742 0.34897715 0.26079786 0.65143836 0.19213454 -0.06586891 1.1084344 0.59082675 0.29598457 0.33442077 0.16670705 0.1076377 0.2048186 0.037521735 0.061185826 -0.50777805 0.6959896 1.2597023 0.09999473 0.6135799 -1.4049872 0.13907912 0.61435765 0.3291886 -0.43693817 -0.7632535 1.7893149 -0.5620277 0.33830386 0.37085822 -0.49157694 -0.065917514 0.7241519 -0.24385457 -0.050964005 -0.27992067 0.70117474 0.5621034 -0.8543867 0.2372632 -0.4604403 0.41712898 -0.7466975 0.57844085 -0.6204841 -0.073979266 0.46343458 0.8703623 0.38347927 -0.43359497 -0.4430451 0.45033777
5235 0.42694402 -0.3109788 -0.29760465 -0.12242953 -0.22477846 -0.020736171 -0.54672635 0.9579672 -0.045762002 0.22921725 -0.31074637 0.29416996 1.1719129 -0.15010855 -0.39507863 -0.036413 0.82553273 0.4558475 0.53727263 0.5154437 0.19951682 0.78777033 0.49116844 0.76591074 -0.20901139 1.4140867 0.5379425 -1.1483668 0.3118699 -0.5352153 0.16063578 -0.929922 -0.3783344 0.16412877 -0.6427109 0.30130896 -0.658489 -0.46823567 1.0819757 -0.11179577 -1.4994591 -0.87565136 -0.5760398 -0.65311766 0.6699355 -0.6030551 0.28442246 0.26117602 0.49157268 0.81828153 0.1611917 -0.44640118 -0.16282554 0.99985844 0.16485287 0.65728456 0.58817595 0.16013014 -0.55156827 -0.13759005 0.66166127 0.31160292 -1.452974 0.10352981
4133 0.8783459 -0.47546366 -0.10485874 -0.09132124 0.110365316 -0.28486502 -0.31154445 0.5134718 0.11569034 -0.2716239 0.032031145 0.5909317 0.4112697 -0.30482566 0.2137914 -0.59003353 -0.4512905 0.5444714 0.4812412 0.397989 0.667623 0.03848493 -0.0060956907 0.80183846 0.46234435 -0.31274387 -0.0715637 -0.46952355 0.3500633 0.37209922 0.5479789 0.006984467 -0.75025034 -0.10526607 -0.15673496 -0.43972495 -0.4166314 -0.02079355 0.3044263 -0.2725171 -0.49794033 -0.24633728 -0.0028001058 0.30817285 0.69648546 0.009795066 0.37850833 0.4071712 -0.53842664 -1.1104487 0.5637109 0.24453029 -0.6717868 -0.4760949 -0.76652545 0.8886617 0.9270215 -0.8889851 -0.4533666 -0.34366816 -0.49850735 0.8241393 0.46064445 0.15564553
4714 0.22937477 -0.07543651 -0.4100184 -0.20107174 -0.25121686 0.10598402 0.03567712 -0.2803026 1.058508 -0.42190173 -0.3456645 0.28749767 0.7024309 -0.38816464 1.3336349 -0.089417756 0.24952863 -0.25826946 0.09453638 -0.18152525 0.11991297 0.0629981 -0.23273039 0.2767093 -0.58194125 1.0702506 0.80731714 -0.15405485 -0.03777869 -0.109586395 -0.09129722 0.4964312 0.08155142 0.57096183 0.25965044 0.003906838 -0.46761662 -0.31654027 0.015685178 0.22895655 -0.5313714 -1.017603 -0.40608972 -1.8336673 -0.40843627 0.19789374 0.068534054 0.3863086 0.35666886 -0.058721423 -0.17425214 -0.3405858 -0.05696148 -0.48132864 0.17194198 0.16391496 0.7674016 -0.57979995 -0.3008551 0.68979394 -0.6048854 -0.21783589 0.003585588 1.1264951
1758 -0.14845821 0.26946926 -0.26813975 1.1781874 0.70583856 -1.2200482 -0.56814146 0.88757396 -0.52403915 -0.09248929 -0.96918803 -0.39745015 -0.4653113 -0.04006644 0.4742414 0.29523742 -0.025156938 -0.7195084 -0.07625701 0.25128427 0.47983867 0.37926963 0.74061507 0.59312993 -0.40644628 0.3490493 -0.21190564 0.8122319 0.8411257 0.63291097 -0.5310811 0.10471557 -0.32884002 -0.27179217 0.84366053 -0.055919077 -0.7805419 -0.31096447 -1.1516511 -0.71203107 -0.23434865 -0.8755516 -0.74806154 0.029351087 0.23870456 -0.21021108 1.3912811 0.1212316 -0.0005826006 -0.38691512 -0.110984445 0.132028 -0.38210538 0.3046837 -0.14837235 -0.39627674 1.1437143 -0.118958466 -0.1607436 0.26878196 0.011163398 -0.003993299 0.2906017 -0.85665756
4940 -0.41104168 -0.53439313 -0.52709085 0.45361352 -0.40400025 0.10450865 -0.41752413 -0.8411498 0.18610267 0.72891176 -0.61503947 -0.029270407 -0.08800095 -1.1628499 0.40344262 -0.19376619 0.44243965 0.08387557 0.9859356 1.3581712 -0.22347902 0.9934467 -0.75155383 0.15355593 -0.9943449 -0.645978 0.122114524 -0.38912132 0.8228399 0.42078787 0.94293517 0.27497143 -0.43103576 -0.03580296 0.6726922 -0.6735275 -0.36374447 0.7374074 0.70354426 0.36404207 -0.3798369 -0.2942252 -0.8537447 -0.7624797 -0.18008833 0.03875794 -0.45594186 0.5508052 0.52443856 -0.82424563 0.27971354 0.13374138 0.5170133 0.11858501 0.8138409 0.22331825 0.79800016 -0.08557952 -0.064133465 0.877658 -0.40675706 0.20102738 -0.7287019 0.3648004
3315 -0.8082388 -0.4498815 0.4303253 0.09901446 -0.111814655 -0.3512975 -0.9107001 0.22810124 -0.076699644 -0.63760775 -0.81053865 -0.5205482 0.97276586 0.3429481 0.20464186 0.023064096 -0.4497077 0.31414023 0.21045324 0.12270073 0.21375088 -0.44666666 -0.7543061 0.30409932 -1.0869956 0.83406913 -0.10218379 -0.24546063 0.5939381 0.2650231 0.9385423 -0.19271071 -1.0746752 0.38332987 -1.2073796 -0.44472864 -0.27341217 0.13395481 0.32831004 -0.25998402 0.32892394 -0.19427499 -0.730094 -0.2583673 0.6002064 0.11427205 -0.14182483 -0.4630659 -0.78746057 -0.31430367 0.65990794 0.43000966 0.3447316 -0.4785328 0.22656853 0.334312 0.8098573 -0.013322815 -0.62583727 -0.042594127 -0.7980399 0.4771508 0.05307556 -0.18425202
1329 -0.28662536 0.2335101 -0.17437725 -0.43267858 0.7884557 -1.2235504 -0.7707837 -0.93621916 -0.0038225802 -0.3109028 -0.44829088 -0.53598726 1.2065128 -0.13789348 -0.48532087 0.74706393 0.13685262 -0.92804515 -0.36924136 0.61200655 0.25426728 0.5534612 0.44293162 -0.0969326 -0.39039475 0.49910405 -0.143871 -0.8856858 -1.0541773 0.16014928 -0.2106501 0.8342867 -0.8628305 0.11921498 0.29357016 -0.49236867 -0.5883345 -0.35753447 0.009177804 -0.27006635 0.0010526223 -0.75237006 -0.97544914 -0.37980768 0.013664882 -0.83786345 0.48839867 0.10147638 -0.037270866 -0.1292896 -0.15423022 0.11707459 0.12965631 -0.35670623 0.17010078 0.36473867 -0.031243168 0.046288542 0.79864544 -0.45202437 -0.7412386 -0.1294618 0.008770481 0.054085124
7659 -0.3906678 0.0729976 -0.50100344 -0.101292096 -0.45261887 0.030403463 -0.3438261 0.22169104 0.28042862 -0.04811881 -0.73420006 0.3462546 0.62692374 -0.43280044 0.11042593 0.41025952 0.13403744 0.2201144 0.0864244 1.0492926 0.11715973 0.87400913 0.30553052 -0.666167 -1.4242611 -0.3014532 -0.4605526 -0.58865947 0.13718781 0.87402457 -0.32503 -0.022700304 -1.1830933 -0.115545206 -0.066548385 0.95455116 -0.17348023 -0.27757114 0.03934833 -1.010005 -0.027724281 0.59184426 0.32456687 0.08416406 -0.028870864 -0.666139 0.88896006 0.38369134 0.20731936 -0.33746162 -0.23657592 -0.2688949 0.13304774 0.22495216 0.7798268 -0.6142291 0.22396062 -0.96169394 -0.14195052 -0.5643219 -0.28545398 0.62773854 0.20651987 0.80937564
470 -0.047316365 -0.8175238 -0.2413829 0.14551055 -0.2734007 -0.15701152 -0.92601806 1.0318556 -0.09446297 -0.34227565 -0.101027444 0.2332734 0.54630715 0.65507734 -0.5046444 -0.5501781 -0.11527888 -0.57312113 0.016150784 1.0058749 -0.12716176 0.28653076 0.045266245 0.3099926 -0.8857975 0.16806085 0.5981978 0.07574524 0.034837972 0.008236326 -0.05754027 0.65717256 -0.33218947 -0.18596765 -0.36238965 -0.7758852 -0.42335925 -0.24499941 0.52388024 -0.74919546 -0.14227189 -0.71965796 0.019170016 -0.07345145 -0.7542662 1.0534847 0.43826076 0.65916324 0.32487765 0.38134423 0.57486343 -0.25747666 0.339758 0.5128049 -0.40944147 -0.4557609 -0.44892818 -0.3272892 0.6990429 0.081083335 -0.26365888 -0.086332805 -0.16503754 0.14036348
8509 0.6589484 -0.11026215 -0.06499313 0.5486798 0.04874444 -0.16162278 -0.827023 1.544855 0.07752862 0.56683946 0.33259252 0.18748495 -0.47649106 -0.10740662 0.23126338 0.0068794955 0.117665395 0.41229448 0.33210164 1.0184867 0.36532742 -0.0006458478 -0.41718563 1.263429 -1.4745617 0.010676152 -0.64549744 -1.3440266 -0.46847725 0.7774806 0.23153436 -0.44908777 0.038853697 -0.80792266 0.1431055 0.9633869 -0.38663945 0.194481 0.19809476 -0.35251522 0.3295737 -1.7029139 -0.13323705 -0.9380447 0.56779444 0.06497388 -0.43353978 0.24490874 0.118636124 0.32220942 -0.5810632 0.3671212 -0.14801031 0.7532775 0.4167663 -0.35042822 0.28686053 0.20903423 0.08934371 -0.22693245 -1.0681665 -0.114996165 0.95012873 -0.44413102
4712 0.30460984 -0.19980867 -0.35707045 0.4035298 -0.1950965 0.40522513 0.1525738 -0.48091087 0.77411795 -0.17596336 -0.25003418 0.6224911 0.73586893 -0.5903734 1.5721792 0.05893055 -0.05333527 -0.03648896 0.059469864 -0.120205276 0.129707 0.024870235 -0.20946449 0.46360868 -0.28429833 0.8665941 1.050624 -0.60577005 -0.522468 -0.26030663 -0.15953691 0.9680688 -0.4106158 0.13141511 -0.08555279 -0.15594879 -0.45123693 -0.36502156 -0.28177285 0.18075924 -0.47806805 -1.108817 -0.37664402 -1.4963425 -0.8308463 -0.14543207 -0.022881454 0.44061354 0.39976355 0.1632642 -0.41602308 -0.25896585 -0.16182496 -0.34044716 0.13232695 0.31957358 0.8677121 -0.6527355 -0.29973972 0.4837677 -0.2763875 -0.26227087 0.1746215 0.7256523
4842 -0.5205202 0.1367798 -0.27335313 -0.6876356 -0.37886208 -0.03343744 -1.2902775 -1.067206 -0.13217321 0.36936182 -0.055724967 0.39599726 -0.21858042 -0.41672212 -0.26974827 0.21435003 0.51218456 -0.60366905 -0.3343083 0.96551937 -0.35956743 -0.17640674 0.1543368 0.23264734 -0.17771949 -0.1753536 -0.23503003 -0.76273084 0.11851148 0.55422086 0.25297433 1.4719696 -0.42810035 0.43143854 0.45431778 -1.0978336 -1.3511689 -0.7187577 0.31706226 -0.6832087 0.4740849 -1.1837307 -0.63019234 -0.36653763 -0.41725752 -1.630513 0.13913989 -0.050669543 0.2107998 0.32486 0.3522534 0.057504673 0.21514711 -0.22260162 -0.029716399 -0.17709684 0.75928 -0.58923227 -0.22232258 0.13416637 -0.5391596 0.69855416 0.47262317 -0.27136394
674 -0.47189602 0.10435075 0.20647962 0.15375036 0.8175441 0.5630811 -0.5350699 -0.2578677 -0.18347153 0.37799174 -0.2509581 -0.09115535 -0.085135326 0.5511892 0.5411336 -0.344731 0.074202426 -0.41186905 0.098189704 0.040973745 0.78756183 0.52059734 -0.117851816 0.60951906 -0.35893768 0.07589946 0.70593345 -0.5800286 0.34975824 1.0191354 0.73076516 0.046770945 -0.3942904 0.22617762 0.21818523 -0.45872694 -0.33098906 -0.46008828 0.24823597 -0.14237966 0.6639974 -0.30007553 0.21415628 0.17320319 -0.42492095 -0.2702266 -0.08854322 0.028719852 -0.075713105 0.76184267 0.042962547 0.58988935 -0.26099673 0.15218875 0.67764854 -0.10111555 0.25809786 -0.50817853 0.037993293 -0.20973755 -0.8844815 0.3081742 -0.339612 0.10522381
3799 -0.095981956 0.119031966 -0.54170656 -0.14432839 -0.15354761 0.39740527 -0.71327025 0.44170132 0.23578976 0.26889944 -0.65313625 0.014005642 0.9345903 -0.68625695 0.7131674 0.36454 0.27910566 0.058139905 -0.11690813 0.77588546 -0.20325612 0.6105215 0.24983667 -0.18789735 -1.4602472 0.7026404 -0.39775765 -0.5437713 0.12246662 0.4379381 -0.41797015 0.42145318 -0.71279275 -0.3327151 0.017319556 0.5697904 -0.19559358 -0.39458075 0.06405466 -0.9150045 0.15057416 0.43579248 0.6097387 0.1212729 0.5406085 -0.63884 1.1404626 0.15255904 0.1720996 -0.16447458 -0.30933705 0.07398828 0.4190834 0.23021542 0.8247048 -0.36125103 0.45687366 -1.0286157 -0.19666839 -0.38856724 0.4311915 0.44799435 0.55283904 0.7631056
5755 -0.17058727 -0.9287916 -1.0595571 0.25720686 -0.21015829 0.055348102 0.054127753 -0.451631 0.5660128 0.65728784 -0.836493 -0.0070891767 0.7738385 -0.6378807 0.34558117 0.41619927 -0.10492361 -0.41573533 0.8295013 1.2030287 0.34047833 0.6098114 -0.46080747 0.1228823 -0.8796619 -0.49762845 -0.64537054 -0.06436733 0.7235306 0.10944668 1.4672129 0.60102737 0.068490915 -0.4671578 0.6936241 0.13914885 -0.44081628 0.7320204 0.5176561 0.76352865 -0.06927418 -0.69250643 -0.52855587 -0.9236023 -0.14470921 0.1562202 -0.8515045 0.65607816 0.8091132 -0.31855813 0.20113626 -0.3382711 0.764449 -0.2674955 0.7450883 -0.22942108 0.8459903 -0.32301956 0.10942414 0.6677114 -0.30907783 0.51103854 -0.43306196 0.27604777
3946 -0.18284306 0.047919847 -0.14680186 0.25338268 -0.3629103 0.15113953 -0.26667786 0.18036254 0.11065481 -1.5682623 -0.29505745 0.8910046 0.4188176 -0.7991536 1.0974104 -0.30440494 0.4186098 0.66557866 -0.101621285 -0.011891454 0.65117276 -0.6179697 0.1283991 -0.277973 -0.4517326 1.2284181 1.2404234 -0.19138043 0.39948726 0.35027075 -0.7345497 0.42106947 -0.47008875 0.34875354 -0.37159324 -0.022695731 -0.34013507 -0.5197709 0.09929147 -0.13548371 0.4927 -0.7272545 -0.91229796 -0.7499092 -0.28118017 -0.2323664 -0.09828862 1.478886 0.7102414 -0.57186645 -0.6567727 -0.08440843 0.8410136 -0.54941267 -0.07531143 1.2681859 0.8373972 -0.75123066 0.59871095 0.6784531 -0.5885452 -0.7649166 -0.14754893 -0.013017986
2580 0.20865658 -0.8401772 -0.539132 -0.14624085 -0.041943476 -0.08974847 0.0739589 0.5635142 -1.0468094 -0.00764142 0.31162566 0.947595 1.0852246 0.053430628 0.57047176 0.4450809 5.042692e-06 -0.38366213 0.42985412 0.21696529 0.35022986 1.1209222 0.15338705 -0.6309197 -0.10148528 1.4835933 0.031449784 -0.62922305 0.038434967 0.5192432 0.9732415 0.005436787 -0.89513564 -0.7891842 0.25554404 -0.66737974 0.0077401386 0.3458251 0.2845927 0.36610168 0.43236163 -0.25919265 -0.07141365 -1.366853 0.1237128 -0.57867575 -0.4947295 1.1247624 0.49637643 -0.07779108 -0.18276842 -0.6976945 -1.0979997 -0.5617768 0.12643142 -0.50332403 0.106836766 -0.783388 -0.0553063 0.42859316 0.0970694 0.5768734 -0.58858097 0.25909448
5661 0.75600374 0.113941625 -0.105970666 0.318722 -0.08850078 -0.30135405 -1.0831591 0.92169523 1.1703422 0.2030672 -0.6061889 -0.07902889 0.49492002 -0.020808855 -0.1359146 -0.48473525 -0.37405124 0.05549264 -0.33114457 0.09055404 0.18779401 -0.33070937 -0.7474817 0.37347677 -0.8444135 0.8668178 -0.53932357 -0.24440663 0.38326788 0.6159832 1.2489706 0.2730896 0.017909763 -0.1498822 -0.81460446 -0.9663254 -0.76320326 -0.9954584 0.38333338 0.2023311 -0.5316396 -0.38735387 -0.84870046 -0.75734717 1.120469 0.40042162 -0.2889118 0.33829796 -0.7062322 0.5765027 0.7934173 0.6190925 0.3116426 -0.4077004 -0.2056097 0.9982284 0.73041046 -0.055959854 -0.29010287 -0.29133564 -0.21531434 0.34145993 0.5039802 0.34450096
26 -0.45071784 -0.092256695 0.37201276 0.27149642 0.07757502 -0.25881675 -0.63450664 -0.41103843 0.44308922 -0.16696255 -0.3209688 -0.9297202 -0.1466719 0.4540719 0.2930354 -0.33741936 -0.2630003 0.32132155 0.067224704 0.39138874 1.0183825 0.15386112 -0.30170026 0.6551096 -0.26514146 0.040155858 0.9976434 -0.58214945 0.26928654 1.1643059 0.2754392 0.37716824 0.29104233 -0.5679667 0.02274927 -0.42054117 -0.45546076 -0.14293095 0.16381432 0.055390503 0.040632028 -0.41668853 -0.18246642 -0.21918447 -0.14198394 -0.46178693 -0.09282538 -0.18656893 0.49793985 0.20120344 -0.1862763 0.24810901 -0.010064016 -0.49457833 0.5040508 -0.36565402 -0.053404927 -0.54444116 -0.1285965 -0.3910833 0.29612115 0.3610773 -0.46400055 -0.27596897
4123 0.3269716 0.16625462 -0.8202966 0.44579878 0.27869657 0.23508742 -0.8136464 0.69670653 1.1323396 -0.43180797 -0.8393452 0.031058723 -0.7994888 -0.56018734 0.5642416 -0.42207146 -0.1288219 -0.10200467 -1.0092505 0.60166454 0.09839219 0.5222638 0.24982503 -0.359254 -0.114511915 0.82448703 0.96081287 0.0072572296 -0.07391755 -0.2886115 0.051084284 0.6473998 -1.5542026 -0.6046327 0.07136049 0.13372801 -0.09846584 -0.116935186 -0.22158195 0.12652303 -0.14786862 -0.66665447 -0.9080172 -0.9473894 0.013488967 -0.22591081 0.4359454 0.06243783 0.71490526 -0.45542955 -0.062247694 0.20631962 -0.24184199 -0.11420963 -0.7609293 0.15772298 -0.37887844 -0.06284562 -0.89578086 0.016039733 -0.7927177 -0.027095232 0.13573891 0.9355964
4951 0.21990447 0.043572802 -0.27340665 0.8495515 0.5110372 0.41778076 -0.37650707 -0.40918437 1.4035724 -0.89844054 -0.22511613 -0.7631333 0.71143514 -0.26832452 0.7623057 0.19359697 0.33229253 -0.016982747 -0.60721976 0.37846503 0.3968483 -0.19230194 -0.11582393 0.1660859 -0.04144769 1.6666031 0.54229254 0.13889904 0.5950963 0.28364816 -0.10052796 -0.024258656 0.35602933 0.5793999 0.90469736 0.21257211 -0.81675863 -0.594207 0.352621 -0.4027885 -0.09365341 -1.2957497 -0.084716335 -1.2288258 0.7961479 -0.5803733 0.5623112 -0.16025494 0.065741904 -2.0160275 -0.462464 -0.19814256 0.30532694 0.45277706 0.51728445 0.09976001 -0.06369317 -0.02581833 -0.24841793 0.057334416 -0.92789894 -0.5156125 -0.033334855 0.99092907
1862 0.3040809 -0.18435669 0.1860378 -0.2806209 1.0951743 -1.6776365 -0.31781524 -0.5832956 0.11542942 0.20593375 -0.5127276 0.080866724 0.97219795 -0.3675486 -0.29366276 1.1244377 0.04162083 -0.65366167 -0.31667227 0.49206692 0.16726929 0.46983227 0.7530946 0.30377242 -0.17634013 0.40482074 0.5610822 -0.8458587 -0.66995245 0.17254642 -0.03402638 0.9040604 -1.0103983 0.35819292 -0.21372525 -0.3526988 -1.0464978 -0.4193612 0.14156999 0.009806696 -0.51145375 0.06910892 -1.1603569 -0.13347839 0.17534332 -0.3896825 0.009134469 0.32272568 -0.137724 -0.37122655 -0.80299455 0.059252694 -0.32960144 0.27216738 0.022777101 -0.07222813 -0.42855394 -0.48125494 0.6909607 -0.26680893 -0.8025625 -0.37415156 0.17243035 0.19368695
2601 0.19440277 -0.382994 -0.100849405 0.7175208 0.37558493 -0.7798103 -0.34735742 -0.5560571 -0.2119598 0.09374857 -0.5275048 -0.18291901 -0.47539812 0.3436071 0.14574648 0.22958398 -0.5044588 -0.16293766 0.12071988 0.7633354 0.3953263 -0.3354595 -1.1052195 0.23224932 -0.26454046 0.46516654 -0.49150681 -0.4176148 0.6323526 0.48493475 0.2167286 -0.3568066 -1.0091473 -0.0020561458 0.62345874 0.40143406 0.16125266 -0.32253614 -0.077247486 -0.29537746 0.13689417 -0.47781056 0.240782 -0.3505855 0.5080866 0.16721745 0.31691316 0.10652222 0.65434116 0.13263045 -0.7369206 0.2348736 0.083493195 0.11989661 -0.9818346 0.34693557 -0.15105455 -0.58242697 -0.038601477 0.73382574 0.16417436 -0.5656443 -0.6904056 -0.02004533
4973 -0.3952151 -0.53332627 -0.71920115 -0.16187587 -0.08838431 0.0015033571 -0.08789909 -0.026355715 0.4756227 0.16031532 -0.15961279 0.39198557 0.2020051 0.0774309 0.25173756 -0.1408218 -0.5001062 0.44323027 0.4906083 0.7264897 -0.12402154 0.25504562 -0.25866237 0.19904496 -0.77375853 0.87828386 0.43134576 0.26651788 0.17865169 0.09793858 0.5150852 0.6181402 0.21138059 0.424917 0.1537002 -0.29937342 -0.28422168 -0.045314714 0.42630374 -1.1019087 -0.17793044 -0.88124824 0.5384977 0.10500126 -0.5976161 0.045172743 0.9029612 0.8769919 0.43367222 -0.28340313 -0.52431774 -0.0007803222 -0.27349913 0.51152223 -0.66178626 -0.49995556 -0.54318255 0.25639758 1.1585262 0.04042429 -0.2575539 0.66409814 0.8545405 0.009141934
3983 -0.4101691 0.60523117 0.2695184 0.94690895 1.2001925 0.45360914 -1.1167045 1.6360872 0.8919213 -0.7785435 0.30288807 0.6773485 1.927288 0.6510791 0.21760873 1.087217 -0.76818347 -0.83734906 -0.9782668 0.2927217 0.44383174 0.4181165 -0.80580187 -0.74214095 0.26216492 0.06785254 0.3657191 -0.10922448 0.9146671 -0.17160815 0.45528087 -0.14992481 -1.0254983 0.46091253 1.0849143 -1.2427157 -0.7852519 -1.4544137 1.1560458 -0.6584074 -0.689505 -0.13498278 -0.37643066 -0.4650593 0.2321855 -0.175924 -0.9307895 -0.40626603 0.088796906 -0.8648315 0.8788379 0.24144882 0.6086112 0.27115637 -0.5834947 0.42574427 -0.018357288 0.27659297 -0.33426479 -0.41452757 -0.6975375 0.86810344 -0.75040895 0.15464371
5557 0.7567388 -1.0825179 -0.8942818 0.89433074 -0.40838736 -1.2603726 -0.7726945 -0.0680274 0.24927577 0.09891124 -0.86549443 0.06602731 0.6856079 -0.28826487 0.34932396 0.03234437 -0.46514565 0.32082894 -0.30269858 0.7930315 0.68621725 0.14593567 -0.7778282 -0.14293286 -0.15779445 0.75144494 -0.0068874964 -0.022550752 0.13494684 0.27400282 -1.0709218 -0.54278624 -0.5699938 1.0785367 0.4478545 -0.14365709 0.0025169242 -0.21548 0.12197935 -0.84169525 0.85000926 -1.0171067 -0.2546724 -0.10552905 1.277376 0.5448381 -0.66392165 0.14161438 -0.6288086 -0.39199468 -0.48041058 0.9016494 -0.36911106 0.13780338 -0.6697652 -0.7543635 0.38618934 -0.74844915 -0.20603569 -0.23722242 0.39833188 -0.3267774 -0.7530055 0.14761326
177 0.7954562 0.13067387 -0.38361627 0.8124556 -0.32012743 -0.5339584 -0.5620676 0.46704954 0.47620785 -0.023255922 0.4363505 0.31015328 0.6966319 0.09914817 0.42508888 -0.0273322 -0.13265406 0.7944161 0.101259 0.20650703 0.38967842 -0.36480597 -0.21631941 0.4789025 -0.33702105 0.47995028 -0.27962297 0.03905473 0.35779503 0.4722529 1.647718 0.33950335 -0.37980825 -0.10030512 -0.40616462 -0.622321 -0.887142 -1.29201 -0.03813259 -0.5189418 0.13368833 0.12678736 -0.78856105 -0.09509682 0.66768235 0.1836623 -0.023816144 -0.13173056 -0.1918127 -0.70537555 0.35894707 0.2507254 0.43859622 -0.7994229 -0.15477908 0.69806904 0.3104451 -0.30005994 -0.66188276 -0.32200456 -0.43298033 0.19891371 0.24158639 -0.16232929
769 -1.5901266 -0.4125469 -0.3092651 -0.045961704 -0.27039 -0.32814968 -0.24122864 -1.0450113 -0.47088665 -0.2713739 0.13074832 0.4899804 0.62254196 -0.7247869 -0.83505774 0.66974735 0.54571086 -0.5104149 0.059848957 0.82824165 0.64232665 0.5979619 -0.44315928 -0.113869265 -0.08113166 0.06626574 0.77931535 -1.194917 -0.54328156 0.17450444 0.01861204 0.6719976 -0.12830158 -0.17736113 0.91022086 -0.124660835 -0.80451834 -0.6620457 -0.4100617 -1.0913726 0.11890482 -0.7748332 -0.34074718 -0.11267091 0.7803161 -0.1883178 0.533149 0.38203698 0.12575799 0.29003063 0.35843155 0.31757498 -1.247065 -0.26753616 0.26543826 -0.052215435 0.52314943 -0.8222161 0.1172759 -0.057470217 -0.9252805 -0.080566175 0.9227259 -0.4873125
7114 0.09644566 -0.8335975 -0.34574 0.26449037 -0.40253165 -1.1115094 -1.3229256 -0.11940444 -0.25969154 -0.49392474 0.05734819 -0.04941662 0.11017566 -0.32478893 -0.19659826 0.5505518 -0.34689504 0.87775224 -0.57209045 -0.08265863 0.8295649 0.36472028 -0.274296 0.45652637 -0.15082428 0.47303104 -0.11495818 -0.122477144 0.031047449 0.14910577 -0.5382372 0.73773617 0.056658342 0.9711367 0.63226557 0.18677297 -0.18942471 -0.63285077 -0.0010663919 -0.86764544 0.25375283 -0.9418795 -0.20864823 -0.48547924 0.08767064 0.3592349 -0.89349985 1.1847978 -0.14447601 0.049635887 -0.6430204 -0.07881184 -0.71107954 -0.16130212 -0.6357126 0.6982499 0.049296837 -0.9312491 -0.1916277 -0.31089175 0.67855006 0.5910089 -1.1612586 -0.41620794
4890 -1.0501124 -0.7138814 -0.2509479 0.10230792 -0.14163776 -0.19625959 -0.29683876 -1.0691992 -0.5147709 -0.49482036 0.3090365 0.06597917 0.94650453 -0.70798343 -0.5110064 0.65667784 0.29948947 -0.40510133 -0.23381905 0.66460156 0.6825924 0.09666349 -0.87171954 0.12783507 -0.03791641 0.38558027 0.5520732 -1.1006986 -0.40477195 -0.18655851 0.026820756 0.5057805 -1.2126518 0.06579707 1.0595411 -0.1524856 -0.6248283 -0.15350233 -0.9606145 -0.30831045 0.5026722 -1.4785548 -0.33022645 0.35061297 0.6209777 -0.34809604 0.21257621 -0.24198927 0.18846625 0.23492417 0.9985312 0.18950176 -0.44702306 0.58744574 0.22031504 0.4375777 0.8712917 -0.61286384 0.15092747 -0.42858258 -0.7895804 0.15217258 0.5125494 -0.5815564
6688 -0.60513 0.087730184 -0.97706836 0.17353533 0.18660204 -0.6963922 -0.63592994 0.39291295 1.0165923 0.247166 -0.29714292 0.70496756 0.24540402 -0.24725784 -0.07425802 -0.54627156 -0.78950083 0.6183564 1.0358415 0.37357774 -0.1168447 0.43964338 -0.31924832 -0.43437314 0.18295315 1.2166445 -0.058589064 -0.026846742 0.3231614 0.2485049 -0.14422485 0.187406 -0.28362843 0.22107051 0.5930534 0.8860553 -0.36835873 0.027249226 0.28513086 -0.7717217 -0.06744429 -0.21560524 -0.119712606 0.23642686 -0.3086972 -0.32723382 0.6054371 0.29703215 -0.067331724 -0.008756987 0.47725946 -0.42981407 -0.12689486 -0.09553437 0.88066983 0.13911434 0.07627194 -0.4325694 1.0567473 0.09841224 -0.18072234 1.0405279 0.16530706 0.19301915
6780 -0.31874022 -0.8246355 -0.10278288 0.7682636 0.55015105 -0.39307138 -0.541717 1.0771027 -0.047965378 -0.17285511 0.47951367 1.2451535 0.5192739 0.8733383 -0.028265446 -0.34620386 -0.091716126 -0.7282847 -0.3754365 1.3469148 0.21441633 0.5069648 -0.0349945 0.60141593 -1.2111776 0.24872142 0.8079617 -0.13159963 0.4827619 0.12324185 0.80903023 0.26644042 -0.278527 0.5156095 0.29582036 -0.4328443 -0.15092924 -0.24553917 -0.46278676 -0.35027292 0.48175204 -0.7001817 -0.3191481 0.041264165 -0.38921845 0.6592495 0.3548663 -0.22157659 0.60084766 0.48665416 0.36744213 -0.6023807 0.55808324 0.2790996 0.20339033 0.5294359 0.38065302 0.41098005 0.38657624 -1.4514844 0.05833748 -0.122138776 -0.53649193 0.19076782
853 -0.73450345 0.4781662 0.1473017 -0.44298857 0.5732972 -1.0993066 -0.69324493 -0.64013433 -0.09626784 -0.2838118 -0.52267367 -0.6069346 0.6714253 -0.1348092 -0.42076072 0.9576499 0.008611664 -0.5955206 -0.27487394 0.55994576 0.38395622 0.62706673 0.58167785 -0.53184396 -0.55126595 0.442987 0.0022205075 -0.56743306 -0.42648166 -0.1974793 -0.11440434 0.4384217 -0.82416034 -0.14217208 0.90708566 -0.4115341 -0.6876188 -0.22875601 -0.11000825 -0.49771017 0.16618024 -1.0438 -1.2165643 -0.17256634 0.14747421 -0.42978385 0.5120418 -0.07042115 0.24467337 0.030331349 0.2661018 0.08987968 0.09164275 -0.42760068 -0.34487614 0.37201756 0.5025365 0.17267716 0.58327186 -0.14469509 -0.6291684 0.10299936 -0.08550123 -0.15689912
2742 -0.07950591 -0.38924658 0.64052516 0.57887983 0.63214254 -0.17892711 -0.23362015 0.08550822 0.23486984 -0.15674818 -0.41616997 0.05110837 0.0780257 0.43816236 0.37645462 -0.13506871 -0.2471369 -0.20090467 0.7508481 0.6674274 1.3052537 -0.07291111 -0.4589092 -0.44673195 -0.84097105 0.23602173 -0.29451653 -0.5825041 -0.21851902 0.57319695 0.21825998 0.47164893 -0.71724653 0.7281421 -0.1831988 -0.5699281 -0.5750483 -0.12513782 0.7125782 -0.86897576 0.1508617 0.023980914 -0.020699613 -0.012929672 -0.17141914 -0.30139327 0.51936716 -0.23514359 -0.01665163 0.4195789 -0.13331309 -0.32828638 -0.28776675 0.06464028 -0.26734623 -0.51642597 -0.4458237 0.16315277 0.26699346 0.150855 -0.44405022 -1.1606389 -0.90865684 -0.092846364
2054 -0.5794549 0.034397844 -0.16003895 -0.25752765 -0.4750807 0.047463853 -0.21384338 0.379649 -0.3564481 0.51259696 0.011981924 0.8137704 0.6299881 -0.6252096 0.59839857 -0.5290719 0.40101227 0.049540963 0.12797308 0.53792626 0.30048743 1.2363026 0.2567293 0.72143745 -0.20632015 0.5620696 0.17605256 -0.90002126 0.76156116 -0.16943562 0.4923423 -0.33112803 -0.49493268 0.30527008 0.073770575 0.8121043 -0.38635358 -1.023992 0.26992795 -1.0018224 -1.3018197 0.572687 0.26722848 -0.6689645 -0.0022628824 -0.09367119 0.548681 -0.17522025 0.74567366 -0.15176377 0.60108674 0.18729365 -0.32890645 0.5119223 -0.034563832 -0.55911475 0.9310008 0.44670066 0.35989082 -0.3509333 -0.055590365 -0.34692577 -0.9386358 0.09842307
5141 -0.054776408 0.19290033 0.5912937 0.7042805 0.7513939 -0.010824741 -0.56306666 0.094640225 0.091265015 0.4555291 -0.2300446 0.19610184 0.36938596 0.67435795 0.04454755 0.14503323 0.051356025 -0.4565801 0.654082 -0.17253536 0.9424029 1.2435848 -0.33200923 0.41810033 -0.3983301 0.03623587 0.72078127 0.35497594 0.4983101 0.49122652 -0.009229902 -0.054180767 -0.48485428 -0.17601396 0.5768654 -0.5774565 -0.49554953 -0.2529765 -0.16161047 -0.73825043 -0.055710908 -0.5343191 -0.08918115 0.039684888 0.25324535 0.5994769 0.64349705 -0.07388403 0.31583986 0.36988464 0.057952736 -0.8194227 -0.1407044 0.33806655 -0.05259278 -0.49890676 0.39797685 0.18402812 0.1934963 -0.68762434 -0.19905795 -0.12565164 0.22022387 -0.5215573
1161 -0.12817124 -0.063790046 0.0028832902 0.4800754 0.20006783 -0.5469535 -0.60795766 0.23959513 -0.07807126 0.065730125 0.23730607 -0.17279333 -0.06724724 0.75472134 0.022034818 0.45169434 -0.3104928 -0.8435487 0.65116143 -0.22863513 0.6338092 -0.51167667 -0.24811234 -0.5840309 -0.32711208 -0.21821843 0.12691876 -0.49199438 0.736761 0.059829213 0.62477916 0.42822826 -0.44504213 -0.42757928 0.6282248 -0.3692749 0.34586003 0.28789276 0.27946708 -0.42903104 -0.43368974 -0.64157176 0.0029429952 0.11577796 0.33558896 -0.8408801 0.81699914 0.7226483 0.54776853 0.6992294 -1.0573906 0.107558616 0.07121501 -0.01186711 -0.4791106 0.05143356 0.3596906 -0.11074774 -0.010964503 -0.13722026 -0.3136586 -0.468914 -0.8106853 0.45524135
3652 0.13914058 -0.19608568 0.3605143 -0.029414047 0.2815918 0.0488953 -1.1318344 0.20332992 -0.012951167 0.27838102 0.4332791 -0.37486544 0.7839596 0.8443354 0.36901936 -0.72571146 0.003921972 0.93267095 -0.5859639 0.11038588 -0.10652969 1.0061489 -0.2627737 0.45214564 0.15513721 0.064003214 -0.3964078 -0.45181555 0.57427 -0.072098255 0.9821737 0.14489885 -0.33939266 0.7905779 0.46022823 -0.5155669 0.040122412 0.29134238 -0.11444293 -0.3194616 -0.5800623 -0.38458768 0.04036194 -0.88795817 0.22525425 -0.34495983 0.57615626 0.8446884 0.4796167 -0.9343664 -0.18796176 -0.53801805 -0.66710466 -0.61926544 -0.45962405 0.28023574 0.0531953 -1.3765397 -0.22276983 -0.49783725 -0.5921165 0.5137676 0.2167464 -0.87716305
4980 -0.4911133 -0.14969379 -0.08032812 -0.3659073 -0.16538419 -0.056283057 -0.41552252 0.79530233 -0.6347706 0.6560979 0.4888491 0.8505106 0.56878644 -0.65541285 0.5934113 -0.6321607 0.4095011 -0.1376517 0.01408939 0.8433416 0.6082143 1.0018804 -0.106344424 0.75783557 -0.59412074 0.6690706 0.49707872 -0.8778331 0.42886692 -0.2881447 0.8742763 -0.28796571 -0.22047304 0.46097016 0.12234136 0.18868002 -0.16812968 -1.4415122 0.1556074 -1.1328017 -1.1017072 0.5532413 -0.0276609 -0.58937114 -0.68084943 0.12744278 0.46270663 -0.25933415 0.6075755 -0.17994949 0.13915342 -0.30109817 0.16302918 0.917488 0.04513227 0.02958788 0.77456456 0.5627933 0.40758014 -0.57918644 0.2935382 -0.115724035 -1.2933797 -0.09484728
5232 1.7596736 -0.1673014 0.4207516 0.41503745 -0.575175 -0.8427996 -0.42323312 0.7495813 0.37230387 -0.7224532 0.19336441 0.29820454 0.5367194 0.023651252 0.0398934 0.27034456 -0.5459634 0.40887615 -0.6910064 0.25975677 0.7248551 0.12100664 -0.7305591 0.050976504 0.10587146 0.2506299 -0.2353084 -0.5891749 0.22903483 0.2493613 1.7189837 0.9295621 -0.2966855 0.41887137 0.008056083 -0.75446147 -0.88783264 -0.7561797 0.027363924 -0.12194269 0.14860074 0.052282277 0.24728046 -0.36955667 0.5647329 0.32227802 -0.27758017 0.058024354 0.27089268 -0.6938535 0.81483424 0.57249546 0.14279138 0.13530031 -0.5045597 0.5176662 0.6924658 -0.33236927 -0.12234378 -0.30486614 -0.52372 0.25211018 -0.23805423 0.34815064
2936 -0.34604847 0.14883116 -0.39422196 0.3692779 0.1916472 -0.013251536 -0.8070984 -0.85952955 0.38684 0.43247044 0.15589447 -0.6827776 -0.8576485 -0.3926639 -0.057313282 0.48686028 0.3570576 -0.08274388 0.9164414 1.1773596 -0.20476255 0.894206 -0.21403241 -0.30745423 -0.83507377 -0.61627674 0.17889932 -1.2950617 0.320562 -0.4490757 0.678101 0.61063325 -0.9111419 0.48335582 0.22518234 -0.87325495 -1.1990876 -0.54553205 -0.02827545 0.0007940538 0.5354828 -0.4155295 -0.5045425 -1.07897 0.032936748 -0.3460872 -0.00930655 0.56535363 0.1871601 -0.4497332 0.34656745 0.043578304 -0.031924784 0.6725295 0.76383024 0.49794176 0.4349564 -0.32473704 0.84845215 -0.16808142 0.41080928 0.13751495 -0.5014471 -0.868987
2598 -0.6143627 -0.3750639 0.4759406 -0.09865675 0.022049969 0.1930285 -2.1247578 -0.2834301 0.18161167 0.69174355 0.23500197 0.14876477 0.76836425 0.4628766 0.8618619 0.2729352 -0.11279336 -0.40170595 0.34420854 0.08739153 0.6920988 0.11610668 -0.43313634 0.40694532 0.027562873 -0.024240337 0.1303185 -0.45617232 0.21893261 0.34029564 0.8381666 -0.23406255 -0.22113104 -0.41891438 0.43286228 -0.6315244 -0.34474957 -0.29758713 0.029851032 -0.08460205 0.43652698 -0.56417125 0.37446675 -0.5685463 -0.6989136 -0.27578846 0.027122669 -0.03615406 -0.6965366 1.0899311 0.21125676 0.8399259 -1.0857425 -0.45699108 0.89106596 -0.002547711 0.4074182 -0.7192142 0.25143263 0.20528112 -0.8409645 -0.28747398 -0.29480785 0.54038084
8101 0.20849112 -0.6951879 -0.47815558 0.25441298 0.70503044 -0.76174384 -0.8234074 0.48765334 0.2249504 -0.2253553 -0.81177014 0.17718364 0.6724872 -0.68114716 -0.29618248 0.70126164 -0.0075078765 -0.5863182 -0.38998708 -0.0067761787 0.22868589 -0.39466995 -0.055698838 0.44029593 -0.18543433 -0.56973034 0.5685974 -1.503662 -0.29478982 -0.25658977 0.38452873 0.46113086 -1.0733076 0.64712316 0.024100985 0.060456708 -0.7666554 -0.65671426 -0.9815298 -0.2745139 -0.7512601 0.79095143 -0.44477716 -0.10913544 0.17488831 0.11917473 -0.9233472 0.23436952 0.3803519 -0.6611164 -0.6923241 -0.15624715 -0.043163408 -0.13014972 -0.16769585 -0.66035813 -0.063872166 -0.5174189 1.0128769 0.6514868 -0.8242497 -0.25541812 0.21046332 -0.23112893
6718 -0.06380421 -0.8264218 -0.9067438 0.110394575 -0.27910617 0.08839293 0.17923163 0.003792875 0.005846885 0.5998248 -0.5479417 0.017189458 1.027994 -0.37687477 0.11861111 0.38481557 -0.28474054 -0.3511973 0.8353819 1.0156598 0.3150575 0.8348261 -0.23287024 0.336217 -0.5198965 0.3331688 -0.8196454 -0.08039616 0.5970848 0.03335631 1.4599241 0.85971874 -0.1552576 -0.8657217 0.40566772 0.09314518 -0.64097095 0.60526276 -0.22983338 0.4707219 0.12447237 -0.446853 -0.18632296 -0.820903 -0.3346939 0.23120281 -0.8525372 0.82607514 0.6822296 -0.048602495 0.47686934 -0.46433184 0.4436987 -0.7596045 0.5946105 -0.24626088 0.93117666 -0.7464428 0.32970512 0.41022804 -0.35832298 -0.012445768 -0.61454743 0.55268776
1162 -0.41045818 -0.7097926 0.4225031 0.7229858 0.48667943 -0.29884443 -0.70912474 0.24551909 -0.036054716 0.48911795 0.08068439 0.09827924 -0.19365291 0.32331872 0.037069622 0.169099 -0.14079688 -0.1253979 0.4394548 -0.02418193 0.6640931 -0.35638055 0.035060838 -0.28322643 -0.09030508 -0.25789523 0.71198595 -0.4501563 0.8454491 0.0027637552 0.2836038 0.50370896 0.024879226 -0.29675737 0.2361302 -0.8460378 0.16755474 0.46166795 0.5651579 -0.7026731 0.04785524 -0.41033715 0.15234639 -0.47048527 0.015622546 -0.8598735 0.642517 0.23050283 0.026614532 0.6330278 -0.60848796 0.16458687 -0.27460852 -0.15710557 0.19761616 -0.08377742 0.05317518 -0.18142715 0.32453835 0.3867672 -0.7026784 -0.4689673 -0.6025034 -0.07651506
2097 0.1945364 -0.6367217 -0.63987935 0.4766175 -0.20700194 0.38575202 0.20223066 -0.107286006 -0.23588996 0.26832327 -0.14640516 0.6450095 1.8730755 0.045354977 0.8914423 0.48059186 -0.03443516 -0.55549824 0.71819824 0.71796924 0.27242246 0.51317954 0.13265242 -0.04781772 -0.17569354 0.31275877 -0.5323028 -0.39088747 0.43476465 0.4138936 1.4791508 0.24046613 -0.29998586 -0.8979365 0.19072141 -0.08547375 -0.7206845 0.32442996 0.4167134 0.33026347 0.301212 -0.7088741 -0.37734765 -0.7835508 -0.13112558 0.3675691 -0.6950793 0.68178195 0.63703394 -0.3232237 -0.31458592 -0.68591297 0.26114747 -0.5851502 0.4807858 -0.31528723 0.7175499 -0.40451923 0.5677189 0.86451197 -0.03135031 0.68078905 -0.5752063 0.31885886
2711 0.3851539 0.11867463 -0.099947214 0.38801965 -0.01591246 -0.092947364 -1.2354264 1.8102751 -0.9056591 0.6677835 0.044213776 0.49675944 -0.27674443 0.039185498 -0.26249954 0.23068942 0.7278192 0.17009147 0.14463928 0.69295025 0.84450144 -0.0068495614 -0.45891356 0.8998252 -0.9916736 0.350122 -0.43790686 -1.2212061 -0.27262402 0.55378795 0.7111149 -0.0365141 -0.35753086 -1.0914302 -0.3264214 0.6886536 -0.38749623 0.19367369 -0.6658089 -0.46355206 0.21350071 -1.1952955 -0.30319005 -0.78188545 0.695897 0.02394444 -0.06683727 0.18694504 0.02783758 0.5421884 -0.3905787 0.4133369 -0.5445182 0.46031472 0.53953725 -0.37292054 0.011334621 0.025352098 -0.24200271 -0.024372544 -1.2160352 -0.0805714 0.5873922 0.020826325
1933 0.15878703 -0.52375937 -0.2795532 0.20287868 -0.15793112 -0.4745088 -0.8584782 0.13529888 0.2677619 -0.26021084 0.48812732 -0.52573586 0.7970822 0.70306087 0.731534 -0.36539665 -0.31860918 1.0116007 0.18454504 0.03522836 -0.20489171 -0.043955803 0.15657668 0.14268012 -0.7264196 0.11283646 -0.017506037 -0.08040904 0.93390906 0.37974587 0.66523486 0.32235232 -0.7495991 0.5019315 -0.16908382 -0.10357465 -0.29751435 -0.09336571 0.1577112 -0.7845095 -0.26041302 0.005138268 -0.394534 -0.16842666 0.88996506 0.2553115 -0.58150005 -0.26770273 -0.43097886 -0.7099278 -0.0023204912 -0.17751744 -0.3766235 -1.0414802 -0.32769415 -0.10169712 0.71280336 -0.029035976 -0.112716615 -0.9433441 -1.2349575 0.422245 -0.0019206622 -0.27883708
1393 -0.046478074 0.36259496 -0.78223723 1.0220652 0.052296408 -0.82661897 -0.34355247 0.75268227 0.18278041 0.14281312 -1.248453 -0.052108705 -0.017901788 0.3747418 0.2284828 0.58114314 0.15131046 -0.7508892 -0.040052462 0.75701463 0.71452063 0.51110977 0.6040611 0.6847037 -0.32562974 0.58201176 -0.40338913 0.87378806 0.6480312 0.15322596 -0.2444073 0.4057997 -0.40432456 0.60920626 0.57532376 0.35061008 -0.17034604 -0.24513516 -1.1964642 -0.13987607 0.26888472 -1.0286553 -0.44866645 -0.22101459 0.48566294 -0.27093947 1.203109 0.1880705 -0.7410526 -0.49911922 0.06668634 0.55274874 -0.026198162 0.44824356 -0.044346552 -0.7082097 0.67124414 -0.8388223 0.12751012 0.073197894 0.2314241 0.34798548 0.021026911 -0.45995206
7181 0.54986125 0.31122422 -0.5519643 -0.012532144 -0.24783258 0.082083985 -0.75347275 -0.11647087 -0.046192594 -0.9230002 -0.46613845 0.27170056 0.14580432 -0.6351329 0.8694177 -0.55501956 0.47518942 0.4995052 -0.09420199 -0.13046356 0.90463114 -0.43977803 -0.4199646 0.21331885 -0.36282665 1.2019457 1.0610672 -0.35303053 0.71684825 0.27674305 -0.23302841 0.35210392 0.33513194 0.18078417 0.19633764 -0.1379117 -0.17189221 -0.39885142 0.022239484 0.33057132 -0.0797802 -0.65388435 -0.23202522 -0.86876494 -0.2324514 -0.24538755 0.29222187 0.8962656 0.44144067 -0.8528656 -0.6420302 -0.21310152 0.31316566 -1.2045845 0.24851657 1.0196482 0.78718454 0.0470319 0.57742697 0.2668582 -0.8357812 -0.23885588 -0.22606881 -0.022884343
805 0.35816884 0.4057799 -0.63340384 -0.56519926 -0.033080548 -0.41712284 -0.9541411 0.8145488 0.32331538 0.4501723 -0.6114541 0.80067503 0.274585 -0.89120656 0.4219935 1.4369028 0.35459003 0.2738587 0.57576823 0.55398005 0.31152442 0.49902338 0.63904446 0.30317664 -1.1279869 0.59358805 -0.026955096 -0.7435024 0.76096433 0.78037107 -0.009299228 0.45963863 0.05895639 0.45489886 -0.581563 1.0035883 0.13389006 -0.20017199 0.26528838 -0.9606974 -0.05372978 0.5668981 0.3384111 -0.3461139 0.331386 -0.36939153 1.3284063 -0.118624076 0.17674561 0.41760153 -0.65369266 -0.069196954 -0.2498595 -0.8155147 0.8310398 -0.5873895 1.1440785 -0.8726767 -0.084802404 0.07122622 0.27016366 -0.7708553 0.45415595 0.054364424
57 -0.26795653 -1.0399675 -0.16711736 -0.040229328 -0.34424213 -0.3089048 -1.1527978 -0.20845263 -0.5364747 -0.65953714 -0.0043082866 -0.061122466 -0.23322162 0.18160291 -0.019481024 1.329811 0.028494805 0.0500114 -0.8758902 0.20900457 1.0664147 0.24418737 0.12954594 0.049127482 -0.20098098 0.61109644 -0.56667536 -0.037289783 0.23243918 0.2678969 -0.48180765 0.8524985 -0.48539597 0.6954213 0.16411616 0.056215562 -0.4117802 -0.70291835 -0.38007155 -0.47479054 -0.25726008 -0.6706175 -0.07553625 -0.2486549 0.14855714 0.28348485 -0.4578581 1.0098463 -0.98792994 -0.1631567 -0.41074052 -0.040857736 -0.6892457 0.039100923 0.20618668 0.9672423 0.5396373 -0.40355745 0.34573016 0.09627624 0.48071536 0.52097267 -0.36441118 -0.47121224
5572 -0.52683944 -0.30714187 -0.48539683 -0.38154194 -0.0775207 -1.320637 -0.4588495 0.37515587 1.1659244 -0.43071285 -1.392135 1.4232624 0.7661773 0.39793587 0.6425145 1.4879577 -0.93690294 0.6225135 1.0279365 -0.14687276 2.1267393 -0.8430657 0.27939954 0.84953934 0.22004655 -0.65911263 -0.24291806 0.062032245 0.5660216 0.86859524 -0.4377297 0.34744027 -0.24224356 0.5607624 0.78560084 0.11507336 -0.3274919 -0.94421417 0.29804155 -0.7896891 -1.1481155 -0.41462275 0.10652954 -2.1729016 0.048863858 -0.0928099 1.0110716 0.18522787 -0.17133293 0.39918405 0.26140955 -0.75040823 -0.38341594 -0.35005176 -0.37717035 -1.1768916 0.5170673 -0.112111025 -0.29645002 -0.6660541 -1.537557 -0.33971965 0.7649839 -0.5193933
4715 0.3691132 -0.17268236 -0.20291273 0.10901604 -0.47889355 0.29288113 0.16710642 -0.32281908 0.7411563 -0.31201702 -0.28661275 0.5401509 0.8088732 -0.6345116 1.5023586 -0.15496516 0.09143779 -0.012912199 0.04434188 -0.1248391 0.023090325 0.009812217 0.032013256 0.21656996 -0.45345917 1.0480145 1.0622199 -0.49316177 -0.37009746 -0.18487342 0.04121717 0.71130484 -0.3816745 0.19260678 0.046902068 -0.088382035 -0.55474395 -0.2183308 -0.13006516 -0.08188365 -0.6360363 -1.0476044 -0.44477874 -1.4734228 -0.72411186 0.10111715 -0.03195646 0.34120786 0.5282021 -0.0036204313 -0.39880258 -0.21299084 -0.24526177 -0.4475943 0.061262738 0.41453615 0.84716356 -0.6412007 -0.24715216 0.69444144 -0.24702762 -0.26098785 0.0759038 0.85169375
9380 0.359305 -0.18867628 -0.31268644 -0.41796732 0.63893986 0.51196253 -0.817292 1.3645552 0.83215344 -0.6418088 -0.10391202 0.47409323 0.66228724 -0.0009333392 0.2884926 0.92093563 -0.90689236 -0.7878332 0.19864549 -0.052620996 0.8209427 1.130649 0.5136755 0.99578136 -0.69055855 -0.7435415 1.3630441 0.6080041 -0.42901215 -0.15129004 -0.018197544 0.18605067 0.247897 0.98001266 0.2685906 0.45672566 0.090207785 -1.6324376 0.43683156 -0.6685917 0.04105302 -1.2820178 0.39953354 -0.8756657 0.2336354 -0.5111798 0.26328003 -0.27873015 -0.012669696 -1.3506346 -0.78126156 0.887834 -0.8819407 -0.8934049 -1.1861268 -0.20620234 0.5417665 -0.33022517 0.26721075 0.61088383 -0.7943323 -0.48996338 -0.017189622 0.5866944
682 0.34637696 -0.61118925 -0.5754261 0.18855177 1.1133889 -1.1365775 -0.79575545 0.4207822 -0.016088102 -0.0639763 -0.6139362 0.1308876 0.7333406 -0.71311533 0.33590606 0.75103396 -0.37032828 -0.71508133 -0.41912547 0.1718098 0.3818833 -0.04223243 0.3710842 0.49248207 -0.012255654 -0.5215106 0.6625204 -1.5156803 -0.44286084 -0.2961151 0.49543732 0.62910295 -1.2510431 0.77884763 -0.10160239 -0.12955453 -0.86144894 -0.70043886 -0.61000204 -0.012103459 -0.5717509 0.62945956 -0.832302 -0.4171401 -0.25877962 0.044147544 -0.8536791 0.18206286 0.053395264 -0.31602892 -0.8606127 -0.09697909 0.2700967 0.18802534 -0.055926986 -0.650331 -0.29903108 -0.53033537 0.76239777 0.38460416 -0.81907547 -0.1428466 0.067135364 -0.14791408
4790 1.328039 -0.5598585 -0.5952258 0.22459239 -0.18314952 -0.3732524 -0.99860287 0.27589315 0.19440141 0.28095725 0.0071083778 0.34190303 0.51857454 -0.20787963 -0.3724945 0.71787673 -0.2799119 0.80512816 0.32432014 -0.57446146 0.54874086 -0.1906701 -0.4446396 0.75543505 0.108937286 -0.046044987 0.5860737 -0.57323265 0.15366115 0.73877287 1.466956 0.08882041 -0.6906958 0.7207618 -0.23697038 0.05545922 -0.88778895 -0.6478406 -1.0810026 -0.000980847 0.19993532 0.16951837 -0.16039631 -0.37730548 0.25609097 0.26810098 0.6435641 0.16550563 -0.12409311 -0.9279556 0.4878709 0.8846862 0.31796363 -0.22884756 -0.55934846 0.88796705 1.7700974 -0.8405789 -0.17059053 0.35663804 -0.670593 0.13441278 0.22053955 -0.19254388
2712 0.21892326 -0.85064274 -0.8699209 0.43355283 -0.3375703 0.23243067 -0.087656386 0.082800716 0.2996083 0.5142335 -0.10194951 0.25204334 0.9802796 -0.23487987 0.44392595 0.4313846 0.16913971 -0.47431552 0.72457516 1.0517253 0.16632915 0.47185883 -0.277234 0.17252164 -0.47066656 0.095931634 -0.71297145 -0.28578496 0.94684726 0.19796628 1.4619634 0.683486 0.23434791 -0.7315835 0.6699676 0.2042272 -0.81842834 0.33834192 0.5022575 0.5567973 -0.0019144646 -0.30398324 -0.25338796 -0.94555867 -0.21872084 0.0650575 -1.0199769 0.57359266 0.74679315 -0.18881202 -0.21766265 -0.70067185 0.3038098 -0.5570729 0.9887974 -0.38898206 0.7579231 -0.69225526 0.32608473 0.93744266 -0.16730614 0.32484403 -0.5049537 0.29474416
4751 -0.033133585 -0.033721875 -0.5139591 -0.17403907 0.51777726 0.035102934 -0.8599704 0.5335402 0.4342938 -0.1982882 -1.1897391 0.85219616 0.41452825 -0.2550115 -0.7636141 0.19224569 -0.05455922 -0.6436986 -0.7947194 -0.00036687942 0.7157869 -0.5777507 -0.8152122 -0.06144245 -0.09393141 -0.9714499 -0.057970807 -1.4224689 0.13651149 0.16662566 -0.09511031 0.23116648 -0.66595 0.54791427 0.37624824 -0.16309014 -0.3082021 -0.69765806 -0.3411038 -0.67088383 0.022024166 0.07467453 -0.36955836 -0.040790457 0.00026086485 -0.4229811 -1.1600282 1.0148664 1.2228296 -0.49954084 -0.44995663 -0.19084625 -0.04068756 -0.27091756 0.19268739 0.053265814 0.8283405 -0.5875074 1.3013276 0.40833798 -0.6342006 -0.06932787 0.9114025 -0.5553155
1408 -0.9726225 0.28806996 -0.6746606 0.52790505 0.46812102 -0.30228314 -0.6606647 0.3431557 0.88991165 -0.3367327 -0.23593165 0.6910564 0.42316258 -0.5475042 -0.075192034 -0.13746127 -0.5484115 0.80274445 0.5086733 0.18071236 -0.7260322 0.7791951 0.010599438 -0.26917747 -0.1759711 1.3118951 -0.41848084 -0.78200585 0.5736886 0.3893799 0.003144841 0.5291949 -0.23785554 -0.08792166 -0.0802601 1.1980672 -0.11974471 0.045964573 0.15161572 -0.42843422 0.042850763 -0.15508386 -0.4024032 0.6153346 0.03860296 0.1555585 0.6985663 0.74042326 0.22837889 0.030671919 0.46928197 -0.22218966 -0.17182505 0.5431475 0.36418256 0.44900343 0.19310947 -0.31764516 0.5708464 -0.24782617 -0.8106795 0.5904561 -0.43576628 0.30718604
395 0.5300553 -0.00214115 0.29123664 -0.11146486 -0.42385948 -0.32451558 -0.61108536 0.048241157 -0.053861983 0.2171992 -0.37035683 -0.32763022 0.6093736 0.26315024 0.029088594 -0.56153166 -0.23927927 0.8041919 0.49879345 -0.041902702 0.24122308 0.35273418 -0.38588208 0.15464509 -0.5161724 0.048561256 0.074807405 -0.006670203 0.6012881 0.44036505 0.4849153 0.30101717 -0.78778607 0.5047124 -0.20579459 -0.4237613 -0.20050628 -0.5619486 0.026172314 -0.057254143 0.093064964 0.36354357 -0.28834873 -0.03850543 0.20677853 0.027748097 -0.059326816 0.18602403 0.10472688 -0.9808759 0.2476138 0.21420978 0.12108531 -1.0207418 -0.45222092 -0.09184187 1.3952758 -0.58903104 -0.28326744 -0.3897072 -0.87441707 0.61768466 0.5300651 0.046752118
787 -0.23810025 -0.49859166 -0.5139922 0.020744625 -0.048129406 0.4246826 -0.682515 0.52550864 -0.27805814 0.23034827 -0.91605246 0.055829357 0.32996544 0.45054704 -0.018434567 -0.05411104 0.010472256 -0.12609102 0.58450603 0.8810738 -0.17351332 -0.5939852 -0.40349913 0.18666919 -0.6440208 0.078397766 0.48789474 -0.43992126 0.19735736 0.012861631 -0.24546626 0.6179851 -0.2794129 0.22299762 -0.49997726 -0.42899045 -0.63551486 -0.16088074 0.96749836 -0.6977218 -0.35502034 -1.3726771 -0.13130206 0.16949596 -1.1029036 1.1771991 0.51743346 0.689193 0.47983736 -0.00883581 0.15066934 0.17686418 -0.12709121 0.6630066 -0.07100071 -0.5043489 -0.2249308 -0.18400538 0.773883 0.21749403 -0.9263132 0.1390494 -0.1332972 -0.37100303
800 0.5373975 -0.56810385 0.11788534 0.3350519 -0.027175302 -0.5912361 -0.8834041 0.12385536 -0.2248632 0.16110465 -0.33893925 0.12830815 -0.017299887 -0.08616842 0.35341924 -0.24834393 -0.38132125 0.8843278 0.03898751 0.35129094 0.06149147 0.40538585 -0.06539592 0.4357806 0.11302177 0.24390367 0.08595956 -0.5510111 0.41318563 0.42814705 -0.006803906 0.14919645 0.6077329 0.7348172 -0.24016833 0.034612205 -0.4314857 -0.09320579 0.19797657 -0.2166423 -0.052475605 -0.5491723 -0.38603315 0.01884531 0.49639064 -0.42671493 -0.058700092 0.38173997 -0.024977878 -0.95089585 -0.37817526 -0.15435418 -0.7476139 -1.0742341 -0.6130714 0.57056785 0.4602239 -0.6562674 -0.30105975 -0.240356 -0.20424178 0.9224477 -0.32448006 -1.1135528
2546 0.29333168 -0.05942818 -0.4651254 -0.19717045 -0.49461967 0.20980123 -0.6471967 0.1397514 0.79448456 -0.46249405 -0.7913612 0.5824418 0.19089456 -0.38429382 0.8256798 0.27340618 0.4280873 0.119738504 0.112933636 -0.32548267 0.5370897 0.028759971 0.37426844 0.0533865 -0.4680892 0.4724825 0.7693124 -0.4257234 -0.19716778 -0.16014646 -0.27331585 0.5352226 -0.43235564 -0.1601996 -1.0906897 0.39209923 -0.36374956 -0.39278919 -0.5333325 -0.55925053 -0.9556495 -0.6470181 -0.29796547 -1.2472129 -0.7950141 -0.071873896 0.32552266 0.692119 0.5560143 -0.3546107 -1.1322546 0.05332414 -0.31093657 -1.0264878 0.00017386187 0.8782122 0.5352865 -1.0645787 0.012502279 1.6219677 -0.72446096 -0.77950114 0.021297406 -0.24681114
932 1.2962008 -0.17591222 -0.52326083 -0.159754 -0.33321956 -0.6119692 -0.40770033 -0.021717262 0.33338323 -0.22356135 0.13509521 0.09945197 0.6123221 -0.22294872 -0.3742366 0.2129916 -0.7575257 -0.24372971 0.28208482 -0.6133034 0.29135847 -0.15643148 -0.80328214 0.9107798 -0.31767198 0.21759304 0.59642166 -0.4717834 0.28665525 0.5427528 1.3492782 0.7675248 -0.63403803 0.38159123 -0.5239932 -0.5491683 -1.3238344 0.108182 -0.48862186 -0.66553515 0.20558263 0.49497083 0.54313 -0.45578453 0.89935106 -0.40225118 0.8554254 0.4822486 0.36806083 -1.16755 0.19060227 0.9856291 -0.27748427 -0.5635354 -0.88184553 0.78608215 1.1398463 0.08408047 -0.24235068 -0.2253181 -0.45506474 0.63470024 -0.21410288 0.29192904
6037 0.15997396 -0.22685552 -0.01526631 0.27160785 0.43276083 -0.51167244 -0.3978855 -0.30751902 0.25201842 -0.32261258 0.21669737 0.36308128 -0.020431738 0.8705621 0.65671355 0.43029928 0.2781808 -0.59159786 0.5174998 0.17736651 0.6254666 0.077213086 -0.5009456 -0.16069491 0.2831805 0.101395205 -0.77297825 -0.29843304 0.74639314 0.77951425 -0.22117707 0.29241064 -0.41466755 0.24545474 0.20071888 -0.027735718 0.37325513 0.059962906 0.52481973 -0.7611938 -0.5079345 -0.1212972 -0.27162126 -0.06429306 0.09904186 -0.3740809 0.9302664 0.51430005 0.84233826 0.11777319 -0.9790711 0.69995624 0.092738815 0.29924077 -0.09582584 0.333727 -0.0038030506 0.25791588 -0.15667608 0.45466372 -0.61250305 -0.6036036 -0.43288296 0.41183335
