2594 64
149913 -0.7762355 -0.28491914 -1.1003225 -1.2949212 0.15188111 -0.36969876 -0.27524146 -0.23098184 -0.06067223 -0.43550026 0.5688884 0.17559789 0.19338854 -0.20310761 0.0026649479 -1.1182154 -0.01258474 -0.5710822 -0.20690724 -0.7146621 0.05710856 0.41724566 -0.15017258 -1.3017298 0.49837306 0.7540759 -0.25682715 -0.061567955 0.45248193 -0.016448604 0.40196845 -0.2037792 0.46496502 0.66230434 -0.5206444 0.9208723 0.27765065 -0.07220747 0.13387169 1.2688048 0.41656092 -0.28181505 0.115989104 0.24328795 -0.35982826 -0.495062 -0.53807944 -0.71095043 0.48147535 0.5440789 -0.43194813 -0.70710796 -0.20545341 0.9107906 0.9762108 -0.61875296 0.13871014 0.3210272 0.55179054 0.11442994 0.53082407 0.28848207 -0.93972087 0.15472303
149542 0.13176873 0.5480903 -0.5875039 0.15636626 0.037658043 0.08099901 0.17052716 -0.39566997 -1.1313338 -0.79445994 -0.24139193 0.061506424 -0.42932886 0.18909088 -0.26700145 0.32570145 -0.2841066 -0.83830136 0.014338296 -0.34662506 0.24173713 0.55346847 -0.7475742 0.018355034 -0.08885884 0.52686155 0.02361187 0.2461017 -0.3732073 0.07818843 -0.31679332 -0.7575449 0.045596078 -0.5032643 -0.054484557 0.13517788 -0.18642724 -0.029992687 -0.037570447 0.8510551 0.098140486 0.0078079165 -0.36010724 -0.10106569 -0.086820096 0.78509825 0.11287312 -0.12408022 0.27640203 0.27360913 0.69799054 0.12232302 -0.13054769 0.30837715 0.5858814 0.19099452 1.1600243 -0.20609279 -0.041193742 -0.045943014 0.4557885 0.04828327 0.14723295 -0.45379078
150278 0.31556013 0.8708253 0.101803325 -0.99596983 0.48081478 -0.868391 -0.50482225 -0.76805115 -0.4087051 -0.614825 0.3814881 0.30857697 0.33985335 -0.48989674 0.15902446 -0.1716146 1.0162874 0.36289528 -0.41020453 0.26654395 0.2400241 0.19735439 -0.35615063 -0.6709038 0.5086073 0.4666869 -0.6239056 -1.4927924 -0.728273 -1.0696046 1.2107148 -0.19327626 -0.645258 0.22100472 -0.095533885 1.5285869 0.25892392 -1.2710048 -0.11355866 -0.15436503 -0.58622646 -0.326209 -0.69973236 -0.5436461 0.21308409 0.035635874 -0.05883902 -0.661522 0.32671386 -0.57529676 0.17916714 0.3685494 0.9357414 -0.19471973 1.0605085 -0.19036758 0.54673326 0.5249412 -0.7158248 -0.43582362 0.52730566 -0.37850496 -0.67906195 -0.5299763
142327 0.13769358 -0.29964805 -0.17851253 -0.799914 -0.1285551 0.08371906 0.09337622 0.38891196 0.5190753 -0.7705493 0.52419525 0.24353513 -0.20251065 -0.14000997 -0.2793671 0.04008246 -0.2852283 0.02382106 0.06289733 -0.32982305 0.03516114 -0.11911738 -0.4856736 0.22377884 -0.010965858 -0.18939506 -0.44793162 0.18009865 -0.35909668 -0.5217861 0.4075096 0.011237772 -0.6141732 -0.42674392 -0.5734668 0.1341497 0.23572591 -0.16109502 -0.01476387 0.2926023 -0.13114959 0.092866376 -0.64111906 0.17227764 -0.96693546 -0.22107863 -0.5882073 -0.23568885 0.11586712 0.40611437 0.48929924 -0.024683198 0.775227 0.025973024 -0.21014178 0.08160814 0.45329058 0.44411358 0.26541102 -0.48271608 -0.21695149 -0.19089723 0.09195004 0.7083288
151384 0.43902278 -0.3583659 -0.22850126 -0.35662958 0.09222202 0.7016744 -0.79727435 -0.3655665 -0.009460198 -0.5725378 -0.12307629 -0.11830246 -0.021427404 -0.32412365 0.57007116 0.07148791 -0.5292381 0.43930817 -0.677193 -0.56421876 0.7521191 -0.16587484 -1.315196 0.35394934 0.22848539 -0.21415496 -0.26083738 -0.6950823 0.5830994 -0.09176338 0.48362282 -0.32006148 -0.1178248 -0.6567762 0.58189905 -0.13322239 0.45287138 0.1539351 -0.11414086 0.46787712 0.7864486 -0.8789303 0.22241424 -0.25981435 0.046850305 0.20022538 -0.5304255 -0.13026066 0.31669608 0.2579998 0.38384095 -0.5926206 0.42378378 0.8603823 0.7232445 -1.0596261 -0.2743639 -0.64128625 -0.8257137 0.046302915 -0.55950654 -0.3949772 0.37825382 0.42368755
151400 -0.5594711 0.06436177 -0.89840704 0.26078945 0.63321435 0.83348113 -0.75636655 -0.13793425 0.3684512 -0.24358594 -0.8704687 -0.02020109 0.6110556 0.19492361 -0.48711866 0.5773052 0.21444164 0.17474781 -0.7131787 -0.025778202 0.357505 -0.13502984 -1.7210822 -0.44679314 0.5916427 0.49207583 -0.10509712 -0.82581675 0.38570338 -0.30359685 0.72305614 -0.19560598 0.31331074 -0.06488249 -0.09490426 -0.13658386 -0.820097 0.014829326 0.6257965 -0.080278374 0.7243276 -0.22215185 -0.624906 -0.83975744 -0.15141855 0.116337724 -0.79426795 -0.06650428 0.033152934 -0.25572821 -0.49546424 -0.21320735 0.4337319 -0.18022303 0.3593745 -0.39516857 0.2222255 -0.858549 0.049169116 0.32925794 -0.10696493 0.33063716 -0.32455635 0.52788734
148878 0.22808708 0.21419944 -0.2046162 -0.7918477 -0.30584615 0.04520512 -0.06174127 -1.4571662 -0.25030425 -0.0029442026 -0.6501809 -0.08123683 0.1944609 -0.48046708 0.24263714 0.9155272 -0.34715912 0.3301212 -0.191049 0.031055817 -0.532561 0.12617362 -1.293349 -0.36373743 0.46622524 -0.54031324 0.35783395 -0.56390333 0.5207967 0.10473369 1.101819 0.05981828 -0.66056573 0.6014751 -0.3017554 -0.2932013 -0.21095593 0.03633484 0.06392727 0.26825207 0.9641082 -0.4073834 -0.5507552 -0.034140196 0.22585595 0.14689463 0.09299864 0.06834352 0.023132768 0.05205778 0.53778505 -0.8425759 0.68145454 0.63200974 0.022430371 -0.28639975 0.34986645 -0.46280456 0.40769476 0.23845516 0.16914736 0.062238414 0.14514238 -0.008039915
150763 0.22220562 -0.4046304 0.15331593 -0.3871705 0.3697682 0.7180506 0.42709184 -0.5376132 -0.66770214 0.27103916 -0.5941191 -0.41759387 -0.19813856 0.068107486 0.26465225 -0.047478944 -0.29264775 0.48706412 -0.5016201 -0.26949427 0.000100363664 0.39086506 -0.9279577 0.4631733 -0.18628131 -0.11946466 0.12708648 0.37710625 0.21829611 -1.0227623 -0.53439724 -0.7936821 -0.3392603 0.49558985 0.082355656 0.56377566 -0.07477768 -0.071019575 0.26027292 0.4559238 -0.2122696 0.22724923 -0.009768963 0.68205756 -0.60580593 0.6684398 -0.10963581 -0.82215816 1.0092219 0.20066617 -0.47181883 0.6906758 0.09117782 0.8614446 0.4497445 0.26190707 0.40371096 0.064179935 -0.55281854 -0.26980385 -0.3962416 -0.33347225 -1.0961174 -0.4663131
151376 0.28879035 0.42026538 0.6912897 -0.07357544 0.6347037 0.5971827 0.058903933 -0.9948329 -0.19875045 -0.7463515 -0.39475766 -0.23861113 0.72333807 -0.3302249 -0.6123373 0.5726416 0.17325838 0.24272272 -0.4644218 -0.11353582 0.6889534 0.35716236 -1.4436955 -0.57063746 0.6541593 0.100806184 0.27155071 -0.19733012 0.007385041 0.730547 0.8072938 -0.029501544 0.4825166 0.40998197 -0.024155786 -0.1997881 0.72738534 0.47916985 -0.42928925 0.2811911 0.9863769 -0.4274784 0.9266495 0.42949304 0.024402596 0.3210179 -0.8355378 -0.23218955 0.6014617 0.105150186 0.13261075 -0.72304344 0.58237356 0.22107592 -0.09450536 0.28420776 0.46858907 -0.15019967 0.10255991 -0.014087694 -0.09852974 0.40760073 0.18436763 0.56707346
150589 -0.32399482 -0.3596324 -0.65594614 0.10457887 1.0980046 -0.08271697 -0.3724474 -0.8611215 -0.6263708 -1.101414 0.030515527 -0.11156056 -0.8393486 0.13939646 0.17315444 -0.13968146 -0.6797897 -0.063198335 0.35877723 -1.156491 0.28022003 -0.005240096 -0.6216172 0.308686 0.49696225 -0.5380638 -0.049858846 -0.10018141 0.70494235 -0.75102943 0.12479371 -0.82897276 0.6776801 0.19526277 0.75505614 0.8334244 -0.40104386 -0.35477015 0.3468248 -0.1248653 0.033535697 -0.212236 -0.1199753 -0.18791312 -0.31438458 0.75305337 0.14390963 -0.17651995 -0.19936916 0.15218745 0.2444249 0.37536258 0.12656067 -0.27143073 -0.16705574 0.2846418 0.08208595 -0.5886051 0.96147114 0.7443715 0.027918708 0.14179255 -0.511091 -0.1713221
150364 -0.054659747 -0.06059378 -0.19559884 -0.7251753 1.4228317 -0.08567615 0.10759657 -0.122873545 -0.97528887 -0.3289064 -0.2028522 0.09666203 -0.4554504 -0.24850762 -0.38181186 -0.5955652 -0.1730837 0.48489118 0.025660412 0.6807295 -0.19908187 0.5029561 -0.047619335 0.7954172 0.13467261 0.19934587 -0.30600357 -0.6358227 -0.09139671 -0.5304102 -0.0849825 -0.44695786 0.770149 0.7351383 0.12908329 -0.3268872 -0.37148312 -0.110979386 -0.7000156 0.024068926 0.17724894 0.54568475 -0.6172966 0.08854659 -0.8541715 0.4626303 -0.089376725 0.15032129 0.20025727 0.8260574 0.15741737 -0.4793581 -0.18780126 0.7841017 1.1487826 0.19904175 0.88733155 -0.12883042 -0.10083593 -0.35049558 -0.3602049 0.3483723 0.2784172 0.071039006
142682 0.21169825 0.004979604 -0.096643664 -0.4008308 -0.11766179 0.33852226 -0.10134548 -0.174357 -0.95226973 -0.5453377 -0.1318392 0.10956415 -0.6797142 0.3022697 -0.47133228 0.33069614 -0.26598382 0.6450638 0.46835533 -0.20028947 -0.14794193 0.44526172 -0.23689975 -0.004146368 0.16172482 -0.2962553 0.16327308 0.036469787 0.26762375 -0.6611525 0.039476696 -0.5981543 -0.015267074 -0.04015391 0.11607145 -0.17374468 -0.23699999 0.0896384 -0.086006835 0.3004889 0.24469887 -0.11423962 -0.20983203 0.4773442 0.32064068 0.7044974 0.10806195 -0.24799575 -0.27459654 0.36049616 -0.21177246 0.32065055 -0.36397696 0.4490309 0.69143856 0.2520509 0.8403817 0.46437687 0.33708274 -0.20491004 -0.11501491 -0.35733742 -0.87586987 0.06916173
151035 0.5539991 -0.17627338 -0.066326715 -0.21779232 0.6457857 0.017426688 -0.5024189 -0.57472473 -0.061590903 -0.9195486 -0.98245054 -0.16726331 -0.43307167 -0.9351253 0.40896893 1.2740797 -0.025719699 -0.36515546 -0.4223988 -0.38349968 0.346935 0.1978958 -1.0982329 0.19185705 0.48047727 -0.22561647 -0.8499373 -1.1178194 0.10780294 -0.5564406 0.4200247 0.68629503 -0.29049963 -0.12936637 0.3533017 -0.08705269 -0.22056617 0.30838653 -0.3367437 1.0257332 1.1501698 -0.26962143 -0.07177535 -0.5925595 0.5084489 0.4785423 -0.1426872 -0.13232453 -0.03537192 0.34734505 -0.6646187 -0.004446176 0.33373305 0.6371689 0.32492235 -0.3238593 0.6053582 -0.12562327 -0.29534447 0.17774451 -0.6380499 0.36156753 -0.004544537 0.008658738
151352 -0.088972226 0.10261003 -0.28750744 -0.34131488 0.53197783 -0.21209969 -0.15619229 -0.27599272 0.9533078 -0.8123779 0.23181587 0.6907105 -0.21967009 -0.11597519 0.0483026 0.013513619 -0.16187195 0.05711003 -0.0037629958 0.8514946 -0.5513856 0.24309248 -0.29787487 0.5103389 -0.44135496 -0.01776405 -0.29694027 -0.13103744 -0.5785039 -0.19641489 -0.33828637 0.1872335 0.094757974 -0.64293486 -0.30618766 -0.008792619 -0.4424125 0.07060345 -0.17107981 -0.14026746 0.44026557 -0.2085754 -0.059429582 0.6143343 -1.0877678 -0.11754071 -0.2085208 -0.10543003 0.5488484 -0.027344665 -0.25965473 -0.50126714 0.66262865 -0.3440526 0.2081594 -0.04019673 0.27883002 0.1775543 0.35349014 0.080798134 0.058719866 -0.35141933 -0.3339361 0.5353192
151351 0.019769968 0.48335928 0.3052006 -0.35518444 0.14064278 -0.25695974 0.08643634 -0.39239582 0.46643785 -1.2649916 -0.6149006 0.8736356 0.13327871 -0.8149146 0.04767104 0.08052559 0.036313668 0.4934628 -0.557701 0.3405622 -0.24078934 0.33289236 -1.0879917 0.28815696 -0.42797258 -0.339062 -0.5920932 -0.42047593 0.2171693 0.0005997349 -1.1493363 0.42091686 0.107402004 -0.2583652 0.13411082 0.77183914 -0.71227175 0.28104118 -0.6288024 0.6015792 0.74233466 0.42665306 -0.080046855 0.64703846 -0.36141732 -0.010412279 -0.83354175 -0.41138873 0.28475386 0.41233715 0.31495747 -0.6232103 0.49023205 -0.349643 0.68841594 -0.69469 0.06050656 -0.6200139 0.015262482 0.6044318 -0.30366263 -0.19365373 -0.494212 0.45967993
149190 -0.12744457 0.2053768 0.5435226 -1.0007386 0.8330202 -0.08481816 -0.20686111 -0.07074693 0.63370234 -0.42504108 -0.36779693 -0.15767397 -0.36270395 -0.12317117 0.7526851 0.1213582 -0.21665402 -0.5134443 0.1770113 0.16843547 0.17181756 -0.23880358 -0.61022514 0.016420608 -0.27692735 -0.10927866 -0.14882697 0.20224278 -0.55237126 -0.12675032 -0.28028682 -0.3718288 -0.58096015 0.09320136 -0.3311846 0.29963318 -0.36080053 -0.2264915 0.2070598 -0.23301247 -0.06310116 -0.67950666 -0.28297222 0.025870899 -0.32442546 0.023857579 -0.54312384 0.63296705 0.056875262 -0.19137831 0.16138715 0.2024716 0.7866414 0.04012891 -0.15813935 0.72523654 0.5248353 0.15096037 -0.132329 0.21484873 -0.38440907 -0.08096043 -0.59854513 1.0672398
150138 0.019694984 0.050697185 0.25565192 -0.47756577 0.96608645 -0.0894078 -0.006892341 -0.021788862 0.29464912 -0.60891885 0.25704083 0.1114009 -0.1452649 -0.21934533 0.37056613 0.019074874 -0.21042718 -0.069382444 0.03225949 0.15068501 0.38842577 0.20112799 -0.019253364 -0.15343201 -0.080832444 0.5500901 0.28515258 -0.32001215 0.16263823 -0.060050678 -0.14653736 -0.42516884 -0.11542241 -0.39872336 -0.43362316 -0.09041866 -0.122969665 -0.19550367 -0.36107653 0.032971602 0.20189634 -0.6319947 -0.21494061 0.8480059 -1.617305 -0.47442135 0.33269936 0.104366824 0.32665578 -0.05659685 -0.31443736 0.34323975 1.2517967 -0.054657 -0.4517617 0.20239808 0.61157954 0.09267674 0.32959974 -0.21618602 -0.2660636 -0.6958543 -0.5952709 0.25237927
148837 0.41689283 -0.02876357 0.3080032 -0.07222164 1.1217226 0.27986315 -1.0537546 -1.2092977 -0.12415657 -0.00714089 0.8341089 0.44149736 -0.7474073 -0.06649121 -0.43505138 -0.31678197 -0.11031346 -0.083298445 -0.8812366 -0.33417562 -0.3690205 0.7479126 -1.1195844 0.105960526 -0.059567507 0.11556539 0.14451511 0.8308685 0.039627705 -1.1122092 0.28155702 -0.22842178 0.839397 -0.2473685 0.008658951 -0.4537597 0.20287955 -0.32630992 1.1988262 0.7813762 0.43613443 0.16282041 0.025191488 0.21977924 -0.12289555 0.61587304 0.18254168 0.19782989 -0.4186362 0.16644159 1.1842444 0.17106533 0.1903231 0.15625967 0.35328138 -0.30673912 0.010604181 -0.6127567 0.11847872 0.5943489 0.084127866 0.24644382 -0.3141318 -0.16475068
149967 0.40856662 -0.1690733 -0.16585124 -0.4537467 0.3593361 0.46946797 -0.20806941 -0.09354761 -0.8480703 -0.4911037 -0.49116483 -0.5074692 0.5008202 -0.42055076 -0.0033565124 0.11405276 -0.87099725 0.524518 -0.50509816 0.23309809 -0.5289682 0.56863964 -0.16739926 -0.28060937 0.46197024 0.19082431 -0.68214154 -0.30002415 0.38249066 -0.44589657 -0.0869441 -0.76049757 0.3034512 0.29170883 0.63839895 -0.009546033 0.25130388 0.31516415 0.5367734 0.7052388 0.19674878 0.23862824 -0.081432916 0.46448404 -0.36946732 0.91966045 -0.06586843 -0.10637965 0.027832419 0.5674762 -0.09361752 0.31780928 0.035719216 0.6969605 0.2289564 0.17119431 0.48190755 1.1770931 0.47188267 -0.10908734 -0.25286424 -0.3842984 -0.23675163 -0.24096178
150291 -0.19090766 -0.008794158 0.28818882 -0.06837579 0.44070515 -0.005186939 -0.2452875 0.1800326 0.9865247 -0.71960986 -0.048672594 0.36342505 -0.23427399 -0.61081547 0.3466733 -0.092967086 -0.4565628 -0.55670536 -0.5383788 0.46315467 0.57926685 0.16523932 -0.3779923 0.033523392 0.059766077 0.50556135 0.09338585 0.03516461 0.13508414 -0.64922273 0.5440379 -0.14367244 -0.93343514 -0.1014938 -0.27302974 0.599741 0.015025063 0.32036725 -0.14719573 -0.12309603 -0.13831621 -0.558334 -0.8171616 0.11984187 -1.036608 0.72852576 0.3501748 -0.35412952 0.2837283 0.14720997 0.17730191 -0.6750536 0.35467762 0.085986525 -0.721141 0.6332306 0.22165775 0.66471267 0.29311594 -0.043300483 -0.20584048 0.105659075 -0.085737206 -0.09820849
151193 -0.12808111 -0.06545774 0.36949778 -0.16853951 0.18373694 -0.871326 -0.9871727 -0.2717548 1.0018872 -0.34593582 -0.008277169 -0.19873492 0.19513318 -0.41942838 -0.13964531 0.20156538 -0.065278076 0.055068523 -0.09669982 -0.22091219 -0.1670517 0.7787228 -0.70481056 -1.3266023 0.2561012 0.029108223 0.2707983 -0.41083115 -0.2001892 -1.325528 0.9249044 -1.0287644 -0.12582366 0.27626058 -0.06905682 0.99518365 -0.17928474 -0.103589535 -0.7592584 -0.46837863 0.28131095 -1.1574141 -0.19073752 -0.4225169 -0.2070448 -0.18753642 0.09189202 -0.13077874 0.36856157 -0.12177474 0.9929326 -0.8096532 -0.43482062 0.40630695 0.47788182 -0.35953867 0.9868589 0.5233178 -1.3432678 -0.41913843 -0.054429036 -0.8820188 -0.66870147 -0.3999452
150588 -0.27477095 -0.3687263 -0.13366695 -0.21768393 0.23017637 -0.09715273 0.8059203 -0.31448892 -0.67369646 -0.030824328 0.12526383 -0.5317383 0.48592806 0.16967887 -0.14808983 -0.344136 -0.7031592 0.36607754 0.044629764 0.116207846 -0.27903783 0.16534144 -0.6054061 0.38065857 0.075552374 0.069753274 -0.69662434 0.23535268 0.8325596 -0.5157015 0.41282573 -0.40548876 0.40589783 -0.41986597 -0.13336234 0.21325271 0.30936563 0.031679153 -0.11056049 -0.33182 0.27730095 -0.16786365 -0.20163107 0.53672045 -0.11819939 0.3180783 -0.2964676 -0.6501487 -0.11819315 0.7438721 0.008881998 -0.12874098 -0.17028347 0.2522501 0.8664227 -0.23373836 0.73482656 0.6140759 0.07754689 -0.6907837 0.53585297 -0.34573483 0.01932097 0.26154533
149539 -0.92227715 -0.35095122 0.5208331 -0.36482257 0.32374245 -0.3682147 0.0025438587 -0.025617272 -0.30323339 -0.4319866 -0.49023816 -0.21986815 -0.916667 -0.0064336467 -0.32824197 0.2079855 -0.38811502 1.1791065 -0.32018557 0.4442197 0.2411605 0.19300899 0.23202495 0.75012666 0.19374281 1.2829208 -0.5700342 -0.1602773 0.67568845 -0.35686716 0.0970278 -0.71451837 0.26005244 -0.15577447 0.31935772 -0.48800427 -0.53411174 -0.7875189 -0.16765964 0.33718336 0.07304695 0.65906143 -0.18760432 0.6498484 0.14571974 0.005378924 -0.73252356 -0.29799342 0.095409 0.94922304 0.05666603 0.26214948 0.26514518 0.13767433 0.74759215 0.40188056 1.0645874 -0.06438077 0.18317969 -0.28745434 0.22098933 -0.30117747 -0.37418503 0.37491187
149473 -0.04590929 -0.41677073 0.33607543 -0.3565358 0.6369418 -0.49625802 0.52325654 -0.28162724 -0.03962649 -0.8063987 0.3981342 0.32572812 -0.052063175 -0.08789829 0.93859607 0.4304481 0.47108778 -0.3434985 0.25594088 0.4307571 -0.028488725 0.12821515 -0.040648073 0.31543112 -0.23359378 0.23265727 0.009824009 0.64316845 0.08004286 -0.7093076 0.7420697 -0.07195609 -0.3670258 -0.23905902 -0.89118624 0.293186 0.1252099 -0.2823062 -0.6241938 0.4060647 0.46218216 -0.53125674 -0.40100986 -0.102250926 -0.71778953 -0.28314608 -0.47778738 0.36178982 0.08928518 0.47835866 0.007874361 -0.24405426 1.0899881 0.46482775 -0.18592349 0.3077513 0.1376963 0.32744992 0.34247604 0.024922913 -0.10400906 0.012489063 -0.2930176 0.97017115
149425 -0.23992889 -0.5471952 -0.0053654076 0.07330634 -0.016218223 -0.13462402 0.41668496 -0.81867516 -0.19997852 -0.5614174 -0.6215357 -0.1853142 0.80176884 0.026120417 -0.02921554 -0.22763537 0.0724307 0.7839261 -1.1372794 0.5958732 -0.047992945 -0.37564188 -1.3840046 -0.16473287 0.061736744 0.13960245 0.78987724 -0.25332043 -0.24140821 -0.05113071 -0.059341505 0.13434485 -0.10675412 0.4046885 -0.09588823 0.32045773 -0.25467885 -0.021395052 0.3314732 0.78459847 1.2576644 0.17795327 -0.28736445 -1.0490174 -0.6590326 0.5791434 -0.73064333 -0.016207578 -0.81113183 -0.21858275 -0.13237703 -0.185123 0.3549619 -0.261762 -0.3284492 0.15021853 0.26409283 -0.54165566 -0.31592718 -0.06935761 -0.6260901 -0.0944212 -0.18656279 0.5931683
150510 0.1866276 0.10782601 0.06342347 0.1376223 -0.27716833 -0.27178368 0.1924765 -0.9811672 0.24304108 -0.9591096 -0.5759452 -0.116720445 -0.10051486 -0.118642956 0.70216227 0.08689463 0.4121299 0.013276778 -0.9952615 0.037577488 0.22083518 0.085109234 -1.3910737 -0.8059617 1.0607483 0.016990134 0.4054947 -0.6967323 0.40939033 -0.30433083 -0.99832904 0.71140754 0.29316267 0.11415794 -0.31375277 -0.1461176 -0.51214296 -0.59821504 -0.321062 -0.011883414 0.426241 -0.5144683 0.02467939 0.42834243 0.19036083 0.39134353 0.3644628 -0.16693583 0.76501733 0.37405813 0.26207834 -0.47928375 0.46140525 0.39230564 0.44849378 0.35490444 0.33207458 -0.3457508 -0.14614625 -0.59985626 -0.3127945 -0.35272637 0.44903442 0.9859294
151590 0.48655656 -0.2931014 -0.29612306 -0.07680894 1.1486146 -0.27538124 -0.07085778 -0.9517028 -0.8164579 -0.38784593 -0.17152923 0.1884071 -0.4990705 -0.43793106 -0.5423406 -0.33793858 0.44509837 -0.2914615 -1.2643774 -0.43208167 0.09392098 -0.23022604 -0.24817964 0.37961 -0.056949448 0.63777417 0.074792564 0.017110307 -0.5144708 -0.4217359 0.89123255 -0.117734894 0.78550553 -0.30100325 -0.68865913 0.44784862 -0.63986874 0.34050745 0.16696972 0.48627436 0.38072637 0.29926732 -0.40880388 1.1751268 -0.7721753 0.7989361 0.2997758 0.21555294 -0.32079002 0.5859193 0.8917547 -0.42905048 -0.42601168 0.30676153 0.4735268 0.35450307 0.16923876 -0.7609902 -0.77606314 -0.083162256 0.5686069 0.13697228 -0.12135849 -0.072799616
150871 -0.07931924 0.05661657 0.26898387 0.00749977 0.21720566 0.024991564 -0.11661611 -0.4741557 -0.48262566 -0.5687967 -0.75463 -0.2589779 -0.06924681 0.80948573 0.13420106 -0.20913497 -0.08513991 1.051789 -0.7159007 -0.020836506 0.37619427 0.27574533 -1.4636605 -0.4308473 0.6413939 0.7150657 -0.20394222 -0.31866693 -0.14977664 0.069319695 0.23203681 0.6376768 -0.10036443 -0.105426416 0.51616955 -0.23835012 -0.9485832 0.25757587 -0.0011236995 0.84458494 0.4658181 -0.09809021 -0.26311964 0.49150613 -0.596367 -0.4468861 -0.40108383 -0.40077254 0.2345334 -0.5792063 -0.28778028 -1.0627481 -0.053399734 -0.4333033 -0.029613506 -0.9291178 0.15042555 0.30488592 -0.25598025 0.78103805 -0.53505504 0.27998447 -0.1977757 0.5336788
150757 -0.42713886 0.18786356 0.1748151 -0.6471643 -0.7685131 -0.4611287 -0.16293624 -0.6918477 -0.096866794 -0.7044955 -0.53962344 0.36298135 0.75750893 0.31956038 -0.14883502 0.7375204 0.6647689 0.08146004 -0.801965 0.043313023 -0.31483012 0.2832225 -1.5056288 0.14882313 0.50312823 0.37167338 0.57929945 -0.15546972 0.18240283 -0.5946508 0.5242534 -0.6550907 0.0118850935 0.78410673 1.1217165 0.036142938 -0.44517976 -0.23867138 -0.6218479 -0.0067658634 1.3144844 -0.12541677 0.47952318 0.25695005 -0.6516507 0.46297088 -0.66143334 0.24051075 0.28220886 0.4618389 -0.2418545 0.7226475 0.2887233 -0.29271597 -0.15414202 -0.20772296 0.052913018 -0.10742951 -0.39883497 0.80002147 0.2748106 -0.35124108 0.4330449 1.011545
151733 0.30128682 0.14314981 -0.30136415 -0.55074245 0.446988 -0.56377167 0.10925184 -1.2469152 0.23183413 -0.30118075 -0.89875954 0.46266437 -0.20083795 0.40982744 0.4432478 -0.5634359 -0.5027758 0.2071536 -0.0806984 -0.42985907 0.82947546 -0.4359108 -0.84446895 -0.018190892 0.63491803 0.20090713 0.15135485 -0.37564468 0.4973404 -0.06749037 0.010710027 -0.14497426 -0.12633891 0.21927951 -1.0779756 -0.7940951 -0.28522348 0.14592439 0.62421703 0.7724447 0.01143335 0.69469166 -0.13382214 -0.019909184 -0.37322053 1.4167589 -0.23773232 0.1668428 0.4582992 0.13841145 0.4370793 0.051346492 -0.1602425 -0.154909 0.588114 -0.44027975 -0.30504316 -0.14408328 -0.420475 -0.121742666 0.094502725 -0.47690487 0.09290843 -0.071492426
149951 -0.44851556 -0.76778775 -0.12303072 -1.6439806 0.20885447 -0.1694982 -0.56904763 -0.12999903 0.29517126 -0.2759795 -0.8156079 0.82659686 -0.6826103 0.6488481 0.32276884 0.17227824 -0.31591013 0.4966703 -0.37942195 -0.03894007 -0.102418356 0.9310131 -0.56824625 -0.20888087 0.880103 0.20494942 -0.03169533 -0.1722928 -0.24994233 0.18979394 0.7143066 -0.6034145 0.7296237 0.54494226 -0.629616 0.6280479 1.1653405 -0.60687494 -0.4251759 0.19762772 0.9533935 0.4976318 -0.43400458 1.0285838 -0.29315975 0.64218163 0.2261148 -1.0617309 -1.4757216 -0.34753844 -0.515455 0.44639975 -0.037280444 -0.12723492 0.67884475 -0.12769322 0.3317194 -0.46469745 0.59476525 -0.44383213 -0.045636613 1.0888003 0.104729615 0.08710968
149234 -0.6358251 0.52417 -0.015759097 -0.29329017 0.57007813 0.23822059 0.46732295 -0.2773092 0.06265998 0.075922295 -0.16116585 0.33260855 -0.82690275 -0.241136 0.892632 -0.47523183 0.4128801 0.021964975 0.1866658 -0.3084842 0.16789527 -0.14333415 -1.4836434 -0.4322368 -0.09574697 0.4123813 0.12414801 -0.35852814 -0.023781931 0.074269734 0.60310644 -1.0568578 -0.11378877 0.48244312 -0.24717312 0.3371538 -0.6374004 0.14363304 0.7602792 0.89132124 -0.3184008 -0.5872172 0.14442693 0.3170365 -0.36443436 0.2271098 0.4660731 -1.329381 -0.6723656 0.6830506 -0.41484162 0.78125113 -0.23441081 0.35442594 0.10926619 0.43585363 -0.07885012 -0.49853674 0.13534194 -0.5279639 1.0605384 -0.5273554 0.042647988 0.1944632
149412 -0.2644332 -0.37642086 -1.0573286 -0.38698363 0.73901963 0.80319923 -0.21448414 -0.5786609 0.035298858 -1.1567956 -0.061698478 0.10447511 0.55662775 -0.0039227316 0.38070208 0.32640564 -0.6126778 0.21034047 -0.06396277 0.24808554 0.35537428 0.57079905 0.26373273 -0.9075387 0.36605272 0.44608262 -0.09972823 -0.09696497 -0.37970647 -0.68430793 -0.7236716 0.28056797 0.38398805 0.9302591 0.4081163 0.34027833 0.31865883 0.40628448 0.6546819 0.91402084 0.39511332 -0.5294547 0.107958294 0.46534786 -0.0627283 0.2702222 -1.0079993 0.08407408 -0.46385333 0.537829 0.45899308 0.5486441 -0.07459515 0.5209091 -0.24178892 -0.31842718 0.5896284 0.6312282 -0.3682701 -0.4008499 0.35466287 0.02549194 -0.25485277 0.05644805
149544 0.21017717 0.2376368 -0.17720471 -0.5113444 0.6740997 -0.12708522 -0.35272634 -0.5967635 -0.7228499 -0.49363112 -0.23161066 -0.19499508 0.103887185 0.9034221 -0.15386814 -0.43857038 -0.26917118 -0.38459164 -0.086502686 0.02638172 0.052908935 0.25926605 -0.72257495 0.039148163 0.08860359 0.7438396 0.5657128 -0.034365367 -0.21588998 0.41457075 0.5772292 -0.6104256 0.39044926 -0.5937867 -0.1284627 -0.04982515 -0.72572947 -0.7809884 0.74530023 0.9813159 -0.3735639 0.25285754 0.1119072 0.38337442 -0.6319532 0.89585507 0.1351248 0.02180566 -0.26396886 0.23488559 1.1397277 -0.19615002 -0.10401024 0.43390247 -0.5858212 -0.69347 0.54375994 -0.7193887 -0.5198293 -0.3142131 0.23476873 -0.2777333 0.513402 -0.48226485
149423 -0.7539899 0.53229135 -0.20556498 -0.1736571 0.26304662 -0.17426568 0.13218193 -0.8115848 -0.21565834 -0.37086958 -0.6934174 -0.33842897 0.12758382 0.4282844 -0.30980015 0.13138092 -0.046048217 0.3192084 -0.67386633 0.2761712 0.311866 0.3966186 -1.1276954 -0.30184126 0.07599154 0.23004638 -0.039703928 -0.22048366 -0.03972108 -0.18902841 0.3817635 -0.10014483 -0.44384134 0.0016009627 -0.16969569 -0.07274657 0.5136967 0.16859174 -0.2404657 0.40637246 1.4934039 -0.64581096 -0.8384212 -0.18896247 0.5363778 0.18270071 -0.038810268 -0.029962998 -0.3554431 -0.24411486 -0.90215176 0.017818976 0.33727744 0.2617307 -0.4440033 -0.32772604 0.3962317 -0.75306743 -0.38965878 0.23299801 -0.4940488 -0.2269827 -0.8918881 0.36683783
150656 0.021505615 -0.04877622 0.13243571 -0.37563407 0.6679414 0.39384282 0.37273556 -0.6728514 -0.4154765 -0.48448497 0.13511069 -0.14884567 0.20975503 0.77354026 -0.08987384 -0.055906404 -0.8396179 0.03779857 -0.68208826 -0.06997299 -0.54410994 0.27674362 -0.8829127 0.42892262 0.1577868 -0.23296076 -0.48584723 0.05865025 0.4019477 -0.4899254 0.12008516 -0.23806816 -0.030698303 0.25867903 0.36750558 -0.10313087 0.41416618 -0.07248545 -0.42547908 0.20664681 0.03360454 0.18935242 -0.98275733 0.21552403 0.45063612 0.42180324 -0.6115786 -0.12613952 -0.06170777 0.41045165 0.439836 0.8924728 -0.13252278 0.3395384 1.0121504 -0.14219642 0.14973971 0.41999742 0.3458898 -0.08329084 0.5440232 -0.7278931 -0.4749736 -0.227819
149628 1.8458602 -0.08485036 -0.58231616 -1.5512562 0.6321542 1.176251 0.15043701 0.7088043 -0.75594866 -0.7528471 -0.847555 -0.10898846 0.013447109 -0.6025706 -0.6517388 0.94928735 0.30016303 -0.15314524 0.30496478 -0.42910355 1.2299362 -0.035304934 -2.4045656 -0.35877657 1.1237844 0.10876215 -0.023317838 0.602073 -1.0430882 -0.59603035 -0.19214152 -0.75103074 1.1827848 -0.5001889 -0.12960395 -0.36347482 -0.83009654 0.010889438 -0.9240408 0.44307175 0.6339811 0.31323653 -0.84021187 -0.0063881087 0.0040593864 0.16623996 -0.21758485 -0.12306173 -0.852191 -0.67544115 -0.5839219 -0.67819536 0.79431146 -0.8299087 0.5583063 -0.26022863 0.27174416 0.051519115 -0.32812268 -0.44037253 1.8624067 -1.5938411 -0.73476374 1.0303017
149545 -0.3279079 0.48343772 -0.20334038 -0.6636219 -0.103199996 -0.27816656 0.516891 -0.67100394 -0.3561853 -0.41468966 -0.86230785 0.26273435 0.75147957 -0.423051 -0.3227592 0.19836015 -0.7639406 -0.18346328 -0.5141195 0.034944158 -0.5865676 0.3877126 -1.1953819 -0.1149006 0.12894486 0.6610432 0.5476816 0.21703896 -0.2845172 0.5432779 0.18838209 -0.33270875 -0.0029377395 -0.67666984 0.24309589 0.43154445 -0.92179227 -0.5267494 -0.7443807 0.7374143 -0.14552902 -0.101005346 -0.047627416 -0.1788423 -0.24230391 0.6436065 -0.28469595 -0.23691185 0.4150241 -0.23323372 0.49559954 -0.19641338 0.020738786 0.11336474 0.13743527 -0.29886296 0.558246 -0.38689986 -0.5387866 0.67534095 -0.35261038 0.336784 0.30997595 -0.34049404
150737 -0.87963706 0.290094 -0.036536098 -0.6861181 -0.23845261 0.22393946 -0.4714232 -1.0872555 0.1837316 -0.9816426 0.09198182 -0.344129 -0.852793 -0.0012277684 -0.65536356 0.09225888 0.14630963 0.4578843 -0.17369823 0.83964413 0.2318244 0.030548887 0.3685693 -0.4751743 0.80883133 0.18922308 0.45165238 0.23721005 -0.46334633 -0.47387683 0.6223032 -0.39626244 -0.05427337 -0.45156705 -0.060812183 0.11527345 -0.17317985 -0.38799423 0.04254492 0.8381841 -0.56941015 -1.0631148 -0.041872974 -0.1659916 -0.64947706 0.0074488884 -0.21893328 -1.0959426 -0.4354876 0.5682701 -0.48613417 -0.2625238 -0.58567595 0.51092476 0.21722646 -0.043569207 0.5019873 -0.78818476 0.7516424 0.6763681 0.5495389 -0.3642219 -0.10251819 0.4720948
149167 0.17265649 -0.3662497 -0.29209515 -0.49235713 0.3303863 0.4300213 -0.21827489 -0.61298823 -0.4128791 -1.0482616 0.03381578 0.0062071458 0.1498897 0.4345269 0.20339268 -0.23754336 -0.06238503 0.6370533 0.014360687 0.53495675 0.12548205 0.11253354 -0.5954711 0.6549322 0.3270728 1.0868409 -0.4419053 0.5387483 0.551231 -1.1338514 -0.35156485 -0.1849032 -0.100550346 -0.17967401 0.101774774 0.76680684 0.093699716 0.37702206 -0.022685206 0.4097368 0.6127176 -0.3491765 0.0014136215 0.17296022 0.3213596 0.5188333 -0.20052445 0.36453873 -0.2406654 0.27376467 0.41788396 0.19868949 -0.36861527 0.23223796 0.28134024 -0.2478399 0.8856675 0.22745948 0.7800295 -0.62846375 0.8116137 -0.12242461 -0.16431653 -1.0466931
151355 0.2706414 0.2554724 -0.065656446 -0.5806037 0.5732163 0.20361233 -0.007984543 -0.21510173 0.5472318 -0.30140188 0.60726064 0.67291063 -0.047695618 -0.12808304 -0.13340743 0.26641217 -1.2502137 0.42894748 0.052821375 -0.20441122 -0.093352556 0.09462298 -0.19104046 0.21143696 -0.069497764 0.032583263 0.15670402 -0.5140157 -0.85780126 -0.46091837 1.018361 0.49895895 -0.54875374 -0.48443463 -0.44685543 0.2748408 -0.4157745 -0.6469753 -0.18950202 0.34596288 -0.047102015 0.16609117 -0.6578343 0.03008348 -0.522832 -0.119299024 -0.41733113 0.05351313 0.84442383 0.43667543 -0.04077201 0.56151134 0.6355488 0.017312452 -0.22681789 0.36919555 0.44551396 -0.1005594 0.53342074 -0.2058735 0.18598208 -0.3414078 0.15547949 0.71389055
149179 -0.8878561 0.53679854 0.5236669 -0.24720009 0.17916799 -0.63778895 -0.6137084 -0.432514 -0.7368485 -0.7079449 -0.41209355 0.395443 -0.15864325 -0.20243919 0.23783688 -0.08763768 0.12026352 0.6502552 0.6682786 0.62703145 0.47939685 0.7303122 -1.2841314 -0.6418647 0.0063186865 -0.43354362 0.034675572 1.0352998 -0.486687 -0.4633396 0.33807456 0.61293817 0.17607313 0.5701586 -0.47500822 0.7061379 -0.30131182 -0.6049328 1.0297844 0.10313454 0.10150354 -0.609906 0.14355384 0.03781612 -0.78448653 0.265311 0.26018748 -1.2328328 -0.6585975 0.4588374 -0.8757108 1.0269855 -0.22816442 1.2100428 0.63813376 0.46328065 0.7422817 0.13723822 0.337994 -0.5393113 0.6266508 0.06819789 0.79163086 0.088165365
150668 -0.0013979919 -0.5281081 -0.6273333 -0.28833386 0.360555 0.05107872 0.037132595 -0.078845315 -0.67686856 -0.18604974 -0.09329352 -0.60542446 -0.3210474 0.5377987 0.12177718 -0.03511398 -0.93580043 0.47610605 0.13929322 0.9660181 -0.8854196 0.07289046 -0.49689475 0.083377704 0.4554257 0.33018708 -0.24174966 -0.19391876 0.056019027 -0.7211565 -0.013058448 -0.5249354 -0.116031714 0.38606414 -0.07371479 -0.19149955 0.11069489 0.24697433 0.3775017 0.28150964 0.009428205 -0.62655526 -0.21986489 0.1688279 0.16980797 0.54203117 0.10406912 -0.7642596 0.14367408 0.92761195 -0.2849847 0.45352906 0.47718784 -0.4992514 0.28510675 -0.47778395 0.6355652 0.4330669 0.067511655 -0.18172118 -0.20136514 -0.5461551 -0.5222076 0.35821143
150056 0.07002108 -0.83632743 -1.0342025 -0.906104 0.9874949 0.0153544415 -0.6574901 -1.4359385 0.3260767 -0.35147092 0.23853728 0.5387877 -0.68052167 0.8142655 0.5349657 -0.5620012 0.6719822 0.5044962 -0.9744673 0.29898426 0.7314498 0.43370366 -0.70130837 -0.1656354 -0.48168102 -1.1841536 -1.1103592 -0.49723032 0.9461275 -0.50690705 0.56603885 -0.7280793 0.6386796 -0.1236794 -0.22831377 -0.34990197 -0.51495796 -0.51851034 -0.03308415 1.1332486 0.45506272 -0.9268098 -0.34734336 -1.0080246 -0.36782 0.8444521 0.68129605 -0.21642792 0.105163105 -0.08448705 0.6036861 0.100796945 0.08719684 -0.9342337 0.11171391 0.8382588 0.23086038 0.86323357 -0.29062614 0.75346917 0.33559662 0.34382772 0.13957314 -0.051432084
150896 -0.2829637 0.015397087 0.20957308 -0.74587935 0.5413025 -0.34100348 -0.12144904 0.059953623 0.8530059 -0.839602 -0.17105192 0.3526024 -0.50293005 -0.22166131 -0.3367175 -0.38742465 -0.051187217 0.109353505 -0.25168762 -0.0870323 0.13432616 -0.15841116 -0.08218128 -0.4619851 0.13723646 0.13314559 -0.2697097 0.723305 0.12277509 -0.462324 0.73058933 -0.36067364 -0.054217953 -0.45499435 -0.4077219 0.06087304 -0.062392984 -0.5385338 0.21989875 -0.22151473 0.4252043 -0.111557804 -0.8773917 0.46904606 -0.6863663 -0.12044118 -0.23677956 0.100601055 -0.39030725 0.2324534 -0.3435335 0.34261742 0.71718293 0.20572165 -1.0988077 -0.3377484 0.2671243 0.70466685 -0.16303514 -0.44488472 0.1569346 0.06674245 -0.22899283 0.6888241
149643 0.15825744 0.20234238 0.12660757 0.30833396 0.45388883 0.4766554 0.22267826 0.14487006 -0.28735906 -0.53947115 0.26895866 1.2150717 -0.06969027 -0.06408223 0.15089229 -0.62505364 -0.20360383 0.74003893 -0.30143148 -0.65917 -0.59039503 -0.13213958 -0.7959598 -1.2568389 0.2670631 0.3130803 0.1528395 -0.2830696 -0.30469513 -1.0094315 0.47743198 -0.72833025 -0.77130735 0.25980186 -0.7926629 1.0625681 0.104100965 -0.55041766 -0.3466537 0.289619 0.1517669 0.23707077 0.8471369 0.7806144 0.045603033 0.1291807 -0.34628522 0.07716147 -0.018964304 -0.22882342 -0.00139207 -0.5663893 0.2715741 0.1124582 0.035897017 -1.2366352 0.32533172 0.61589724 -0.27097717 -0.6352803 -0.5954156 -0.08192306 -0.07520655 0.18309827
142497 -0.12865779 0.10335706 0.45143718 -0.2382308 0.4370522 -0.22579116 0.14106476 0.009813967 0.2629256 -0.8152924 0.1710306 0.12839332 0.08150581 -0.057255197 0.3525591 -0.16091956 -0.18537542 -0.2546314 0.42391226 0.16514839 -0.14192832 -0.39855802 -0.078751475 0.30978167 0.17889324 0.30652702 -0.68347204 0.2774656 0.12286669 -0.7279122 1.2104015 -0.05227051 -0.8694279 -0.009866871 -0.4053609 0.19542636 -0.61636245 -0.404757 -0.10682963 0.1504406 0.2866167 -0.446095 -0.5216644 0.1233114 -1.0136691 -0.048967324 -0.22650494 -0.14693367 -0.13631292 -0.24496952 0.16550276 -0.14231578 0.5781594 0.55621755 -0.7412759 0.42972836 0.5912811 0.034387905 -0.07840216 0.02496996 -0.1600925 -0.4567151 0.13710399 0.409336
149363 -0.39034188 -0.49130514 -0.48013106 -0.25141203 0.21550184 0.83479786 0.4145415 -0.63133967 -0.09010518 -0.51721036 0.11493921 -0.42326707 0.055511225 0.30236435 1.06698 0.6550572 -1.1849616 0.20204784 -0.2065215 0.4179555 -0.40469864 -0.058443986 -0.41218776 0.08884886 0.5726668 -0.033118773 -0.8664515 0.24289608 0.35980004 -0.59374523 -0.33256495 -0.82313734 0.03293762 0.60349685 -0.15589607 0.44017848 -0.322582 -0.07598544 0.21706495 -0.14852029 -0.29328516 0.4006163 -0.27636853 0.4195249 0.19564027 0.34617707 -0.042704016 -0.7310961 0.76482713 0.8010217 -0.36613023 -0.2895536 0.46426266 -0.34513584 0.7086083 0.1633795 0.63471514 -0.35075417 -0.43169582 0.42194632 0.6332167 -0.4720625 0.043875575 0.35686126
148940 0.46768394 -0.4935771 -0.044885147 -0.26021358 0.484437 -0.17648137 -0.42069668 -1.1343542 -0.51249367 -1.0050073 -0.45071566 -0.40283674 -0.4331146 0.693859 0.15528633 0.53356624 -0.27903765 0.40957063 0.0015768459 -0.34010065 0.64578164 -0.14401871 -0.13596354 -0.27764788 -0.33625707 0.0701614 0.38406563 -0.012328149 0.96088874 -0.79845095 0.31903166 -0.72723275 0.47509718 -0.20122002 -0.06464338 1.1786901 -0.11641659 0.42432854 0.06099409 -0.25028768 0.09667424 0.5135975 -0.727439 0.6082424 0.20114215 0.1729089 0.13414119 0.4533337 -0.3741616 0.79890716 -0.010075305 -0.50986063 -0.47169948 0.43403688 0.41243157 0.9156492 0.77637625 -0.23245978 0.6414221 -0.38187692 0.39260328 -0.1713055 -0.72899777 0.22620152
149629 0.529103 -0.37831563 -0.6266055 -0.7203375 0.09622105 0.7616738 0.17248787 0.08835031 -0.61249906 0.1490036 -0.10466214 0.37826958 -0.14836101 0.12332719 -0.3878877 0.16820644 -0.16167732 -0.06425067 0.42111415 0.21877873 0.2069038 0.0020892674 -1.4435602 -0.9947277 1.2616022 0.48600322 -0.18258604 0.6686564 -0.15861304 -0.98328966 0.37817535 0.097160794 0.8087896 -0.23660102 -0.5837812 -0.2973905 -0.37003836 -0.016394831 -0.59126145 0.6635357 0.74830383 0.25517958 -0.5143911 0.961885 -0.4310046 1.0171314 0.43268964 0.45182896 -0.749666 -0.24720487 -0.7568199 -0.68889153 0.055427697 -0.65701103 0.71265024 -0.29030386 -0.35225382 -0.25205785 -0.57153344 -0.0743813 0.46217155 -0.79117614 -0.283411 0.23372297
150442 0.26581135 -0.38907427 0.3997138 -0.9710529 0.62396234 -0.49770314 -0.30459067 0.1015229 0.6843175 -0.39459306 0.043390453 0.3774363 -0.59742093 -0.5130935 0.19633636 -0.06326705 -0.5051279 -0.2592044 0.035101306 0.642911 0.027715001 -0.09397411 -0.4598605 0.20282108 -0.064807855 -0.5942342 -0.023106521 0.084323846 -0.36606017 0.0551432 0.021960605 -0.16663775 -0.0451646 -0.93899035 -0.5032747 0.8316103 -0.20431347 -0.3114181 -0.03005386 -0.12505855 0.52533305 -0.8714892 -0.029977875 0.48356634 -1.0139425 0.12156579 -0.5348163 0.4585893 -0.30819127 -0.16452634 -0.6103157 -0.34961638 0.50273323 0.45600042 -0.08131464 -0.22428788 0.23983063 0.45511618 0.2851051 -0.2681196 -0.00412213 0.0375964 -0.16367488 0.44514096
151207 0.10103119 0.5946193 -0.37505427 -0.4003012 0.12726626 0.038082104 0.89057595 -0.03171307 -0.7362051 -0.4319355 0.2796327 0.42072877 -1.2215856 0.67579675 -0.027644781 -0.07869618 -0.2880867 0.44725814 -0.75356627 0.84268975 0.43072557 0.09767984 -1.2408378 0.17332835 -0.38634723 0.37477428 0.47801116 -0.7667444 -0.5532837 -0.018261597 -0.21076411 -1.084029 -0.43333545 0.107023396 0.15737139 0.5557959 0.6822043 -0.31710276 0.6999785 0.31178004 0.83042854 0.18979178 0.44545534 0.05161169 0.21512792 0.8095594 -0.39319432 -0.8764749 -0.59047806 0.064982705 0.044035736 -0.103034474 0.06497351 0.46807635 -0.06603963 -0.031622317 -0.2731746 0.6168617 0.06759515 0.34129488 1.0108497 0.039402045 -0.43510494 0.55972636
151530 0.23788129 -0.3235666 -0.71655625 0.6774521 0.87557274 -0.90820116 -0.20371057 -0.23840012 -0.8300508 -1.5090469 0.30532047 -0.54757243 -0.024898803 0.13335636 0.27705184 1.013135 -0.5387202 0.6128944 0.5247074 0.8353135 0.30661035 0.6864453 -0.5981218 0.7367715 0.48334408 0.841878 0.41613358 0.07227049 0.36311352 0.19644286 -0.33861092 -0.71755767 -0.41344592 0.26521745 0.27818143 1.249157 -0.265811 0.1419733 0.52156615 0.18518737 0.06147211 0.42682055 -0.4347664 0.054469135 -0.46779436 0.42786393 -0.07598571 -0.38423467 0.64186305 0.322041 0.23945892 0.012883987 0.116198905 0.037271854 0.5763689 -0.38412824 0.40447986 0.2625403 0.41126463 -0.18055883 0.8375881 0.67548764 -0.8077763 0.292606
150957 -0.39085186 -0.03332144 0.16486055 -0.54699916 0.41834882 0.037203513 -0.47872403 0.0075211916 0.07785846 -0.8580325 0.20965083 0.259867 -0.36141226 0.0940071 0.14788449 0.06413372 -0.31155857 -0.31271034 0.038792726 0.14735332 0.2032836 0.020087786 -0.5377824 0.1391344 0.3490684 0.21964796 -0.66003627 -0.039838027 -0.7678918 -0.08130754 0.6689018 -0.14245768 -0.7788855 -0.20715198 -1.0701172 -0.050843664 -0.36223647 0.26359725 -0.2697646 -0.39601117 0.19763269 -0.33659643 -0.27222398 0.23763384 -0.883667 0.067797214 -0.7203444 0.29938716 0.52822495 -0.087770805 0.14415038 -0.53575873 0.24286525 0.50376457 -0.90578616 0.5584128 0.025637962 1.0329075 0.11855192 0.32541403 0.033035107 -0.060000617 -0.42773518 0.19501255
151522 0.09546533 -0.43222705 0.25827718 -0.013372167 0.3783414 -0.10960468 -0.026495663 0.34694383 0.19278531 -0.93244207 -0.017362911 0.25155696 0.11991986 0.014952338 1.2063433 0.2929472 -0.504961 -0.074546754 -0.64681304 -0.13657911 -0.22349623 0.1848639 -0.35874543 -0.19909023 -0.020196803 0.36933362 0.5305433 0.013179103 -0.29132846 -0.49895597 0.7011999 0.1892708 -0.13262944 -0.6604475 -0.79452276 -0.30877873 -0.48093024 -0.34691137 -0.4795579 0.08622247 -0.1907342 0.16755773 0.03574344 0.074219614 -1.1794637 -0.38448724 -0.48497176 0.12111497 -0.015988968 0.6693005 -0.17022182 0.08583645 0.40531966 -0.09191689 -0.3911794 -0.33800575 0.36886597 0.65564656 0.4101623 0.5058339 0.29616788 -0.13710797 -0.7690396 0.8404458
147570 0.13613613 0.13309582 -0.83644223 -0.05985819 0.81188565 0.39480442 0.12651563 0.057428632 -0.40239763 -0.5105695 -0.0011271427 0.47069344 0.5216302 0.61575687 -0.37563068 0.4665249 -0.94323045 -0.15556653 -0.091836475 0.18027525 -0.19485715 0.15824611 -0.41495445 0.2885174 0.3037483 0.18675058 0.111895114 -0.07910193 0.18763073 -0.56466556 0.1271599 -0.7031205 0.0029801615 0.09729571 0.040145483 -0.20009848 0.05724819 -0.10108095 -0.04904058 0.082737535 0.25965938 0.01987821 -0.26922616 0.49048194 0.39886606 0.6932576 -0.42125192 -0.032360904 0.093846194 0.9805057 -0.31067544 0.6116372 -0.22045861 -0.4939737 0.46057934 -0.11395715 0.5483433 0.19015047 0.26571974 0.06426851 0.049881708 -0.77423203 -0.8888171 0.20924155
149109 -0.40220338 0.7292182 -0.54453826 0.07673656 0.9610409 0.25412086 -0.7510459 -0.14063239 -0.6943319 0.39947858 0.30502588 0.16298333 -0.087759726 0.45491487 0.36989215 0.19227286 -0.7566041 0.13069983 -0.715913 0.45291537 -0.3212241 -0.09643458 -0.4128662 0.021056376 1.2212272 -0.106552795 0.066598244 -0.18649746 -0.4062667 0.30828035 -0.26109993 -0.86185926 0.06811401 -0.5494813 -0.16211507 0.53808737 0.34241834 -0.031495117 0.06242633 0.53656167 0.49064276 0.020470653 0.3044518 -0.07070001 -0.7151204 0.06569177 -0.10388305 -1.2481543 -0.47491875 0.42043564 0.19628443 0.12498398 0.2602965 -0.33191836 0.3097091 0.47347784 -0.03547507 0.6079499 -0.7086508 -0.42551917 0.24194495 0.5108864 -0.5251562 0.53704983
151649 -0.001478076 -0.9567785 0.5213121 0.26840624 -0.12779732 -0.094295576 -1.0166734 -0.692891 -1.0940015 0.14719398 -0.6244028 0.7405853 0.19594531 0.13206743 0.33980244 -1.0202225 -1.1398187 0.12101771 0.032590084 -0.3049873 0.3692031 0.42979395 -0.21978734 -0.7002148 0.3323436 0.780787 -1.021733 -0.24979597 -0.19184276 -0.2990821 0.24479339 -0.48628983 -0.22840738 -0.3422659 -0.16460575 0.47840482 -0.14177035 0.07873132 0.053480353 0.018000329 0.8884336 0.21320379 0.37507045 0.1080136 -0.34854323 -0.043455057 -0.20122977 -0.61890876 -0.16564184 0.09171629 0.6627411 0.21708818 0.47870433 -0.33128726 0.51230043 0.62606674 0.54599476 -0.5239413 -0.7460372 -0.26413015 1.1568238 0.14434235 -0.5577841 -0.35045958
151537 -0.60666066 -0.3363865 -0.47603688 -0.53474677 0.48103535 0.04568915 0.37139192 0.05672315 0.34271365 -0.58357286 -0.30550376 0.034721665 0.0606377 -0.7912818 1.0379552 0.12712413 -0.8785749 -0.4345728 0.081271864 0.015479296 0.2867986 0.2158686 -1.075295 -0.14166807 -0.5909113 0.33947894 -0.8408225 -0.10809627 -0.09010488 -0.49351737 0.18806712 0.00638757 -0.26396814 -0.16879737 -0.6085249 0.35548607 0.13046657 -0.4307884 -0.46569452 -0.32020998 0.17827463 -0.2800999 -0.6855544 0.18950059 -0.631458 -0.07900775 0.11747312 0.36139438 0.53415287 -0.3639166 0.19390619 0.7656725 0.12925006 0.2291704 -0.38126177 0.3797387 0.23221663 0.5781227 -0.38324386 -0.42559102 -0.16807479 0.38914627 -0.10039582 0.79114723
150426 -0.31759623 0.19757222 0.25985128 -0.44087642 1.0224941 -0.19084007 0.28309327 -0.075265795 -0.49598768 0.32655674 0.09969897 0.454061 0.25813675 0.3482373 0.11330542 -0.32654667 0.2298033 -0.05459932 -0.5100818 1.2420889 0.06130762 0.5868417 -1.3617126 0.18771052 1.7713809 0.10090209 0.1244781 0.6086377 0.10777564 0.059287168 -0.36511672 -0.47398147 0.58224255 0.27432525 0.75278914 0.6550039 -0.7278281 -0.07307172 -0.43503097 0.5925221 0.7906387 0.43343297 0.30349913 -0.591606 -0.41339996 -0.19823004 0.16952133 -0.5086982 0.39788252 0.65888876 1.0272375 -0.35223022 0.66083276 -0.3748755 0.33426654 0.56582546 -0.04352875 1.4365859 -0.0844633 -0.5170297 0.46591818 -0.034496598 -0.14805625 0.21783365
150877 -0.32326296 -0.1266199 0.18767726 -0.26278138 0.5925133 -0.13518085 -0.010262842 0.23516001 0.066987924 -1.0479449 -0.018617662 0.38532025 -0.029871589 -0.370258 0.41633266 -0.31398883 -0.3729934 0.16919258 -0.16769625 -0.051170554 0.060865823 -0.2117865 -0.52130294 0.3583779 0.27594364 -0.35178143 0.3135047 0.06301043 -0.37138763 -0.5820024 0.8731059 0.22618853 -0.00095351675 -0.046118163 -0.79115367 -0.29217836 0.14561567 -0.429542 0.19017531 -0.08269786 -0.060490098 0.031251922 -0.89864403 0.26695544 -1.1203399 -0.36210558 -0.519747 0.23626101 0.47276545 -0.41006264 0.12926108 0.28162926 0.21732578 -0.36504066 -0.59404427 0.12469812 0.40150234 0.079391755 -0.11019096 -0.46857375 0.8131028 0.14356385 -0.2396043 0.7776867
150145 0.29012832 -0.111120194 -0.09069309 0.06153698 0.1512334 -0.122009106 -0.2439006 0.14961076 0.49913606 -0.9266514 0.40045393 0.2709924 -0.20271137 -0.38765907 0.2335334 0.3137657 -0.23239784 0.04369258 0.1695856 -0.16238013 0.34124288 -0.18228708 -0.42867622 0.3891009 0.28273445 0.49520895 -0.21680735 0.09054388 0.13190208 -0.5608785 0.60519415 -0.005100354 -0.51584136 -0.4632959 -1.09607 0.091474265 0.22447175 -0.023045395 -0.16042632 0.17262939 0.34748682 -0.35770568 -0.6525756 -0.34401518 -1.2888347 -0.11889116 0.109776795 -0.08233555 -0.09155856 0.5277376 0.37642562 -0.11911779 0.7567162 0.5512643 -0.39982077 0.3438512 0.1930459 0.9443403 0.26488286 0.41764656 0.23904894 -0.239861 0.13817449 0.7842979
150524 -0.16082911 0.40869382 0.9585606 0.35467377 0.7056496 0.27157164 0.3643089 -0.22314367 1.1083117 -0.5663884 -0.24504498 0.26371413 -0.6410697 0.018748939 -0.20044677 -0.25279698 -0.41329315 -0.1728104 0.35396892 0.38986567 0.16596003 -0.6319347 0.01525145 -0.36020616 0.049976073 0.0013194897 -0.6925281 0.17039567 0.083013706 -0.51529235 0.86973137 -0.2316275 0.012040613 -0.03852474 -0.13653216 0.4603298 -0.06528796 -0.5447181 -0.34340608 0.5992907 0.0022869557 -0.084543295 -1.0834817 0.31728885 -1.2956598 0.8300686 -0.6635888 -0.72928745 0.12667042 0.30987185 -0.25301743 -0.44182914 0.7811328 -0.41017687 -0.417643 -0.2642942 0.29175967 0.52914304 0.039549716 -0.32210848 0.07058266 0.3658576 0.15979208 0.69749504
146395 0.023490233 -0.35724467 -0.077008404 -0.5436583 0.5184367 0.29906785 -0.21625468 -0.51984704 0.028022185 -0.008543668 -0.14933734 0.45919976 0.08614691 0.18152805 0.11635407 -0.1301427 -0.44300362 0.42394114 -0.22298975 -0.26732752 0.46572867 0.3328451 -1.3088039 -0.71128714 0.61343616 0.43640128 -0.24872833 -0.20442533 0.6814685 0.297757 0.24733481 -0.4454019 0.15437943 -0.009423768 -0.02269801 -0.9865761 -0.6778849 0.03438144 0.1059506 0.757597 0.11570374 -0.27427647 -0.43085867 -0.20664506 -0.3081008 0.7696672 -0.4839989 0.045414913 -0.068380594 -0.7018326 -0.09967786 -0.351969 -0.22264153 -0.7053602 0.40550175 -0.76869 -0.3704752 -0.15309821 -0.9835494 -0.22760697 -0.39681005 0.059653413 0.43337992 0.09746878
149093 -0.6965899 -0.67448163 0.1987032 -0.4288478 0.21350928 0.52111256 -0.65032125 -0.95188975 -0.75482255 -0.38076022 -0.33787706 0.2361402 0.027437042 0.3229466 0.07473877 0.110418156 -0.69399077 0.4429633 0.36571822 -0.07920111 0.14894578 -0.3492751 -0.2857362 -0.46252593 -1.3988382 0.4758632 0.179867 0.45078903 0.013599768 -0.81773204 0.17236409 -0.23944081 0.41031802 -0.4460083 0.38249028 0.0033484818 -0.7665897 0.3920992 -0.55370325 0.06740995 0.39458892 0.3170752 -0.17036135 0.47128916 0.6593137 0.6662531 -0.15474875 -0.75600624 0.058235273 0.16226368 0.19294415 -0.104758054 0.17805849 0.57953197 0.49603644 0.20629221 0.6573555 0.12454821 -0.1499458 -1.228908 0.76535594 -0.02297589 -0.7050589 0.51170063
146784 -0.037096508 0.11424743 -0.089804724 0.121701136 0.12550086 0.5850955 0.73107237 -0.7892517 -0.13948174 0.027626764 -0.3360789 -0.41231677 -0.00956381 0.42027166 0.27820486 0.083534464 -0.4556026 0.36367834 -0.62231404 0.049846627 -0.18308124 0.15916423 -0.5569347 0.49900654 0.39844266 -0.1339405 -0.80581266 0.28607368 0.5559264 -0.43181396 -0.3981618 -0.19733839 -0.1804084 0.09551449 0.26477483 0.42876557 0.2814787 -0.4914192 -0.056794476 0.27488825 -0.3327028 0.37091312 -0.40658265 0.6121369 0.0611505 0.5114775 -0.59736127 -0.9634183 0.25425255 0.3130034 0.2744314 -0.1477649 0.5181745 0.120371275 1.0222484 0.29110357 0.49150056 0.21120809 0.008258244 -0.40354887 0.605455 -0.56023157 -0.7320289 -0.030591521
151310 -0.22336364 -0.41689074 0.6257518 -0.693445 0.6694803 -0.11242937 -0.062032353 0.0147023965 -0.10077136 0.09871682 0.20126896 -0.022141194 -0.4299887 -0.67982084 -0.35307613 -0.305142 -0.14059912 -0.67170864 0.011518619 0.5235125 -0.93970686 -0.68607795 -0.45674464 -0.61745447 -0.17163888 0.7046767 -0.44906196 0.009434983 0.6761904 0.13201164 0.5557733 -0.50591606 -1.1346648 -0.25568238 0.22863291 0.4697591 -0.11987179 -0.43887138 0.17802294 0.45653293 0.002545224 -0.037181906 -0.4611945 0.56064606 -1.411203 0.21432324 0.19607292 0.32147083 0.5349292 0.14925654 0.36918655 0.0040795812 1.2358354 0.5416515 -0.11333586 0.56057626 -0.1980474 0.0018929744 0.07939132 0.22811724 0.3506011 -0.50932336 -0.26731792 0.8163296
148527 -0.3531232 -0.58756334 -0.33078218 -0.22753628 0.38138732 -0.23452595 0.060527217 -0.093059964 -0.5712231 -0.8170949 -0.68129575 -0.2007113 -0.67348367 0.08368095 -0.3793255 1.0750619 -0.8192237 0.4294955 0.511746 0.2191593 0.14914191 0.3120645 0.11887626 0.63144565 0.13932487 0.27739507 0.27560502 0.07474548 0.35801366 -0.38842273 -0.13565335 -1.0182586 -0.027112456 0.13234165 0.14778125 -0.12834999 0.08119993 0.2710586 0.35574716 0.21543537 0.08206326 0.14880443 -0.28287297 0.32431683 0.17106876 0.8256732 -0.7874913 -0.48812383 0.08053743 0.98760283 -0.054836426 0.2982845 0.3785369 -0.14307618 0.3163191 0.16321407 0.6520173 0.43579918 -0.67792225 -0.23390536 0.27077088 -0.10385043 -0.3124866 0.4310502
150718 -0.26696655 -0.22806518 0.69434124 -0.5274885 0.75557935 0.18438748 0.008006051 0.93370336 0.47899878 -0.26095164 0.38536245 0.5964461 0.33446223 0.23351343 0.014825288 -0.2569874 0.033582255 -0.004651167 0.013911171 -0.29622078 -0.6393294 -0.3055286 -0.58343565 -0.21428765 0.13162349 0.36542445 0.16716912 0.14459953 -0.0074127438 -0.24948776 0.6601437 0.50096864 -0.65332824 -0.34172383 -0.17418714 0.07661449 0.38512695 -0.46574497 0.5960132 0.6251217 0.18568799 -0.37104088 -0.34220496 0.030726446 -0.47271085 0.28495672 0.29838163 -0.10308326 0.52361983 0.36703688 0.20886265 -0.503781 0.5833469 -0.3056757 -0.1519621 0.96703464 0.95064944 -0.12015246 0.33487546 -0.0030191038 0.059879255 -0.48918226 -0.49560976 0.90184253
151366 -0.4909325 -0.5060205 0.35003185 -1.0519321 0.04433265 -0.17932242 0.08349676 0.17960002 0.7045505 -1.1568056 0.45941964 -0.21827695 0.273933 0.0167623 0.30039346 -0.35613796 0.24460277 -0.29451904 -0.20154415 -0.3597461 -0.5576614 0.17554764 0.028564988 -0.04979056 -0.10377253 -0.45002508 -0.13494103 0.045059882 -0.56109893 -0.611043 -0.031109827 0.025376463 -0.17580996 -0.8164126 -0.43109217 -0.00404704 -0.035749342 -0.37737992 0.21634343 -0.20745595 0.38164723 -0.044648074 -0.6450636 0.018807387 -0.9185188 0.5626236 -0.7794283 -0.42560273 0.43500134 0.45851406 0.47704527 -0.35988814 0.72310656 -0.035828 -0.4956906 -0.073683344 0.6467277 0.60446936 0.42653328 -0.16009445 -0.27497238 -0.020023514 -0.3831065 1.0628698
151349 -0.30328846 0.18690273 -1.1298335 -0.3760577 0.64234084 0.29722032 -0.14506076 -0.5295005 0.33092967 -0.76539737 -0.029255895 0.36426654 0.4228156 -0.03215427 0.07404555 0.14668076 -0.2760601 0.40461072 -0.4129105 0.7699989 -0.5638526 0.5507406 -0.7717869 0.4261128 -0.3616696 -0.33073398 -0.64890206 0.15855348 -0.28201526 -0.23056586 -1.2237077 -0.09960868 0.0730861 -0.53157043 -0.077215664 0.49202585 -0.17117193 0.5650464 0.11433468 0.27264696 -0.10022059 0.61431456 -0.0074022445 0.7180541 -0.25828522 0.6797478 -0.15764673 0.41907665 0.20072734 0.5154931 -0.035969842 -0.21266225 0.18403897 -0.21499407 0.083674684 -1.1283811 0.6605395 0.06734995 -0.14383435 -0.37921962 0.24316108 -0.16226096 -0.62844783 0.78294563
149644 0.36762038 -0.14814866 -0.06899586 -0.50909996 0.30318955 0.4079071 -0.13053058 0.4006651 0.31014073 -0.563621 0.37820214 0.47721663 -0.15085468 -0.3582453 -0.055788953 -0.2634933 -0.36976594 0.29903373 -0.022227664 -0.38560638 0.06486899 0.10254979 -0.695816 -0.27097508 -0.2603629 0.2022193 -0.31255925 0.13660203 -0.6784739 -0.18062063 0.46016142 -0.16387393 -0.62735957 -0.19896261 -0.50448984 0.88050866 0.41172147 -0.4299686 -0.47853023 -0.32175484 -0.002891392 0.041447643 0.18997155 0.42731223 -0.7407569 0.08523537 -0.12861468 -0.0787491 -0.18965484 0.49303943 0.14494821 -0.53246313 0.44967586 0.10997104 -0.77320635 -0.06176037 0.3764295 0.84194887 0.14654598 -0.22254008 -0.32322592 -0.30595264 0.20319092 0.59902674
146735 0.21828102 -0.20089786 -0.42200753 -0.19279197 0.32247406 0.082243785 0.07076579 -0.39834493 -0.36181775 -0.4257173 0.076740496 -0.45127568 0.02433378 -0.24041824 -0.4479695 -0.7636957 -0.19196823 0.13582374 -0.2660862 0.26314422 -0.15191367 0.53987736 -0.620137 0.28159794 0.050674 0.34112152 -0.6743212 0.058291882 0.6746049 -0.330895 -0.16096722 -0.4542442 0.4234021 -0.054322083 0.4271981 0.2319775 0.5638561 -0.057837263 -0.15551768 0.09504082 0.13040766 -0.14068252 0.07776394 0.39882767 -0.754127 0.8562302 -0.23027432 -0.2510408 0.05353524 0.7360594 -0.26087907 0.25712994 -0.47022218 0.7738817 1.0789988 -0.34821272 0.74379617 0.6908205 0.50127375 -0.49920925 0.27940768 -0.112940796 0.16584049 -0.15725423
150967 -0.16893081 -0.5773577 0.28811193 -0.7337919 0.45609078 0.62877756 -0.36971048 -0.07412824 0.471121 -0.4996491 0.22809123 0.34257028 0.18454815 -0.2529983 0.3952015 -0.10026327 0.38734728 0.3371092 -0.6850038 -0.26163644 -0.34277087 0.13726644 0.12286431 -0.55918986 -0.4277862 0.22450142 0.37508157 0.2644929 -0.30753842 0.17358543 0.5820957 -0.20292276 -0.5449364 -0.6739397 -0.29377878 -0.20623146 -0.6656515 -0.16479155 -0.019171493 0.13090906 0.18758696 -0.30899456 -1.3212905 0.7484621 -0.66231436 0.6024233 0.21870524 0.2351137 0.20080394 0.007858678 -0.01354348 0.53387976 0.92826587 -0.03692956 0.10113793 0.5455096 0.044421222 0.5052438 -0.17401372 0.15345526 0.0828234 0.23723096 -0.47288197 0.99904984
144397 -0.6421391 -0.1826595 -0.21282099 -0.19010663 -0.32848886 0.68245995 0.22049761 -0.68474364 0.57156205 -0.51352364 -0.71706915 -0.20806013 0.22158825 -0.59875894 0.27560192 0.649482 0.71539265 0.33206233 -0.7778829 0.5269181 0.24939832 -0.2910198 -1.5864146 -0.075491846 0.080946125 -0.210123 0.2914595 -0.35050845 -0.07036038 -0.16437022 -0.03939158 -0.033030134 -0.011063234 0.5710237 0.1211897 0.3528565 -0.8450452 0.3131457 0.59630495 0.018911486 0.78876203 0.23248804 -0.5045842 -0.7497075 -0.48130825 0.21239576 -1.0178055 -0.15189198 0.035664022 0.30550838 0.7052791 -0.4132652 0.6801544 -0.50728875 0.5204244 -0.27820194 0.12006661 -0.8550517 0.30517656 0.28982982 -0.286953 -0.55024815 -0.4046701 0.5235957
149189 0.47981012 0.47839645 0.11740818 -0.94577014 0.33701965 0.20662333 0.054692626 -0.79719496 0.5419177 -0.09814698 -0.59234506 -0.6235181 0.1799803 -0.7103213 0.5735151 0.011778028 0.43619248 0.21496725 -0.6982432 0.17906202 0.8312125 -0.2661995 -1.2880787 -0.075382754 0.15851794 -0.09142913 0.50143003 -0.032986127 0.27652797 0.28056604 -0.19653083 -0.1694177 -1.2652899 0.90717864 -0.08157027 -0.05220167 -0.24049892 -0.09403746 0.108289436 0.19099203 0.6246479 0.40600276 0.33160254 -0.13464616 -0.11477011 0.08338043 -0.40265173 -0.12041511 0.675368 -0.049174108 0.4940894 -0.23022905 0.5898367 -0.39808956 0.33507377 0.5135377 0.4871783 -0.5076707 -0.07788064 0.27370137 0.23844689 0.037960015 -0.7608395 1.2026892
150178 -0.10919787 -0.8576802 0.039846174 -0.14580919 1.1063942 0.000103936 -0.20144668 -0.7696436 -0.0063151945 -0.19221859 -0.51954615 0.50095797 -0.13125762 -0.30616972 0.059504513 0.40848497 -0.58747494 1.1296933 1.6662364 -0.15655735 -0.1476017 0.6508291 -0.47467583 0.31742036 0.059161685 -0.035105567 0.022310767 0.0014253198 -1.0499401 -0.47220695 0.30480337 -0.46065414 -0.49832493 -0.029903121 0.6238556 -0.40342385 -0.31659827 -0.13956614 1.0332763 0.61738026 0.38647228 -0.44299984 -0.40669683 0.81140196 0.23606044 1.0001106 0.5458052 -1.3006126 -0.57941043 -0.3535274 0.8599898 0.5108036 -0.15618825 0.49687877 0.4550951 -0.32485297 0.26303124 -0.026584363 0.3108494 -0.22022209 -0.033641554 -0.21273667 -0.44958246 0.2937785
146580 -0.4133198 0.15682493 -0.6232177 -0.15267813 -0.16643193 0.5988467 -0.26951385 -0.84467506 -0.5418113 -0.7804111 0.6090762 -0.27690232 -0.120182626 0.05199586 0.66384584 -0.031062074 -0.61025274 0.21658994 -0.40738812 0.22847734 -0.35236308 0.6716895 -0.89305615 0.1739042 0.46075794 -0.019763967 -0.7056878 0.22711332 -0.004068946 0.2939887 -0.3949316 -0.6296163 -0.35735595 -0.5351613 0.5196075 0.004338739 0.3307754 0.2262676 -0.14653906 0.5644991 0.14570127 0.22136697 0.037008572 0.39751104 0.14407338 0.6538293 -0.50553876 -0.17720586 -0.25964463 -0.034671642 0.13590924 0.21172276 -0.16368586 0.18371725 0.5287519 -0.48455474 -0.007907868 0.75840074 -0.42636076 -0.55059165 0.655765 -0.39919916 0.33769783 0.10602502
150061 -0.36853197 0.18568438 -0.070097774 -0.3848018 0.43418908 -0.5574998 -0.21085529 -0.048911415 0.5176134 -0.66297585 0.37389275 0.8514493 0.221587 -0.102914326 0.40355456 0.4123872 -0.37160873 -0.21972911 0.24549334 0.025836473 0.15184018 -0.048677217 -0.01899229 -0.06717905 -0.14110084 -0.039260346 -0.5215928 -0.2655005 -0.4832429 -0.009367873 -0.06524359 -0.18816927 -0.14699396 -0.3236966 0.030363595 -0.25525236 -0.0034882966 -0.38216197 0.032952305 -0.17914324 0.36527842 -1.1463636 -0.521233 0.31775668 -1.449533 0.6155512 -0.34546575 0.028478235 -0.2608426 -0.0560126 0.13483596 -0.7182545 0.5105206 -0.26726174 0.13526563 1.118377 0.27955365 0.037333246 0.12875755 -0.2744 0.034087453 -0.38905433 -0.58572394 1.027713
150970 -0.09983087 0.10344957 0.44252712 0.015187571 0.67566884 -0.68593955 0.37873745 0.3491415 -0.017784858 -0.9147808 0.32806912 0.17642663 -0.20429388 0.16953622 -0.11862394 -0.0068566203 -0.40902686 -0.3161777 -0.20068085 -0.3117769 0.2084544 0.32206652 -0.4976758 -0.09220601 0.28482285 0.07473018 -0.49834532 -0.08913538 -0.41555274 -0.21727915 0.4692114 -0.3551092 -0.63392824 -0.24556847 -0.38642213 0.14145958 0.088146046 0.24353474 0.21577534 0.71375346 -0.41306594 -0.43972704 -0.16237073 0.15403098 -0.93695986 -0.20029575 -0.3998307 -0.06821475 -0.3459379 -0.89481235 0.030573541 -0.66141325 0.14232486 0.009529377 -0.33110175 0.6820007 0.51869476 0.79678047 0.47906432 -0.013051613 -0.09056832 0.20522815 -0.65005326 1.2379197
150290 -0.731754 -0.028750598 0.4139661 -0.50926965 0.67546403 -0.33709246 -0.31895575 -0.35551 0.7056431 -0.24301408 0.11944557 0.06942754 -0.88318247 -1.1806502 0.4199175 0.45504093 -0.29298228 -0.4204204 0.1664079 -0.21455258 0.46523973 0.39489803 -0.76859593 0.13468823 0.31921315 0.95696056 -0.08619529 0.1403989 0.005269134 -0.8102437 0.09112698 -0.37258893 -0.5688973 -0.6540797 -0.20645267 0.15420082 -0.1469633 -0.77014464 -0.05736411 -0.023809077 -0.9670486 -0.21399982 -0.6565328 0.23853566 -1.2504345 0.1734266 0.06428897 0.24961905 0.3572459 0.47992015 0.11743562 -0.472334 0.86050636 0.10707828 -0.7384534 0.033541832 0.17317967 0.081925094 0.16825858 -0.036656223 -0.35189304 0.6338448 -0.33912846 0.32366818
150343 -0.6731223 0.15908426 0.15405346 -0.07622501 0.6975854 0.0028079068 0.38338667 -0.22918673 0.4665706 -1.0398697 -0.014044356 0.53996795 -0.096155226 -1.4907585 0.044199448 -0.8034884 -0.44816962 0.1493758 -0.18316755 -0.0593396 0.03260039 -0.058893654 -0.004701118 -0.173152 0.41051543 -0.33322084 0.16966769 -0.3422061 -0.35608593 -0.4791016 0.7034014 -0.6851594 0.048023567 0.12915348 -0.15994258 -0.1417386 0.51701975 -0.10603765 0.007496324 0.5077441 0.29199237 0.09278129 -0.7722169 0.17921717 -1.3975738 0.15335113 -0.6567044 0.33111605 0.24636622 -0.60720783 -0.25083083 0.3027836 0.92514765 -0.27669388 -0.83258003 0.5765222 0.34959596 0.5374644 -0.15697595 -0.035806265 0.32015485 -0.46721736 -0.39966807 0.22188355
147005 -0.634673 0.07039025 0.3660639 -0.58449465 1.0403314 0.59401876 -0.23272163 -0.07855783 0.17710395 -0.29256096 -0.034985106 0.08803743 0.021753624 -0.021877298 0.1944802 -0.34003568 -0.21572009 0.17171182 0.61805093 -0.6506483 -0.12247203 -0.57416844 -0.44910684 0.07713347 0.16406368 -0.3409572 -0.24688196 0.03135203 -0.50917745 -0.39871585 0.5337099 0.1395654 -0.46720883 -0.41135928 -0.6935635 0.14632636 -0.015242853 -0.05531439 -0.15791082 -0.3486936 0.08972054 -0.3790609 -0.56220555 0.46560618 -1.12245 0.34182417 -0.8939307 -0.11071422 0.56207275 -0.018348496 0.07447943 -0.46586868 0.66139716 -0.07459636 -0.8325296 0.13664071 0.018325077 0.41973954 0.05711226 -0.15531468 -0.031736445 -0.014793951 -0.44881564 0.35651302
149547 -0.98727846 -0.049933042 -0.13571419 -0.9111705 -0.24158609 0.24018751 -0.80002517 0.1375901 -1.6980135 -0.6718683 -0.20989509 0.21583828 -0.13014917 -0.19617927 -0.019198252 0.06851484 -0.4259019 -0.27218446 0.34156018 0.2975653 0.32747295 -0.42296112 -0.58372504 -0.18365781 -0.42726937 -0.2561492 0.38409966 -1.1426227 -0.703445 -0.84843284 -0.26276785 -0.1223447 -0.48039186 -0.1586488 0.66551113 -0.2874697 0.25431064 0.098811395 0.22026706 -0.31165063 0.96678823 0.44039288 -0.15064397 0.9533341 -0.7523823 0.38774893 0.45338392 0.14520001 -0.68029344 0.24714498 0.2786602 0.02934322 -0.18601173 0.21111363 0.8133893 0.5772544 0.064953394 1.1978066 -0.049369566 -0.5295654 0.30443668 -0.91131294 -0.58041906 0.29644045
146767 0.027862322 -0.36904323 -0.75503266 -0.0999708 -0.05706582 0.29757348 0.5709754 -0.49664032 -0.122719385 -0.4114471 0.31885126 0.039660767 0.17765616 0.06116714 0.31581455 -0.20392902 -0.99350643 -0.05430014 0.48804697 0.7468018 -0.2636855 0.23487324 -0.43338105 0.2922197 0.25403008 0.14854097 -0.43002826 0.20960082 0.27013665 -0.5876984 0.12768461 -0.6274548 -0.05593865 0.10055708 -0.4545844 0.028421111 0.080073155 -0.015025417 0.5380243 0.048718825 -0.16440561 -0.2923947 -0.19428378 0.57454985 0.59753597 0.3165746 -0.53839064 -0.6014893 0.071217895 1.496976 -0.15131414 0.06569419 0.5598864 -0.47571525 0.36236244 -0.69116247 0.9845989 0.2561466 -0.24748708 -0.46463847 0.010014848 -0.06873454 -0.12518024 0.4336684
151664 0.11757776 0.13063234 0.060254533 -0.5489334 -0.13492692 0.1967343 0.35955086 -0.0068735816 0.33672044 -0.77899265 0.1966446 0.6533894 0.34620497 -0.31482115 -0.032088574 0.41720518 0.1959464 -0.28981176 0.3325811 -0.4594681 0.011416552 0.20268103 -0.25276133 0.17244437 0.3261157 0.13422433 -0.33563614 -0.29209876 -0.382397 -0.79991454 0.38540828 -0.38675207 0.4274607 -0.7120091 -0.25057828 0.34095892 0.19292049 0.112135954 0.41470137 0.1595121 -0.07029139 -0.4517614 -0.25385928 0.54143465 -0.9173057 -0.58248824 -0.2876649 -0.26993075 0.17319456 -0.44439605 0.79400593 0.15961641 1.7556967 0.43583053 -0.05257292 0.32402897 0.5917775 0.15384111 0.6008612 0.01836395 -0.10239592 0.034972116 -0.05589121 0.73370963
148971 -0.18817878 0.20891693 0.6962646 -0.3690423 0.51898754 0.5025307 0.33013138 0.12853417 -0.1387855 -0.4407137 -0.31062275 0.08543489 -0.7164737 0.36232165 0.7548698 -0.33049875 -0.68545747 -0.5271892 0.029575918 -0.0757468 0.3583978 0.5625913 -0.19592631 0.140344 0.116975404 0.23604326 -0.05780588 0.11627824 -0.20946312 -0.2886926 0.28520444 -0.24196261 -0.5282049 -0.6888466 -0.10059713 -0.64602244 0.2964447 -0.21156746 -0.6562066 0.37123376 0.15058109 -0.46668506 -0.6298967 0.22250497 -1.1408921 -0.22792657 -0.23617226 0.52450114 0.21324135 0.08552241 0.1901963 0.42180988 0.41252235 0.1450882 -0.08026358 0.24775524 0.28460428 0.24563126 0.05475791 0.40760356 0.63299006 -0.18121916 -0.23254997 0.81880695
144532 -0.40595362 0.10857152 1.348566 -0.61693925 0.6679618 0.15432751 0.45190457 0.27470958 -0.2076821 -0.116311 -0.5500101 0.7175813 -0.23515774 0.7285522 0.4772046 -0.4407856 0.016990244 -0.3110464 0.086019695 0.3158364 0.7551946 -0.2870705 -0.45287657 -0.2997647 -0.018550513 0.3176954 -0.35403514 0.36546144 -0.38248602 -0.5675889 1.0065234 -0.10487242 -0.70798486 -0.029553002 -0.54961264 0.22302599 0.8549201 -0.54300946 0.094412334 -0.04227416 0.19730051 -0.19880721 -0.0054995054 0.22707812 -1.1592971 0.30471012 0.054932453 -0.24072827 -0.13002926 -0.2063945 0.38844094 -0.21003117 0.60421926 0.6230022 -0.15641464 0.12672345 0.29795465 -0.09988535 0.7047289 -0.22220187 0.73935694 0.094243504 0.3590211 0.24603257
140085 0.34927097 -0.084434845 0.8035471 0.1861412 -0.38777697 -0.75366414 0.0830106 -1.1537431 0.03430656 -1.1304973 -0.9496849 0.37067637 0.04601464 -0.0017070078 0.4016294 0.36394766 -0.252375 -0.21729352 -0.62823814 -0.19277535 -0.49408415 0.39604765 -1.2468385 0.18413392 0.78678703 -0.7396119 0.35174626 -0.863599 0.30790347 -0.44779772 -0.12093902 0.65859914 -0.13531424 0.19467689 0.67182094 0.2581607 -0.07329469 0.50556374 -0.8688536 0.70560145 1.013815 -0.12892663 0.06044904 -0.103359945 -0.16137663 0.570007 0.3715309 0.22862847 0.3998213 0.9310716 -0.20017582 0.019198941 0.51432705 -0.22356617 0.0065724337 -0.032809123 0.47271803 -0.28350377 0.071780905 -0.025418712 0.16431414 -0.4226225 0.21521978 -0.13707095
144099 0.43936455 0.3255036 -0.22660549 -0.37256405 0.19267085 0.68840337 -0.028333707 -0.16773888 -0.7407613 0.31977224 -0.5552082 -0.12155507 0.1210951 0.5738758 0.038638096 0.34633327 -0.7451368 0.3231564 -0.64941233 0.3834801 0.25354847 0.09404226 -0.71422374 0.019911982 0.14305818 0.14373878 -0.043500822 0.035879213 0.2132048 -0.8625257 -0.5273538 -0.9804208 0.13577302 0.46976048 0.25941318 0.25169316 0.15069437 -0.1660569 0.14526105 0.13120914 0.060188476 0.09244207 -0.043275427 0.30222544 -0.26561296 0.9988238 -0.27587542 -0.36887723 0.098579414 0.29543886 -0.5547522 0.37991777 0.026553864 0.56211525 0.13094598 0.13808757 0.6610669 0.66107774 0.47959 0.15449077 0.00057569525 -0.27762336 -0.76945764 -0.25569814
150166 -0.035001006 0.05534086 0.21762934 -0.7374017 0.035853967 -0.26519194 0.15243654 0.22987315 0.09281734 -0.031142553 0.7361736 0.29063013 0.057509158 0.36822352 -0.10800481 0.3209778 -0.17187497 0.31752655 -0.20648867 -0.12421313 -0.008135646 0.026993722 -0.001404619 -0.23352604 0.4218166 0.2696831 -0.7364882 -0.2702382 0.10623529 -0.19753355 0.7324022 -0.26939058 -0.4862544 -0.2780507 -0.0139168585 0.28238478 -0.37034094 -0.5496542 -0.04179291 0.24932253 0.17129666 -0.80546576 -0.67792547 0.619311 -1.2489464 -0.2679985 -0.5262199 0.12409741 -0.11702755 -0.72920537 0.20184237 -0.2814056 0.42238218 0.37144795 -0.41687596 0.7146273 0.9061149 0.30525672 -0.24315417 -0.108489916 0.03914172 -0.49733984 0.13576132 0.61264575
145182 0.42833403 -0.09199304 -0.5969884 -0.23308748 0.34637803 0.066446856 0.0034354886 -0.2159719 -0.6353745 -0.32171807 0.27952716 -0.29972893 0.19841656 0.22864686 -0.26870242 -0.12200145 -0.92489356 0.6567557 -0.16745171 0.645518 -0.95831656 -0.16735654 -0.20435812 -0.04707408 -0.19461077 0.4097549 -0.50800514 -0.19363542 0.26349902 -0.5242381 -0.052261256 -0.719857 0.07699706 0.5900764 0.20773089 -0.04001663 0.10062069 0.43645003 -0.22732316 0.3780651 0.4064195 -0.46107247 -0.42974883 0.43772072 0.00010591823 0.6154352 0.0955074 -0.51833487 -0.069702804 0.6630414 -0.12716495 0.31776136 0.33423278 0.35411903 0.48952368 0.19424929 0.87027127 0.83954453 0.43314466 -0.34637344 0.09348839 -0.18473195 0.15231103 0.18409751
140545 0.19788492 -0.6769996 -0.036639392 -0.2926762 0.3798277 0.5389912 0.114757985 -0.42963278 -0.53877676 -0.32838744 -0.37374777 -0.45764765 0.11194749 0.30014706 0.30580103 -0.50586754 -0.49101728 0.15573886 -0.5079646 0.1735066 0.041614935 0.17222919 -1.0119021 0.46788448 -0.0743811 0.16329414 -0.18756595 0.9601342 0.42946878 -0.79884076 -0.31847942 -0.29052046 -0.66498774 0.16645977 0.25819966 0.2940099 0.4991226 -0.19988437 -0.30706996 0.48021096 -0.027376574 0.114894666 -0.75371766 0.6391336 0.11305138 0.04261679 -0.43321416 -0.5956673 0.038745087 0.111484684 0.20398243 0.516985 -0.15502498 0.4999016 0.7473047 -0.25495693 0.59948915 0.18114026 0.34859893 0.0385116 0.1863438 -0.33639264 -0.29606503 -0.7913121
148821 -0.01834173 0.7161874 -0.21552664 0.5730298 0.9801867 -0.4149769 -0.60883236 -1.7491032 -0.8852703 0.079694726 -0.6800152 0.33036172 -0.311029 0.15565822 0.39890245 -0.61567503 0.10226151 -0.086124815 0.07125601 -0.38230225 0.43614128 0.37636775 -0.17636906 -0.762799 -0.24969517 -0.38060406 0.27071568 0.01905532 0.099761054 -0.5437346 0.6643818 0.14386638 0.70531976 -1.0582536 -0.34559426 1.4282044 -0.12504286 -0.056748297 0.10476751 0.5304016 0.4451138 0.42676753 -0.3318797 0.96464205 -0.6389733 0.7226828 -0.8565442 1.1922568 0.06305546 0.9815063 1.0881416 -0.61727864 -0.110243805 0.055656318 0.57450116 0.7667459 0.9892296 -0.5321542 -0.12977295 0.7288255 0.5294962 -0.410577 -0.1361597 -0.37384826
145630 0.15759426 0.22829103 0.37733045 -0.5034568 0.7368899 -0.29455242 0.11420578 -0.06337609 0.83545744 -0.36153916 0.20545171 0.71677595 -0.06061014 -0.06359584 0.8629064 -0.39231044 -0.762676 -0.92447525 0.28018677 0.2776511 0.50685954 0.13811779 -0.36207283 0.5167748 0.13203612 -0.14394538 0.27711925 0.5089919 -0.057021335 -0.593185 0.22340807 -0.2525962 -0.570791 -0.29024377 -0.36029777 0.4543612 0.37960663 0.09039113 -0.47939807 0.051493675 0.36191475 -0.87544864 -0.53242934 0.019853098 -1.0475652 0.6180431 -0.4679196 0.16017799 0.06674184 -0.187639 0.35503834 -0.42851108 0.741715 0.026695523 -0.27859125 0.91269076 0.3663487 0.3144539 -0.047649 -0.21076149 -0.06035689 -0.31291807 -0.035908453 0.47555906
149775 -0.014481033 0.17175081 0.23083204 -0.4979359 -0.19617082 0.2827341 0.18357581 -1.1225349 -0.37946525 -1.0460522 -0.73224115 0.053463712 0.6747172 -0.58966446 -0.25959212 0.58289886 -0.47863048 -0.27167454 0.17691691 0.029768186 -0.13721164 -0.65649426 -1.6220658 -0.75303763 -0.021012936 0.073972456 0.3774927 -0.27870438 0.97014356 1.2966945 0.28554887 -0.5806411 0.20970401 1.1367296 -0.5668779 0.5489814 1.109704 -0.4942607 -0.08322119 0.47511786 1.0188074 0.16730382 0.5901547 -0.62246764 -1.1725812 0.21512046 -0.23265642 -0.16067089 0.2012753 -0.21823014 1.0878115 -0.11588129 -0.377276 0.093013994 0.75976306 0.2227819 0.74584323 -0.04904695 -0.08537924 0.78761387 0.33962518 1.2268809 -0.45140085 1.0029479
149454 -0.6115406 0.16175951 -0.33289504 -0.5214884 0.51535153 -0.28545588 -0.83367795 -0.50764996 -0.68402654 0.52387255 0.3815534 0.3697973 -0.020456564 0.8444699 0.07661636 0.07607946 -0.5110794 -0.3033297 -0.7433192 1.0815953 -0.18537417 -0.0176214 -0.5215357 -0.25953257 1.5148535 0.10644479 0.5146267 -0.24526969 0.21192917 -0.3278896 0.01494095 -0.10934042 -0.019533947 -0.5682969 -0.107405245 0.74714625 -0.56650126 -0.13264847 0.117893495 0.6158612 0.12417056 0.34475902 -0.32682082 -0.32586837 -0.730038 -0.20115079 0.39328983 -0.95250183 -0.25154865 0.5405552 0.521677 0.33058804 0.79556847 0.10836675 0.23938811 0.11366035 0.09301489 0.27577347 -0.02504874 -0.7635922 -0.70460755 0.951431 -0.32619044 0.14817797
144731 -0.4014767 0.25223356 0.30963483 -0.19279094 0.8489061 0.15672688 0.02468688 -0.45545334 0.4965613 -0.47379732 0.0056781424 0.11691291 -0.32156253 -0.8993639 -0.043946363 -0.5972489 -0.12556012 -0.28112674 0.23642272 0.57541716 -0.20032486 0.07635306 0.22971109 -0.34536105 -0.15092437 0.27955508 -0.14085914 -0.11588132 0.055085286 -0.78731334 -0.06365129 -0.26562566 -0.3781909 -0.11564542 -0.2030273 0.35473043 -0.2901852 -0.54069066 -0.08948047 0.3580533 -0.31640914 -0.21228032 -0.46132624 0.36024585 -1.4251939 0.46304053 -0.063583255 0.15947919 0.22034472 -0.08577466 -0.5824977 -0.55015695 1.3873302 -0.26457575 -0.098577894 0.25021276 0.10996226 -0.11579346 0.7279738 -0.06278036 0.13450018 -0.14796008 -0.40170103 0.84490836
140248 -0.14235172 -0.34368297 0.050026473 -0.27277386 1.1878273 -0.31732216 -0.49075842 0.13527028 -0.8070827 0.26531488 -1.0668262 0.29133192 -0.50601286 0.14251487 0.29413688 -1.1111387 0.19386151 -0.25049254 0.119658716 0.15204062 0.5206238 1.6475242 -0.31633854 0.1977302 -0.42315537 -0.5193547 0.20382981 -0.7619979 -0.7424337 0.22753836 0.48760697 -0.42352048 -0.09120877 -0.005848916 -0.094208136 -0.3146998 -0.20344149 0.07758031 -0.132 1.0643169 -0.011607046 0.8326708 -0.9173899 0.65166855 -0.36578494 0.24204008 -0.3735838 -0.25274214 0.22502272 1.0995047 0.90652514 -0.87306595 -0.27946305 0.5078278 0.7353546 -0.10837971 1.0528713 -0.1897193 -0.37496212 0.3325217 0.26993063 -0.09627642 -0.39973128 -0.11044435
145581 0.32361102 -0.07518811 0.668163 0.1472444 -0.14224236 0.09230831 -0.2820284 -1.3877059 -0.3349557 -0.67140496 -0.19861919 -0.3913098 0.30860868 -0.0043451996 0.21748814 -0.017417131 -0.17619051 -0.3596035 -0.076481305 0.076332115 0.45831645 0.10737575 -1.2815235 -0.944954 0.74528444 -0.5473369 0.42060754 -0.16485873 0.45816877 0.20409623 0.897281 -0.33184743 -0.084049396 0.65795314 -0.40822035 -0.37650627 0.23044941 0.023370694 0.1231842 -0.38276777 1.2529444 -0.36636156 0.10073325 0.30623263 0.40218356 0.56825286 -0.02165573 -0.19661924 0.42157575 -0.23737471 0.38257414 -0.8553328 0.30243 0.18534274 0.09623527 -0.5662235 0.34838316 0.11466858 -0.07792552 -0.37107173 -0.32647038 -0.05507 0.6099491 0.5408591
146764 -0.14599252 0.38199648 -0.20558439 0.101296544 0.36178958 0.20469803 0.5964543 -0.13019595 0.7497632 -0.20080537 -0.28991893 0.41330054 -0.039770797 -0.620015 0.14892478 0.2670142 -0.8253025 -0.30936393 0.6870074 0.33111954 -0.35072213 0.026575968 -0.3671192 0.003829508 -0.12570736 0.6995735 -0.25762382 -0.028187895 0.05892027 -0.84308016 0.69812447 -0.16822766 -0.2637444 -0.42243433 -0.4141757 0.67102677 -0.36232743 -0.45304742 -0.44704634 0.32254592 -0.12648845 0.19736263 -0.5553873 0.13873753 -0.08700485 0.21069129 -0.41172147 -0.09526946 0.441491 0.7564466 -0.04275697 0.15047742 0.6519267 -0.009788845 -0.51955134 -0.09988103 0.8150291 0.0243853 0.09032719 -0.4034816 -0.5251223 0.4094314 0.2537961 0.7356857
142333 0.6170774 -0.4709699 -0.23792729 -0.68762785 -0.055847693 -0.20204027 -0.19046189 -0.35777152 0.3151586 0.0071102125 -0.47304153 0.01503162 -0.97340405 0.06243551 0.7506368 -0.4096558 -0.14463478 0.18118778 -0.57653797 0.014593941 0.04269586 -0.20863788 -0.9264095 -0.550008 0.514771 0.60000235 -0.20047699 0.16324338 -0.48685768 0.39618236 0.7774268 -0.08348337 0.56216604 -0.040018562 -0.49145597 0.47747988 0.84319293 0.17776626 0.5573884 -0.22403814 0.19398941 0.31063008 -0.20630737 1.0549611 -0.5146167 0.8664333 0.80131215 -0.24220234 -0.9446983 0.48628286 -0.24429098 0.3773696 -0.35380995 0.24307092 0.65961176 0.1378703 0.46166813 -0.41810092 0.3411871 -0.7468381 0.74702406 0.5678399 0.16878693 0.23581724
148050 -0.094798736 0.08431134 -0.084125645 -0.26725402 0.56776845 -0.013741271 -0.21275884 0.19010703 0.5996967 -0.7766372 0.031266008 0.19122064 0.21215793 -0.035220563 0.20277399 -0.29399323 -0.17006016 -0.18573089 -0.054653548 0.505302 -0.13398415 0.30128548 -0.3167852 0.15555541 -0.24634184 0.11161898 0.29318735 -0.12743664 -0.7442385 0.49902773 0.20858954 -0.12668729 -0.084892325 -0.90893346 -0.039731987 0.20440324 -0.14900398 -0.27064174 0.14475502 -0.18568468 0.08836501 -0.33218798 -0.3296601 0.55031294 -1.0858836 -0.2888778 0.34988776 -0.12569731 0.48761174 -0.0054861163 0.24433209 0.2784109 1.2739811 -0.035483353 0.57539064 0.32943597 0.6464012 0.056626398 0.4629146 0.17295535 -0.22358336 0.1404332 -0.55216676 0.8236096
143428 -0.28558025 -0.11650393 -0.28270167 -0.074573 0.23868923 0.23625866 0.1593993 -0.4427328 -0.27794772 -0.5172923 -0.0013909648 -0.68194276 -0.5360585 -0.31557193 0.6950211 0.1746492 -0.7202327 0.326158 0.22950156 0.45090443 -0.35527027 -0.29029617 -0.44674745 -0.010145991 -0.86092216 0.16156091 -0.40893883 0.5615593 0.3936097 -0.13456897 0.43913314 -0.62405795 0.1802618 0.26897794 -0.074270986 0.022529516 0.1531564 -0.09291516 -0.083057635 -0.1175302 0.15162788 0.043559585 -0.09487821 0.6299154 -0.011988238 0.14233246 0.22941475 -1.0116322 0.22154605 0.9151748 -0.38449612 0.07966165 0.36404684 -0.058642127 0.09253769 -0.5425677 0.69511575 0.25457537 -0.5490185 -0.10647597 0.3530036 -0.7738712 -0.14051324 0.62628514
150717 -0.20513469 -0.4555142 0.5011864 -0.5677823 0.62374574 -0.080768764 0.35983175 0.05471928 0.4861733 -0.83024365 0.75994444 0.50134766 0.031979527 -0.04907583 -0.15851875 -0.33206156 -0.25460973 0.06526983 1.0226121 -0.07363769 -0.014586976 -0.16645254 -1.0931958 -0.6532879 0.46026945 0.01032645 0.19871582 0.38734055 -0.061865125 -0.24247125 0.5940895 0.16044779 -0.086517625 -0.9430495 -0.17714104 0.35697064 0.83921546 0.12464722 0.70590633 -0.014184869 0.119086675 -0.63320076 -1.2652396 -0.38123992 -0.7718708 1.1271397 0.6655909 0.40401918 0.17728145 -0.31457818 0.5181619 -0.37346217 0.56143534 -0.6858943 -0.23966005 0.8977146 0.7331163 0.33576757 0.3068358 -0.903886 -0.4142408 -0.47019434 0.06458218 0.7396102
149920 -0.7737374 0.30572698 -0.16534147 -0.113447696 0.71754897 -0.19587447 -0.36014402 0.008325738 -0.42793682 0.21749246 0.024375057 0.70156324 -0.08859665 0.062763266 0.031526882 0.5876965 -0.26661068 -0.5167989 -0.7629277 0.932147 0.28833804 -0.0011731734 -0.45336875 -0.3471415 1.0364194 0.14970061 0.37000743 0.3752376 -0.12935072 0.10688801 0.09058781 -0.25165725 0.5251739 -0.44425887 0.3362918 0.41388187 -0.53688896 0.14918005 -0.01041184 0.123675175 0.6888309 0.24482065 0.39856586 -0.7220957 -0.76037365 0.57423747 0.35644096 -1.0624229 0.14294977 0.41806665 0.80350614 0.3598401 0.01587255 -0.11277661 1.049548 0.5583023 1.122506 1.1468549 0.18062823 -0.40714982 -0.17926542 0.405302 -0.12928404 -0.12782869
141171 0.4201061 0.42331535 0.2283752 -0.76273745 0.6622609 0.009486844 0.37529013 0.35187024 0.33696112 -0.6365278 -0.15490524 0.32794407 -0.5338655 0.13293244 -0.5955559 -0.16281512 -0.9230892 -0.3326034 -0.2560778 -0.13255347 -0.06506592 -0.097611986 -0.13131975 -0.41583475 -0.12397092 -0.07755015 0.1241645 0.23775639 0.16281767 -0.09346933 0.2520784 0.09341804 -0.22751084 -0.7151826 -0.028122261 0.13560024 -0.1400267 -0.34089622 -0.31549975 0.29195806 0.33439505 -0.745783 -1.1098974 0.28710398 -0.57331985 -0.21005291 -0.3717283 0.28179538 -0.044410978 0.06218022 -0.2806326 0.66751343 0.73966575 0.46567792 -0.3177538 0.2924427 0.53171146 0.47703418 -0.14240889 0.015374235 0.06701622 -0.43180892 -0.32143041 0.5426567
143430 0.121176936 -0.25134036 0.18865755 0.11426922 0.8991592 -0.31231225 0.05839133 -0.50289446 0.4996296 -0.41029418 0.23490958 -0.06344525 -0.71453476 -0.061268114 -0.094025925 -0.22428511 0.07214438 -0.15001115 0.11605855 0.16204953 -0.3434856 -0.48760882 -0.5218691 -0.4184151 -0.78475714 -0.088690035 -0.35171044 0.2265963 0.3912617 -0.03256771 0.45583498 -0.40285373 -0.3539088 -0.3806529 -0.12640661 0.33329535 0.08545514 0.041811425 -0.48704767 0.27144915 0.119228095 -0.16994524 -0.378579 0.7310531 -1.3275186 -0.051879674 0.5807116 -0.25049564 0.3718005 0.14938024 -0.4772223 -0.009814032 0.44196066 -0.5686019 -0.28486016 -0.52466965 0.75094026 0.36015543 -0.1780221 -0.2001206 -0.00053419103 -0.67658323 -0.051811367 0.37631583
145982 -0.013401282 -0.4173805 -0.07573406 -0.06736875 0.34420818 -0.12396539 -0.5271137 -0.79199606 -0.69994336 -0.52971953 -0.5664796 -0.054867472 0.06476121 0.48768726 -0.15240237 -0.05927174 -0.86947393 0.16802032 -0.49552175 -0.28921857 0.294994 -0.15912728 -0.37865996 -0.16395271 -0.6887029 0.2103278 -0.03201664 0.8089187 0.21825218 -0.4621023 0.38843894 -0.51296633 0.20377913 0.11988322 0.19789618 0.62242246 -0.18093677 -0.25633377 0.07360789 0.035904527 -0.003821778 0.48894307 -0.2591075 0.67392725 -0.05501872 -0.1430831 -0.20585036 -0.29731658 -0.45321625 0.24344778 0.49479392 -0.24201557 0.04550283 0.55399823 0.95558304 0.083493695 1.040697 0.52553505 0.67139745 -0.21348795 0.46512195 0.08652474 -0.1374111 -0.9608593
150239 0.701694 -0.11468679 0.42533892 -0.96460485 0.26113397 -0.8185715 0.5562181 -0.12563767 0.6147767 -0.52416897 -0.13176298 -0.40993023 0.16212359 -0.27390447 0.33913144 -0.10714783 0.47042307 0.6323743 -0.4104269 -0.4118522 -0.90463436 0.9259844 -1.1807818 -0.60923064 0.6141892 -0.41958588 -0.13076498 0.009294251 -0.2856962 -1.7828909 -0.27140918 -0.26785251 -0.73842245 -0.4180818 0.15622994 -0.34083295 -0.9940233 -1.2948033 0.6099368 -0.5559518 0.8473264 0.5102906 0.49407297 -0.21593028 -0.112681784 0.34618506 -0.3673941 -0.11701902 0.5555232 1.0075679 0.5920705 -0.24182251 -0.22928812 0.5422381 0.15756042 0.9603328 0.040439 -0.32302886 -0.30639237 -0.06603966 0.3570889 0.2310173 -1.1663944 -0.29559305
147386 -0.22031389 0.036082264 0.18656918 -0.5901227 0.5963309 0.0011669993 0.062051024 0.12715302 0.34110865 -0.4724263 0.036327947 0.23266283 0.24642426 -0.1755064 -0.21234143 0.21652634 0.14343588 0.0388194 0.49548623 -0.427384 -0.04086195 -0.6813236 -0.17152849 -0.452761 0.26437622 0.19880466 -0.8680431 -0.043732613 -0.34500626 -0.8262238 0.9027004 0.019594198 -0.39098048 -0.46771136 -0.00028953137 0.0018974398 -0.5159483 -0.07237216 0.49508616 0.10609892 -0.06597134 -0.7283713 -1.0147616 1.150152 -0.969306 -0.14815417 -0.32929412 -0.0045232847 0.3506811 -0.05901961 0.37406656 0.20172785 0.7275908 0.051700015 -0.4616728 0.29223102 0.33541265 0.14502099 -0.09337374 -0.20844676 -0.3943538 -0.25211942 0.30587983 0.7663852
145582 -0.5287025 -0.41496456 0.4967499 0.0024352842 0.33152744 -0.3466214 -0.65902394 -0.054364048 -0.24271458 -0.55015415 0.028074063 0.39365146 -0.25915763 -0.2574089 -0.17694034 -0.052635647 0.088063456 0.47889575 -0.3674595 -0.4032228 -0.01094724 0.60066277 -0.6590772 -1.7466942 0.5967047 -0.029928865 0.5533688 -0.36776346 -0.111074604 -0.49727648 0.67907625 -0.51689327 -0.8345966 0.30444002 -0.5717693 0.8772662 0.0829125 -0.48241037 -0.7009067 -0.49622923 0.51163596 -0.43841198 0.42717654 0.40721983 0.30322593 -0.25636506 0.11510318 -0.031068977 -0.09104014 0.116641775 0.8762665 -0.56317955 -0.21553747 0.32759598 0.59278965 -1.1682875 0.2587907 0.39491025 -1.0177541 -0.568867 -0.7508039 -0.67378944 -0.0016924174 0.56382036
145349 0.3385327 0.4661833 0.19832593 0.43522227 0.20133561 0.553915 -1.2039293 -0.32255152 -0.9863476 0.04389698 1.7022384 -0.022724431 -0.9836115 -0.20696847 -0.28721303 -0.43633133 -0.6544648 0.31272453 -0.35016114 -0.83246976 -0.08010331 0.40432373 -1.5365795 -0.28249043 -0.007508712 0.76342934 -0.040963076 0.17284651 -0.5047801 -1.3505211 -0.725835 -1.0068209 0.92862886 0.13319844 0.6700155 0.07866211 -0.076551855 -0.08160438 0.06106776 0.9211947 0.75387836 0.18081307 -0.3282215 -0.24524783 -0.7495217 1.0403546 -0.522277 -0.018563263 0.04618548 0.5534884 0.5017771 0.52758986 -0.36724415 0.34239027 0.28471857 0.4399143 0.26012856 -0.47742996 0.6845541 0.15407704 -0.070785515 0.037676074 -0.29737535 0.32845068
147107 -0.6650436 0.3597467 -0.4446294 -0.23178478 0.92307705 -0.17877966 -0.6400932 -0.6185995 -0.31401142 0.2384676 -0.14416125 0.45943722 0.15773804 0.48437497 0.0427662 0.526036 -0.32023415 -0.33453315 -0.32245773 0.725857 0.17471562 -0.70990443 -0.25657788 -0.025303796 1.28929 -0.2918962 0.45673776 0.20781498 -0.39371887 -0.4694584 -0.4572971 -0.22991991 0.5397709 -0.43676385 0.33141324 0.7558967 -0.4759903 0.019789964 -0.32920748 0.5495187 0.4728679 0.32517338 0.2722514 -0.48820037 -0.5772242 0.2827436 -0.13805833 -0.9501727 -0.13261557 0.37294766 0.49424148 0.101731926 0.4683349 0.060787335 0.6520745 -0.112531975 0.9926039 0.93072253 0.011232547 -0.7466255 -0.57925487 0.6279424 -0.81522113 -0.01978012
141954 -0.5001673 0.51774114 0.73743194 -0.4407748 0.24267171 -0.019012779 0.1693198 -0.22995579 -0.31201768 -0.3496506 -0.5364532 1.0136454 -0.5208856 0.5353067 0.5740302 0.13365994 0.40976906 0.54703933 -0.073679246 0.33932605 1.019701 0.49523443 -0.8387839 -0.7215459 -0.11035008 -0.39758897 0.35211524 0.47396916 -0.45979166 0.08011542 0.2172788 -0.2383717 -0.38591132 -0.17072888 -0.14568341 0.35018694 0.26279086 -0.76902294 0.9179675 0.1409709 0.29217294 0.035866354 -0.10279611 0.24627367 -0.935992 0.35958034 0.3865619 -0.6897869 -0.43940312 0.3850834 -0.35870522 0.10841735 -0.29188767 0.9588558 0.9275876 0.48300475 0.53441614 0.017834233 0.62193674 -0.23257802 1.0115353 0.03853781 0.8406693 -0.024623713
149740 0.6183021 -0.15974054 -0.16391553 0.1583803 0.4556762 0.84299064 0.34474197 -0.31853396 -0.64280874 0.14200076 -0.24159907 -0.67937267 -0.8093871 0.19677334 0.20474634 -0.30643725 -0.3062703 0.27619818 -0.4928242 -0.27604526 0.09472742 0.27473417 -0.7340808 0.2503285 0.09478906 0.15576985 -0.16503772 -0.020069517 0.10375141 -1.1097724 -0.761121 -0.5731954 0.20098624 0.5689224 0.6826328 0.621527 0.3041711 -0.42293996 -0.110818274 0.35728192 -0.007732908 -0.32179907 -0.077548176 -0.10831729 -1.1337365 1.1196135 -0.41564602 -0.53607994 0.15562011 0.5175981 -0.23250297 0.08686757 -0.15130645 0.5367442 0.6108611 -0.07618685 0.031608153 0.03113438 0.5608593 0.05298907 0.24330752 -0.3521952 -0.7678321 -0.004552085
148384 0.04031179 0.16656859 0.074121736 0.47338322 0.08115095 0.6708607 -0.12646496 -1.0794468 -0.46962905 -0.45674857 -0.31291682 -0.43734792 0.41566718 0.04611518 -0.09740468 -0.3760675 0.37134165 1.3565437 -0.4634389 -0.15887168 1.1951592 -0.09572278 -1.6224072 -0.48837665 0.66318035 0.52644545 0.38012722 -0.2920592 0.06421252 0.35058045 0.14613508 0.3896151 -0.18154621 0.1596142 0.26622862 -0.06893406 -0.11716499 0.10471105 -0.21421297 0.37279215 1.5853631 0.0016511662 -0.3645955 0.33740458 -0.30668464 0.007954034 -0.49052113 -0.5183625 -0.014492423 -0.50159395 -0.084297426 -0.68223387 0.25639606 -0.16299531 -0.30441928 -0.19649075 0.13788739 0.16509372 -0.05866562 0.20757407 -0.28896028 -0.10516688 -0.15084139 0.6654618
146738 0.10216644 -0.11484453 -0.18145648 0.019444358 0.2838188 0.7498486 0.25346833 -0.29844046 -0.52690804 -0.12906764 -0.5519952 -0.700917 0.32097733 -0.07026466 0.65776926 0.011608648 -0.40464297 0.43032023 -0.23250037 0.085139565 0.10120132 0.3761193 -0.6264804 -0.20446533 0.6442891 -0.05564895 -0.56042147 0.46024 0.38164032 -0.78998446 -0.8483689 -0.40006906 0.07858304 0.21071394 0.36163977 0.12546204 0.4013276 -0.007140353 0.40881768 0.2957183 -0.2381641 0.009725702 -0.056574304 0.7068056 -0.42646533 0.9526796 -0.2593246 -0.6048711 0.38621747 0.39721292 0.17940627 0.32477322 0.09284408 0.5627923 -0.05500576 -0.04987126 0.46078065 0.69198096 0.14753261 -0.11434785 0.1159114 -0.7451811 -0.56971115 -0.137747
150192 -0.16732357 -0.17873777 -0.25398782 -1.0650227 0.7511072 0.46287018 -0.8025096 0.50031674 0.48736677 -0.21059068 0.15806231 -0.3352529 0.29562536 -0.516191 0.5982728 -0.22108972 -0.33481377 0.14774354 0.24006335 -0.51675206 0.7229445 -0.012067864 -0.13303445 0.078628995 0.65533346 -0.6862298 -0.0016785162 0.11079933 -0.35519785 -0.5808641 0.8009261 0.023299776 -0.6360056 -0.22480634 0.27322432 0.046929337 -0.11107028 -0.045112994 0.33864942 -0.37678322 0.2016175 -0.9103344 -0.75525093 1.1800299 -1.0541824 0.5611222 -0.12561926 0.13837266 0.6073813 0.017523874 0.009777944 -0.020392327 0.31412295 0.45404747 -0.12726931 0.30744517 -0.14208822 0.3687883 -0.0008433327 -0.2776013 0.36557433 0.4884894 0.2618508 0.98123056
145707 -0.17967866 0.24542809 -0.015216494 -0.7708454 0.541043 0.5304769 0.5791238 -0.70655555 -0.9986927 -0.8643628 -0.07472375 0.5599936 -0.7709007 0.6147603 0.74195063 0.49953204 0.48121575 0.8711662 -0.19165847 0.057581726 1.8879515 0.39486927 -0.33679074 -0.76990026 0.24621396 0.12483855 0.14835283 0.38029686 -1.0055561 0.22211467 0.79103476 -0.71714735 -0.49930084 -0.4275752 -0.058019042 -0.072564505 0.33820236 -0.4295936 0.5378723 -0.101428196 0.84699935 0.49306366 0.5145188 0.62370783 -1.3406358 0.7110696 0.24648216 -1.1348981 -0.21656306 -0.095163554 0.4944376 0.54722965 0.13911423 0.4460506 0.64634836 -0.24207845 0.37533653 -0.18766761 0.9886732 0.30388042 0.09847091 -0.18568616 0.96076393 -0.5544839
140621 0.3635144 0.35373527 -0.8955407 -0.40835688 -0.020083811 0.5219002 -0.1067904 -0.078674674 -0.8208236 -0.67373925 0.6772346 0.60488605 -0.6832178 0.4690366 0.06808164 0.6925908 -0.5333203 -0.50240266 0.38071215 0.7143233 -0.33496225 0.17401475 -0.7469888 -0.48266423 0.78464395 0.13645889 -0.3215717 0.261961 -0.4375093 -0.24072441 -0.19500095 -0.096442804 0.27690014 -0.19576395 0.035513133 -0.4442055 -0.42561966 0.111334294 -0.19778788 0.4804416 0.68170375 -0.042115647 -0.14667293 0.45225897 -0.3027691 1.167919 -0.12072852 0.05987682 -0.43163654 0.12492578 -0.7451788 -0.13850157 -0.16319892 -0.15527564 1.1186074 0.0214181 0.058557685 0.29032964 -0.6816143 -0.14874625 0.26019946 -0.49613163 -0.7092187 -0.15429565
144368 -0.26673678 -0.35502356 0.0077758343 -0.2555727 0.4587566 0.3640221 -0.07543395 -0.0013287731 -0.5464389 0.33102456 -0.075670615 -0.7150242 -0.07518847 0.7872398 -0.36681056 0.098419935 -1.0161822 0.71915644 -0.040853478 0.23892143 0.17812403 0.46891806 -0.6121061 0.18226561 -0.00435043 0.46978143 -0.124537304 -0.32975844 0.13139005 -0.8949804 -0.12017909 -1.0424541 -0.12667423 0.84308094 0.3392234 -0.4078278 0.22593695 -0.11386962 -0.9169648 0.30448157 0.1427399 0.24148554 -0.3726283 -0.0038773357 -0.27997577 0.6195548 -0.0937608 -0.29773912 -0.43403253 1.1499194 0.37826467 0.7252297 0.22910856 -0.5276657 1.1171019 0.40791395 0.74587834 0.7600975 0.25926733 0.22640617 0.2408933 -0.32244703 -0.49797785 0.7010355
149546 -0.6129101 -0.5089008 -0.3258098 -1.3200256 0.5997911 -0.77962005 -1.1891752 0.44370112 -1.0297253 -0.46120757 -0.17829907 -0.32689905 0.33267576 -0.4583385 0.34630078 -0.21970181 -0.25665948 0.3779601 -0.013654941 0.904415 0.2571943 0.1866527 -0.27711955 -1.0859671 -0.29415625 -0.8039019 1.1422386 -0.62517244 -0.43385512 -0.69569373 0.57343143 0.09225098 -0.42092866 0.14348978 0.83233786 -0.58135045 -0.4609298 0.90374917 -0.5750241 0.29149827 1.3036945 1.8245381 -0.61234295 0.8672607 -0.9358844 0.6965982 0.019243518 -0.7835169 -1.1723988 0.36779767 0.26510417 -0.45400557 0.024974661 1.1793457 1.0390631 0.5275316 0.47092715 -0.18130305 0.20458038 -0.23242089 1.5702885 -1.2847869 -0.21143864 0.030239126
142023 -0.44857898 -0.15952392 0.7767429 -0.79675466 0.7858354 0.34966013 -0.15585616 0.017841902 0.42414904 -0.5049726 -0.3343655 0.0047728843 -0.06603774 0.46270767 0.6751881 0.029565955 -0.4393807 -0.25576726 -0.32050428 -0.3688003 -0.20198208 0.09709427 -0.15902486 -0.18771508 0.06150437 0.19407807 -0.3629337 0.2862692 -0.80625963 -0.046701554 0.5049497 -0.2952803 -0.49208683 -0.2174787 -0.2603149 -0.28602234 -0.21946143 -0.27188677 -0.60200846 -0.32188964 0.079765834 -0.5455281 -0.7052016 0.5537264 -1.0247413 0.24015059 -0.8695266 0.5912122 0.13206811 0.21321814 -0.43967634 0.319612 0.35276127 0.033579133 -0.38080254 0.72472245 0.3856492 0.95732206 -0.61021984 0.46380523 0.14426322 -0.10627935 -0.40926838 0.8083374
149964 -0.37885654 -0.12913911 1.2618945 -1.2942578 1.1365216 1.7156283 -0.15748332 -0.8724329 0.15042678 -1.12923 0.13123928 0.21755676 -0.21769676 0.2574635 -0.544328 -0.31233963 1.0306695 -0.5675199 0.66339755 0.16573879 -0.12352556 -0.39540064 -0.17379867 -0.51243514 0.6479402 0.09866738 0.4151701 -0.74295336 -0.062460084 -0.37122223 0.035785988 -1.641469 0.4894992 -1.2427734 0.072499305 0.4669277 -0.4009082 0.123546466 0.6905667 -0.2970792 0.6018668 -0.11726101 -0.216161 0.004483447 -0.8917975 0.14787598 0.9590982 -0.92713547 -0.6700194 0.72863877 0.22174187 0.060828734 -0.38041785 0.38796797 1.6579586 -0.079828866 0.024894893 0.27608475 0.1643727 0.36878285 -0.021727525 0.17098825 0.5638319 0.6708606
145853 -0.30666405 -0.27708578 -0.100946285 -0.5399198 0.36646736 0.3864731 -0.602472 0.258079 0.6938119 -0.14183949 0.23512213 0.15579617 0.021084795 0.5001718 0.026339473 -0.6890534 0.03959748 0.10440206 -0.31143567 -0.4614147 -0.9451824 -0.26739407 -0.34343335 -0.12821835 0.10673989 -0.034745205 0.21838152 0.12163638 -0.5685094 -0.46123907 -0.012841127 -0.3669503 -0.7643389 -0.7629467 -0.5271112 0.58957416 0.045597956 -0.30653334 0.006212418 0.3241266 0.6716538 0.059139308 -0.29195136 0.36410168 -0.26097646 -0.08793241 -0.068639986 -0.48515812 0.70684385 0.04334941 0.41278577 -0.462365 0.5445933 -0.4703715 -0.2800076 0.37362534 0.2584417 0.18054229 0.566433 -0.22920705 -0.298683 -0.24272597 -0.5032479 1.1436896
144855 0.26250643 -0.117652185 0.21309002 -0.35569838 0.49872622 -0.037088044 -0.02102712 0.5874903 0.5544425 -0.63922095 0.37963283 0.2240283 -0.0011358258 -0.18380398 0.25396913 -0.31038818 -0.51782 -0.18150637 0.19811073 0.1914098 -0.14705013 -0.2030033 -0.43317837 0.06828053 -0.08211281 0.2988931 -0.17706014 -0.23267868 0.22456461 -0.48641145 0.747565 0.082729176 -0.16240461 -0.22524126 -0.29013485 0.32220078 0.35553667 -0.35474133 -0.13091113 0.5992782 0.30917874 -0.40099627 -0.39323023 0.08566907 -0.72409433 0.080635056 0.28243083 0.11113741 0.5515415 -0.2501177 0.2706759 0.19859612 1.0756025 0.5414378 -0.38226068 0.94044286 0.15576188 0.5126937 0.08699873 -0.0068324716 -0.012322922 -0.72316283 -0.12334969 0.41632468
149774 -0.6316572 -0.52324325 0.76313627 -0.19243242 -0.048376776 -0.13439757 -0.1590156 -0.6673251 -0.13823046 -0.9181845 0.2925553 0.726485 0.4241164 -0.42889827 -0.08915345 -0.08033848 -0.8306416 -0.27489224 0.7135788 -0.92188376 -0.1435835 -0.1547091 -1.3867966 -1.2023546 0.4562095 0.11519375 -0.18198743 -0.5491489 1.4282649 0.63671786 0.58199525 -0.7624649 0.03752278 1.3937662 -0.5643626 0.70370376 1.2806932 -0.3435579 0.32058007 -0.017103367 0.25624076 0.28508264 0.35731244 -1.0160025 -1.1641616 0.1904148 -0.3282472 -0.23829475 -0.07674941 0.31267583 1.1085654 -0.1268145 -0.21080185 0.17665692 0.7578463 -0.31636727 0.8638365 0.08059583 -0.03312537 1.0910593 0.043191623 0.8356716 -0.9642855 0.39003596
150715 -0.13537052 0.061089322 1.2442983 -0.9451305 1.459573 0.6548382 0.42348823 0.2961713 0.08973047 -0.2484454 0.05971777 1.199716 0.4834269 -0.76445913 0.32690138 -0.23502353 -0.26559824 0.72675383 0.77252096 0.7711712 -0.4145868 -0.1408374 -1.0683924 -0.13110788 0.44558123 0.11772276 -0.32882136 0.4814067 -0.39580214 -0.09435713 0.58120203 0.29082772 -0.34950358 -0.48853618 -0.027706757 1.1339736 0.6864562 0.7102123 1.0595795 0.6103769 0.24644813 -0.66114616 -0.57647413 -0.52600145 0.23846473 0.4838061 0.6804562 0.19640656 0.046465002 0.23089813 0.563312 -0.81999415 -0.7049827 -0.89592034 0.21101573 0.836568 1.1031785 0.34645993 0.8464692 0.25019073 -0.2650714 -1.2245728 -0.678242 1.07375
145952 -0.3221037 0.18322937 0.03589677 0.043529533 -0.157563 -0.20750059 -0.2668397 -0.86896056 -1.3195783 0.07417638 -0.7081797 0.3184172 -0.40762642 0.52941227 0.5473444 -0.09992548 -0.56996626 0.069488525 0.23192716 -0.7482151 0.07219907 0.36723638 -0.21875238 -0.3887471 -0.8015974 0.5280316 0.26639098 0.61178565 -0.23685594 -0.41863814 0.014925375 -0.1532413 -0.16465943 -0.5259625 -0.17755866 0.22042438 0.26215777 0.2817491 0.24548349 0.84378 0.3750152 0.19882137 -0.59809345 0.39875177 -0.37710956 0.46883193 -0.12936749 -0.5767735 0.18290664 0.088120416 0.7920726 -0.077774525 0.27257997 0.047066092 0.8262394 0.33513036 1.1509774 -0.8710347 -0.4678308 -0.45959562 1.1998754 0.10282707 -0.6097553 -0.12758999
146094 -0.14347397 -0.42147627 -0.1354329 -0.13470566 -0.04264893 -0.3907759 -0.47535032 -0.21516377 -1.432163 0.49670732 -0.59359103 0.26677853 -1.0539182 0.61894387 -0.069397315 -0.7652987 -0.43613806 -0.13239975 0.79278576 -0.18587996 0.59360355 0.7588303 -1.0311326 0.07909438 -0.119384564 0.5087446 0.14206816 -0.012299509 -1.0892276 -0.605162 0.06492723 -0.26939282 0.23736607 0.05759512 0.25227633 -0.045609206 -0.40705013 0.79322386 0.03553994 0.9597875 0.19703811 -0.04413209 -0.89231676 0.37935126 0.4862986 0.8380593 -0.12659667 -0.20544364 0.16741922 0.49230593 0.4586355 -0.2839989 0.8419199 0.38682178 0.3682704 0.74289334 0.8446557 -0.22926496 -0.42421308 0.15419815 0.6023174 -0.1830568 -0.08812896 0.32260045
140983 -0.13880396 -0.09734624 0.100762166 -0.8688828 1.0477885 0.36668915 0.27872112 -1.0212206 -0.5497211 0.2921327 0.6730691 0.57226026 -0.25016174 1.219952 -0.29999882 -0.7540459 -0.022623176 -0.18080685 -0.91560924 0.8251185 1.1878425 1.339871 -1.6249235 -0.6817898 0.13500397 1.1071522 0.5659185 0.7287033 -0.44524187 -1.0308568 0.3420185 -0.01361764 0.8768432 -0.8422296 0.32986957 -0.10375279 -0.28795058 -1.1766632 1.3911529 0.15488318 -0.49515954 -0.29656178 -0.37665182 0.85517377 -0.6127827 0.5415598 0.17445539 0.07666187 -1.1105005 -0.31132653 1.2583923 0.63265073 0.18718722 0.027559854 0.28449675 -0.18640678 0.29774094 -1.5107017 -0.35310706 0.43995094 0.13463995 0.3526481 0.31804457 0.27442813
151095 -0.2798311 -0.39270335 0.2124954 -0.8557914 0.39314204 -0.026666852 0.18185551 0.57249576 0.5214875 -1.0092595 0.11850307 0.07901259 0.08957207 -0.23029397 0.18080619 -0.7571728 -0.2496727 0.35090187 0.018203976 -0.47935814 -0.18388169 -0.35094252 -0.33457065 -0.33689705 0.019465674 -0.16117206 -0.036778875 0.2560512 -0.12887962 -0.5243609 0.7867083 0.39886627 0.20761622 -0.73437446 -0.4116942 0.20589074 0.67108995 0.2712179 0.29182526 -0.28171495 -0.2448658 0.21265823 -0.5288961 0.28043035 -1.0329947 0.75658065 -0.24217996 -0.3547419 0.84767956 -0.027298868 0.5193198 -0.21114041 0.86370814 0.06563612 -0.83965313 0.21819295 0.83696777 0.41666353 0.31652957 0.0020280587 -0.16497108 -0.5856951 -0.6962537 0.6546471
141320 0.0071450095 -0.2659025 -0.12754373 -0.17298794 0.7113576 -0.15811972 -1.311969 -0.5205094 -0.31771597 -0.90011036 -0.6172099 0.08846493 0.31430313 1.0397995 -0.12335973 -0.7053111 -1.215168 0.13967589 0.3762288 -0.36248887 1.0001042 0.22498944 -0.52815205 -0.34868762 0.33606613 0.008736301 -0.25488877 -0.4634322 0.066580586 -0.06951554 0.3943772 -0.7235271 -0.09790052 -0.027273828 -1.0423195 -0.09299198 -0.6737582 0.007176265 0.41047916 0.7548362 0.08730926 1.0557151 0.43743482 0.26896688 -0.09767482 0.9730214 -0.7065995 0.0014115461 0.23166762 0.6458321 0.5432253 0.22762513 0.25443983 -0.42191452 0.4381473 0.5943621 -0.97418004 -0.7177085 -0.7242948 -0.1513379 0.57395226 -0.64256305 -0.19125219 -0.4962064
148985 0.5741906 -0.2106689 0.67850703 -1.2790251 0.64297444 -0.509772 -0.74337775 -0.19005919 0.10005722 -0.68796796 0.0600021 0.30820408 -0.23484166 -0.9762623 0.5768726 0.31937343 0.9932767 0.20339997 -0.44731906 -0.042876206 -0.11620179 0.82985616 -0.41639724 -0.98045504 0.3219697 0.27731702 0.11875132 -1.3919417 -0.19248408 -0.93045396 1.28285 0.036447007 0.25225088 -0.18613166 0.041339345 1.3783106 -0.24749574 -0.7478385 0.14608176 0.002950837 -0.32474628 -1.3134896 -0.61164814 -0.8021208 -0.30859485 0.007382311 -0.354282 0.13216999 0.49082693 -0.37015903 0.29013658 -0.17193109 -0.10590876 -0.7139126 0.8504688 -0.2505575 0.99287605 0.24108164 -1.3382685 -0.64856535 0.6467259 -0.3863692 -0.631244 -1.0090373
145824 -0.4968651 -0.39093122 -0.2848452 -0.20924419 0.6565703 0.23463516 -0.39088932 0.423756 0.6740141 -1.0077213 0.5950157 -0.14769085 -0.6356891 -0.4422325 -0.015752256 -0.18949807 -0.4509659 0.25212884 -0.08773847 -0.34904268 0.07742713 -0.13881893 -0.71195656 0.65185755 0.20513664 0.21442758 -0.5546717 0.5340642 -0.7641793 0.1364241 0.35196763 -0.32889068 -0.82267094 -0.32403672 -0.2711115 0.34291437 0.18140343 0.14895141 -0.1735813 -0.4143522 0.29063147 -0.40240362 -0.049522884 0.14343797 -0.98292166 -0.021547541 -0.38132632 0.22699979 0.224165 0.65729797 0.28665754 -0.5403059 0.26541448 0.3849998 -0.14725655 0.8240243 0.30887383 0.54637873 0.0614969 0.26153123 -0.1838719 -0.3118443 0.15521505 0.5992835
148749 0.51052034 -0.40922222 -0.20979428 -0.40877435 0.42610782 0.112921104 -0.11224109 0.10983988 -0.4331105 -1.153326 -0.10847806 -0.51024175 0.19028723 -0.30401877 -0.087171115 0.5957772 -0.9658433 0.65128255 0.14374743 0.26331428 0.099174954 0.49314073 0.12988901 -0.09670086 0.7736848 0.6606306 -0.31387892 0.42524403 0.10564282 -0.3975578 -0.2415231 -0.4783486 0.24873526 0.55164963 0.5900801 0.4238962 -0.21221237 -0.13707466 0.88402915 0.81000566 0.5601231 -0.20966159 -0.070696734 0.015966535 0.041215774 0.62829214 0.15435532 0.374747 -0.18274249 0.4335274 -0.15309308 0.32012916 -0.032958258 0.6682625 0.33781102 -0.26215342 0.9430726 0.6725866 0.24816123 -0.47617185 -0.04696274 0.18409003 -0.533224 -0.31197238
